	0	1	2	3	4	5	6	7	8	9	10	11	12	13	14	15	16	17	18	19	20	21	22	23	24	25	26	27	28	29	30	31	32	33	34	35	36	37	38	39	40	41	42	43	44	45	46	47	48	49	50	51	52	53	54	55	56	57	58	59	60	61	62	63	64	65	66	67	68	69	70	71	72	73	74	75	76	77	78	79	80	81	82	83	84	85	86	87	88	89	90	91	92	93	94	95	96	97	98	99	100	101	102	103	104	105	106	107	108	109	110	111	112	113	114	115	116	117	118	119	120	121	122	123	124	125	126	127	128	129	130	131	132	133	134	135	136	137	138	139	140	141	142	143	144	145	146	147	148	149	150	151	152	153	154	155	156	157	158	159	160	161	162	163	164	165	166	167	168	169	170	171	172	173	174	175	176	177	178	179	180	181	182	183	184	185	186	187	188	189	190	191	192	193	194	195	196	197	198	199	200	201	202	203	204	205	206	207	208	209	210	211	212	213	214	215	216	217	218	219	220	221	222	223	224	225	226	227	228	229	230	231	232	233	234	235	236	237	238	239	240	241	242	243	244	245	246	247	248	249	250	251	252	253	254	255	256	257	258	259	260	261	262	263	264	265	266	267	268	269	270	271	272	273	274	275	276	277	278	279	280	281	282	283	284	285	286	287	288	289	290	291	292	293	294	295	296	297	298	299
Algrebra|Elementary_algebra|0	0.17267396	-0.03066402	0.0061251875	0.07032945	-0.16717142	-0.060326483	-0.083862096	0.017661197	-0.017489282	0.055517968	-0.13797551	-0.043983486	0.029883247	0.045032892	-0.019079147	-0.090069346	0.057898697	-0.0514966	-0.051751625	-0.050149105	-0.10373047	0.086091235	0.11163974	-0.02815888	0.21239376	-0.17358893	-0.0672772	-0.30188754	-0.081925996	0.056762423	-0.02443895	0.023495704	-0.12637243	-0.14969765	0.0108149955	0.16585292	-0.10111692	-0.098999806	0.0690774	-0.051815268	-0.12633751	0.13252534	-0.038183745	0.18578552	-0.06792298	0.027172698	0.12154911	0.12827016	0.061127152	0.026965486	0.04883553	-0.11858129	0.12600027	-0.18468235	-0.04465805	-0.007876678	0.03014911	-0.0100107705	0.18267125	0.13584112	-0.049253475	-0.0053066243	-0.14240275	-0.1076216	-0.04989709	0.05344001	-0.031588767	0.11119524	0.047194067	0.015136925	-0.044190012	0.033553373	0.06382045	-0.006288357	-0.02956171	-0.029720021	-0.07732853	-0.12323205	-0.08328264	0.01668389	0.0012397454	-0.105113596	-0.14088078	-0.25556377	0.04750242	0.098870516	0.02391489	-0.27203995	-0.005790979	-0.0051568868	0.13116224	-0.10930485	0.103708595	0.11632953	-0.133116	0.017653903	-0.08796522	-0.11722723	-0.12129471	-0.011058612	0.02778797	0.07573224	-0.059942827	-0.024660198	0.13205981	0.022124715	-0.20829014	0.09891899	-0.024540521	0.04798567	0.019271128	0.030504627	0.09607404	-0.07391692	0.16990617	-0.12778193	0.10918098	-0.21697517	-0.12952465	0.1316889	-0.06716789	-0.025311023	-0.1564767	0.10288814	0.1432779	-0.15579042	-0.034375902	0.022643762	-0.087037645	0.060113285	-0.02467581	-0.06751112	-0.056821167	-0.028532248	0.11071637	-0.05187596	0.015166028	-0.039841834	0.068238564	-0.02652326	0.1480671	0.10946429	-0.14780897	-0.079002194	-0.037661854	-0.1072928	-0.09606472	0.0030346287	0.077328555	-0.09178953	-0.036789734	0.025565643	0.15970653	0.17823215	-0.010789823	-0.02658433	-0.016787497	-0.17561786	0.04250593	-0.032831598	-0.050698925	0.09397561	-0.06013273	-0.026906239	0.10799164	0.26378298	0.10204287	-0.07173783	0.027757252	-0.021615703	-0.10526123	0.022862941	0.075459495	0.07051975	0.031009328	-0.073593445	-0.014086091	0.1341318	0.011078831	-0.17718975	0.015977956	0.0136742685	0.088989824	-0.1687879	-0.1068521	0.035491586	0.040431827	-0.024855249	0.042161908	-0.10876663	0.01139074	-0.09926867	-0.082088776	0.007173063	0.06887868	0.108986706	-0.18027554	-0.021996392	-0.17889033	-0.081463724	-0.003550151	0.09134829	0.048797294	-0.068466514	-0.08314493	-0.0059888884	0.046257243	0.045700904	0.2028348	-0.10888064	-0.05297543	-0.2048102	0.09719264	0.0767911	0.17625852	-0.035398655	-0.026633387	0.06618487	-0.025357934	0.028522693	-0.021348191	0.15076452	-0.021680819	-0.1466137	0.07566928	0.04658542	0.07174963	-0.0048743463	-0.18402548	-0.17159835	-0.023546303	0.04025579	0.1337598	0.0027752907	0.11906886	0.0681197	-0.109969445	-0.03000869	0.00188747	0.02715104	-0.15927912	0.044802282	0.016769331	-0.05474434	0.18994719	-0.006972156	-0.08586871	0.026015818	-0.013427555	-0.08085573	-0.106422305	-0.13222235	-0.084507294	-0.020896107	0.0537058	-0.13923638	0.107237674	0.060246956	-0.01590818	-0.07755499	-0.17533645	0.0187401	0.16102758	0.032377694	-0.006960641	-0.119316965	0.09305239	0.10927677	-0.1118668	0.14203143	-0.08946601	-0.17308952	-0.0078000086	-0.07581712	0.11142781	0.16674937	-0.050204765	-0.08834401	0.14276506	-0.07722692	-0.08170676	0.089217275	-0.026870554	-0.08065262	0.050782975	-0.1909809	-0.11975238	-0.07900762	0.18623017	0.06601553	0.024317594	-0.033791576	0.21743554	-0.02435789	0.11211588	-0.01591608	0.13299598	-0.0028416512	0.0112963375	-0.07922074
Algrebra|Elementary_algebra|1	0.20625566	-0.03632024	0.00769455	0.08382446	-0.19882208	-0.07356466	-0.09985767	0.021574702	-0.021434516	0.06541996	-0.16534837	-0.05221253	0.035819154	0.055393368	-0.022015696	-0.10772719	0.06851712	-0.060471542	-0.06259119	-0.05828379	-0.12408373	0.1020883	0.13178328	-0.033245284	0.25354415	-0.20809881	-0.079309925	-0.3604088	-0.09663448	0.067525536	-0.029318871	0.028581599	-0.15063345	-0.17797087	0.011881437	0.19830298	-0.120740905	-0.11891903	0.08330436	-0.06124318	-0.15066043	0.15745987	-0.045056257	0.22237039	-0.08086498	0.0321322	0.14362216	0.15366723	0.07255497	0.031836662	0.058252968	-0.13986987	0.15079911	-0.219455	-0.05431464	-0.009766844	0.034725085	-0.01034481	0.21763481	0.16328788	-0.058933623	-0.0068558184	-0.16973385	-0.12715961	-0.060390614	0.06405015	-0.037440017	0.13126613	0.05616466	0.017986573	-0.05135139	0.04044029	0.07589793	-0.0061193537	-0.035053052	-0.03462753	-0.09343263	-0.14619853	-0.100913286	0.02020627	0.0015789883	-0.12601182	-0.16741015	-0.30546468	0.0568379	0.119401775	0.027343713	-0.32475066	-0.007865787	-0.0063413754	0.15602553	-0.13122672	0.12420892	0.13860568	-0.15815069	0.02158003	-0.10603312	-0.14018469	-0.14444351	-0.013648409	0.033287756	0.09057233	-0.07175659	-0.02887459	0.15624833	0.025188347	-0.24834308	0.11878862	-0.030325696	0.05755698	0.023384735	0.03626579	0.11479895	-0.08704174	0.2019053	-0.15267411	0.13093422	-0.2582339	-0.15345734	0.15714353	-0.079782985	-0.030343553	-0.18692821	0.12073645	0.16975066	-0.18606567	-0.04163521	0.02842643	-0.1034552	0.071131125	-0.029905362	-0.08081932	-0.06557864	-0.03357693	0.1323629	-0.06255153	0.017994395	-0.047458157	0.08116263	-0.032173425	0.17751154	0.13083524	-0.17636177	-0.09490962	-0.045050055	-0.12774129	-0.11524666	0.003611919	0.09176264	-0.108538605	-0.042864688	0.031309754	0.19092365	0.21229976	-0.013753036	-0.033064697	-0.019005788	-0.21017791	0.051228754	-0.038583774	-0.060780335	0.1113352	-0.070910804	-0.03250812	0.12826334	0.3139912	0.12160073	-0.08511658	0.033289276	-0.025966441	-0.12439764	0.028496757	0.08961752	0.08421992	0.037322555	-0.08765993	-0.016839469	0.15846878	0.01418836	-0.21168108	0.018722981	0.01664779	0.10791755	-0.20077436	-0.12936363	0.040663783	0.04847317	-0.029480083	0.050206184	-0.12970462	0.013560526	-0.117935225	-0.09917179	0.009429085	0.08113577	0.1289686	-0.21518098	-0.026204627	-0.21284415	-0.0971252	-0.0046038143	0.10824411	0.05787222	-0.080765344	-0.09909752	-0.0076910146	0.055600367	0.05404082	0.24111667	-0.12937944	-0.06318261	-0.24390595	0.116038814	0.09328328	0.210223	-0.042255796	-0.031098913	0.07934518	-0.031052321	0.0343061	-0.025405182	0.17896153	-0.02501111	-0.17469868	0.089706235	0.05483337	0.08606777	-0.004830497	-0.21844754	-0.2049887	-0.027684657	0.048243523	0.15999468	0.001672613	0.14238378	0.08250027	-0.13069698	-0.035754308	0.0018162123	0.03276506	-0.18911035	0.053480968	0.02014283	-0.065818116	0.22674832	-0.009101527	-0.10308048	0.032002047	-0.016604798	-0.0973586	-0.12513776	-0.15621313	-0.10126335	-0.024865672	0.06470508	-0.16631316	0.12814459	0.07199557	-0.018897856	-0.093005165	-0.20934805	0.021839019	0.19255532	0.038275976	-0.00909818	-0.14361934	0.11246325	0.13032658	-0.13322577	0.16886435	-0.10600049	-0.20686051	-0.009472049	-0.09035258	0.13166444	0.19884375	-0.058540516	-0.10516902	0.16939333	-0.09255154	-0.09694518	0.1072116	-0.03157928	-0.09649151	0.059832968	-0.22708547	-0.14339007	-0.09344589	0.22166832	0.0799003	0.02992944	-0.040407937	0.25864238	-0.028709112	0.1325115	-0.018489543	0.15845646	-0.0039944146	0.0130247045	-0.09446475
Algrebra|Elementary_algebra|2	0.20348707	-0.03602221	0.007335537	0.08222045	-0.19752963	-0.072982095	-0.09853343	0.021682683	-0.022051051	0.06552471	-0.16402087	-0.051003754	0.033777855	0.054625195	-0.022077499	-0.10655669	0.06838195	-0.060548015	-0.06223815	-0.057798665	-0.122830845	0.10108139	0.13172112	-0.032755483	0.25130424	-0.20562494	-0.07999795	-0.35715804	-0.09574692	0.0681165	-0.028846735	0.02842905	-0.1504118	-0.17724437	0.012310622	0.19731703	-0.11964979	-0.11793383	0.08174968	-0.061097376	-0.14934954	0.15710267	-0.04359173	0.21971226	-0.08135029	0.032595236	0.1431386	0.15311565	0.07097741	0.031856723	0.057450283	-0.14020972	0.14793418	-0.21836583	-0.055041812	-0.0087429825	0.03511048	-0.010085752	0.21669447	0.16123475	-0.057724725	-0.0058023417	-0.16991234	-0.1269936	-0.058144014	0.06267297	-0.03802138	0.12984727	0.057020195	0.017803289	-0.052941345	0.039629035	0.07512893	-0.0071276426	-0.034589924	-0.03411043	-0.09198581	-0.14379077	-0.09822072	0.019668672	0.0015634291	-0.12452872	-0.16558762	-0.30189887	0.055537354	0.117901504	0.027786717	-0.3221607	-0.0075477017	-0.0065328106	0.15405506	-0.1286582	0.12193452	0.13625866	-0.15630612	0.01967226	-0.10404742	-0.13861412	-0.14445633	-0.012389611	0.032718107	0.08932423	-0.06962088	-0.02810412	0.15453881	0.02509227	-0.2463099	0.11772196	-0.02825014	0.057436693	0.023336705	0.03595587	0.11286483	-0.08754305	0.19980498	-0.15096709	0.1282771	-0.25670215	-0.1519148	0.15615168	-0.07877397	-0.02903482	-0.18559384	0.121901214	0.16842094	-0.18446782	-0.040880583	0.025959706	-0.10195856	0.0701929	-0.029950181	-0.079463705	-0.06649628	-0.032097816	0.13164265	-0.06235538	0.018886175	-0.047864802	0.08128814	-0.032731976	0.17430279	0.12963124	-0.17437391	-0.093653336	-0.043780804	-0.12724148	-0.11385064	0.0037871737	0.0916649	-0.10816622	-0.042654924	0.030998405	0.18911882	0.21054688	-0.0136005925	-0.032694492	-0.019592369	-0.20898846	0.049093653	-0.038921956	-0.06044542	0.11103921	-0.07175116	-0.031912584	0.12732947	0.31239462	0.12151258	-0.085365996	0.031411707	-0.026533773	-0.12197467	0.026853526	0.089005716	0.08430263	0.03715638	-0.08782453	-0.017918129	0.15859523	0.013261206	-0.21009257	0.017906923	0.016829116	0.10781057	-0.1985664	-0.12632547	0.040318172	0.048601165	-0.029123228	0.049607433	-0.12879664	0.013033293	-0.11796127	-0.09717177	0.009636203	0.08113384	0.12765883	-0.21356198	-0.024906477	-0.21030276	-0.09681128	-0.0047898144	0.10783285	0.057795197	-0.080498114	-0.09836293	-0.008198094	0.055659067	0.053650845	0.23976783	-0.12818204	-0.062491726	-0.24177611	0.11523984	0.094233476	0.20856158	-0.04237775	-0.030053526	0.07806702	-0.030641448	0.033858776	-0.02418651	0.17712048	-0.023907542	-0.1727389	0.08934962	0.053671658	0.0858465	-0.005574659	-0.21658945	-0.20439939	-0.028364679	0.04772877	0.15855636	0.0026205224	0.1403627	0.081970364	-0.12901603	-0.03510335	0.0009092428	0.03267407	-0.18844157	0.052223664	0.019897554	-0.06477714	0.22562122	-0.008283766	-0.10082499	0.029947406	-0.016055841	-0.09703314	-0.12539275	-0.15668215	-0.10078672	-0.025002146	0.06287723	-0.16473791	0.12599798	0.071031034	-0.019125713	-0.092188515	-0.20693178	0.02194993	0.19024613	0.038529545	-0.008644817	-0.14277746	0.111625	0.12871683	-0.13418747	0.16702878	-0.10521462	-0.20526624	-0.0092361905	-0.08861327	0.13183579	0.19865802	-0.059200518	-0.10514338	0.16817549	-0.09054367	-0.097151	0.105676726	-0.03202037	-0.094258524	0.059042074	-0.22488995	-0.1431965	-0.091869906	0.21933177	0.077641375	0.029421711	-0.041613735	0.25624943	-0.028976128	0.1324456	-0.01712476	0.15687457	-0.003485494	0.013533522	-0.09308051
Algrebra|Elementary_algebra|3	0.16575883	-0.028188813	0.0057420977	0.067716576	-0.15806429	-0.05660453	-0.08128592	0.015987892	-0.015506721	0.05305102	-0.13154034	-0.040988237	0.029121207	0.041874435	-0.018053062	-0.08572697	0.054581266	-0.0498404	-0.04927039	-0.048005823	-0.09910646	0.08224425	0.10681226	-0.025627116	0.20328285	-0.16686967	-0.06303962	-0.28795633	-0.07907773	0.052086677	-0.021670295	0.021289414	-0.12104999	-0.14123634	0.011105002	0.15735513	-0.09475889	-0.094215766	0.06536461	-0.05025944	-0.11828294	0.124778144	-0.036698308	0.17856166	-0.06557168	0.025097592	0.11415468	0.12301422	0.056668088	0.025525331	0.046734232	-0.11236751	0.12027865	-0.17426035	-0.041916344	-0.0063501834	0.029206213	-0.009082967	0.17465523	0.12926944	-0.046229452	-0.004831518	-0.1350638	-0.1025568	-0.049083486	0.050801486	-0.02996666	0.10600521	0.043918323	0.013867755	-0.04159434	0.03024307	0.059849143	-0.004868903	-0.026842495	-0.02868726	-0.072746284	-0.11874105	-0.0788284	0.017140646	-0.00044829497	-0.098134436	-0.13438192	-0.24418102	0.045661066	0.09409259	0.024096167	-0.2601849	-0.004925918	-0.0066161775	0.12502	-0.10311575	0.09912218	0.1112187	-0.12737903	0.017234044	-0.08461339	-0.112867326	-0.11508482	-0.0102634495	0.025293406	0.070912085	-0.058480233	-0.023297366	0.12648152	0.020962857	-0.19677171	0.09455103	-0.024250207	0.046221066	0.017173763	0.027849471	0.09004074	-0.07099152	0.16211598	-0.121015966	0.10258595	-0.20599505	-0.12452182	0.12667096	-0.06176706	-0.025287693	-0.1481801	0.097205915	0.13754827	-0.14875776	-0.033214457	0.022865327	-0.08193082	0.057162203	-0.022723269	-0.063194	-0.05304287	-0.027540088	0.10448746	-0.04804283	0.015651379	-0.038688254	0.06550719	-0.023920517	0.1421136	0.10335158	-0.14185914	-0.07638829	-0.033945378	-0.10234922	-0.09053484	0.0019787776	0.07282167	-0.08829441	-0.035625067	0.025030876	0.15164347	0.16780265	-0.009370599	-0.024127042	-0.017598577	-0.16772687	0.04117289	-0.031523783	-0.048687257	0.09073669	-0.05869102	-0.025636522	0.10330014	0.24918446	0.0951361	-0.067610264	0.027855527	-0.021222187	-0.09997269	0.022112971	0.071147665	0.066049345	0.030761916	-0.069175445	-0.013248257	0.12836316	0.011436596	-0.16833934	0.014783994	0.012915274	0.083606824	-0.16145536	-0.10226922	0.03453547	0.039667487	-0.024122255	0.03938901	-0.10494389	0.011019204	-0.095225334	-0.076350674	0.0054192147	0.065153666	0.104655474	-0.16971385	-0.020794302	-0.17120832	-0.078166716	-0.0038104102	0.08771139	0.047680296	-0.064134315	-0.07978556	-0.0035930611	0.042620406	0.041967116	0.1931649	-0.10531218	-0.04925199	-0.19578837	0.09263609	0.072201386	0.16770978	-0.0341175	-0.026827795	0.06397591	-0.024665168	0.02581369	-0.01964738	0.14465958	-0.021514442	-0.1383653	0.072518855	0.045794364	0.06725678	-0.0039906674	-0.17525916	-0.16177303	-0.02376044	0.04010597	0.1284845	0.002922755	0.11222872	0.06445942	-0.105520874	-0.029351152	0.0024148594	0.024792023	-0.15203154	0.044191517	0.014489469	-0.051075786	0.17887068	-0.006224205	-0.08316609	0.023448914	-0.014315112	-0.07718715	-0.10136726	-0.12596557	-0.08126982	-0.018519605	0.05111474	-0.13304737	0.10253522	0.058074713	-0.014960731	-0.0742076	-0.16619799	0.016043702	0.15171586	0.030867718	-0.0054360614	-0.11286451	0.088012435	0.10433264	-0.106224604	0.13614109	-0.08301215	-0.1662175	-0.00554199	-0.07261801	0.10493227	0.15825424	-0.048090763	-0.08416912	0.13708845	-0.072431125	-0.07870246	0.085285306	-0.025364518	-0.07851365	0.048323106	-0.18198776	-0.11268177	-0.07536479	0.17710625	0.06243839	0.024439784	-0.031043096	0.20734666	-0.023505699	0.10684947	-0.016704628	0.12671348	-0.0040018596	0.010809535	-0.07656263
Algrebra|Elementary_algebra|4	0.21458715	-0.037986092	0.008437851	0.08846711	-0.20707807	-0.075479046	-0.10353967	0.021496123	-0.022619588	0.06791965	-0.17176722	-0.054318663	0.037702423	0.056483302	-0.023240196	-0.11193809	0.071462415	-0.064180836	-0.06408582	-0.06136067	-0.12969877	0.106189325	0.13756777	-0.035023455	0.26351365	-0.21665101	-0.08233316	-0.37550038	-0.10157766	0.06967028	-0.030169712	0.029498424	-0.15650095	-0.18577527	0.01280945	0.20649008	-0.1253267	-0.123815246	0.08579382	-0.06401677	-0.15613844	0.16335106	-0.04675066	0.23178524	-0.08442378	0.032536324	0.15027946	0.15984605	0.07554479	0.034541123	0.060228277	-0.14556925	0.1568443	-0.22870542	-0.055469077	-0.009497001	0.036414456	-0.011286241	0.22544363	0.16965763	-0.061129358	-0.007410685	-0.17565876	-0.13213043	-0.06335684	0.06696896	-0.038089063	0.1368594	0.05875162	0.018849842	-0.053637072	0.04140259	0.07878451	-0.006678729	-0.03694554	-0.036150906	-0.095854364	-0.15302207	-0.104619406	0.020668583	0.00086426333	-0.13057134	-0.17457503	-0.3180721	0.058638025	0.12264828	0.029616835	-0.33816305	-0.007926527	-0.0070093283	0.16264574	-0.13591342	0.12990256	0.14489804	-0.16498558	0.022926295	-0.11053433	-0.14636332	-0.14973138	-0.014516052	0.03421156	0.09323883	-0.07560099	-0.029575933	0.16283253	0.025992226	-0.25762823	0.12342284	-0.031042844	0.059981905	0.024507824	0.036873598	0.11897674	-0.09095521	0.21035044	-0.15888675	0.13594228	-0.2689286	-0.16086467	0.16380681	-0.08187462	-0.032435697	-0.19322444	0.1259803	0.1786875	-0.19343898	-0.043304995	0.029402673	-0.1066784	0.074590884	-0.030887194	-0.08432759	-0.069526866	-0.0351925	0.13821858	-0.06510659	0.018189518	-0.048867147	0.08505802	-0.03357289	0.18457904	0.13579077	-0.1839445	-0.09837843	-0.047292307	-0.13315417	-0.11973765	0.0037345956	0.09611323	-0.113810524	-0.045037605	0.03206975	0.19808817	0.22108382	-0.0132211745	-0.033624016	-0.02032959	-0.21834055	0.05262779	-0.040128525	-0.063370846	0.11570027	-0.07481627	-0.034748428	0.1333153	0.3270914	0.1257182	-0.08832857	0.034841377	-0.02664281	-0.13045219	0.029513644	0.093457334	0.08703471	0.0391516	-0.091508284	-0.017256403	0.16576089	0.014707043	-0.22002526	0.019719753	0.01711092	0.11109303	-0.20978776	-0.13423347	0.042796288	0.05003638	-0.030117841	0.052756224	-0.134054	0.013416635	-0.122581616	-0.101514764	0.009714917	0.08502872	0.13572435	-0.22416066	-0.028100286	-0.22223082	-0.10030139	-0.0048721856	0.11367885	0.060680363	-0.08309392	-0.102668405	-0.0066765067	0.057562992	0.05691932	0.2509474	-0.1348919	-0.066407	-0.25415483	0.12115571	0.09522747	0.21832938	-0.044251543	-0.03281891	0.082864396	-0.03274015	0.034955256	-0.025995763	0.1866667	-0.026087232	-0.18190143	0.09265314	0.058814768	0.09005101	-0.004659921	-0.22767912	-0.21250944	-0.028296733	0.050330475	0.16638899	0.0021103597	0.14814745	0.085269526	-0.13551393	-0.038022395	0.0028601922	0.03308837	-0.1968613	0.0561689	0.02016276	-0.068451665	0.23532754	-0.009880775	-0.1079982	0.033431627	-0.016672386	-0.10145388	-0.13029255	-0.16313672	-0.10537146	-0.025226582	0.06707357	-0.17357801	0.13365795	0.075331666	-0.019931413	-0.09724458	-0.21736805	0.021738611	0.19970825	0.038050376	-0.009550994	-0.14945965	0.11685757	0.13567208	-0.13843901	0.17606606	-0.11005001	-0.21585594	-0.008980173	-0.094614394	0.13659984	0.20656882	-0.061017428	-0.11007964	0.17683023	-0.096580535	-0.10030422	0.11104563	-0.03355285	-0.10051461	0.06239198	-0.23653135	-0.14861517	-0.09744074	0.23118757	0.08338714	0.031201778	-0.041022692	0.26920256	-0.02931081	0.13793442	-0.020409638	0.16501896	-0.005020221	0.014678022	-0.09894476
Algrebra|Elementary_algebra|5	0.17226748	-0.030147763	0.0061149206	0.07026545	-0.16622622	-0.06013075	-0.084389605	0.01698185	-0.017617749	0.055499304	-0.1371999	-0.04390648	0.029841075	0.044852387	-0.018772403	-0.08965684	0.05791621	-0.051391598	-0.05182141	-0.049384136	-0.10418359	0.08561095	0.11088452	-0.028379945	0.21145917	-0.1729665	-0.066757664	-0.30152208	-0.08195132	0.056406885	-0.024350224	0.023178274	-0.1261046	-0.14878605	0.011022043	0.16483308	-0.1002124	-0.099348806	0.06910925	-0.051446557	-0.12537448	0.13227053	-0.038255576	0.18611558	-0.06715154	0.02689056	0.12112122	0.12815553	0.06079875	0.027293576	0.048262943	-0.11787512	0.12595473	-0.18427068	-0.044559643	-0.007973035	0.029934997	-0.009809853	0.18174659	0.13591869	-0.048719075	-0.005592913	-0.14117368	-0.106745295	-0.050571606	0.053939085	-0.030692339	0.11043353	0.046735052	0.015430841	-0.04335402	0.033434186	0.063834526	-0.0063743773	-0.0291045	-0.02940706	-0.07672443	-0.12306673	-0.08358573	0.016887838	0.0012085228	-0.1045774	-0.14070024	-0.2551016	0.04762618	0.098631896	0.023999555	-0.2714392	-0.005969519	-0.005773131	0.13073921	-0.109428175	0.103942655	0.115974806	-0.13293272	0.018641034	-0.087426595	-0.11724169	-0.12118966	-0.012060727	0.02760006	0.07518679	-0.060496423	-0.024944462	0.13123281	0.021998094	-0.2072202	0.098473616	-0.025088964	0.0475789	0.019058712	0.030499712	0.09569443	-0.07378132	0.16951436	-0.12761563	0.10904482	-0.21633619	-0.12966718	0.13182315	-0.06644816	-0.025656989	-0.15636967	0.10251802	0.14283805	-0.1552196	-0.034208246	0.023269976	-0.08595091	0.060074877	-0.024405807	-0.06735062	-0.05615076	-0.028592914	0.11015492	-0.051556695	0.014997083	-0.03944168	0.06838424	-0.026416792	0.14795847	0.10906035	-0.14718895	-0.078653164	-0.037717853	-0.10668404	-0.095720656	0.0037824726	0.07695494	-0.09128407	-0.036560155	0.02570075	0.15901011	0.17758393	-0.010548032	-0.02568785	-0.016342374	-0.17485736	0.042532455	-0.032426763	-0.050452422	0.09350628	-0.059808012	-0.027450798	0.10771725	0.26241004	0.10116445	-0.07149173	0.027561476	-0.021501215	-0.10507158	0.023135217	0.075277634	0.069639005	0.030893361	-0.07270982	-0.013867584	0.13320093	0.0115685575	-0.17660372	0.016111026	0.01403737	0.088859685	-0.16841984	-0.10721088	0.03552253	0.0406222	-0.024405034	0.042206246	-0.10852977	0.011442732	-0.09911713	-0.08139525	0.0066619907	0.06810508	0.108712435	-0.1797331	-0.02211341	-0.17892258	-0.08133479	-0.0030943386	0.090985976	0.04889311	-0.067583166	-0.0824439	-0.0050812634	0.04567394	0.045478385	0.20202547	-0.108800896	-0.053198855	-0.20420092	0.09643334	0.07665291	0.1753316	-0.035047133	-0.026536586	0.06607316	-0.025760313	0.028656304	-0.02084118	0.15021105	-0.02114124	-0.1468038	0.07474374	0.046697322	0.07129363	-0.0041353824	-0.18333924	-0.17147519	-0.023613892	0.040552	0.1331466	0.0020920197	0.118973844	0.068513595	-0.109396	-0.030387819	0.001740695	0.026886703	-0.15884729	0.045308445	0.01613394	-0.054137964	0.18922901	-0.007031861	-0.085910715	0.026116712	-0.013505943	-0.08076032	-0.105472535	-0.13127345	-0.08438801	-0.020879917	0.053331602	-0.1388974	0.10763234	0.060304683	-0.016182436	-0.07752769	-0.1749046	0.018302195	0.16039516	0.031947576	-0.0069989525	-0.11894441	0.093500495	0.10938486	-0.11063347	0.14202495	-0.08947518	-0.1722985	-0.007580171	-0.07619863	0.110617794	0.16609077	-0.05008706	-0.088019975	0.142602	-0.07750599	-0.08157936	0.08845713	-0.026219467	-0.08082814	0.05036974	-0.18986505	-0.11948431	-0.07886866	0.18618667	0.0660372	0.024456682	-0.033407643	0.2173181	-0.023841234	0.11157417	-0.016146125	0.13298027	-0.0034649551	0.011040866	-0.07930543
Algrebra|Elementary_algebra|6	0.1820916	-0.032154463	0.0064000897	0.07408521	-0.17642039	-0.06430652	-0.0886273	0.018074168	-0.019479066	0.05878994	-0.14571111	-0.045043945	0.030149661	0.047611073	-0.019726025	-0.09457842	0.06083432	-0.05460377	-0.05610296	-0.051930662	-0.10976506	0.0906231	0.11788607	-0.028836804	0.22463185	-0.18435623	-0.07143938	-0.3203875	-0.08675823	0.059111703	-0.025179846	0.024670688	-0.1342317	-0.15820813	0.011192303	0.1754552	-0.10511949	-0.105921336	0.07259405	-0.055710893	-0.13275722	0.14004499	-0.04017663	0.19793521	-0.07205314	0.028795978	0.12779212	0.1374066	0.062490404	0.02929986	0.05176675	-0.124433	0.1324435	-0.19482122	-0.048509926	-0.008168141	0.0308143	-0.009062987	0.19380939	0.14440109	-0.05192551	-0.0054349303	-0.15028085	-0.11319699	-0.05317392	0.056691635	-0.033489536	0.11642635	0.05043988	0.015571105	-0.04649542	0.03421196	0.067802556	-0.005781309	-0.030771026	-0.030171288	-0.08209003	-0.13024125	-0.08789405	0.018491859	0.0012849636	-0.11009544	-0.14850895	-0.26967505	0.049833268	0.10432733	0.025781551	-0.28861073	-0.0066748	-0.0070526483	0.13728942	-0.11509987	0.11007672	0.12234542	-0.14038666	0.018401664	-0.09281888	-0.12418038	-0.12844644	-0.0116033405	0.028596975	0.07851119	-0.062778436	-0.025150524	0.13861656	0.02270586	-0.21907157	0.10475838	-0.025654897	0.051645916	0.020675616	0.031534966	0.10039565	-0.07878696	0.17917848	-0.13448678	0.114802934	-0.22906543	-0.13742836	0.1393559	-0.06919243	-0.02666861	-0.16546004	0.10871157	0.15217184	-0.16510922	-0.037630435	0.023719868	-0.09012417	0.062891334	-0.026115606	-0.07149907	-0.05972426	-0.03009701	0.117226295	-0.055044666	0.017314332	-0.042926967	0.073269255	-0.028552331	0.15649457	0.114833206	-0.15656535	-0.08372515	-0.039036173	-0.1131092	-0.101014316	0.0035981163	0.08165228	-0.097094975	-0.03913936	0.027913487	0.1680912	0.18743896	-0.010922234	-0.02842469	-0.018459892	-0.18737845	0.044601392	-0.03486107	-0.053640824	0.09904822	-0.06462593	-0.028358659	0.114194304	0.27818725	0.10664966	-0.0755348	0.028232224	-0.024250591	-0.10911694	0.024797006	0.0793472	0.074364476	0.033968937	-0.07775005	-0.015407312	0.14199726	0.012307699	-0.18763752	0.016118139	0.014526196	0.09540621	-0.17850359	-0.11366931	0.03740159	0.044438317	-0.02662813	0.044687066	-0.11560697	0.011987488	-0.105407916	-0.08600577	0.007893404	0.07189414	0.115092516	-0.18968849	-0.022667684	-0.18849821	-0.08689801	-0.0037298594	0.097568296	0.051849723	-0.07140139	-0.08760828	-0.0057482445	0.048410054	0.047474157	0.21373338	-0.11625897	-0.055225793	-0.21636678	0.102208965	0.083286636	0.18638134	-0.037960853	-0.027884148	0.06983025	-0.028132493	0.029487891	-0.021190172	0.15862955	-0.021366395	-0.15440276	0.07914888	0.04921184	0.0760213	-0.0053047016	-0.19358331	-0.18231581	-0.026121428	0.04376371	0.14185949	0.0023242922	0.12458641	0.072703645	-0.115973145	-0.03251938	0.00096691825	0.027596409	-0.16875072	0.047387753	0.016836809	-0.057301145	0.2005388	-0.0063209883	-0.091288306	0.02645279	-0.015289187	-0.08712456	-0.11231804	-0.1397117	-0.09084039	-0.021735882	0.056128994	-0.14739954	0.113197535	0.06452918	-0.016510723	-0.08257436	-0.18543185	0.017972477	0.16955835	0.03366958	-0.007995163	-0.12734155	0.09921533	0.11522279	-0.118983746	0.14989491	-0.09346402	-0.18424244	-0.0067946776	-0.079455726	0.11722601	0.17626138	-0.052396405	-0.094746985	0.15105806	-0.08129167	-0.08723724	0.09445748	-0.028505886	-0.085645296	0.052741956	-0.20056103	-0.12686366	-0.08169654	0.19645655	0.06977701	0.027302861	-0.035674185	0.22958963	-0.026156709	0.11829379	-0.016482254	0.13996613	-0.0035408994	0.012467302	-0.08364099
Algrebra|Elementary_algebra|7	0.20348707	-0.03602221	0.007335537	0.08222045	-0.19752963	-0.072982095	-0.09853343	0.021682683	-0.022051051	0.06552471	-0.16402087	-0.051003754	0.033777855	0.054625195	-0.022077499	-0.10655669	0.06838195	-0.060548015	-0.06223815	-0.057798665	-0.122830845	0.10108139	0.13172112	-0.032755483	0.25130424	-0.20562494	-0.07999795	-0.35715804	-0.09574692	0.0681165	-0.028846735	0.02842905	-0.1504118	-0.17724437	0.012310622	0.19731703	-0.11964979	-0.11793383	0.08174968	-0.061097376	-0.14934954	0.15710267	-0.04359173	0.21971226	-0.08135029	0.032595236	0.1431386	0.15311565	0.07097741	0.031856723	0.057450283	-0.14020972	0.14793418	-0.21836583	-0.055041812	-0.0087429825	0.03511048	-0.010085752	0.21669447	0.16123475	-0.057724725	-0.0058023417	-0.16991234	-0.1269936	-0.058144014	0.06267297	-0.03802138	0.12984727	0.057020195	0.017803289	-0.052941345	0.039629035	0.07512893	-0.0071276426	-0.034589924	-0.03411043	-0.09198581	-0.14379077	-0.09822072	0.019668672	0.0015634291	-0.12452872	-0.16558762	-0.30189887	0.055537354	0.117901504	0.027786717	-0.3221607	-0.0075477017	-0.0065328106	0.15405506	-0.1286582	0.12193452	0.13625866	-0.15630612	0.01967226	-0.10404742	-0.13861412	-0.14445633	-0.012389611	0.032718107	0.08932423	-0.06962088	-0.02810412	0.15453881	0.02509227	-0.2463099	0.11772196	-0.02825014	0.057436693	0.023336705	0.03595587	0.11286483	-0.08754305	0.19980498	-0.15096709	0.1282771	-0.25670215	-0.1519148	0.15615168	-0.07877397	-0.02903482	-0.18559384	0.121901214	0.16842094	-0.18446782	-0.040880583	0.025959706	-0.10195856	0.0701929	-0.029950181	-0.079463705	-0.06649628	-0.032097816	0.13164265	-0.06235538	0.018886175	-0.047864802	0.08128814	-0.032731976	0.17430279	0.12963124	-0.17437391	-0.093653336	-0.043780804	-0.12724148	-0.11385064	0.0037871737	0.0916649	-0.10816622	-0.042654924	0.030998405	0.18911882	0.21054688	-0.0136005925	-0.032694492	-0.019592369	-0.20898846	0.049093653	-0.038921956	-0.06044542	0.11103921	-0.07175116	-0.031912584	0.12732947	0.31239462	0.12151258	-0.085365996	0.031411707	-0.026533773	-0.12197467	0.026853526	0.089005716	0.08430263	0.03715638	-0.08782453	-0.017918129	0.15859523	0.013261206	-0.21009257	0.017906923	0.016829116	0.10781057	-0.1985664	-0.12632547	0.040318172	0.048601165	-0.029123228	0.049607433	-0.12879664	0.013033293	-0.11796127	-0.09717177	0.009636203	0.08113384	0.12765883	-0.21356198	-0.024906477	-0.21030276	-0.09681128	-0.0047898144	0.10783285	0.057795197	-0.080498114	-0.09836293	-0.008198094	0.055659067	0.053650845	0.23976783	-0.12818204	-0.062491726	-0.24177611	0.11523984	0.094233476	0.20856158	-0.04237775	-0.030053526	0.07806702	-0.030641448	0.033858776	-0.02418651	0.17712048	-0.023907542	-0.1727389	0.08934962	0.053671658	0.0858465	-0.005574659	-0.21658945	-0.20439939	-0.028364679	0.04772877	0.15855636	0.0026205224	0.1403627	0.081970364	-0.12901603	-0.03510335	0.0009092428	0.03267407	-0.18844157	0.052223664	0.019897554	-0.06477714	0.22562122	-0.008283766	-0.10082499	0.029947406	-0.016055841	-0.09703314	-0.12539275	-0.15668215	-0.10078672	-0.025002146	0.06287723	-0.16473791	0.12599798	0.071031034	-0.019125713	-0.092188515	-0.20693178	0.02194993	0.19024613	0.038529545	-0.008644817	-0.14277746	0.111625	0.12871683	-0.13418747	0.16702878	-0.10521462	-0.20526624	-0.0092361905	-0.08861327	0.13183579	0.19865802	-0.059200518	-0.10514338	0.16817549	-0.09054367	-0.097151	0.105676726	-0.03202037	-0.094258524	0.059042074	-0.22488995	-0.1431965	-0.091869906	0.21933177	0.077641375	0.029421711	-0.041613735	0.25624943	-0.028976128	0.1324456	-0.01712476	0.15687457	-0.003485494	0.013533522	-0.09308051
Algrebra|Elementary_algebra|8	0.1820916	-0.032154463	0.0064000897	0.07408521	-0.17642039	-0.06430652	-0.0886273	0.018074168	-0.019479066	0.05878994	-0.14571111	-0.045043945	0.030149661	0.047611073	-0.019726025	-0.09457842	0.06083432	-0.05460377	-0.05610296	-0.051930662	-0.10976506	0.0906231	0.11788607	-0.028836804	0.22463185	-0.18435623	-0.07143938	-0.3203875	-0.08675823	0.059111703	-0.025179846	0.024670688	-0.1342317	-0.15820813	0.011192303	0.1754552	-0.10511949	-0.105921336	0.07259405	-0.055710893	-0.13275722	0.14004499	-0.04017663	0.19793521	-0.07205314	0.028795978	0.12779212	0.1374066	0.062490404	0.02929986	0.05176675	-0.124433	0.1324435	-0.19482122	-0.048509926	-0.008168141	0.0308143	-0.009062987	0.19380939	0.14440109	-0.05192551	-0.0054349303	-0.15028085	-0.11319699	-0.05317392	0.056691635	-0.033489536	0.11642635	0.05043988	0.015571105	-0.04649542	0.03421196	0.067802556	-0.005781309	-0.030771026	-0.030171288	-0.08209003	-0.13024125	-0.08789405	0.018491859	0.0012849636	-0.11009544	-0.14850895	-0.26967505	0.049833268	0.10432733	0.025781551	-0.28861073	-0.0066748	-0.0070526483	0.13728942	-0.11509987	0.11007672	0.12234542	-0.14038666	0.018401664	-0.09281888	-0.12418038	-0.12844644	-0.0116033405	0.028596975	0.07851119	-0.062778436	-0.025150524	0.13861656	0.02270586	-0.21907157	0.10475838	-0.025654897	0.051645916	0.020675616	0.031534966	0.10039565	-0.07878696	0.17917848	-0.13448678	0.114802934	-0.22906543	-0.13742836	0.1393559	-0.06919243	-0.02666861	-0.16546004	0.10871157	0.15217184	-0.16510922	-0.037630435	0.023719868	-0.09012417	0.062891334	-0.026115606	-0.07149907	-0.05972426	-0.03009701	0.117226295	-0.055044666	0.017314332	-0.042926967	0.073269255	-0.028552331	0.15649457	0.114833206	-0.15656535	-0.08372515	-0.039036173	-0.1131092	-0.101014316	0.0035981163	0.08165228	-0.097094975	-0.03913936	0.027913487	0.1680912	0.18743896	-0.010922234	-0.02842469	-0.018459892	-0.18737845	0.044601392	-0.03486107	-0.053640824	0.09904822	-0.06462593	-0.028358659	0.114194304	0.27818725	0.10664966	-0.0755348	0.028232224	-0.024250591	-0.10911694	0.024797006	0.0793472	0.074364476	0.033968937	-0.07775005	-0.015407312	0.14199726	0.012307699	-0.18763752	0.016118139	0.014526196	0.09540621	-0.17850359	-0.11366931	0.03740159	0.044438317	-0.02662813	0.044687066	-0.11560697	0.011987488	-0.105407916	-0.08600577	0.007893404	0.07189414	0.115092516	-0.18968849	-0.022667684	-0.18849821	-0.08689801	-0.0037298594	0.097568296	0.051849723	-0.07140139	-0.08760828	-0.0057482445	0.048410054	0.047474157	0.21373338	-0.11625897	-0.055225793	-0.21636678	0.102208965	0.083286636	0.18638134	-0.037960853	-0.027884148	0.06983025	-0.028132493	0.029487891	-0.021190172	0.15862955	-0.021366395	-0.15440276	0.07914888	0.04921184	0.0760213	-0.0053047016	-0.19358331	-0.18231581	-0.026121428	0.04376371	0.14185949	0.0023242922	0.12458641	0.072703645	-0.115973145	-0.03251938	0.00096691825	0.027596409	-0.16875072	0.047387753	0.016836809	-0.057301145	0.2005388	-0.0063209883	-0.091288306	0.02645279	-0.015289187	-0.08712456	-0.11231804	-0.1397117	-0.09084039	-0.021735882	0.056128994	-0.14739954	0.113197535	0.06452918	-0.016510723	-0.08257436	-0.18543185	0.017972477	0.16955835	0.03366958	-0.007995163	-0.12734155	0.09921533	0.11522279	-0.118983746	0.14989491	-0.09346402	-0.18424244	-0.0067946776	-0.079455726	0.11722601	0.17626138	-0.052396405	-0.094746985	0.15105806	-0.08129167	-0.08723724	0.09445748	-0.028505886	-0.085645296	0.052741956	-0.20056103	-0.12686366	-0.08169654	0.19645655	0.06977701	0.027302861	-0.035674185	0.22958963	-0.026156709	0.11829379	-0.016482254	0.13996613	-0.0035408994	0.012467302	-0.08364099
Algrebra|Elementary_algebra|9	0.119382754	-0.021730347	0.0031282506	0.050242916	-0.11773763	-0.044057842	-0.05959086	0.0121101765	-0.013779276	0.040372044	-0.0983756	-0.02953599	0.021309504	0.031262286	-0.014435996	-0.06220181	0.038921624	-0.035693124	-0.038586188	-0.033001143	-0.072803564	0.058700282	0.0791646	-0.020685362	0.14933224	-0.12355534	-0.046019975	-0.21113424	-0.056289777	0.03913973	-0.017173281	0.016232667	-0.08778461	-0.1035322	0.006248395	0.117561325	-0.07250722	-0.06976598	0.050348688	-0.03512575	-0.09067026	0.09338892	-0.027227148	0.13043085	-0.047940366	0.019801	0.08630236	0.0920103	0.042485844	0.019744584	0.03478548	-0.08180366	0.09024646	-0.13104396	-0.031088289	-0.0067883185	0.021576801	-0.0062241987	0.12747554	0.09462813	-0.03544907	-0.004989626	-0.10176693	-0.074910894	-0.036105614	0.0387373	-0.02216537	0.07687363	0.032201223	0.010714093	-0.03171939	0.024715267	0.044648845	-0.0048614275	-0.020327065	-0.020271635	-0.05592952	-0.086873375	-0.058026344	0.012431425	0.0021516057	-0.07282743	-0.09807222	-0.17794433	0.03324463	0.07046935	0.017387407	-0.19012	-0.003099025	-0.0048804036	0.09297708	-0.078301445	0.07158183	0.08143766	-0.091760576	0.014028056	-0.06091658	-0.08169339	-0.085209854	-0.008222171	0.01917842	0.051503465	-0.040990267	-0.016071273	0.09314177	0.016113652	-0.14765152	0.06807266	-0.017996557	0.035314843	0.013289269	0.02119586	0.06782411	-0.052049667	0.12016396	-0.09152376	0.0762342	-0.15239872	-0.09253132	0.09098329	-0.04869872	-0.019592352	-0.10979458	0.073418036	0.09891201	-0.110452764	-0.02613619	0.014887306	-0.06079389	0.04280514	-0.016707592	-0.04785709	-0.04066966	-0.018762907	0.078655094	-0.037225083	0.010745403	-0.028712735	0.048999563	-0.019699248	0.10366808	0.07674431	-0.10462193	-0.05571525	-0.026752546	-0.07497462	-0.06829131	0.0015691412	0.05537121	-0.06442753	-0.026646031	0.019163003	0.11341767	0.12415903	-0.009479105	-0.017110007	-0.011772493	-0.12286726	0.03128938	-0.022421872	-0.0357911	0.064507954	-0.04293976	-0.020576283	0.07476205	0.18600196	0.07081913	-0.05186133	0.019027255	-0.016845427	-0.074552156	0.015398632	0.052033342	0.048287164	0.02099057	-0.052624874	-0.0097294785	0.09337008	0.0063894494	-0.12470961	0.010798902	0.010434826	0.063928925	-0.11768463	-0.074231364	0.025122263	0.028023642	-0.016536584	0.028853288	-0.07624664	0.0075536445	-0.070597626	-0.058413506	0.0039530583	0.04952418	0.07678989	-0.1256775	-0.014928922	-0.12599978	-0.05895578	-0.0017760393	0.06340597	0.034872856	-0.048402872	-0.056718368	-0.0031489495	0.034289278	0.030464793	0.14234515	-0.075495936	-0.03827404	-0.14284101	0.06691786	0.05377179	0.12546487	-0.025571916	-0.01712407	0.046737965	-0.017097775	0.021720683	-0.015321098	0.10720577	-0.0147929555	-0.10430272	0.054065935	0.033020034	0.0489385	-0.0029732129	-0.13010682	-0.12013415	-0.015868243	0.0270019	0.09309271	0.000472157	0.08175328	0.049190555	-0.0763793	-0.020640284	0.000533778	0.01807266	-0.11095996	0.030602422	0.011274633	-0.04015115	0.13303256	-0.005262335	-0.061869226	0.019745857	-0.007948836	-0.05628072	-0.073632345	-0.093633406	-0.06128402	-0.014383789	0.036831785	-0.09925516	0.076884754	0.041966815	-0.011964698	-0.054985132	-0.12473701	0.012844457	0.112241	0.022482088	-0.005057537	-0.084443726	0.06729405	0.07845086	-0.07993202	0.10062053	-0.063668005	-0.12268836	-0.0064859395	-0.054010183	0.07969237	0.11638264	-0.03381079	-0.06415752	0.10144037	-0.053391702	-0.05599569	0.061484464	-0.016967418	-0.05507617	0.034331325	-0.13218786	-0.08537284	-0.05537617	0.13002513	0.046667464	0.017061682	-0.02296475	0.15141274	-0.016371533	0.07770902	-0.010999752	0.09449537	-0.00019163378	0.008371283	-0.05703591
Algrebra|Elementary_algebra|10	0.19127195	-0.034017567	0.0071181087	0.078651115	-0.18408433	-0.0672959	-0.09256083	0.01916031	-0.0192956	0.060054358	-0.15268226	-0.048004862	0.033019748	0.049918976	-0.02084212	-0.0998433	0.063796796	-0.05679578	-0.05714575	-0.054535832	-0.11596836	0.094879635	0.122453846	-0.03133578	0.2342919	-0.19260584	-0.07297895	-0.33378628	-0.0908764	0.062371075	-0.027033675	0.026491987	-0.13946085	-0.16500492	0.011567033	0.18332508	-0.111193344	-0.10997271	0.077056654	-0.05701745	-0.13893656	0.14629935	-0.041534062	0.20597799	-0.07516891	0.029581634	0.13369249	0.14163491	0.067161605	0.03052179	0.05353736	-0.12988922	0.13904276	-0.2033982	-0.049193967	-0.007905391	0.0322816	-0.010355182	0.20073447	0.1505949	-0.054468233	-0.0064213276	-0.1564335	-0.11768187	-0.05649385	0.059538458	-0.033509262	0.12217377	0.052697156	0.017023647	-0.047776103	0.03690472	0.07056468	-0.0058785034	-0.032667555	-0.032656666	-0.08550526	-0.13607009	-0.092658564	0.017993635	0.0008112394	-0.11624171	-0.15508811	-0.28300855	0.052082416	0.10889606	0.026600162	-0.3006933	-0.006960478	-0.0062330863	0.14437976	-0.12105613	0.11552092	0.1286073	-0.14668283	0.020522635	-0.09775345	-0.1299512	-0.13370387	-0.012669356	0.030418739	0.08287866	-0.06754639	-0.026256485	0.1449612	0.022963202	-0.22875181	0.10955143	-0.027804285	0.053442832	0.021249415	0.0333148	0.106131196	-0.08075967	0.18669654	-0.14130612	0.121072546	-0.239365	-0.14352229	0.14551543	-0.07312743	-0.028989283	-0.17198332	0.11269392	0.15878996	-0.17207076	-0.038197692	0.025646372	-0.09485576	0.066158935	-0.02787665	-0.0749247	-0.061746888	-0.031112587	0.12280584	-0.057676934	0.016014982	-0.043260407	0.07564658	-0.029419558	0.16491018	0.120671496	-0.16332039	-0.08740568	-0.04192638	-0.11793198	-0.10628346	0.0034412802	0.085869946	-0.10084125	-0.03971487	0.02865234	0.17637621	0.19644289	-0.011840077	-0.029625833	-0.0181589	-0.19429033	0.047068525	-0.035933174	-0.056056987	0.10326177	-0.066360846	-0.031331398	0.11870509	0.29107237	0.11164288	-0.07891296	0.030391991	-0.02383321	-0.11633802	0.025676489	0.08306571	0.077114336	0.034277022	-0.08094932	-0.015505837	0.14702249	0.013001272	-0.19584452	0.017339876	0.01523861	0.0981311	-0.18703203	-0.11910118	0.038252294	0.04478262	-0.027016595	0.04651826	-0.11961953	0.012081141	-0.10964606	-0.09041203	0.008503475	0.07560568	0.120610364	-0.19926046	-0.0253533	-0.1980374	-0.08923768	-0.004002003	0.101129174	0.054226782	-0.0744554	-0.09109913	-0.0059874463	0.051106397	0.050445456	0.22333631	-0.12024696	-0.05890658	-0.22569443	0.10806171	0.08511438	0.19419956	-0.039773192	-0.029367063	0.07316746	-0.028892145	0.031340707	-0.023296671	0.16627467	-0.023278153	-0.16192088	0.08253468	0.052036073	0.07999476	-0.0042234072	-0.20286228	-0.18923748	-0.025394393	0.044997957	0.14787626	0.0017143848	0.13201782	0.075792484	-0.120643124	-0.033955645	0.0024406456	0.029335082	-0.17568235	0.05008021	0.018172076	-0.06119418	0.20918934	-0.008555188	-0.09629158	0.02954987	-0.015027331	-0.089840405	-0.11608571	-0.14519086	-0.0939763	-0.022923741	0.05937761	-0.15444434	0.11895913	0.06707998	-0.017986374	-0.08675211	-0.19330391	0.019611958	0.17830543	0.0344821	-0.007994171	-0.1325582	0.10379879	0.12094291	-0.122999705	0.15688379	-0.09829886	-0.19167177	-0.008468283	-0.084550306	0.121975854	0.18419142	-0.05468032	-0.09747835	0.15723264	-0.08604706	-0.09006401	0.09843264	-0.029390944	-0.08944958	0.05519535	-0.21025886	-0.1320595	-0.08708529	0.2052302	0.07338176	0.027667064	-0.03664713	0.23992018	-0.025679594	0.1232099	-0.018148722	0.14674298	-0.0039403467	0.012547389	-0.087593324
Algrebra|Elementary_algebra|11	0.16358292	-0.028702717	0.0057115722	0.06699562	-0.15744272	-0.05667811	-0.07996894	0.015604285	-0.015912086	0.052164186	-0.12971331	-0.041347995	0.02807539	0.041682877	-0.018293176	-0.08510892	0.055065807	-0.048597924	-0.048732616	-0.047019456	-0.09940626	0.080988534	0.105399415	-0.027231116	0.20034674	-0.16398533	-0.0627207	-0.28504908	-0.07844709	0.05371292	-0.023209253	0.022342376	-0.11972897	-0.14060956	0.010504896	0.15584916	-0.09461623	-0.0939248	0.066108234	-0.04888112	-0.11795304	0.12563285	-0.035902433	0.17604762	-0.064033926	0.025607219	0.114806145	0.12021486	0.05729434	0.02606146	0.045802984	-0.111880824	0.11880684	-0.1742939	-0.041389488	-0.006713176	0.028091177	-0.009865606	0.17191663	0.12816684	-0.046270724	-0.0054317852	-0.13326757	-0.100769944	-0.04838004	0.05067911	-0.028375197	0.105134025	0.044651717	0.014675897	-0.041121498	0.031600203	0.06067168	-0.0056854715	-0.027708082	-0.027922308	-0.07242027	-0.11693266	-0.07841842	0.01557187	0.0010419162	-0.09858372	-0.13325018	-0.24121168	0.04505784	0.09222038	0.023524933	-0.25644946	-0.005309613	-0.0055684685	0.12363945	-0.10332576	0.0984814	0.10939202	-0.12591855	0.018244594	-0.08250217	-0.11094777	-0.114977755	-0.011295229	0.026084531	0.070567384	-0.057969566	-0.023302503	0.124273665	0.020478435	-0.1952783	0.09282537	-0.02357553	0.045161724	0.017815728	0.028694816	0.09057946	-0.06937037	0.1597059	-0.12080214	0.1029763	-0.20497365	-0.122924626	0.12462865	-0.06248631	-0.024692804	-0.14762607	0.09734493	0.13586903	-0.14702252	-0.031877797	0.021487372	-0.081161	0.05705582	-0.02321485	-0.06348178	-0.053205565	-0.026813397	0.10435264	-0.04843347	0.013930565	-0.03700121	0.06504432	-0.02455143	0.14077029	0.103152275	-0.13910279	-0.07402671	-0.035522245	-0.100666	-0.09063743	0.00389746	0.07286782	-0.08622189	-0.03404431	0.024291998	0.15039971	0.16750953	-0.009651761	-0.023897108	-0.015533284	-0.16534415	0.040182307	-0.031308226	-0.047635898	0.088501446	-0.05659247	-0.02676126	0.10201822	0.24840574	0.095104516	-0.0677896	0.025665592	-0.020087438	-0.10014455	0.021175975	0.07084045	0.06526765	0.02897623	-0.06852794	-0.013072591	0.12571588	0.010658076	-0.16682658	0.015239418	0.013568274	0.08285882	-0.15992887	-0.101111226	0.033605892	0.038498465	-0.022873437	0.039407767	-0.10269332	0.011093655	-0.093768544	-0.07658836	0.0062503386	0.06440495	0.103347346	-0.1696963	-0.021384008	-0.16985881	-0.07636116	-0.002601985	0.08589997	0.047062732	-0.06403083	-0.07746728	-0.0042268434	0.043111816	0.043129027	0.19116323	-0.10380318	-0.050055847	-0.19290525	0.09189597	0.07187672	0.16544779	-0.03378009	-0.025350679	0.062180176	-0.024396151	0.0267082	-0.019920502	0.14249577	-0.02010103	-0.13846247	0.07060556	0.04427371	0.06723369	-0.0038260887	-0.17393367	-0.16169786	-0.02223394	0.038779065	0.12610784	0.0021313336	0.11255856	0.06449276	-0.10339529	-0.029396577	0.0014577894	0.024436336	-0.15075228	0.04336669	0.015399518	-0.05160698	0.17847826	-0.006913199	-0.081785575	0.024571193	-0.012801876	-0.07549794	-0.10001517	-0.12402161	-0.07999425	-0.02001768	0.050566934	-0.13148215	0.10158009	0.056812007	-0.015876096	-0.07390183	-0.1647816	0.017388444	0.15183792	0.03034078	-0.006097223	-0.11229454	0.087965146	0.103485025	-0.104464754	0.13478917	-0.08501187	-0.16278896	-0.0073882667	-0.07265097	0.10483818	0.15758297	-0.04740365	-0.08332393	0.13510066	-0.07348758	-0.07775794	0.08319462	-0.024773564	-0.07671461	0.047704417	-0.17937177	-0.112428196	-0.0749046	0.17586556	0.061781295	0.02292693	-0.03107683	0.20575182	-0.021617537	0.10600559	-0.016132329	0.12540472	-0.0031622862	0.010355584	-0.074676566
Algrebra|Elementary_algebra|12	0.20320767	-0.03635277	0.007652946	0.083651096	-0.19570935	-0.071895905	-0.09787829	0.020679584	-0.021133952	0.063548476	-0.16283381	-0.050683953	0.035062097	0.05374029	-0.021775609	-0.10619623	0.06738812	-0.060319558	-0.060924634	-0.057813823	-0.12280801	0.10089828	0.12991303	-0.032856803	0.24909404	-0.20525	-0.0777279	-0.35539472	-0.09621501	0.06577453	-0.028598858	0.028121956	-0.14805792	-0.17595536	0.012053214	0.19531237	-0.118293695	-0.117102996	0.08136376	-0.060674444	-0.14822803	0.15494382	-0.044211186	0.21932727	-0.080037154	0.031002035	0.14192483	0.1515493	0.07141365	0.03253663	0.05696232	-0.13749777	0.14803617	-0.21615916	-0.05284472	-0.008620807	0.034142718	-0.010395368	0.21331741	0.16069928	-0.058119494	-0.006695888	-0.16664758	-0.12505874	-0.060023606	0.0635993	-0.03595777	0.12947601	0.05608018	0.017961983	-0.050744276	0.038951535	0.07469445	-0.0061108274	-0.034723002	-0.034515593	-0.091417536	-0.14434078	-0.09921983	0.019316813	0.0007769905	-0.12380718	-0.1645199	-0.30142313	0.055027157	0.11632812	0.027869416	-0.3204935	-0.007958158	-0.006574408	0.1534979	-0.12867077	0.12317342	0.13731204	-0.15582539	0.021197181	-0.10470828	-0.13846363	-0.14159599	-0.0132244285	0.0322541	0.08825258	-0.07141265	-0.027577415	0.15395902	0.024170829	-0.24362026	0.11704503	-0.02961971	0.05704926	0.023096595	0.035132077	0.112766	-0.0859184	0.19896221	-0.15012187	0.1289941	-0.25414222	-0.15270744	0.15465045	-0.07780345	-0.030686371	-0.18250263	0.11922203	0.16900066	-0.18301202	-0.041308377	0.027634032	-0.10069874	0.0699884	-0.02966693	-0.08012167	-0.06564158	-0.03312491	0.1309289	-0.06180205	0.017288335	-0.04634054	0.08018481	-0.03183316	0.17526016	0.12824419	-0.1740916	-0.09331682	-0.04486043	-0.12562494	-0.11297536	0.0029461132	0.09140821	-0.10717216	-0.042586528	0.030566063	0.1879163	0.20926893	-0.012643394	-0.03234548	-0.019496977	-0.2072441	0.05000416	-0.037757337	-0.059723776	0.109523706	-0.07087577	-0.033086207	0.125991	0.309735	0.11888358	-0.08347736	0.032584537	-0.025903726	-0.123003006	0.02804433	0.088618815	0.08238727	0.036815338	-0.086493805	-0.016576165	0.15657243	0.014089177	-0.20883684	0.018073577	0.01563166	0.10515947	-0.19885142	-0.12720828	0.04046004	0.047555536	-0.029074473	0.04997118	-0.12686184	0.012471	-0.11653948	-0.09640609	0.009603161	0.08058048	0.12805866	-0.21234095	-0.02691566	-0.21015745	-0.09521357	-0.0047133653	0.10814581	0.057026684	-0.07887625	-0.09740768	-0.0070686764	0.054602053	0.053626902	0.2375271	-0.12739645	-0.06281292	-0.24012695	0.11509887	0.09109832	0.20708008	-0.04228761	-0.031137355	0.07817516	-0.031029023	0.03334878	-0.024576856	0.17660366	-0.024655204	-0.17218949	0.08761829	0.055605955	0.08576998	-0.004639273	-0.215463	-0.20154603	-0.026793532	0.047809437	0.15740493	0.0013065418	0.14055043	0.08070716	-0.12836422	-0.03603153	0.0029107246	0.031572886	-0.18640566	0.05285524	0.019098226	-0.06521811	0.22283363	-0.009053291	-0.102626406	0.031711113	-0.016166147	-0.09662446	-0.12333642	-0.15471894	-0.10026538	-0.023935324	0.063226685	-0.16477552	0.12674497	0.07193714	-0.01853115	-0.09220937	-0.20603108	0.02021289	0.18979737	0.035925142	-0.009095366	-0.14156148	0.1107492	0.12849933	-0.13144808	0.16627592	-0.103781134	-0.20467924	-0.008756686	-0.089525715	0.12932825	0.19545525	-0.057644546	-0.10405757	0.16698198	-0.09139311	-0.09537864	0.1054394	-0.031562522	-0.09500709	0.05864121	-0.22387075	-0.14069694	-0.09196648	0.21814182	0.07882992	0.030080203	-0.039104372	0.25486603	-0.027812848	0.13072844	-0.018903274	0.1560957	-0.004552427	0.013515329	-0.09334883
Algrebra|Elementary_algebra|13	0.15324163	-0.02685026	0.0049718595	0.06256975	-0.14791505	-0.05278182	-0.07493488	0.014235407	-0.01578795	0.049496233	-0.121886395	-0.038290486	0.025961846	0.039420012	-0.016845407	-0.07961043	0.051288124	-0.045506164	-0.04604736	-0.044326145	-0.09232169	0.0758926	0.09935292	-0.024953095	0.18817788	-0.15421697	-0.059870463	-0.26864576	-0.07374737	0.049493026	-0.02153076	0.020316256	-0.112633705	-0.13280188	0.010193209	0.1460178	-0.08828878	-0.08856913	0.060782194	-0.04629157	-0.110854946	0.11712211	-0.03454776	0.16621156	-0.06008036	0.023244405	0.10802597	0.114258	0.053605	0.024672091	0.043187212	-0.10469251	0.11206049	-0.16406967	-0.0393343	-0.0068723992	0.026690496	-0.009170204	0.16163574	0.12109987	-0.043561995	-0.0046062307	-0.12529995	-0.09471399	-0.04544629	0.0480961	-0.027163953	0.09864124	0.041391727	0.01357799	-0.03893501	0.028899798	0.056572635	-0.0060607255	-0.025608659	-0.025608493	-0.06834874	-0.10984906	-0.074368626	0.015505132	0.0013236307	-0.09185017	-0.125149	-0.22679405	0.04218443	0.086723804	0.022207327	-0.24211024	-0.005551213	-0.0054847356	0.11642665	-0.09661911	0.093039684	0.103480704	-0.1187391	0.016471494	-0.077947885	-0.10481276	-0.1074439	-0.01067024	0.024366938	0.06617039	-0.053606983	-0.022342002	0.11678797	0.019960025	-0.1840945	0.08742938	-0.021973863	0.042179156	0.017634453	0.026446665	0.084564365	-0.06586435	0.15151839	-0.11307605	0.096580565	-0.19198649	-0.116150655	0.11722243	-0.058779154	-0.02262328	-0.1385887	0.091347575	0.12829955	-0.13809918	-0.030676676	0.020518688	-0.07586533	0.053372327	-0.020816026	-0.0600012	-0.050654143	-0.025685042	0.097966455	-0.045403037	0.0142765865	-0.035809617	0.06098856	-0.023678688	0.13158701	0.09667167	-0.13105385	-0.06946182	-0.033650827	-0.09496826	-0.08463639	0.003172258	0.06781239	-0.080848984	-0.033208355	0.022765929	0.14172584	0.15776537	-0.008414514	-0.022508174	-0.015171493	-0.15596177	0.03751216	-0.029072454	-0.04460111	0.082686715	-0.053856593	-0.024408793	0.09606453	0.23328267	0.089262635	-0.0629439	0.02436591	-0.020056045	-0.093150385	0.020778636	0.06712436	0.06134196	0.027756525	-0.06445904	-0.012228161	0.11885474	0.010016457	-0.15744025	0.013939754	0.011963534	0.078490175	-0.1502151	-0.0954492	0.03248513	0.03634363	-0.022141797	0.037915718	-0.09620989	0.010617424	-0.08798626	-0.071531124	0.005794165	0.060661435	0.0969205	-0.15966415	-0.019455604	-0.15925477	-0.07282797	-0.0024027072	0.08156785	0.043522358	-0.059919048	-0.07367318	-0.0045361943	0.040274482	0.040479336	0.18011384	-0.09784529	-0.047023643	-0.18155421	0.0860646	0.06776569	0.15616979	-0.031334843	-0.023967586	0.05889116	-0.023313457	0.025011577	-0.01813411	0.1338513	-0.018936979	-0.130171	0.06597451	0.04204608	0.0632909	-0.004411486	-0.16352145	-0.15272431	-0.021163942	0.036848694	0.1184131	0.0016027197	0.1057243	0.06040397	-0.09781217	-0.028025785	0.0012299328	0.02298518	-0.14137207	0.040502574	0.0135570355	-0.047700092	0.16822584	-0.0056708585	-0.07661337	0.022757122	-0.012509233	-0.07194599	-0.09498304	-0.11732367	-0.075558096	-0.018208982	0.04742971	-0.12420544	0.095972516	0.054270167	-0.013993294	-0.06885647	-0.15542585	0.015485394	0.14220123	0.027767712	-0.006239228	-0.10553163	0.08242697	0.09705784	-0.09891831	0.12614113	-0.0793137	-0.1536733	-0.006453447	-0.06774496	0.09833258	0.14702706	-0.044168543	-0.0794709	0.1274621	-0.068593256	-0.07319165	0.07881827	-0.023592658	-0.07216217	0.045557115	-0.16872884	-0.10562169	-0.069247045	0.16565941	0.058791727	0.022266112	-0.02916474	0.1936421	-0.021247208	0.09988736	-0.015035323	0.11789898	-0.0037017635	0.009606403	-0.07041516
Algrebra|Elementary_algebra|14	0.19250926	-0.033701956	0.0066194697	0.07856927	-0.18507987	-0.067529544	-0.094431356	0.019250464	-0.01934554	0.0620489	-0.1530152	-0.049413048	0.033805393	0.05068665	-0.020445514	-0.10047841	0.06526955	-0.057411194	-0.0577538	-0.054709297	-0.11678128	0.09546302	0.12362947	-0.031714164	0.23685446	-0.19383414	-0.07453091	-0.3364323	-0.09141481	0.063017584	-0.026912022	0.025796238	-0.14108264	-0.16556555	0.012018573	0.18405893	-0.111574806	-0.11143569	0.07782215	-0.05678471	-0.13987921	0.14802812	-0.042804897	0.20846598	-0.07453274	0.029936993	0.13457268	0.14288181	0.067930646	0.030177712	0.054356057	-0.13133727	0.1408848	-0.20541367	-0.04996252	-0.008934132	0.033159427	-0.010273022	0.20339891	0.15194735	-0.054235883	-0.0061767665	-0.15760562	-0.118663326	-0.057291944	0.060572796	-0.034026466	0.123334646	0.051759522	0.017716926	-0.047889553	0.03761546	0.07110723	-0.006252476	-0.032260187	-0.032717023	-0.08574058	-0.13753025	-0.09366744	0.019350333	0.0014118489	-0.11649368	-0.15720898	-0.28469497	0.05330587	0.11055511	0.026692739	-0.30281878	-0.0067732385	-0.0063871816	0.1463755	-0.12238221	0.11611302	0.12910585	-0.14842226	0.021512387	-0.09763914	-0.1306052	-0.1357598	-0.013556987	0.031213323	0.08387881	-0.06799459	-0.027790675	0.14643867	0.024393138	-0.23154493	0.110052146	-0.028239798	0.053397864	0.021434229	0.03410504	0.107333794	-0.08223754	0.18889105	-0.14277564	0.121569134	-0.24137406	-0.14452043	0.1473706	-0.07440208	-0.028747007	-0.17482601	0.11382415	0.15903568	-0.17346662	-0.038119715	0.026618302	-0.096062854	0.06702228	-0.027383417	-0.075317144	-0.061936863	-0.03242489	0.122176185	-0.05720699	0.0166176	-0.044183828	0.07631906	-0.029154751	0.16595528	0.122387186	-0.16427897	-0.08775179	-0.04186151	-0.11912882	-0.10714009	0.0042514624	0.08552871	-0.101973094	-0.040349867	0.029696424	0.17775205	0.19730154	-0.011976379	-0.028605685	-0.01823102	-0.19474694	0.04841336	-0.03626145	-0.056450475	0.10441313	-0.066499464	-0.030884188	0.12030928	0.29243225	0.112765566	-0.07983942	0.031151045	-0.024158519	-0.11713934	0.025716688	0.08374117	0.07741373	0.034125928	-0.08065723	-0.014815214	0.1484137	0.013403287	-0.19709916	0.018057259	0.015764695	0.099164456	-0.18788508	-0.12022035	0.039434712	0.04538185	-0.027040575	0.046724893	-0.121719494	0.013629088	-0.11116226	-0.09161194	0.0075954325	0.07566969	0.12100166	-0.20068005	-0.02530377	-0.20000856	-0.09126951	-0.0033188653	0.101120174	0.05453018	-0.07595508	-0.09197225	-0.0055973027	0.0507868	0.050562732	0.22588746	-0.121459424	-0.05950346	-0.2280273	0.107862234	0.08553986	0.19577003	-0.038486704	-0.029376263	0.07384306	-0.02886107	0.032694474	-0.023422293	0.16761601	-0.023537546	-0.16363183	0.083071634	0.051603705	0.07936122	-0.0044819834	-0.20443447	-0.19151005	-0.026607936	0.04571078	0.1491215	0.0024311864	0.13262776	0.07655777	-0.12193105	-0.03370311	0.0018376609	0.030326694	-0.17723195	0.050676316	0.018551342	-0.060414992	0.21134143	-0.008596878	-0.09597876	0.029034084	-0.014953995	-0.09015332	-0.117680036	-0.1463475	-0.09389356	-0.02335997	0.059486628	-0.15512392	0.120198205	0.06751577	-0.01841257	-0.0873289	-0.19530647	0.020746285	0.17946503	0.035760257	-0.007106226	-0.13214247	0.104501985	0.122746035	-0.122720145	0.15863109	-0.09978151	-0.19162485	-0.0090969335	-0.08498804	0.12292781	0.18553737	-0.05592709	-0.09778075	0.15869245	-0.08694643	-0.09140047	0.098582454	-0.028812641	-0.0906855	0.0560939	-0.21178214	-0.13318773	-0.08811991	0.20796831	0.07388057	0.027362633	-0.037387133	0.2426862	-0.02610143	0.12400639	-0.017745908	0.14906517	-0.004039556	0.011369865	-0.088623084
Algrebra|Elementary_algebra|15	0.16575883	-0.028188813	0.0057420977	0.067716576	-0.15806429	-0.05660453	-0.08128592	0.015987892	-0.015506721	0.05305102	-0.13154034	-0.040988237	0.029121207	0.041874435	-0.018053062	-0.08572697	0.054581266	-0.0498404	-0.04927039	-0.048005823	-0.09910646	0.08224425	0.10681226	-0.025627116	0.20328285	-0.16686967	-0.06303962	-0.28795633	-0.07907773	0.052086677	-0.021670295	0.021289414	-0.12104999	-0.14123634	0.011105002	0.15735513	-0.09475889	-0.094215766	0.06536461	-0.05025944	-0.11828294	0.124778144	-0.036698308	0.17856166	-0.06557168	0.025097592	0.11415468	0.12301422	0.056668088	0.025525331	0.046734232	-0.11236751	0.12027865	-0.17426035	-0.041916344	-0.0063501834	0.029206213	-0.009082967	0.17465523	0.12926944	-0.046229452	-0.004831518	-0.1350638	-0.1025568	-0.049083486	0.050801486	-0.02996666	0.10600521	0.043918323	0.013867755	-0.04159434	0.03024307	0.059849143	-0.004868903	-0.026842495	-0.02868726	-0.072746284	-0.11874105	-0.0788284	0.017140646	-0.00044829497	-0.098134436	-0.13438192	-0.24418102	0.045661066	0.09409259	0.024096167	-0.2601849	-0.004925918	-0.0066161775	0.12502	-0.10311575	0.09912218	0.1112187	-0.12737903	0.017234044	-0.08461339	-0.112867326	-0.11508482	-0.0102634495	0.025293406	0.070912085	-0.058480233	-0.023297366	0.12648152	0.020962857	-0.19677171	0.09455103	-0.024250207	0.046221066	0.017173763	0.027849471	0.09004074	-0.07099152	0.16211598	-0.121015966	0.10258595	-0.20599505	-0.12452182	0.12667096	-0.06176706	-0.025287693	-0.1481801	0.097205915	0.13754827	-0.14875776	-0.033214457	0.022865327	-0.08193082	0.057162203	-0.022723269	-0.063194	-0.05304287	-0.027540088	0.10448746	-0.04804283	0.015651379	-0.038688254	0.06550719	-0.023920517	0.1421136	0.10335158	-0.14185914	-0.07638829	-0.033945378	-0.10234922	-0.09053484	0.0019787776	0.07282167	-0.08829441	-0.035625067	0.025030876	0.15164347	0.16780265	-0.009370599	-0.024127042	-0.017598577	-0.16772687	0.04117289	-0.031523783	-0.048687257	0.09073669	-0.05869102	-0.025636522	0.10330014	0.24918446	0.0951361	-0.067610264	0.027855527	-0.021222187	-0.09997269	0.022112971	0.071147665	0.066049345	0.030761916	-0.069175445	-0.013248257	0.12836316	0.011436596	-0.16833934	0.014783994	0.012915274	0.083606824	-0.16145536	-0.10226922	0.03453547	0.039667487	-0.024122255	0.03938901	-0.10494389	0.011019204	-0.095225334	-0.076350674	0.0054192147	0.065153666	0.104655474	-0.16971385	-0.020794302	-0.17120832	-0.078166716	-0.0038104102	0.08771139	0.047680296	-0.064134315	-0.07978556	-0.0035930611	0.042620406	0.041967116	0.1931649	-0.10531218	-0.04925199	-0.19578837	0.09263609	0.072201386	0.16770978	-0.0341175	-0.026827795	0.06397591	-0.024665168	0.02581369	-0.01964738	0.14465958	-0.021514442	-0.1383653	0.072518855	0.045794364	0.06725678	-0.0039906674	-0.17525916	-0.16177303	-0.02376044	0.04010597	0.1284845	0.002922755	0.11222872	0.06445942	-0.105520874	-0.029351152	0.0024148594	0.024792023	-0.15203154	0.044191517	0.014489469	-0.051075786	0.17887068	-0.006224205	-0.08316609	0.023448914	-0.014315112	-0.07718715	-0.10136726	-0.12596557	-0.08126982	-0.018519605	0.05111474	-0.13304737	0.10253522	0.058074713	-0.014960731	-0.0742076	-0.16619799	0.016043702	0.15171586	0.030867718	-0.0054360614	-0.11286451	0.088012435	0.10433264	-0.106224604	0.13614109	-0.08301215	-0.1662175	-0.00554199	-0.07261801	0.10493227	0.15825424	-0.048090763	-0.08416912	0.13708845	-0.072431125	-0.07870246	0.085285306	-0.025364518	-0.07851365	0.048323106	-0.18198776	-0.11268177	-0.07536479	0.17710625	0.06243839	0.024439784	-0.031043096	0.20734666	-0.023505699	0.10684947	-0.016704628	0.12671348	-0.0040018596	0.010809535	-0.07656263
Algrebra|Elementary_algebra|16	0.19260241	-0.033896282	0.006471839	0.0783307	-0.18504082	-0.067394935	-0.0944961	0.019259756	-0.019269364	0.06197453	-0.1532669	-0.049487676	0.033758562	0.050687123	-0.020629793	-0.10051041	0.06483836	-0.057437073	-0.05787125	-0.05482002	-0.11685774	0.09511907	0.123583235	-0.03177843	0.2368406	-0.19387256	-0.07456617	-0.3363707	-0.091046564	0.06304646	-0.027194766	0.025951877	-0.14094107	-0.16540597	0.011870953	0.18391733	-0.11136397	-0.11133593	0.07798403	-0.05695537	-0.13963892	0.14796709	-0.04277202	0.20810795	-0.07484686	0.030179083	0.13470186	0.14313667	0.06796629	0.030387921	0.05441161	-0.13134393	0.14108682	-0.20538335	-0.049842697	-0.009217852	0.03281776	-0.010339278	0.20301251	0.15170069	-0.054100364	-0.0062883184	-0.15770788	-0.11852198	-0.057367474	0.06057322	-0.033926476	0.12330994	0.05178657	0.017397264	-0.047773834	0.037318073	0.07108405	-0.006483115	-0.032286122	-0.032590553	-0.08585066	-0.13728036	-0.093698226	0.019230565	0.0012190853	-0.11669869	-0.15694492	-0.28483012	0.05313098	0.11029626	0.02658531	-0.30257085	-0.0070071034	-0.0064965114	0.14599763	-0.122421056	0.11613843	0.12933086	-0.14804192	0.021070316	-0.097563595	-0.13069078	-0.13550834	-0.013585622	0.030982388	0.0840762	-0.06786597	-0.027567899	0.14655264	0.024283975	-0.23123579	0.110045485	-0.02800036	0.053530063	0.021518223	0.034016836	0.106884964	-0.081868544	0.18865073	-0.14269431	0.12164861	-0.24137695	-0.1444654	0.14705238	-0.07454742	-0.028917884	-0.17439918	0.11369654	0.15893662	-0.17327087	-0.038428493	0.026403388	-0.095911704	0.06689713	-0.027280392	-0.07495002	-0.06207015	-0.03192141	0.12240528	-0.057504218	0.016604902	-0.043861676	0.076679155	-0.029277585	0.16588695	0.12236155	-0.16449331	-0.08794614	-0.04159266	-0.11935473	-0.107327126	0.0041369977	0.08529899	-0.102184646	-0.04048766	0.029418977	0.17769302	0.19743563	-0.01193137	-0.028795496	-0.018500337	-0.19507028	0.048419163	-0.03641583	-0.056805704	0.10460099	-0.06669531	-0.030668432	0.12041236	0.29262227	0.11265389	-0.079426944	0.03128012	-0.024203673	-0.11694785	0.025665214	0.08373285	0.07730272	0.03455112	-0.08081504	-0.015111651	0.1485963	0.0131982	-0.19690382	0.018213358	0.015669696	0.0991356	-0.18768507	-0.12023285	0.039200313	0.045450892	-0.027182275	0.04673779	-0.121526696	0.013273795	-0.1109341	-0.09150311	0.007986716	0.07567412	0.120846234	-0.20047663	-0.024920419	-0.19945507	-0.09110426	-0.0033153575	0.10142373	0.05437011	-0.0757046	-0.09176365	-0.0055309883	0.051015083	0.050733197	0.22548103	-0.12157905	-0.059472393	-0.2278286	0.10763443	0.08553525	0.1955188	-0.03863843	-0.02936042	0.0739189	-0.028922027	0.032636702	-0.023575122	0.16728437	-0.023216454	-0.16351657	0.0830263	0.05182759	0.07938776	-0.004470785	-0.20405693	-0.19158626	-0.026385142	0.045385923	0.14902951	0.0022423558	0.13274556	0.076751254	-0.12187531	-0.033962015	0.0019030325	0.030257083	-0.17714863	0.050498024	0.01831034	-0.06071314	0.21140236	-0.008613109	-0.095902525	0.02914686	-0.014763619	-0.090059824	-0.11772249	-0.1464452	-0.09380275	-0.022961244	0.059835676	-0.15524624	0.12016857	0.067351885	-0.018374763	-0.087067045	-0.19488	0.021069765	0.17918177	0.035299957	-0.0072055184	-0.13249111	0.104344845	0.12280169	-0.12284729	0.15839784	-0.09988276	-0.19206326	-0.009059943	-0.084992535	0.12322521	0.1856804	-0.05600022	-0.097791225	0.15878247	-0.086868964	-0.09107868	0.09867682	-0.029152857	-0.09070166	0.055788767	-0.2116492	-0.13338955	-0.088059135	0.20790796	0.07383658	0.027656168	-0.037500452	0.24244641	-0.025841929	0.123837374	-0.017715054	0.1490735	-0.0037166264	0.011750502	-0.08846445
Algrebra|Elementary_algebra|17	0.19250926	-0.033701956	0.0066194697	0.07856927	-0.18507987	-0.067529544	-0.094431356	0.019250464	-0.01934554	0.0620489	-0.1530152	-0.049413048	0.033805393	0.05068665	-0.020445514	-0.10047841	0.06526955	-0.057411194	-0.0577538	-0.054709297	-0.11678128	0.09546302	0.12362947	-0.031714164	0.23685446	-0.19383414	-0.07453091	-0.3364323	-0.09141481	0.063017584	-0.026912022	0.025796238	-0.14108264	-0.16556555	0.012018573	0.18405893	-0.111574806	-0.11143569	0.07782215	-0.05678471	-0.13987921	0.14802812	-0.042804897	0.20846598	-0.07453274	0.029936993	0.13457268	0.14288181	0.067930646	0.030177712	0.054356057	-0.13133727	0.1408848	-0.20541367	-0.04996252	-0.008934132	0.033159427	-0.010273022	0.20339891	0.15194735	-0.054235883	-0.0061767665	-0.15760562	-0.118663326	-0.057291944	0.060572796	-0.034026466	0.123334646	0.051759522	0.017716926	-0.047889553	0.03761546	0.07110723	-0.006252476	-0.032260187	-0.032717023	-0.08574058	-0.13753025	-0.09366744	0.019350333	0.0014118489	-0.11649368	-0.15720898	-0.28469497	0.05330587	0.11055511	0.026692739	-0.30281878	-0.0067732385	-0.0063871816	0.1463755	-0.12238221	0.11611302	0.12910585	-0.14842226	0.021512387	-0.09763914	-0.1306052	-0.1357598	-0.013556987	0.031213323	0.08387881	-0.06799459	-0.027790675	0.14643867	0.024393138	-0.23154493	0.110052146	-0.028239798	0.053397864	0.021434229	0.03410504	0.107333794	-0.08223754	0.18889105	-0.14277564	0.121569134	-0.24137406	-0.14452043	0.1473706	-0.07440208	-0.028747007	-0.17482601	0.11382415	0.15903568	-0.17346662	-0.038119715	0.026618302	-0.096062854	0.06702228	-0.027383417	-0.075317144	-0.061936863	-0.03242489	0.122176185	-0.05720699	0.0166176	-0.044183828	0.07631906	-0.029154751	0.16595528	0.122387186	-0.16427897	-0.08775179	-0.04186151	-0.11912882	-0.10714009	0.0042514624	0.08552871	-0.101973094	-0.040349867	0.029696424	0.17775205	0.19730154	-0.011976379	-0.028605685	-0.01823102	-0.19474694	0.04841336	-0.03626145	-0.056450475	0.10441313	-0.066499464	-0.030884188	0.12030928	0.29243225	0.112765566	-0.07983942	0.031151045	-0.024158519	-0.11713934	0.025716688	0.08374117	0.07741373	0.034125928	-0.08065723	-0.014815214	0.1484137	0.013403287	-0.19709916	0.018057259	0.015764695	0.099164456	-0.18788508	-0.12022035	0.039434712	0.04538185	-0.027040575	0.046724893	-0.121719494	0.013629088	-0.11116226	-0.09161194	0.0075954325	0.07566969	0.12100166	-0.20068005	-0.02530377	-0.20000856	-0.09126951	-0.0033188653	0.101120174	0.05453018	-0.07595508	-0.09197225	-0.0055973027	0.0507868	0.050562732	0.22588746	-0.121459424	-0.05950346	-0.2280273	0.107862234	0.08553986	0.19577003	-0.038486704	-0.029376263	0.07384306	-0.02886107	0.032694474	-0.023422293	0.16761601	-0.023537546	-0.16363183	0.083071634	0.051603705	0.07936122	-0.0044819834	-0.20443447	-0.19151005	-0.026607936	0.04571078	0.1491215	0.0024311864	0.13262776	0.07655777	-0.12193105	-0.03370311	0.0018376609	0.030326694	-0.17723195	0.050676316	0.018551342	-0.060414992	0.21134143	-0.008596878	-0.09597876	0.029034084	-0.014953995	-0.09015332	-0.117680036	-0.1463475	-0.09389356	-0.02335997	0.059486628	-0.15512392	0.120198205	0.06751577	-0.01841257	-0.0873289	-0.19530647	0.020746285	0.17946503	0.035760257	-0.007106226	-0.13214247	0.104501985	0.122746035	-0.122720145	0.15863109	-0.09978151	-0.19162485	-0.0090969335	-0.08498804	0.12292781	0.18553737	-0.05592709	-0.09778075	0.15869245	-0.08694643	-0.09140047	0.098582454	-0.028812641	-0.0906855	0.0560939	-0.21178214	-0.13318773	-0.08811991	0.20796831	0.07388057	0.027362633	-0.037387133	0.2426862	-0.02610143	0.12400639	-0.017745908	0.14906517	-0.004039556	0.011369865	-0.088623084
Algrebra|Elementary_algebra|18	0.1942035	-0.034127507	0.0068026986	0.07886061	-0.18688248	-0.068324156	-0.09550639	0.019609533	-0.019313453	0.0621862	-0.15469992	-0.04959871	0.033824172	0.05087934	-0.021028528	-0.10132173	0.06506013	-0.057765216	-0.05886806	-0.055202145	-0.117843844	0.09622555	0.1242305	-0.031695347	0.238486	-0.19554068	-0.074716896	-0.33918706	-0.09174601	0.06366509	-0.027451297	0.02672275	-0.14208613	-0.16646637	0.011855352	0.18574895	-0.11246625	-0.11185932	0.079017125	-0.05772158	-0.14078431	0.14934435	-0.042771682	0.2094196	-0.07550989	0.030816378	0.13559555	0.14434496	0.06824581	0.030566545	0.054863308	-0.1324386	0.14172016	-0.20678227	-0.0503839	-0.009099458	0.032682948	-0.010265363	0.20474245	0.15265258	-0.054879677	-0.0063842037	-0.15909202	-0.11958557	-0.05753987	0.060803887	-0.034273107	0.12411671	0.052685063	0.01707227	-0.04788968	0.0378375	0.07187355	-0.006237406	-0.032698493	-0.033324063	-0.086968124	-0.13836521	-0.09406633	0.019176293	0.00090244226	-0.117942184	-0.15808058	-0.28723583	0.053499177	0.11135378	0.026612142	-0.3050397	-0.0072261076	-0.006911772	0.14666988	-0.12377751	0.11703801	0.130375	-0.14928095	0.021122003	-0.098406404	-0.1316649	-0.13647224	-0.0137477815	0.030734465	0.0848723	-0.068487115	-0.027496958	0.14750989	0.024046263	-0.23276396	0.11094963	-0.028376192	0.0541492	0.021161357	0.034570485	0.10759902	-0.08235874	0.18977694	-0.14381783	0.12299695	-0.24343836	-0.14547764	0.14825983	-0.07486752	-0.02917281	-0.17578854	0.11480981	0.15981747	-0.17470092	-0.03863103	0.026243014	-0.09663266	0.067032315	-0.027916417	-0.07541174	-0.062162023	-0.03201615	0.12368211	-0.057897914	0.016654734	-0.043823827	0.07754011	-0.029347556	0.16730332	0.12292081	-0.16576295	-0.088992774	-0.041706633	-0.119843744	-0.10834542	0.0041814595	0.08649828	-0.10296703	-0.040520076	0.029553754	0.17862152	0.19940819	-0.012490793	-0.029212797	-0.018709311	-0.19725902	0.048750382	-0.036817696	-0.057149217	0.10570564	-0.06719645	-0.030778999	0.121343605	0.29499266	0.11362178	-0.0802107	0.0313093	-0.024103256	-0.11779434	0.02575788	0.08414591	0.07838431	0.034881745	-0.08140061	-0.015682448	0.14969479	0.013142514	-0.19847882	0.01802308	0.016069405	0.10018984	-0.18930618	-0.12123203	0.039102975	0.046356827	-0.02738019	0.046808273	-0.12281361	0.012890627	-0.1120125	-0.092280686	0.008044126	0.0758887	0.12179851	-0.20194264	-0.024901733	-0.20090137	-0.09162489	-0.00367875	0.10224268	0.055067077	-0.076160364	-0.09249383	-0.005407126	0.051541787	0.050926592	0.22672729	-0.12254848	-0.059489954	-0.22944294	0.108436495	0.08681045	0.1970011	-0.0392768	-0.02967675	0.07439447	-0.029328361	0.03257296	-0.023830174	0.16833419	-0.023233948	-0.16490085	0.08404984	0.051928446	0.07996556	-0.0043301936	-0.20561147	-0.19298106	-0.026812293	0.045566063	0.15027872	0.0021262255	0.13369454	0.07785943	-0.1229346	-0.034161687	0.0018499423	0.030392885	-0.17878252	0.0511484	0.018415267	-0.061573263	0.21293163	-0.008474627	-0.09694198	0.029324198	-0.015325646	-0.09086714	-0.11816174	-0.14722264	-0.0949612	-0.023516329	0.060200464	-0.15603499	0.120814465	0.06776617	-0.01862173	-0.08771479	-0.19655281	0.0211209	0.18066512	0.03608527	-0.0072993897	-0.13390684	0.10523453	0.12342908	-0.12398356	0.15967064	-0.100583784	-0.19367242	-0.008667552	-0.08564326	0.12437341	0.18762322	-0.05622518	-0.09824566	0.15990534	-0.08746735	-0.09189408	0.09960246	-0.029330363	-0.091626726	0.055802643	-0.21303304	-0.13463295	-0.089013465	0.20913072	0.07424042	0.027839014	-0.03789809	0.24430741	-0.026181666	0.124792255	-0.017967552	0.14986216	-0.0033548793	0.01219551	-0.08892483
Algrebra|Elementary_algebra|19	0.16450438	-0.028124735	0.0062128836	0.06688702	-0.15794653	-0.057206728	-0.08080916	0.01592312	-0.015740523	0.05176926	-0.13075611	-0.04032834	0.02784481	0.04154264	-0.018484265	-0.085400075	0.054182	-0.048537813	-0.04977622	-0.046856634	-0.099261634	0.0816156	0.10538374	-0.026221061	0.20041604	-0.16468059	-0.062246058	-0.28615826	-0.078529134	0.053254277	-0.022719692	0.022581235	-0.12003911	-0.14032973	0.010530827	0.15651536	-0.09474813	-0.0930963	0.06623189	-0.05003418	-0.11766224	0.12544782	-0.03557831	0.17610407	-0.06486514	0.025787577	0.11407518	0.12121004	0.056957614	0.025887981	0.04575074	-0.11210757	0.118736416	-0.17367877	-0.041899804	-0.0061620055	0.028123595	-0.009683182	0.17246777	0.12828541	-0.04678008	-0.005635814	-0.13367759	-0.10129391	-0.048324533	0.050479885	-0.028782828	0.10493442	0.045038477	0.013560822	-0.04102444	0.031126976	0.06057936	-0.00533577	-0.02747707	-0.02867287	-0.073223725	-0.117179394	-0.07817313	0.015790168	-0.00020442196	-0.098655686	-0.13317105	-0.24237218	0.044878002	0.09296096	0.023484547	-0.2577873	-0.0057492135	-0.0067506786	0.12306961	-0.10366544	0.098689616	0.109980196	-0.12644187	0.017675713	-0.08342421	-0.11175205	-0.11467777	-0.011137109	0.024889167	0.07084954	-0.05816762	-0.023095146	0.124245346	0.019622147	-0.19527291	0.09324773	-0.024172738	0.045403242	0.016738843	0.02862139	0.08984818	-0.069119744	0.16007848	-0.12097384	0.10314582	-0.2052823	-0.12341964	0.12559912	-0.061972346	-0.02456592	-0.14791553	0.097412854	0.1356479	-0.14750418	-0.032140348	0.021583453	-0.08116923	0.0565019	-0.023510091	-0.06291561	-0.052170746	-0.026411578	0.10482617	-0.047915168	0.014575426	-0.03700261	0.06519729	-0.024042392	0.14115241	0.10241382	-0.13984081	-0.07545955	-0.034788843	-0.10059203	-0.09094769	0.003275887	0.07319496	-0.08636883	-0.034240797	0.02421078	0.15008482	0.16829431	-0.010333763	-0.024371065	-0.016025804	-0.16705292	0.040106166	-0.03154925	-0.047585025	0.08951072	-0.057171613	-0.026100446	0.10203302	0.24853045	0.09523894	-0.06771402	0.02620378	-0.020051584	-0.09990342	0.021409163	0.070578925	0.066233054	0.02981928	-0.06841582	-0.013875239	0.12604512	0.0109133525	-0.16720079	0.014419267	0.013581377	0.08325134	-0.16030023	-0.10162124	0.033351958	0.039708305	-0.023125984	0.039231952	-0.10365167	0.01007849	-0.09428529	-0.075985506	0.0057818945	0.06405145	0.103638	-0.16905026	-0.02067399	-0.16991016	-0.07674001	-0.003673558	0.08626838	0.047525734	-0.06363551	-0.07828665	-0.0038194505	0.043170344	0.04224194	0.1906029	-0.10421558	-0.049209245	-0.1932841	0.09183878	0.07298829	0.16587496	-0.034508795	-0.026286922	0.06255714	-0.024680335	0.025638571	-0.019549198	0.14268169	-0.020737112	-0.13855612	0.07171637	0.044572372	0.06712699	-0.0034979614	-0.1744014	-0.1615511	-0.022874657	0.03872517	0.12687042	0.00179183	0.112538695	0.06523696	-0.104097545	-0.029357854	0.0017485146	0.024362333	-0.15124792	0.043925308	0.014600938	-0.0520409	0.17779009	-0.0060184193	-0.082476154	0.024183905	-0.014143093	-0.07612246	-0.09944995	-0.1239566	-0.08126278	-0.019775318	0.05078529	-0.13123073	0.101662084	0.057180323	-0.015669977	-0.07371381	-0.16494693	0.01652084	0.15149797	0.031101998	-0.0062079863	-0.11279011	0.08825922	0.10303204	-0.105365224	0.1351678	-0.08419897	-0.1639781	-0.0058438187	-0.07265566	0.104903944	0.15814231	-0.04718838	-0.083219364	0.1357111	-0.07273404	-0.07840888	0.08413649	-0.02480577	-0.077431165	0.046968058	-0.1796512	-0.112757295	-0.07516936	0.17540091	0.061611403	0.023416614	-0.03125396	0.20616204	-0.022314204	0.10653412	-0.01655753	0.12506345	-0.0029719025	0.011113768	-0.07507755
Algrebra|Elementary_algebra|20	0.19717547	-0.034597896	0.0067302743	0.080554746	-0.19007504	-0.06954134	-0.09650592	0.020233538	-0.019615987	0.063650526	-0.15673396	-0.05044632	0.034807883	0.051777232	-0.021112004	-0.10262772	0.06620689	-0.058590204	-0.059941657	-0.056068707	-0.11942621	0.09811401	0.12662463	-0.032175004	0.24286361	-0.19865617	-0.076112844	-0.3445248	-0.09321904	0.064621404	-0.027783751	0.026813319	-0.14414707	-0.16964793	0.011837313	0.1891357	-0.114666834	-0.113737784	0.07966326	-0.0585438	-0.14377244	0.15130918	-0.0440032	0.21308875	-0.07641893	0.031129528	0.13760242	0.14677323	0.06928033	0.030443545	0.0560826	-0.13455482	0.14414643	-0.20986493	-0.051230103	-0.0095809335	0.03321468	-0.010334579	0.20882864	0.15552714	-0.05614524	-0.0064022704	-0.16198206	-0.12177038	-0.05804342	0.06156963	-0.03563165	0.12643278	0.053119265	0.01739325	-0.048965447	0.038728528	0.07323079	-0.0057118335	-0.033512898	-0.03339066	-0.08841255	-0.14119537	-0.09606749	0.01982795	0.0013821345	-0.11967653	-0.1609352	-0.2913465	0.054805785	0.11376585	0.027093265	-0.310233	-0.0069781663	-0.0064456523	0.14941606	-0.12537988	0.11883633	0.13274631	-0.1517725	0.021689732	-0.09999244	-0.13339196	-0.138702	-0.013441259	0.03176499	0.08616285	-0.06921913	-0.028133634	0.15019722	0.024756247	-0.23706213	0.112866744	-0.029153187	0.05556013	0.021479834	0.035128605	0.11015713	-0.08439641	0.19309333	-0.14644249	0.12511611	-0.24742904	-0.14768061	0.15049718	-0.076301396	-0.029338509	-0.1791608	0.11640923	0.16281243	-0.17820638	-0.039536446	0.027178565	-0.09879278	0.06811475	-0.02847896	-0.07707981	-0.06344809	-0.03328854	0.12555128	-0.059008956	0.017043982	-0.04539562	0.078304544	-0.029875163	0.1701345	0.12541206	-0.16840419	-0.090274826	-0.042657413	-0.12188178	-0.110035166	0.00415107	0.08803554	-0.10480939	-0.04153932	0.030245045	0.1819413	0.20211072	-0.012532497	-0.030000875	-0.018769681	-0.20033857	0.049550522	-0.037406154	-0.058263034	0.10694947	-0.068135485	-0.031026786	0.123218015	0.2995711	0.11598702	-0.08197676	0.032062	-0.024853775	-0.119549096	0.026636336	0.08535144	0.07969046	0.035507727	-0.082693174	-0.015673492	0.15208416	0.013821286	-0.20231576	0.018536534	0.016233897	0.102159776	-0.19228888	-0.123539925	0.040273316	0.0471353	-0.028203353	0.047650665	-0.12474792	0.01352693	-0.114015624	-0.09452392	0.008242665	0.07761286	0.124136485	-0.20521495	-0.025605123	-0.20427874	-0.09323014	-0.004046349	0.103595115	0.05567655	-0.07811837	-0.09450509	-0.005946796	0.052280046	0.05168432	0.23105976	-0.12447238	-0.060341846	-0.23339145	0.11012175	0.08845599	0.2007093	-0.039858773	-0.029821882	0.075451374	-0.029760707	0.033339612	-0.024336953	0.17134707	-0.024011534	-0.16741899	0.08586923	0.05263843	0.081182204	-0.0047560604	-0.20929751	-0.19579475	-0.027695904	0.046718337	0.15315185	0.0029874414	0.13544261	0.078417815	-0.12509437	-0.033938427	0.0017217646	0.031120528	-0.1813691	0.05147267	0.019449588	-0.062498927	0.21648815	-0.0083520245	-0.09824849	0.02994976	-0.015783733	-0.092499204	-0.12065794	-0.14951646	-0.09620451	-0.024323694	0.06120534	-0.15888634	0.122726165	0.06928559	-0.01824368	-0.08923375	-0.2005656	0.021326166	0.18417792	0.036961045	-0.007698617	-0.13601342	0.10689998	0.12542243	-0.12635578	0.16231921	-0.1018909	-0.19684412	-0.009032063	-0.08653003	0.12630294	0.19024538	-0.057171054	-0.100265704	0.16223767	-0.08873664	-0.09344451	0.10142348	-0.029469002	-0.09318564	0.057244778	-0.21719071	-0.13642597	-0.09009541	0.21276462	0.07569686	0.028285325	-0.038233627	0.24850754	-0.027546648	0.12652437	-0.018246936	0.15212665	-0.0035961985	0.012206819	-0.09068303
Algrebra|Elementary_algebra|21	0.19306809	-0.034867916	0.0057336837	0.07713786	-0.18484557	-0.066721894	-0.09481979	0.019306209	-0.01888849	0.061602686	-0.15452544	-0.049860813	0.03352441	0.05068949	-0.021551182	-0.1006704	0.06268238	-0.057566445	-0.05845849	-0.05537367	-0.11723997	0.093399346	0.123352066	-0.03209974	0.23677133	-0.19406468	-0.074742466	-0.3360627	-0.08920534	0.06319085	-0.028608497	0.02673008	-0.14023319	-0.16460808	0.011132853	0.1832093	-0.1103098	-0.11083722	0.0787934	-0.057808656	-0.1384374	0.14766188	-0.042607646	0.20631784	-0.07641744	0.031389527	0.13534781	0.14441086	0.06814454	0.03143897	0.054689355	-0.13137716	0.14209682	-0.20523174	-0.04924357	-0.010636452	0.031109413	-0.010670553	0.20108052	0.15046737	-0.05342278	-0.0068460805	-0.15821919	-0.11781517	-0.057745147	0.060575373	-0.033426497	0.12318636	0.051921837	0.015798956	-0.04719524	0.03583114	0.07096814	-0.0076363073	-0.032415777	-0.031958215	-0.08640108	-0.1360309	-0.09385211	0.01863172	0.0002552679	-0.11772373	-0.15562467	-0.285506	0.052256532	0.109002	0.026048154	-0.30133128	-0.008176428	-0.0070431596	0.14410828	-0.12261525	0.11626548	0.13045587	-0.14614032	0.018859949	-0.09718582	-0.13111867	-0.13425112	-0.01372879	0.029827714	0.0850632	-0.06722286	-0.026454024	0.1471224	0.023738177	-0.22968994	0.11001217	-0.026803171	0.05419108	0.021938186	0.033575814	0.10464086	-0.08002357	0.187449	-0.14228758	0.122045994	-0.24139142	-0.14419028	0.14546129	-0.075274095	-0.029772272	-0.17226492	0.113058455	0.15844123	-0.17229213	-0.039972376	0.025328804	-0.0951559	0.06627135	-0.026765268	-0.073114395	-0.06273661	-0.029404	0.123550735	-0.058990315	0.016541412	-0.042250942	0.07847963	-0.029891765	0.16554531	0.12223343	-0.16556497	-0.08891785	-0.040248446	-0.12048423	-0.10826226	0.0035646749	0.084150426	-0.10324238	-0.041176625	0.028031763	0.17739797	0.19810612	-0.01170632	-0.029744549	-0.019846927	-0.19668706	0.048448175	-0.03718772	-0.05858185	0.105540276	-0.06767453	-0.029589633	0.12092777	0.2935725	0.11209555	-0.07736455	0.03192547	-0.02442946	-0.11599042	0.02540784	0.08369126	0.07674764	0.0366771	-0.08160408	-0.016593842	0.1495094	0.0121727595	-0.19592704	0.018993855	0.01519471	0.098991275	-0.18668506	-0.12029541	0.038028307	0.045796078	-0.027890788	0.046802286	-0.120562784	0.0114973355	-0.10979335	-0.09095896	0.009943133	0.075696275	0.12006907	-0.19945951	-0.02300367	-0.19668756	-0.090278	-0.0032978188	0.10294145	0.05356977	-0.07445219	-0.09072065	-0.005199415	0.052156504	0.05158554	0.22344889	-0.12217722	-0.059317086	-0.22683506	0.106495515	0.08551213	0.19426279	-0.039397065	-0.029281184	0.07429808	-0.0292268	0.03234783	-0.024339262	0.16562618	-0.021610985	-0.16294016	0.08279963	0.05294701	0.07952044	-0.0044147926	-0.20216928	-0.19196728	-0.025271172	0.04376165	0.1485696	0.001298203	0.13333464	0.077718675	-0.12159659	-0.03525654	0.0022298915	0.029909033	-0.17673187	0.04960656	0.01710533	-0.062203877	0.21170713	-0.00869426	-0.09552134	0.029710723	-0.013811734	-0.08959234	-0.11793479	-0.14693372	-0.09334865	-0.020967608	0.061580908	-0.1558578	0.120020404	0.06653245	-0.018185735	-0.08575774	-0.19274762	0.022687156	0.17776555	0.03299847	-0.0077019827	-0.13423428	0.103559144	0.12307996	-0.123483	0.15723151	-0.100389056	-0.19425529	-0.0088749975	-0.08501501	0.12471221	0.1863956	-0.05636585	-0.09784361	0.15923265	-0.086481586	-0.08946973	0.099148676	-0.030853942	-0.09078247	0.054263115	-0.21098444	-0.13439864	-0.08775527	0.2076062	0.07361664	0.029123833	-0.03806703	0.24124742	-0.024544416	0.122992314	-0.017560795	0.14911516	-0.0021019797	0.013653676	-0.08767132
Algrebra|Elementary_algebra|22	0.19941862	-0.03519073	0.0066323616	0.08157252	-0.19281311	-0.07067896	-0.09717742	0.020770973	-0.019927049	0.06448544	-0.15841942	-0.05108239	0.03522108	0.05250444	-0.021472493	-0.10367268	0.06671839	-0.058854394	-0.06113567	-0.05650989	-0.12094989	0.09918578	0.12827167	-0.032973118	0.24575153	-0.20060083	-0.07719649	-0.34851846	-0.0939645	0.0659499	-0.028767403	0.027422082	-0.14543304	-0.17209521	0.011445102	0.1916786	-0.11643181	-0.11496405	0.08061155	-0.05929333	-0.14604291	0.15320536	-0.04475391	0.21515453	-0.07722687	0.0318333	0.13952793	0.14849299	0.070410386	0.030640092	0.05687371	-0.13635477	0.14603113	-0.21240489	-0.051841624	-0.010294536	0.032998655	-0.010724921	0.21130744	0.15757105	-0.057339676	-0.0068344297	-0.16414304	-0.12309597	-0.05828445	0.06216103	-0.03634734	0.12813446	0.053848885	0.01733679	-0.04967437	0.039571844	0.07469903	-0.005652788	-0.034524582	-0.033178333	-0.08993454	-0.14293401	-0.097763695	0.019830504	0.0018299411	-0.121575676	-0.16281429	-0.29438767	0.055550642	0.1152549	0.027216941	-0.31372556	-0.007249606	-0.00605961	0.15086976	-0.12696967	0.120307125	0.1346384	-0.15326105	0.021981718	-0.1008587	-0.13456365	-0.14032471	-0.013480401	0.032452475	0.08746655	-0.06957324	-0.028480833	0.15191261	0.024868328	-0.24014597	0.11407508	-0.02958459	0.056652308	0.02177971	0.035796557	0.112046584	-0.08521832	0.19512914	-0.14874424	0.127269	-0.25072527	-0.14918527	0.1517461	-0.0778987	-0.02933539	-0.18172254	0.11774115	0.16477199	-0.18072866	-0.04028049	0.027418524	-0.1003529	0.06878087	-0.029126003	-0.07817705	-0.06450021	-0.03358709	0.12752965	-0.060287416	0.016980182	-0.045978572	0.07913293	-0.03056036	0.17222959	0.12739071	-0.1701985	-0.091170415	-0.043653943	-0.12334506	-0.11187343	0.004516167	0.08925254	-0.10593659	-0.042136163	0.0303039	0.1843929	0.2047495	-0.012802571	-0.03099291	-0.018428463	-0.20303413	0.04986353	-0.038078807	-0.05922248	0.10766985	-0.068562366	-0.031222278	0.1245024	0.30360392	0.11808815	-0.08321507	0.032277234	-0.02520129	-0.12091535	0.027163256	0.08623853	0.08074276	0.03611573	-0.08372257	-0.016097609	0.15350923	0.01409681	-0.20518693	0.019098248	0.016489893	0.10374781	-0.19428527	-0.1254013	0.04075532	0.047817964	-0.028730128	0.048429035	-0.12571517	0.013508288	-0.115198925	-0.09635675	0.008966077	0.07885764	0.12572159	-0.20772517	-0.02588078	-0.20629409	-0.09399532	-0.0042830207	0.10451009	0.055924736	-0.07953523	-0.09556213	-0.0065354807	0.053361215	0.05268377	0.23371176	-0.12588339	-0.061142076	-0.23581669	0.11109988	0.09015663	0.2031359	-0.040621314	-0.029671554	0.0759215	-0.030178804	0.033991195	-0.024906276	0.1730272	-0.0241536	-0.16962127	0.08711758	0.05306332	0.08225791	-0.0050017643	-0.21195197	-0.19831692	-0.027916977	0.046957403	0.15503754	0.0032306823	0.13724272	0.07925906	-0.1264172	-0.033936813	0.0014030386	0.031579517	-0.1832321	0.051382095	0.020266509	-0.06393677	0.21936753	-0.008191034	-0.098994896	0.030946618	-0.015870232	-0.09345041	-0.12234187	-0.15094893	-0.097122505	-0.025123602	0.062354524	-0.16097558	0.124129795	0.07020049	-0.018062126	-0.0901638	-0.20331693	0.022035535	0.18702367	0.03731317	-0.008487133	-0.13815574	0.10832906	0.12682572	-0.12828413	0.16409063	-0.103633784	-0.19923662	-0.009558795	-0.0873062	0.12828891	0.19257723	-0.05778411	-0.10182544	0.16388449	-0.08992995	-0.09439266	0.10269421	-0.029688854	-0.09414271	0.057836972	-0.22000405	-0.13820235	-0.09084754	0.21541147	0.07669775	0.02857933	-0.038687296	0.2516218	-0.02810758	0.12777035	-0.018386127	0.15358175	-0.0031749555	0.012631455	-0.0915965
Algrebra|Elementary_algebra|23	0.19250926	-0.033701956	0.0066194697	0.07856927	-0.18507987	-0.067529544	-0.094431356	0.019250464	-0.01934554	0.0620489	-0.1530152	-0.049413048	0.033805393	0.05068665	-0.020445514	-0.10047841	0.06526955	-0.057411194	-0.0577538	-0.054709297	-0.11678128	0.09546302	0.12362947	-0.031714164	0.23685446	-0.19383414	-0.07453091	-0.3364323	-0.09141481	0.063017584	-0.026912022	0.025796238	-0.14108264	-0.16556555	0.012018573	0.18405893	-0.111574806	-0.11143569	0.07782215	-0.05678471	-0.13987921	0.14802812	-0.042804897	0.20846598	-0.07453274	0.029936993	0.13457268	0.14288181	0.067930646	0.030177712	0.054356057	-0.13133727	0.1408848	-0.20541367	-0.04996252	-0.008934132	0.033159427	-0.010273022	0.20339891	0.15194735	-0.054235883	-0.0061767665	-0.15760562	-0.118663326	-0.057291944	0.060572796	-0.034026466	0.123334646	0.051759522	0.017716926	-0.047889553	0.03761546	0.07110723	-0.006252476	-0.032260187	-0.032717023	-0.08574058	-0.13753025	-0.09366744	0.019350333	0.0014118489	-0.11649368	-0.15720898	-0.28469497	0.05330587	0.11055511	0.026692739	-0.30281878	-0.0067732385	-0.0063871816	0.1463755	-0.12238221	0.11611302	0.12910585	-0.14842226	0.021512387	-0.09763914	-0.1306052	-0.1357598	-0.013556987	0.031213323	0.08387881	-0.06799459	-0.027790675	0.14643867	0.024393138	-0.23154493	0.110052146	-0.028239798	0.053397864	0.021434229	0.03410504	0.107333794	-0.08223754	0.18889105	-0.14277564	0.121569134	-0.24137406	-0.14452043	0.1473706	-0.07440208	-0.028747007	-0.17482601	0.11382415	0.15903568	-0.17346662	-0.038119715	0.026618302	-0.096062854	0.06702228	-0.027383417	-0.075317144	-0.061936863	-0.03242489	0.122176185	-0.05720699	0.0166176	-0.044183828	0.07631906	-0.029154751	0.16595528	0.122387186	-0.16427897	-0.08775179	-0.04186151	-0.11912882	-0.10714009	0.0042514624	0.08552871	-0.101973094	-0.040349867	0.029696424	0.17775205	0.19730154	-0.011976379	-0.028605685	-0.01823102	-0.19474694	0.04841336	-0.03626145	-0.056450475	0.10441313	-0.066499464	-0.030884188	0.12030928	0.29243225	0.112765566	-0.07983942	0.031151045	-0.024158519	-0.11713934	0.025716688	0.08374117	0.07741373	0.034125928	-0.08065723	-0.014815214	0.1484137	0.013403287	-0.19709916	0.018057259	0.015764695	0.099164456	-0.18788508	-0.12022035	0.039434712	0.04538185	-0.027040575	0.046724893	-0.121719494	0.013629088	-0.11116226	-0.09161194	0.0075954325	0.07566969	0.12100166	-0.20068005	-0.02530377	-0.20000856	-0.09126951	-0.0033188653	0.101120174	0.05453018	-0.07595508	-0.09197225	-0.0055973027	0.0507868	0.050562732	0.22588746	-0.121459424	-0.05950346	-0.2280273	0.107862234	0.08553986	0.19577003	-0.038486704	-0.029376263	0.07384306	-0.02886107	0.032694474	-0.023422293	0.16761601	-0.023537546	-0.16363183	0.083071634	0.051603705	0.07936122	-0.0044819834	-0.20443447	-0.19151005	-0.026607936	0.04571078	0.1491215	0.0024311864	0.13262776	0.07655777	-0.12193105	-0.03370311	0.0018376609	0.030326694	-0.17723195	0.050676316	0.018551342	-0.060414992	0.21134143	-0.008596878	-0.09597876	0.029034084	-0.014953995	-0.09015332	-0.117680036	-0.1463475	-0.09389356	-0.02335997	0.059486628	-0.15512392	0.120198205	0.06751577	-0.01841257	-0.0873289	-0.19530647	0.020746285	0.17946503	0.035760257	-0.007106226	-0.13214247	0.104501985	0.122746035	-0.122720145	0.15863109	-0.09978151	-0.19162485	-0.0090969335	-0.08498804	0.12292781	0.18553737	-0.05592709	-0.09778075	0.15869245	-0.08694643	-0.09140047	0.098582454	-0.028812641	-0.0906855	0.0560939	-0.21178214	-0.13318773	-0.08811991	0.20796831	0.07388057	0.027362633	-0.037387133	0.2426862	-0.02610143	0.12400639	-0.017745908	0.14906517	-0.004039556	0.011369865	-0.088623084
Algrebra|Elementary_algebra|24	0.19250926	-0.033701956	0.0066194697	0.07856927	-0.18507987	-0.067529544	-0.094431356	0.019250464	-0.01934554	0.0620489	-0.1530152	-0.049413048	0.033805393	0.05068665	-0.020445514	-0.10047841	0.06526955	-0.057411194	-0.0577538	-0.054709297	-0.11678128	0.09546302	0.12362947	-0.031714164	0.23685446	-0.19383414	-0.07453091	-0.3364323	-0.09141481	0.063017584	-0.026912022	0.025796238	-0.14108264	-0.16556555	0.012018573	0.18405893	-0.111574806	-0.11143569	0.07782215	-0.05678471	-0.13987921	0.14802812	-0.042804897	0.20846598	-0.07453274	0.029936993	0.13457268	0.14288181	0.067930646	0.030177712	0.054356057	-0.13133727	0.1408848	-0.20541367	-0.04996252	-0.008934132	0.033159427	-0.010273022	0.20339891	0.15194735	-0.054235883	-0.0061767665	-0.15760562	-0.118663326	-0.057291944	0.060572796	-0.034026466	0.123334646	0.051759522	0.017716926	-0.047889553	0.03761546	0.07110723	-0.006252476	-0.032260187	-0.032717023	-0.08574058	-0.13753025	-0.09366744	0.019350333	0.0014118489	-0.11649368	-0.15720898	-0.28469497	0.05330587	0.11055511	0.026692739	-0.30281878	-0.0067732385	-0.0063871816	0.1463755	-0.12238221	0.11611302	0.12910585	-0.14842226	0.021512387	-0.09763914	-0.1306052	-0.1357598	-0.013556987	0.031213323	0.08387881	-0.06799459	-0.027790675	0.14643867	0.024393138	-0.23154493	0.110052146	-0.028239798	0.053397864	0.021434229	0.03410504	0.107333794	-0.08223754	0.18889105	-0.14277564	0.121569134	-0.24137406	-0.14452043	0.1473706	-0.07440208	-0.028747007	-0.17482601	0.11382415	0.15903568	-0.17346662	-0.038119715	0.026618302	-0.096062854	0.06702228	-0.027383417	-0.075317144	-0.061936863	-0.03242489	0.122176185	-0.05720699	0.0166176	-0.044183828	0.07631906	-0.029154751	0.16595528	0.122387186	-0.16427897	-0.08775179	-0.04186151	-0.11912882	-0.10714009	0.0042514624	0.08552871	-0.101973094	-0.040349867	0.029696424	0.17775205	0.19730154	-0.011976379	-0.028605685	-0.01823102	-0.19474694	0.04841336	-0.03626145	-0.056450475	0.10441313	-0.066499464	-0.030884188	0.12030928	0.29243225	0.112765566	-0.07983942	0.031151045	-0.024158519	-0.11713934	0.025716688	0.08374117	0.07741373	0.034125928	-0.08065723	-0.014815214	0.1484137	0.013403287	-0.19709916	0.018057259	0.015764695	0.099164456	-0.18788508	-0.12022035	0.039434712	0.04538185	-0.027040575	0.046724893	-0.121719494	0.013629088	-0.11116226	-0.09161194	0.0075954325	0.07566969	0.12100166	-0.20068005	-0.02530377	-0.20000856	-0.09126951	-0.0033188653	0.101120174	0.05453018	-0.07595508	-0.09197225	-0.0055973027	0.0507868	0.050562732	0.22588746	-0.121459424	-0.05950346	-0.2280273	0.107862234	0.08553986	0.19577003	-0.038486704	-0.029376263	0.07384306	-0.02886107	0.032694474	-0.023422293	0.16761601	-0.023537546	-0.16363183	0.083071634	0.051603705	0.07936122	-0.0044819834	-0.20443447	-0.19151005	-0.026607936	0.04571078	0.1491215	0.0024311864	0.13262776	0.07655777	-0.12193105	-0.03370311	0.0018376609	0.030326694	-0.17723195	0.050676316	0.018551342	-0.060414992	0.21134143	-0.008596878	-0.09597876	0.029034084	-0.014953995	-0.09015332	-0.117680036	-0.1463475	-0.09389356	-0.02335997	0.059486628	-0.15512392	0.120198205	0.06751577	-0.01841257	-0.0873289	-0.19530647	0.020746285	0.17946503	0.035760257	-0.007106226	-0.13214247	0.104501985	0.122746035	-0.122720145	0.15863109	-0.09978151	-0.19162485	-0.0090969335	-0.08498804	0.12292781	0.18553737	-0.05592709	-0.09778075	0.15869245	-0.08694643	-0.09140047	0.098582454	-0.028812641	-0.0906855	0.0560939	-0.21178214	-0.13318773	-0.08811991	0.20796831	0.07388057	0.027362633	-0.037387133	0.2426862	-0.02610143	0.12400639	-0.017745908	0.14906517	-0.004039556	0.011369865	-0.088623084
Algrebra|Elementary_algebra|25	0.19250926	-0.033701956	0.0066194697	0.07856927	-0.18507987	-0.067529544	-0.094431356	0.019250464	-0.01934554	0.0620489	-0.1530152	-0.049413048	0.033805393	0.05068665	-0.020445514	-0.10047841	0.06526955	-0.057411194	-0.0577538	-0.054709297	-0.11678128	0.09546302	0.12362947	-0.031714164	0.23685446	-0.19383414	-0.07453091	-0.3364323	-0.09141481	0.063017584	-0.026912022	0.025796238	-0.14108264	-0.16556555	0.012018573	0.18405893	-0.111574806	-0.11143569	0.07782215	-0.05678471	-0.13987921	0.14802812	-0.042804897	0.20846598	-0.07453274	0.029936993	0.13457268	0.14288181	0.067930646	0.030177712	0.054356057	-0.13133727	0.1408848	-0.20541367	-0.04996252	-0.008934132	0.033159427	-0.010273022	0.20339891	0.15194735	-0.054235883	-0.0061767665	-0.15760562	-0.118663326	-0.057291944	0.060572796	-0.034026466	0.123334646	0.051759522	0.017716926	-0.047889553	0.03761546	0.07110723	-0.006252476	-0.032260187	-0.032717023	-0.08574058	-0.13753025	-0.09366744	0.019350333	0.0014118489	-0.11649368	-0.15720898	-0.28469497	0.05330587	0.11055511	0.026692739	-0.30281878	-0.0067732385	-0.0063871816	0.1463755	-0.12238221	0.11611302	0.12910585	-0.14842226	0.021512387	-0.09763914	-0.1306052	-0.1357598	-0.013556987	0.031213323	0.08387881	-0.06799459	-0.027790675	0.14643867	0.024393138	-0.23154493	0.110052146	-0.028239798	0.053397864	0.021434229	0.03410504	0.107333794	-0.08223754	0.18889105	-0.14277564	0.121569134	-0.24137406	-0.14452043	0.1473706	-0.07440208	-0.028747007	-0.17482601	0.11382415	0.15903568	-0.17346662	-0.038119715	0.026618302	-0.096062854	0.06702228	-0.027383417	-0.075317144	-0.061936863	-0.03242489	0.122176185	-0.05720699	0.0166176	-0.044183828	0.07631906	-0.029154751	0.16595528	0.122387186	-0.16427897	-0.08775179	-0.04186151	-0.11912882	-0.10714009	0.0042514624	0.08552871	-0.101973094	-0.040349867	0.029696424	0.17775205	0.19730154	-0.011976379	-0.028605685	-0.01823102	-0.19474694	0.04841336	-0.03626145	-0.056450475	0.10441313	-0.066499464	-0.030884188	0.12030928	0.29243225	0.112765566	-0.07983942	0.031151045	-0.024158519	-0.11713934	0.025716688	0.08374117	0.07741373	0.034125928	-0.08065723	-0.014815214	0.1484137	0.013403287	-0.19709916	0.018057259	0.015764695	0.099164456	-0.18788508	-0.12022035	0.039434712	0.04538185	-0.027040575	0.046724893	-0.121719494	0.013629088	-0.11116226	-0.09161194	0.0075954325	0.07566969	0.12100166	-0.20068005	-0.02530377	-0.20000856	-0.09126951	-0.0033188653	0.101120174	0.05453018	-0.07595508	-0.09197225	-0.0055973027	0.0507868	0.050562732	0.22588746	-0.121459424	-0.05950346	-0.2280273	0.107862234	0.08553986	0.19577003	-0.038486704	-0.029376263	0.07384306	-0.02886107	0.032694474	-0.023422293	0.16761601	-0.023537546	-0.16363183	0.083071634	0.051603705	0.07936122	-0.0044819834	-0.20443447	-0.19151005	-0.026607936	0.04571078	0.1491215	0.0024311864	0.13262776	0.07655777	-0.12193105	-0.03370311	0.0018376609	0.030326694	-0.17723195	0.050676316	0.018551342	-0.060414992	0.21134143	-0.008596878	-0.09597876	0.029034084	-0.014953995	-0.09015332	-0.117680036	-0.1463475	-0.09389356	-0.02335997	0.059486628	-0.15512392	0.120198205	0.06751577	-0.01841257	-0.0873289	-0.19530647	0.020746285	0.17946503	0.035760257	-0.007106226	-0.13214247	0.104501985	0.122746035	-0.122720145	0.15863109	-0.09978151	-0.19162485	-0.0090969335	-0.08498804	0.12292781	0.18553737	-0.05592709	-0.09778075	0.15869245	-0.08694643	-0.09140047	0.098582454	-0.028812641	-0.0906855	0.0560939	-0.21178214	-0.13318773	-0.08811991	0.20796831	0.07388057	0.027362633	-0.037387133	0.2426862	-0.02610143	0.12400639	-0.017745908	0.14906517	-0.004039556	0.011369865	-0.088623084
Algrebra|Elementary_algebra|26	0.16450438	-0.028124735	0.0062128836	0.06688702	-0.15794653	-0.057206728	-0.08080916	0.01592312	-0.015740523	0.05176926	-0.13075611	-0.04032834	0.02784481	0.04154264	-0.018484265	-0.085400075	0.054182	-0.048537813	-0.04977622	-0.046856634	-0.099261634	0.0816156	0.10538374	-0.026221061	0.20041604	-0.16468059	-0.062246058	-0.28615826	-0.078529134	0.053254277	-0.022719692	0.022581235	-0.12003911	-0.14032973	0.010530827	0.15651536	-0.09474813	-0.0930963	0.06623189	-0.05003418	-0.11766224	0.12544782	-0.03557831	0.17610407	-0.06486514	0.025787577	0.11407518	0.12121004	0.056957614	0.025887981	0.04575074	-0.11210757	0.118736416	-0.17367877	-0.041899804	-0.0061620055	0.028123595	-0.009683182	0.17246777	0.12828541	-0.04678008	-0.005635814	-0.13367759	-0.10129391	-0.048324533	0.050479885	-0.028782828	0.10493442	0.045038477	0.013560822	-0.04102444	0.031126976	0.06057936	-0.00533577	-0.02747707	-0.02867287	-0.073223725	-0.117179394	-0.07817313	0.015790168	-0.00020442196	-0.098655686	-0.13317105	-0.24237218	0.044878002	0.09296096	0.023484547	-0.2577873	-0.0057492135	-0.0067506786	0.12306961	-0.10366544	0.098689616	0.109980196	-0.12644187	0.017675713	-0.08342421	-0.11175205	-0.11467777	-0.011137109	0.024889167	0.07084954	-0.05816762	-0.023095146	0.124245346	0.019622147	-0.19527291	0.09324773	-0.024172738	0.045403242	0.016738843	0.02862139	0.08984818	-0.069119744	0.16007848	-0.12097384	0.10314582	-0.2052823	-0.12341964	0.12559912	-0.061972346	-0.02456592	-0.14791553	0.097412854	0.1356479	-0.14750418	-0.032140348	0.021583453	-0.08116923	0.0565019	-0.023510091	-0.06291561	-0.052170746	-0.026411578	0.10482617	-0.047915168	0.014575426	-0.03700261	0.06519729	-0.024042392	0.14115241	0.10241382	-0.13984081	-0.07545955	-0.034788843	-0.10059203	-0.09094769	0.003275887	0.07319496	-0.08636883	-0.034240797	0.02421078	0.15008482	0.16829431	-0.010333763	-0.024371065	-0.016025804	-0.16705292	0.040106166	-0.03154925	-0.047585025	0.08951072	-0.057171613	-0.026100446	0.10203302	0.24853045	0.09523894	-0.06771402	0.02620378	-0.020051584	-0.09990342	0.021409163	0.070578925	0.066233054	0.02981928	-0.06841582	-0.013875239	0.12604512	0.0109133525	-0.16720079	0.014419267	0.013581377	0.08325134	-0.16030023	-0.10162124	0.033351958	0.039708305	-0.023125984	0.039231952	-0.10365167	0.01007849	-0.09428529	-0.075985506	0.0057818945	0.06405145	0.103638	-0.16905026	-0.02067399	-0.16991016	-0.07674001	-0.003673558	0.08626838	0.047525734	-0.06363551	-0.07828665	-0.0038194505	0.043170344	0.04224194	0.1906029	-0.10421558	-0.049209245	-0.1932841	0.09183878	0.07298829	0.16587496	-0.034508795	-0.026286922	0.06255714	-0.024680335	0.025638571	-0.019549198	0.14268169	-0.020737112	-0.13855612	0.07171637	0.044572372	0.06712699	-0.0034979614	-0.1744014	-0.1615511	-0.022874657	0.03872517	0.12687042	0.00179183	0.112538695	0.06523696	-0.104097545	-0.029357854	0.0017485146	0.024362333	-0.15124792	0.043925308	0.014600938	-0.0520409	0.17779009	-0.0060184193	-0.082476154	0.024183905	-0.014143093	-0.07612246	-0.09944995	-0.1239566	-0.08126278	-0.019775318	0.05078529	-0.13123073	0.101662084	0.057180323	-0.015669977	-0.07371381	-0.16494693	0.01652084	0.15149797	0.031101998	-0.0062079863	-0.11279011	0.08825922	0.10303204	-0.105365224	0.1351678	-0.08419897	-0.1639781	-0.0058438187	-0.07265566	0.104903944	0.15814231	-0.04718838	-0.083219364	0.1357111	-0.07273404	-0.07840888	0.08413649	-0.02480577	-0.077431165	0.046968058	-0.1796512	-0.112757295	-0.07516936	0.17540091	0.061611403	0.023416614	-0.03125396	0.20616204	-0.022314204	0.10653412	-0.01655753	0.12506345	-0.0029719025	0.011113768	-0.07507755
