	0	1	2	3	4	5	6	7	8	9	10	11	12	13	14	15	16	17	18	19	20	21	22	23	24	25	26	27	28	29	30	31	32	33	34	35	36	37	38	39	40	41	42	43	44	45	46	47	48	49	50	51	52	53	54	55	56	57	58	59	60	61	62	63	64	65	66	67	68	69	70	71	72	73	74	75	76	77	78	79	80	81	82	83	84	85	86	87	88	89	90	91	92	93	94	95	96	97	98	99	100	101	102	103	104	105	106	107	108	109	110	111	112	113	114	115	116	117	118	119	120	121	122	123	124	125	126	127	128	129	130	131	132	133	134	135	136	137	138	139	140	141	142	143	144	145	146	147	148	149	150	151	152	153	154	155	156	157	158	159	160	161	162	163	164	165	166	167	168	169	170	171	172	173	174	175	176	177	178	179	180	181	182	183	184	185	186	187	188	189	190	191	192	193	194	195	196	197	198	199	200	201	202	203	204	205	206	207	208	209	210	211	212	213	214	215	216	217	218	219	220	221	222	223	224	225	226	227	228	229	230	231	232	233	234	235	236	237	238	239	240	241	242	243	244	245	246	247	248	249	250	251	252	253	254	255	256	257	258	259	260	261	262	263	264	265	266	267	268	269	270	271	272	273	274	275	276	277	278	279	280	281	282	283	284	285	286	287	288	289	290	291	292	293	294	295	296	297	298	299
Polykay_0	-4.404597e-05	-0.00036468077	-0.00035066137	-0.0004586435	0.0011802876	0.00018168293	-0.0008163092	0.00025375577	0.00043554357	0.00020925514	0.00025637602	0.0001348569	0.00051690754	0.0004338069	-0.00048719486	0.00029828364	0.00017303074	-0.00051124557	6.311505e-05	-0.00015556646	0.0005406889	3.820249e-05	0.00022205601	-7.607405e-05	-0.00037367296	-5.4553584e-05	-0.00024368914	0.00012861974	-0.000237683	-0.0003419373	0.00012264053	0.00036945604	0.00017390236	0.00016918445	-0.00015556815	-8.800587e-05	0.0007816443	-0.00030650763	-0.00024715698	-0.0005618901	6.11218e-05	-0.00017428024	-0.00049192656	-0.00019273408	0.00067798473	-0.0005632936	-0.0006033594	-7.7638026e-05	-0.00012435543	0.00065082894	0.00028730012	-0.00069510547	1.8567624e-05	-0.0007299806	-0.000544193	-0.0007003467	-0.0004310679	0.00052116864	-0.0004179184	-0.00015630083	0.0003755094	0.00017377033	0.0003744359	-3.546085e-05	-6.64858e-05	0.0001560951	0.00034458865	0.0010325522	0.0001505853	-0.0007874172	6.0167527e-05	-0.0008333524	0.00022852058	0.00014239036	-8.027408e-05	0.0001119316	0.0002431899	0.0002513222	0.00014539825	-1.2652508e-05	-0.00026464555	0.00023665217	0.00061062694	-5.0235547e-05	0.0006052989	-5.910856e-05	0.0003358665	1.7711634e-05	0.00041890633	-5.325724e-05	-0.0005883589	0.0005402257	0.00032887622	-0.00028665882	0.00012400845	0.00044770906	-4.9271697e-05	0.0001160546	0.00022177791	0.00091474265	0.0004886258	-0.00021969031	-0.00035648397	-6.54784e-05	0.0002988506	-7.924541e-05	-9.800724e-05	-0.00050820305	-6.268821e-05	-0.00017620566	7.546225e-05	-0.00032539185	0.0004345784	-0.00018094502	0.00047208162	1.2933742e-06	0.0003891687	9.930408e-06	0.00021486354	0.00023803457	0.00022203532	0.0008072925	2.3869177e-05	1.6336704e-05	-9.1983755e-05	-0.00028026098	-0.00047524658	0.00043131536	-0.0006350971	0.00037408833	-0.00016046755	0.00012118354	1.0297091e-05	0.00014550018	-0.0003587416	0.0006828725	9.542487e-06	0.00046200573	0.0004914754	-0.0003117835	-0.00011475612	-1.1102147e-05	-0.00018764875	0.0003682325	-2.561372e-05	-4.2061063e-05	-0.00037360808	7.374099e-05	-0.00035221115	-0.0005392216	-0.00032211645	0.00013755306	-0.00027474342	0.0006654252	-0.0006842149	0.00019303604	6.998064e-05	-0.00017600122	-0.0002436876	-9.88348e-05	0.0005106138	-0.0003529284	0.00029849855	-0.0003766014	0.00015974528	0.000732314	-0.0005159204	-7.43531e-05	0.00026057253	0.00028454384	-0.0003927316	-7.550049e-05	-0.00026503892	0.00019232547	-0.0002811543	-9.187972e-05	0.00039258425	-0.00011836829	-0.00053986313	-0.00013764953	-0.0004179157	0.000628875	-0.00013418292	-0.00029381367	0.0005852044	-0.0003308542	0.00022116111	1.1254956e-05	-0.00015317362	-0.00022501904	0.0002820046	0.0001801585	0.0005170277	-0.00033041148	-0.00031985168	0.00034086627	0.00024355233	-0.00019548548	-0.00026325468	-0.0006216107	-0.0005333379	-0.0005468668	-0.0006064345	-5.6357065e-05	-0.00019529922	-0.00021245363	-0.0006281793	-0.00085558876	-0.00022886385	0.00022755348	0.0003947971	-0.000404844	0.00015400739	-0.00020095492	5.669324e-05	0.0007803142	0.00025773063	0.00030825945	-0.0006671199	-0.00059282803	-0.0004927248	5.2251402e-05	-0.0005490186	-0.00025454807	-0.000501972	3.1999753e-05	-0.00030588976	-0.0007064921	-5.446452e-05	0.00014271113	-4.1921896e-05	-0.0006919889	0.00036028805	-0.0010442211	-0.00047617976	-0.00079840515	0.00037962306	0.0008882421	-0.00052198896	-9.8347016e-05	-0.00029211337	-0.00063204416	0.00056390534	0.00042744284	8.6857304e-05	0.00032914922	0.0007226206	0.00024005018	-0.00037742584	-0.00017438261	0.00014480278	-0.00024162598	0.00052274804	-0.000562983	0.0005990992	0.00017064202	-0.0005784994	-0.00019768406	-0.0004945248	0.0002241569	-0.00017881222	0.0007693878	4.3538443e-05	-0.00030391	0.0008205001	-0.00028759526	0.0001989617	-0.00038465642	2.242987e-05	0.0008549019	-0.00025030217	5.512074e-05	0.00095329236	-0.0005200982	-0.00017290172	-0.00036358897	1.5673977e-05	-0.00036118214	0.00021061617	-0.00057147216	-0.000589973	-0.00024563458	0.00017743192	1.9637344e-05	0.00040488967	0.00041544164	-0.00032556162	-2.5781286e-05	-4.1501466e-05	-0.00063476455	-4.626976e-05	0.00049835653	-9.8784505e-05	-0.00070383167	-0.00031560907	-0.00013139308	-0.00057345734	0.00045394458	-0.0001564731	0.000685005
