	0	1	2	3	4	5	6	7	8	9	10	11	12	13	14	15	16	17	18	19	20	21	22	23	24	25	26	27	28	29	30	31	32	33	34	35	36	37	38	39	40	41	42	43	44	45	46	47	48	49	50	51	52	53	54	55	56	57	58	59	60	61	62	63	64	65	66	67	68	69	70	71	72	73	74	75	76	77	78	79	80	81	82	83	84	85	86	87	88	89	90	91	92	93	94	95	96	97	98	99	100	101	102	103	104	105	106	107	108	109	110	111	112	113	114	115	116	117	118	119	120	121	122	123	124	125	126	127	128	129	130	131	132	133	134	135	136	137	138	139	140	141	142	143	144	145	146	147	148	149	150	151	152	153	154	155	156	157	158	159	160	161	162	163	164	165	166	167	168	169	170	171	172	173	174	175	176	177	178	179	180	181	182	183	184	185	186	187	188	189	190	191	192	193	194	195	196	197	198	199	200	201	202	203	204	205	206	207	208	209	210	211	212	213	214	215	216	217	218	219	220	221	222	223	224	225	226	227	228	229	230	231	232	233	234	235	236	237	238	239	240	241	242	243	244	245	246	247	248	249	250	251	252	253	254	255	256	257	258	259	260	261	262	263	264	265	266	267	268	269	270	271	272	273	274	275	276	277	278	279	280	281	282	283	284	285	286	287	288	289	290	291	292	293	294	295	296	297	298	299
CMA-ES_0	0.0006780676	0.0005567431	0.00033619071	0.0006658549	-0.0011850445	0.0011237698	-0.00022282962	-0.00040845468	-0.0016658163	0.000868117	0.00031996018	0.0011659297	-0.00050459517	0.0008711529	-6.722662e-05	0.0010250162	-0.0002653732	6.201232e-05	0.0006283298	-0.00091911526	-0.000473912	0.0013885424	0.0006646689	-0.00080870424	-0.0005826926	-0.001200568	-0.0013334503	0.0014356156	0.00034982382	0.00026431284	-0.0006404673	-0.0008512185	-0.0015508832	0.00062249467	0.0008842683	0.0006057781	0.00015194181	0.0009037964	0.0010070055	0.000776872	0.0007778214	0.00022713325	0.000585854	-0.0012557333	-0.0015672916	-0.0008865769	0.0008781742	0.00032592198	-0.0003465042	-0.0011352442	-5.8969326e-05	0.0015735808	-0.00028337978	0.00053453125	0.0012033402	0.0016666224	-0.0011784042	-0.0003789127	-0.001080759	0.00088010775	0.0016288009	0.0012581588	-0.00040434112	-0.00081326335	0.0007974532	0.00072346645	-0.0011905737	-0.0016558561	0.00028488005	-0.0010639841	0.001219398	-0.0009069459	-0.00061202334	-0.00028292305	8.373368e-05	0.00031143424	-0.0013749832	0.0005912791	-0.001146946	-0.0013218995	-0.0006154238	0.0016596554	-5.8782363e-05	0.0011987115	0.0007257265	0.00014425413	-0.0015466855	0.0013565966	6.4186155e-05	0.00057790003	0.0007117017	-1.154596e-05	-0.00043080273	0.00022548664	-0.00055438513	-0.0004693114	-0.0007933284	0.0008064186	-0.0002682454	0.0016663272	-1.7033082e-05	-0.0013926945	-0.00057924667	-0.0010556709	9.975953e-05	-0.0002834789	0.0012927663	-0.00046745333	-0.0006866338	-0.00014370726	0.0009227186	-0.0008479763	0.00095108687	-0.0013393647	0.0010799599	0.00082537916	-2.3313678e-06	-4.3614793e-05	-0.00087875396	0.001440159	-0.00059279293	0.00016823995	0.00074768433	0.00043977288	0.0009865443	0.0009365946	-0.00029707488	0.001642907	-0.0012278208	0.0014077619	0.0011293225	0.000162826	0.0010013044	-0.0011079888	-0.0013011816	0.001265992	0.00060093484	0.0004877974	0.0011726939	-0.0013284605	0.0010742974	0.0010126594	0.0003621572	0.0001518859	0.001608451	0.0013985364	0.00028216385	-0.0016624933	0.00016884092	0.0011989353	-0.000984366	-0.001211854	0.001027057	0.00018765086	0.0012522679	2.0087235e-05	-0.00026253177	0.00034072448	0.0011147428	0.00148976	0.0015866474	-0.0004628575	-0.0013511634	0.0011786944	-0.0013172514	0.00026904594	0.00066816044	0.0007380353	-0.0015118651	0.0002870203	-0.0008222221	-0.00019547042	-0.001268002	0.0010848346	-0.0013520309	-0.0008246307	0.0004257091	0.0006482437	-0.0015377428	-0.0016538271	0.0001522498	0.0004746669	0.0002310241	0.00019203774	0.0016104307	-0.00089969294	0.0009203278	-0.0011642744	6.6806875e-05	-0.00033324174	0.0016482178	0.00038807763	-0.00055580697	0.0015600475	-0.00089870027	-0.00027406766	0.0009812416	-0.0009527174	0.0015968055	0.00019751798	0.0010876283	-0.001136161	0.0014782833	0.0008152713	0.00088146806	-0.0009611199	-0.0011114274	-0.00019876573	0.001613192	0.0014739754	0.0009820244	0.0009328004	-0.00016639105	0.0010713255	-0.00066614605	-0.0005877627	0.0014288294	2.9557006e-05	-0.00022801498	-0.0011602703	-0.001298549	0.00022778969	0.0010627465	-0.0005466894	-0.001618902	-0.000538878	-0.0015897291	-0.0015143144	0.0009733479	0.00017586093	-0.0004912378	0.0010156904	0.0004978655	-0.00035191726	-0.0016633259	0.00050583086	0.0006918382	0.0004679916	0.00023246286	-0.0010599475	-0.0013260862	0.00017902195	-3.6591624e-05	-0.00019530763	-0.0007975102	-0.001469465	-0.0013542048	0.0014509911	-0.001628133	-0.0011415976	-0.00078120286	0.0001257589	-0.00047835478	-0.00054642325	0.00059030496	0.00054102903	0.00044362774	-2.7389537e-05	-0.0014668967	0.00037234786	0.0007810036	0.0008010609	-0.00050862174	0.00084505224	-0.00056915934	-0.00069542235	0.00012902691	-0.001480365	0.0014102178	0.0013872853	0.0002228614	-0.0015119669	0.00011395328	-0.00019467543	-0.0015092745	-0.00079070067	0.0015537388	0.0011287866	-0.0013792486	-0.0012767495	-0.0015840628	-0.0014829885	0.00034043496	0.0016284874	-0.001299439	-0.00024757403	0.00030517674	-0.0015621654	-0.00027164796	0.0008525229	-0.00027340034	0.0008881935	-0.0016460081	0.0010533633	-0.001241232	0.0008345938	-0.0006067576	-3.2775924e-06	-0.0015017859	0.0006019109
CMA-ES_1	0.0005451841	-0.0006677528	6.0721515e-05	0.00020121678	-0.0005771701	0.0006398811	0.00035101766	0.00019159302	-0.0003282583	0.00057060726	-0.0002000581	2.7594167e-05	-0.00016290213	-0.0006937182	0.00066187535	-0.00016899721	0.0002449532	-0.0005789843	1.0701682e-05	-8.351926e-07	-0.0009479389	0.000547192	0.0011860598	-0.00039883907	-0.0003392477	6.7403045e-05	5.7997997e-05	-0.00026938034	-0.00016397826	0.00044088293	0.00035385642	-0.0007783129	-0.000430484	0.0003771691	0.00030418456	0.0007951787	-0.0002742375	-0.0003893142	0.0005437272	0.0008635897	0.0003800172	0.00035071658	-6.314488e-05	-0.0005558667	-0.00017200233	-0.00058302167	-0.0005330665	-0.0005178523	-5.971534e-05	0.00047253785	0.00038293545	0.00028198867	-0.00070774823	-0.00037794682	0.0009495963	0.00045974436	-0.0006191477	2.9792252e-05	-0.0004950273	0.00077813305	0.00077720964	0.0004030742	-0.00015442946	-0.0005169754	6.873272e-05	0.00022549926	-0.00047941468	-0.0006269388	0.00036333967	-0.0001616076	9.532328e-05	0.00013296164	-0.00027285155	-0.00041529207	-0.0004822506	-1.1398748e-05	0.0003687413	1.9471656e-05	-0.00023785332	-0.0002966032	-0.00020954931	0.00041822187	9.786598e-05	0.0005870317	-0.00016297	-0.00035642931	-0.0007425334	-0.00049631525	-0.00083844963	0.00027319673	0.00028773028	0.0004275389	0.00014620331	-2.5161193e-05	-0.0001840528	-0.0003106149	-0.0010636746	0.00017171909	0.00067943137	-0.00032715226	-0.0003897056	-0.00041091873	-0.00023272517	-0.00064094935	0.0007966237	-0.00045366766	0.00038236982	0.00019708928	0.00035581173	0.00018599772	0.0003700265	0.0001544727	0.000218792	0.00023915325	0.00014771201	0.00058955647	0.00056832924	0.00030779187	0.00033455266	0.000253944	-0.00016225324	-0.0007014339	-5.3973665e-05	-0.00024753125	0.00022419715	0.00045019665	-0.00074593426	0.0014292136	-0.00019599663	0.00085754145	0.00041035443	-0.0002400739	-0.00023449532	-0.001007063	-0.00030419978	-0.00010198148	-2.3762695e-05	0.00075327116	-9.295382e-05	-0.0003031307	0.00038358232	-0.00092118845	-0.0004897828	-0.00039159268	0.00033570238	0.00013924332	0.00044970546	-0.0012205783	-0.00012223716	5.0348943e-05	-8.155347e-05	-0.00039905548	3.4109602e-05	-0.000405872	4.4682267e-05	-0.000711846	-0.00016063449	2.3711124e-05	0.0003588588	0.00070558215	-6.750622e-05	-5.090027e-06	1.338101e-05	0.0005698253	-7.8207115e-05	-0.00011888493	-0.00026272621	-0.00058327004	-0.0006391618	0.00053806574	0.00019390821	0.0003629311	-0.0004570105	-3.808472e-05	-0.0005416218	-0.00043568702	-0.0003016955	0.00036579397	5.2834534e-05	-0.0004845185	0.00039235834	0.00023638853	-0.00042107955	0.00022437696	0.00058004446	-0.00013379399	0.00040686043	-1.2266275e-05	0.0004572374	-0.0003519621	0.0002648763	0.00018488505	0.00040271535	1.5749247e-05	-0.00033776037	-0.00039680256	0.00061296485	-0.00020612616	0.00027933868	0.00031095068	0.00026249094	-0.00038822286	0.0007138845	0.00025410432	0.00037537626	-0.0002080702	-0.00015234585	0.00011102469	0.00055868254	0.00037892628	2.9789226e-05	0.00078558485	0.0006732793	-5.038941e-05	-9.606034e-05	-0.00075685116	0.0008688648	0.00011351619	0.00058906793	-0.0005403216	-0.00029808946	0.00019013199	-0.00029875082	0.00064264255	0.0006329259	0.00035345147	-0.0003769735	-9.853623e-05	0.00046990855	-9.5885276e-05	4.976522e-05	-0.00010949161	-2.5371148e-05	0.00012453157	-0.00054481433	0.00062093954	0.00029324184	0.00061091984	-0.00024128876	-0.0008486067	-9.221811e-06	-3.3736287e-05	0.00070167455	-0.00090717257	-0.00057936006	-0.001057022	0.0003319836	0.00030316616	5.0618895e-05	-0.00047167853	0.0009305884	0.0010982023	-0.00021116876	-0.00021597557	-0.0004371717	-0.00026935368	0.00010389423	0.0007935452	-0.0007446507	0.0004658879	0.00021252198	0.0003206301	-0.00052800355	0.00013818382	0.00037591066	5.6730918e-05	0.000829929	-0.00063937076	0.00016565692	-3.6100973e-06	-7.993978e-06	-0.0008679719	-0.00018910036	-0.00025748473	1.2312084e-06	-0.00013006791	0.00048559444	0.00072604034	-0.00044442154	-0.0004941964	-0.0006068575	-0.00088439236	0.00018988788	0.0011151906	-0.00055032596	-0.00012929064	0.00027789417	0.00029042046	0.00013209351	0.0004188666	0.0004454297	0.00026756775	-0.00029586474	-1.8135675e-05	-0.00062640005	0.00033600084	4.539099e-06	0.00013846706	-0.00032751862	0.00011511793
CMA-ES_2	0.0016514453	-0.00070741726	-0.00026236768	0.00020540738	-0.00042689312	0.00078387593	0.0015734078	0.00041630885	0.00089113036	0.0008613479	-0.00080689206	-4.413377e-05	0.00046856145	-0.0015702302	0.0016663782	-0.0011827826	0.00056219794	-0.0016051187	-0.0008482252	-0.00072014664	-0.00031237205	-0.00018831003	0.0015600399	-0.0012826655	-0.0013156894	0.0014601023	-0.0006917176	-0.0010825003	-0.00088037783	0.0015769504	-5.846569e-05	-0.00068081846	0.00042162833	0.0011506424	-0.00081778655	0.001443439	-0.00016694385	0.00044205063	-0.00023102065	0.0012489606	0.00075364485	0.0009458474	-0.0010722232	9.8619676e-05	7.720184e-05	-0.00027525556	-0.0010734403	-0.0013195988	-0.00082616246	0.00071148877	0.00073717535	0.00020703403	1.5159927e-06	-0.00035514816	-0.0004525185	0.00017588369	-0.0010062567	-0.0014909488	0.00047538415	0.0011183269	-0.00052969245	-0.00016031436	0.0009771009	-0.0004087815	-0.0010097534	0.0008874165	-0.00085358234	-0.0005257287	0.00044814372	-0.00092731195	-8.546426e-06	0.0014255792	-0.00020485731	0.0007463296	-8.6421394e-05	0.0006182602	0.001214643	-8.699229e-05	-0.0010526361	0.00025522406	-0.0009867754	-0.00031089966	0.0003832319	-0.00084000296	0.0009294501	-0.00030568964	-2.594389e-07	-0.0015887634	-0.001525065	0.00069380633	0.0015088689	0.0016109403	0.000102156024	0.0002840158	-0.00021942741	-0.00052404136	-0.00080102123	-0.0006155683	0.00067236304	-0.0010128414	0.00048659038	7.2094103e-06	-0.001477964	0.0009106974	0.0012215395	-0.0015899759	-0.00057894614	0.0005823397	0.0012732126	0.0011041203	-0.0010625761	0.0014209513	0.0005613915	0.0010621691	0.0010854469	0.0011845517	0.0008629606	0.00058064575	0.00027105556	0.0006978326	-0.0002586579	-0.0015078739	0.00012257806	0.0012366374	-5.0328104e-05	0.00062790664	-0.0014589096	0.0016058407	0.00040426815	0.0014508377	0.0006765661	0.00026277086	-0.00019868437	-0.0015001723	-5.187576e-05	-5.3655007e-05	-0.0006788699	0.00035740715	-0.0015994872	0.0002055697	-0.0010857806	-0.0015909704	-6.257125e-05	0.0007585394	-0.00090923696	-0.00077701977	0.0009879528	-0.0008286543	0.00010629901	-0.0016357368	-0.0014293187	-0.00014391569	-0.00011388801	0.00036212336	0.00082646275	-0.001134657	-0.0012755198	0.0006442703	0.0010890199	0.0011257483	-0.0015759427	-0.0013939725	-1.6408521e-05	5.422266e-05	0.0004306126	0.00025686037	-0.0013463756	-0.0015826813	-0.0006042271	0.0010580916	-0.000547624	0.0015426583	-0.00052728946	-0.00054037693	-0.0015784547	0.0015236429	-0.001009597	-0.0006528494	0.0012621662	-2.9585564e-05	0.0016202325	0.0009671542	-0.00020200193	0.0009649235	0.0010688778	0.0013564444	-0.00026488298	-0.000627102	0.0014486882	-0.0011999579	-0.0008990561	0.0009994983	-0.000473442	0.0011177607	1.4808343e-05	-0.00044105804	0.00011686009	0.0010890586	0.0012300703	0.0011401976	-0.0011913086	-0.0006338627	0.00040645592	0.00049221254	-0.00092692394	0.00020185922	0.0013374557	0.0004192062	-0.00017386506	0.00058637117	0.00123726	0.0005670545	0.00075820775	0.00022998016	-0.00024641622	-0.00032029842	-0.00011149305	0.0007466053	0.0013914814	0.00052896515	0.0009822905	-0.0010413819	-0.0012324231	0.0005564781	0.0016520707	0.00069965044	8.700427e-05	0.00039334086	0.00017767519	0.00025604464	0.0009288662	-0.00107176	0.0012022442	0.0011118402	2.1113145e-05	0.0013747662	-0.0009782176	0.00019640021	-0.0004397138	-0.0016620355	0.0012587747	-0.00049380364	0.0015968593	-0.0016124422	0.0015947694	-0.0012229674	0.00142552	-0.00011330555	0.0015369187	-0.0005115013	0.0016321355	0.0014016796	0.0007101113	-0.00066069653	-0.0009953198	-0.00014054043	0.0016059761	0.001130422	-0.00082918996	0.0006929416	0.00070145784	0.00026659877	0.0002468512	0.0016624389	-0.0009957512	0.0012525073	0.0013268752	-0.0008698817	0.0011160632	-0.00045051257	-0.00065270497	-0.0014899352	0.0010266168	-0.001411888	0.00092489965	0.0009666249	0.0012132362	0.0015529046	0.00094877684	0.00066572864	0.0011892166	-0.0010563693	0.00014063345	0.0012358206	-0.00097018946	0.00066000986	0.0014906812	0.0010491736	0.0014243916	-0.0007497503	0.00011077138	-0.0014015513	-0.0014024982	-0.0005247067	-0.0015892115	0.0013069418	0.00045959328	-0.00045511554	0.0006481039	-0.0004352524
CMA-ES_3	0.0002510207	-0.00025662073	-0.0007278657	-0.00050245505	0.00056047086	-0.00017719064	-0.00032891054	0.00019847334	2.0463087e-05	0.0007212589	7.20957e-05	-0.00021047737	0.0006615256	0.000827447	9.440626e-05	0.0007111468	0.0005444203	-0.00054170785	0.00044022952	-0.00060396595	0.000233301	0.0004885183	0.0004908864	-0.0007116198	-0.00034382966	-5.0979168e-05	-0.00027314704	-0.00015908259	-0.00029089022	-0.00028286088	-0.00073983334	0.00044013068	-0.000508876	0.00032744583	0.00028495755	-0.00012563054	0.00079174194	-0.0004220722	0.0003592288	-0.00034378018	0.00041392265	-0.0005434375	0.000120010474	0.0002524336	0.00020375042	-5.306147e-05	-9.7660915e-05	-0.000108480155	-8.710356e-05	-0.00015497104	6.66677e-05	-0.0006481949	0.00037126252	-0.00041417583	-0.0006903866	-0.00021484066	-0.00086353684	0.0012627105	-0.0005366013	-0.00060496916	0.0007261916	0.00013879027	0.00021850134	-0.00021440173	0.00017184691	0.00057480467	0.0004188796	0.00084344065	0.00018398168	-0.0007269644	0.0004907372	-0.0006730937	0.0009427064	5.2564512e-05	9.725635e-05	0.00029055672	0.00093714247	0.00019730639	0.00027201916	0.00060348294	-0.00046898937	0.00050673564	0.0008679168	-0.00011277692	0.0007249376	-0.00033263056	0.00026124492	-0.00020539797	7.197377e-07	0.00022438099	-0.00084390154	0.0008048564	0.00014594231	-0.00060536695	-0.00040497916	0.0006124095	-1.0558978e-05	0.00041088372	0.00021013268	0.0010255154	0.0003334113	-4.697473e-05	0.00016384402	-0.00024875771	0.00038156932	-0.00040502907	0.00067888276	-0.00055820524	0.00041518774	-0.0002019256	-9.980168e-05	-0.00044517056	0.0006368062	0.0002912726	0.00012548035	0.00011739529	0.00049319613	0.00014380457	0.00020854527	9.169306e-05	0.00066036487	0.0009827529	-0.00014632508	-1.1467084e-05	-0.00070176163	-0.0003299475	-0.0008506717	0.0005417256	-0.00016490075	6.038879e-05	-0.0005605677	-0.00043812292	-2.4043835e-05	-0.00024083708	-0.0005270247	8.727251e-05	0.000575444	0.00034018973	0.00021653806	7.017842e-05	0.00013686808	-6.248265e-05	0.00011984303	0.00039397817	-0.00020395662	0.00014310333	-2.7383543e-05	0.00019504393	-0.0006621854	-0.00043427342	-0.0009060913	-0.00019061202	-0.0003113176	0.00034407884	-0.0005762794	1.5555574e-05	-0.00020751522	-0.00066049147	0.00052844867	0.00034027017	0.00038860118	0.00022847226	-0.0006056862	-0.00041819524	0.00029539043	0.0006396133	-0.0004599826	-0.00012481531	0.00047811182	0.00038717242	-0.00059433415	-1.3043622e-05	-0.00052184827	-0.000335515	-0.00063672935	0.00013620884	0.0002501141	-0.0001853859	-0.0009761423	-5.1097228e-05	-0.00066390727	0.00017597077	-0.0009174411	-0.00089732563	0.00021525995	-0.00064397056	0.00040948525	-0.00020177737	-0.00046017722	-0.0005628909	0.00053520704	0.00048311762	0.00045673156	0.00019041615	-0.0003406378	0.0004155864	0.0003892414	-0.00029477332	4.0192164e-05	-0.00038834926	-0.00031753496	-0.00038060648	8.917231e-06	-0.00012532066	-0.0002973755	-0.0007668709	-0.000532816	-0.00022873211	-0.0005876439	-0.0003097201	-1.0190399e-05	-0.00022701586	-1.0773635e-05	0.00019668297	2.6493084e-05	0.0009150834	2.207786e-05	9.5765936e-05	-0.00037551063	-0.0004174152	1.907618e-05	-0.00029287275	-0.0007532819	-0.00022273923	-0.00037193878	-1.3592187e-05	-0.0005897454	-0.00020092064	0.00047282063	0.00063890434	-0.00034848676	-0.0004934102	0.00015894177	-0.0012740182	-0.00046479536	-0.0007208015	0.0006936738	0.0007044369	-2.2805927e-05	0.0004010794	-0.00051131437	9.2567425e-05	0.00052740274	0.0005781808	-0.00036107044	0.0007019156	0.00069743017	0.00019644729	-0.00015666008	-0.00030545922	8.630407e-05	-8.1523205e-05	0.0002212551	-0.00040303063	0.0005686811	-0.00033364623	-0.00018345263	0.0002630658	-0.00020719074	0.0003153369	0.00073429383	0.00061198644	-3.5784986e-05	0.00013690926	0.0011187111	-0.00019614094	0.00046472318	-7.3392424e-05	0.000612956	0.0003913921	0.00028909667	0.00033421352	0.0005798135	-0.0010967951	-9.091571e-06	-0.00034608305	0.0004527632	-9.299201e-05	-0.0002125792	-0.0006970303	-0.00026134847	-0.0009579036	0.00042271012	-0.00023086595	-0.00011550431	0.00053168455	-0.00044319284	4.4815806e-05	-0.0008526184	-0.00084346125	0.00046475563	0.00040566456	-0.00030884147	-0.0009964254	-0.0005243654	-0.0005304914	-0.0007919456	0.0001766834	-0.00051302934	0.0006957161
CMA-ES_4	0.0016514453	-0.00070741726	-0.00026236768	0.00020540738	-0.00042689312	0.00078387593	0.0015734078	0.00041630885	0.00089113036	0.0008613479	-0.00080689206	-4.413377e-05	0.00046856145	-0.0015702302	0.0016663782	-0.0011827826	0.00056219794	-0.0016051187	-0.0008482252	-0.00072014664	-0.00031237205	-0.00018831003	0.0015600399	-0.0012826655	-0.0013156894	0.0014601023	-0.0006917176	-0.0010825003	-0.00088037783	0.0015769504	-5.846569e-05	-0.00068081846	0.00042162833	0.0011506424	-0.00081778655	0.001443439	-0.00016694385	0.00044205063	-0.00023102065	0.0012489606	0.00075364485	0.0009458474	-0.0010722232	9.8619676e-05	7.720184e-05	-0.00027525556	-0.0010734403	-0.0013195988	-0.00082616246	0.00071148877	0.00073717535	0.00020703403	1.5159927e-06	-0.00035514816	-0.0004525185	0.00017588369	-0.0010062567	-0.0014909488	0.00047538415	0.0011183269	-0.00052969245	-0.00016031436	0.0009771009	-0.0004087815	-0.0010097534	0.0008874165	-0.00085358234	-0.0005257287	0.00044814372	-0.00092731195	-8.546426e-06	0.0014255792	-0.00020485731	0.0007463296	-8.6421394e-05	0.0006182602	0.001214643	-8.699229e-05	-0.0010526361	0.00025522406	-0.0009867754	-0.00031089966	0.0003832319	-0.00084000296	0.0009294501	-0.00030568964	-2.594389e-07	-0.0015887634	-0.001525065	0.00069380633	0.0015088689	0.0016109403	0.000102156024	0.0002840158	-0.00021942741	-0.00052404136	-0.00080102123	-0.0006155683	0.00067236304	-0.0010128414	0.00048659038	7.2094103e-06	-0.001477964	0.0009106974	0.0012215395	-0.0015899759	-0.00057894614	0.0005823397	0.0012732126	0.0011041203	-0.0010625761	0.0014209513	0.0005613915	0.0010621691	0.0010854469	0.0011845517	0.0008629606	0.00058064575	0.00027105556	0.0006978326	-0.0002586579	-0.0015078739	0.00012257806	0.0012366374	-5.0328104e-05	0.00062790664	-0.0014589096	0.0016058407	0.00040426815	0.0014508377	0.0006765661	0.00026277086	-0.00019868437	-0.0015001723	-5.187576e-05	-5.3655007e-05	-0.0006788699	0.00035740715	-0.0015994872	0.0002055697	-0.0010857806	-0.0015909704	-6.257125e-05	0.0007585394	-0.00090923696	-0.00077701977	0.0009879528	-0.0008286543	0.00010629901	-0.0016357368	-0.0014293187	-0.00014391569	-0.00011388801	0.00036212336	0.00082646275	-0.001134657	-0.0012755198	0.0006442703	0.0010890199	0.0011257483	-0.0015759427	-0.0013939725	-1.6408521e-05	5.422266e-05	0.0004306126	0.00025686037	-0.0013463756	-0.0015826813	-0.0006042271	0.0010580916	-0.000547624	0.0015426583	-0.00052728946	-0.00054037693	-0.0015784547	0.0015236429	-0.001009597	-0.0006528494	0.0012621662	-2.9585564e-05	0.0016202325	0.0009671542	-0.00020200193	0.0009649235	0.0010688778	0.0013564444	-0.00026488298	-0.000627102	0.0014486882	-0.0011999579	-0.0008990561	0.0009994983	-0.000473442	0.0011177607	1.4808343e-05	-0.00044105804	0.00011686009	0.0010890586	0.0012300703	0.0011401976	-0.0011913086	-0.0006338627	0.00040645592	0.00049221254	-0.00092692394	0.00020185922	0.0013374557	0.0004192062	-0.00017386506	0.00058637117	0.00123726	0.0005670545	0.00075820775	0.00022998016	-0.00024641622	-0.00032029842	-0.00011149305	0.0007466053	0.0013914814	0.00052896515	0.0009822905	-0.0010413819	-0.0012324231	0.0005564781	0.0016520707	0.00069965044	8.700427e-05	0.00039334086	0.00017767519	0.00025604464	0.0009288662	-0.00107176	0.0012022442	0.0011118402	2.1113145e-05	0.0013747662	-0.0009782176	0.00019640021	-0.0004397138	-0.0016620355	0.0012587747	-0.00049380364	0.0015968593	-0.0016124422	0.0015947694	-0.0012229674	0.00142552	-0.00011330555	0.0015369187	-0.0005115013	0.0016321355	0.0014016796	0.0007101113	-0.00066069653	-0.0009953198	-0.00014054043	0.0016059761	0.001130422	-0.00082918996	0.0006929416	0.00070145784	0.00026659877	0.0002468512	0.0016624389	-0.0009957512	0.0012525073	0.0013268752	-0.0008698817	0.0011160632	-0.00045051257	-0.00065270497	-0.0014899352	0.0010266168	-0.001411888	0.00092489965	0.0009666249	0.0012132362	0.0015529046	0.00094877684	0.00066572864	0.0011892166	-0.0010563693	0.00014063345	0.0012358206	-0.00097018946	0.00066000986	0.0014906812	0.0010491736	0.0014243916	-0.0007497503	0.00011077138	-0.0014015513	-0.0014024982	-0.0005247067	-0.0015892115	0.0013069418	0.00045959328	-0.00045511554	0.0006481039	-0.0004352524
CMA-ES_5	0.0016514453	-0.00070741726	-0.00026236768	0.00020540738	-0.00042689312	0.00078387593	0.0015734078	0.00041630885	0.00089113036	0.0008613479	-0.00080689206	-4.413377e-05	0.00046856145	-0.0015702302	0.0016663782	-0.0011827826	0.00056219794	-0.0016051187	-0.0008482252	-0.00072014664	-0.00031237205	-0.00018831003	0.0015600399	-0.0012826655	-0.0013156894	0.0014601023	-0.0006917176	-0.0010825003	-0.00088037783	0.0015769504	-5.846569e-05	-0.00068081846	0.00042162833	0.0011506424	-0.00081778655	0.001443439	-0.00016694385	0.00044205063	-0.00023102065	0.0012489606	0.00075364485	0.0009458474	-0.0010722232	9.8619676e-05	7.720184e-05	-0.00027525556	-0.0010734403	-0.0013195988	-0.00082616246	0.00071148877	0.00073717535	0.00020703403	1.5159927e-06	-0.00035514816	-0.0004525185	0.00017588369	-0.0010062567	-0.0014909488	0.00047538415	0.0011183269	-0.00052969245	-0.00016031436	0.0009771009	-0.0004087815	-0.0010097534	0.0008874165	-0.00085358234	-0.0005257287	0.00044814372	-0.00092731195	-8.546426e-06	0.0014255792	-0.00020485731	0.0007463296	-8.6421394e-05	0.0006182602	0.001214643	-8.699229e-05	-0.0010526361	0.00025522406	-0.0009867754	-0.00031089966	0.0003832319	-0.00084000296	0.0009294501	-0.00030568964	-2.594389e-07	-0.0015887634	-0.001525065	0.00069380633	0.0015088689	0.0016109403	0.000102156024	0.0002840158	-0.00021942741	-0.00052404136	-0.00080102123	-0.0006155683	0.00067236304	-0.0010128414	0.00048659038	7.2094103e-06	-0.001477964	0.0009106974	0.0012215395	-0.0015899759	-0.00057894614	0.0005823397	0.0012732126	0.0011041203	-0.0010625761	0.0014209513	0.0005613915	0.0010621691	0.0010854469	0.0011845517	0.0008629606	0.00058064575	0.00027105556	0.0006978326	-0.0002586579	-0.0015078739	0.00012257806	0.0012366374	-5.0328104e-05	0.00062790664	-0.0014589096	0.0016058407	0.00040426815	0.0014508377	0.0006765661	0.00026277086	-0.00019868437	-0.0015001723	-5.187576e-05	-5.3655007e-05	-0.0006788699	0.00035740715	-0.0015994872	0.0002055697	-0.0010857806	-0.0015909704	-6.257125e-05	0.0007585394	-0.00090923696	-0.00077701977	0.0009879528	-0.0008286543	0.00010629901	-0.0016357368	-0.0014293187	-0.00014391569	-0.00011388801	0.00036212336	0.00082646275	-0.001134657	-0.0012755198	0.0006442703	0.0010890199	0.0011257483	-0.0015759427	-0.0013939725	-1.6408521e-05	5.422266e-05	0.0004306126	0.00025686037	-0.0013463756	-0.0015826813	-0.0006042271	0.0010580916	-0.000547624	0.0015426583	-0.00052728946	-0.00054037693	-0.0015784547	0.0015236429	-0.001009597	-0.0006528494	0.0012621662	-2.9585564e-05	0.0016202325	0.0009671542	-0.00020200193	0.0009649235	0.0010688778	0.0013564444	-0.00026488298	-0.000627102	0.0014486882	-0.0011999579	-0.0008990561	0.0009994983	-0.000473442	0.0011177607	1.4808343e-05	-0.00044105804	0.00011686009	0.0010890586	0.0012300703	0.0011401976	-0.0011913086	-0.0006338627	0.00040645592	0.00049221254	-0.00092692394	0.00020185922	0.0013374557	0.0004192062	-0.00017386506	0.00058637117	0.00123726	0.0005670545	0.00075820775	0.00022998016	-0.00024641622	-0.00032029842	-0.00011149305	0.0007466053	0.0013914814	0.00052896515	0.0009822905	-0.0010413819	-0.0012324231	0.0005564781	0.0016520707	0.00069965044	8.700427e-05	0.00039334086	0.00017767519	0.00025604464	0.0009288662	-0.00107176	0.0012022442	0.0011118402	2.1113145e-05	0.0013747662	-0.0009782176	0.00019640021	-0.0004397138	-0.0016620355	0.0012587747	-0.00049380364	0.0015968593	-0.0016124422	0.0015947694	-0.0012229674	0.00142552	-0.00011330555	0.0015369187	-0.0005115013	0.0016321355	0.0014016796	0.0007101113	-0.00066069653	-0.0009953198	-0.00014054043	0.0016059761	0.001130422	-0.00082918996	0.0006929416	0.00070145784	0.00026659877	0.0002468512	0.0016624389	-0.0009957512	0.0012525073	0.0013268752	-0.0008698817	0.0011160632	-0.00045051257	-0.00065270497	-0.0014899352	0.0010266168	-0.001411888	0.00092489965	0.0009666249	0.0012132362	0.0015529046	0.00094877684	0.00066572864	0.0011892166	-0.0010563693	0.00014063345	0.0012358206	-0.00097018946	0.00066000986	0.0014906812	0.0010491736	0.0014243916	-0.0007497503	0.00011077138	-0.0014015513	-0.0014024982	-0.0005247067	-0.0015892115	0.0013069418	0.00045959328	-0.00045511554	0.0006481039	-0.0004352524
CMA-ES_6	-0.0007818961	0.0007450132	-0.0012036685	0.0013210081	0.001597767	-0.0011473037	-0.00067698304	0.00058545364	-0.0014146896	-0.001176808	-0.0009523451	0.0016362743	0.00030122028	-0.0007801816	0.0008180686	-0.0012362142	0.0012677243	0.0013831487	0.00068766496	0.0010511678	0.00054519455	0.0006042963	-0.00010204288	-0.0014484192	0.0011773211	0.00059393974	1.7219101e-05	0.00043879752	-0.0014126553	0.0011708128	0.0011877846	-0.00048574593	-0.0003072539	-0.00026083904	-0.0005588983	0.0005532071	-0.0011996183	-0.0009409204	0.0013457248	-0.0005210975	-0.00108896	-0.0009735072	0.00046815048	-0.0012716528	0.0007940476	0.001428364	0.0008685225	0.00053278194	-0.0016070796	0.00054164825	0.00042946884	0.0011477758	0.0001335975	-0.0012906375	-0.00059552875	-0.0011297625	-0.0005270874	-3.524566e-05	-0.00044053112	0.00078373967	-0.0010290031	0.0012976897	0.0003846171	0.00057914265	0.0016057497	0.0011440391	0.00018045855	-0.0009992372	0.001451038	-0.00020389048	-0.00054889626	0.00035306605	0.0014414543	0.00081304257	0.00064243394	0.0015980757	-0.0013315844	-0.00090388366	-0.0011582087	-0.0007305468	0.0010171403	0.0011849245	0.00016309739	0.0011806668	3.582542e-05	-0.00014222377	-0.0016088474	0.001653412	8.242461e-05	0.0007618245	9.449922e-06	-0.0014206439	0.0011109763	0.0006458268	0.0007967991	-0.0004814758	-0.00011539574	-0.0009597318	-0.00097346766	0.000808849	0.0008750558	0.0016396178	-0.00029282292	-0.0015233321	-0.00067292486	-4.1104813e-05	0.0012552724	0.0002984166	0.0014519616	-0.00014264186	0.00063888944	0.0007523022	-0.000445036	0.00066453125	0.0009604573	0.00037883245	-0.0015412163	-0.0011280664	-5.03746e-05	-3.3783177e-05	0.0013609708	0.0006494081	0.0002232772	-8.8182314e-05	0.0014730664	0.00047442023	-0.0006421306	0.0007515262	-0.000909278	0.0012647249	0.0016267159	-0.00015068997	-0.0015140716	-0.0010026711	-0.00031283914	0.00038379856	-0.0010447098	-0.0011513664	0.00090120547	1.4720158e-06	0.0013439363	0.001292399	0.0015905978	-0.000743174	-0.0005984232	-0.0005177948	-0.0012538072	0.000832196	0.0002074878	0.0010343344	0.00060707104	-0.0013391434	0.00069139845	0.00076857564	0.001448131	0.00067201396	3.44154e-05	-0.0005543816	-0.0012420353	-0.0014340789	-0.00027587154	0.00047078438	-0.00021979868	0.00066083035	-0.00051631615	-0.00101377	0.0015417971	0.0005851356	0.0008549018	-0.00056670414	0.00015029633	0.0012439265	-0.0012392992	0.00020795301	5.8605776e-05	-0.00036733708	0.0009930647	0.00079774985	-0.0007994615	-0.0015724021	0.0014390018	-0.0008155526	0.0011157672	0.00076198415	-0.0010551583	0.00044823287	0.0011276685	0.00025237852	0.0010658293	0.0013767598	-0.00039013434	-0.0010447687	-0.00067419774	-0.0007685908	0.0010064347	0.00011217721	0.0013320023	3.8417907e-05	0.0004118449	-0.0008718176	0.0010704945	0.0011365501	-0.0012252145	0.000120506855	0.0011544183	0.0015031113	-0.001646988	0.00027853984	-0.0003373299	0.00024906427	-0.00074546697	0.0012253871	-0.0010088735	-0.0015363352	-0.00010919685	0.0016430315	-0.00041366473	0.0015778228	-0.0010703111	0.00044745996	-0.0009584373	0.000549063	0.0013181928	-0.0013358514	-0.0010992802	0.0009283251	-0.000152001	-0.0011228996	-0.0011863039	0.0013634173	0.0015199851	0.0012470527	-0.0012961818	0.0014468916	-0.0007007766	-0.0009105472	-0.0005937599	-0.0010155918	0.0008996664	0.0016459154	0.0006014653	-0.00059352955	-0.00091833214	0.0011332134	-0.00055986363	-0.0008675386	0.0008222221	-0.0008651552	-0.00046805173	-4.5337427e-05	-0.00081844284	-0.00087164243	0.0005126118	0.0011665835	-7.801965e-05	-1.3580458e-05	-0.000774108	0.0007469425	0.00048781754	0.0010094256	0.000969369	0.0015081705	-0.0012540495	0.00012065083	0.00034273142	-0.001329725	-0.0005605958	0.000426113	0.0006765321	0.00020067336	-0.0014185243	0.0013108794	-0.0009268554	-0.00072700455	0.00091226195	0.0004041535	-8.876585e-06	0.0011055007	0.0013995367	0.0014610679	0.0014707022	0.00029209896	-0.00035236112	-0.0016457819	0.0011930192	0.0013240086	0.0007660727	-0.000910448	0.0011031929	0.00012054206	0.0006921514	0.00031453182	-0.0005892482	-0.00013376676	-0.0014161246	0.0015947202	-0.0011106213	-0.00078100717	0.0013800251	0.0016585389
CMA-ES_7	0.0011061011	-0.00083136273	0.0003311805	-0.00028187325	-0.0016538657	-0.0006501158	0.0013501466	-0.0016016589	0.0014460279	-0.00078680046	0.00084034086	0.00083229534	-0.00013729748	0.0001935058	0.00021328099	-0.00057086215	0.0005784594	0.0010128192	-0.0015891662	-0.0012740749	0.00079213333	-0.0011287252	0.0016663215	-0.0007438633	0.00082904333	0.00031912595	0.0011404785	0.0002759726	-0.0015642771	-0.00036742678	-0.00010392363	0.00076338375	0.000978337	0.001094201	-0.0001610506	0.0012859366	-0.0008174886	-0.0016240636	0.00090136525	-0.0015926628	0.00047797844	0.0008429683	0.0010054507	-0.0008535385	-0.0006251592	-0.00031122507	0.0006591135	0.0005544115	0.0010449998	0.00076774164	-0.0004088631	-0.0011976857	4.08856e-06	0.0005642173	-0.00055960333	-0.0006782925	-0.0010571803	0.0004896231	-3.778604e-05	0.00011288235	0.0006385041	-0.0012231322	-0.00053035235	0.00058015937	0.00013000617	-0.00055954594	-0.0015718121	0.0007365099	-0.0010676	-0.00080192415	-0.0011238423	-0.00086788577	0.0015552817	-0.0008297653	0.00050840026	0.0012508567	-0.00060025597	0.000349935	0.0007103258	-0.00028944132	0.0012816552	-0.0012958668	0.0011125401	0.00029526747	-0.0016474271	-0.0015643176	-0.0016454525	0.00015433085	-0.0015786703	0.00076556206	-0.00031916908	-0.00064625754	-0.00062864285	0.0015773317	0.0013644651	-0.00038092828	0.0007659392	0.00044667692	0.0002730807	0.0003074501	0.0008364744	-0.0010075786	-0.00032293156	0.00046823648	0.000632494	0.00023145316	0.0007256356	0.00066578796	0.0004012362	0.0013598199	0.000544209	0.0008422394	0.00028284642	0.001165285	7.294234e-05	0.00037217833	-0.00044350018	-0.00066612987	-0.0011412418	0.00073057524	-0.00068358117	-0.0006017528	-0.0013637809	-0.00012911206	0.001167861	0.0016507929	0.0009957534	0.0016153876	-0.0011847737	-0.0015809215	-0.001666499	-0.0006608527	-0.0011634066	-0.0008981107	0.00082034874	0.0014248603	-0.0004969511	0.0013289426	-0.00030714192	0.0009548764	0.0014116208	-0.00095882494	-0.0013827042	-0.001318042	3.0879222e-05	-0.0016069057	0.0009393383	-0.00091102207	0.0005841803	0.0007225401	-0.0015049705	0.0007250962	0.0003591322	0.000908365	0.00067806244	0.0011016955	0.0009937534	-0.000848484	-0.0013855116	-0.0012934678	-0.0015874858	-0.0016178566	0.00075735693	0.0007547943	0.0005574918	0.0011052404	-0.00033567278	-0.0012318176	-0.00058054127	0.001010962	-0.0013103771	0.0015959333	0.00065293716	-0.0015277955	0.00065017375	-0.00062112114	0.0001762745	-0.00045384726	0.0013150484	0.0010901948	0.00044568724	-0.0003978175	-0.00088541873	-0.0012136815	0.00097163464	-0.00016916469	-0.0015322608	0.00062478095	0.00032127317	-0.0007318662	-0.0015313725	0.0015000042	-0.0014153606	-0.0011253762	0.00021682229	0.0015716311	0.0009533546	0.0005134904	-0.0015467454	0.0010171817	0.00017088924	0.0005852337	-0.0012562365	-0.0008761155	0.0013200265	0.00052104046	-0.0013969364	-0.0011706128	0.0010800461	-0.00018504674	-2.3780773e-05	-0.00019922816	0.0014527536	0.0004729616	-0.00026895606	0.00076331943	0.0012130986	0.0015368088	-0.0010986683	0.0014744869	0.00023556464	-0.0015381046	9.7456854e-05	-0.00062149623	-0.00056665303	0.00024684484	-0.000623806	0.00043781457	8.666846e-05	-0.0015085733	-0.001643293	-0.0006265329	-4.8988026e-05	0.0014561256	0.0016554287	-0.00086192676	0.0015269223	-0.0012157608	-0.0010021921	0.00041077854	-0.0007379481	-0.0010581921	0.0011324217	-0.00036782032	-0.0015284114	0.0012315548	0.0013272403	7.187197e-05	0.0012851016	0.0014565348	0.0006011281	0.001146172	-0.00074949214	-0.0011729003	0.00012266629	0.0014124073	0.0016595415	-0.00023998212	-0.0015467086	0.0011258279	0.0010795905	-0.00052359456	0.0006935395	-0.00035182503	-0.0005470406	0.00042727406	-7.384132e-05	0.00094690954	0.00036511032	-0.0014137311	0.00010947442	0.00024081104	0.0004519523	-1.5767313e-05	0.00046158137	0.0007123038	0.00045533216	-0.0012955337	-0.00043871687	0.0014085197	-0.0006052763	-0.00061347627	-0.0010063794	-0.0011438193	-0.0008923613	0.0016623505	-0.00030122875	-0.0005600117	0.00012943725	-0.001264201	-0.00019513984	-0.00069257006	-0.0002944032	-0.0013727847	-0.00017726673	-0.0011668133	0.0008499506	0.001492019	-0.0012108452	-0.0015103135
CMA-ES_8	0.00040660313	-0.00031918162	0.0015070548	0.0008083713	-0.00073398644	0.0012094557	-1.7169566e-05	0.0007530655	0.001167477	0.00026275523	-0.00080038636	-0.00010655301	0.00068569474	0.00042605205	0.0009954555	0.00016868323	0.0015211958	0.00042569998	8.465722e-05	0.0012474114	-0.0007280765	0.00089938554	-0.000997648	-0.00031668975	-0.00070785865	-0.00051663764	-0.0015316021	0.0015740861	0.0009878986	0.0008132372	-0.0013816324	-0.00086715375	-0.00058685115	-0.0004343489	-0.00041726802	-0.0010874226	-0.00089196203	-0.0010583685	-0.000691605	-0.00015582643	0.0007372773	-0.0007030756	-0.00057767134	-1.641745e-05	-0.0008143989	-0.0015168489	-0.0015568481	-0.0014877727	0.0011943342	0.0007937545	-0.00017707226	0.0003065067	-0.0015013267	-0.0015560427	-0.0014978069	-0.0012452315	-0.0004124926	-0.0007398236	-0.0012116643	-0.00061194546	-0.0011149821	0.0011024954	-0.0012854643	0.00030610632	0.0012246508	0.0012831478	-0.00012954912	-0.0005971587	-0.0008384973	-0.0012340789	0.00048598327	0.0008197636	-0.0007692946	-0.0007414935	0.0007457237	-1.9809939e-05	-0.0008657041	0.000983542	-0.0006556257	0.00052307156	0.00056638813	0.00073980767	1.72192e-05	0.0005616834	0.00062501413	-0.0012815292	-0.00047550458	0.0015146076	-0.0006306917	0.00092690013	-0.00019096145	-0.0002134628	-0.0014841591	-0.00072025915	0.0007136442	-0.00039819002	0.0016107761	-0.00067318365	0.00021092186	0.00089328166	-0.000986952	-0.00045190877	0.0012587842	-0.00073426764	-0.0006635354	-0.0013227466	0.0012021742	-0.0006379932	8.836884e-05	0.0013099887	-0.00023149635	-0.00062276237	0.0011548096	-0.0009907696	0.0014316951	0.00077572314	0.0015730123	-0.00081961206	-0.0003827723	-0.0004921212	-0.0007584861	-0.001361922	0.0013687169	6.253476e-06	0.00034958127	-0.0009436533	0.0012293472	-0.001101686	-0.0009778179	-0.0006155394	0.0008251552	0.00049552193	-0.0013980897	0.0014427049	-0.0010087164	-0.00018126259	0.00060681405	0.0008107088	0.00016098312	-0.00083149783	0.0012639265	-0.00049951836	-0.00064174464	0.00022136231	-0.00081963505	-8.522231e-05	-0.0010330046	-0.0009708173	-0.0003139431	-0.000708571	-0.0013956223	-0.0011371792	-0.0011079204	-0.0011170743	0.0010446815	-0.0010492335	-0.00080716435	0.00017824379	1.0353497e-05	0.0014330125	0.00089461845	-0.0014766414	-0.0013870088	0.0009203768	0.00026824942	-0.00033245477	-0.0010998133	0.0015048041	-0.001464837	0.0014958084	2.877456e-05	0.0005326134	0.00013274408	-0.0013201404	-0.0015731193	0.00037756606	-0.00043769897	-0.00063146744	-0.0015531237	-0.001145495	-0.001268638	0.0014657478	0.001482035	0.0007341239	-0.0003321531	0.0003503836	-0.0013999032	-0.0016448958	-0.00024232731	0.0007152941	0.00146691	-0.00013279759	-0.00068716577	0.0007408302	-0.00035117488	-0.00023877632	0.0014505768	-0.00056169654	-0.0002549603	0.00014808594	0.00058865506	-0.0013140804	0.000712954	-0.0009412069	-0.000365151	-0.0009685345	0.00062510755	-0.001247981	0.0010904472	0.0011117407	3.2190314e-05	-0.00044952272	-0.00023457306	0.0014109599	-0.0016114902	-0.0012719489	-1.1887651e-05	0.00055898033	2.3507962e-05	0.001499699	-0.00030388994	0.0001505357	-0.0013050322	-0.00064189686	0.00075470755	0.0008328124	0.00036198163	0.0003308801	-0.0008223006	0.0005558683	-0.0015287022	0.00046990727	0.0010782634	-0.00025832842	0.0015238192	0.00082219986	0.0006852708	-0.0010865214	0.0001898868	0.0006816956	-0.0002887011	-0.0004848398	-0.00019979599	-0.0013118278	-0.0003890577	-0.0010223486	-0.00021773239	0.00093578437	-0.000995481	-0.00058002747	0.0007498688	0.0012921325	0.0015557144	-0.00051666703	-0.0005120141	-0.0007865267	0.0015495237	2.0983929e-05	-0.00023773737	-0.0012933651	0.00052799465	-0.000108321656	0.0013127532	-0.0006447097	0.00056859484	-0.0013104789	-0.0013658807	-0.0011967289	-0.00017434296	-0.0016124856	-0.0008486097	-0.0013041127	0.00093360455	0.001470483	-1.6398833e-05	-0.0006211366	-0.000347237	0.00038279657	0.0008426328	0.0001679721	0.001463847	0.00093538803	0.00081025774	0.001489269	-0.0011772414	-0.00079320074	0.0006777428	0.00089788355	0.00063672493	-1.8077677e-05	-0.0008716262	0.0008905343	0.0010679112	0.00037126322	0.0010872333	-0.0009375551	-0.0006542024	0.00136082	0.00012919436	0.00083331065
CMA-ES_9	5.647037e-05	-0.0001655039	0.0007154695	-0.0012477196	0.0014453386	0.0009431859	-8.1128426e-05	0.00018747649	0.001301576	-0.0012585347	0.0013655907	-0.0008564298	-0.0010167622	-0.0006188408	-0.00013459966	0.00095791713	0.0010822146	0.0009961124	0.00054165	0.001430663	0.00028000484	0.0006363853	-0.0011487773	-0.000828221	-0.000496174	-0.0007373087	-0.0008219353	0.001289342	0.001195629	0.0016282817	4.7183024e-05	-0.0014509337	0.0009101111	-0.0010458196	0.0011815557	0.0007773166	-0.0015232307	0.0013192152	-0.0016407565	0.00089982094	8.9979156e-05	-6.58063e-05	0.0015420958	-0.0007623255	0.00033745854	0.0007464884	-0.0011060019	0.00020046468	0.00050162233	-0.0010888567	0.0016551809	0.00078407617	-0.0014643153	0.0014739146	0.0007726133	0.00047726484	-0.0005452657	-0.0015403313	0.00052164245	-0.0008000699	0.0003081529	-0.0016096618	-1.0049844e-05	9.849104e-05	-0.0008042983	-0.0002892217	0.001048718	-0.0013003518	-0.0007241918	0.0002453115	0.0010774635	-0.00091112725	-0.001363752	-0.0010745283	-0.00027228065	0.0014912925	0.00026458068	-0.001649218	-0.0006949314	-0.000944663	-1.8367866e-05	0.0004928671	0.00021954179	-0.00031418007	0.00055434054	-0.0010456451	0.0003369462	2.7562199e-05	-0.0006080795	-0.0007279882	0.0011649348	-0.0011592323	0.0016363655	-0.00013667943	-0.00095548184	6.575612e-05	0.0012186094	0.0009612486	0.00025049198	-0.0007118661	0.0014951212	0.0008945364	0.0016442465	-0.0013231831	-0.0012974734	-0.0012603274	0.00067899504	-0.0009952092	0.0006677693	0.0008980538	-0.0012655251	0.0012460314	-0.0012093084	0.0012297202	-0.0015195473	0.00023272076	0.0011505831	0.0006197319	0.0015307892	-0.0014468887	0.001570754	-0.0005948361	0.0007906099	0.0004216992	-0.0007455245	-0.00013199491	-0.00028015536	-0.0011378133	0.00035527616	0.00013116657	0.0006882007	-0.0010569223	0.0008851613	-0.0009350089	-0.00026887035	0.0010487556	0.0005674177	-0.0010461849	-0.00078210724	0.0011611091	-0.0015474973	9.304634e-05	0.0014539539	0.0010110298	-0.0004434928	0.0006989105	-0.00028108025	-0.00051600416	-0.0007175396	-0.000782498	-0.00080940017	0.0007722202	-0.00072347216	-0.0001787073	-0.0009989736	0.0006573781	0.00046893657	-0.00012209597	0.00033886952	0.0004727664	0.00014501787	0.0008381348	-0.00070823106	-0.00074724486	-0.00022506439	-0.0009465768	0.0012299194	-0.00095750316	4.9284597e-05	0.0005356104	-0.00020313855	-0.0008603798	0.00015621816	-0.0013714217	0.000819278	-0.0011086699	0.0010597416	-0.0015352631	-0.00034475344	-0.001144577	0.00011764088	0.00076283014	-0.00078057084	-6.257977e-05	0.0016355175	-0.000884966	-0.0014681186	0.0009620875	-0.0006361817	0.0008937487	0.0013774548	0.0010382705	-0.0015846699	0.000611647	0.00051297114	0.00013084331	4.8150523e-05	-0.0015523114	0.00043529057	0.0014544815	-0.0014675139	-0.00070238113	-0.00110438	5.491512e-06	-0.0010372598	0.00024329823	0.00043954473	-0.0009543722	0.0013599556	-0.0006581171	-0.00012806276	0.00066673546	-0.00029136747	-0.0013714123	0.0014300522	-0.0004534025	-0.00024156111	0.00020289395	-0.001411848	0.00015729094	-0.00011541135	-0.0009656151	0.00041292468	-0.00061147846	0.00085599005	-0.0005554123	0.00096700666	-0.00070069893	0.00072867784	-0.00058181694	-0.00042039956	0.0008482455	-0.0008771157	-0.0010099573	0.00037095047	-0.001250833	0.001406378	-0.0016365994	0.0016082396	-0.0008787102	-0.0010606003	0.0016094632	-0.0011072396	7.3338364e-05	-0.0016479525	-0.00084208325	-0.0004942962	0.0008673328	0.0003707658	-0.001126196	-0.00038999185	0.0013075101	-0.0013288844	0.0005890835	0.00019544482	0.00079035666	-5.749442e-05	-0.0011675691	-0.00059284107	-0.0006619027	-0.00042375672	-0.0006278801	-0.0003101656	-0.00019370022	-0.0010845494	-0.00029184832	-0.0011126328	0.0010426841	-0.0014287526	0.0012608338	0.0008389709	-0.001316132	-0.00096324866	0.00073449133	-0.0012125776	-0.0012889687	-0.00078471605	-0.0014746306	0.0008039388	0.00030476163	0.0011895383	-0.00029631882	0.00065149355	6.3675485e-05	0.00030841102	-0.00062696217	0.0008879823	0.0003125402	-0.00027472773	0.00039968514	-0.0013059975	0.00045254533	0.0006056608	-0.0011453623	-0.0015808495	-0.0011427257	-0.0014400858	-0.0012923218	0.00064912403	0.0007827585
CMA-ES_10	0.00027734868	-0.00018455919	0.00039100792	-2.875031e-05	0.00066077634	0.0003150714	-0.00020436903	0.0005756099	0.000559836	-4.041695e-06	0.00041893483	3.0258088e-05	0.0003663822	8.4071726e-05	1.369159e-05	0.00026519335	0.0005936659	-9.329272e-05	-0.00022499017	0.00017556679	-0.00015761062	0.00022584955	3.740573e-05	-0.00036118887	-0.0007927631	-7.7101984e-05	1.3434162e-06	0.0004259368	0.00023452296	-1.965869e-05	-0.00015280055	0.0001917816	5.18755e-07	-0.00022621774	0.00018805159	0.0003620678	0.00031250875	-0.00050226477	-0.00015258513	-0.00024977143	-7.714879e-05	-0.00016438679	-0.000102576276	-0.00050584425	0.00037235572	-0.0004496826	-0.0005080527	-8.020232e-05	0.00049001374	0.00012290572	0.0003890801	-0.00011947462	-0.0007792614	-0.0002181761	-0.00016068088	-0.00052743795	-0.00037045978	-9.911061e-05	-0.0003279349	-0.00028931312	0.00017028626	0.00024053831	0.00032844086	0.0002928535	-0.00023110327	0.00036229813	4.9931074e-05	0.00040398253	0.00022598145	3.2796906e-05	9.6538635e-05	-0.00018443496	-0.00035107692	-0.0003866846	0.0003599225	0.00030445235	0.00014223231	0.00021899548	0.00020429729	-0.00019543746	1.0400661e-05	0.00032764926	0.00073250843	0.00016760547	0.00022590582	-0.0005800969	0.00042306003	0.00053387176	0.00012189394	-4.386434e-05	-5.2201078e-05	0.00024095231	7.5408716e-05	-0.000443957	-4.7993515e-05	-5.2626365e-05	0.00061706256	9.417724e-05	6.144244e-05	0.00045534503	2.528934e-05	3.4151624e-05	0.00021365541	-0.00028754046	2.8507468e-05	-0.00074803474	0.00025419294	-0.0002946055	-0.00014513692	0.00021454072	-0.0001531394	0.00035857622	0.0004735596	2.2063581e-05	0.0005101527	0.0005458886	0.00060529105	0.0001069063	-9.060445e-05	-0.00023962637	0.0003638251	0.00013330796	0.00064179715	0.0006248685	-0.00038358412	-0.00014375492	2.085454e-05	-0.000117089265	-0.0004899626	-0.00026607158	-0.0003589338	-0.00040131784	0.00025959054	0.00024613077	-0.00035513125	0.00022563184	0.00047961596	0.00015753848	0.00018806996	-0.00020800067	-0.00018553909	-0.00018528137	0.00012779635	0.00046630244	-0.00043108952	8.4056395e-05	-0.00065505184	-0.00023456395	-0.0005947771	-0.0006985284	-0.00030339326	-6.517495e-05	-0.0002582552	0.00032234364	-0.0002976267	0.00020136546	-8.3500556e-05	0.00013602748	4.120927e-05	0.00049492635	0.0003863223	-0.00035914136	1.3726248e-05	-0.0002981112	-3.7425914e-05	0.00016985815	-0.00020408328	-1.4322386e-05	-9.983087e-05	2.3885048e-05	-0.00042147734	0.00011994418	-0.0002919403	-0.0005814107	-3.908327e-05	-0.00019971367	0.00023553001	-0.0005275019	-0.00025911417	-0.00012249348	-0.0008400407	0.00044591885	-0.0005056777	-0.00010561396	0.00042532897	-0.0003626027	-0.0003628305	0.00017998878	8.41169e-05	-5.4797118e-05	0.000108257365	0.00020898374	8.398178e-05	0.00044357032	-0.0002920959	0.00032210725	0.0002769683	-0.0006019975	-0.00017627064	-0.0002476398	-0.00023076498	-0.0006542095	-0.00075139996	-0.00045590798	-0.00023938956	-9.540404e-05	-0.00019877394	-0.0006950789	0.00043114548	0.00029085847	0.00024262995	-0.00049339706	0.0001543395	0.00021077531	0.00053450995	0.0002588697	0.00036463785	0.00039929902	-0.0006637129	-0.00017338435	0.00019932039	5.5824283e-05	-0.00027501714	-0.00019227993	0.00029783553	0.00060330564	0.00013071802	-0.00014731254	-3.7216647e-05	0.00025702632	-0.00047663436	-0.00025799422	0.00012393997	-0.00065630797	2.3973467e-05	-0.00080785714	0.00081199396	-0.00018524007	0.00022465167	-2.386806e-05	-0.00035984447	3.5800906e-05	0.00010485593	-2.0400787e-05	-0.0005865394	0.0003034027	0.00056984724	0.00034367671	-0.00032321393	-0.0005663736	-0.00026460626	-3.0929057e-06	-0.00017244507	-0.0004459017	0.0004027526	-2.5646363e-05	-0.0001089117	-0.00038035866	-0.00031909114	-7.0576774e-05	8.2358005e-05	0.00031828656	0.00032989617	-0.0003010292	0.00019012127	-0.00037593237	-0.00041778877	-0.00017063087	0.00045351818	0.000666825	-3.8486058e-05	-0.00029711533	0.00060122815	-0.00030303173	-0.00028857053	-0.00016001405	3.6045967e-05	-0.0005415535	0.0005531921	-0.00031660902	9.892254e-05	0.00014364546	-8.718595e-05	0.00012600367	-7.312529e-06	0.00044420743	0.00022889944	0.0006249986	0.000180859	-0.0002721013	-0.0005389139	0.0005801412	-6.590428e-05	-0.00077436154	1.3841815e-05	-0.00024050301	-0.00071980926	0.00016764597	-0.00025748936	0.0007666796
CMA-ES_11	2.2081409e-05	-0.0002269256	0.00019768665	4.733851e-05	0.00094216544	0.00010966069	-0.0003601527	0.0002416931	0.00022147909	-0.00021942158	0.0007329243	0.00017034193	0.00040173501	-0.00019358973	-8.2707964e-05	0.000116677154	0.0002912279	-0.0001311082	-0.00024586535	-3.8708927e-06	-0.00022010796	0.00023673449	0.00024775136	-0.00029067302	-0.00064398616	-1.2020098e-05	0.00023574794	1.5856398e-05	0.000114672075	7.121556e-05	0.00024599087	0.00025664392	5.2010782e-05	-0.00039578677	0.00026605037	0.00040684993	0.00035778977	-0.00034727604	0.00013621036	-0.00013742536	-0.0001851667	6.165413e-05	-0.00015143554	-0.0003073898	0.0002526135	-0.00028722544	-0.00047043053	-1.727354e-06	0.00016969079	-6.610985e-06	0.00029547088	-0.00019960628	-0.0006238412	7.248746e-05	-0.00015908876	-0.00019231868	-0.00012710612	-0.00014361354	-0.00034205677	-0.00041630617	0.00010652619	-1.8462422e-05	0.00037013137	0.00046000263	-0.0006306202	0.0002093319	-6.427631e-06	0.00047581064	0.00035878277	2.2522707e-05	-1.42058125e-05	-0.0001712295	-0.0004695388	-0.00014860874	0.0003591925	0.00018397954	7.9923775e-05	6.16424e-05	0.00014518239	-0.00039941486	6.709829e-05	0.00041970177	0.0005649707	3.5721918e-05	0.00024659024	-0.0005417917	0.00043519307	0.00035889752	0.0002445104	-9.9162855e-05	0.00015523471	0.00046437452	8.8627006e-05	-0.0005242958	-0.00017318725	9.541809e-05	0.0005574977	1.6633754e-06	0.00025457676	0.00047197347	0.00037994632	-4.825516e-05	0.00011122639	-0.0003537555	6.0573653e-05	-0.0004264243	0.00022641197	-0.00013392048	-6.0319267e-06	0.00020866479	-1.742867e-05	0.00034451723	0.00041609147	2.9455854e-05	0.00040803017	0.00030281063	0.00019934175	0.00032861478	8.345306e-05	4.8072467e-05	0.00053432304	0.00020263111	0.00033697597	0.00040738052	-0.0002143203	0.00015364317	-8.440879e-05	9.362837e-05	-0.00037907594	-0.00030126914	-0.00071048224	-0.0005220343	0.0005795642	-0.00016640218	-0.00029604996	0.0001791738	0.00016580176	-0.00013725413	0.00039584716	1.1055098e-05	-0.00047101727	-5.8143258e-05	0.00021876082	0.00038965765	-0.00027075986	2.0707634e-05	-0.00041527025	-0.00017050961	-0.00032654498	-0.00037919017	-0.0002798241	7.423328e-05	-0.00032564317	0.00033761255	-0.00048402484	0.00020446531	-0.0001250692	0.00017824596	-4.8323443e-05	0.0002452856	7.694311e-05	4.3274977e-05	-2.4609917e-05	-0.00046194837	-0.00014778979	0.00010393361	-6.9808455e-05	-0.00021609945	0.0002201742	-7.08429e-05	-0.0005671591	0.00017660669	-0.00033694535	-0.0003252074	0.00018641466	-1.9467228e-05	0.0002760126	-0.0003170322	8.409752e-05	2.1132973e-05	-0.00056996586	0.0004212857	-0.00093973737	-0.00036020664	0.0004292754	-0.0001788888	6.4363405e-05	0.00031643323	0.00013297312	-6.0930615e-06	-0.00031034945	0.00035380753	0.00012442529	0.0003113437	-4.8950755e-05	0.00047303044	0.00025178218	-0.0005007567	3.9928178e-05	-9.848461e-05	-0.00038240378	-0.00024085096	-0.0010722481	-0.0001298274	-0.0004057052	-0.0001665275	-0.00033451844	-0.0006679251	8.418248e-05	0.00034618407	5.6867808e-05	-0.00044391243	0.00035215836	0.00014471564	0.00060717907	0.0003520506	0.0001854715	0.00033200692	-0.0008193011	-0.00055941555	9.658017e-05	0.00022826491	2.3339144e-05	-0.00012381343	-3.7266007e-05	0.0004514179	0.00010233759	-0.0004103553	0.00026060035	0.0004127554	-0.00018714777	-0.0004099412	-4.1178202e-05	-0.0006684392	-0.00032157643	-0.0009780705	0.00061705307	-0.00022300947	9.506148e-05	-5.7984842e-05	-0.00041229982	0.000111953654	-2.113768e-05	0.00037178543	-0.00060861197	0.00058097875	0.00056765566	0.0001165373	-0.00034937816	-0.00034304147	-0.0006050026	-2.611989e-05	-0.00055110763	-0.00041637264	0.00052312727	0.00032324358	-0.0003000593	-0.00044228492	-0.00012407146	4.6359415e-05	0.00012641927	0.0005116924	0.000277607	-0.00038143867	-3.653182e-05	-0.0004145322	-0.00038793436	-3.62534e-05	0.00062357227	0.0008761716	0.00026750792	0.00010522665	0.0006304658	-0.00030335994	-0.00014238308	-4.755932e-06	0.00024662635	-0.00082823733	0.00046118742	-0.00028648213	-0.00010342816	-1.5325062e-05	-3.7833724e-05	-0.00017032977	0.0003185267	0.0004158672	0.0001638759	0.00045863033	-0.00014813233	-8.585159e-05	-0.00026306155	0.00057004066	-0.000304134	-0.0009402273	-0.0003155143	7.865477e-06	-0.00081489387	-0.0001480555	-0.00031860237	0.0006852723
CMA-ES_12	-0.0014288985	0.00066989305	-0.00066768157	-0.0004354092	0.00083800306	0.0006616731	0.0007314687	0.0013104894	-0.0010433855	0.0013563352	-0.0005790922	0.0011011763	-0.0010866629	0.00066955975	-1.6029554e-06	-3.1927724e-05	-0.0007175544	-0.000702022	0.0013609821	0.001550746	0.00034792649	-0.0015675644	-0.0016082636	0.00071699766	0.0012352876	-0.0010186426	0.0013038365	0.00021800246	0.00019141397	-4.018018e-05	-0.00023116216	3.1590465e-05	-0.001077075	-0.0003494497	-0.0013830857	-0.0010397125	0.00094118976	-5.214042e-05	-0.00081688055	0.001420046	-0.000802524	-0.00026672342	0.00046518192	-0.00019733416	-2.5607398e-05	0.000891675	-0.001135388	0.0006578056	0.00039515627	-0.0014692937	-0.0005802327	0.00133893	0.0010372527	-0.00010345733	0.0016104423	0.00029109867	-0.0009154802	-0.00030305056	-0.0006353516	0.0016456775	0.00045086464	-0.0016016407	0.00012583862	-0.0015101724	0.00023429212	-0.001631369	-0.0004941639	-0.0015350906	-0.0012811628	0.0009292748	-0.0012146068	0.0006001914	0.00020049239	-0.0013124365	0.0011373108	-0.00036660183	0.00020495807	-0.0009107381	-0.0013813522	0.0013196414	-0.00023584768	0.0015688146	-0.00072664715	-0.0011233245	-0.00083379354	-0.00132078	0.000106423504	0.0008764137	0.0015458809	-0.00019265423	-0.0007992163	-0.00047663815	0.0009481659	-0.0016656194	0.0011439616	0.0007257284	0.00083347206	0.0010941953	0.0005903593	0.00039970406	0.00029247135	0.0016539032	0.00053752435	-0.0016502544	0.0005395256	0.0015284857	0.00014157048	0.0013137733	-9.252919e-05	0.0005722086	0.0012573448	0.0007279375	-0.000369657	-0.0006354355	-0.0010736868	-0.0013569018	-0.0002713242	-0.0010108921	4.5976605e-05	0.0016382457	-0.00014237929	-4.517389e-05	-0.001121596	0.0010305787	0.0008098491	0.00041712038	0.00013860682	-0.0014635992	-4.3084137e-06	0.00043257402	0.0016527426	-2.8789713e-05	-0.0006644951	-7.2757357e-06	0.00017206985	0.0003906019	-0.00074831734	-0.00016521585	0.0008747603	-0.0009746464	-0.000725835	0.0011539344	-0.0008176853	8.275972e-05	-0.0005032873	0.0006004857	-0.00029781234	0.0013999355	-0.0005697793	0.0008963444	0.00046825412	-0.00048589276	-0.0010139555	0.0013753199	-0.00080194406	-0.0012491482	-0.00063997915	0.0016640488	0.00021542946	0.0009729919	0.0006057567	-7.1835e-05	0.00031841977	0.0009231872	-0.0005601291	0.0004190426	0.0009449801	0.0010375531	0.0008621712	-0.00028163314	0.0013735943	0.0015950438	-0.00095292076	-0.0011537127	-0.0005869779	0.00070227706	0.0013098316	0.00027976703	0.0011989998	0.0012918368	-0.0010108354	0.0015997437	-1.781264e-05	0.00037127372	0.00049826293	0.0004399798	-0.0008089503	0.00018408855	-0.001329247	0.00089608744	0.0011737547	-0.0008767913	-0.0007623851	0.00029581736	-0.0014489066	-0.0005268972	-9.140141e-05	0.001424284	-0.0012385618	0.0007406845	-0.00015161495	0.000482763	-0.0015294595	-0.0010616559	-0.000349065	-0.0016220936	0.0013118386	-0.00032582533	0.00012953595	-0.0011556284	0.0006872322	0.0013892958	0.00020986689	0.0014590236	-0.0009917112	0.0001879721	0.0004166506	0.0006612595	-0.0010770486	0.00062671065	0.0004039584	0.0014881776	0.00093247375	-0.0009854661	-3.327953e-05	-1.677086e-05	-0.00038513367	-0.0015814446	0.00094687525	-0.0012852994	0.001357649	-0.00040275202	-0.0011441234	-0.0014484441	0.0009437495	-0.0012166937	-0.0014935068	0.0009059836	0.00096828135	-0.0011521329	-0.0015413179	0.00086859067	0.00076671125	0.00077244465	0.0011199702	-0.0011070521	-0.0013413355	0.001582242	-0.00095968874	-0.0014209632	0.0015929607	-8.5458676e-05	-0.0011274277	0.00019001965	0.0011179771	0.0010428319	-0.0016312471	0.0013548651	0.00050217845	-0.0009799342	0.0012952803	0.00059664855	-0.0015259506	-0.001192162	8.823e-05	0.00019773301	-0.0010923403	-0.0016314758	-0.0002891304	0.0005239367	-0.00026603957	0.0006654098	0.0010161673	-0.0002640755	-0.00020783619	0.0011495639	0.00025258362	0.0014758072	0.00076259085	0.0015019625	-0.00067525875	0.00049340754	-0.00033979118	-0.0004971616	0.0007407225	0.0005472293	0.00087469234	-0.0015923075	-0.0009131352	-0.0014490033	0.00063118985	0.00043489845	5.60306e-05	0.0011423068	0.00015004576	-0.0009958687	-0.0003395347	0.0013325486	0.0015027763	0.0006649505
CMA-ES_13	-0.00033930328	-0.00034039313	-0.00045110512	-0.00023804653	0.00034323114	-0.00069290533	8.866599e-05	-1.1045536e-05	-0.0001198391	-0.0006372958	-0.00021901532	0.0004770289	0.0002861109	-0.0003481705	0.00025391032	-0.00013168497	0.00039262907	-0.0003648055	-0.00041044183	0.0004766935	0.00014292909	-0.00017180946	0.00021671223	1.0912714e-05	-0.00036721147	-0.00041387643	-0.00063097733	0.0006411855	0.0004037899	0.00021582803	4.520311e-05	-2.3752858e-05	0.00037112948	0.0007237393	-0.00011078041	-0.00044831156	0.00036812993	-0.001172684	-9.070781e-05	-0.0005099464	0.00021339345	-0.0005086285	0.00018826207	-0.00036150857	-0.00029366417	0.0006372866	0.00066943315	0.00036142045	-0.0008026602	-0.0004332666	-0.0005189777	0.00037941168	-0.00025903215	0.00050362345	-0.0009350562	0.00019435363	-0.0001920657	-0.00023853619	-0.00045589305	-3.4133962e-05	0.00023712995	0.00027984404	-8.216611e-05	-0.0007593235	-0.0001736325	-6.787003e-05	0.0009419298	0.00027775817	-0.00046079917	-0.00018816124	-0.0009083982	0.0005477505	0.0010465166	-0.00029440227	2.6000824e-05	0.00072622026	-0.00032278325	-0.00060312357	-0.00045408492	-0.00018922615	-0.00017669081	-7.522265e-05	0.00021092854	-4.218553e-06	-0.0006502556	-0.0008719538	0.0006210083	0.00057330524	-0.00014433448	0.0010302978	-0.00017163914	0.00028704957	-0.0006514662	0.00067068794	0.0002347258	-0.00029534718	-0.0006783968	-0.00043940695	-0.0002526484	0.00021102729	-0.00022037735	-2.56559e-05	-0.00060898287	0.00035818765	-0.00012227213	-0.00015426338	-0.00027951595	-0.00038115488	0.0002717562	-0.00030278615	0.00046036742	-0.00025262445	0.00074585545	-0.00055664906	0.00043850183	0.00040265813	0.00023654988	-0.00071344135	-0.0005720112	-0.00055983575	0.0008321616	0.00016076374	-0.00084739865	0.0003365646	-0.00041447568	0.00013365688	0.00027155443	-0.00036927324	-0.00069531344	-0.0007760849	-0.00064231583	-0.00025262393	-0.0009253541	-0.0005280862	0.00015054498	0.0003920833	0.00033156696	0.00014628531	0.0012043733	-0.00063928333	-0.00029930257	0.00023311061	0.00052399765	0.00019594369	0.00063336676	-0.0007971602	-0.00025253938	0.0006963136	0.0005569924	0.00011180327	-0.00039460516	0.0008834168	-5.9653365e-05	-5.062812e-05	0.0001082535	6.4421474e-05	7.595083e-06	2.2890097e-05	0.0001347982	0.0004356655	6.195066e-05	-9.287723e-05	-0.0007942444	0.0006785157	0.0008479639	-0.00033272104	0.00054285023	-0.00014481458	-0.00031049747	-0.00025620416	-7.276836e-05	-0.00022258297	-0.00024206856	-6.673852e-05	-0.00038114688	-1.15090115e-05	-0.00029912725	0.00071534	-0.0007881042	-0.00033631394	-9.299477e-05	0.00055394694	0.00041177147	-0.00038012167	-0.00039334805	0.0004712469	-0.00072347716	-0.0002121021	0.00024010502	-0.00036521678	0.0005251381	-0.00013068414	-0.0008172885	0.00020316668	0.0003297297	-0.0001738061	-0.00017930745	-0.000521902	-0.00053209264	0.00016261628	0.00042879858	0.00038979025	-0.0005134356	0.00058286014	-0.00047452902	-0.00025622247	-0.0007826944	-0.0002947573	-3.7392376e-05	0.00023297228	-0.00050343084	0.0006837956	-0.00048142066	-0.0005822157	-0.00057444355	0.0003439671	0.0003455898	0.00018843898	-0.0007283307	-0.00059823226	-0.0006700716	-0.00027489918	-0.00051744457	0.00016236986	-0.0003480481	-0.00032629934	-0.0002119149	-0.00051795953	-3.1332267e-05	0.00039544102	0.0004880546	-0.0002630386	0.000139994	0.00072282774	0.0006575295	-0.00049452065	0.00031298757	-0.0001586707	0.00034361912	0.0003023475	0.00054035353	-0.0002473375	9.49647e-05	-0.00021955793	-0.0006561108	0.0006569945	0.00080302387	-6.757569e-05	-0.00035144543	0.0002143007	0.00040900204	-0.00021311859	0.000111810186	-0.0003711324	0.0009514695	-7.573768e-05	-0.00046659072	0.0004209278	-0.00059843506	0.00027599395	7.869114e-05	0.0007836425	-0.00036355155	-0.0007748617	0.00035946426	-0.00040827325	-0.00042172844	-0.00020050806	0.0006614818	-0.000245635	0.0003515125	0.00012742827	0.0001328406	0.000545192	0.0009813918	0.00018561317	0.000442277	-0.00020349411	-0.00034992446	-7.784876e-05	-6.735887e-05	8.511856e-05	-0.0007710459	0.00020328455	0.0004980925	0.0006943268	-0.00043164208	0.00021263266	-0.000505511	0.0006972654	0.0008993078	-0.0004617333	-0.00024273155	3.6925892e-05	0.00033451238	0.000528692	4.8582733e-06	5.277546e-05	-3.902406e-05	0.00067366665
CMA-ES_14	-0.0007818961	0.0007450132	-0.0012036685	0.0013210081	0.001597767	-0.0011473037	-0.00067698304	0.00058545364	-0.0014146896	-0.001176808	-0.0009523451	0.0016362743	0.00030122028	-0.0007801816	0.0008180686	-0.0012362142	0.0012677243	0.0013831487	0.00068766496	0.0010511678	0.00054519455	0.0006042963	-0.00010204288	-0.0014484192	0.0011773211	0.00059393974	1.7219101e-05	0.00043879752	-0.0014126553	0.0011708128	0.0011877846	-0.00048574593	-0.0003072539	-0.00026083904	-0.0005588983	0.0005532071	-0.0011996183	-0.0009409204	0.0013457248	-0.0005210975	-0.00108896	-0.0009735072	0.00046815048	-0.0012716528	0.0007940476	0.001428364	0.0008685225	0.00053278194	-0.0016070796	0.00054164825	0.00042946884	0.0011477758	0.0001335975	-0.0012906375	-0.00059552875	-0.0011297625	-0.0005270874	-3.524566e-05	-0.00044053112	0.00078373967	-0.0010290031	0.0012976897	0.0003846171	0.00057914265	0.0016057497	0.0011440391	0.00018045855	-0.0009992372	0.001451038	-0.00020389048	-0.00054889626	0.00035306605	0.0014414543	0.00081304257	0.00064243394	0.0015980757	-0.0013315844	-0.00090388366	-0.0011582087	-0.0007305468	0.0010171403	0.0011849245	0.00016309739	0.0011806668	3.582542e-05	-0.00014222377	-0.0016088474	0.001653412	8.242461e-05	0.0007618245	9.449922e-06	-0.0014206439	0.0011109763	0.0006458268	0.0007967991	-0.0004814758	-0.00011539574	-0.0009597318	-0.00097346766	0.000808849	0.0008750558	0.0016396178	-0.00029282292	-0.0015233321	-0.00067292486	-4.1104813e-05	0.0012552724	0.0002984166	0.0014519616	-0.00014264186	0.00063888944	0.0007523022	-0.000445036	0.00066453125	0.0009604573	0.00037883245	-0.0015412163	-0.0011280664	-5.03746e-05	-3.3783177e-05	0.0013609708	0.0006494081	0.0002232772	-8.8182314e-05	0.0014730664	0.00047442023	-0.0006421306	0.0007515262	-0.000909278	0.0012647249	0.0016267159	-0.00015068997	-0.0015140716	-0.0010026711	-0.00031283914	0.00038379856	-0.0010447098	-0.0011513664	0.00090120547	1.4720158e-06	0.0013439363	0.001292399	0.0015905978	-0.000743174	-0.0005984232	-0.0005177948	-0.0012538072	0.000832196	0.0002074878	0.0010343344	0.00060707104	-0.0013391434	0.00069139845	0.00076857564	0.001448131	0.00067201396	3.44154e-05	-0.0005543816	-0.0012420353	-0.0014340789	-0.00027587154	0.00047078438	-0.00021979868	0.00066083035	-0.00051631615	-0.00101377	0.0015417971	0.0005851356	0.0008549018	-0.00056670414	0.00015029633	0.0012439265	-0.0012392992	0.00020795301	5.8605776e-05	-0.00036733708	0.0009930647	0.00079774985	-0.0007994615	-0.0015724021	0.0014390018	-0.0008155526	0.0011157672	0.00076198415	-0.0010551583	0.00044823287	0.0011276685	0.00025237852	0.0010658293	0.0013767598	-0.00039013434	-0.0010447687	-0.00067419774	-0.0007685908	0.0010064347	0.00011217721	0.0013320023	3.8417907e-05	0.0004118449	-0.0008718176	0.0010704945	0.0011365501	-0.0012252145	0.000120506855	0.0011544183	0.0015031113	-0.001646988	0.00027853984	-0.0003373299	0.00024906427	-0.00074546697	0.0012253871	-0.0010088735	-0.0015363352	-0.00010919685	0.0016430315	-0.00041366473	0.0015778228	-0.0010703111	0.00044745996	-0.0009584373	0.000549063	0.0013181928	-0.0013358514	-0.0010992802	0.0009283251	-0.000152001	-0.0011228996	-0.0011863039	0.0013634173	0.0015199851	0.0012470527	-0.0012961818	0.0014468916	-0.0007007766	-0.0009105472	-0.0005937599	-0.0010155918	0.0008996664	0.0016459154	0.0006014653	-0.00059352955	-0.00091833214	0.0011332134	-0.00055986363	-0.0008675386	0.0008222221	-0.0008651552	-0.00046805173	-4.5337427e-05	-0.00081844284	-0.00087164243	0.0005126118	0.0011665835	-7.801965e-05	-1.3580458e-05	-0.000774108	0.0007469425	0.00048781754	0.0010094256	0.000969369	0.0015081705	-0.0012540495	0.00012065083	0.00034273142	-0.001329725	-0.0005605958	0.000426113	0.0006765321	0.00020067336	-0.0014185243	0.0013108794	-0.0009268554	-0.00072700455	0.00091226195	0.0004041535	-8.876585e-06	0.0011055007	0.0013995367	0.0014610679	0.0014707022	0.00029209896	-0.00035236112	-0.0016457819	0.0011930192	0.0013240086	0.0007660727	-0.000910448	0.0011031929	0.00012054206	0.0006921514	0.00031453182	-0.0005892482	-0.00013376676	-0.0014161246	0.0015947202	-0.0011106213	-0.00078100717	0.0013800251	0.0016585389
CMA-ES_15	5.694572e-07	-0.00019507913	-0.00045733404	7.934644e-05	0.00063528406	0.00026445746	-0.00026769735	0.00058085914	7.900258e-05	0.00088543596	0.00041276385	0.0005892613	-1.27854755e-05	0.00046879094	-0.00011962706	0.00069611386	-5.232168e-05	-0.00069097744	0.0002056841	-9.068162e-05	0.00020319139	7.262708e-05	-5.4196462e-05	-0.0002757133	-0.00027070197	-0.0006407279	-4.509331e-05	0.0005089009	0.00016528423	-0.0003265185	-0.00020944604	0.00047486098	-0.00047660284	0.00022011383	-0.000105616884	1.5360385e-05	0.0009003505	-9.841607e-05	2.4466146e-05	-0.00020139237	2.852527e-05	-6.9033194e-05	-0.0002064954	-0.00028757416	0.00021273302	-0.00043771797	-0.00047625462	0.00022319725	0.00020585151	-0.0003192321	0.00018984237	3.729004e-05	-0.00023146118	-0.00022897145	1.4903746e-05	1.0495447e-05	-0.0008548802	0.00044564554	-0.00048403727	0.000308874	0.0008850867	-0.000104121355	0.0004748921	-0.00073728786	-2.4469176e-05	-1.2208079e-05	-0.00039529186	0.00019306652	-1.31386505e-05	-0.00029976937	-0.00015857711	-0.0003470945	8.194143e-05	-0.0004912557	0.00016517518	5.408575e-05	0.00017780137	0.0004378573	-0.0003781863	7.037276e-05	-0.00015903663	0.0009474637	0.0004923678	5.462049e-05	0.00033917784	-0.00020926066	4.293431e-05	0.0006573849	0.0005362352	-0.00023533407	-0.00057445746	0.00038296534	0.00037573065	-0.0005714449	0.00018683804	0.00020453776	0.00019788757	0.0005781172	0.00015949151	0.0012563865	0.00026374985	-0.00020932328	-0.00023834375	-0.0009746642	0.0004349527	-2.3782184e-05	0.00020295553	-0.00018099553	-0.00010872995	0.00016860566	0.00051103235	-0.00019638997	0.00060262333	-0.00025150288	0.00021283687	0.0003361993	0.00065694517	-5.0726067e-05	-0.00020318138	0.0004862086	0.00020339724	0.0006647217	3.6044792e-05	0.0007749541	5.5384844e-05	0.00014196332	-0.0003020397	0.00020629421	-0.0005968857	0.00046989167	0.00016511972	-0.00036037306	0.00023844547	-0.00031139972	-0.0005837289	0.0006453601	0.0001079316	0.00057296245	0.00052834273	-0.0006103222	-5.263323e-05	0.00055812334	-0.00018656332	0.0001001682	-0.0001168741	0.0004421207	-0.0004639687	-9.237734e-05	-0.00028601554	-0.00021719534	-0.00034856613	-0.00037631832	-0.0002576071	0.00088005094	-5.588534e-05	-7.620147e-05	-0.00018520468	0.00018771683	0.0003333756	0.00031220997	0.0011101844	-0.0002575228	-0.00017822438	-4.3258697e-05	-0.00044862283	0.00046632154	-0.00021621038	0.00041670748	0.0001230546	-6.7688394e-05	-0.0004329908	0.00014716007	-0.00082816184	-0.0004951308	-0.000875061	-0.0002796127	0.00057927973	0.0003139822	-0.0003366648	0.00030966336	-0.0006578852	0.00063838	-0.0002380454	-0.00059594214	0.0007311784	-0.0006241393	0.00029499477	5.212211e-06	-0.0002657412	6.894436e-05	0.0005919814	-0.00013368708	0.000104571576	0.00043985323	-0.00096827745	0.00020335431	0.00032068364	0.00010638523	-0.00010699719	-0.00038248714	-0.00010361117	-0.000651298	-0.0003981529	-0.00022533417	-8.465315e-05	-0.0008379842	-0.00045462852	-0.0007228566	0.00025088628	2.965451e-05	0.00076008204	-4.9367313e-06	-0.0001220175	0.0004267484	-6.327295e-05	0.00037211907	0.0004059743	0.00023267337	-0.0008526339	-0.00045630647	-5.7507947e-05	0.0004559572	0.00027166627	-0.0002558118	-0.0006981235	0.0003234773	-0.00054106646	-0.00082147226	0.00045614745	0.00029394712	-0.0002938897	-0.00056235737	6.462125e-05	-0.001050749	-0.0005527971	-0.0008100318	0.00016854875	0.0007992343	0.00019639244	-0.00047980924	-0.0009105263	-0.0001351011	0.00069273065	0.0004018458	5.1639345e-05	-3.078021e-05	0.00019326575	0.0009959152	-0.00070042827	-0.0009811446	2.4061417e-05	-0.0001686888	-0.00040531502	-0.00027985685	0.00092204305	0.00036983617	-0.0005485214	0.00014885579	-0.00012318794	-3.747419e-05	0.0006306024	0.0008588737	-6.874881e-05	-0.0002250144	0.00053777307	-0.000102930586	0.00016954532	-0.0009826657	0.0006752803	0.0010638942	0.00010993731	-0.00025739	0.00084926083	-0.0005486778	-0.00048579945	4.73425e-06	0.0004111831	0.0001588751	8.890042e-05	-0.0005107427	-0.0008556406	-0.0003720344	-1.0053487e-05	0.00034831892	3.894909e-05	0.0008653238	-8.8768094e-05	-0.0004996487	-0.00032992777	-0.00051333057	9.623521e-05	0.0007252507	-0.00068935845	-0.00035630877	-0.00044222974	0.00010324912	-0.0005075871	0.00056369754	-0.000112206886	0.0009066711
CMA-ES_16	0.0011061011	-0.00083136273	0.0003311805	-0.00028187325	-0.0016538657	-0.0006501158	0.0013501466	-0.0016016589	0.0014460279	-0.00078680046	0.00084034086	0.00083229534	-0.00013729748	0.0001935058	0.00021328099	-0.00057086215	0.0005784594	0.0010128192	-0.0015891662	-0.0012740749	0.00079213333	-0.0011287252	0.0016663215	-0.0007438633	0.00082904333	0.00031912595	0.0011404785	0.0002759726	-0.0015642771	-0.00036742678	-0.00010392363	0.00076338375	0.000978337	0.001094201	-0.0001610506	0.0012859366	-0.0008174886	-0.0016240636	0.00090136525	-0.0015926628	0.00047797844	0.0008429683	0.0010054507	-0.0008535385	-0.0006251592	-0.00031122507	0.0006591135	0.0005544115	0.0010449998	0.00076774164	-0.0004088631	-0.0011976857	4.08856e-06	0.0005642173	-0.00055960333	-0.0006782925	-0.0010571803	0.0004896231	-3.778604e-05	0.00011288235	0.0006385041	-0.0012231322	-0.00053035235	0.00058015937	0.00013000617	-0.00055954594	-0.0015718121	0.0007365099	-0.0010676	-0.00080192415	-0.0011238423	-0.00086788577	0.0015552817	-0.0008297653	0.00050840026	0.0012508567	-0.00060025597	0.000349935	0.0007103258	-0.00028944132	0.0012816552	-0.0012958668	0.0011125401	0.00029526747	-0.0016474271	-0.0015643176	-0.0016454525	0.00015433085	-0.0015786703	0.00076556206	-0.00031916908	-0.00064625754	-0.00062864285	0.0015773317	0.0013644651	-0.00038092828	0.0007659392	0.00044667692	0.0002730807	0.0003074501	0.0008364744	-0.0010075786	-0.00032293156	0.00046823648	0.000632494	0.00023145316	0.0007256356	0.00066578796	0.0004012362	0.0013598199	0.000544209	0.0008422394	0.00028284642	0.001165285	7.294234e-05	0.00037217833	-0.00044350018	-0.00066612987	-0.0011412418	0.00073057524	-0.00068358117	-0.0006017528	-0.0013637809	-0.00012911206	0.001167861	0.0016507929	0.0009957534	0.0016153876	-0.0011847737	-0.0015809215	-0.001666499	-0.0006608527	-0.0011634066	-0.0008981107	0.00082034874	0.0014248603	-0.0004969511	0.0013289426	-0.00030714192	0.0009548764	0.0014116208	-0.00095882494	-0.0013827042	-0.001318042	3.0879222e-05	-0.0016069057	0.0009393383	-0.00091102207	0.0005841803	0.0007225401	-0.0015049705	0.0007250962	0.0003591322	0.000908365	0.00067806244	0.0011016955	0.0009937534	-0.000848484	-0.0013855116	-0.0012934678	-0.0015874858	-0.0016178566	0.00075735693	0.0007547943	0.0005574918	0.0011052404	-0.00033567278	-0.0012318176	-0.00058054127	0.001010962	-0.0013103771	0.0015959333	0.00065293716	-0.0015277955	0.00065017375	-0.00062112114	0.0001762745	-0.00045384726	0.0013150484	0.0010901948	0.00044568724	-0.0003978175	-0.00088541873	-0.0012136815	0.00097163464	-0.00016916469	-0.0015322608	0.00062478095	0.00032127317	-0.0007318662	-0.0015313725	0.0015000042	-0.0014153606	-0.0011253762	0.00021682229	0.0015716311	0.0009533546	0.0005134904	-0.0015467454	0.0010171817	0.00017088924	0.0005852337	-0.0012562365	-0.0008761155	0.0013200265	0.00052104046	-0.0013969364	-0.0011706128	0.0010800461	-0.00018504674	-2.3780773e-05	-0.00019922816	0.0014527536	0.0004729616	-0.00026895606	0.00076331943	0.0012130986	0.0015368088	-0.0010986683	0.0014744869	0.00023556464	-0.0015381046	9.7456854e-05	-0.00062149623	-0.00056665303	0.00024684484	-0.000623806	0.00043781457	8.666846e-05	-0.0015085733	-0.001643293	-0.0006265329	-4.8988026e-05	0.0014561256	0.0016554287	-0.00086192676	0.0015269223	-0.0012157608	-0.0010021921	0.00041077854	-0.0007379481	-0.0010581921	0.0011324217	-0.00036782032	-0.0015284114	0.0012315548	0.0013272403	7.187197e-05	0.0012851016	0.0014565348	0.0006011281	0.001146172	-0.00074949214	-0.0011729003	0.00012266629	0.0014124073	0.0016595415	-0.00023998212	-0.0015467086	0.0011258279	0.0010795905	-0.00052359456	0.0006935395	-0.00035182503	-0.0005470406	0.00042727406	-7.384132e-05	0.00094690954	0.00036511032	-0.0014137311	0.00010947442	0.00024081104	0.0004519523	-1.5767313e-05	0.00046158137	0.0007123038	0.00045533216	-0.0012955337	-0.00043871687	0.0014085197	-0.0006052763	-0.00061347627	-0.0010063794	-0.0011438193	-0.0008923613	0.0016623505	-0.00030122875	-0.0005600117	0.00012943725	-0.001264201	-0.00019513984	-0.00069257006	-0.0002944032	-0.0013727847	-0.00017726673	-0.0011668133	0.0008499506	0.001492019	-0.0012108452	-0.0015103135
CMA-ES_17	-0.00021229684	5.0865743e-05	8.892801e-05	-0.00024451924	0.0009380039	0.00013022589	-0.00012086594	-0.000229558	0.00025766646	0.000344417	-7.474341e-06	-0.00030555326	0.00080831983	0.00046414774	0.0006076688	0.0002978971	0.0008456572	-0.00026568864	0.00032328762	-0.00047286256	0.00012728367	0.00083397503	0.0001558216	-0.0003115405	-0.0004964193	3.895419e-05	-0.0004605339	7.240185e-05	-0.00042191497	9.33392e-05	-0.00046438334	0.00025148413	1.8612574e-05	0.00039417422	-9.029898e-05	-0.0005551843	0.00054857554	-0.00021030936	-0.0002045446	-0.00043992334	2.4386147e-05	-0.00035249072	-0.00011460157	0.000120464385	0.00040500145	-0.000958257	-0.0006285783	-0.00039094585	0.00070621906	0.00018252381	-1.956803e-05	-0.000960905	-0.0003613742	-0.0009557802	-0.00097216025	-0.00014413954	-0.00095176586	0.0002548237	-0.0004045703	3.0652758e-05	0.00047388853	0.0004214584	0.00020525258	-0.000355331	0.000611627	0.0008173068	0.00031097504	0.00021122438	0.0003197893	-0.00089878327	0.0004262487	-0.00072268245	0.00019098501	-0.00022381842	0.00045244014	0.00042193098	0.00037998313	0.0005037128	-0.00028154804	0.00053324417	0.00019989982	0.0006650789	0.0010030001	0.0002457121	0.0003164771	-0.00065557874	0.00046947645	0.00029426505	-0.00012364353	0.00038595742	-0.0006696514	0.00010462564	-0.00016208096	-0.00050242635	0.0003490334	0.00034310637	4.1965533e-05	-0.0002293227	-0.00011782736	0.00039615977	-0.00024169942	-0.00013049273	0.00060619507	-0.00022219335	6.3999556e-05	-0.00014663875	0.00042727645	-0.0004419007	-2.8903625e-05	0.000126597	0.00023496329	-0.0001123064	0.00029110143	2.4400058e-05	0.00078212575	0.0008099528	0.00018368306	0.00033777303	0.00022731585	-0.00062873884	0.00047097853	0.0005183293	0.00025164615	0.0005224901	-0.00054197886	3.3471733e-07	-3.8964397e-05	0.0002498691	-0.00019177992	-0.00015876765	9.6656804e-05	-0.000325352	7.3263895e-05	-8.139587e-05	-9.1304384e-05	-0.00013064346	0.00051362335	0.00041079064	0.00022557456	-0.00015193703	0.00017471172	-0.00020312623	-0.00031092597	0.0002956952	-0.00033358485	-0.00012818644	-0.0005689705	-0.00011452922	-0.0008424555	-2.268604e-05	-0.001177108	-0.00026828755	-8.349565e-05	-0.00041818368	-0.00014045679	-6.2816776e-05	-0.0005185306	-0.00042696763	-0.00022806265	0.00067512086	0.00030321296	-0.00019584731	-0.0006804912	1.2044359e-06	-7.4871436e-06	-0.00032456656	-0.00012224723	0.0004693453	0.00035867572	0.00038292335	-6.711636e-05	-0.0004445933	-0.00015075944	-2.3203018e-05	-0.00055197545	-3.5215566e-05	0.00016154858	-0.00057682575	-0.00035478568	-0.0005619639	-0.00082877185	0.00044231908	0.00014929264	-4.582198e-05	4.447568e-05	-0.0007262866	0.00011656412	-0.0005022191	-0.00047753804	-0.00039007043	0.00054520194	-9.365065e-06	0.00022052175	4.4135376e-07	-0.0005126253	0.0003432455	0.0009167747	-0.00067746354	-0.00020051282	-0.00047369767	-0.00046134484	-0.00034958348	0.0002103921	0.00017100517	-5.245911e-05	-4.497705e-05	-0.00011271598	-0.0003327283	0.00010964459	-0.00024259966	-0.0002577887	8.487338e-05	-0.00010230324	-6.185726e-05	-0.0001755007	0.00046742178	-1.06818125e-05	0.00011432741	-0.0006684271	-0.0001434344	0.00035803518	-9.575859e-05	-0.0010594489	-0.00023220592	0.0001914703	-4.7434052e-05	-0.00044914763	0.00023936392	0.0002300983	0.00038387947	-0.00038534874	-0.0004507467	0.00011414185	-0.0011429831	0.00011554754	-0.0006097475	0.00036469978	0.0006016455	-5.6630037e-05	0.00058224273	-0.00030465433	-7.3462026e-05	0.0005011881	0.00014312126	-0.0007228204	0.000580675	0.0004205924	0.00027105326	-0.0004535756	-0.00044633198	0.00060147874	-1.9010437e-05	0.0009348149	-0.0003860384	6.648374e-05	-0.0004639804	0.00011403723	0.0003109505	-0.00065741	-0.00041490808	0.00036511934	0.0007018725	-2.7356728e-06	0.00016378099	0.0011867415	-0.0001464069	0.00011173553	-0.00054353615	0.0004399161	0.00030669064	1.5321024e-05	0.00056227756	0.0004305326	-0.0007982358	0.00013235435	-0.00043997547	-1.1025486e-05	-0.00013194342	0.00030415185	-0.00091568584	-0.0003257653	-0.0004268745	0.00020359553	-0.00015219527	-0.00036776304	0.00025403974	0.000230482	-4.621465e-05	-0.00029973412	-0.0006109839	-6.3178326e-05	0.000425697	-8.656566e-05	-0.00086613756	8.914851e-05	-0.00038864563	-0.0003711659	-8.2132254e-05	-0.0005216137	0.0005138075
CMA-ES_18	0.00019524503	-0.00044791115	-0.0005770458	-1.2743059e-05	0.0007869143	0.00019647868	9.155016e-05	0.00074581185	0.0005903919	0.00088408217	0.00018739338	0.0003472486	0.00018184585	-1.9485644e-05	0.00022709393	0.00025455415	0.00011319255	-0.0010244038	-8.962684e-05	-5.0887884e-05	0.00023549938	-0.00024274344	0.00012487774	-0.00037050556	-0.00041730134	-0.0001085939	8.325323e-05	5.2777614e-06	-8.075607e-05	-6.3990956e-05	-9.304572e-05	0.000508941	-8.210053e-05	0.0003257434	-0.00044602784	0.00018289257	0.0008365734	-0.00019076522	-0.00022313907	-0.00010697464	2.368996e-05	7.470962e-05	-0.00053811085	-1.6703558e-05	0.0005416317	-0.00031545368	-0.0008665775	-0.0001059069	0.000109919856	5.011449e-05	0.00034907128	-0.0002360193	-0.00017448203	-0.00040690735	-0.000316268	-0.0002876523	-0.00082045066	0.0002232383	-0.00017280862	0.00035651788	0.000453388	-0.000387816	0.0007511805	-0.00065639144	-0.00038591045	2.0581927e-05	-0.0003278936	0.000419092	1.9514078e-05	-0.00027243496	-0.00040416597	0.00011941055	0.00016337461	-0.00028540514	0.00013114416	0.000115450915	0.0006957266	0.00030220297	-0.00035932433	0.0003857975	-0.00023330697	0.0005533527	0.0005807706	-0.0003531224	0.00037992254	-0.0002992494	0.0003522195	6.8312904e-05	0.00021838499	-0.00021215281	-0.00041502403	0.00070746255	0.00048232236	-0.0005597391	0.00025382958	0.00019359175	0.00019634896	0.0002937198	0.00034761318	0.00072055275	0.00036447452	7.065749e-05	-0.00041808715	-0.0005813905	0.0006593087	-0.0002850816	-0.00017138694	2.8963084e-05	0.00028323932	0.00041817114	0.00011397344	0.00025739556	0.0005246843	0.00022880391	0.00021393425	0.00040803384	0.00083000364	7.412606e-05	2.6780506e-05	0.00033774335	0.00027022423	0.00032949896	-8.897646e-05	0.0009343269	-0.00015198962	8.022573e-05	-0.00053440663	0.00019888094	-0.00027046792	0.0004785068	7.456844e-05	-0.00034038408	-1.5522644e-06	-0.0003898364	-0.00033386768	0.00038143073	-0.00014802934	0.0005468844	-2.609348e-05	-0.00030351622	-0.0004846488	3.7397414e-05	-0.00027150902	0.00022149892	-0.0006204117	7.009518e-06	-0.0003228109	7.43905e-05	-0.0002985239	-0.0007841297	-0.00043755668	-0.00016273066	-0.0004857961	0.00091494544	-0.00014104634	-0.0003071503	-0.0003878023	0.00024842602	0.00032823096	0.00023940761	0.00047766636	-0.00044374578	8.872659e-05	-0.00026815303	-9.9050034e-05	0.0004638844	-0.0006191175	-4.74358e-05	0.00030458218	8.652587e-05	-0.00037807118	0.0004947858	-0.0006800193	-0.00082017307	-0.00092034583	0.00019004203	0.00029221852	5.3763564e-05	0.00022331702	0.00063451164	-0.00036428875	0.0007368775	-0.00032465058	-0.00044136494	0.0006228678	-0.00017291184	5.7952595e-05	0.00011264669	1.0635081e-05	-0.000104398874	8.252666e-05	-1.1402939e-05	0.00012104458	0.00035139587	-0.0007855757	0.0001699562	0.00014780734	0.0005147404	-0.00018034424	-0.00019395123	-0.00055939856	-0.0005508383	-0.0006125184	-0.00028994592	-0.00044633154	-0.00060538837	3.5148125e-05	-0.0005992622	-0.00010652514	-0.00014786635	0.00081112905	-7.808591e-05	6.2902254e-05	0.0002584793	2.0673022e-05	0.0004256119	9.790981e-05	0.00037608301	-0.00052873464	-0.000118459386	0.00039866	0.00020212281	-0.00018736765	-3.5178324e-05	-4.392903e-05	0.00057118305	-0.00020571984	-0.00043994113	0.0002970129	0.00030998385	-9.8689e-06	-0.0009798475	0.000205497	-0.00075799745	-0.00021590937	-0.0006362448	-0.0001654624	0.00074491603	6.195709e-05	-0.0006002268	-0.0003935541	-0.00026966623	0.0010194208	0.00011841889	0.0005300953	1.8519302e-05	0.0007492107	0.0006830558	-6.741788e-05	-0.0008551253	0.00050672906	8.649535e-05	-0.00016762184	-0.0003027115	0.0006049181	0.00023352224	-0.00031605177	0.00038041812	4.353409e-06	2.6644562e-05	0.0006146933	0.0007519813	8.23458e-05	-6.153712e-05	0.00045245467	0.00028665536	0.00040911502	-0.0008605692	0.00061644934	0.00069633464	-6.517597e-05	-0.00025298368	0.0010317934	-0.0007921204	1.0353746e-06	0.00035619937	0.00034308256	0.00024369876	0.0005545055	-0.00012224706	-0.00030098468	-0.00028671054	-5.001379e-05	0.00026978558	0.00010479897	0.0010468407	0.00014833281	2.2619171e-05	9.280117e-06	-0.0008337853	0.00017306957	0.0002673017	-0.0006406565	-0.0006719228	-0.00051182567	0.0001977187	-0.00029431694	0.00047332997	0.00031777105	0.0006992385
CMA-ES_19	5.694572e-07	-0.00019507913	-0.00045733404	7.934644e-05	0.00063528406	0.00026445746	-0.00026769735	0.00058085914	7.900258e-05	0.00088543596	0.00041276385	0.0005892613	-1.27854755e-05	0.00046879094	-0.00011962706	0.00069611386	-5.232168e-05	-0.00069097744	0.0002056841	-9.068162e-05	0.00020319139	7.262708e-05	-5.4196462e-05	-0.0002757133	-0.00027070197	-0.0006407279	-4.509331e-05	0.0005089009	0.00016528423	-0.0003265185	-0.00020944604	0.00047486098	-0.00047660284	0.00022011383	-0.000105616884	1.5360385e-05	0.0009003505	-9.841607e-05	2.4466146e-05	-0.00020139237	2.852527e-05	-6.9033194e-05	-0.0002064954	-0.00028757416	0.00021273302	-0.00043771797	-0.00047625462	0.00022319725	0.00020585151	-0.0003192321	0.00018984237	3.729004e-05	-0.00023146118	-0.00022897145	1.4903746e-05	1.0495447e-05	-0.0008548802	0.00044564554	-0.00048403727	0.000308874	0.0008850867	-0.000104121355	0.0004748921	-0.00073728786	-2.4469176e-05	-1.2208079e-05	-0.00039529186	0.00019306652	-1.31386505e-05	-0.00029976937	-0.00015857711	-0.0003470945	8.194143e-05	-0.0004912557	0.00016517518	5.408575e-05	0.00017780137	0.0004378573	-0.0003781863	7.037276e-05	-0.00015903663	0.0009474637	0.0004923678	5.462049e-05	0.00033917784	-0.00020926066	4.293431e-05	0.0006573849	0.0005362352	-0.00023533407	-0.00057445746	0.00038296534	0.00037573065	-0.0005714449	0.00018683804	0.00020453776	0.00019788757	0.0005781172	0.00015949151	0.0012563865	0.00026374985	-0.00020932328	-0.00023834375	-0.0009746642	0.0004349527	-2.3782184e-05	0.00020295553	-0.00018099553	-0.00010872995	0.00016860566	0.00051103235	-0.00019638997	0.00060262333	-0.00025150288	0.00021283687	0.0003361993	0.00065694517	-5.0726067e-05	-0.00020318138	0.0004862086	0.00020339724	0.0006647217	3.6044792e-05	0.0007749541	5.5384844e-05	0.00014196332	-0.0003020397	0.00020629421	-0.0005968857	0.00046989167	0.00016511972	-0.00036037306	0.00023844547	-0.00031139972	-0.0005837289	0.0006453601	0.0001079316	0.00057296245	0.00052834273	-0.0006103222	-5.263323e-05	0.00055812334	-0.00018656332	0.0001001682	-0.0001168741	0.0004421207	-0.0004639687	-9.237734e-05	-0.00028601554	-0.00021719534	-0.00034856613	-0.00037631832	-0.0002576071	0.00088005094	-5.588534e-05	-7.620147e-05	-0.00018520468	0.00018771683	0.0003333756	0.00031220997	0.0011101844	-0.0002575228	-0.00017822438	-4.3258697e-05	-0.00044862283	0.00046632154	-0.00021621038	0.00041670748	0.0001230546	-6.7688394e-05	-0.0004329908	0.00014716007	-0.00082816184	-0.0004951308	-0.000875061	-0.0002796127	0.00057927973	0.0003139822	-0.0003366648	0.00030966336	-0.0006578852	0.00063838	-0.0002380454	-0.00059594214	0.0007311784	-0.0006241393	0.00029499477	5.212211e-06	-0.0002657412	6.894436e-05	0.0005919814	-0.00013368708	0.000104571576	0.00043985323	-0.00096827745	0.00020335431	0.00032068364	0.00010638523	-0.00010699719	-0.00038248714	-0.00010361117	-0.000651298	-0.0003981529	-0.00022533417	-8.465315e-05	-0.0008379842	-0.00045462852	-0.0007228566	0.00025088628	2.965451e-05	0.00076008204	-4.9367313e-06	-0.0001220175	0.0004267484	-6.327295e-05	0.00037211907	0.0004059743	0.00023267337	-0.0008526339	-0.00045630647	-5.7507947e-05	0.0004559572	0.00027166627	-0.0002558118	-0.0006981235	0.0003234773	-0.00054106646	-0.00082147226	0.00045614745	0.00029394712	-0.0002938897	-0.00056235737	6.462125e-05	-0.001050749	-0.0005527971	-0.0008100318	0.00016854875	0.0007992343	0.00019639244	-0.00047980924	-0.0009105263	-0.0001351011	0.00069273065	0.0004018458	5.1639345e-05	-3.078021e-05	0.00019326575	0.0009959152	-0.00070042827	-0.0009811446	2.4061417e-05	-0.0001686888	-0.00040531502	-0.00027985685	0.00092204305	0.00036983617	-0.0005485214	0.00014885579	-0.00012318794	-3.747419e-05	0.0006306024	0.0008588737	-6.874881e-05	-0.0002250144	0.00053777307	-0.000102930586	0.00016954532	-0.0009826657	0.0006752803	0.0010638942	0.00010993731	-0.00025739	0.00084926083	-0.0005486778	-0.00048579945	4.73425e-06	0.0004111831	0.0001588751	8.890042e-05	-0.0005107427	-0.0008556406	-0.0003720344	-1.0053487e-05	0.00034831892	3.894909e-05	0.0008653238	-8.8768094e-05	-0.0004996487	-0.00032992777	-0.00051333057	9.623521e-05	0.0007252507	-0.00068935845	-0.00035630877	-0.00044222974	0.00010324912	-0.0005075871	0.00056369754	-0.000112206886	0.0009066711
CMA-ES_20	-0.00010980959	-0.00038678048	-0.00036185523	-0.00020408962	0.00033183288	-0.00039029584	-0.00049229374	0.00023863613	0.00014641168	0.00013313933	0.00013080382	0.00072959386	0.00021567981	-3.4103636e-05	0.00025079373	0.00054345996	0.00031401086	-0.00066252024	-0.00010060293	-0.00014339823	0.0005387944	-1.738671e-05	0.00028090426	-0.00024776088	-0.0006379859	-0.00069717626	-0.0006346617	0.00065933354	0.00032797063	-2.1682332e-05	-0.00024794257	0.00020117141	-4.943002e-05	0.00060564093	-1.3004967e-06	-0.00021954672	0.00067967526	-0.00069941446	-5.196293e-06	-0.00057717407	0.00017781492	-0.00039713347	-9.055228e-05	-0.0004220931	-0.00013789925	0.00014460972	0.00031542673	-1.6829463e-05	-0.00062520686	-0.00020738276	-0.00035462034	-6.680161e-05	-0.00031505717	0.0001384358	-0.00089487433	-2.8164253e-05	-0.0005143753	0.00024567405	-0.0005310182	-0.00031911267	0.00070051104	0.00031966154	4.2101283e-06	-0.00065784383	-0.0001483091	0.00020970503	0.00056005636	0.00062045397	2.317091e-05	-0.0004894736	-0.00055471656	0.00018523494	0.00088072754	-3.1021213e-05	-1.6630627e-05	0.0007228648	-8.682605e-05	-0.00011092154	-0.00034403434	-0.00019148682	-0.0003464487	0.00043571412	0.00049730367	0.0003688976	5.5734123e-05	-0.00056347036	0.0002981386	0.0006211938	3.4703207e-05	0.00034765335	-0.00014902571	0.00050045084	-9.028656e-05	9.988096e-05	6.7689085e-05	-5.0436178e-05	-0.00027469985	1.5849682e-05	-0.000114208735	0.0008547091	-0.000111422494	-0.00030307777	-0.00065702124	-0.00024369867	0.00011777025	-0.00044864023	1.7079095e-05	-0.0008030249	0.0001322816	-0.0002498366	0.00045277708	-0.00040345258	0.0007758882	-0.00034338198	0.00068482314	0.00042450026	0.00065653253	-0.000248249	-0.0003397437	-0.00018884415	0.00086170936	0.0005398868	-0.0004832863	0.0005199748	-0.0002790658	9.8497214e-05	-0.00019372832	-3.012657e-05	-0.0007852686	-0.0003543696	-0.0002910644	-0.0002602556	-0.00028544955	-0.0005149837	-0.00021140449	0.00068251643	0.00018462384	0.0005506592	0.00087580475	-0.00046979793	6.4545525e-06	0.00032998913	0.00017085242	0.00037508635	0.00023669508	-0.00015913435	-0.00050893915	0.0003033407	4.242287e-05	-4.4932345e-05	-0.0005082806	0.00032230932	7.891164e-05	0.000515462	-0.00016422955	0.00015076384	-9.337344e-05	-0.00028964508	0.00041286927	0.00024470012	0.0006879794	-0.00037698692	-0.0006158516	0.00032321873	0.00019268291	-7.994865e-06	0.0001949214	0.00016357876	-0.00016195881	-0.00012745778	-0.0006157641	-7.298011e-05	-0.0005866077	-0.00034894326	-0.0006069478	-0.00027006443	-0.00015940593	0.00044423845	-0.0008830907	-0.00026549512	-0.0003240848	0.0004010968	0.00011830523	-0.00047146532	-3.03641e-05	-0.000104373314	-3.6032838e-05	-0.000120026176	0.00012065139	-0.00034039692	0.00045445355	-0.00021145289	-0.00037721635	0.00023852321	-0.00014381544	0.00021111961	0.00018363232	-0.00044038772	-0.00021389249	-0.00027518396	0.00012149158	-0.00040880198	-0.0006048992	0.00026947385	-0.0003300497	-0.0005771202	-0.00084282254	-0.0007109074	6.2465284e-07	0.00028788828	-0.00021888666	0.00028844102	-0.00037942556	-0.00026932367	-0.00037326786	0.00034938657	0.0003741726	0.00029762016	-0.00072023587	-0.0005113117	-0.0005087508	0.00017814114	-0.00022113774	-0.0002387016	-0.00036071034	-7.903914e-05	-0.00038350726	-0.0007721297	5.6173292e-05	0.000686193	1.1369464e-05	-0.00062162546	0.00018565492	-8.220814e-05	-0.00015179449	-0.0008257073	0.000201459	0.000117255426	0.00016574509	5.7099198e-05	0.00014852347	-0.00034253768	0.0004539985	-0.00011212451	-0.00047541334	0.00062259514	0.0008562827	0.00033904263	-0.0003069303	-0.00037340744	0.00027940472	-0.00029108964	0.00029490908	-0.00040383323	0.00087677804	7.145459e-05	-0.00040513466	0.00026261483	-0.00062382163	0.0002345853	0.0004639439	0.0008488975	-5.025908e-05	-0.0002939281	0.00085202005	-0.00044825737	0.00016241243	-0.00069686706	0.0006313373	0.00042819438	0.00014929929	-6.048777e-05	0.00052111084	-0.00013240289	0.0003785219	-0.00010258242	0.0005344751	-0.00018186281	-0.0003009545	-0.0006999359	-0.00035607573	-0.00044485845	-0.00034264757	0.00040970297	0.00052278064	0.0010234591	-0.00033966592	-0.0001458722	-0.0004838844	9.763655e-05	0.00043303493	3.6961355e-05	-0.00057571696	-0.00022857772	4.367388e-05	0.00038424495	-0.00023189072	0.00031049488	-0.00029908985	0.00072267785
CMA-ES_21	-0.00014823095	-0.000598763	-9.16883e-05	-0.00014361943	0.00027734294	-8.2654195e-05	-0.00043539473	0.00033439766	9.2351715e-05	7.541138e-06	0.00013718722	0.0003014163	0.00012270235	-0.00023927928	0.00019597753	0.00047349016	0.0002381497	-0.0005014071	0.00014337829	2.1091868e-05	0.00014945364	-2.2911929e-05	0.00057065894	8.1867634e-05	-0.00040146065	-0.0004078066	-9.29693e-05	0.00019557367	0.00028277485	3.365074e-05	0.00013858393	4.1800948e-05	-0.0002667748	0.00016811986	6.626398e-06	-0.00018033975	0.00028478185	-0.00086077413	0.00012706767	-0.00021743374	7.5063865e-05	-0.00027676192	-0.00016591701	-0.0005199715	0.00012753786	-3.9075654e-05	-0.00010714812	-8.740765e-06	-0.00047915638	0.000329199	6.184449e-05	-4.167813e-05	-0.000398212	-0.00022432178	-0.00011483511	-0.0001569055	-0.00024810337	0.00036520374	-0.0006781763	-0.00020145455	0.0007919353	0.00038472097	-6.1171704e-05	-0.0005412345	-0.00017983098	-8.6890825e-05	0.0004087037	0.00048339186	-5.9061957e-05	-0.0003173892	-0.00041065813	-9.6594995e-06	0.00040249	-0.0002324253	-0.0002832482	0.00030601435	2.5025336e-05	-0.00029638084	-0.00022300644	-0.00032453978	-0.00031303166	0.00025033802	0.00014116746	0.00053074496	-7.7992445e-05	-0.00064099266	-0.00014946761	5.5275603e-05	-0.0001195278	0.00015207463	-0.0002815174	0.00016199844	0.00011653366	-2.469084e-05	0.00010031065	0.00012026715	-0.00060333597	-8.155381e-05	0.00023166701	0.00031439326	-0.00012354372	-0.00033594295	-0.00037020625	-0.0005222383	0.00039971079	-0.0002307581	4.4911427e-05	-0.00059201947	4.6704656e-05	-0.00025542968	0.0004298177	-0.00033688018	0.0004502856	-0.00013743441	0.00045268153	0.00013562638	0.0004546862	-0.00024152925	-3.385044e-05	-0.000102791484	0.00053286785	0.00012310142	-0.00038968667	4.4358094e-05	3.3006345e-06	5.0960545e-05	-0.00024731306	0.00023119376	-0.00065495126	2.8320492e-05	-5.043731e-05	-0.00013667307	-0.00038024154	-0.0004245059	-0.0001348099	0.00035785857	-5.778106e-05	0.0005189456	0.00042386836	-0.00022672747	0.0003021352	-0.00029801106	-0.00012639571	0.00013789258	0.00028284083	-0.0002403339	-0.0001867405	7.349654e-05	-7.6305754e-05	-7.586977e-05	9.245737e-05	0.00013512447	-0.00013355573	0.00020563044	-0.00039220985	-0.00012930474	-3.8518174e-05	-0.00022548961	7.594841e-05	8.3548715e-05	0.0004890453	-0.00013487569	-0.0003013958	0.0003302046	0.0003520698	-7.4496274e-05	0.00025526766	7.4555246e-06	-3.2843196e-05	-7.2158255e-05	-0.00025054195	-7.71094e-06	-0.00025302538	-0.00016328413	-0.00016165385	-0.00033734494	-0.00020359736	0.00028299316	-0.00045474397	-0.00034238183	-5.5260793e-05	0.00035572448	1.33067915e-05	-0.0003143625	-3.139939e-05	-0.00033507324	-1.9599136e-06	-3.908071e-05	0.00020404677	-0.00021097742	0.00040744533	-0.00022464397	6.8350037e-06	-0.00015729829	-0.00019057463	3.371185e-05	0.0003639599	-0.00048141292	-0.0004377906	-8.3926665e-05	4.0018575e-05	-0.00039195377	-0.00038056585	0.00020517902	-1.29904365e-05	-0.00022156243	-0.0008248038	-0.0005918834	0.00015800504	7.119895e-05	-0.0003826369	0.0004345932	9.4698044e-07	-0.00038688222	-0.00019059627	0.00010232841	0.0005099291	0.00021739902	-0.0005024065	-0.0006655888	-0.0006018833	0.00041383	-0.00016935241	0.0001472233	3.1804953e-05	2.3267212e-05	-0.00033943652	-0.0005536006	0.00016704218	0.00025746928	0.00011607455	-0.00029338655	2.2369628e-05	-0.00022760178	-0.00031503756	-0.00059030904	0.00029727747	0.00023762084	-0.00013760851	-0.00012526581	5.1477156e-05	-0.0003842832	0.000330867	-0.00034613124	-0.00056141935	4.4457298e-05	0.0006783916	0.0001609265	-0.0002642435	-0.00014220379	0.00057555025	2.834268e-05	0.00023999	-0.00037495347	0.00055885897	-0.00026687904	-0.00064025185	0.00022677457	-0.0004855359	0.00028473942	0.000107272885	0.00060879113	-0.0003037478	-0.00050151785	0.0010990375	-0.00046892153	0.00034898418	-0.00048301282	6.4121696e-06	0.0002425172	6.491607e-05	-0.00026415332	0.0002876229	-6.585122e-05	0.00018602746	-0.0002630876	0.00018173092	2.9312583e-05	-0.00022344007	-0.00050421717	-0.00049410807	-0.00055017916	-7.9253005e-05	0.00049303897	0.0003488523	0.0003599286	-0.00029132844	-4.8313777e-05	-0.0002988857	0.00038329844	0.000472448	0.0003695007	4.017403e-05	-6.72128e-05	0.000239358	-3.8116494e-05	8.929123e-06	0.0004782311	-0.00021215684	0.0005240816
CMA-ES_22	-0.0005212272	-0.00057307514	0.0001357929	-0.00013342037	0.00034258433	0.000526435	-6.544271e-05	0.0007100926	-0.00026591506	0.00017204214	-3.3105433e-05	-8.7387874e-05	-0.00030748293	-0.0002941861	7.121012e-05	0.0002509273	-0.000105085375	-0.00033003034	0.00078325334	0.0006296793	-0.00033627162	-0.00041667218	0.00042434092	0.00069388945	0.00033294866	-0.00016263226	0.0010010592	-0.00043648895	0.00019779037	9.1275986e-05	0.00057762134	-0.00017988606	-0.00076819886	-0.00056286406	-0.0003299022	-0.00034127332	-9.4094605e-05	-0.00088048505	7.294357e-05	0.00068657915	-0.00028561585	-0.00010874143	-0.00011176875	-0.0005738948	0.00045422753	-5.895538e-05	-0.00094524847	0.00016901777	-5.975869e-05	0.0006173758	0.0004739643	0.00033801867	-0.00015368366	-0.00069289736	0.001389038	-0.00022192362	-4.882377e-05	0.0003624935	-0.00086981244	0.0004221084	0.00083237595	-2.241267e-05	-0.000104319144	-0.00062313094	-0.000119642784	-0.00088082964	-2.512306e-05	-0.00020968918	-0.00047765736	0.00023089284	-0.000413565	-0.00012517662	-0.00030558597	-0.0007793587	-0.00029470766	-0.0004353092	0.00022380412	-0.00070497673	-0.0003461794	-9.644233e-05	-0.00024778728	0.00032506502	-0.0005654735	0.00033976763	-0.0004508167	-0.0009175326	-0.0007009534	-0.00051757746	8.47567e-05	-0.00020302832	-0.0005931183	-0.0004630328	0.00060881954	-0.0006062093	0.00040607803	0.00050634955	-0.00069600856	7.8453624e-05	0.00079691916	-0.00040721335	-3.6206628e-05	0.00011632881	0.00025109696	-0.0011872344	0.00082233275	0.0005086408	0.00010734564	0.00017456133	-0.00010577211	-5.6210578e-05	0.00060513034	2.0861276e-05	-0.00020240371	2.1243188e-05	-0.00024810535	-0.00063470716	-4.3550463e-06	-0.00042463036	0.00040670956	0.00045079025	-8.8100904e-05	-0.0004920474	-0.00044396444	-0.00036305975	0.00059319165	7.713761e-05	-0.0002245121	0.00016681096	-0.0003131044	0.0006555827	0.00070621993	6.0223738e-05	-0.0005816439	-0.00019579142	4.7227564e-05	-8.036013e-05	-0.0005637219	0.00030429914	-8.482128e-05	-7.948541e-05	0.00045170353	-0.00079852494	-0.00070793426	-0.00020203207	0.00014975917	-0.00014177841	0.00022851465	8.9070556e-05	-0.00036292602	0.00012464485	0.0010124212	-0.000277509	-0.00064579834	7.2034454e-05	-0.0008081163	-0.00079435995	-0.00011345741	0.00033510878	-0.0003524475	8.432634e-05	0.00024468868	0.00021378745	0.0002859349	0.0004880559	0.000343177	-4.255105e-05	0.0005106718	5.031041e-05	0.0003684444	-4.849016e-05	0.0006576725	0.00048272283	3.0676456e-05	-0.00015561006	0.0003442943	-0.00016995023	0.00011399668	6.0474347e-05	0.0005476689	-3.9546358e-05	7.547856e-05	0.0006043423	-0.00013884592	7.3063e-05	9.959261e-05	-0.00045852244	-0.00015685725	0.00012801161	-6.460805e-05	0.00024374061	0.0005343864	-0.00040581857	0.00034260048	-0.000588274	-0.0005694516	-0.00035037604	0.00049807003	-6.1398314e-05	-0.0009458432	0.0003852049	-0.00011991526	-0.00015010817	-0.00035933105	-0.00019993514	0.00033894743	-8.280318e-05	-0.00026586733	-0.00036171082	0.00036728574	-0.00053345575	-0.00034032617	0.0008742281	0.0005761892	-8.704883e-05	-0.00013970156	-0.00021596566	0.00067327474	0.00021806009	-0.00034655162	-0.0005546452	-0.00047847984	0.001006489	0.00017730899	0.00039469765	0.0005552424	0.00015392892	-0.00029026353	-0.0005100841	0.0005144451	-0.0007177181	0.0005704377	0.00013060047	-0.0004937709	-0.00073272863	-0.00022480004	-0.00042323256	-1.8668274e-05	0.00057021395	-0.00027824723	-0.0006327345	-0.00048016026	-0.00012846483	0.0002705222	-0.0003882465	-0.00025933015	-0.0010383595	-7.114044e-05	0.0002713456	-0.0003794105	-0.00014398858	0.001237103	0.00043911184	-0.00017737804	-0.00019400052	0.00026149972	-0.00040466004	-0.0012112869	0.0004595168	-4.8464397e-05	3.753291e-05	-8.6147935e-05	0.00027560914	-0.0009578455	-0.0009596149	0.0011859845	-0.00033067126	0.00024518927	-0.00047607883	-0.00092674553	5.756592e-05	-0.00013384977	-0.00031180278	0.00014871315	-2.3898741e-05	-0.00017711832	-0.00013061927	-0.00028557918	0.0006813024	0.00012964992	0.0002664409	-0.0007291903	-0.00043409847	0.00021777999	0.00036007585	0.00020766849	-0.0005056006	6.6640874e-05	-0.0003001693	-0.00019807483	0.00031800813	0.00056632643	0.00084309164	0.0008909884	0.00045704388	0.00048609558	-0.00085830153	0.0002529405	0.0009224478	0.00033610937	0.00028622878
