	0	1	2	3	4	5	6	7	8	9	10	11	12	13	14	15	16	17	18	19	20	21	22	23	24	25	26	27	28	29	30	31	32	33	34	35	36	37	38	39	40	41	42	43	44	45	46	47	48	49	50	51	52	53	54	55	56	57	58	59	60	61	62	63	64	65	66	67	68	69	70	71	72	73	74	75	76	77	78	79	80	81	82	83	84	85	86	87	88	89	90	91	92	93	94	95	96	97	98	99	100	101	102	103	104	105	106	107	108	109	110	111	112	113	114	115	116	117	118	119	120	121	122	123	124	125	126	127	128	129	130	131	132	133	134	135	136	137	138	139	140	141	142	143	144	145	146	147	148	149	150	151	152	153	154	155	156	157	158	159	160	161	162	163	164	165	166	167	168	169	170	171	172	173	174	175	176	177	178	179	180	181	182	183	184	185	186	187	188	189	190	191	192	193	194	195	196	197	198	199	200	201	202	203	204	205	206	207	208	209	210	211	212	213	214	215	216	217	218	219	220	221	222	223	224	225	226	227	228	229	230	231	232	233	234	235	236	237	238	239	240	241	242	243	244	245	246	247	248	249	250	251	252	253	254	255	256	257	258	259	260	261	262	263	264	265	266	267	268	269	270	271	272	273	274	275	276	277	278	279	280	281	282	283	284	285	286	287	288	289	290	291	292	293	294	295	296	297	298	299
Black–Scholes_0	-0.00019803892	-0.000707726	0.00021997317	-0.0001845503	-0.00019153488	0.00041246877	-0.00018571409	-0.00023936112	-0.00026230045	8.343797e-05	-0.0005039456	-0.0005534868	0.00032731445	-0.00024110945	0.00071902946	-0.00020178997	2.569906e-05	0.00028032888	0.00013660379	0.001066585	-0.0013138251	0.00024365082	0.0006607056	-0.00024749702	0.00042022904	0.00051500933	0.00097110943	-0.00088991347	0.00016344969	0.00011562405	0.00062762474	-0.00040899657	-0.00058275484	-7.642526e-05	0.00024331447	-0.00013073412	7.468066e-05	-0.0008670397	4.0957686e-05	0.00017011036	0.00019519322	0.0004114234	-0.00028378877	7.558969e-05	0.00016792677	-0.0002774703	-0.0009107007	-0.00054449675	-0.00016512048	0.0004276736	-3.6207105e-06	-5.3036685e-05	-0.00064846984	-0.00084762747	0.00064873946	0.00020648673	0.0004120974	0.0004488261	-0.00048794175	4.2991287e-05	0.00061131036	0.0006722004	-0.0007253995	-0.00019699048	-0.0003122002	-0.0007632146	0.00017483665	0.00040282207	0.00073184725	-9.572983e-05	-0.0005739019	-8.1328835e-05	-0.0003440259	-0.00019118776	-0.00095525803	-8.63602e-05	0.000469235	-0.00041640483	0.0005509691	-0.00012425717	0.0005335006	-0.00028037082	9.400708e-05	0.0005092058	-0.00084308535	-0.0006558799	-0.00084414147	-0.00010775423	-0.00061424955	-0.00013502195	-0.00037447072	0.0005053527	-3.8677917e-05	0.00034420393	0.00016073525	-0.0002329445	-0.0011952164	-0.00029402738	0.0007999931	-0.0006874441	-0.000621862	-0.0003975661	0.00035967678	-0.0003050836	0.0002792691	3.036292e-05	2.8993876e-05	-5.537452e-05	-0.00014316349	-0.0003747733	0.00053487276	-0.00041267835	-0.00050959695	0.00089555286	-0.00097129476	-0.000138695	0.0005947415	0.000664264	0.00025059577	-4.0064674e-06	-3.654083e-06	-8.088319e-05	0.00015378383	-0.0011154722	-0.000312948	0.00043208062	-0.0007788925	0.0003900706	0.00039139227	0.0004288596	-0.00020844484	-6.401121e-05	-0.0010897008	-0.00029813938	0.0005428568	-5.9756025e-05	-0.00040435363	0.0002777296	0.00036511375	-0.00031247688	0.0010627337	-0.0008691386	-0.00096875586	-0.0008392415	-0.00033597156	-0.00024924104	-0.00011208159	-0.000736098	-0.00042105638	0.00019953882	0.0011487675	-0.00047285532	4.302885e-05	-0.0004763912	-0.00034406976	-0.00074357796	0.0007425942	-0.00084512884	-0.00056650164	-0.00040869555	0.00016983866	0.0010957442	3.2936496e-05	0.00021667656	8.180644e-05	-0.0005308481	0.0002141929	-2.8974648e-05	-0.00036822935	0.00012630167	0.00029463499	0.00022200476	0.0004258762	0.0002863483	0.0006234632	-0.0010737025	-0.00025338138	0.00076164305	0.00046878218	-2.0135407e-05	-0.00028582205	5.505784e-05	-0.00053592253	-0.000543551	-0.0005377067	-0.000101431135	0.00047855327	0.00094199204	-0.00010650686	0.00017029866	0.00027046254	-0.0007269644	0.0007096886	-0.0013788709	-0.00018478195	-0.00031825795	0.0005045301	-8.9824665e-05	-0.00071049464	-0.00014809116	0.00046195427	0.00016795243	0.00030133876	-0.0005031744	0.00013213577	0.00026624647	-0.00048961566	0.00010196439	-5.9312344e-05	-0.00042433487	-0.0008713828	0.00039361557	0.0008261525	-0.0010249129	5.2806477e-06	-0.00047328716	0.0008317687	4.8739505e-05	0.0005337586	-0.00077348395	-0.00062682346	3.755368e-05	-0.00071264995	0.00086439913	0.0002812604	-7.8980134e-05	0.00047222804	0.0006493071	0.0002143227	-0.00030651756	-4.2829197e-05	-0.0002418843	-0.00093451905	0.00043195242	-0.0001596275	-0.0002330332	2.3822067e-05	0.00044446893	-6.1904546e-05	0.000298481	-0.00011698456	-0.00022927856	9.496294e-05	-0.0007206519	-0.0006143114	-0.00092993816	0.0007535894	-0.0004062926	-0.00037705767	0.00030840674	0.0006277461	0.0005495771	4.420291e-05	-0.00017671131	-0.0009966491	-0.000673308	-0.0007546024	0.000910783	-0.0007494166	0.00059234514	-0.00051393145	0.00048841134	-0.0004686938	-0.00086526695	0.0010987296	-0.00062317477	0.00088077155	0.00021986809	-0.00074385357	-0.0005279254	0.00034260357	9.528062e-05	-0.00015210213	0.0005743682	0.0004008106	-0.00031034145	-7.5042285e-06	-0.000175412	-0.0006379691	-0.00057500944	-0.0007440418	-0.00073338463	0.00058924046	-2.3272198e-06	-0.0005236909	0.00015691022	8.496075e-05	0.0006115307	-6.625819e-05	0.0006279243	0.00043781576	2.5745752e-05	0.00024058105	0.00030917733	0.00013233827	-0.0001375343	-0.0004636196	-1.1299104e-05	0.00026658076	-0.00017380645
Black–Scholes_1	0.00017361788	-0.00069953565	5.104223e-05	-0.00041736188	0.00010792466	0.00019950006	-0.00018926823	-3.361373e-05	-0.00017218626	0.00018548648	-0.0006627486	-0.0005862541	5.440382e-05	-0.00011546863	0.00019520591	-0.00019280164	-7.295322e-05	0.0005476798	-5.510621e-05	0.0011810248	-0.0010439073	0.0004267	0.0005717135	1.27771345e-05	0.00023996843	0.00043841056	0.0006606383	-0.0005274301	-4.165707e-05	-0.00014562864	0.0008704041	-0.00030383322	-0.000107361986	-0.00023894761	-6.058172e-05	-0.00020809977	0.00022943906	-0.0009431592	2.2516368e-05	0.00023864055	0.00012973421	0.0006512818	-0.0003437395	-0.00027842174	-0.00018800379	-0.00013262239	-0.0010171175	-0.0005947363	-0.0001635354	0.000614362	0.0002171311	-0.00014541854	-0.0005034797	-0.00062691723	0.00043607203	-0.00021327483	-0.00010172003	0.00012613831	-0.00022959193	-4.902261e-05	0.00024197232	0.00063196506	-0.0006778758	0.00025129292	0.00014891592	-0.0006107801	0.00044593943	0.00010925344	0.0007628347	-0.00039983573	-6.514191e-05	-0.00031938287	-0.00026115	0.0002227416	-0.0007730905	-0.000404003	0.00047700602	-0.00022008081	0.00039632161	-0.00022901816	0.00076077913	-0.00060402264	0.00012870698	-3.4516765e-05	-0.00024846502	-0.0004630814	-0.00034951934	-0.00044166902	-0.00013926486	-1.02095e-06	-0.0003341143	0.00030158993	-0.00019157419	0.000607077	0.00023087699	-0.00033541297	-0.0009182587	6.062817e-05	0.00074170984	-0.00035627212	-0.00022093435	-0.00039375195	-5.9285885e-06	-1.8914317e-05	7.112131e-05	-0.00021803318	-0.00030292562	-5.203692e-06	3.6771802e-05	-0.0004384467	0.00014198816	8.022676e-05	-0.00035443914	0.00093795435	-0.0009426352	-0.00045014618	0.00052705535	0.0004688716	0.0004570838	0.00024701728	-0.00018307046	-0.0002468959	-0.00028163817	-0.001220336	-0.0002660135	0.0005938277	-0.00088741165	0.00051519333	0.00023898514	0.00040369824	5.0782866e-05	0.00034554495	-0.0010101554	0.000116893134	0.00054395257	0.00031154376	-0.00037759656	0.00037233578	0.0005749047	-0.0004619031	0.00038874248	-0.0007405314	-0.0010504227	-0.00032455384	1.6355742e-05	2.4206049e-05	-0.00011370635	-0.0006227881	-0.0005292952	-0.00015044764	0.00053304195	-2.8214155e-05	-0.00035579433	-0.00052022736	-0.0005678052	-0.00051450654	0.00014869135	-0.00038742047	-0.00071940036	-0.0006280814	-0.00011117016	0.00070756115	0.00042080466	0.00022301711	-0.00011728119	-3.597664e-05	-0.00021729743	-7.292956e-05	-0.0006327448	0.0003841836	0.00060409534	-4.7714166e-05	0.00043166344	0.0005071333	0.00052487286	-0.00040628415	-1.1646363e-05	0.00073817855	-6.330973e-05	-0.00030213094	-0.00018540797	0.000290978	-0.00018523363	-8.394661e-05	1.0673044e-05	0.00033899824	0.0005507296	0.00034429564	3.2529868e-05	-0.00027610868	0.0003284828	-0.00059718033	0.00065972656	-0.0013865763	0.00014750042	-0.00037825553	0.0003631849	-0.00010088904	-0.00036895362	-0.00028540587	0.0004732831	-9.4377436e-05	-1.7557424e-05	-0.0002719135	-0.00028174237	5.7739613e-05	-0.0001056223	-0.00032092186	1.3857774e-05	3.7604725e-05	-0.0010222836	0.0002189049	0.0009335936	-0.0011304497	-2.022081e-05	-0.00017755112	0.00060231355	-0.00012737719	0.0006431384	-0.00058211456	-0.0006197299	0.00031488104	-0.00064077275	0.0005640726	-0.0002049902	-0.00037609783	0.0003883614	0.00022582503	-2.4102745e-05	-0.00026105667	0.00018341994	-0.0003290436	-0.00066911546	0.000119020835	-0.0005170081	-3.9788487e-05	4.0711806e-05	0.00041862528	2.1283748e-05	0.0005809425	-0.00035946525	-0.00034275115	0.00020586723	-0.00070037856	-0.00021996068	-0.0003749375	0.00079764694	-0.00068109884	-0.0003122099	0.00058992347	0.00032185408	0.00071595167	0.0003892744	-0.00012435202	-0.001046724	-0.0004546125	-0.00090625347	0.00035288546	-0.00084299553	0.0006328181	-0.0006686246	0.0001787938	-0.00039811857	-0.00042834645	0.0005013819	-0.00073668227	0.0005774236	0.00027185312	-0.0006103246	-9.076469e-05	0.00013937609	0.00048466268	7.807661e-05	0.00071365904	7.7468605e-05	-0.00011855443	-0.00030745787	-0.00031851945	-0.00035614744	-0.00071728975	-0.00089598866	-0.00043036346	0.0007035823	-0.00034418388	-0.00036233885	0.00037588584	-0.00015619067	0.000109450004	-2.0246938e-05	0.00039695005	-5.0362025e-05	-8.889678e-06	0.00035510602	0.00015058191	-0.00023707327	-0.0001165495	-0.00034693448	-0.00028123165	0.0003645029	-0.00023213029
Black–Scholes_2	0.00017361788	-0.00069953565	5.104223e-05	-0.00041736188	0.00010792466	0.00019950006	-0.00018926823	-3.361373e-05	-0.00017218626	0.00018548648	-0.0006627486	-0.0005862541	5.440382e-05	-0.00011546863	0.00019520591	-0.00019280164	-7.295322e-05	0.0005476798	-5.510621e-05	0.0011810248	-0.0010439073	0.0004267	0.0005717135	1.27771345e-05	0.00023996843	0.00043841056	0.0006606383	-0.0005274301	-4.165707e-05	-0.00014562864	0.0008704041	-0.00030383322	-0.000107361986	-0.00023894761	-6.058172e-05	-0.00020809977	0.00022943906	-0.0009431592	2.2516368e-05	0.00023864055	0.00012973421	0.0006512818	-0.0003437395	-0.00027842174	-0.00018800379	-0.00013262239	-0.0010171175	-0.0005947363	-0.0001635354	0.000614362	0.0002171311	-0.00014541854	-0.0005034797	-0.00062691723	0.00043607203	-0.00021327483	-0.00010172003	0.00012613831	-0.00022959193	-4.902261e-05	0.00024197232	0.00063196506	-0.0006778758	0.00025129292	0.00014891592	-0.0006107801	0.00044593943	0.00010925344	0.0007628347	-0.00039983573	-6.514191e-05	-0.00031938287	-0.00026115	0.0002227416	-0.0007730905	-0.000404003	0.00047700602	-0.00022008081	0.00039632161	-0.00022901816	0.00076077913	-0.00060402264	0.00012870698	-3.4516765e-05	-0.00024846502	-0.0004630814	-0.00034951934	-0.00044166902	-0.00013926486	-1.02095e-06	-0.0003341143	0.00030158993	-0.00019157419	0.000607077	0.00023087699	-0.00033541297	-0.0009182587	6.062817e-05	0.00074170984	-0.00035627212	-0.00022093435	-0.00039375195	-5.9285885e-06	-1.8914317e-05	7.112131e-05	-0.00021803318	-0.00030292562	-5.203692e-06	3.6771802e-05	-0.0004384467	0.00014198816	8.022676e-05	-0.00035443914	0.00093795435	-0.0009426352	-0.00045014618	0.00052705535	0.0004688716	0.0004570838	0.00024701728	-0.00018307046	-0.0002468959	-0.00028163817	-0.001220336	-0.0002660135	0.0005938277	-0.00088741165	0.00051519333	0.00023898514	0.00040369824	5.0782866e-05	0.00034554495	-0.0010101554	0.000116893134	0.00054395257	0.00031154376	-0.00037759656	0.00037233578	0.0005749047	-0.0004619031	0.00038874248	-0.0007405314	-0.0010504227	-0.00032455384	1.6355742e-05	2.4206049e-05	-0.00011370635	-0.0006227881	-0.0005292952	-0.00015044764	0.00053304195	-2.8214155e-05	-0.00035579433	-0.00052022736	-0.0005678052	-0.00051450654	0.00014869135	-0.00038742047	-0.00071940036	-0.0006280814	-0.00011117016	0.00070756115	0.00042080466	0.00022301711	-0.00011728119	-3.597664e-05	-0.00021729743	-7.292956e-05	-0.0006327448	0.0003841836	0.00060409534	-4.7714166e-05	0.00043166344	0.0005071333	0.00052487286	-0.00040628415	-1.1646363e-05	0.00073817855	-6.330973e-05	-0.00030213094	-0.00018540797	0.000290978	-0.00018523363	-8.394661e-05	1.0673044e-05	0.00033899824	0.0005507296	0.00034429564	3.2529868e-05	-0.00027610868	0.0003284828	-0.00059718033	0.00065972656	-0.0013865763	0.00014750042	-0.00037825553	0.0003631849	-0.00010088904	-0.00036895362	-0.00028540587	0.0004732831	-9.4377436e-05	-1.7557424e-05	-0.0002719135	-0.00028174237	5.7739613e-05	-0.0001056223	-0.00032092186	1.3857774e-05	3.7604725e-05	-0.0010222836	0.0002189049	0.0009335936	-0.0011304497	-2.022081e-05	-0.00017755112	0.00060231355	-0.00012737719	0.0006431384	-0.00058211456	-0.0006197299	0.00031488104	-0.00064077275	0.0005640726	-0.0002049902	-0.00037609783	0.0003883614	0.00022582503	-2.4102745e-05	-0.00026105667	0.00018341994	-0.0003290436	-0.00066911546	0.000119020835	-0.0005170081	-3.9788487e-05	4.0711806e-05	0.00041862528	2.1283748e-05	0.0005809425	-0.00035946525	-0.00034275115	0.00020586723	-0.00070037856	-0.00021996068	-0.0003749375	0.00079764694	-0.00068109884	-0.0003122099	0.00058992347	0.00032185408	0.00071595167	0.0003892744	-0.00012435202	-0.001046724	-0.0004546125	-0.00090625347	0.00035288546	-0.00084299553	0.0006328181	-0.0006686246	0.0001787938	-0.00039811857	-0.00042834645	0.0005013819	-0.00073668227	0.0005774236	0.00027185312	-0.0006103246	-9.076469e-05	0.00013937609	0.00048466268	7.807661e-05	0.00071365904	7.7468605e-05	-0.00011855443	-0.00030745787	-0.00031851945	-0.00035614744	-0.00071728975	-0.00089598866	-0.00043036346	0.0007035823	-0.00034418388	-0.00036233885	0.00037588584	-0.00015619067	0.000109450004	-2.0246938e-05	0.00039695005	-5.0362025e-05	-8.889678e-06	0.00035510602	0.00015058191	-0.00023707327	-0.0001165495	-0.00034693448	-0.00028123165	0.0003645029	-0.00023213029
Black–Scholes_3	0.00017361788	-0.00069953565	5.104223e-05	-0.00041736188	0.00010792466	0.00019950006	-0.00018926823	-3.361373e-05	-0.00017218626	0.00018548648	-0.0006627486	-0.0005862541	5.440382e-05	-0.00011546863	0.00019520591	-0.00019280164	-7.295322e-05	0.0005476798	-5.510621e-05	0.0011810248	-0.0010439073	0.0004267	0.0005717135	1.27771345e-05	0.00023996843	0.00043841056	0.0006606383	-0.0005274301	-4.165707e-05	-0.00014562864	0.0008704041	-0.00030383322	-0.000107361986	-0.00023894761	-6.058172e-05	-0.00020809977	0.00022943906	-0.0009431592	2.2516368e-05	0.00023864055	0.00012973421	0.0006512818	-0.0003437395	-0.00027842174	-0.00018800379	-0.00013262239	-0.0010171175	-0.0005947363	-0.0001635354	0.000614362	0.0002171311	-0.00014541854	-0.0005034797	-0.00062691723	0.00043607203	-0.00021327483	-0.00010172003	0.00012613831	-0.00022959193	-4.902261e-05	0.00024197232	0.00063196506	-0.0006778758	0.00025129292	0.00014891592	-0.0006107801	0.00044593943	0.00010925344	0.0007628347	-0.00039983573	-6.514191e-05	-0.00031938287	-0.00026115	0.0002227416	-0.0007730905	-0.000404003	0.00047700602	-0.00022008081	0.00039632161	-0.00022901816	0.00076077913	-0.00060402264	0.00012870698	-3.4516765e-05	-0.00024846502	-0.0004630814	-0.00034951934	-0.00044166902	-0.00013926486	-1.02095e-06	-0.0003341143	0.00030158993	-0.00019157419	0.000607077	0.00023087699	-0.00033541297	-0.0009182587	6.062817e-05	0.00074170984	-0.00035627212	-0.00022093435	-0.00039375195	-5.9285885e-06	-1.8914317e-05	7.112131e-05	-0.00021803318	-0.00030292562	-5.203692e-06	3.6771802e-05	-0.0004384467	0.00014198816	8.022676e-05	-0.00035443914	0.00093795435	-0.0009426352	-0.00045014618	0.00052705535	0.0004688716	0.0004570838	0.00024701728	-0.00018307046	-0.0002468959	-0.00028163817	-0.001220336	-0.0002660135	0.0005938277	-0.00088741165	0.00051519333	0.00023898514	0.00040369824	5.0782866e-05	0.00034554495	-0.0010101554	0.000116893134	0.00054395257	0.00031154376	-0.00037759656	0.00037233578	0.0005749047	-0.0004619031	0.00038874248	-0.0007405314	-0.0010504227	-0.00032455384	1.6355742e-05	2.4206049e-05	-0.00011370635	-0.0006227881	-0.0005292952	-0.00015044764	0.00053304195	-2.8214155e-05	-0.00035579433	-0.00052022736	-0.0005678052	-0.00051450654	0.00014869135	-0.00038742047	-0.00071940036	-0.0006280814	-0.00011117016	0.00070756115	0.00042080466	0.00022301711	-0.00011728119	-3.597664e-05	-0.00021729743	-7.292956e-05	-0.0006327448	0.0003841836	0.00060409534	-4.7714166e-05	0.00043166344	0.0005071333	0.00052487286	-0.00040628415	-1.1646363e-05	0.00073817855	-6.330973e-05	-0.00030213094	-0.00018540797	0.000290978	-0.00018523363	-8.394661e-05	1.0673044e-05	0.00033899824	0.0005507296	0.00034429564	3.2529868e-05	-0.00027610868	0.0003284828	-0.00059718033	0.00065972656	-0.0013865763	0.00014750042	-0.00037825553	0.0003631849	-0.00010088904	-0.00036895362	-0.00028540587	0.0004732831	-9.4377436e-05	-1.7557424e-05	-0.0002719135	-0.00028174237	5.7739613e-05	-0.0001056223	-0.00032092186	1.3857774e-05	3.7604725e-05	-0.0010222836	0.0002189049	0.0009335936	-0.0011304497	-2.022081e-05	-0.00017755112	0.00060231355	-0.00012737719	0.0006431384	-0.00058211456	-0.0006197299	0.00031488104	-0.00064077275	0.0005640726	-0.0002049902	-0.00037609783	0.0003883614	0.00022582503	-2.4102745e-05	-0.00026105667	0.00018341994	-0.0003290436	-0.00066911546	0.000119020835	-0.0005170081	-3.9788487e-05	4.0711806e-05	0.00041862528	2.1283748e-05	0.0005809425	-0.00035946525	-0.00034275115	0.00020586723	-0.00070037856	-0.00021996068	-0.0003749375	0.00079764694	-0.00068109884	-0.0003122099	0.00058992347	0.00032185408	0.00071595167	0.0003892744	-0.00012435202	-0.001046724	-0.0004546125	-0.00090625347	0.00035288546	-0.00084299553	0.0006328181	-0.0006686246	0.0001787938	-0.00039811857	-0.00042834645	0.0005013819	-0.00073668227	0.0005774236	0.00027185312	-0.0006103246	-9.076469e-05	0.00013937609	0.00048466268	7.807661e-05	0.00071365904	7.7468605e-05	-0.00011855443	-0.00030745787	-0.00031851945	-0.00035614744	-0.00071728975	-0.00089598866	-0.00043036346	0.0007035823	-0.00034418388	-0.00036233885	0.00037588584	-0.00015619067	0.000109450004	-2.0246938e-05	0.00039695005	-5.0362025e-05	-8.889678e-06	0.00035510602	0.00015058191	-0.00023707327	-0.0001165495	-0.00034693448	-0.00028123165	0.0003645029	-0.00023213029
Black–Scholes_4																																																																																																																																																																																																																																																																																																												
Black–Scholes_5	-0.0013561513	0.0006043222	-0.00084628054	-0.0015875371	0.0010426523	0.0009076273	-0.0014083323	-0.0006200078	-0.001339337	-0.0013939022	0.00033492382	0.0006436748	0.00072662043	0.00048321582	-0.0009596216	-0.0013144034	0.00016663205	-0.001078307	0.00018759862	0.00078873173	0.0009727079	-0.0005155298	-0.0002873243	-0.0007670641	0.00047498086	-0.0006406842	0.00080535084	-0.0007723565	-0.0004443695	-0.0005281569	0.000568996	-0.0012929122	0.0012320437	-0.00022782154	0.00033843605	-0.0008360827	0.001484132	0.0006886999	-0.0013551675	-0.00034355815	-0.0005576045	-0.000120467375	1.25336755e-05	-0.00012398075	0.0010419902	-0.0015574667	-0.00033790348	-0.000678041	-0.0013393583	0.00096059154	-0.00019331787	-0.0016493434	0.0015644956	-0.0016357494	0.0013239656	0.0005488976	0.00064534746	0.0012719871	-0.0013852229	0.0014806985	-6.041934e-05	0.0007171764	-0.00031087844	0.00030184	0.0004195477	2.3824732e-05	0.0015405444	0.0006498602	-0.00023109645	-0.0007869625	0.00036375952	-0.0015845995	-0.0011866085	-0.0005360981	0.0016410771	-0.0001631092	0.000205987	-0.0005854048	0.0011345862	0.000493881	0.0003687748	0.0012276688	0.0015869855	0.00080798345	-0.0002607189	0.0008274124	0.00015750482	0.0016401877	0.00016713445	0.0012171201	0.0013440786	0.0013293523	0.0014251162	-0.00085295044	7.732774e-06	-0.00096745224	-0.0008730086	-0.0011509733	0.0004703382	-0.00037870414	-0.00027398366	0.0011150166	-0.0011855111	0.0013318982	0.0011923251	0.001190987	0.0016132314	0.0009583275	-0.0011728087	-0.0014806206	0.0006493533	-0.0012550285	-0.00065250235	-0.0014820521	0.00080183963	-0.00057062897	-6.9667745e-05	0.0006954587	0.0006610298	0.0010557966	1.4153599e-05	0.0013838266	0.0008137895	-0.0011708282	0.00135766	-0.0010949757	0.0013150057	-0.00023132401	-0.0009151883	0.0006131241	-0.0016108082	0.0009712166	3.8287973e-05	0.0006878399	0.00020115134	-0.0011580947	-0.0007568863	0.00069999055	0.0015659563	-0.0016366662	0.0015624175	-0.00034218418	-0.0007771864	-1.7154338e-05	-0.00018300758	-0.00052007125	-0.0011246478	-0.00062414113	0.00055593794	0.0014871709	0.0012027898	0.0002611302	-0.00033071218	0.001305336	-0.0005821632	-0.00012287224	0.0011990574	0.0010720616	-0.000715812	0.0005843619	0.00045989783	1.8349405e-05	0.0016172384	-0.00086730556	0.0016282713	0.0008952783	-0.0002628781	-0.000991325	-0.00010485774	0.0015132873	-0.00015654517	0.0013472509	0.0007216708	0.00121539	-2.2324912e-05	-0.00092214945	0.00076050573	-0.0004074365	0.0010663605	-0.00078641897	-0.00050103816	0.0009748985	-0.00051760837	0.00066714064	0.00034997828	0.00042504395	0.0013708187	0.0010409643	-0.00039288553	-7.169256e-05	0.00017829917	0.0012112831	0.001088563	-0.001267579	0.00023620813	0.00044126192	0.00091976684	0.0009902137	-0.0004353862	0.0010075618	-0.0012488946	0.0007494722	0.00053883035	-0.00048611188	-0.0012382709	-0.00012357268	-0.0008842745	-0.0013880896	-0.0008031147	0.00048726518	0.00078131416	-0.0012183212	0.0008743597	-0.0008519827	-0.00075952604	0.00050268235	0.00032994355	-0.0002240129	-0.0011696044	0.00033436716	-0.0009962709	-0.00082457537	-0.0013130327	-0.0012761236	0.00088130205	0.00036298216	-0.0010590227	-0.00031427143	-0.00093279727	-0.0006871518	0.00013200722	-0.00015855701	-0.00086791033	-0.00068371854	0.00028482152	-0.00016648542	-0.0008671457	0.0015115978	-0.0007085744	-0.00029449098	0.00047582109	-0.0007397172	0.0014077717	0.00015383039	-0.0010753615	-0.0013805414	-0.0016127313	0.00074126973	-0.00025487653	0.00027608944	0.0015336081	-0.0006768147	0.0011455291	-0.0007428969	0.00017441914	0.001029542	-0.0014780883	0.00040190562	-0.0013945309	0.00093465275	-0.0009049429	0.00148087	-0.00037939858	-0.0015849954	0.00024077958	0.00029899637	-0.0015836636	-0.0015838479	-0.0012973676	0.0010338376	-0.0007336572	-0.00041426264	0.0013945556	0.00040016495	-0.0006516743	-0.00022927742	0.00017994504	0.0002982274	-0.0002284115	0.00047622586	0.00042751955	3.7951202e-05	6.6498986e-05	4.9237227e-05	0.00092108594	-0.0015638298	-0.00025130983	0.00068214233	8.427874e-05	-0.000720124	-0.0004215521	0.00094852573	0.00026958334	-0.0008454992	-0.0012708511	-0.0010160975	-0.0014550192	0.00067265553	0.0010143677	0.0016626891
Black–Scholes_6	0.0014823282	-0.0016516839	-0.0006735773	-0.0014143969	0.0006651117	-0.0009004276	0.0014221673	-0.0012413679	1.5053161e-05	0.00079393515	0.0008459942	0.0007290477	0.0008745637	-0.0008283577	0.00015473927	-0.00027584512	-0.00022814149	0.00093944685	0.0011354744	-0.0014660127	0.00020823177	-0.0014424773	-0.00048863766	0.0008988842	-0.00038092397	-0.00096346304	-0.0011289371	-3.3279783e-05	-0.0005705247	-0.0010779619	0.0011058154	-0.0012535203	0.0013160675	0.0008643695	0.0013100504	-0.0009927533	-8.748564e-05	0.0013708238	0.0007973047	0.0012699123	-0.0010584246	-0.00011724571	-0.0013068942	-0.0007283603	-6.788029e-05	0.00036119277	0.0011203567	-0.0011177137	0.0010490633	0.00027304885	0.001033454	-0.0012612265	-0.00079821807	-0.0012364995	-0.00094094203	-0.0011394058	0.000116221716	-0.0006651392	-0.0005556774	0.00091756484	-0.001098134	-0.0003497518	-0.0011038017	-0.0012006052	0.0006293398	0.000574511	-0.0006861564	-0.0009747477	-0.00038110925	-0.00044689418	-0.00069265015	-0.0003292953	-0.00017823736	0.00043601176	-0.00024924128	0.001147011	0.00057637267	-0.00045015253	-0.0014838172	-0.0016012911	-0.0011756303	0.0015713989	0.0011188707	-0.0016581164	-0.00029658063	0.00076199434	0.0010383757	-0.0005279522	-0.0012966563	5.8710662e-05	0.00043018392	-0.0013467562	-0.0010454421	0.001020161	-0.0013850526	0.00039649248	-0.0016178907	-0.00052612036	-0.0015661591	0.0005098619	0.00052361964	7.331504e-05	-0.0010490284	-9.191488e-06	-0.0005598335	0.0003849445	0.00022603598	-0.0013744042	0.0012429749	0.0011752136	0.0015411961	-0.0004608442	0.0010197584	9.9152705e-05	0.00030214863	-0.0014097764	-0.0008903343	-0.0006391742	0.0009804757	-0.00025925486	0.0014151955	-0.0007528618	-0.0014559333	0.0005308298	0.00046665096	-0.00015232805	-0.0010365839	-0.00050612795	0.0008746585	0.0011172065	-2.5158164e-05	0.0015696569	0.0011477025	0.00031611638	0.0015000292	0.0013636766	0.00100662	0.0007588265	0.0006593409	0.0013081694	-0.0002609962	0.0009824309	-0.00074339815	0.00046929024	-0.00033644476	0.00010752264	0.001534181	0.000293869	0.00055322016	4.0454503e-05	-0.0002631701	0.0010622685	-0.0005073606	-0.00043762373	-0.0006427432	-0.0012459524	-0.0013950958	0.00081680116	0.0003685151	-0.00026443598	0.0014189909	0.001361727	-0.00036848043	-0.00045096033	-8.639619e-05	-0.00122825	0.0013575192	0.00038452083	0.00078555493	-0.0011528982	0.0015117495	0.00097293296	0.0013551031	0.0005087354	9.9721445e-05	0.0016194863	-0.00028626682	0.0009525105	-0.00039611958	0.00093485287	0.00058811024	0.0014787894	0.00032225382	0.0009646771	-0.00072775374	-0.0016473155	0.0012029915	0.0016547189	0.000505884	0.0006847412	-0.00040696163	0.0005060389	-0.0005431601	0.0016026007	-0.00024295792	-0.0013036428	-0.0013228256	-0.00040827965	0.0003164794	0.00010750524	0.0004294442	-0.0010561622	-0.00042035646	0.0016386396	-0.0005007539	-0.00062486087	-0.001337039	-0.0016533316	-0.0010258934	-7.1371585e-05	0.0010183193	-0.0013987967	-0.00071250275	0.00068482925	0.00047155406	-0.00048384094	-3.313026e-05	0.000107302745	0.0015371991	-0.0016183399	-0.0011698566	-0.0009443453	-0.00044313408	0.0014763563	-0.0004992293	0.00028968733	-0.00048238778	-0.0005615294	0.0014749526	0.0016018878	0.0016614497	-0.00070222595	-0.00024299638	-0.00079805066	4.499874e-05	-0.00016950104	0.0013972411	0.0007383591	-0.00074813544	-0.001087926	-0.0009331757	0.00075575843	0.00070494507	-0.0008545508	0.0013952729	0.00064091035	-0.00017817055	0.0001576238	-0.0011357748	0.0010098296	0.0009960925	-0.0013439093	0.0010867082	0.0006265825	-0.0014180773	-0.000981044	-0.00014966681	-0.001455254	-0.0015217477	0.0005648404	-0.0005083903	0.00024792698	-0.0015436868	-9.1383125e-05	0.00012912662	-0.0007314363	0.001161037	0.00029904564	-0.0009887099	0.0007609005	-0.00059024646	-0.00066461734	-0.0011186393	-0.0012903142	-3.1505264e-05	0.00077534595	-0.00065152603	0.00035040168	0.0009947299	0.00033789492	0.0010872317	0.0006174725	-0.0005192497	-0.00046059102	0.00057678454	2.1716555e-06	-0.00054505677	-0.00084158074	-0.00057315023	-0.00041082772	0.0010444389	0.0004549759	-0.00024448274	0.0011573677	-0.00026026476	0.00022317808	-0.0013454458	-0.0010536988	0.0013166948	-0.0009461066
Black–Scholes_7																																																																																																																																																																																																																																																																																																												
Black–Scholes_8	0.00040660313	-0.00031918162	0.0015070548	0.0008083713	-0.00073398644	0.0012094557	-1.7169566e-05	0.0007530655	0.001167477	0.00026275523	-0.00080038636	-0.00010655301	0.00068569474	0.00042605205	0.0009954555	0.00016868323	0.0015211958	0.00042569998	8.465722e-05	0.0012474114	-0.0007280765	0.00089938554	-0.000997648	-0.00031668975	-0.00070785865	-0.00051663764	-0.0015316021	0.0015740861	0.0009878986	0.0008132372	-0.0013816324	-0.00086715375	-0.00058685115	-0.0004343489	-0.00041726802	-0.0010874226	-0.00089196203	-0.0010583685	-0.000691605	-0.00015582643	0.0007372773	-0.0007030756	-0.00057767134	-1.641745e-05	-0.0008143989	-0.0015168489	-0.0015568481	-0.0014877727	0.0011943342	0.0007937545	-0.00017707226	0.0003065067	-0.0015013267	-0.0015560427	-0.0014978069	-0.0012452315	-0.0004124926	-0.0007398236	-0.0012116643	-0.00061194546	-0.0011149821	0.0011024954	-0.0012854643	0.00030610632	0.0012246508	0.0012831478	-0.00012954912	-0.0005971587	-0.0008384973	-0.0012340789	0.00048598327	0.0008197636	-0.0007692946	-0.0007414935	0.0007457237	-1.9809939e-05	-0.0008657041	0.000983542	-0.0006556257	0.00052307156	0.00056638813	0.00073980767	1.72192e-05	0.0005616834	0.00062501413	-0.0012815292	-0.00047550458	0.0015146076	-0.0006306917	0.00092690013	-0.00019096145	-0.0002134628	-0.0014841591	-0.00072025915	0.0007136442	-0.00039819002	0.0016107761	-0.00067318365	0.00021092186	0.00089328166	-0.000986952	-0.00045190877	0.0012587842	-0.00073426764	-0.0006635354	-0.0013227466	0.0012021742	-0.0006379932	8.836884e-05	0.0013099887	-0.00023149635	-0.00062276237	0.0011548096	-0.0009907696	0.0014316951	0.00077572314	0.0015730123	-0.00081961206	-0.0003827723	-0.0004921212	-0.0007584861	-0.001361922	0.0013687169	6.253476e-06	0.00034958127	-0.0009436533	0.0012293472	-0.001101686	-0.0009778179	-0.0006155394	0.0008251552	0.00049552193	-0.0013980897	0.0014427049	-0.0010087164	-0.00018126259	0.00060681405	0.0008107088	0.00016098312	-0.00083149783	0.0012639265	-0.00049951836	-0.00064174464	0.00022136231	-0.00081963505	-8.522231e-05	-0.0010330046	-0.0009708173	-0.0003139431	-0.000708571	-0.0013956223	-0.0011371792	-0.0011079204	-0.0011170743	0.0010446815	-0.0010492335	-0.00080716435	0.00017824379	1.0353497e-05	0.0014330125	0.00089461845	-0.0014766414	-0.0013870088	0.0009203768	0.00026824942	-0.00033245477	-0.0010998133	0.0015048041	-0.001464837	0.0014958084	2.877456e-05	0.0005326134	0.00013274408	-0.0013201404	-0.0015731193	0.00037756606	-0.00043769897	-0.00063146744	-0.0015531237	-0.001145495	-0.001268638	0.0014657478	0.001482035	0.0007341239	-0.0003321531	0.0003503836	-0.0013999032	-0.0016448958	-0.00024232731	0.0007152941	0.00146691	-0.00013279759	-0.00068716577	0.0007408302	-0.00035117488	-0.00023877632	0.0014505768	-0.00056169654	-0.0002549603	0.00014808594	0.00058865506	-0.0013140804	0.000712954	-0.0009412069	-0.000365151	-0.0009685345	0.00062510755	-0.001247981	0.0010904472	0.0011117407	3.2190314e-05	-0.00044952272	-0.00023457306	0.0014109599	-0.0016114902	-0.0012719489	-1.1887651e-05	0.00055898033	2.3507962e-05	0.001499699	-0.00030388994	0.0001505357	-0.0013050322	-0.00064189686	0.00075470755	0.0008328124	0.00036198163	0.0003308801	-0.0008223006	0.0005558683	-0.0015287022	0.00046990727	0.0010782634	-0.00025832842	0.0015238192	0.00082219986	0.0006852708	-0.0010865214	0.0001898868	0.0006816956	-0.0002887011	-0.0004848398	-0.00019979599	-0.0013118278	-0.0003890577	-0.0010223486	-0.00021773239	0.00093578437	-0.000995481	-0.00058002747	0.0007498688	0.0012921325	0.0015557144	-0.00051666703	-0.0005120141	-0.0007865267	0.0015495237	2.0983929e-05	-0.00023773737	-0.0012933651	0.00052799465	-0.000108321656	0.0013127532	-0.0006447097	0.00056859484	-0.0013104789	-0.0013658807	-0.0011967289	-0.00017434296	-0.0016124856	-0.0008486097	-0.0013041127	0.00093360455	0.001470483	-1.6398833e-05	-0.0006211366	-0.000347237	0.00038279657	0.0008426328	0.0001679721	0.001463847	0.00093538803	0.00081025774	0.001489269	-0.0011772414	-0.00079320074	0.0006777428	0.00089788355	0.00063672493	-1.8077677e-05	-0.0008716262	0.0008905343	0.0010679112	0.00037126322	0.0010872333	-0.0009375551	-0.0006542024	0.00136082	0.00012919436	0.00083331065
Black–Scholes_9	-0.00044534015	0.00039715937	0.00049085653	-0.0004872558	0.00012213798	0.0005855275	-0.0006106348	-0.0014766013	-0.0002485541	-0.00030265024	-0.0011985364	-0.00064904115	0.0015975181	0.0013524671	0.0011087386	-8.714743e-05	-0.000605891	0.0016138175	0.00014710921	0.0015638336	-0.00093600404	-0.0002575831	-0.00053741346	-0.0012385047	0.00071929576	0.0015349501	0.0006561684	-0.0012391038	0.00061570806	0.00042460376	-0.00023148445	0.00035422493	-0.0011555833	3.5184854e-05	-0.00042031312	-0.0015237	0.00130599	0.00030198466	-0.0012760509	-0.00091819494	0.0005969771	0.0010043846	-0.001085156	0.0012931222	-0.0002983002	0.0003378433	-0.00079510215	-0.0005557582	-0.0014291668	-0.001030886	-0.0008643979	0.0004935501	0.0006037197	-0.00085171225	-0.0011013449	0.00062298885	0.001528222	-0.00064255233	-8.9090914e-05	-0.0009851237	-0.00017579908	0.0015021489	-0.0009857211	0.00025488535	-0.0014238317	-0.0015807578	0.00039801263	0.0015346368	0.001475207	-0.0016320552	-0.00089214725	-0.0002571998	-0.00075755216	0.0015510116	-0.0009394593	0.00071620883	-0.00022760041	-0.00082281436	0.0004047386	-0.00025303423	0.0008364998	-0.0011652443	0.00021500689	-0.000461801	-0.00022219947	-0.00070335786	-0.0011092355	0.0014298314	5.017088e-05	-0.00022614638	-5.3762637e-05	0.0014052966	-0.0010294938	0.0016427591	0.00044460446	-0.0004497265	-0.00092530105	-0.0013781082	8.637159e-05	-0.00010023735	0.00016279363	-0.0009345085	-4.7279573e-05	0.0015035729	-0.0010273885	3.2304517e-05	-0.0007286775	-0.0008395943	-0.0012661585	-0.0009078978	-1.5345306e-05	-0.0012829507	-0.00089148065	0.0014528498	-0.0013393256	-0.00076438	0.0003715368	0.0012986556	-0.0011941219	0.0011101963	-0.00021340013	0.0012234522	0.0015475085	-0.00067988125	-0.0008994164	0.0010599565	-0.001108925	-0.0012978947	0.0011346107	0.00071501266	-0.0004608637	0.0011938589	-0.0015285014	0.00052567257	0.0014923121	0.0014409948	-0.0011959452	-0.0013346913	0.0010403632	-0.00084779866	0.0016423888	0.0004990269	-0.0006475507	-4.092839e-05	-0.0016515101	-0.0006831798	-0.00086495	0.00018287163	-0.0004990806	-3.958082e-05	0.0013588319	-0.0011781139	0.00090581714	0.0007440887	0.00086779223	-0.0004979196	0.0013322687	-0.0016452362	-0.0009311773	-0.0014329068	0.0007902455	0.0014507624	-0.0013222864	-0.00039635465	-0.000328391	-0.00059109833	0.0010152685	0.0014015102	-0.0006641331	-0.00042824596	-0.001261574	0.00056147773	0.001310379	0.0015558415	0.0011063908	-0.0007793473	-0.00013725003	0.00081714743	0.00091943186	0.00019425504	-0.0006544171	0.0006614405	0.00010557282	-0.0013711995	-0.0012539893	0.00068763405	0.00046366302	0.0010836647	-0.0006329752	0.00038554482	0.0005010441	-0.0015328574	-0.0005110447	-0.0015218015	-8.719624e-05	-8.268936e-05	0.00015983236	0.0006913719	-0.00042196282	-0.0003503605	0.00023221875	0.00028672497	-6.678227e-05	-0.0012184565	-0.0011505536	0.00087175955	-0.00063343544	8.223485e-05	-0.0009733401	-0.00072836305	-0.00051402085	-0.00046163792	0.000377157	-0.0015718753	-0.000512479	0.0006994821	0.00033718327	0.00046831602	0.0004084703	-0.0007904706	-0.001004371	-0.0014614591	-0.0011126233	3.2415966e-05	-0.0016547535	-0.0014899739	0.0014218533	0.0012210927	-8.564299e-05	-0.000104105995	0.000110079956	-0.00034375605	-0.0010019628	0.001557654	5.8161862e-05	-0.0013022607	-0.0013878805	-0.00044588075	0.0005721904	0.0015678867	-0.00038137817	-0.0008676722	-0.0009615419	-0.00034101531	0.0012717654	-0.0012541588	0.0010041487	-0.0010938568	-0.0014248628	0.0011588354	-0.0009881827	-0.0012166399	0.0012090403	-0.00087335147	-0.0016462754	-0.0005420207	-0.00062978035	0.0006612008	-0.0015657335	0.0009787733	-0.00090942066	0.0012503732	0.0004441624	-0.00064104516	0.00022763545	-0.0015393631	0.00077850063	0.0008668404	-0.0003679073	-0.000632563	0.0006299431	0.00075582764	0.0014406651	0.0011464799	0.000613132	-0.00023482848	0.00080208457	-0.000748706	-0.00056669296	-0.00035926353	-0.00019954202	-0.0012019423	0.0014892382	-0.0016034362	-0.0016393971	0.001400329	0.0009391635	0.0001599185	0.00042559506	0.000311079	-0.0006309005	-0.0015063916	-0.0011433043	0.0015287313	7.217155e-05	0.00038492936	-0.0015561795	-0.0010461587	0.0012561347	-0.00081523263
Black–Scholes_10	0.00031619446	9.8625955e-05	-0.00018802492	-0.0009988553	0.0011379514	0.000573363	-0.00069712586	2.9084174e-05	0.0003232311	0.0002888851	0.0003912407	-7.862157e-05	0.00018019177	6.3225394e-05	-0.0004137516	5.4867753e-05	0.0008096127	0.00013799065	-7.393762e-05	-0.000583398	0.0002814171	0.0006836869	0.00046132816	-0.0004512285	-0.0006973337	0.0003797796	-0.0003328725	-4.9054488e-05	-0.00034272028	0.00024589564	0.00011095954	3.635795e-05	0.00035724795	0.00032548752	0.0003986	0.0006326934	0.0004277656	-0.00013039881	-0.00038580145	-0.0005291923	0.0003072713	-0.00033276388	0.00025181455	-0.000161476	-1.0429707e-05	-3.4560195e-05	-1.3047596e-06	-0.00015419224	-0.00024269584	-0.00015661767	0.00031097312	-0.00014558883	-0.0004995618	-0.00017427655	-0.00030677178	-0.00070652657	-0.00058824883	-7.105514e-05	-0.0003231094	-0.00016724621	-2.3367606e-05	0.0003439402	0.00025854522	0.0005642165	-0.00033862068	0.00042732712	0.0004478321	0.00015792213	0.00038038447	-0.00032667135	-0.00016453533	-0.00081268605	0.00025266455	-0.0008737746	0.00014913164	0.0006060764	0.00064484886	-0.00018495743	6.336444e-05	-0.00057627633	-0.00037833117	4.6594698e-05	0.00068256486	-0.00023652776	0.0002734604	-0.00030301427	0.00080902537	-0.00023752249	-0.00016226269	-0.00035096816	-0.00012608446	0.0001415089	0.00031601632	-5.9983016e-05	-0.0010422613	0.00047053955	0.00051449926	0.00056671153	-0.00022074068	-3.127251e-05	0.0002051642	0.00044496465	3.9037037e-05	-0.00015809924	8.427042e-05	-0.0008337711	0.0006326902	-0.000668434	-0.00041072868	0.00023059617	-0.00044107894	-6.8373556e-06	5.7514662e-05	0.00016942174	7.223776e-05	-0.00018208408	0.00045463443	1.523532e-05	0.00042337287	-0.0004225262	0.0001115069	0.0003865086	0.0004621035	0.0003666018	-0.0005625299	0.00016700206	-0.00050489145	0.00047517344	-0.00022963839	-0.00030223574	-7.1638497e-06	-0.00029235036	0.00028891177	-0.00045667868	-0.00022258959	0.00095003453	0.00029527437	0.00013792617	4.4976794e-05	-0.00012403057	-0.000526356	-0.00012548054	0.00010705844	0.00070239214	-6.888267e-05	0.00020732763	-0.00031276667	-0.00033886143	-0.00039966893	-8.254347e-05	-0.00030169036	-0.00034639315	-0.00040356378	-2.9738632e-05	-0.00093687495	0.0002824107	0.00035889092	-0.00012865078	9.328067e-05	0.00012228724	-8.329241e-05	0.00012959364	-0.00022642946	7.49801e-05	-0.00015966421	-0.00015703846	-0.00014225535	-8.815991e-05	-5.1841314e-05	-0.00025171632	-3.813439e-05	7.6179e-05	-0.00041180188	-0.0003977675	0.00025814556	-7.298763e-05	0.0003773788	-0.0009009756	-0.00052889745	-0.00032079924	-0.00042785396	0.00024985895	-0.0013281188	-0.00017820606	0.00096995226	-0.0003140683	-0.0003128234	-6.2651234e-05	-0.00023297252	-0.000249711	0.00066728756	0.00044773906	0.00012540483	-2.9951543e-05	-0.00040858058	0.0003496193	-0.00012885376	-0.00049678364	-0.00046636962	0.00014294447	-0.00047212746	-0.0002962825	-0.00044460603	-1.0169222e-05	-0.0002709182	-0.00054840505	-0.0003370316	-0.0005694201	0.000270663	-0.00014481689	-0.00025048302	6.669494e-05	0.0003816331	-2.4008681e-05	0.0008418223	0.0010154549	8.661753e-05	0.00063839153	-0.0005108792	8.235532e-05	-0.00036523817	-0.00054313045	-0.0004804722	-0.00048638595	0.00056011725	0.0005577197	-0.00011035318	-0.0005588647	0.00046995207	0.00016409977	-0.00017223935	-0.0005385879	-0.00017469798	-0.00085586973	-0.00025987456	-0.0007137875	0.0010225887	-0.0002572988	-0.0002380897	-0.00013187228	-0.00018148142	0.000115146206	-0.0002661345	-0.00017438244	-0.00043994765	7.194923e-05	0.00065137155	0.0004011997	-5.7420646e-05	-0.00063527783	-6.1366125e-05	-9.104561e-05	-0.00018917696	-0.0002742514	0.0006611032	-0.00024347038	-0.00042058792	-0.00034035853	-0.00070942205	-6.129288e-05	-0.00058315776	0.00060108426	-0.00030137796	-0.00037801018	0.00024963715	-0.0006630743	2.2713095e-05	9.186889e-05	0.00044664353	0.0010128429	-0.00013470935	0.00022875308	-3.3834018e-05	-0.00039373757	-0.00031567345	-0.00092825945	0.00029478114	-0.00090497435	3.3082906e-06	-0.000749478	-0.00022824369	-0.0002623527	0.00024977088	-0.00021162568	0.00045158487	0.00017268678	-0.00020051452	0.00064641715	0.00011606338	-0.0005380327	-0.00066580984	0.00020854105	-0.0004468398	-0.00049808965	-0.00059062033	-0.00029296608	-0.000782717	-3.705431e-05	-0.0005254519	0.0005267363
Black–Scholes_11	3.9289458e-05	0.00012884087	-0.00047419776	-0.00096187275	0.0011084757	0.0005893427	-0.0010273035	0.00013609133	0.0006287571	0.0004086262	0.00027496868	-0.00042165548	0.0002304278	0.00032239695	-0.00016893868	0.0003857733	0.000948854	-1.67994e-05	0.00023287306	-0.00044465545	0.0007173035	0.0006073863	0.00038892348	-0.0005769057	-0.00061316165	0.00032215723	-0.0007528775	0.00023718752	-0.00025323563	0.000142745	8.465699e-05	0.00022499048	0.00025689398	0.0002957451	0.00029917917	0.0004997144	0.00025106172	0.0001456259	-0.0005073482	-0.000751076	0.00035409993	-0.00021726728	0.00011099686	7.636908e-05	0.00018690489	0.00023292575	-9.91672e-05	-0.00043604607	-0.0002265842	-1.2609176e-05	0.00022385905	-9.291808e-05	-0.0006945346	0.0001632237	-0.0005601329	-0.00050500815	-0.001014464	-4.6599307e-05	-0.00025642605	-0.000337262	0.0003174435	0.0001745064	5.2412506e-06	0.00029815963	-0.00037377852	0.0006905319	0.00037226998	0.00032490084	0.0002501663	-0.0006951726	4.4731714e-05	-0.001001319	0.0005765699	-0.0007102629	-0.00020473113	0.0010004351	0.00065728114	-0.00023459217	-4.0218758e-05	-0.00052926166	-0.0006199834	0.0004233205	0.0005959921	-0.00019920534	0.0006048825	-5.800079e-05	0.0006120596	-0.0002872722	-6.327288e-05	-0.0005158551	-0.00037520222	0.00026324776	0.00036103782	-0.00024245333	-0.00089856895	0.0006958799	0.0005857674	0.0005824141	1.9037449e-05	0.00034062145	0.00046813642	0.00041596816	0.00017708004	-0.000518931	-0.00027266526	-0.0010583899	0.00087112375	-0.0009553088	-0.00017049699	0.00025347935	-0.00035050194	-0.00031107382	7.3041883e-06	0.00034477262	-0.00022460707	-0.00014469429	0.00078307185	0.00035428596	0.0008632543	-0.0004465764	0.0003844452	0.00018858127	0.0003614191	0.0003683782	-0.00046372472	0.00021856015	-0.0004248582	0.00019124888	-0.00017101725	-8.6706634e-05	0.00029371114	-0.0006966417	0.00040413695	-0.0005994305	-0.00013062602	0.0011137929	8.909608e-05	0.00023838291	-0.00018688013	0.00015198263	-0.0003120727	-0.00014862939	-9.5313444e-05	0.00060585444	-0.00019800387	0.00038801995	-0.00039063406	-0.00037730183	-0.00037214265	-0.0002661425	-0.0005769512	-9.1491675e-05	-0.00053884846	0.00018090954	-0.0007695737	0.0004563641	0.00025385382	-0.0004471181	0.00029792893	-0.00011575707	0.00026272528	0.00023988305	-0.00067249825	-0.00024982265	-0.0004958492	-0.00019098965	-0.0003311068	-0.0001678985	-0.000113314636	9.055629e-05	-0.00030791573	-6.609867e-05	-0.0004323997	-0.0005612824	-1.9985397e-05	-0.00028090467	0.00079676043	-0.0009916081	-0.001026496	-0.0005445457	-0.00037346096	0.00050646556	-0.0012868514	-0.0006169763	0.00084202574	-0.0005945063	-0.00028625687	-0.00020102669	-0.00032706204	-0.0001313937	0.0011328184	0.0007303867	-0.00025256432	-1.35510345e-05	-0.00026755253	5.1711948e-05	5.615653e-05	-0.00041863843	-0.00031116066	0.000109433604	-0.00077894074	-0.00054594566	-0.00016349161	-6.811267e-05	-0.00028400388	-0.0008005886	-1.839573e-05	-0.0006876212	-2.2096501e-06	-0.00020906085	-0.0002348384	0.00016312022	0.0002964674	-0.00037069301	0.00081249775	0.00095870404	-0.00024225861	0.00041640448	-0.000721199	6.6132634e-06	-0.00047290244	-0.00067757803	-0.0002510676	-0.00046957377	0.0003312274	0.00043112074	-0.00015440144	-0.0005488852	0.00091130903	0.0003155245	-0.0003214634	-0.00047919352	-9.101335e-05	-0.0011484551	-0.0002767114	-0.00055722764	0.0009942909	-5.5590033e-05	-4.3931315e-05	-0.00028619886	-0.00051666744	-4.970876e-05	4.8069473e-05	0.00013173683	-0.00021505155	-0.00027593004	0.000755511	0.0006429854	-8.864957e-05	-0.0006268892	2.7069647e-05	0.0002671148	9.0509464e-05	2.9699033e-05	0.00074216985	-0.00017555842	-0.00051937	-0.00027362135	-0.0008101174	-3.3571174e-05	-0.00034379665	0.0005218977	-0.00021603997	-0.0001667841	0.0002526234	-0.00042777628	0.00034750075	6.308932e-06	0.00029282746	0.00092591916	-8.643458e-05	0.00022288755	5.957263e-06	-0.00013632789	-1.7856277e-05	-0.0010255693	0.00040809176	-0.0010757924	-0.00015853521	-0.00093654287	9.463067e-05	-0.00042222816	0.0005323571	6.176934e-05	0.00018500752	0.00029195537	-0.00037268735	0.00048422953	-0.00023538279	-0.00052069087	-0.0005306931	0.0003394548	-0.00019874077	-0.00058349455	-0.0011031192	-0.00019605129	-0.0006667113	1.34071015e-05	-0.0004919964	0.0006400723
Black–Scholes_12																																																																																																																																																																																																																																																																																																												
Black–Scholes_13	0.00017643033	-0.00065453135	0.00016841792	0.00019981991	-0.0006272624	0.00059188285	-5.64457e-05	0.00011668777	-0.00073472114	0.0004736937	2.2199627e-06	5.1503474e-05	-0.00037339	-0.00040154753	0.000327041	0.00016893125	0.00013920499	-0.00023693954	0.00029701064	0.00023893529	-0.0011597945	0.0007923593	0.0010613997	-0.000104230225	-1.3767101e-05	-0.00039683003	0.0003079032	1.659675e-06	7.482161e-05	6.219374e-05	0.0004912971	-0.000810811	-0.00071452145	0.00011934468	0.00067817495	0.0005790919	-0.00031000204	-0.0006664358	0.0008019765	0.00073513266	0.00025547468	0.00015233962	0.00027321457	-0.00077402877	-0.00025507036	-0.00068561034	-0.00035294192	-0.00025060342	0.00019576703	0.00039288754	0.00026485548	0.00030697355	-0.00094416965	-0.00038554636	0.0014169678	0.0005543646	-0.00049011136	0.00053670595	-0.0008184978	0.00066473504	0.0012128437	0.0005908704	-0.0005316062	-0.00055304007	0.0004282281	4.8601846e-06	-0.00035469214	-0.0006606756	0.0003350716	9.3627175e-05	0.00012994651	-0.00029791088	-0.00029551628	-0.0008024993	-0.0006141937	-0.00022128505	8.677408e-05	5.4959633e-05	3.3740933e-05	-0.00048054557	4.9526065e-05	0.00066126237	2.7439867e-06	0.00106271	-0.00052711	-0.00037334254	-0.0009899581	-0.00013216583	-0.0006095778	0.00013299352	-0.00011931592	3.307179e-05	0.00016088576	-0.0001282202	-0.00017226127	-0.00023947279	-0.0011512255	0.0004341482	0.0006817875	-9.8589226e-05	-0.00068180426	-0.00055029476	0.00018235443	-0.0011581649	0.00065498514	-7.489822e-05	0.00070280844	6.8672445e-05	5.001144e-05	-0.00012004315	0.00084756076	-0.00026768685	0.00010459218	-3.5185334e-05	-0.00016486632	0.00039122472	0.00047011874	0.00021684055	0.00035571842	0.0001059811	-0.00013011838	-0.0004326206	-0.00011282426	-0.00074225414	0.00031570558	0.00039096002	-0.00050827576	0.0013703378	-0.00039608488	0.0006597761	0.00032161723	-0.0004076888	-0.0002464323	-0.0008426932	-0.00038830776	-0.000118090305	0.00019460637	0.00088522583	0.00040922395	-0.00047269752	0.0008733699	-0.0006979277	-0.0006321866	-0.00077497005	0.00075068214	0.00044466436	0.0002702897	-0.0013512196	-0.00019841587	0.0006123775	0.0003677016	-0.00048410206	8.3442115e-05	-0.00066187046	-0.0002159112	-0.00057090906	0.00021099397	-0.00018314192	0.000115471754	0.0005655268	0.00043530596	0.0004578708	2.331085e-05	0.0007416929	-0.00024781367	-0.00024413336	9.849022e-05	-0.00025013296	-0.00065080676	0.00036472376	0.00044108563	-3.0311285e-05	-0.0004335841	0.000129346	-0.00019601076	-0.001088797	-6.5728345e-05	0.0007053418	-0.00035027604	-0.0006361628	-1.6933069e-05	-7.200016e-06	-0.00049410545	-2.247192e-05	0.0004171	-0.00063054013	0.0006307749	0.00019267896	0.00012675383	-6.929686e-05	0.0006528537	-8.665272e-05	0.00069476786	-0.0003515879	-0.0004552833	-0.00038205073	0.0007783331	-0.00063785445	-3.757188e-05	3.453503e-05	0.00074709085	-0.00030634293	0.00081636064	0.0001747349	0.00080947625	-0.0003447133	-0.0006489463	8.297531e-06	0.000802865	0.00030977794	-0.000372701	0.00085842836	0.0006449698	-0.00014384593	-4.5941706e-05	-0.0009023687	0.0011956507	-9.7513526e-05	0.00032159683	-0.0008967505	-0.00072488276	0.00060063665	1.2473276e-05	0.0006713641	0.0002932109	0.00023805181	-0.00053163274	-0.00026249525	0.0005673196	-0.00021319526	-0.00024326846	0.00021126447	-0.00043457627	-0.00020457133	-0.0007334568	0.00036966396	0.00071706163	0.000749093	-0.00017514708	-0.0005774637	-0.00043188725	0.0001196195	0.00040327967	-0.00067208265	-0.0013040699	-0.0010017069	-3.2528496e-05	0.0004419901	-0.00044481442	-0.00045840428	0.0006967394	0.0009970433	-0.0005182621	-6.773526e-05	-0.0002511223	-0.00031229143	-0.00039679973	0.000681253	-0.00071647094	0.0003902033	4.9543352e-05	0.00033864053	-0.00078628847	-0.00036990116	0.0008331312	-0.0003418612	0.00066428026	-0.00056253374	-0.00015114516	0.00014535738	0.00020690968	-0.0006606509	-0.0005943394	0.00012731641	-0.00030665824	-0.0004956322	0.0002430472	0.00045041888	-0.00090882095	-0.00088083814	-0.0012055488	-0.00082706666	0.00020630604	0.0010749806	-0.0004103715	-0.0003923908	-0.00012636818	3.750269e-05	-0.00029867253	0.0008084055	0.0005569824	0.0008239408	7.301309e-05	0.00015072133	-0.00030546292	1.2353848e-05	-0.00014714562	0.00033632794	-0.0006527261	0.0002985747
Black–Scholes_14	-0.000113635135	-0.00019837574	-0.00031748877	-0.00035545533	0.00079686026	-4.2671636e-05	-0.00030436888	0.00027469784	0.00013247225	0.0003863213	0.000110612425	0.00010801781	0.0005647945	0.00037227274	0.00033161693	0.0005027169	0.00055999344	-0.0005402802	8.4861786e-05	-0.00052227674	0.00036057807	0.00043374815	0.0003714995	-0.00013428902	-0.0003700039	-9.5195755e-05	-0.00012740488	-0.00010171486	-1.277378e-05	-0.0002995997	-0.00028588314	0.000450828	-0.00017682432	0.00038436562	0.00022001394	-3.060151e-05	0.00047140085	-0.00023461423	0.00014563468	-0.00040987052	-3.6269914e-05	-0.00024936115	-0.00021698538	-2.9848838e-06	0.00039187688	-0.00036078983	-0.00028018007	-0.00014977055	9.079049e-05	-0.00011931492	1.9042647e-05	-0.0006823308	-0.0004226526	-0.0003412285	-0.0005957043	-0.00021106156	-0.00075182406	0.00046159577	-0.00030848372	-8.175228e-05	0.00048910093	0.0003040797	0.0004539908	-0.00019289166	0.00028861695	0.00059681037	0.0001682546	0.00069338706	0.00044075557	-0.000647239	0.00012846712	-0.000711295	0.0003651157	-7.516691e-05	9.893968e-05	0.00039233163	0.00056588795	0.00029997126	-2.2862121e-05	6.28048e-05	-0.00015074771	0.00041051314	0.0007656977	0.0003981825	0.00035349425	-6.554521e-05	0.00035653956	-0.00012015771	7.7298275e-05	-4.4901288e-05	-0.0005743043	0.0005789968	0.00010478546	-2.9341352e-05	-5.652797e-05	0.0004859663	-2.928801e-05	0.000118115604	5.2658273e-05	0.00060721935	9.6823365e-05	1.7327082e-05	0.0002775618	-0.00028731237	0.00036844437	-0.00019202	0.00025053063	-0.00069062103	-0.00022659403	-6.846565e-05	0.00017032845	-0.0002521131	0.00042575953	2.0154397e-05	0.00019378214	0.00050856353	0.00043422458	0.00034516794	0.00019352805	-0.00016320746	0.00041828305	0.00071155117	-1.3261516e-05	0.00034275974	-0.00043280545	0.00010538078	-0.00037491645	0.00045760124	-0.00036152638	-0.00018230913	-5.314833e-05	-0.00028998972	0.00027589957	-0.0002851188	-0.00017272067	0.00044110807	0.00043101746	0.00054543297	0.00020911674	4.67994e-05	9.2161165e-05	-2.3714254e-05	-0.00013557945	0.00012118926	-0.00031587874	6.139798e-05	-0.0002354473	-9.499459e-05	-0.00059321	-0.0003661813	-0.000598374	-2.3852933e-06	-6.5803666e-05	9.5961404e-05	-0.00031730696	0.00010896673	-5.7609326e-05	-0.00047330913	0.00020058842	0.00017654074	0.00039267397	0.00017931373	-0.00034612406	-2.2975773e-05	-0.000124241	0.00013049763	-0.00018437335	6.0031707e-05	0.00027958147	0.0002211729	-0.00027192323	-0.0001431065	-0.000595609	-0.00017712255	-0.00037314516	-0.00023298281	0.0002733312	-0.00015787511	-0.00053265673	-6.0153423e-05	-0.0007625235	7.3157746e-05	-0.00048607745	-0.00054324634	0.00028236723	-0.00079791644	0.00020690021	-0.000113977956	-0.0004740195	-0.0003570457	0.00047427425	0.00016537584	0.00023669485	3.462719e-05	-0.00039302374	0.0002638103	0.00039362296	-0.0004540184	-0.00029557824	-0.00065126235	-0.0004967336	-0.00041960317	-1.3245351e-05	-2.1181097e-06	0.00012840026	-0.0001852247	-0.0003097765	-0.0004347832	-0.00019177563	-3.5801873e-05	0.0001765903	5.343854e-05	1.2354462e-05	-0.00011826118	0.00012771609	0.0007121472	0.00017166273	0.00032373852	-0.00048184325	-0.00043963123	-0.00016888874	-0.000115527386	-0.00051819644	-0.00019425414	-9.9382625e-05	3.7404046e-05	-0.00024246718	-9.5614676e-05	0.00034262156	0.00037204404	-0.0002033873	-0.00049333443	0.00014457693	-0.0009319704	-0.00027952224	-0.00049542775	0.0003767676	0.0006857446	-0.00014327494	7.235441e-05	-0.00022464982	-0.00018012944	0.00027647018	0.00028925898	-0.0005246633	0.00038810394	0.0006025564	0.00032491927	-0.00038813078	-0.0005317605	0.00029923246	-7.994637e-05	0.0003667748	-0.0005282376	0.00047838278	-0.00022093073	-0.00017605013	-5.620951e-05	-0.00047611972	0.00018383014	0.00019673057	0.0006522379	-1.0877379e-05	0.00021955287	0.0010439862	-0.00028248504	0.0005551582	-0.0005518837	0.0005729776	0.0007177072	4.070369e-05	0.00039233765	0.000503656	-0.0008622971	8.26109e-05	-0.00052889856	0.00020684373	-0.00049730367	6.3712905e-05	-0.000925694	-0.00047936238	-0.0006821273	5.6976616e-05	0.000107357024	0.00026743903	0.000718797	-0.00022774395	-0.00022650075	-0.00040037412	-0.0004553891	0.00031368973	0.0003534593	-0.00034986626	-0.0007314293	-0.0002959406	-0.00013717386	-0.00038839775	-1.0367002e-05	-0.00044359005	0.00058102026
Black–Scholes_15	0.00044623212	-0.00066005846	-0.00016129787	-8.2718994e-05	-0.00010847248	0.0007925896	-0.0004579149	0.00049980497	-0.00080952916	6.256392e-06	0.0002842873	-0.00012512149	-0.00033065	-0.0007004517	-9.019216e-05	0.00020688903	0.00031838752	-0.0005134019	-0.000106698164	-0.00016848855	-0.0009103108	0.00029762177	0.00047179777	-0.00037322572	0.00039517233	8.429223e-05	-0.00015648379	-0.00029964146	-0.00020688231	0.00042489741	0.00057915	-0.00038170244	-0.0004552857	0.00016675069	0.0008416176	0.00021598944	-0.00014619326	-0.00047739237	0.0009910056	0.00048177378	0.00045817677	0.00029418655	-1.2603705e-06	-0.00040560833	-0.00010226559	-0.00032395503	-0.00046469667	-0.00041007836	0.00016655056	8.915266e-05	0.00027083428	-4.473798e-05	-0.0004356596	-0.00032873853	0.00088267756	0.00016394105	-0.00064873276	0.00078832713	-0.00045707638	0.0007208604	0.0013159858	0.00012503065	1.6358768e-05	-0.0008015149	0.00018818461	-4.273832e-05	-0.00059595547	-8.6015745e-05	9.3981114e-05	0.00020391642	-0.00024298384	-0.0002727055	-0.00011069323	-0.00040331826	-0.00028989135	-0.00019198378	-0.00033346275	-9.446213e-05	-0.000100884696	-0.00036338167	0.00018857255	0.0007483758	0.00024801528	0.0007820261	-0.00036264042	-0.0003773899	-0.00081807806	-0.0004612236	-0.00041767897	0.0004752354	-0.00013631329	0.00020095671	-0.00015626247	0.00017939758	-0.00021325055	-0.0005321371	-0.00065937196	0.00031265622	0.00023461698	-0.00016842125	-0.0006920004	-0.00020061982	0.00035942954	-0.0007123137	0.00045133912	0.0003494674	0.0007122202	0.00023272863	0.00026969542	-0.0004819675	0.00077905844	-0.00042066985	0.00014801975	-0.0004355809	-0.00046111163	0.00010886896	-4.9258124e-05	6.180355e-05	0.00018227602	0.000444219	0.00014609117	-0.00047828577	-0.00045058894	-0.0009144745	-0.0001175418	0.0001528488	-0.0006985685	0.0012545742	8.186536e-05	0.00030945608	0.00048012563	-3.880276e-05	-0.00025931414	-0.00096330483	3.2777316e-05	-0.00012408578	0.0005567586	0.0008443069	0.00026831953	-0.00059237017	0.0005464803	-0.00087714515	-0.0007436137	-0.00027591002	0.00039863918	0.00012807304	-1.4475489e-05	-0.0012776497	-0.00053642155	0.00049086293	0.00018622894	-0.00021699793	-0.0002294608	-0.00034729528	-0.000119164935	-1.808272e-05	0.00030892217	0.00013838602	-0.0003005828	0.00013693733	0.00050658116	0.00034367846	-0.00035920608	0.00027656785	-0.00029299845	-0.00013600088	0.0001490096	-0.00032084598	-0.00015472245	0.00015197652	0.0001227184	-0.00012601512	-0.00045606928	-0.00016929567	-0.00011914395	-0.00093536	0.0001394701	0.00031927894	0.00013092249	-0.00055439654	2.5851248e-05	0.00016000855	-0.00019245563	-0.00036680378	0.00025474667	-0.0005713323	0.0007677655	-7.069993e-05	0.0005028492	0.00030781602	0.0002548006	-0.0001831239	0.00021421733	1.1664408e-05	-8.24663e-05	-0.00041114807	0.0009422831	-0.00010573238	-0.0003995488	6.267306e-06	0.00089417177	6.856027e-05	0.00028641237	0.00033541827	0.0002721534	-0.00060273614	-0.00018204864	9.6128475e-05	0.00077832787	0.00019507091	-0.00051391224	0.00067161245	0.00048415488	7.269785e-05	-0.0004140781	-0.00056404696	0.0005685433	0.0003308723	0.0004919091	-0.00093977875	-0.0007046676	0.00017216023	-5.3458167e-05	0.0008147507	-4.1067527e-05	0.0004624618	-0.0003242958	0.00010624154	0.00081321015	-0.00033945896	-0.0003523539	1.612454e-05	-0.00014172244	0.00015946463	-0.000343721	0.00036168122	0.00013136395	0.00025638382	-7.210602e-05	-0.0007524047	-0.00030957803	8.659561e-05	0.00060373085	-0.00026769307	-0.001369637	-0.0010968974	-1.4287158e-05	0.000646269	-0.00013312587	-0.00015872542	0.00027664122	0.00085142686	-0.0001931207	3.428725e-05	-0.00058391434	-0.0004519267	-0.00043831044	0.00020152678	-0.00082501257	8.826764e-05	4.9030423e-05	0.00014019455	-0.00017753693	-0.0005252773	0.0003653317	-9.503338e-05	0.000108026026	-0.00052151224	-5.090372e-05	0.0005094499	-0.00010115813	-0.00045105722	-0.00010867457	-0.00012355881	-1.072709e-06	-0.00066172774	9.975089e-05	0.00050910277	-0.0008780014	-0.00064453244	-0.00084132096	-0.00029676693	-0.00025034076	0.00042659172	-3.718832e-05	-0.00032407453	4.193411e-05	2.2701352e-05	-0.0005098673	0.0008220854	0.0007641628	0.00068121636	-0.00029415256	3.0793046e-05	-0.00015919107	2.7561473e-06	-0.0004118215	0.00014464371	-0.0008485888	0.00038770185
Black–Scholes_16	-1.1874476e-05	-8.296621e-05	-0.00030677428	-0.00048368197	0.00090989127	0.00010772935	-0.00036405463	0.00024233355	6.4144646e-05	0.000354524	0.00012835242	-8.042399e-06	0.0006166785	0.00040751576	0.0004318984	0.00044867874	0.00065022014	-0.00066200533	0.00018349163	-0.00063898426	0.00031940287	0.00042454893	0.0003966837	-0.000116149284	-0.0003279763	8.637127e-05	-0.00022231345	-5.4360982e-05	-0.00011492529	-0.00030051635	-0.00025154336	0.0005303148	-9.875481e-05	0.0005065787	0.0002238353	-4.353743e-05	0.00046889862	-0.00024592524	0.0001924481	-0.00043868076	-0.00012007213	-0.00030208263	-0.00018579075	-6.531793e-05	0.00033384783	-0.0003863223	-0.0003081913	-0.0003304933	7.1574075e-05	-0.00023364641	-1.3251826e-05	-0.0007512294	-0.00040131612	-0.00031785038	-0.0006751489	-0.00012602989	-0.0007858941	0.00052697305	-0.00035055657	-8.863481e-05	0.0005784659	0.00032609992	0.00048907194	-0.00031015754	0.00024843492	0.00057368446	0.00022640871	0.00073844945	0.00044737605	-0.00060983025	0.00012755158	-0.00077494705	0.00039711033	-6.986978e-05	0.00011114322	0.000458512	0.0005483406	0.00035810878	-0.00011580825	-2.7365271e-05	-0.00023136668	0.00039383222	0.0008147042	0.00044117935	0.00028789465	-0.0001674267	0.00035209372	-0.00020471391	-1.8988996e-05	1.0634064e-05	-0.0005652033	0.0005908124	0.00012810492	3.2543958e-05	-0.00019979032	0.0004000638	-4.5635872e-05	9.692768e-05	0.00014883421	0.0006489043	0.00011799202	9.137473e-05	0.0003018565	-0.00032320747	0.00035390735	-0.00021809363	0.00044238928	-0.0007288212	-0.00027227483	-0.00018167666	0.0002178874	-0.00034853915	0.0004406215	3.0073563e-05	0.00015854635	0.0005010768	0.00035920172	0.00025837307	0.00027977847	-0.000108508175	0.00040662067	0.0006552751	-0.00014503644	0.00035664983	-0.00046328554	8.4158215e-05	-0.00041437024	0.00059906335	-0.00032388102	-0.00028721162	-1.0897089e-05	-0.0002941211	0.00021885584	-0.00032409115	-0.00020950551	0.00051384285	0.00043259416	0.0005449729	0.00030371628	-5.4491087e-05	6.29382e-05	-3.105649e-05	-0.0001793956	0.000105763036	-0.00027194052	1.9013974e-05	-0.00032360942	-0.00020960347	-0.0007400424	-0.0003682343	-0.00062704063	3.4481625e-05	-6.0252154e-05	0.00012744957	-0.0003675704	0.0001771686	-5.5578763e-05	-0.00045891566	0.00013115848	0.00020876976	0.00045867803	0.0001835621	-0.0005255535	-8.224341e-05	-0.00019170447	0.00012321318	-0.00011071528	-2.7487753e-05	0.0003003497	0.00019451846	-0.00024200055	-0.00018874707	-0.0006918364	-8.918939e-05	-0.00032150606	-0.00036909353	0.00039068234	-0.00027516898	-0.0005001079	-0.000117114345	-0.0007607177	0.0001712525	-0.0005545691	-0.00052954897	0.00035956086	-0.0007637494	0.00021974636	-0.00011005341	-0.0004411199	-0.0004143447	0.00057514553	5.6812758e-05	0.00023636005	0.00013108108	-0.00040148606	0.0002688048	0.00038013895	-0.00048336864	-0.00030664942	-0.00063664204	-0.000498403	-0.00044812914	-2.5340738e-05	0.00017357711	0.00020846479	-0.00028819693	-0.00028550357	-0.00041885485	-0.0001674896	-6.0155715e-05	6.868705e-05	0.00012560238	7.6256976e-05	-0.00013537177	0.000117271295	0.0006579069	0.00028374657	0.0003902876	-0.0005396897	-0.00058689364	-0.00023038908	-0.00020303433	-0.00057681	-0.00027227963	-0.000100655896	9.49699e-05	-0.00031343906	-5.7840112e-05	0.00045499086	0.00030717233	-0.00017141651	-0.00054422807	0.00012129874	-0.00086607353	-0.0002486521	-0.0005398446	0.00027403075	0.0006285081	-0.00025358784	5.0417424e-05	-0.00026590528	-0.00023641696	0.00033751337	0.00035253266	-0.00065672706	0.0003500127	0.00059350725	0.00030989872	-0.00047366077	-0.00058726687	0.0002969423	-1.931919e-05	0.00042518764	-0.00044728283	0.00042739074	-0.00018999702	-0.00019118417	1.8707964e-05	-0.0006178	0.000100318975	0.00014123785	0.0005788979	3.125918e-05	9.162267e-05	0.0009872668	-0.0002842289	0.0004453612	-0.00062437775	0.0005950853	0.00071193354	7.093653e-05	0.00028315524	0.00044312034	-0.0009620848	0.00014099012	-0.0006199279	0.00021669407	-0.00056481146	2.6252283e-05	-0.0009847005	-0.0005085961	-0.0007381343	4.85055e-05	0.00013481596	0.00025144665	0.0006751729	-0.00016100338	-0.000194879	-0.00047459977	-0.00041307503	0.0003279498	0.00033017437	-0.00032175376	-0.00080031675	-0.00028587008	-0.00019103201	-0.00053945446	2.0634774e-05	-0.0005926316	0.00059420516
Black–Scholes_17	-0.00024717418	4.232202e-05	-0.00035710243	-0.00044349153	0.000895228	0.00014596527	-0.00049153925	0.00023268802	0.00016874283	0.00034954413	-2.4232197e-05	0.00012823963	0.0008013713	0.00049420644	0.00036461948	0.0004566042	0.0005064645	-0.00076106517	0.00015192914	-0.0006048284	0.00033687372	0.00047976553	0.00037234614	-0.0001340373	-0.00030011573	0.0001360471	-0.00016831816	-6.0672377e-05	-5.1701154e-05	-0.00030389716	-0.00037176913	0.0005333603	-6.5969194e-05	0.0006746331	0.00016530482	2.285198e-05	0.0007294429	-0.00022357596	9.327179e-05	-0.000674453	-0.0001857281	-0.00047792878	-0.000115440744	-1.1487294e-05	0.0003497487	-0.00024713986	-0.0002928973	-0.00037641442	1.3155327e-06	-0.000118918884	-0.00011324666	-0.0007562931	-0.00032791146	-0.00041988216	-0.0008455479	-0.00010227926	-0.0008513402	0.0007632844	-0.00045603528	-0.00027416664	0.00028326627	0.00028967016	0.0004622492	-0.0001911652	0.00013698454	0.0005430219	0.0002736121	0.000911145	0.0005203278	-0.00089396717	0.0001678435	-0.0009703334	0.0002662332	7.808136e-05	6.1533305e-05	0.00033217145	0.00064088684	0.00043607896	8.482206e-05	0.00010815685	-9.510081e-05	0.00046565934	0.0010366915	0.00018102197	0.0001526459	-0.00020130254	0.00034890458	-0.00011597186	-7.383359e-05	-0.00011889859	-0.00033833712	0.00073291216	0.00017105236	7.625813e-05	-9.852495e-05	0.000434135	0.00023677162	6.683624e-05	0.0001070009	0.0006659193	7.652665e-06	-1.4579646e-05	0.00011263706	-0.00027039635	0.00023845186	-0.0001002186	0.00019652492	-0.00076265255	-0.00046271973	-0.00028248175	0.00016012839	-0.00038323135	0.0004958466	0.00014465545	0.00016183578	0.0006221786	0.00030398378	0.00041747486	0.00024913237	-0.00020632766	0.00046866777	0.0008699418	-3.0925006e-05	0.000503105	-0.00066965737	0.00019670905	-0.00029781315	0.00043359105	-0.00021633499	-0.00032384702	-0.00010668552	-0.0001420224	0.00032880233	-0.00022743239	-0.0003595233	0.00037592018	0.0003134011	0.0004726374	0.00023122506	-4.0458355e-05	3.1695912e-05	3.3333614e-05	-0.0001609999	0.00015050454	-0.0005021235	-6.3322754e-05	-0.00043824586	-0.00010797667	-0.0006824364	-0.000416612	-0.00043345906	-4.674938e-06	-9.853086e-05	0.00034265447	-0.00025749352	1.9390895e-05	6.629577e-05	-0.0003368647	0.00010919622	0.0001368285	0.00052231346	9.30978e-05	-0.00047207327	-5.6398567e-05	-8.0407066e-05	0.00026519195	-6.1217215e-05	-2.8467919e-05	0.0004935679	0.00033955657	-0.000106048145	-0.00010325455	-0.00072059216	3.1160293e-05	-0.00028001223	-0.00038583108	0.0003429752	-0.00038321802	-0.0003981671	5.7282345e-05	-0.00077529624	0.00010934335	-0.0005687745	-0.00049635925	0.00028121856	-0.00071401166	0.00030209447	9.048787e-05	-0.0004187578	-0.0005521485	0.00066300255	-1.02483455e-05	0.00028544143	8.882936e-05	-0.00030571566	0.0004881001	0.0005035222	-0.0003489382	-0.0004273251	-0.00061373366	-0.0006587457	-0.0005592993	0.00017958281	0.00010528803	1.8471066e-05	-0.00042333215	-0.0003790077	-0.0004698219	-0.00020175727	-7.474057e-05	-9.10675e-05	-0.00017677467	1.9506693e-05	-0.00015830483	4.9620106e-05	0.0009934031	0.00018365105	0.0004955056	-0.00065199746	-0.0005202608	-0.0002424655	-0.0005108233	-0.0005006745	-0.00020490066	-5.90929e-05	3.5661717e-05	-0.00020339085	-0.00018731273	0.00033712093	0.00044988235	-7.850196e-05	-0.00080443325	4.5695244e-05	-0.0010209889	-0.00017773462	-0.000712877	0.0002967092	0.00063956546	-0.000340149	5.0947452e-05	-0.00025023875	-0.00026597962	0.0003802354	0.00029693134	-0.0006210594	0.00040174238	0.000607903	0.00025971583	-0.00031953136	-0.0005157601	0.0003617113	-0.00022618743	0.00063259166	-0.0005400096	0.00053806015	-0.00028580666	-0.00015698161	6.337876e-05	-0.00059253816	2.3349041e-05	-3.0075722e-05	0.00085966574	9.243212e-05	-3.746177e-05	0.0011039282	-0.00022933003	0.00042463405	-0.0005668981	0.00047286449	0.00045049746	-3.7539412e-05	0.00055973977	0.0004308923	-0.0009221366	-1.3477536e-06	-0.0006063302	0.00015091001	-0.00051910523	0.0001872857	-0.0007686609	-0.0002894739	-0.0006228712	0.0002422669	-0.00018603205	0.00028813365	0.0007220074	-0.00024920263	-0.00012852557	-0.00061315193	-0.0007023541	3.8023376e-05	0.00027997274	-0.00019555684	-0.0009795141	-0.00023859061	-0.00021082856	-0.00045454182	-7.324038e-05	-0.00056736096	0.000760499
Black–Scholes_18	2.0105768e-05	-0.00024721696	-0.00021382706	-0.00022267667	0.0006684317	9.945749e-05	-0.00026191445	0.00023785554	0.00014547704	0.0002458099	0.00013636054	-4.0145886e-05	0.00040344044	0.00012339739	0.0003878118	0.00029237152	0.00029847372	-0.00028244697	7.329851e-05	-0.000108008186	0.00011676082	0.00020053293	0.0003352904	-0.0001625878	-0.00018219188	-5.7714562e-05	-2.2114524e-05	-0.00010199208	0.00016335388	-0.00030511594	-6.349071e-05	0.000292936	-6.078332e-05	0.0002461412	0.00019442002	-0.000106382904	0.0002977357	-0.00030799254	6.771584e-07	-0.00031056392	-6.0393468e-06	-1.6749009e-05	-0.0001981295	0.000106830295	0.0002667067	-0.00028460496	-0.00044533238	-0.00016237088	-0.00010095629	6.333343e-05	8.726318e-07	-0.00055256364	-0.00045327563	-0.0004851076	-0.00043760537	-0.0003072108	-0.00055921666	0.00039776135	-0.00031169952	-0.00022256824	0.00027764923	0.00024766315	0.00028336243	-0.00020690562	6.461834e-05	0.0002848922	0.00014232646	0.00063656305	0.00047524483	-0.00050611736	-0.00014407896	-0.0004013372	0.00032274512	-0.000100416466	-0.00014521975	0.0003652992	0.0005763265	0.00019959193	3.102586e-05	5.6696932e-05	-7.91975e-05	0.0003086038	0.000655235	0.00033940419	0.00016561648	-0.00011530111	0.00012282866	1.9550274e-05	-4.3316988e-05	-0.00017173194	-0.00060189463	0.0006311873	0.00014958881	-9.5533265e-05	-3.9904753e-06	0.00037742849	-4.3541888e-05	-3.1905365e-05	0.00019090023	0.00062034477	9.620253e-05	0.00013085078	0.00016762498	-0.00026617394	0.00036541492	-8.744437e-05	0.00014622769	-0.0005117751	-0.00014022524	-0.00011306727	0.00012516568	-0.00029363914	0.00029176276	0.0001402879	1.2153838e-07	0.00021905368	0.00044524664	0.0001905505	0.000253546	-1.0002762e-05	0.00024907125	0.00056346896	7.100761e-05	0.00014395424	-0.00050735805	-3.946562e-05	-0.00049510796	0.00033235867	-0.00024809423	-0.00013811815	-9.692537e-05	-8.5158776e-05	-1.3925835e-05	-0.00017189566	-0.00015712928	0.0004098691	0.00020570664	0.00048028643	0.00018552033	-0.0001245021	0.00035523862	-1.4754473e-05	-0.00028935517	2.8827671e-05	-0.0004009392	-7.165162e-05	-0.00020445	-0.00014566985	-0.0004524607	-0.0004256412	-0.00034539704	-8.520182e-05	-4.4230423e-05	0.00017507878	-0.0003699313	-6.690484e-06	0.00018278678	-0.00042525062	0.0001319709	-0.00013359607	0.00035224375	0.0002027052	-0.0003259652	1.4643247e-05	-0.00015456662	0.000186215	-0.00023251769	6.2530424e-05	0.00014671971	7.0376394e-05	-0.00014795622	0.00019000552	-0.0004072996	-0.0002504207	-0.00023329104	-0.00042570103	0.0002928436	-0.0001116792	-0.00032672222	6.644752e-05	-0.0005880674	0.00025432705	-0.00056776666	-0.000633734	0.00021160043	-0.0003965674	0.000107608685	0.00021296617	-0.0003101459	-0.00018589916	0.00036676333	4.462397e-05	0.0002069673	-0.00015663201	-0.00020266301	0.0001150525	0.00028880438	-0.00018859415	-0.0003195788	-0.00048838975	-0.00013103298	-0.00040321687	-1.126702e-05	-9.9956924e-05	-3.7142334e-05	-0.00029192094	-0.00022753578	-0.00031810979	-0.00030472	-0.00012946912	5.1360872e-05	-2.6020236e-06	0.00017579943	-0.0001947118	0.00012291777	0.00046647782	0.00017623922	0.00027890436	-0.00017912801	-0.00041522257	-0.00017554528	-0.00019255861	-0.00042718573	-7.370845e-05	-0.00011671892	1.7248374e-05	-4.478328e-05	-5.8532518e-05	0.00036372908	0.0002923685	-0.00037083065	-0.0004948836	-1.1824873e-05	-0.0005730558	-0.00012071805	-0.00040895824	0.00025969706	0.00058124313	3.4190532e-06	0.00016504792	-6.7672205e-05	-0.00024066848	0.00023073216	0.00018799677	-0.00030400208	2.3161561e-05	0.0005951724	0.00021931753	-0.00028614324	-0.00050214864	0.00021704788	-7.609336e-05	0.0003511049	-0.00026527132	0.00024205605	-0.00010897193	-0.0002779947	0.00018267219	-0.00033595477	0.00015481314	5.8198248e-06	0.00055485626	5.730791e-05	-0.00010035075	0.0007161813	-0.0003418971	0.0003578524	-0.00028798092	0.00030611016	0.00033963475	7.303055e-05	0.00030396722	0.00043059487	-0.00033593888	0.00015365341	-0.00031059142	3.1125e-05	-0.00042751426	0.0001396605	-0.0005921047	-0.00024988828	-0.0003561913	0.00011787416	0.00015437917	0.00023138332	0.00063924666	-0.00018611636	9.759873e-05	-0.0002810111	-0.00020863563	0.0002405642	0.00031961806	-0.0002203128	-0.0005767906	-5.991143e-05	-0.00027455407	-0.00046865767	9.484402e-05	-0.00017970293	0.000541591
Black–Scholes_19	2.8405325e-06	-0.00040122197	-0.00014221478	-0.000107028005	0.0004680922	0.00013127309	-0.00019390055	0.00021950925	-5.1259274e-05	0.00019073757	0.00017646435	-0.000110928675	0.00021710708	-0.00011747283	0.0003313162	0.00028253236	7.503272e-05	-5.7894224e-05	1.362546e-05	0.00012516859	-1.5998074e-05	0.00015639156	0.00031256786	-0.0001520342	-0.00013653401	-0.0001310986	0.00026032873	-0.00021174512	0.00018458143	-0.00027646183	0.00015337305	0.00024021731	-4.0989864e-05	-7.613251e-05	0.00019523564	-0.0002281661	0.00030035872	-0.00029445096	-0.0001689328	-0.00014841196	9.5160416e-05	0.000155859	-0.00012633602	0.00022017509	0.00023896442	-0.00016727737	-0.00058488006	-4.2217824e-05	-6.572842e-05	0.00016340529	-4.006975e-05	-0.00044407943	-0.0004110757	-0.0006178677	-0.00014656571	-0.00026121602	-0.0005405597	0.0003924337	-0.0002139301	-0.00013439883	0.00023466472	0.00023676977	0.00013286671	-0.00018714042	-7.5696203e-06	2.366177e-06	7.469106e-05	0.00064733403	0.0005433663	-0.00041871506	-0.00018252971	-0.00042609315	0.00023659106	-6.5347784e-05	-0.00011526119	0.00020659664	0.0005211948	3.8224294e-05	1.1104088e-05	0.00011210841	0.00016829306	0.0003310526	0.00059698935	8.652269e-05	0.00013828407	-6.517434e-05	1.9158626e-05	0.00020182118	4.2550728e-05	-0.00020524043	-0.0006455486	0.0006256198	0.00019860004	-4.134625e-05	0.00027390898	0.00023994844	-0.00023877104	1.8742252e-05	0.00014882188	0.00047063726	0.00010032859	-3.2707878e-05	8.9854984e-05	-0.00023675659	0.00033176856	2.8154378e-05	-5.5101586e-06	-0.0003344822	-9.241766e-05	-0.00014517657	0.00016832285	-0.00019934309	0.00012382159	0.0002884707	-0.00021027504	8.680478e-05	0.00042765864	0.00031252374	0.00024801542	7.2262956e-05	0.00021570652	0.0006247906	7.218655e-05	4.584928e-05	-0.00046360109	-5.3750417e-05	-0.00057589036	0.00030555925	-0.00017208175	2.8925437e-05	-0.00016888844	4.712553e-05	-9.697619e-05	-0.000198727	-8.117609e-06	0.0004246627	9.154342e-05	0.00038404253	0.00015596561	-0.00035608312	0.00033552694	1.673827e-05	-0.00035885797	-0.00014171538	-0.00042480548	-7.709952e-05	-0.00013802448	-6.1738305e-05	-0.00038815258	-0.00023022424	-0.00020488839	-0.00022169757	-0.00011564307	0.00011231986	-0.00034043283	-2.6411912e-05	0.00026444168	-0.00027532	7.7483106e-05	-0.00017339019	0.00014622767	0.00033547185	-0.000117308155	5.5235058e-05	-0.000112269096	0.00029453592	-0.00022843861	0.000118695774	4.2392097e-05	-5.6289085e-05	-9.868742e-05	0.00017525964	-0.00018646987	-0.00029688745	-9.656807e-05	-0.00038813704	0.0002760222	6.737898e-05	-0.00027241406	0.000118215925	-0.0005389071	0.000236087	-0.00046036794	-0.0005868811	6.2626284e-05	-0.0002593851	0.0002705352	0.00029209474	-0.00024988886	-8.9274814e-05	0.00019727016	4.982691e-05	0.00020063466	-0.0004885783	-7.368596e-05	-6.761403e-05	0.00029466947	-4.7567764e-06	-0.00026545217	-0.0004395714	7.263532e-05	-0.00016818848	-8.4904335e-05	-0.000253183	-0.00020828772	-0.00018883152	-0.0003128696	-0.00024814229	-0.00027244948	-0.000115816176	3.4738787e-05	4.6742625e-05	0.0002224597	-0.000298229	0.000100371224	0.00028126425	6.219735e-05	0.00024436158	3.2151136e-05	-0.0004794342	-0.00029294996	-0.00011735536	-0.00030799172	3.35699e-05	-0.00019112819	-1.2119817e-05	-5.2480283e-07	1.5957023e-05	0.00021996762	0.00039292223	-0.0004498073	-0.0003445123	2.4244448e-05	-0.0004561703	-0.0001573083	-0.00032000142	0.00029726766	0.00048691232	4.663324e-05	0.00013594991	-0.00010183687	-0.00018417963	0.00025921594	3.6723108e-05	-0.000121479155	-0.00012381883	0.0005144197	9.285912e-05	-0.0003298037	-0.0003036376	0.00023918852	-3.5309768e-05	0.00036626207	-0.00020731798	3.9425363e-06	-8.436539e-05	-0.00048475192	0.00018486429	-0.00025692393	0.00034481063	-8.3487504e-07	0.00053488114	-8.0590034e-05	-0.00012535015	0.0006722898	-0.00028159106	0.0003347952	-0.0001221719	0.0002420037	0.00037261573	0.00012769611	0.00036465327	0.0004440961	-0.00012777503	3.2461603e-06	-0.00016380107	-7.296431e-05	-0.00029973066	0.00016546571	-0.0005153343	-0.00028753123	-0.00035916216	4.547638e-05	1.897974e-05	0.00011598384	0.0007168787	-9.3084425e-05	0.00016909288	-7.88044e-05	2.2329117e-05	0.00022328556	0.00041035167	-0.0002473575	-0.00041147784	-5.622405e-05	-0.00022636441	-0.00036774352	1.4334187e-06	3.9833503e-05	0.0005486567
Black–Scholes_20	-6.646387e-05	-0.0011502741	-0.0002302665	0.0002116164	-0.00076051196	-0.00023701596	0.00018937094	0.00078723853	-3.4727622e-05	0.0005647897	-0.0003858609	-0.00069372955	-0.00033105942	-0.00064563955	0.0007281075	0.00023313034	0.00018122552	-0.0006634248	-0.00017958782	0.0003736701	-0.0007368272	0.00041095028	0.0011765219	-0.00023557474	-0.00025273833	-0.00040352702	0.0005134921	-0.00034868772	0.00042396606	0.00027932166	0.00025461166	-0.0009725988	-0.0004744729	-0.00042558866	0.00027595033	0.00013320283	-0.0006169971	-0.0011987329	0.0010154359	0.0010062134	-0.00028789943	0.0003101991	0.00017905446	-0.0002451739	0.0002025342	-0.00070138363	-0.00092664215	-0.0005221366	0.0001258161	0.00095936755	0.00040165425	0.00011105586	-0.0010702234	-0.00077591237	0.0012149918	-0.00037996154	0.00025406716	0.00042995703	-0.0007682053	-0.00013963696	0.00033432315	0.00071301503	-0.00025780709	-0.00044764663	0.00022761365	-5.0315924e-05	0.0001255188	0.00014961773	-0.00012827442	0.0005916814	-0.00018873163	0.0003997167	-1.7065342e-05	-0.0011319794	-0.0004998531	-0.000586473	0.00015180197	0.00036549172	0.0008795654	-0.00016752894	-0.0002816878	0.00063472445	-0.00038576956	0.00033496798	-0.00067717134	-0.0008494937	-0.0009909519	-0.00036193547	-0.00085709384	-0.0004557015	0.00013853036	0.00028667724	0.0006631396	-0.00034732345	0.0004346276	0.00041650617	-0.00090831844	0.0006444872	0.0010049917	-0.00055914256	-0.0008131599	-0.0005620391	0.00028449387	-0.0004047261	0.00035632856	-0.00015829202	0.00018713895	0.00019787916	0.00014003635	0.00034447692	0.00067678303	-0.00050981925	0.00033125732	0.00030998618	-0.00016874216	0.00043823838	0.00022427097	0.00049986696	0.0006887761	-9.9948236e-05	-0.0004757283	-0.0009230094	-0.00027749056	-0.00050540175	-0.00035267478	0.00030757	-0.00046770056	0.00080314773	-5.5219123e-05	-0.00027463908	2.5915564e-05	-0.00033605282	-0.0008328808	-0.00076641585	0.00037006105	-0.00054839725	-0.00038328557	0.0010328583	-0.00041261807	-0.00018198944	0.0006981559	-0.0008259746	-0.00093654	-0.00081687997	-7.802355e-05	-0.00021938428	0.00035450203	-0.00033510933	-0.0005216203	0.00062780426	0.000330772	-0.00026037302	-0.0007618217	-0.00069995195	-0.00044143596	-0.00022901705	-0.00011917157	-0.00064384536	-0.0007846304	0.00014566658	0.00019658967	0.0003799498	0.00061052036	0.00018101797	-0.00025885637	-4.5592198e-05	2.4312205e-05	-0.00053596735	9.182779e-05	4.5243156e-05	0.000746011	0.00019220314	0.00037565522	-0.0003796262	0.00024158567	-0.0006493937	8.0289705e-05	8.925936e-05	-0.0002802217	0.00030587937	3.651339e-05	-0.00015868516	-0.0006793902	0.00037100716	0.00040747796	-0.00078135234	0.0007596064	9.37434e-05	-1.4497219e-05	0.0002207361	0.00028114332	-0.0001921236	0.00047733253	-0.0006819788	-9.530402e-05	-2.395412e-05	0.0003989626	7.595902e-05	-0.00082241587	-0.0001629499	0.00041024495	0.00047298125	0.00051984156	0.00029768047	0.00089576637	0.00012948833	-0.00040580705	-0.00015662206	0.00042238805	-8.7317894e-05	-0.0009861289	0.00078916695	0.00093877624	-0.0007197338	0.00032027232	-0.00018544646	0.00058975443	-0.0003455895	0.0002094735	-0.00045462162	-6.815677e-05	0.00089542434	-0.0007241725	0.00038200288	0.0008983717	0.0008956261	0.00022022925	1.0738305e-05	0.00042915865	0.0001758419	-0.0006249158	-9.0996466e-05	-0.0007702685	-0.0004196217	0.00016354966	0.0006425484	0.0007173501	7.327315e-05	-0.0003454408	-0.00068202225	-0.0003884269	0.00032190277	0.00013896757	-0.0006668083	-0.0011339245	-0.00029653587	0.00057233573	0.00037790378	-0.00020458018	-1.3754213e-05	0.0011320676	0.0014624182	-3.056138e-05	7.851573e-06	-0.0007754347	-0.0006569281	-0.00030343697	0.0007638955	-0.00075713807	-0.00015731482	-0.00037925885	-0.00038829807	-0.00057695527	-0.00014502718	0.0012520544	-0.0006496681	0.00062563864	0.00023808902	-0.0009053001	-0.00046592578	-0.00018236744	-0.0003139522	-0.00060085976	0.00028650137	-0.00034047625	-0.000631125	-0.00049860566	-0.00023664856	-0.00024393806	-0.0009668093	-0.000827149	-0.0003658866	0.00011424158	0.00080639013	0.0002714825	8.805393e-05	-0.000117141986	0.00079855975	0.00011363957	0.00050507864	0.00078033394	0.00035732146	0.00031207598	9.903521e-05	0.00015002817	-3.6077156e-05	0.00012871165	-1.1117768e-05	-0.0005561174	0.00018909131
Black–Scholes_21	-0.00086947187	-0.00046913233	0.0005098877	0.00019076295	-0.00019545837	0.0010053325	0.0004895584	-0.00046507598	-0.0007294712	-0.00071443885	6.3938554e-05	0.00045621675	0.00034985878	-0.00012151076	0.0010828059	-2.7408823e-05	-0.0001802212	0.000694137	-0.0005505737	0.0011277534	0.00012113855	-0.00043140116	0.00013489008	-0.0003700452	0.000267549	1.479598e-05	0.0010275998	-0.0013613002	0.0009780796	-0.00012367018	-0.00017365222	-0.0001152507	-0.0007352184	-0.00072180375	0.0003635462	-0.0011724121	-3.3137621e-06	-0.000320392	-0.0007649201	0.00013591393	0.0007730033	0.0012912853	-0.0004080906	0.0013339111	0.0003373889	0.0007708872	-0.00075631915	-4.355097e-06	-0.000669971	-0.00034442832	-0.0011702272	0.00033698196	-0.000344436	-0.00071604224	-0.00019535734	-0.00033811465	0.00042919544	-0.0007085947	-0.0001092764	-0.0005259577	-0.0008144745	0.0007594269	-0.000119733944	0.00032893688	-0.00024673852	-0.0008350062	-0.00039667086	0.0013418242	0.0011985784	-0.0012917563	-0.0011317207	-0.0007167179	-3.1129428e-05	0.0014780238	9.2891045e-05	0.0003503979	-0.00017616368	-0.00027690353	-0.00057748513	-5.446263e-05	0.0011455566	-0.00043081283	0.00031840615	-8.618692e-06	-0.00018190825	0.00014316518	-0.0009838066	0.0014081625	0.00010316266	-0.00015826958	-0.00041869006	0.0011499665	2.3146335e-05	0.0007171653	0.0010226212	0.00023620018	-0.0004648237	-0.0009331547	-0.00036754904	0.00014818153	-0.00026400067	-0.0006895581	0.00040842913	0.0010454362	-0.00029900344	0.00039610703	-0.0007119316	-1.6067905e-05	-0.0009414766	0.00012889187	0.000593599	-0.00040949148	-0.0005872737	0.00111904	-0.0007292824	-0.000121580146	0.0001233679	0.0014612132	-0.00061006536	0.00079136674	2.3343418e-05	0.0012278471	0.001233852	0.00017875698	-0.0012485893	2.1753076e-05	-0.0008439052	-7.162831e-05	3.182661e-05	0.0002385988	-0.000114482886	0.0011024749	-0.0002606967	0.000229216	0.0010428006	0.0013296362	-0.00020651854	-2.1125656e-05	-0.00023788534	-0.0012361687	0.0012912103	0.0005660063	-0.0006274022	-0.0004956164	-0.0015335456	3.817203e-05	0.00012971833	0.00062423403	0.00038657783	8.025772e-05	4.2401836e-05	-0.0011859271	0.00012413482	0.00039414072	1.5873462e-05	-0.0005823933	0.0012749933	-0.0001475616	-0.00010700643	-0.0004270586	-0.0003325236	0.0011676275	-0.00060296734	0.00059666333	-0.0005261213	0.00021941483	0.0005588183	0.0012221114	-0.0002974895	-0.0010104298	-0.0012519998	0.0010247803	0.00064640207	-2.9751274e-05	0.0011718696	-0.0006155726	0.0006596767	0.00043899397	0.00017170724	0.00041931315	-0.0005034611	0.00018327609	-6.7560177e-07	-0.0012138258	-0.0014578006	-0.00032937722	0.0010154971	0.00055709673	0.00031342832	0.00075857685	-0.000435978	-0.0002688964	-0.0006789707	-0.0014952088	0.0005464671	-0.00077210116	0.000492836	0.0001344404	-0.00032697388	-0.00046709017	0.0009236458	0.0008531224	0.00017808491	-0.0011660968	-0.00044126844	0.00014291337	-0.0003906593	0.00022361764	-0.0006505185	0.00024850183	0.00040254954	0.0005047665	0.00045331108	-0.0006473619	-0.00079007715	0.00024385561	-0.0006122635	0.0009686409	0.0010195652	-0.000525462	-0.0009098279	-0.00129588	-9.237928e-05	-0.00074160774	-0.00087191415	-0.00070351857	0.0009266485	0.0011398218	0.00025009047	0.00074797357	-0.00042280767	0.00019742968	6.121298e-05	0.0007669107	4.8662674e-05	-0.00024458586	-0.00015583471	-0.0003280046	0.0010223105	0.00033440153	0.00047905723	-0.00018131617	-0.00085350836	-0.0009100106	0.000758919	-0.00067344273	4.6521425e-05	-0.0005968647	-0.0012595167	0.000476613	0.00013667712	-0.0005097749	0.0012674273	-0.0001422446	-0.0012347465	9.666238e-05	-0.000582195	5.099416e-05	-0.00034576125	0.0013142669	-0.0010221823	0.0011059404	-0.0005403038	0.00021053542	0.000917705	-0.0013860605	0.0005732544	0.000730226	0.00034414115	0.00046057813	-3.4798897e-05	0.0011911725	0.0010382322	0.0008038405	-8.195755e-05	-0.00031769008	0.00014133516	-0.0004920036	0.00047687293	-0.0008243929	0.00036358193	-0.00086084835	-7.535319e-05	-0.00040190463	-4.2253756e-05	0.0014020966	0.0006475751	-8.0197016e-05	0.000191946	0.0009209798	-0.00050655386	-0.00038312378	-0.0010573373	0.0011030469	0.0008433388	0.0003475399	-0.00019593164	-0.0013388018	0.0011501936	0.0003753999
Black–Scholes_22	7.708452e-05	-0.0004512181	-0.00036608073	-8.0242324e-05	0.00091139995	3.0592986e-05	-0.0006144402	0.0001314149	0.00071391516	0.00047501927	0.0002811037	7.5398566e-06	0.0007812122	0.0005389273	0.00014485822	0.0006000834	2.8857059e-05	-0.00030026506	-0.00020344551	0.00011969867	5.1484596e-05	7.1143586e-05	3.379971e-05	-0.0006313411	-0.00032170227	0.00013763022	0.0001150789	-8.705429e-05	0.0002252229	-0.00035803032	-0.0001017713	0.0008870395	-0.00022765982	0.00021567725	-0.00011239503	-0.00025324093	0.0011786527	-0.0002604379	-0.0003359613	-0.0010305187	0.00019107648	0.0001747022	-0.0007921672	0.00032707973	0.00058956596	-0.00046396113	-0.0007297903	-0.00010587489	-0.00011214031	-5.6271383e-06	0.00018100401	-0.00055812765	-0.00032686477	-0.00060691085	-0.00096015213	-0.0003205637	-0.00016307358	0.0005669096	-0.00019829166	-0.0004916347	0.00054249214	0.00033125601	0.00041681048	-0.00027702953	-0.00064448075	-0.0001834739	2.6572754e-05	0.0014227291	0.0006014491	-0.0007490482	-0.000422456	-0.00042147943	1.5921483e-05	0.00017252317	-0.00033365696	0.00026045128	0.00045785788	0.00042148275	0.00026052629	2.5271933e-05	0.00022314701	8.590106e-05	0.0008655689	-6.602136e-05	0.0003954392	-0.0001432838	0.00013642451	0.0006209364	0.00028031995	-0.00044701563	-0.00070963387	0.0009520768	8.294909e-05	5.6416902e-05	0.00019730454	7.913631e-05	5.998256e-06	-9.7034055e-05	0.0001404288	0.0010289159	0.00030152616	-0.0005605834	-0.00029931893	-0.00016595567	0.00012702245	-0.0003329033	-0.0002870591	-0.000647723	-0.00025766133	-0.00012334272	8.993827e-05	-0.00053621543	0.0003850516	0.00054253393	-7.035362e-05	0.00036203483	0.0009824797	0.00052488304	-0.0003443129	0.000115708695	0.00038468957	0.0011059986	0.00052541104	0.00043113434	-0.00060472137	0.00010401453	-0.0006151639	-0.00011143289	-0.00015442216	0.00030603376	-0.00060433254	-0.00018551067	-0.00016827081	2.0984648e-05	-7.430515e-05	0.0007528004	-0.00012722617	0.0003018849	0.00040865567	-0.00039907574	0.00025769006	0.00028076247	-0.00028120982	5.6316756e-05	-0.00083526113	-0.000117899544	-0.00079228624	-4.1142775e-06	-0.00038205498	-0.0008052093	3.302828e-05	-0.0003404897	-9.882997e-05	0.00089534326	3.4510434e-05	8.7533495e-05	0.00032718907	-0.0006778563	-0.00014861791	-0.00058365223	0.0010371908	0.00017446026	-0.0002951662	-0.0006786324	-0.00017353117	0.0002631052	-0.000419731	0.0004273649	0.00015020845	-0.00019301877	-0.0009944752	-2.5573827e-05	-0.0001523769	-0.00021273352	-0.0003324764	-0.00051376433	0.00025590198	0.00036476192	-0.00010628726	0.0005261405	-0.0007713145	0.00044473246	-0.00032446638	-0.0012285553	7.3302246e-05	-0.0004933373	0.00045681486	0.0005224779	-0.00017481027	4.1855237e-05	0.00015974473	-0.00042814476	0.0003325013	-0.00029460003	-0.0006452442	0.0004337617	0.0002183526	0.00018793286	-0.00032879814	-0.0008002497	-0.0003054626	-0.00057909166	-0.00050159264	-0.00052468566	-0.0005265556	-0.00018373696	-0.0007767473	-0.0007518643	-0.00036540919	-0.0002246094	0.00040428317	-0.0007021044	-6.9101596e-05	-0.0004921206	0.00020725337	0.000739967	0.00013039369	0.00023521658	-0.0006374089	-0.0006346109	-9.933002e-05	-0.00022441012	-0.00043737804	7.137806e-05	-0.00087329745	0.00017076539	0.0001728459	5.237267e-05	6.871781e-05	0.000618767	-0.0005564449	-0.00094212027	-8.149655e-06	-0.00047393236	-0.0004965619	-0.0011603893	6.4133e-05	0.0005440789	8.8352084e-05	0.00034523022	-0.0005166514	-0.0006476976	0.0004429979	0.00027276913	0.0003018755	0.00029211427	0.0011665045	0.00021312147	-0.00058479555	-0.0002960817	-0.00041990832	-0.000525096	0.00019706188	-0.00047905804	0.00031391444	-6.9175236e-05	-0.00054619205	1.9501036e-05	-0.00030423873	0.0003497472	4.182692e-05	0.0010367581	0.0005337477	-0.00035475186	0.0008493575	-0.0003890817	0.0006473852	-0.00023366185	0.00047185164	0.00069392147	0.00030570195	7.885873e-05	0.0011392122	-0.00028453956	-2.4688634e-05	-0.00014250513	0.00026291938	-0.000639731	0.00012361672	-0.00078454753	-0.00055460585	-0.00051813334	0.00035958173	-0.00024829185	-0.00022148383	0.0013568231	-0.0001711365	0.00020403702	-9.8151795e-06	-0.00041477336	-0.00012687848	0.00019919247	-0.0007500298	-0.0006121206	-0.00026194772	0.00026561247	-0.0007869557	0.000110764566	0.00017352749	0.0006128154
Black–Scholes_23																																																																																																																																																																																																																																																																																																												
Black–Scholes_24	-0.0013561513	0.0006043222	-0.00084628054	-0.0015875371	0.0010426523	0.0009076273	-0.0014083323	-0.0006200078	-0.001339337	-0.0013939022	0.00033492382	0.0006436748	0.00072662043	0.00048321582	-0.0009596216	-0.0013144034	0.00016663205	-0.001078307	0.00018759862	0.00078873173	0.0009727079	-0.0005155298	-0.0002873243	-0.0007670641	0.00047498086	-0.0006406842	0.00080535084	-0.0007723565	-0.0004443695	-0.0005281569	0.000568996	-0.0012929122	0.0012320437	-0.00022782154	0.00033843605	-0.0008360827	0.001484132	0.0006886999	-0.0013551675	-0.00034355815	-0.0005576045	-0.000120467375	1.25336755e-05	-0.00012398075	0.0010419902	-0.0015574667	-0.00033790348	-0.000678041	-0.0013393583	0.00096059154	-0.00019331787	-0.0016493434	0.0015644956	-0.0016357494	0.0013239656	0.0005488976	0.00064534746	0.0012719871	-0.0013852229	0.0014806985	-6.041934e-05	0.0007171764	-0.00031087844	0.00030184	0.0004195477	2.3824732e-05	0.0015405444	0.0006498602	-0.00023109645	-0.0007869625	0.00036375952	-0.0015845995	-0.0011866085	-0.0005360981	0.0016410771	-0.0001631092	0.000205987	-0.0005854048	0.0011345862	0.000493881	0.0003687748	0.0012276688	0.0015869855	0.00080798345	-0.0002607189	0.0008274124	0.00015750482	0.0016401877	0.00016713445	0.0012171201	0.0013440786	0.0013293523	0.0014251162	-0.00085295044	7.732774e-06	-0.00096745224	-0.0008730086	-0.0011509733	0.0004703382	-0.00037870414	-0.00027398366	0.0011150166	-0.0011855111	0.0013318982	0.0011923251	0.001190987	0.0016132314	0.0009583275	-0.0011728087	-0.0014806206	0.0006493533	-0.0012550285	-0.00065250235	-0.0014820521	0.00080183963	-0.00057062897	-6.9667745e-05	0.0006954587	0.0006610298	0.0010557966	1.4153599e-05	0.0013838266	0.0008137895	-0.0011708282	0.00135766	-0.0010949757	0.0013150057	-0.00023132401	-0.0009151883	0.0006131241	-0.0016108082	0.0009712166	3.8287973e-05	0.0006878399	0.00020115134	-0.0011580947	-0.0007568863	0.00069999055	0.0015659563	-0.0016366662	0.0015624175	-0.00034218418	-0.0007771864	-1.7154338e-05	-0.00018300758	-0.00052007125	-0.0011246478	-0.00062414113	0.00055593794	0.0014871709	0.0012027898	0.0002611302	-0.00033071218	0.001305336	-0.0005821632	-0.00012287224	0.0011990574	0.0010720616	-0.000715812	0.0005843619	0.00045989783	1.8349405e-05	0.0016172384	-0.00086730556	0.0016282713	0.0008952783	-0.0002628781	-0.000991325	-0.00010485774	0.0015132873	-0.00015654517	0.0013472509	0.0007216708	0.00121539	-2.2324912e-05	-0.00092214945	0.00076050573	-0.0004074365	0.0010663605	-0.00078641897	-0.00050103816	0.0009748985	-0.00051760837	0.00066714064	0.00034997828	0.00042504395	0.0013708187	0.0010409643	-0.00039288553	-7.169256e-05	0.00017829917	0.0012112831	0.001088563	-0.001267579	0.00023620813	0.00044126192	0.00091976684	0.0009902137	-0.0004353862	0.0010075618	-0.0012488946	0.0007494722	0.00053883035	-0.00048611188	-0.0012382709	-0.00012357268	-0.0008842745	-0.0013880896	-0.0008031147	0.00048726518	0.00078131416	-0.0012183212	0.0008743597	-0.0008519827	-0.00075952604	0.00050268235	0.00032994355	-0.0002240129	-0.0011696044	0.00033436716	-0.0009962709	-0.00082457537	-0.0013130327	-0.0012761236	0.00088130205	0.00036298216	-0.0010590227	-0.00031427143	-0.00093279727	-0.0006871518	0.00013200722	-0.00015855701	-0.00086791033	-0.00068371854	0.00028482152	-0.00016648542	-0.0008671457	0.0015115978	-0.0007085744	-0.00029449098	0.00047582109	-0.0007397172	0.0014077717	0.00015383039	-0.0010753615	-0.0013805414	-0.0016127313	0.00074126973	-0.00025487653	0.00027608944	0.0015336081	-0.0006768147	0.0011455291	-0.0007428969	0.00017441914	0.001029542	-0.0014780883	0.00040190562	-0.0013945309	0.00093465275	-0.0009049429	0.00148087	-0.00037939858	-0.0015849954	0.00024077958	0.00029899637	-0.0015836636	-0.0015838479	-0.0012973676	0.0010338376	-0.0007336572	-0.00041426264	0.0013945556	0.00040016495	-0.0006516743	-0.00022927742	0.00017994504	0.0002982274	-0.0002284115	0.00047622586	0.00042751955	3.7951202e-05	6.6498986e-05	4.9237227e-05	0.00092108594	-0.0015638298	-0.00025130983	0.00068214233	8.427874e-05	-0.000720124	-0.0004215521	0.00094852573	0.00026958334	-0.0008454992	-0.0012708511	-0.0010160975	-0.0014550192	0.00067265553	0.0010143677	0.0016626891
Black–Scholes_25	0.00040660313	-0.00031918162	0.0015070548	0.0008083713	-0.00073398644	0.0012094557	-1.7169566e-05	0.0007530655	0.001167477	0.00026275523	-0.00080038636	-0.00010655301	0.00068569474	0.00042605205	0.0009954555	0.00016868323	0.0015211958	0.00042569998	8.465722e-05	0.0012474114	-0.0007280765	0.00089938554	-0.000997648	-0.00031668975	-0.00070785865	-0.00051663764	-0.0015316021	0.0015740861	0.0009878986	0.0008132372	-0.0013816324	-0.00086715375	-0.00058685115	-0.0004343489	-0.00041726802	-0.0010874226	-0.00089196203	-0.0010583685	-0.000691605	-0.00015582643	0.0007372773	-0.0007030756	-0.00057767134	-1.641745e-05	-0.0008143989	-0.0015168489	-0.0015568481	-0.0014877727	0.0011943342	0.0007937545	-0.00017707226	0.0003065067	-0.0015013267	-0.0015560427	-0.0014978069	-0.0012452315	-0.0004124926	-0.0007398236	-0.0012116643	-0.00061194546	-0.0011149821	0.0011024954	-0.0012854643	0.00030610632	0.0012246508	0.0012831478	-0.00012954912	-0.0005971587	-0.0008384973	-0.0012340789	0.00048598327	0.0008197636	-0.0007692946	-0.0007414935	0.0007457237	-1.9809939e-05	-0.0008657041	0.000983542	-0.0006556257	0.00052307156	0.00056638813	0.00073980767	1.72192e-05	0.0005616834	0.00062501413	-0.0012815292	-0.00047550458	0.0015146076	-0.0006306917	0.00092690013	-0.00019096145	-0.0002134628	-0.0014841591	-0.00072025915	0.0007136442	-0.00039819002	0.0016107761	-0.00067318365	0.00021092186	0.00089328166	-0.000986952	-0.00045190877	0.0012587842	-0.00073426764	-0.0006635354	-0.0013227466	0.0012021742	-0.0006379932	8.836884e-05	0.0013099887	-0.00023149635	-0.00062276237	0.0011548096	-0.0009907696	0.0014316951	0.00077572314	0.0015730123	-0.00081961206	-0.0003827723	-0.0004921212	-0.0007584861	-0.001361922	0.0013687169	6.253476e-06	0.00034958127	-0.0009436533	0.0012293472	-0.001101686	-0.0009778179	-0.0006155394	0.0008251552	0.00049552193	-0.0013980897	0.0014427049	-0.0010087164	-0.00018126259	0.00060681405	0.0008107088	0.00016098312	-0.00083149783	0.0012639265	-0.00049951836	-0.00064174464	0.00022136231	-0.00081963505	-8.522231e-05	-0.0010330046	-0.0009708173	-0.0003139431	-0.000708571	-0.0013956223	-0.0011371792	-0.0011079204	-0.0011170743	0.0010446815	-0.0010492335	-0.00080716435	0.00017824379	1.0353497e-05	0.0014330125	0.00089461845	-0.0014766414	-0.0013870088	0.0009203768	0.00026824942	-0.00033245477	-0.0010998133	0.0015048041	-0.001464837	0.0014958084	2.877456e-05	0.0005326134	0.00013274408	-0.0013201404	-0.0015731193	0.00037756606	-0.00043769897	-0.00063146744	-0.0015531237	-0.001145495	-0.001268638	0.0014657478	0.001482035	0.0007341239	-0.0003321531	0.0003503836	-0.0013999032	-0.0016448958	-0.00024232731	0.0007152941	0.00146691	-0.00013279759	-0.00068716577	0.0007408302	-0.00035117488	-0.00023877632	0.0014505768	-0.00056169654	-0.0002549603	0.00014808594	0.00058865506	-0.0013140804	0.000712954	-0.0009412069	-0.000365151	-0.0009685345	0.00062510755	-0.001247981	0.0010904472	0.0011117407	3.2190314e-05	-0.00044952272	-0.00023457306	0.0014109599	-0.0016114902	-0.0012719489	-1.1887651e-05	0.00055898033	2.3507962e-05	0.001499699	-0.00030388994	0.0001505357	-0.0013050322	-0.00064189686	0.00075470755	0.0008328124	0.00036198163	0.0003308801	-0.0008223006	0.0005558683	-0.0015287022	0.00046990727	0.0010782634	-0.00025832842	0.0015238192	0.00082219986	0.0006852708	-0.0010865214	0.0001898868	0.0006816956	-0.0002887011	-0.0004848398	-0.00019979599	-0.0013118278	-0.0003890577	-0.0010223486	-0.00021773239	0.00093578437	-0.000995481	-0.00058002747	0.0007498688	0.0012921325	0.0015557144	-0.00051666703	-0.0005120141	-0.0007865267	0.0015495237	2.0983929e-05	-0.00023773737	-0.0012933651	0.00052799465	-0.000108321656	0.0013127532	-0.0006447097	0.00056859484	-0.0013104789	-0.0013658807	-0.0011967289	-0.00017434296	-0.0016124856	-0.0008486097	-0.0013041127	0.00093360455	0.001470483	-1.6398833e-05	-0.0006211366	-0.000347237	0.00038279657	0.0008426328	0.0001679721	0.001463847	0.00093538803	0.00081025774	0.001489269	-0.0011772414	-0.00079320074	0.0006777428	0.00089788355	0.00063672493	-1.8077677e-05	-0.0008716262	0.0008905343	0.0010679112	0.00037126322	0.0010872333	-0.0009375551	-0.0006542024	0.00136082	0.00012919436	0.00083331065
Black–Scholes_26	0.00010757766	-0.00019975874	-0.0002567973	-0.00018433861	0.000684944	6.054467e-05	-0.00027388605	0.0003448239	0.00020407545	0.00037612428	0.00015489405	-5.0683953e-05	0.00031772323	0.00020381712	0.0002747053	0.0003577362	0.00043504377	-0.00033947697	3.7818547e-05	-0.0003018998	0.00020331566	0.000104103245	0.0003168818	-0.000114948685	-0.00030239305	-5.2865744e-05	-0.00029191808	7.926637e-05	2.7874024e-05	-0.00020242335	-0.00010766098	0.00037186113	-3.4299464e-05	0.00035425127	0.00015775624	3.7096277e-05	0.0001703006	-0.00032518225	7.592719e-05	-0.0003928029	-6.164024e-05	-0.00018719092	-0.0002548801	4.495118e-05	0.00026980133	-0.0002942183	-0.00029813364	-9.982486e-05	-0.00014513724	7.9330246e-05	8.423116e-06	-0.0004988802	-0.0003791968	-0.00033037944	-0.0004850371	-0.0003214218	-0.00063522457	0.0004450518	-0.00029106412	-0.00028065743	0.00020686416	9.881374e-05	0.0003683777	-0.00022254506	0.0001400742	0.0004639338	0.00011856932	0.0004403256	0.00036098977	-0.00047569931	-3.8344646e-05	-0.00034217015	0.0004657029	-0.000210134	-0.00014621079	0.00040831952	0.0005830096	0.00022626025	-3.5037225e-05	0.00010187023	-0.00024117838	0.00032227483	0.00055257324	0.000362201	0.00024923903	-7.694165e-05	0.00015353454	-9.204003e-05	2.2843635e-06	-0.00022989108	-0.0004754417	0.0005687495	0.00017349879	-0.00017630684	-0.00012410805	0.00044971	0.00010666317	4.239003e-05	0.00019908558	0.0006347184	0.00016270543	0.00020697177	0.00024231807	-0.0004160156	0.00040408998	-0.00016112193	0.00020223428	-0.0006652287	-7.486294e-05	-0.00021536216	1.5324285e-05	-0.00028846084	0.0003797029	1.5976904e-05	-2.831687e-05	0.00020697966	0.0003387167	8.871491e-06	0.00039238826	-4.3488282e-05	0.00028728173	0.00044729668	-2.3994184e-05	0.00011993803	-0.0003808045	-3.352481e-05	-0.00039347334	0.00037859156	-0.0002222089	-9.180911e-05	-0.00013377475	-0.00018904523	-3.1571548e-05	-0.00012739861	-0.00031465662	0.00035030418	0.00023794356	0.0005019724	0.00012785745	-1.6824326e-05	0.00035338462	-1.7461734e-05	-0.00019340945	0.00018228608	-0.00027336233	-8.679369e-05	-0.00017636198	-0.00023395284	-0.00044042978	-0.00048338514	-0.00055317226	6.561278e-05	-4.7212947e-05	0.00024212652	-0.0003649466	1.6885893e-05	8.7277156e-05	-0.0005224882	0.00024184272	-0.00012483334	0.00044366487	0.000103489314	-0.0002320188	4.8667167e-05	-0.00010020276	0.00011087681	-0.00033533265	1.0010592e-05	7.7755845e-05	0.00019741348	-0.00010620609	0.00010844578	-0.00044490557	-0.0002991661	-0.000376474	-0.00028164766	0.00024729723	-0.000121504636	-0.00038184464	9.3470284e-05	-0.00046066366	0.00026276702	-0.00055268215	-0.00060545554	0.00037281003	-0.0003966563	-0.0001680078	0.00019234407	-0.00036595282	-0.00031430015	0.0003815749	0.00023311136	0.00022431077	9.590201e-05	-0.0001806376	0.0002397595	0.00023701656	-0.00021931207	-0.00031314557	-0.0004701239	-0.00020392836	-0.00048138024	3.0337424e-06	-3.2742475e-05	0.00013230114	-0.00028444408	-5.1405743e-05	-0.00031174306	-0.00034007907	-0.00010066264	8.993055e-05	-2.9263076e-05	8.6792614e-05	-0.00014555176	0.00014790893	0.00049381994	0.00013624273	0.00023450753	-0.00032642338	-0.00033409338	-0.00012365034	-3.874422e-05	-0.0003847327	-0.00011373691	-6.7891306e-05	2.2549697e-05	-0.00010271363	-0.00017435291	0.0004190566	0.00036299223	-0.00037831513	-0.0005425388	2.0656693e-05	-0.00066329277	-0.00013862882	-0.00036300567	0.0003182324	0.00065274374	-0.00011062593	0.00016503151	-6.673737e-05	-0.00023133674	0.00025054722	0.0002942049	-0.00030891827	7.361367e-05	0.0005744264	0.00023373928	-0.00016500146	-0.0006002291	0.000111059315	-0.00014161227	0.00019931962	-0.0002035767	0.0003175239	-0.00013784567	-0.00022649005	9.7054435e-05	-0.00033739692	4.139833e-05	0.00016513462	0.00031883022	7.8932055e-05	-8.255325e-05	0.00052892417	-0.00028104032	0.00034000888	-0.0002949353	0.0003709934	0.00027377007	6.308244e-05	0.00017804862	0.00035131854	-0.00046747786	0.00015976159	-0.0003016126	0.00012702725	-0.00041260134	0.0001404542	-0.0005377106	-0.00017797903	-0.00034377357	0.00011457489	0.00024608456	0.0002355252	0.0005375666	-0.00032894136	0.00012224115	-0.0002828609	-0.0003431206	0.00031903584	0.0002690368	-0.00010900773	-0.0006659184	-0.00014353346	-0.00030850928	-0.00041609677	0.00022201471	-0.00029809668	0.00055599003
