	0	1	2	3	4	5	6	7	8	9	10	11	12	13	14	15	16	17	18	19	20	21	22	23	24	25	26	27	28	29	30	31	32	33	34	35	36	37	38	39	40	41	42	43	44	45	46	47	48	49	50	51	52	53	54	55	56	57	58	59	60	61	62	63	64	65	66	67	68	69	70	71	72	73	74	75	76	77	78	79	80	81	82	83	84	85	86	87	88	89	90	91	92	93	94	95	96	97	98	99	100	101	102	103	104	105	106	107	108	109	110	111	112	113	114	115	116	117	118	119	120	121	122	123	124	125	126	127	128	129	130	131	132	133	134	135	136	137	138	139	140	141	142	143	144	145	146	147	148	149	150	151	152	153	154	155	156	157	158	159	160	161	162	163	164	165	166	167	168	169	170	171	172	173	174	175	176	177	178	179	180	181	182	183	184	185	186	187	188	189	190	191	192	193	194	195	196	197	198	199	200	201	202	203	204	205	206	207	208	209	210	211	212	213	214	215	216	217	218	219	220	221	222	223	224	225	226	227	228	229	230	231	232	233	234	235	236	237	238	239	240	241	242	243	244	245	246	247	248	249	250	251	252	253	254	255	256	257	258	259	260	261	262	263	264	265	266	267	268	269	270	271	272	273	274	275	276	277	278	279	280	281	282	283	284	285	286	287	288	289	290	291	292	293	294	295	296	297	298	299
Variogram_0	-8.149891e-05	-0.00045192975	-0.00046060674	-0.0003615201	0.0010064715	0.0002767336	-0.00045642944	0.0002760899	0.00035582864	9.316547e-05	0.0003039644	-4.8471935e-05	0.00036863377	0.00022054212	0.0002511651	0.00034799753	0.0002814064	-0.000582107	7.01951e-05	-0.00037962318	0.00040027197	0.0003852467	0.0005763561	0.00013814347	-0.00043570038	0.00013119464	-7.351426e-05	4.499705e-05	-0.0001010566	-0.0003186888	0.0001723671	0.000638116	7.7802375e-05	0.00016952881	-0.00020682662	-0.00024040653	0.00069040735	-0.00043191283	-2.8092903e-05	-0.00039431106	2.8744827e-05	-0.00022017346	-0.0005565165	-6.251121e-05	0.0003699465	-0.00026115266	-0.0006386855	-0.00039021065	1.7347727e-05	0.00037522952	0.00030742073	-0.0004961654	-0.00026309988	-0.00062500284	-0.0004400255	-0.00044137498	-0.0004389365	0.00032146837	-0.00038120532	-0.00022264915	0.00065626664	6.4983826e-05	0.00036204382	-0.00019898191	-0.00014634377	0.0003188326	0.0004333416	0.00055688166	0.00022195095	-0.0006455968	4.883843e-05	-0.0005985247	0.00018031312	-1.5022641e-05	3.1145126e-05	0.00016038863	0.0003328645	0.00046394856	6.635785e-05	-0.00021458912	-0.0001193265	0.00013466843	0.0006622363	0.00034176887	0.00029105527	-0.00020685214	0.00030755764	-0.0003341213	-6.0097187e-05	-0.00019563032	-0.00056984444	0.00018738075	0.00027034298	2.8019529e-05	7.0265116e-05	0.00053789315	2.816043e-06	0.00016925205	9.810847e-05	0.0004924879	0.00010967903	-2.404475e-05	-6.322897e-05	-0.00046203844	0.00025064297	-0.00041774652	0.0002026672	-0.00034371347	-0.00026398044	7.543488e-05	-0.00014413495	-0.00045120975	0.00029840638	0.0002096609	0.0004878505	-3.501961e-05	0.0003837114	1.15650955e-05	0.00020851444	-0.00025581414	0.0002612028	0.0005521324	-3.8744885e-05	0.00012109493	-0.0003234285	0.00010516425	-0.00023583927	0.00047146916	-0.00030122805	1.8944309e-05	1.3847166e-05	-0.00036942182	0.00022404385	-0.00016193926	-0.00028498858	0.00033030252	-7.6172895e-05	0.00034442276	0.0002046539	-9.648044e-05	-2.3325474e-05	-0.0003338639	-0.00046176362	1.9567575e-05	-0.00025594482	-0.000103937	-0.00034897772	-6.424782e-05	-0.00034693573	-0.00037210633	-0.0002685087	4.6600908e-05	-0.00036443584	0.00017891968	-0.00042553295	0.0002417621	-0.00037617865	-0.0002415239	-5.5455264e-05	-0.00012835163	0.00033248798	0.00013552413	-0.00013359498	-0.00025136527	-0.00032855026	0.000113855516	-0.00039623564	2.2775115e-05	0.0005004049	0.0001078017	-0.00011089135	-7.992966e-05	-0.00029292778	-6.606489e-05	-0.0002562826	-0.00022505822	0.00021399376	-0.00020591657	-0.00016909272	-2.3877277e-05	-0.00037820826	0.00023010501	-0.00048190798	-0.00047475038	0.00021728703	-0.0006444793	0.00025083486	-0.00015896051	2.1460103e-06	-0.0002673701	0.0005983696	-0.0001352759	0.0003458754	-0.00021549077	-0.00046925072	0.00027095765	0.00025097618	-0.00048050552	-0.00032999294	-0.0007277336	-0.0003244914	-0.00043829787	-0.00022464771	0.00016526709	-0.000111605485	-0.00025254313	-0.000180953	-0.00048352385	0.00014135915	-0.00015273993	2.527089e-05	-6.4629814e-05	7.267329e-05	-0.00016514816	0.00014008272	0.0005885164	0.00033282864	0.0002348119	-0.00054754806	-0.00059263926	-0.00020067331	-1.0323376e-05	-0.00033016564	-0.00021038728	-5.3601252e-05	0.00022730285	-0.000362074	-0.00016460422	0.00045080335	0.00024100911	-4.966365e-05	-0.00074226287	0.00020292301	-0.000909324	-0.00050884444	-0.00064670114	0.00034403292	0.00053606613	-0.0003129562	-4.8792193e-05	-0.00011638334	-0.00060651946	0.00024040976	0.00011017967	-0.00015502644	0.00025323304	0.0007714543	0.0003043874	-0.0004467309	-0.00028674703	0.00021257864	1.0529489e-05	0.000271494	-0.00020636422	0.00065812515	-0.00022595724	-0.00069716404	-9.527754e-05	-0.00049562636	9.05383e-06	-6.7700785e-05	0.0005675513	0.0001821815	-0.00022612083	0.0009148263	-0.0002604172	0.00038302332	-0.000421292	0.00033739372	0.000686599	-7.527254e-05	-4.1541967e-05	0.0005009638	-0.00060146843	-5.689258e-05	-0.00030891792	6.802931e-05	-0.0003613647	0.00030284235	-0.00068101054	-0.0004890214	-0.00047947	0.00019918258	7.6536584e-05	0.00015506252	0.00039648113	-0.00031773417	-5.653406e-05	-0.00030591324	-0.000288997	-0.00010096278	0.0005233383	8.24495e-05	-0.00053172297	-0.00032632277	-0.00032750334	-0.00024415983	0.00026181136	-9.224735e-05	0.00063869584
Variogram_1	-0.00019477421	-0.00042988022	-0.00045823067	-0.00044227345	0.00084714603	0.000511236	-0.0007335478	0.00021870241	0.00038321727	0.00034100597	0.00020677358	-5.6441168e-05	0.00021299136	0.00029221282	0.00021961534	0.00042763504	0.00037681696	-0.00045929954	0.0001465116	-0.0004112477	0.00034757124	0.0004254799	0.00096438813	0.00018127589	-0.0003570422	0.00039384296	-2.9930896e-05	-0.00021004947	-0.00018747797	-0.00021862968	0.00022414274	0.00041217866	-0.00024215005	0.00018798016	-6.5929664e-05	4.298539e-06	0.00039960106	-0.00064730574	0.00012228769	-0.00043720953	0.0001847285	-0.00041659523	-0.0005151976	-2.6342477e-05	0.00021591503	-9.671709e-05	-0.00034296265	-0.0004720115	-0.00021748371	0.00059318024	0.0003712099	-0.0002676079	-0.00031917862	-0.0006583041	-4.768828e-05	-0.00046556076	-0.00040116027	0.0006112358	-0.0006426929	-0.00027509188	0.00076132495	0.00038944106	7.815426e-05	-0.00015146096	-0.00025755298	0.0005200444	0.00035688074	0.00050627795	0.00025631778	-0.0007465997	1.2752613e-05	-0.0007382984	0.0004084405	-0.00043778695	-0.00017995754	0.00021033423	0.00040513242	0.00016145712	0.00024209585	-0.00033437318	-0.0005300792	7.034714e-05	0.0004908002	0.000455173	0.0002848186	-0.00017028449	6.972941e-05	-0.00052868074	-0.00011600906	-0.00023696668	-0.00050779607	0.00021649816	7.328905e-05	-1.9916126e-05	-0.00023422361	0.0007676624	-8.259291e-05	0.00020185899	0.00028184333	0.000314371	1.723967e-05	2.764148e-05	-1.0717997e-05	-0.0006721589	0.00025761686	-0.0006003992	0.0006557395	-0.0006425439	-0.00033476923	-0.00014464656	-2.9244235e-05	-0.0006670932	0.0003138067	0.0001342276	0.00023811088	-0.00030730027	0.00044548284	-0.0001410334	0.00042383498	-0.00014868249	2.216625e-05	0.00024125505	8.303523e-05	-0.00017043574	-8.933455e-05	8.007174e-05	-0.0002921838	0.00056818896	-0.0004011687	7.032655e-05	0.0001524716	-0.00033429093	2.4384719e-05	-0.00027086487	-0.00034795055	0.00048553923	-0.00014493185	0.00041521856	3.847007e-05	0.00016695942	0.00029514378	-0.0007805996	-0.00052624923	2.6351383e-06	-0.0001810216	-4.6862762e-05	-9.304095e-05	-0.00014347164	-0.00034590255	-0.00010150293	-0.00015049125	-6.723073e-05	-0.0004140978	-9.431064e-07	-0.00063976325	-3.5016754e-05	-7.029358e-05	-0.0003828493	0.00016127506	-0.00013003098	0.0004345412	0.00022638688	-0.0002191297	-0.00013223039	-0.00014956048	-4.4826502e-05	-0.00040834362	-9.621829e-05	0.00022803397	0.00024984518	5.1311927e-06	-1.5180558e-07	-0.00049658265	-0.00011213411	-0.00025675006	-0.00043641817	0.00025632416	-0.00038384376	-0.00044744473	-0.00011372081	-0.00039323923	0.00015184277	-0.00092007715	-0.00042050562	0.00027141382	-0.0006590583	0.00012231599	-0.00025919007	-8.120361e-05	-0.00024901715	0.00073697366	0.00012590676	0.00046679543	-0.00035267635	-0.00041793648	0.00014424112	0.00032309286	-0.0005307752	-0.0004534562	-0.0004502453	-0.00032940335	-0.00036742672	-3.940608e-05	4.779207e-05	0.00012594464	-0.0004189063	-0.00027459822	-0.00035354763	-4.206341e-05	-8.9811314e-05	-0.00013502206	0.0002128884	0.00028159763	-0.00010779346	0.00023464968	0.00057505287	0.00037497477	0.00046904298	-0.00033728685	-0.00052545115	-0.00050648686	-2.8804889e-05	-0.00031445787	-7.2834526e-05	0.00019230985	0.0005517372	-0.00034856264	-0.00027027453	0.0007002563	0.00016826949	-2.4420306e-05	-0.0005659823	0.00014063015	-0.0009507901	-0.00043634785	-0.00052384275	0.00049193547	0.0006104931	-0.0004501929	-0.00027907954	-6.121493e-05	-0.0005716169	0.00018292187	-3.3065196e-05	-0.0002651959	-0.00030287603	0.00091461436	0.0002758062	-0.0004241819	-0.00030903702	0.0005269663	0.00014269979	0.00026820326	-0.0003035143	0.0007120523	-0.00046105124	-0.00063422835	0.00013217382	-0.0005748273	0.0001497272	-0.00011901895	0.0005049421	-0.00014392547	-0.00035254782	0.0010637845	-0.00045776035	0.0005786057	-0.00038678956	2.4352403e-06	0.00050313585	-0.00025049376	-5.169038e-05	0.00030953193	-0.0005485377	0.00022723679	-0.00074704713	0.0003791969	-0.00036520336	-8.002587e-05	-0.00073124684	-0.0004919728	-0.00068037043	0.00021806796	0.00038111926	0.00014569706	0.00010992946	-0.0005174176	0.00023587038	-0.00039261233	-0.00033466937	0.0001820918	0.0005357339	0.00031979103	-0.00027273785	-0.0003800679	-0.0003697684	-0.00020829738	0.00039081965	-0.00031190773	0.0006184019
Variogram_2	0.00017084065	-0.0003692146	-0.00042860195	-0.00044958317	0.000114042	0.00025973245	-0.00068932585	0.00033927412	-8.4250634e-05	0.00045679466	-0.00014131123	-0.0002149304	0.00012320427	-3.1449683e-05	0.00023404077	-0.0002864852	0.0003193543	-0.00044741057	0.0005009721	-0.00023428616	-0.00011620047	0.0003242544	0.0007319559	-0.00016040538	-0.000665203	0.00031653207	0.00017550886	-0.00023975817	-0.000265626	0.00013963763	6.240968e-05	0.00016848579	-7.8886114e-05	0.00034214184	0.00031929353	-4.2922937e-05	-3.726516e-05	-0.00044208232	9.837919e-05	-0.0003782848	0.00035054953	-3.827051e-05	0.000112986905	-0.00012223898	9.214627e-05	-0.00043566772	-0.00024421947	-0.00068803784	0.00015938368	0.00076986436	-0.00019557877	-0.00015095121	-0.0001948895	-0.00047948764	-2.1763844e-06	-0.00027174427	-0.00042278745	0.00054953207	-0.00021545736	-0.00021083362	0.00047693812	0.00032019388	-9.11997e-05	0.00016340167	1.6775051e-05	-4.2806296e-05	0.00019637072	0.0005627054	0.00014071188	-0.00025814053	-0.00029762782	-0.00032467925	0.00044309464	-0.0005844678	-0.00044339735	7.101759e-05	0.00026920153	0.00022933305	0.0002659073	-1.6578415e-06	4.2391333e-05	0.00046122278	6.835609e-05	5.9344744e-05	-0.00031557554	0.000134777	0.00016753376	-0.000381004	-0.00025322734	-4.8448423e-05	-0.00059259916	0.000309108	0.00023869227	-1.0841443e-05	-0.00040430174	5.1545077e-05	-0.00014977668	0.00040266482	0.00029701737	-0.00021270874	-0.00019244428	5.8249157e-06	0.00016186612	-0.00045155283	1.25055e-06	-0.0004564507	0.0007126541	-0.000120054065	-0.00023947812	0.00019814516	0.0002000235	-0.0007468527	0.00017937356	4.172505e-05	7.453303e-05	-4.414414e-05	0.0004519883	0.00037644757	0.00062263885	-0.0006067752	0.00031681574	0.00013480932	-0.00033760356	-0.00044574993	-0.00032654006	0.00022135933	-0.00062277535	0.0006181691	-1.7697457e-05	6.996293e-05	-0.00039331082	-0.00055936055	3.6202808e-05	-0.00027994145	-1.4016031e-05	0.0001645938	-0.00023865563	0.0006352578	5.1541287e-05	-0.00044934853	6.0900282e-05	-0.00060766056	-0.00055562455	-0.00035087412	7.332895e-05	0.00016063715	-0.0003028592	-0.0007059059	-0.0002325576	0.00028920948	0.00020486946	-0.0005246327	-0.0002485762	-0.00018437582	-0.00070173945	-7.085977e-05	-0.00013619519	-0.00060151063	0.00020460911	-0.00013748162	2.4245188e-05	0.00066100183	0.0002841552	-0.00025620914	-0.00022288473	-0.00031872894	-0.00062398455	-0.00039963008	0.00025961405	0.0002593633	-0.00010668211	0.0005536104	6.039105e-05	6.5254346e-05	-4.3337317e-05	-0.000520081	7.419644e-05	0.00024107864	-0.00025280123	-0.00017718224	9.952512e-06	8.681448e-05	-0.0010540017	-0.00062765036	0.00022553417	-0.00036459675	0.00034621503	7.585662e-05	-0.00016824025	-5.0520055e-05	0.0006442371	-3.1223422e-05	0.00028165983	-0.00028435964	2.7471307e-05	-0.00021080881	-5.859781e-05	-0.00017844501	-0.0006580752	-0.00041527985	0.00016836233	0.00015163804	0.00031295247	8.977474e-05	3.4089662e-05	-0.00056834845	-0.00040655895	-0.0005163124	0.00020021829	-0.00031178977	-0.0004413724	7.977091e-05	0.0006625964	-0.00011982426	0.00019077028	0.00023262702	6.1313614e-05	8.979178e-05	-0.00035909892	-0.00043814952	-0.00035822138	0.00023131187	-0.00038270926	-0.00013090907	0.00023906307	0.00035866007	-0.000304548	-0.0002518667	0.00044391918	0.00047181913	-0.00029045125	-0.00068509916	-0.00031028967	-0.00024288392	-0.0003281627	5.4547196e-05	0.00057739037	0.00051458506	-0.0006504886	-0.00033184505	-0.0004018247	-0.0005054228	0.00019627121	-0.0002652116	-0.00013371579	-0.00026898916	0.00054894865	0.00037690345	-0.00021952631	-0.00023743005	4.2677857e-05	0.0005003782	-0.00030555116	0.00025390062	0.00018867399	-0.00019673587	-0.0007354387	4.763272e-05	-0.00058529794	0.00012198634	-0.0003322901	0.0006047777	-0.00033576027	8.005318e-05	0.000598305	-8.084454e-05	0.0008583079	-0.00038965954	0.00034499515	0.00010165221	-5.515591e-05	0.00015348606	0.00013452409	-0.00017637307	0.0001544132	-0.00011845666	9.318783e-05	-0.00033501902	-0.0006029349	-0.0009600961	-0.00018669246	-2.4421823e-05	0.00017872314	0.00048128382	0.00025575855	1.3355681e-05	-0.000636431	0.00030731593	-0.0002791623	-0.0002017485	-0.0002025891	0.00035364574	-3.571476e-05	-0.00010690437	-0.0005649278	-0.00013370348	-0.00047290465	0.00037693672	-0.00054525735	0.00039161442
Variogram_3	-9.464973e-06	-0.00047563078	-0.0006726048	-0.0003848171	0.001176345	0.00014697458	-0.0006095415	0.00049198506	0.0006174301	0.00024429467	0.00050172827	0.00021965448	0.00049772963	0.0004899892	0.00026324159	0.00077150215	0.00016966672	-0.0007012676	0.00011049401	-0.00055068656	0.00047581512	0.00029990802	0.00054092746	0.00018289991	-0.0005079436	-5.6788227e-05	-0.00010758097	0.00013573398	0.00015303734	-0.0005820032	-0.00032682723	0.00075107935	-0.00019334788	0.00028725946	-0.000117764925	-0.00024327356	0.00089540257	-0.000581223	0.00015926207	-0.0005694384	5.92158e-05	-0.00055655546	-0.00073175837	5.5814795e-05	0.000423231	-0.00018415818	-0.0004848246	-0.00032504986	-0.00023309406	0.00012406823	0.0003732912	-0.000720991	-0.00010154136	-0.0005367417	-0.0007141107	-0.00060995633	-0.00035678837	0.00066124357	-0.00058602286	-0.00054046896	0.0007394614	0.00021906472	0.00053103146	-0.00037204055	-0.00025630102	0.0005117988	0.00049470674	0.0009515196	0.00014301503	-0.00083085673	-2.771999e-05	-0.0005334734	0.00043917866	-0.00016866993	-8.079115e-05	0.0002873539	0.00034791106	0.00052451174	4.2557844e-05	-0.000237166	-0.0005197445	0.00022607241	0.0008470605	0.0004992693	0.00050035317	-0.00023098751	0.00034035742	-0.00025941417	0.00016832554	-0.00019478716	-0.0006830379	0.00048934674	0.00031059375	6.1205894e-05	-6.017014e-05	0.0007557898	0.00033684514	0.0002464681	5.644137e-05	0.0009933915	0.00035958513	-0.00011404268	-0.0002636258	-0.0005874722	0.00040628965	-0.00046339427	0.00031962682	-0.0007315339	-0.00019813539	-4.830479e-07	-0.00021212762	-0.0005521939	0.0007372637	-7.3400246e-05	0.00053784635	-7.735973e-05	0.0007771981	-0.0001978152	0.00013490685	-7.605754e-05	0.0003954668	0.0007346785	-4.309722e-05	0.00028886396	-0.0003416019	-5.381297e-05	-0.00043023875	0.00021039252	-0.00052845385	-0.00015229329	-0.00014889664	-0.00030751404	0.00018940795	-0.00014617291	-0.000631038	0.0005290164	0.00017544751	0.0004538408	0.00034990566	0.000317828	0.00016096368	-0.00030595931	-0.00023039272	0.0002033471	-0.0005178309	-5.767276e-05	-0.00027640729	0.00018566295	-0.00047530263	-0.00073908584	-0.00046434585	0.00020271234	-0.00030227203	0.00048867526	-0.00051492907	0.00027149628	-0.00032244786	-0.00041727032	0.00013702313	-0.00019233485	0.0008264437	3.3122804e-05	-0.00037629475	-0.00034888755	-0.00011637619	0.0004984223	-0.00047171052	0.0001255231	0.0006649436	0.00027557646	-0.00048366934	-3.2833952e-05	-0.00069583266	-0.00037570676	-0.0005163249	-0.0002876777	0.00015572165	-0.00039949836	-0.00039248756	0.00030091516	-0.000840281	0.000239343	-0.00069992116	-0.00081785454	0.00032366934	-0.0008216711	0.00018857421	-0.00027239564	-6.8575515e-05	-0.00018667654	0.0006328605	-6.854591e-05	0.00028015632	7.100137e-05	-0.00065233646	0.0006121717	0.00018598772	-0.00042973395	-0.000259145	-0.0009584087	-0.00054959155	-0.0007812728	-0.0005289677	0.00012763168	-0.00019093075	-0.00031501125	-0.00040776725	-0.0007435765	-5.1464333e-05	-0.00013906826	0.0003156899	-0.00016443463	-0.00012537485	6.11059e-05	0.00010278355	0.00083210843	0.00030377868	0.00047621402	-0.00058756245	-0.0006677954	-0.00034456069	-9.3669085e-05	-0.00037331975	-0.00025148861	-0.00021793603	0.00038641095	-0.0003269373	-0.0002618338	0.0005255103	0.00037211739	-0.00033816946	-0.0008269282	0.00031169195	-0.0010619069	-0.0005002521	-0.0009807679	0.00023035321	0.0007384323	-0.00025933492	-1.6432896e-05	-3.4408535e-05	-0.00059749023	0.00015579161	0.00029736344	-6.644919e-05	0.00036338493	0.0008680384	0.0003554996	-0.00038212715	-0.00062176085	0.00017058747	-0.00029118356	0.00025289337	-0.000602832	0.0011549994	-0.00017663659	-0.00040602832	-0.00013018315	-0.00037640642	-2.3793811e-05	0.00021979473	0.00063035573	0.00050675997	-0.00026026618	0.0010966214	-0.00030984503	0.0002456872	-0.0005808446	0.00041902642	0.00078701915	-0.00010087613	-0.00026923278	0.00092620606	-0.00083427224	0.00014276916	-0.00051768805	0.0002165935	-0.00057878654	0.00037261785	-0.0006144033	-0.00043742065	-0.0006686038	4.4637454e-05	0.00028643833	0.0004193462	0.0007666734	-0.0002964866	-0.00014594362	-0.0005173563	-0.00048959244	1.8835057e-05	0.00045289184	-6.264177e-05	-0.00061040296	-0.00024093295	-0.00041680498	-0.00059465726	0.0004969027	-0.00021003731	0.0010105645
Variogram_4	-0.00016928789	-0.0002883404	-0.00052299036	-0.0003264805	0.001207082	0.00036961093	-0.00068930775	0.0001679367	0.0005321664	0.00031062882	0.00041567432	-3.3931163e-05	0.0005017575	0.00051331247	0.00017379253	0.00049675186	0.00044970514	-0.0006606167	2.5042898e-05	-0.00068148295	0.0007957281	0.00039717785	0.00067327835	2.111829e-05	-0.00050556514	0.00027076164	-0.00028418627	6.096964e-06	-0.0002211108	-0.00034998378	0.00012177522	0.0008624504	2.913867e-05	0.00035998708	-0.00027269864	-0.00011804672	0.000824105	-0.00024349125	-0.00013698853	-0.00078688544	3.3882352e-05	-0.000355698	-0.0006487069	2.2602657e-05	0.00040436306	-0.00026110647	-0.00044418502	-0.00031495045	-4.8702947e-05	0.00030717844	0.00027238065	-0.0005078025	-0.00031208657	-0.0006537417	-0.0006932098	-0.0005105564	-0.00059546623	0.0004361745	-0.00041241784	-0.00027069717	0.00066427473	0.0001297094	0.0005353332	-0.00022445834	-0.00032607818	0.0005925754	0.00034232414	0.0007259568	0.0003211973	-0.00089799985	4.8855596e-05	-0.0008617333	0.0003426514	-0.00012249933	0.00013828074	0.00035605067	0.0004531553	0.00053730287	7.748695e-05	-0.00019823633	-0.0003639495	0.00019837033	0.000794939	0.00030235283	0.0005118162	-5.6736913e-05	0.00039087806	-0.00017887498	6.8124704e-05	-0.0003291676	-0.00063412037	0.00032653532	0.0001730933	-0.00013098911	-5.2756757e-05	0.00076957664	0.00015599547	0.00014167893	3.6386886e-05	0.00068809226	0.00024009062	-1.50221695e-05	-7.271771e-05	-0.00047155173	0.00019945325	-0.00054304063	0.00036106788	-0.00065424095	-0.00039731187	-3.618199e-06	-0.0001058091	-0.000630268	0.00039995453	0.00017828931	0.0005692845	1.4063648e-05	0.00042691475	2.9045814e-05	0.00016206951	-0.00021512214	0.0002293254	0.00075013883	0.00024939573	0.0004486572	-0.00033293513	5.1304665e-05	-0.000117494536	0.0004109866	-0.00040869592	6.799577e-05	7.300155e-05	-0.00044924274	0.00038168795	-0.00023464208	-0.0003701445	0.00061574095	-7.8473364e-05	0.00036693734	0.000106603446	-6.22598e-05	-1.2342882e-05	-0.00021657311	-0.0003874015	0.00021893275	-0.00036853369	-9.63694e-05	-0.00045832133	1.3723885e-06	-0.00031862827	-0.00034885595	-0.0004887692	-2.7119542e-05	-0.0003470284	0.0003233585	-0.00031785353	0.00031395053	-0.00024422733	-0.00027531886	0.00012635508	-0.000104215804	0.0005540917	-3.7245733e-05	-0.00035555288	-0.0003730592	-0.0003386024	6.177737e-05	-0.00045820253	0.000121593774	0.0004830266	1.3585906e-05	-0.00031276394	-0.00015858404	-0.00048335528	-0.00011108224	-0.00046677448	-0.00025756768	0.00042606678	-0.00042408647	-0.00039549023	3.3632215e-05	-0.00046101483	0.0002534899	-0.00064613245	-0.0006153499	0.0003062743	-0.0007905877	0.0001401971	-0.0002372819	-9.5315554e-05	-0.0003820435	0.0006504484	3.801788e-05	0.0002989223	-9.6705044e-05	-0.0006121486	0.00035470503	0.00031939324	-0.00044754884	-0.00037174392	-0.0006672729	-0.00057664735	-0.0004950318	-0.0002532073	0.00012552383	-6.7594745e-05	-0.00037941316	-0.00024333718	-0.0004890132	-6.7871064e-05	-0.00016314913	0.00024870774	-0.00016333042	-2.0738437e-06	-4.807122e-05	0.00029472364	0.0008747762	0.00022597713	0.00037130344	-0.0007642303	-0.00053047424	-0.00012959096	-0.00018235658	-0.00033046963	-0.00035031064	-8.990008e-05	0.00042873062	-0.00042829607	-0.0002579233	0.0005382742	0.00037473423	-7.917823e-05	-0.00084819546	0.00039042364	-0.0011809826	-0.0005452354	-0.00084091537	0.00042631934	0.00059938495	-0.00035632512	-9.034481e-05	-0.00012236171	-0.0007042691	0.00030141816	0.00035057665	-8.811674e-05	0.00023047537	0.0009810963	0.0004284282	-0.00058317767	-0.00038531853	0.00020494706	-0.00023060483	0.00042081374	-0.00026658995	0.00090716017	-0.00022530496	-0.0006617587	-0.0001038826	-0.0005147523	-2.1987897e-05	-1.8810662e-05	0.00068741903	0.00012663878	-0.00022246846	0.0009657532	-0.000293388	0.0004598451	-0.0005001517	0.00046555753	0.00088120805	-0.00010357799	0.00011125211	0.00059052685	-0.0008571366	2.3227185e-06	-0.000530598	0.00030846286	-0.00048051233	0.00027922273	-0.0008375656	-0.0004932357	-0.00061353453	0.0002099011	8.726932e-05	8.822061e-05	0.00047817963	-0.00037832872	7.945327e-05	-0.00029765765	-0.00059592345	-7.015383e-05	0.000539288	-3.6723763e-05	-0.00066881016	-0.00040429647	-0.00021371985	-0.0002401127	0.0002588041	-0.00022837435	0.0007555267
Variogram_5	0.0010016173	-1.4920258e-05	-2.0314248e-05	0.0011823176	-0.0013265995	-0.00081432227	-0.0003412895	0.00035776224	-0.001267033	0.0012643671	-0.00019010069	-0.00011766739	-0.0004564058	0.0014603041	0.00015277643	-0.00083617016	-0.0010492592	-1.9411833e-05	0.0016591422	0.0001464854	0.0008098734	-0.00024704754	0.0006116499	0.0007283256	-0.0015984465	-0.000298923	0.0016657893	-0.0010206153	0.00070862216	0.00059344084	-0.0013491684	-0.00023595651	-0.00027900268	0.0015575031	0.0010715356	-0.0012012107	-0.0016231271	0.0011879826	1.7221786e-05	-0.00068787026	0.00018316564	-0.00062647444	0.0015536683	-0.0011088775	-0.0016063538	-0.0015478921	0.00076733046	-0.00065022777	0.0009469603	0.00094441144	-0.0015450615	0.00013958942	0.0008592667	-0.0006034137	-0.00028428598	-0.0005385377	0.00029128097	0.0013291847	0.0015235117	-0.0012434225	-0.0011381247	0.00034381545	0.0011787023	-0.00047714254	-0.00013536176	-0.0014710416	0.00048885855	0.00078453746	-0.0004403184	-0.0007920818	-0.00023941179	-0.00018319352	-0.00020003252	-0.0015931444	-0.0011342004	-0.0010903616	-0.0005866184	0.001345232	7.2153765e-05	0.0014380338	0.00056990824	0.0011085715	-0.0015064597	-0.00035935573	-0.0013859282	0.0016477803	9.378065e-05	0.0011076493	0.0012551148	0.00097398664	-0.00084611075	0.00042686975	6.3037754e-05	0.0003467815	-0.00029274574	-0.0015150164	0.0010216456	0.0013676101	8.711284e-05	-0.0012692122	0.0014848704	-0.0012093835	0.00037152582	-0.00017996234	-0.00097607594	0.00052616926	0.0013277141	-0.0002496436	0.00012894197	0.00018011384	0.0013838629	-0.0015415292	0.00048847706	-0.001466896	-7.579736e-06	-0.00036149094	0.0011419647	0.001173171	0.00059254095	-0.0015469198	0.0015785692	9.8841156e-05	-0.0004187044	-0.00050656626	-0.00032411676	6.0403923e-05	-0.00087210257	-0.0016482875	0.00059281196	0.0012453739	-0.0015787235	-0.00020437052	0.0003264409	-3.7805698e-06	-1.13138585e-05	0.0005439863	-2.980921e-05	0.0016547187	0.00044085472	-0.00092623424	4.6634857e-05	-8.064643e-05	0.00043358663	-0.00014335035	-0.00030361235	0.00048302262	-0.0009571082	-0.0015004657	0.00041834096	0.001255121	-0.0004021121	-0.0006849399	0.0004812479	-0.001490511	6.790994e-05	-0.00032736472	-0.001369533	-0.00025757676	0.0013016419	-0.0001959197	0.00078305387	0.0014897131	0.0015117816	-0.0015655976	0.0011339337	-0.0008991104	-0.001405969	-0.00031845324	0.0015325319	0.0014545775	-0.0010598577	0.0015224738	0.0011003555	0.0013693877	-0.0010708906	-0.0013599998	-0.00037108833	0.0015453158	7.112891e-06	0.0013176525	0.0008455265	-0.0004021462	-0.0010240455	-0.001564784	0.00039290346	-0.00056380994	-0.0002908007	0.0001506117	-0.00038799163	-0.0006238805	1.2682568e-06	-0.0010735446	-0.0015421596	0.0003274863	0.001181613	0.00056248123	-0.0007663449	0.0013902193	-0.0011454248	-0.00022598554	0.00048281957	0.0011789274	-0.00083546806	0.0014786809	-0.0012044605	0.0006688322	-0.0013054571	-0.00164225	0.0005708087	-0.0016528298	0.0007586343	-0.0004466463	0.0011570833	0.0015141865	0.00037406123	-0.00093119836	-0.0007742202	-0.0011235626	-0.0008451004	-0.0007697077	0.0010537939	0.0015158136	-0.000111801586	-0.0011025569	-0.00046781564	0.00014264732	0.0005252386	-0.000236291	-0.0016482008	0.0006728388	-0.001149405	-0.0014451034	-0.00040407112	0.0007753531	-0.0006767046	-0.00024548805	-0.0009808181	0.0013243546	-0.00084323715	6.602416e-05	-0.00022765058	-0.0014368217	-0.0011957356	0.00012743585	0.0005604993	-0.00031069614	-0.00067740114	0.00015501794	-0.000894369	0.0005612929	-0.0015023702	-0.0003410607	-0.00123341	0.001422737	0.00012339765	0.0016463781	-6.2288025e-05	-0.00082815054	-0.00048622477	-0.001488383	-0.0003697547	-0.00029792922	-0.0013671787	0.0013327361	-0.0015206971	0.001067086	0.0003862272	-0.00139477	0.0004986215	-0.00066536426	0.0005863129	0.00080811477	0.0014787322	-0.0012941903	0.00038091317	0.0013408967	-0.0012751465	-0.00046744407	-0.0008215752	-0.0012145498	0.00023588458	0.0010320501	-0.0013937779	0.0014758961	0.00029142073	-0.0005641692	0.00023558865	-0.00053406495	-0.00055276306	-0.0012569128	-0.0016442899	-0.0013495823	0.00012167193	0.00048620117	9.1944064e-05	6.297227e-05	-0.0016127218	-0.00021012803	-0.00094628136	0.0011003632
Variogram_6	6.099767e-05	-0.00036947225	-0.00033732873	-0.00028577395	0.0005334929	0.00012146642	-0.00017614017	0.00030793407	0.00012786862	0.00031502658	8.957207e-05	-5.726326e-05	0.0003345707	-4.186625e-05	0.00036194577	9.984938e-05	0.00027737924	-0.00037579113	6.9599446e-05	-0.00025046908	8.664392e-05	0.00026509122	0.0005543632	-0.000110552566	-0.00043193583	8.457146e-05	1.4468349e-05	-0.0001067206	-0.00013030585	-7.924257e-05	8.3624924e-05	0.00018781323	4.186511e-05	0.0003960017	0.00020926932	-5.2077958e-06	4.2903306e-05	-0.00030289244	6.186714e-05	-0.00017362609	-2.3427496e-05	1.9693838e-05	-1.6619158e-05	-9.8546814e-05	0.000236038	-0.0003123876	-0.00038727777	-0.00037311603	7.136619e-05	0.00037405587	9.299948e-05	-0.00043809827	-0.0004155108	-0.00043324538	-0.00021745998	-0.00028304607	-0.0005840888	0.0002745412	-0.00016408699	-0.00015220736	0.00016514254	0.00014517266	0.00033318615	-0.00020634802	0.00013737347	0.0003620977	6.2420164e-05	0.00039794188	0.00028944775	-0.00045616445	-5.8969348e-05	-0.00031433813	0.00024922204	-0.00025468427	-0.00024342703	0.00022164111	0.0004903765	0.00024914803	1.8398434e-05	6.682946e-05	-4.44133e-05	0.0003276751	0.0005370149	0.0002945334	6.388869e-05	-0.00011835004	0.0001822722	-0.00033365455	-0.00015713074	-0.00010148242	-0.00046768348	0.00046878308	0.00026612502	-6.05099e-05	-0.0001015306	0.00022598915	-0.00014697053	5.4815715e-05	0.00023349354	0.0002076703	9.322795e-05	8.269551e-05	0.00012839734	-0.00024406989	0.00037485044	-0.00012810805	0.00015446634	-0.00030060974	3.015901e-05	7.579104e-05	0.000136613	-0.00015985381	0.00025461233	0.00016794397	-1.0105743e-05	0.00024851627	0.00026680314	0.0003091746	0.00044371025	-0.00030617506	0.00034351007	0.00018924073	-0.00011741875	2.3875424e-05	-0.0005144153	0.00015342372	-0.0005988284	0.0004959472	-0.00017204406	7.9176774e-05	-9.6716925e-05	-0.00024740899	0.00014865873	-0.00030669646	-5.0056908e-05	0.00025507918	0.00013518178	0.000514773	-6.0450034e-06	-0.000105128376	8.943295e-05	-0.00036221594	-0.00034536386	-5.9756414e-05	-0.0001719911	5.8946072e-05	-8.27873e-05	-0.00041914656	-0.00037812695	-0.00037425966	-0.00041421555	-4.898852e-05	-0.00015289299	-6.112291e-05	-0.00043149805	-7.433338e-05	-0.00014075778	-0.00024579797	0.00014282626	-9.3490264e-05	0.00012324909	0.0002404125	-4.3995828e-05	-0.00013800681	-0.00013657406	-2.6430342e-05	-0.0003524259	-0.00022643487	0.00028053968	0.0002872905	-3.2847085e-05	0.00022683348	-0.0002539659	-5.6666417e-05	-0.00022629606	-0.0003403682	0.00018485135	-0.00011753194	-0.00013110405	4.3571536e-06	-0.00021696571	0.0002621226	-0.00060598954	-0.00040403748	0.00028412457	-0.00033015787	0.00018311103	0.00016376183	-0.00012148901	-0.00030668275	0.00024479718	1.8152601e-05	0.00025444143	-5.9588394e-05	-8.452093e-05	0.00013768443	0.0002212722	-0.00021556605	-0.00027725828	-0.00044994493	-0.00018596381	-0.00033551393	9.708764e-05	0.00012345435	-7.807152e-05	-0.00021434145	-0.00016462186	-0.00027475978	8.314477e-06	-0.00020297896	-0.00012177378	0.00010848115	0.00027342653	-0.00026290963	0.00022372851	0.00046522188	0.00022713325	0.00015863584	-0.00024566497	-0.00033729593	3.0749914e-05	-8.13396e-05	-0.00042559355	-8.415435e-05	0.000129364	0.0001615885	-0.00011082888	-8.301286e-05	0.00036313728	0.00023227476	-0.00020008157	-0.00064679486	-6.4862834e-05	-0.0005357128	-0.0002655895	-0.00021769028	0.00029044776	0.0006558599	-0.00017577845	-4.544279e-05	-5.255633e-05	-0.000244823	0.00035346093	-3.871544e-05	-0.00033260943	0.00010394998	0.0005866821	0.0001948864	-2.7022272e-05	-0.0003315744	0.00025891286	0.00028254752	0.00016397952	7.724384e-06	9.2546914e-05	-0.0001299644	-0.0002630938	0.00016538687	-0.0004327654	0.00011175456	-4.37441e-05	0.00043191196	-0.00015976779	0.0001522712	0.00056347565	-0.00015064488	0.0005268797	-0.00036992185	0.00032920347	0.00019726818	3.291668e-06	0.0002894155	0.0002523365	-0.00046728522	0.00018134332	-0.00021486876	-6.185104e-05	-0.000362338	9.014167e-05	-0.00064692536	-0.00029789022	-0.0002896583	0.00011239839	0.0002290243	0.0002529768	0.00034564506	-0.00015280853	1.9334559e-05	-0.00019618738	-0.0002529808	5.0585157e-05	0.00016713174	-0.000113574286	-0.0006327315	-0.0001977615	-0.00016695066	-0.00036320876	4.724412e-05	-0.00032305127	0.0004708778
Variogram_7																																																																																																																																																																																																																																																																																																												
Variogram_8																																																																																																																																																																																																																																																																																																												
Variogram_9	0.0005008896	-0.0010759182	-3.110155e-05	4.6337413e-05	-0.0003745453	0.0004785849	0.0005423001	0.00039160892	0.000117594376	0.00047143735	-0.0003733975	-0.00035185102	-4.9004448e-05	-0.0012153419	0.00090490934	-0.0005670017	0.00041506204	-0.00079264987	-0.00019517436	0.00030525817	-0.0011059479	0.00026674184	0.0013598567	-0.00026221733	-0.00025809938	0.0004900601	0.0005218141	-0.0008377123	-0.00033524563	0.0004997396	0.00068529765	-0.00075401104	-5.7017663e-05	0.00029539395	0.00011082331	0.00085831224	-0.00041629726	-0.00082035107	0.0003893011	0.00089249556	0.00024741582	0.00039191102	-0.00027947783	-0.0003225778	0.0002930941	-0.00048183659	-0.00100348	-0.0007991104	3.588095e-05	0.0010084652	0.00053023704	-0.00014854204	-0.00084920437	-0.0006821062	0.00086501497	5.7451678e-05	-0.00043272888	0.00016602722	-0.0002997834	0.00074414146	0.0004933459	0.00011804599	-7.112557e-05	-0.00041821276	-0.00017417413	5.9510192e-05	-0.00024236168	-0.0002839664	0.00038949284	0.00013918457	-0.00027936828	0.00047959748	-0.00015979428	-0.00045941505	-0.00067091204	-0.000119009754	0.00094998284	-0.00017113083	6.517757e-05	4.5162247e-05	-7.4257805e-05	4.4107096e-06	0.0001500821	0.00038313845	-0.0004592022	-0.00052332383	-0.00047448275	-0.0011139525	-0.0011393282	0.00017162894	0.00014640648	0.0005739006	0.00033853867	-0.00010871047	-6.0608698e-05	-0.00025771608	-0.0011537899	-3.984741e-05	0.0009953236	-0.0009916454	-0.00051392976	-8.36601e-05	-0.00011721801	-0.0005027088	0.0010289118	-0.0005103972	7.890432e-05	0.00041860345	0.00070329354	0.00029589937	0.00018579583	0.00048862235	-2.5306284e-05	0.0007653259	-0.00016303732	0.0005109489	0.0007585494	0.00042492742	0.0007389882	-0.00014146105	-1.8740035e-05	-0.0009913252	-0.00032119302	-0.00047663262	-2.9918563e-05	0.000288064	-0.000895554	0.0013579824	0.00014794474	0.00067413464	0.00017069843	-0.00037437386	-0.00064642855	-0.0009734211	2.8127513e-05	-0.00055797264	-0.0002319952	0.0008417624	-0.0005148364	3.864589e-05	0.00015334395	-0.0015658044	-0.00077376276	-0.0005727522	-8.8547145e-05	-0.00028052102	0.0005055527	-0.0010732732	-0.00021926318	-0.0003325132	0.00021938405	-0.00012812261	-0.00029687287	-0.000603713	-0.00035784626	-0.00095582375	-0.00012666872	-8.1959995e-05	0.00010689746	0.0004441895	-0.00061889074	0.00014749914	0.00046822915	0.000366869	0.00033480764	-0.00024819523	-0.00057302177	-0.0010237052	-0.0003482607	0.0006217476	0.0005326183	0.00054906495	-0.00018667996	-0.00041239115	-0.0002714854	-0.0003060391	-0.0005441637	0.0002716441	0.00058302697	-9.474894e-05	0.00047239452	0.00015696241	-0.0006384474	0.00023515668	0.00023658236	0.00012150566	0.00023570463	0.00037173645	0.0005873809	-0.00035820226	-0.00019623754	0.00011715419	0.0007222228	-0.00049901684	-0.00015078043	-0.0004377142	0.000490206	4.2737578e-05	-0.00015981698	0.00034876156	-1.25548495e-05	-0.00013891014	0.00045908484	6.704865e-05	0.00020667899	4.294638e-05	0.00016734801	0.00021428817	0.00020717934	1.3909866e-05	-0.0002876225	0.000736513	0.00095316936	-0.00042429438	9.3968236e-05	-0.00081321393	0.0006822099	0.00014150258	0.0008614289	-0.00033367204	3.539705e-05	0.00017757942	-0.0007525832	0.0010390865	0.0013835351	0.00065089465	2.727836e-05	0.00037338983	0.00030209543	-0.00018646735	0.00023009955	-0.00048455226	-0.00019978336	0.00028334785	-0.00017197705	0.0006593091	0.00016037638	0.0006585626	-0.00039920595	-0.00077815977	0.000429733	-0.00010465571	0.00094776327	-0.0011444609	-0.0005066434	-0.00091954105	0.0008940464	-7.9442165e-05	0.00061020284	-0.00024837215	0.0015011855	0.0014223503	-0.00012210677	-0.00010582635	-0.0007796639	-0.00053948123	-9.350265e-06	0.0010671901	-0.0005039021	0.0004970679	2.3028095e-05	0.00016048648	-0.0005344642	-9.743896e-05	0.00069093396	0.00030744867	0.001063563	-0.0003590393	-0.0002491967	-0.0004672419	-8.494578e-05	-0.00065330695	-0.00029011825	-0.00027842112	0.0005047331	9.0143e-05	0.00012954633	0.0005917915	-0.00013281252	-0.00023334539	-0.00028112234	-0.00068486034	0.00013970553	0.0009440917	-0.00030062164	-8.986285e-05	0.00026879998	0.0009079491	0.000266674	0.00027431452	0.0006850397	6.0692506e-05	0.00015418307	-0.000375302	-0.0004214561	0.0001698032	0.00020830466	0.00018571528	6.3903826e-05	-4.7146383e-05
Variogram_10																																																																																																																																																																																																																																																																																																												
Variogram_11	0.0005008896	-0.0010759182	-3.110155e-05	4.6337413e-05	-0.0003745453	0.0004785849	0.0005423001	0.00039160892	0.000117594376	0.00047143735	-0.0003733975	-0.00035185102	-4.9004448e-05	-0.0012153419	0.00090490934	-0.0005670017	0.00041506204	-0.00079264987	-0.00019517436	0.00030525817	-0.0011059479	0.00026674184	0.0013598567	-0.00026221733	-0.00025809938	0.0004900601	0.0005218141	-0.0008377123	-0.00033524563	0.0004997396	0.00068529765	-0.00075401104	-5.7017663e-05	0.00029539395	0.00011082331	0.00085831224	-0.00041629726	-0.00082035107	0.0003893011	0.00089249556	0.00024741582	0.00039191102	-0.00027947783	-0.0003225778	0.0002930941	-0.00048183659	-0.00100348	-0.0007991104	3.588095e-05	0.0010084652	0.00053023704	-0.00014854204	-0.00084920437	-0.0006821062	0.00086501497	5.7451678e-05	-0.00043272888	0.00016602722	-0.0002997834	0.00074414146	0.0004933459	0.00011804599	-7.112557e-05	-0.00041821276	-0.00017417413	5.9510192e-05	-0.00024236168	-0.0002839664	0.00038949284	0.00013918457	-0.00027936828	0.00047959748	-0.00015979428	-0.00045941505	-0.00067091204	-0.000119009754	0.00094998284	-0.00017113083	6.517757e-05	4.5162247e-05	-7.4257805e-05	4.4107096e-06	0.0001500821	0.00038313845	-0.0004592022	-0.00052332383	-0.00047448275	-0.0011139525	-0.0011393282	0.00017162894	0.00014640648	0.0005739006	0.00033853867	-0.00010871047	-6.0608698e-05	-0.00025771608	-0.0011537899	-3.984741e-05	0.0009953236	-0.0009916454	-0.00051392976	-8.36601e-05	-0.00011721801	-0.0005027088	0.0010289118	-0.0005103972	7.890432e-05	0.00041860345	0.00070329354	0.00029589937	0.00018579583	0.00048862235	-2.5306284e-05	0.0007653259	-0.00016303732	0.0005109489	0.0007585494	0.00042492742	0.0007389882	-0.00014146105	-1.8740035e-05	-0.0009913252	-0.00032119302	-0.00047663262	-2.9918563e-05	0.000288064	-0.000895554	0.0013579824	0.00014794474	0.00067413464	0.00017069843	-0.00037437386	-0.00064642855	-0.0009734211	2.8127513e-05	-0.00055797264	-0.0002319952	0.0008417624	-0.0005148364	3.864589e-05	0.00015334395	-0.0015658044	-0.00077376276	-0.0005727522	-8.8547145e-05	-0.00028052102	0.0005055527	-0.0010732732	-0.00021926318	-0.0003325132	0.00021938405	-0.00012812261	-0.00029687287	-0.000603713	-0.00035784626	-0.00095582375	-0.00012666872	-8.1959995e-05	0.00010689746	0.0004441895	-0.00061889074	0.00014749914	0.00046822915	0.000366869	0.00033480764	-0.00024819523	-0.00057302177	-0.0010237052	-0.0003482607	0.0006217476	0.0005326183	0.00054906495	-0.00018667996	-0.00041239115	-0.0002714854	-0.0003060391	-0.0005441637	0.0002716441	0.00058302697	-9.474894e-05	0.00047239452	0.00015696241	-0.0006384474	0.00023515668	0.00023658236	0.00012150566	0.00023570463	0.00037173645	0.0005873809	-0.00035820226	-0.00019623754	0.00011715419	0.0007222228	-0.00049901684	-0.00015078043	-0.0004377142	0.000490206	4.2737578e-05	-0.00015981698	0.00034876156	-1.25548495e-05	-0.00013891014	0.00045908484	6.704865e-05	0.00020667899	4.294638e-05	0.00016734801	0.00021428817	0.00020717934	1.3909866e-05	-0.0002876225	0.000736513	0.00095316936	-0.00042429438	9.3968236e-05	-0.00081321393	0.0006822099	0.00014150258	0.0008614289	-0.00033367204	3.539705e-05	0.00017757942	-0.0007525832	0.0010390865	0.0013835351	0.00065089465	2.727836e-05	0.00037338983	0.00030209543	-0.00018646735	0.00023009955	-0.00048455226	-0.00019978336	0.00028334785	-0.00017197705	0.0006593091	0.00016037638	0.0006585626	-0.00039920595	-0.00077815977	0.000429733	-0.00010465571	0.00094776327	-0.0011444609	-0.0005066434	-0.00091954105	0.0008940464	-7.9442165e-05	0.00061020284	-0.00024837215	0.0015011855	0.0014223503	-0.00012210677	-0.00010582635	-0.0007796639	-0.00053948123	-9.350265e-06	0.0010671901	-0.0005039021	0.0004970679	2.3028095e-05	0.00016048648	-0.0005344642	-9.743896e-05	0.00069093396	0.00030744867	0.001063563	-0.0003590393	-0.0002491967	-0.0004672419	-8.494578e-05	-0.00065330695	-0.00029011825	-0.00027842112	0.0005047331	9.0143e-05	0.00012954633	0.0005917915	-0.00013281252	-0.00023334539	-0.00028112234	-0.00068486034	0.00013970553	0.0009440917	-0.00030062164	-8.986285e-05	0.00026879998	0.0009079491	0.000266674	0.00027431452	0.0006850397	6.0692506e-05	0.00015418307	-0.000375302	-0.0004214561	0.0001698032	0.00020830466	0.00018571528	6.3903826e-05	-4.7146383e-05
Variogram_12																																																																																																																																																																																																																																																																																																												
Variogram_13																																																																																																																																																																																																																																																																																																												
Variogram_14	0.0010016173	-1.4920258e-05	-2.0314248e-05	0.0011823176	-0.0013265995	-0.00081432227	-0.0003412895	0.00035776224	-0.001267033	0.0012643671	-0.00019010069	-0.00011766739	-0.0004564058	0.0014603041	0.00015277643	-0.00083617016	-0.0010492592	-1.9411833e-05	0.0016591422	0.0001464854	0.0008098734	-0.00024704754	0.0006116499	0.0007283256	-0.0015984465	-0.000298923	0.0016657893	-0.0010206153	0.00070862216	0.00059344084	-0.0013491684	-0.00023595651	-0.00027900268	0.0015575031	0.0010715356	-0.0012012107	-0.0016231271	0.0011879826	1.7221786e-05	-0.00068787026	0.00018316564	-0.00062647444	0.0015536683	-0.0011088775	-0.0016063538	-0.0015478921	0.00076733046	-0.00065022777	0.0009469603	0.00094441144	-0.0015450615	0.00013958942	0.0008592667	-0.0006034137	-0.00028428598	-0.0005385377	0.00029128097	0.0013291847	0.0015235117	-0.0012434225	-0.0011381247	0.00034381545	0.0011787023	-0.00047714254	-0.00013536176	-0.0014710416	0.00048885855	0.00078453746	-0.0004403184	-0.0007920818	-0.00023941179	-0.00018319352	-0.00020003252	-0.0015931444	-0.0011342004	-0.0010903616	-0.0005866184	0.001345232	7.2153765e-05	0.0014380338	0.00056990824	0.0011085715	-0.0015064597	-0.00035935573	-0.0013859282	0.0016477803	9.378065e-05	0.0011076493	0.0012551148	0.00097398664	-0.00084611075	0.00042686975	6.3037754e-05	0.0003467815	-0.00029274574	-0.0015150164	0.0010216456	0.0013676101	8.711284e-05	-0.0012692122	0.0014848704	-0.0012093835	0.00037152582	-0.00017996234	-0.00097607594	0.00052616926	0.0013277141	-0.0002496436	0.00012894197	0.00018011384	0.0013838629	-0.0015415292	0.00048847706	-0.001466896	-7.579736e-06	-0.00036149094	0.0011419647	0.001173171	0.00059254095	-0.0015469198	0.0015785692	9.8841156e-05	-0.0004187044	-0.00050656626	-0.00032411676	6.0403923e-05	-0.00087210257	-0.0016482875	0.00059281196	0.0012453739	-0.0015787235	-0.00020437052	0.0003264409	-3.7805698e-06	-1.13138585e-05	0.0005439863	-2.980921e-05	0.0016547187	0.00044085472	-0.00092623424	4.6634857e-05	-8.064643e-05	0.00043358663	-0.00014335035	-0.00030361235	0.00048302262	-0.0009571082	-0.0015004657	0.00041834096	0.001255121	-0.0004021121	-0.0006849399	0.0004812479	-0.001490511	6.790994e-05	-0.00032736472	-0.001369533	-0.00025757676	0.0013016419	-0.0001959197	0.00078305387	0.0014897131	0.0015117816	-0.0015655976	0.0011339337	-0.0008991104	-0.001405969	-0.00031845324	0.0015325319	0.0014545775	-0.0010598577	0.0015224738	0.0011003555	0.0013693877	-0.0010708906	-0.0013599998	-0.00037108833	0.0015453158	7.112891e-06	0.0013176525	0.0008455265	-0.0004021462	-0.0010240455	-0.001564784	0.00039290346	-0.00056380994	-0.0002908007	0.0001506117	-0.00038799163	-0.0006238805	1.2682568e-06	-0.0010735446	-0.0015421596	0.0003274863	0.001181613	0.00056248123	-0.0007663449	0.0013902193	-0.0011454248	-0.00022598554	0.00048281957	0.0011789274	-0.00083546806	0.0014786809	-0.0012044605	0.0006688322	-0.0013054571	-0.00164225	0.0005708087	-0.0016528298	0.0007586343	-0.0004466463	0.0011570833	0.0015141865	0.00037406123	-0.00093119836	-0.0007742202	-0.0011235626	-0.0008451004	-0.0007697077	0.0010537939	0.0015158136	-0.000111801586	-0.0011025569	-0.00046781564	0.00014264732	0.0005252386	-0.000236291	-0.0016482008	0.0006728388	-0.001149405	-0.0014451034	-0.00040407112	0.0007753531	-0.0006767046	-0.00024548805	-0.0009808181	0.0013243546	-0.00084323715	6.602416e-05	-0.00022765058	-0.0014368217	-0.0011957356	0.00012743585	0.0005604993	-0.00031069614	-0.00067740114	0.00015501794	-0.000894369	0.0005612929	-0.0015023702	-0.0003410607	-0.00123341	0.001422737	0.00012339765	0.0016463781	-6.2288025e-05	-0.00082815054	-0.00048622477	-0.001488383	-0.0003697547	-0.00029792922	-0.0013671787	0.0013327361	-0.0015206971	0.001067086	0.0003862272	-0.00139477	0.0004986215	-0.00066536426	0.0005863129	0.00080811477	0.0014787322	-0.0012941903	0.00038091317	0.0013408967	-0.0012751465	-0.00046744407	-0.0008215752	-0.0012145498	0.00023588458	0.0010320501	-0.0013937779	0.0014758961	0.00029142073	-0.0005641692	0.00023558865	-0.00053406495	-0.00055276306	-0.0012569128	-0.0016442899	-0.0013495823	0.00012167193	0.00048620117	9.1944064e-05	6.297227e-05	-0.0016127218	-0.00021012803	-0.00094628136	0.0011003632
Variogram_15	0.00017084065	-0.0003692146	-0.00042860195	-0.00044958317	0.000114042	0.00025973245	-0.00068932585	0.00033927412	-8.4250634e-05	0.00045679466	-0.00014131123	-0.0002149304	0.00012320427	-3.1449683e-05	0.00023404077	-0.0002864852	0.0003193543	-0.00044741057	0.0005009721	-0.00023428616	-0.00011620047	0.0003242544	0.0007319559	-0.00016040538	-0.000665203	0.00031653207	0.00017550886	-0.00023975817	-0.000265626	0.00013963763	6.240968e-05	0.00016848579	-7.8886114e-05	0.00034214184	0.00031929353	-4.2922937e-05	-3.726516e-05	-0.00044208232	9.837919e-05	-0.0003782848	0.00035054953	-3.827051e-05	0.000112986905	-0.00012223898	9.214627e-05	-0.00043566772	-0.00024421947	-0.00068803784	0.00015938368	0.00076986436	-0.00019557877	-0.00015095121	-0.0001948895	-0.00047948764	-2.1763844e-06	-0.00027174427	-0.00042278745	0.00054953207	-0.00021545736	-0.00021083362	0.00047693812	0.00032019388	-9.11997e-05	0.00016340167	1.6775051e-05	-4.2806296e-05	0.00019637072	0.0005627054	0.00014071188	-0.00025814053	-0.00029762782	-0.00032467925	0.00044309464	-0.0005844678	-0.00044339735	7.101759e-05	0.00026920153	0.00022933305	0.0002659073	-1.6578415e-06	4.2391333e-05	0.00046122278	6.835609e-05	5.9344744e-05	-0.00031557554	0.000134777	0.00016753376	-0.000381004	-0.00025322734	-4.8448423e-05	-0.00059259916	0.000309108	0.00023869227	-1.0841443e-05	-0.00040430174	5.1545077e-05	-0.00014977668	0.00040266482	0.00029701737	-0.00021270874	-0.00019244428	5.8249157e-06	0.00016186612	-0.00045155283	1.25055e-06	-0.0004564507	0.0007126541	-0.000120054065	-0.00023947812	0.00019814516	0.0002000235	-0.0007468527	0.00017937356	4.172505e-05	7.453303e-05	-4.414414e-05	0.0004519883	0.00037644757	0.00062263885	-0.0006067752	0.00031681574	0.00013480932	-0.00033760356	-0.00044574993	-0.00032654006	0.00022135933	-0.00062277535	0.0006181691	-1.7697457e-05	6.996293e-05	-0.00039331082	-0.00055936055	3.6202808e-05	-0.00027994145	-1.4016031e-05	0.0001645938	-0.00023865563	0.0006352578	5.1541287e-05	-0.00044934853	6.0900282e-05	-0.00060766056	-0.00055562455	-0.00035087412	7.332895e-05	0.00016063715	-0.0003028592	-0.0007059059	-0.0002325576	0.00028920948	0.00020486946	-0.0005246327	-0.0002485762	-0.00018437582	-0.00070173945	-7.085977e-05	-0.00013619519	-0.00060151063	0.00020460911	-0.00013748162	2.4245188e-05	0.00066100183	0.0002841552	-0.00025620914	-0.00022288473	-0.00031872894	-0.00062398455	-0.00039963008	0.00025961405	0.0002593633	-0.00010668211	0.0005536104	6.039105e-05	6.5254346e-05	-4.3337317e-05	-0.000520081	7.419644e-05	0.00024107864	-0.00025280123	-0.00017718224	9.952512e-06	8.681448e-05	-0.0010540017	-0.00062765036	0.00022553417	-0.00036459675	0.00034621503	7.585662e-05	-0.00016824025	-5.0520055e-05	0.0006442371	-3.1223422e-05	0.00028165983	-0.00028435964	2.7471307e-05	-0.00021080881	-5.859781e-05	-0.00017844501	-0.0006580752	-0.00041527985	0.00016836233	0.00015163804	0.00031295247	8.977474e-05	3.4089662e-05	-0.00056834845	-0.00040655895	-0.0005163124	0.00020021829	-0.00031178977	-0.0004413724	7.977091e-05	0.0006625964	-0.00011982426	0.00019077028	0.00023262702	6.1313614e-05	8.979178e-05	-0.00035909892	-0.00043814952	-0.00035822138	0.00023131187	-0.00038270926	-0.00013090907	0.00023906307	0.00035866007	-0.000304548	-0.0002518667	0.00044391918	0.00047181913	-0.00029045125	-0.00068509916	-0.00031028967	-0.00024288392	-0.0003281627	5.4547196e-05	0.00057739037	0.00051458506	-0.0006504886	-0.00033184505	-0.0004018247	-0.0005054228	0.00019627121	-0.0002652116	-0.00013371579	-0.00026898916	0.00054894865	0.00037690345	-0.00021952631	-0.00023743005	4.2677857e-05	0.0005003782	-0.00030555116	0.00025390062	0.00018867399	-0.00019673587	-0.0007354387	4.763272e-05	-0.00058529794	0.00012198634	-0.0003322901	0.0006047777	-0.00033576027	8.005318e-05	0.000598305	-8.084454e-05	0.0008583079	-0.00038965954	0.00034499515	0.00010165221	-5.515591e-05	0.00015348606	0.00013452409	-0.00017637307	0.0001544132	-0.00011845666	9.318783e-05	-0.00033501902	-0.0006029349	-0.0009600961	-0.00018669246	-2.4421823e-05	0.00017872314	0.00048128382	0.00025575855	1.3355681e-05	-0.000636431	0.00030731593	-0.0002791623	-0.0002017485	-0.0002025891	0.00035364574	-3.571476e-05	-0.00010690437	-0.0005649278	-0.00013370348	-0.00047290465	0.00037693672	-0.00054525735	0.00039161442
Variogram_16	-9.464973e-06	-0.00047563078	-0.0006726048	-0.0003848171	0.001176345	0.00014697458	-0.0006095415	0.00049198506	0.0006174301	0.00024429467	0.00050172827	0.00021965448	0.00049772963	0.0004899892	0.00026324159	0.00077150215	0.00016966672	-0.0007012676	0.00011049401	-0.00055068656	0.00047581512	0.00029990802	0.00054092746	0.00018289991	-0.0005079436	-5.6788227e-05	-0.00010758097	0.00013573398	0.00015303734	-0.0005820032	-0.00032682723	0.00075107935	-0.00019334788	0.00028725946	-0.000117764925	-0.00024327356	0.00089540257	-0.000581223	0.00015926207	-0.0005694384	5.92158e-05	-0.00055655546	-0.00073175837	5.5814795e-05	0.000423231	-0.00018415818	-0.0004848246	-0.00032504986	-0.00023309406	0.00012406823	0.0003732912	-0.000720991	-0.00010154136	-0.0005367417	-0.0007141107	-0.00060995633	-0.00035678837	0.00066124357	-0.00058602286	-0.00054046896	0.0007394614	0.00021906472	0.00053103146	-0.00037204055	-0.00025630102	0.0005117988	0.00049470674	0.0009515196	0.00014301503	-0.00083085673	-2.771999e-05	-0.0005334734	0.00043917866	-0.00016866993	-8.079115e-05	0.0002873539	0.00034791106	0.00052451174	4.2557844e-05	-0.000237166	-0.0005197445	0.00022607241	0.0008470605	0.0004992693	0.00050035317	-0.00023098751	0.00034035742	-0.00025941417	0.00016832554	-0.00019478716	-0.0006830379	0.00048934674	0.00031059375	6.1205894e-05	-6.017014e-05	0.0007557898	0.00033684514	0.0002464681	5.644137e-05	0.0009933915	0.00035958513	-0.00011404268	-0.0002636258	-0.0005874722	0.00040628965	-0.00046339427	0.00031962682	-0.0007315339	-0.00019813539	-4.830479e-07	-0.00021212762	-0.0005521939	0.0007372637	-7.3400246e-05	0.00053784635	-7.735973e-05	0.0007771981	-0.0001978152	0.00013490685	-7.605754e-05	0.0003954668	0.0007346785	-4.309722e-05	0.00028886396	-0.0003416019	-5.381297e-05	-0.00043023875	0.00021039252	-0.00052845385	-0.00015229329	-0.00014889664	-0.00030751404	0.00018940795	-0.00014617291	-0.000631038	0.0005290164	0.00017544751	0.0004538408	0.00034990566	0.000317828	0.00016096368	-0.00030595931	-0.00023039272	0.0002033471	-0.0005178309	-5.767276e-05	-0.00027640729	0.00018566295	-0.00047530263	-0.00073908584	-0.00046434585	0.00020271234	-0.00030227203	0.00048867526	-0.00051492907	0.00027149628	-0.00032244786	-0.00041727032	0.00013702313	-0.00019233485	0.0008264437	3.3122804e-05	-0.00037629475	-0.00034888755	-0.00011637619	0.0004984223	-0.00047171052	0.0001255231	0.0006649436	0.00027557646	-0.00048366934	-3.2833952e-05	-0.00069583266	-0.00037570676	-0.0005163249	-0.0002876777	0.00015572165	-0.00039949836	-0.00039248756	0.00030091516	-0.000840281	0.000239343	-0.00069992116	-0.00081785454	0.00032366934	-0.0008216711	0.00018857421	-0.00027239564	-6.8575515e-05	-0.00018667654	0.0006328605	-6.854591e-05	0.00028015632	7.100137e-05	-0.00065233646	0.0006121717	0.00018598772	-0.00042973395	-0.000259145	-0.0009584087	-0.00054959155	-0.0007812728	-0.0005289677	0.00012763168	-0.00019093075	-0.00031501125	-0.00040776725	-0.0007435765	-5.1464333e-05	-0.00013906826	0.0003156899	-0.00016443463	-0.00012537485	6.11059e-05	0.00010278355	0.00083210843	0.00030377868	0.00047621402	-0.00058756245	-0.0006677954	-0.00034456069	-9.3669085e-05	-0.00037331975	-0.00025148861	-0.00021793603	0.00038641095	-0.0003269373	-0.0002618338	0.0005255103	0.00037211739	-0.00033816946	-0.0008269282	0.00031169195	-0.0010619069	-0.0005002521	-0.0009807679	0.00023035321	0.0007384323	-0.00025933492	-1.6432896e-05	-3.4408535e-05	-0.00059749023	0.00015579161	0.00029736344	-6.644919e-05	0.00036338493	0.0008680384	0.0003554996	-0.00038212715	-0.00062176085	0.00017058747	-0.00029118356	0.00025289337	-0.000602832	0.0011549994	-0.00017663659	-0.00040602832	-0.00013018315	-0.00037640642	-2.3793811e-05	0.00021979473	0.00063035573	0.00050675997	-0.00026026618	0.0010966214	-0.00030984503	0.0002456872	-0.0005808446	0.00041902642	0.00078701915	-0.00010087613	-0.00026923278	0.00092620606	-0.00083427224	0.00014276916	-0.00051768805	0.0002165935	-0.00057878654	0.00037261785	-0.0006144033	-0.00043742065	-0.0006686038	4.4637454e-05	0.00028643833	0.0004193462	0.0007666734	-0.0002964866	-0.00014594362	-0.0005173563	-0.00048959244	1.8835057e-05	0.00045289184	-6.264177e-05	-0.00061040296	-0.00024093295	-0.00041680498	-0.00059465726	0.0004969027	-0.00021003731	0.0010105645
Variogram_17	-0.00016928789	-0.0002883404	-0.00052299036	-0.0003264805	0.001207082	0.00036961093	-0.00068930775	0.0001679367	0.0005321664	0.00031062882	0.00041567432	-3.3931163e-05	0.0005017575	0.00051331247	0.00017379253	0.00049675186	0.00044970514	-0.0006606167	2.5042898e-05	-0.00068148295	0.0007957281	0.00039717785	0.00067327835	2.111829e-05	-0.00050556514	0.00027076164	-0.00028418627	6.096964e-06	-0.0002211108	-0.00034998378	0.00012177522	0.0008624504	2.913867e-05	0.00035998708	-0.00027269864	-0.00011804672	0.000824105	-0.00024349125	-0.00013698853	-0.00078688544	3.3882352e-05	-0.000355698	-0.0006487069	2.2602657e-05	0.00040436306	-0.00026110647	-0.00044418502	-0.00031495045	-4.8702947e-05	0.00030717844	0.00027238065	-0.0005078025	-0.00031208657	-0.0006537417	-0.0006932098	-0.0005105564	-0.00059546623	0.0004361745	-0.00041241784	-0.00027069717	0.00066427473	0.0001297094	0.0005353332	-0.00022445834	-0.00032607818	0.0005925754	0.00034232414	0.0007259568	0.0003211973	-0.00089799985	4.8855596e-05	-0.0008617333	0.0003426514	-0.00012249933	0.00013828074	0.00035605067	0.0004531553	0.00053730287	7.748695e-05	-0.00019823633	-0.0003639495	0.00019837033	0.000794939	0.00030235283	0.0005118162	-5.6736913e-05	0.00039087806	-0.00017887498	6.8124704e-05	-0.0003291676	-0.00063412037	0.00032653532	0.0001730933	-0.00013098911	-5.2756757e-05	0.00076957664	0.00015599547	0.00014167893	3.6386886e-05	0.00068809226	0.00024009062	-1.50221695e-05	-7.271771e-05	-0.00047155173	0.00019945325	-0.00054304063	0.00036106788	-0.00065424095	-0.00039731187	-3.618199e-06	-0.0001058091	-0.000630268	0.00039995453	0.00017828931	0.0005692845	1.4063648e-05	0.00042691475	2.9045814e-05	0.00016206951	-0.00021512214	0.0002293254	0.00075013883	0.00024939573	0.0004486572	-0.00033293513	5.1304665e-05	-0.000117494536	0.0004109866	-0.00040869592	6.799577e-05	7.300155e-05	-0.00044924274	0.00038168795	-0.00023464208	-0.0003701445	0.00061574095	-7.8473364e-05	0.00036693734	0.000106603446	-6.22598e-05	-1.2342882e-05	-0.00021657311	-0.0003874015	0.00021893275	-0.00036853369	-9.63694e-05	-0.00045832133	1.3723885e-06	-0.00031862827	-0.00034885595	-0.0004887692	-2.7119542e-05	-0.0003470284	0.0003233585	-0.00031785353	0.00031395053	-0.00024422733	-0.00027531886	0.00012635508	-0.000104215804	0.0005540917	-3.7245733e-05	-0.00035555288	-0.0003730592	-0.0003386024	6.177737e-05	-0.00045820253	0.000121593774	0.0004830266	1.3585906e-05	-0.00031276394	-0.00015858404	-0.00048335528	-0.00011108224	-0.00046677448	-0.00025756768	0.00042606678	-0.00042408647	-0.00039549023	3.3632215e-05	-0.00046101483	0.0002534899	-0.00064613245	-0.0006153499	0.0003062743	-0.0007905877	0.0001401971	-0.0002372819	-9.5315554e-05	-0.0003820435	0.0006504484	3.801788e-05	0.0002989223	-9.6705044e-05	-0.0006121486	0.00035470503	0.00031939324	-0.00044754884	-0.00037174392	-0.0006672729	-0.00057664735	-0.0004950318	-0.0002532073	0.00012552383	-6.7594745e-05	-0.00037941316	-0.00024333718	-0.0004890132	-6.7871064e-05	-0.00016314913	0.00024870774	-0.00016333042	-2.0738437e-06	-4.807122e-05	0.00029472364	0.0008747762	0.00022597713	0.00037130344	-0.0007642303	-0.00053047424	-0.00012959096	-0.00018235658	-0.00033046963	-0.00035031064	-8.990008e-05	0.00042873062	-0.00042829607	-0.0002579233	0.0005382742	0.00037473423	-7.917823e-05	-0.00084819546	0.00039042364	-0.0011809826	-0.0005452354	-0.00084091537	0.00042631934	0.00059938495	-0.00035632512	-9.034481e-05	-0.00012236171	-0.0007042691	0.00030141816	0.00035057665	-8.811674e-05	0.00023047537	0.0009810963	0.0004284282	-0.00058317767	-0.00038531853	0.00020494706	-0.00023060483	0.00042081374	-0.00026658995	0.00090716017	-0.00022530496	-0.0006617587	-0.0001038826	-0.0005147523	-2.1987897e-05	-1.8810662e-05	0.00068741903	0.00012663878	-0.00022246846	0.0009657532	-0.000293388	0.0004598451	-0.0005001517	0.00046555753	0.00088120805	-0.00010357799	0.00011125211	0.00059052685	-0.0008571366	2.3227185e-06	-0.000530598	0.00030846286	-0.00048051233	0.00027922273	-0.0008375656	-0.0004932357	-0.00061353453	0.0002099011	8.726932e-05	8.822061e-05	0.00047817963	-0.00037832872	7.945327e-05	-0.00029765765	-0.00059592345	-7.015383e-05	0.000539288	-3.6723763e-05	-0.00066881016	-0.00040429647	-0.00021371985	-0.0002401127	0.0002588041	-0.00022837435	0.0007555267
Variogram_18																																																																																																																																																																																																																																																																																																												
Variogram_19	-0.00042621972	-0.00050736306	-0.00042021956	-0.0003285736	0.0013331231	0.0006337652	-0.0006568343	0.00021322875	0.00069346256	-9.4237446e-05	0.0006099946	0.00033341022	0.0001485059	0.0006993205	0.00036733586	0.00094544044	-1.2092642e-06	-0.0005743888	0.00016651498	-0.00053196633	0.0008861009	0.000261906	0.0008638728	0.00065371767	-0.0004495747	0.0003771428	-8.4240804e-05	-2.9804192e-05	0.00016165717	-0.00020815842	-9.71297e-05	0.0007349817	-0.00042603357	-6.812948e-05	-0.0004396962	-0.0005785879	0.0005377199	-0.00054648414	2.2575405e-05	-0.00036482184	8.688329e-05	-0.000793995	-0.00094311486	-5.963274e-05	0.00018274842	2.8646435e-05	-0.00046474923	-0.00030643068	-0.00037079988	0.0004965739	0.0008117746	-0.00015001555	0.0002475861	-0.0008531367	-0.00011590328	-0.00042230505	4.8519432e-05	0.0005395394	-0.0007155389	-0.0007602366	0.0009701433	0.00017070747	0.0004657128	-0.00040285985	-0.0005285981	0.00058448414	0.00066126685	0.0005706792	-3.458288e-05	-0.0012595654	0.0004607172	-0.0008909375	7.011471e-05	-1.2246164e-05	0.00021333518	8.9462425e-05	-8.841444e-05	0.00029216625	9.91594e-05	-0.00042930938	-0.00076828717	-0.00022285561	0.0005464402	0.000647445	0.00075130863	-0.00027048012	-1.5134676e-05	-0.00045709527	0.0001234625	-0.00015458712	-0.00020869292	-9.3625276e-05	-1.5411119e-05	0.00031600895	0.00012329507	0.0011100763	0.000198138	-1.1925724e-05	9.9331075e-05	0.00067927054	0.00045152803	-6.559328e-05	-7.171137e-05	-0.00071951636	6.1635874e-05	-0.0006222862	0.00057012425	-0.0009075849	-0.00062495854	-0.0003003151	-0.00043666974	-0.000889607	0.0005557614	-4.3782755e-05	0.0007741095	-0.000575625	0.00015373841	-0.00069021224	-1.340561e-05	3.0872558e-05	7.507915e-06	0.000572059	0.0002946019	2.019995e-05	8.6197775e-05	-0.00013046886	4.3439286e-06	0.00018569638	-0.0006526849	0.00013484148	0.0002625179	2.6729627e-05	0.0003071693	0.00011125507	-0.0007535449	0.0006459249	-0.00026905938	-0.00010765738	6.416648e-05	0.0005363613	0.00020281874	-0.00080784754	-0.00016057973	0.00027203106	-0.00048106673	-0.0003025977	-2.115445e-05	0.000523281	-0.0003945008	-0.00031741287	-0.00048587183	0.00019339059	-0.00037955696	0.0003156072	-0.00044463674	6.239634e-05	-0.0005186586	-0.00022227933	0.00034173927	-0.00011032602	0.0008214293	1.9903639e-05	-0.0003528753	-0.000496103	-4.0380644e-05	0.000103847306	-0.00018701411	8.4140105e-05	0.00074885105	0.00040371023	-0.00026769348	-0.00017547197	-0.0006376692	0.00014032438	-0.0005438824	-0.00036776357	0.00020062784	-0.0006228016	-0.00018817165	6.619487e-05	-0.00043115488	0.00014995498	-0.00055013	-0.0002799429	0.00026731746	-0.0008616345	-4.856102e-05	-0.00057720696	-9.305517e-05	-0.0002367955	0.00079215015	-2.5519883e-05	0.0002466589	2.664388e-05	-0.00042777436	0.00052356254	0.00034440053	-0.0009234721	-0.00017291286	-0.0007353871	-0.0006175063	-0.00051064277	-0.00044396668	0.00024978435	-7.867586e-05	-6.287107e-05	-0.00028071116	-0.00040236855	4.870513e-05	-2.1383516e-05	0.000424055	7.194138e-05	-0.00026103968	0.00016102046	-5.9103142e-05	0.0007516502	0.00048603085	0.0007701901	-0.00068885984	-0.00076706044	-0.00047652074	-2.2166787e-05	-9.689978e-05	-0.00048736884	-0.00030916635	0.0003581766	-0.00038682067	-0.0004161144	0.0006642844	0.00012148927	0.00022105967	-0.00048673106	0.0006385508	-0.0011778628	-0.00047807264	-0.0010849172	9.9321594e-05	0.00057522784	-0.00037746684	-0.00039329677	0.00010617769	-0.00087902264	-0.00022491282	0.00026743615	-1.4952529e-05	-0.00023214793	0.0008646423	0.00022566703	-0.0008464906	-0.00029158936	0.00034325136	-0.0003355056	0.00044983465	-0.00065113965	0.0012447269	-0.00029474188	-0.0005135106	-0.00023866691	-0.00046082528	5.416179e-06	0.00012815822	0.00040353686	0.0002772272	-0.00018618462	0.0011026161	-0.0005926064	0.00021025026	-0.0005641053	-0.00017862298	0.00075914816	-0.00036690052	-0.0005507275	0.0009239203	-0.0010584153	7.866972e-05	-0.0008034798	0.00045507145	-0.00017019037	0.00051626534	-0.0002911309	-0.00039603887	-0.000933132	5.1548428e-05	0.0004125542	0.00020283251	3.104494e-05	-0.00039843644	-0.00029405454	-0.0005605845	-0.00052556733	0.00012781339	0.00058317557	0.0006034239	-0.00016620634	-0.00022845679	-0.000722226	-0.00020330945	0.00028979132	6.658306e-05	0.00087356823
Variogram_20	0.0016514453	-0.00070741726	-0.00026236768	0.00020540738	-0.00042689312	0.00078387593	0.0015734078	0.00041630885	0.00089113036	0.0008613479	-0.00080689206	-4.413377e-05	0.00046856145	-0.0015702302	0.0016663782	-0.0011827826	0.00056219794	-0.0016051187	-0.0008482252	-0.00072014664	-0.00031237205	-0.00018831003	0.0015600399	-0.0012826655	-0.0013156894	0.0014601023	-0.0006917176	-0.0010825003	-0.00088037783	0.0015769504	-5.846569e-05	-0.00068081846	0.00042162833	0.0011506424	-0.00081778655	0.001443439	-0.00016694385	0.00044205063	-0.00023102065	0.0012489606	0.00075364485	0.0009458474	-0.0010722232	9.8619676e-05	7.720184e-05	-0.00027525556	-0.0010734403	-0.0013195988	-0.00082616246	0.00071148877	0.00073717535	0.00020703403	1.5159927e-06	-0.00035514816	-0.0004525185	0.00017588369	-0.0010062567	-0.0014909488	0.00047538415	0.0011183269	-0.00052969245	-0.00016031436	0.0009771009	-0.0004087815	-0.0010097534	0.0008874165	-0.00085358234	-0.0005257287	0.00044814372	-0.00092731195	-8.546426e-06	0.0014255792	-0.00020485731	0.0007463296	-8.6421394e-05	0.0006182602	0.001214643	-8.699229e-05	-0.0010526361	0.00025522406	-0.0009867754	-0.00031089966	0.0003832319	-0.00084000296	0.0009294501	-0.00030568964	-2.594389e-07	-0.0015887634	-0.001525065	0.00069380633	0.0015088689	0.0016109403	0.000102156024	0.0002840158	-0.00021942741	-0.00052404136	-0.00080102123	-0.0006155683	0.00067236304	-0.0010128414	0.00048659038	7.2094103e-06	-0.001477964	0.0009106974	0.0012215395	-0.0015899759	-0.00057894614	0.0005823397	0.0012732126	0.0011041203	-0.0010625761	0.0014209513	0.0005613915	0.0010621691	0.0010854469	0.0011845517	0.0008629606	0.00058064575	0.00027105556	0.0006978326	-0.0002586579	-0.0015078739	0.00012257806	0.0012366374	-5.0328104e-05	0.00062790664	-0.0014589096	0.0016058407	0.00040426815	0.0014508377	0.0006765661	0.00026277086	-0.00019868437	-0.0015001723	-5.187576e-05	-5.3655007e-05	-0.0006788699	0.00035740715	-0.0015994872	0.0002055697	-0.0010857806	-0.0015909704	-6.257125e-05	0.0007585394	-0.00090923696	-0.00077701977	0.0009879528	-0.0008286543	0.00010629901	-0.0016357368	-0.0014293187	-0.00014391569	-0.00011388801	0.00036212336	0.00082646275	-0.001134657	-0.0012755198	0.0006442703	0.0010890199	0.0011257483	-0.0015759427	-0.0013939725	-1.6408521e-05	5.422266e-05	0.0004306126	0.00025686037	-0.0013463756	-0.0015826813	-0.0006042271	0.0010580916	-0.000547624	0.0015426583	-0.00052728946	-0.00054037693	-0.0015784547	0.0015236429	-0.001009597	-0.0006528494	0.0012621662	-2.9585564e-05	0.0016202325	0.0009671542	-0.00020200193	0.0009649235	0.0010688778	0.0013564444	-0.00026488298	-0.000627102	0.0014486882	-0.0011999579	-0.0008990561	0.0009994983	-0.000473442	0.0011177607	1.4808343e-05	-0.00044105804	0.00011686009	0.0010890586	0.0012300703	0.0011401976	-0.0011913086	-0.0006338627	0.00040645592	0.00049221254	-0.00092692394	0.00020185922	0.0013374557	0.0004192062	-0.00017386506	0.00058637117	0.00123726	0.0005670545	0.00075820775	0.00022998016	-0.00024641622	-0.00032029842	-0.00011149305	0.0007466053	0.0013914814	0.00052896515	0.0009822905	-0.0010413819	-0.0012324231	0.0005564781	0.0016520707	0.00069965044	8.700427e-05	0.00039334086	0.00017767519	0.00025604464	0.0009288662	-0.00107176	0.0012022442	0.0011118402	2.1113145e-05	0.0013747662	-0.0009782176	0.00019640021	-0.0004397138	-0.0016620355	0.0012587747	-0.00049380364	0.0015968593	-0.0016124422	0.0015947694	-0.0012229674	0.00142552	-0.00011330555	0.0015369187	-0.0005115013	0.0016321355	0.0014016796	0.0007101113	-0.00066069653	-0.0009953198	-0.00014054043	0.0016059761	0.001130422	-0.00082918996	0.0006929416	0.00070145784	0.00026659877	0.0002468512	0.0016624389	-0.0009957512	0.0012525073	0.0013268752	-0.0008698817	0.0011160632	-0.00045051257	-0.00065270497	-0.0014899352	0.0010266168	-0.001411888	0.00092489965	0.0009666249	0.0012132362	0.0015529046	0.00094877684	0.00066572864	0.0011892166	-0.0010563693	0.00014063345	0.0012358206	-0.00097018946	0.00066000986	0.0014906812	0.0010491736	0.0014243916	-0.0007497503	0.00011077138	-0.0014015513	-0.0014024982	-0.0005247067	-0.0015892115	0.0013069418	0.00045959328	-0.00045511554	0.0006481039	-0.0004352524
Variogram_21																																																																																																																																																																																																																																																																																																												
Variogram_22	-0.00016547409	-0.00060582627	-0.00030774192	-0.00024904194	0.00080955203	0.0002527776	-0.00022682115	0.00022272057	0.0002743693	4.9046634e-05	0.000357149	2.5570813e-05	0.00022976201	-1.442765e-05	0.00027622926	0.000317472	0.0002492199	-0.000470389	9.607477e-06	-0.00016767	0.00020445662	0.00028947255	0.00061567896	0.00010719715	-0.00033072385	-3.448046e-05	9.710122e-05	-0.00011793159	4.5097135e-05	-0.00027583202	0.0001907194	0.00028503206	-6.903049e-05	0.00016142511	3.728396e-05	-0.000119879915	0.00035190242	-0.0004800671	5.1023613e-05	-0.000171676	1.4373589e-05	-0.00014629144	-0.00039337482	-6.7692796e-05	0.0003974813	-0.00026170746	-0.00053634547	-0.00026199003	5.7551257e-05	0.0004481099	0.00029775844	-0.00048373482	-0.00044745344	-0.0006254564	-0.00013611159	-0.0003556034	-0.00033240407	0.00041163003	-0.0004518376	-0.00014318683	0.0005794346	6.505557e-05	0.00032478812	-0.0003749781	-9.701889e-05	0.00027913533	0.00025256415	0.00042813565	0.00019063427	-0.00048679402	-4.6119978e-05	-0.00044144323	0.00013487358	-0.00019187409	-9.62723e-05	0.00012457014	0.00037449837	0.0002701004	3.5140944e-05	-0.00018135273	-8.846895e-05	0.00017775477	0.000593317	0.0005301018	7.1658505e-05	-0.00019580885	0.00013489547	-0.00024204764	-0.00016684156	-0.00015180494	-0.0004581035	0.00022370573	0.0003105177	-0.000119954944	6.7719615e-05	0.00046174543	-0.00018286346	6.6864326e-05	0.000140399	0.00034945857	-1.5731239e-05	-5.008606e-05	6.0680988e-05	-0.00054482004	0.00042560973	-0.00017790445	0.000174354	-0.00029442	-0.00011367749	5.895215e-05	0.000119102195	-0.0003309773	0.00021074341	0.0002091181	0.0002476932	7.964789e-05	0.0003959823	4.4931792e-05	0.00029567096	-0.00024133516	0.00030816733	0.00038987218	9.522971e-06	2.2954848e-05	-0.00033810848	-4.5132823e-05	-0.0002996594	0.0004240832	-0.00031314432	7.147734e-05	-4.198201e-05	-0.00027832613	9.898195e-05	-0.00022758669	-0.00018915153	0.00022705772	5.995407e-05	0.0005046965	0.000112922826	3.0356583e-05	0.00023622223	-0.00044484378	-0.00041451867	-5.7417605e-05	-0.00023822435	-6.6340646e-05	-9.174558e-05	-0.000121574085	-0.00025467886	-0.00031495618	-0.00018800136	5.8439466e-05	-0.0002608946	6.3108423e-06	-0.00047827986	-2.6130087e-05	-0.00010108698	-0.00019891589	-3.180057e-05	-4.425129e-05	0.00035104546	0.0002617598	-5.7686288e-05	-0.000108762615	-9.7893106e-05	1.4832729e-05	-0.00022889301	-7.192049e-05	0.00041878218	9.731239e-05	-4.507385e-05	-1.0896936e-05	-0.00029770617	-0.0002073143	-0.00017039444	-0.00044324758	0.000186564	-0.000116209434	-0.00011257877	8.926419e-05	-0.00036390708	0.00022519124	-0.0004697703	-0.00050043495	0.00012634738	-0.0006838712	0.0002244076	0.000116965464	4.8173162e-05	-0.00012430716	0.00037247624	-0.000121592755	0.0003828897	-0.00025148827	-0.00035316547	0.00020562657	0.00033364238	-0.0004893872	-0.000362914	-0.0005411737	-0.00018885749	-0.00037839773	-0.00014813624	9.847591e-05	2.5328793e-05	-0.00017328827	-0.00029195382	-0.00037804808	6.3244166e-05	-0.00017573558	2.2303728e-05	0.0001039767	0.00014237691	-0.00019507579	0.00016074177	0.00031029963	0.00035772298	0.00024582387	-0.00032600152	-0.00056759536	-0.00018353766	2.1747916e-05	-0.00034660136	1.3322399e-05	0.00010267946	0.00023138526	-0.00021195252	-0.000113282666	0.0004338814	0.000144984	-7.2762516e-05	-0.0005738977	3.559606e-05	-0.00073582435	-0.0003758906	-0.0005400728	0.00040146252	0.00064753724	-0.000119553435	-0.00017290792	-1.8801304e-05	-0.00035895655	0.00023923862	-3.4631732e-05	-0.0004255156	7.4053794e-05	0.0006346538	0.0002666455	-0.00034687584	-0.00029874063	0.00045471793	5.1379302e-05	0.00017138182	-0.00015463955	0.00043680228	-0.00019475655	-0.0005397364	8.7750974e-05	-0.00037906156	0.00010673483	-3.3272547e-05	0.00047110574	-6.253496e-05	-0.00027478536	0.00096166786	-0.00027491	0.00037218462	-0.0003586929	7.735959e-05	0.0005317982	-4.0300412e-05	-6.0205723e-05	0.0003179534	-0.0005058139	4.4468095e-05	-0.0003494312	-1.5933824e-06	-0.00029067203	0.00029296454	-0.00055820117	-0.0004172541	-0.00043947925	3.430889e-05	0.0002808877	0.00026142516	0.00025024998	-0.00026427538	8.362829e-05	-0.0003201228	-9.210954e-05	0.00017180109	0.00048091728	0.000121565	-0.00047761394	-0.00012812014	-0.00032582946	-0.00023415886	0.00020687634	-2.3939736e-05	0.0005951084
Variogram_23	0.0014823282	-0.0016516839	-0.0006735773	-0.0014143969	0.0006651117	-0.0009004276	0.0014221673	-0.0012413679	1.5053161e-05	0.00079393515	0.0008459942	0.0007290477	0.0008745637	-0.0008283577	0.00015473927	-0.00027584512	-0.00022814149	0.00093944685	0.0011354744	-0.0014660127	0.00020823177	-0.0014424773	-0.00048863766	0.0008988842	-0.00038092397	-0.00096346304	-0.0011289371	-3.3279783e-05	-0.0005705247	-0.0010779619	0.0011058154	-0.0012535203	0.0013160675	0.0008643695	0.0013100504	-0.0009927533	-8.748564e-05	0.0013708238	0.0007973047	0.0012699123	-0.0010584246	-0.00011724571	-0.0013068942	-0.0007283603	-6.788029e-05	0.00036119277	0.0011203567	-0.0011177137	0.0010490633	0.00027304885	0.001033454	-0.0012612265	-0.00079821807	-0.0012364995	-0.00094094203	-0.0011394058	0.000116221716	-0.0006651392	-0.0005556774	0.00091756484	-0.001098134	-0.0003497518	-0.0011038017	-0.0012006052	0.0006293398	0.000574511	-0.0006861564	-0.0009747477	-0.00038110925	-0.00044689418	-0.00069265015	-0.0003292953	-0.00017823736	0.00043601176	-0.00024924128	0.001147011	0.00057637267	-0.00045015253	-0.0014838172	-0.0016012911	-0.0011756303	0.0015713989	0.0011188707	-0.0016581164	-0.00029658063	0.00076199434	0.0010383757	-0.0005279522	-0.0012966563	5.8710662e-05	0.00043018392	-0.0013467562	-0.0010454421	0.001020161	-0.0013850526	0.00039649248	-0.0016178907	-0.00052612036	-0.0015661591	0.0005098619	0.00052361964	7.331504e-05	-0.0010490284	-9.191488e-06	-0.0005598335	0.0003849445	0.00022603598	-0.0013744042	0.0012429749	0.0011752136	0.0015411961	-0.0004608442	0.0010197584	9.9152705e-05	0.00030214863	-0.0014097764	-0.0008903343	-0.0006391742	0.0009804757	-0.00025925486	0.0014151955	-0.0007528618	-0.0014559333	0.0005308298	0.00046665096	-0.00015232805	-0.0010365839	-0.00050612795	0.0008746585	0.0011172065	-2.5158164e-05	0.0015696569	0.0011477025	0.00031611638	0.0015000292	0.0013636766	0.00100662	0.0007588265	0.0006593409	0.0013081694	-0.0002609962	0.0009824309	-0.00074339815	0.00046929024	-0.00033644476	0.00010752264	0.001534181	0.000293869	0.00055322016	4.0454503e-05	-0.0002631701	0.0010622685	-0.0005073606	-0.00043762373	-0.0006427432	-0.0012459524	-0.0013950958	0.00081680116	0.0003685151	-0.00026443598	0.0014189909	0.001361727	-0.00036848043	-0.00045096033	-8.639619e-05	-0.00122825	0.0013575192	0.00038452083	0.00078555493	-0.0011528982	0.0015117495	0.00097293296	0.0013551031	0.0005087354	9.9721445e-05	0.0016194863	-0.00028626682	0.0009525105	-0.00039611958	0.00093485287	0.00058811024	0.0014787894	0.00032225382	0.0009646771	-0.00072775374	-0.0016473155	0.0012029915	0.0016547189	0.000505884	0.0006847412	-0.00040696163	0.0005060389	-0.0005431601	0.0016026007	-0.00024295792	-0.0013036428	-0.0013228256	-0.00040827965	0.0003164794	0.00010750524	0.0004294442	-0.0010561622	-0.00042035646	0.0016386396	-0.0005007539	-0.00062486087	-0.001337039	-0.0016533316	-0.0010258934	-7.1371585e-05	0.0010183193	-0.0013987967	-0.00071250275	0.00068482925	0.00047155406	-0.00048384094	-3.313026e-05	0.000107302745	0.0015371991	-0.0016183399	-0.0011698566	-0.0009443453	-0.00044313408	0.0014763563	-0.0004992293	0.00028968733	-0.00048238778	-0.0005615294	0.0014749526	0.0016018878	0.0016614497	-0.00070222595	-0.00024299638	-0.00079805066	4.499874e-05	-0.00016950104	0.0013972411	0.0007383591	-0.00074813544	-0.001087926	-0.0009331757	0.00075575843	0.00070494507	-0.0008545508	0.0013952729	0.00064091035	-0.00017817055	0.0001576238	-0.0011357748	0.0010098296	0.0009960925	-0.0013439093	0.0010867082	0.0006265825	-0.0014180773	-0.000981044	-0.00014966681	-0.001455254	-0.0015217477	0.0005648404	-0.0005083903	0.00024792698	-0.0015436868	-9.1383125e-05	0.00012912662	-0.0007314363	0.001161037	0.00029904564	-0.0009887099	0.0007609005	-0.00059024646	-0.00066461734	-0.0011186393	-0.0012903142	-3.1505264e-05	0.00077534595	-0.00065152603	0.00035040168	0.0009947299	0.00033789492	0.0010872317	0.0006174725	-0.0005192497	-0.00046059102	0.00057678454	2.1716555e-06	-0.00054505677	-0.00084158074	-0.00057315023	-0.00041082772	0.0010444389	0.0004549759	-0.00024448274	0.0011573677	-0.00026026476	0.00022317808	-0.0013454458	-0.0010536988	0.0013166948	-0.0009461066
Variogram_24	-9.464973e-06	-0.00047563078	-0.0006726048	-0.0003848171	0.001176345	0.00014697458	-0.0006095415	0.00049198506	0.0006174301	0.00024429467	0.00050172827	0.00021965448	0.00049772963	0.0004899892	0.00026324159	0.00077150215	0.00016966672	-0.0007012676	0.00011049401	-0.00055068656	0.00047581512	0.00029990802	0.00054092746	0.00018289991	-0.0005079436	-5.6788227e-05	-0.00010758097	0.00013573398	0.00015303734	-0.0005820032	-0.00032682723	0.00075107935	-0.00019334788	0.00028725946	-0.000117764925	-0.00024327356	0.00089540257	-0.000581223	0.00015926207	-0.0005694384	5.92158e-05	-0.00055655546	-0.00073175837	5.5814795e-05	0.000423231	-0.00018415818	-0.0004848246	-0.00032504986	-0.00023309406	0.00012406823	0.0003732912	-0.000720991	-0.00010154136	-0.0005367417	-0.0007141107	-0.00060995633	-0.00035678837	0.00066124357	-0.00058602286	-0.00054046896	0.0007394614	0.00021906472	0.00053103146	-0.00037204055	-0.00025630102	0.0005117988	0.00049470674	0.0009515196	0.00014301503	-0.00083085673	-2.771999e-05	-0.0005334734	0.00043917866	-0.00016866993	-8.079115e-05	0.0002873539	0.00034791106	0.00052451174	4.2557844e-05	-0.000237166	-0.0005197445	0.00022607241	0.0008470605	0.0004992693	0.00050035317	-0.00023098751	0.00034035742	-0.00025941417	0.00016832554	-0.00019478716	-0.0006830379	0.00048934674	0.00031059375	6.1205894e-05	-6.017014e-05	0.0007557898	0.00033684514	0.0002464681	5.644137e-05	0.0009933915	0.00035958513	-0.00011404268	-0.0002636258	-0.0005874722	0.00040628965	-0.00046339427	0.00031962682	-0.0007315339	-0.00019813539	-4.830479e-07	-0.00021212762	-0.0005521939	0.0007372637	-7.3400246e-05	0.00053784635	-7.735973e-05	0.0007771981	-0.0001978152	0.00013490685	-7.605754e-05	0.0003954668	0.0007346785	-4.309722e-05	0.00028886396	-0.0003416019	-5.381297e-05	-0.00043023875	0.00021039252	-0.00052845385	-0.00015229329	-0.00014889664	-0.00030751404	0.00018940795	-0.00014617291	-0.000631038	0.0005290164	0.00017544751	0.0004538408	0.00034990566	0.000317828	0.00016096368	-0.00030595931	-0.00023039272	0.0002033471	-0.0005178309	-5.767276e-05	-0.00027640729	0.00018566295	-0.00047530263	-0.00073908584	-0.00046434585	0.00020271234	-0.00030227203	0.00048867526	-0.00051492907	0.00027149628	-0.00032244786	-0.00041727032	0.00013702313	-0.00019233485	0.0008264437	3.3122804e-05	-0.00037629475	-0.00034888755	-0.00011637619	0.0004984223	-0.00047171052	0.0001255231	0.0006649436	0.00027557646	-0.00048366934	-3.2833952e-05	-0.00069583266	-0.00037570676	-0.0005163249	-0.0002876777	0.00015572165	-0.00039949836	-0.00039248756	0.00030091516	-0.000840281	0.000239343	-0.00069992116	-0.00081785454	0.00032366934	-0.0008216711	0.00018857421	-0.00027239564	-6.8575515e-05	-0.00018667654	0.0006328605	-6.854591e-05	0.00028015632	7.100137e-05	-0.00065233646	0.0006121717	0.00018598772	-0.00042973395	-0.000259145	-0.0009584087	-0.00054959155	-0.0007812728	-0.0005289677	0.00012763168	-0.00019093075	-0.00031501125	-0.00040776725	-0.0007435765	-5.1464333e-05	-0.00013906826	0.0003156899	-0.00016443463	-0.00012537485	6.11059e-05	0.00010278355	0.00083210843	0.00030377868	0.00047621402	-0.00058756245	-0.0006677954	-0.00034456069	-9.3669085e-05	-0.00037331975	-0.00025148861	-0.00021793603	0.00038641095	-0.0003269373	-0.0002618338	0.0005255103	0.00037211739	-0.00033816946	-0.0008269282	0.00031169195	-0.0010619069	-0.0005002521	-0.0009807679	0.00023035321	0.0007384323	-0.00025933492	-1.6432896e-05	-3.4408535e-05	-0.00059749023	0.00015579161	0.00029736344	-6.644919e-05	0.00036338493	0.0008680384	0.0003554996	-0.00038212715	-0.00062176085	0.00017058747	-0.00029118356	0.00025289337	-0.000602832	0.0011549994	-0.00017663659	-0.00040602832	-0.00013018315	-0.00037640642	-2.3793811e-05	0.00021979473	0.00063035573	0.00050675997	-0.00026026618	0.0010966214	-0.00030984503	0.0002456872	-0.0005808446	0.00041902642	0.00078701915	-0.00010087613	-0.00026923278	0.00092620606	-0.00083427224	0.00014276916	-0.00051768805	0.0002165935	-0.00057878654	0.00037261785	-0.0006144033	-0.00043742065	-0.0006686038	4.4637454e-05	0.00028643833	0.0004193462	0.0007666734	-0.0002964866	-0.00014594362	-0.0005173563	-0.00048959244	1.8835057e-05	0.00045289184	-6.264177e-05	-0.00061040296	-0.00024093295	-0.00041680498	-0.00059465726	0.0004969027	-0.00021003731	0.0010105645
Variogram_25	-0.0001530418	-0.00045300322	-8.359295e-05	5.818066e-05	0.001237184	0.00018173252	-0.00039473892	0.00028177263	0.00047692	-6.406072e-05	0.0006316252	-0.0002632	0.0006918282	0.00023404353	4.432461e-05	0.0005302384	0.00037052343	-0.00075023744	0.0001457798	-0.0005654225	0.0007863709	8.810258e-05	0.00040643918	0.00013187579	-0.00045026597	-3.9619055e-05	-3.1254116e-05	-1.2892881e-06	-2.9033888e-05	-0.00029537414	0.00037277804	0.0010052423	0.000100831174	7.320601e-05	-0.00046856824	-0.00033251636	0.0008302353	-6.449032e-05	-0.00029976162	-0.00067891646	-0.00032595798	-6.6312576e-05	-0.00068225106	-0.0003225067	0.0008694553	-0.0006258428	-0.00088899554	0.00016038287	0.00015748595	0.0003958274	0.00042627758	-0.0006328424	-0.0004424664	-0.0007869109	-0.0006500807	-0.0005209733	-0.00044390018	0.0002099645	-0.0003192515	-9.181721e-05	0.0006667472	-0.000113235226	0.00092843233	-0.0004176489	-0.0003963493	-1.0803854e-05	0.00018946208	0.00082507136	0.00011936866	-0.000632861	-3.4030527e-06	-0.0007870557	-0.00026592723	0.00015751834	0.0001649129	0.00012978286	0.00040575507	0.00050960964	-0.00026597432	-0.00017533037	2.3932546e-06	0.00025607896	0.00055837614	0.00034234385	0.00041942755	-0.00028817923	0.0001523713	-3.1244406e-05	0.00011731988	-0.0004215205	-0.00079568324	5.358241e-05	0.0005463075	-0.00040417042	0.00040160771	0.0005712102	-0.0002316439	-0.00020772868	9.219661e-05	0.00054222374	0.00040970842	-0.000320521	-4.7313864e-05	-0.0004472645	0.0005250479	-1.2755185e-05	-0.00032841944	-0.00040585664	-0.0003376133	9.299356e-05	5.249489e-05	-0.00031472032	0.00022705625	0.00029470853	0.00084007933	0.00034769526	0.0001881241	0.00018023502	-9.017763e-05	-0.00017265714	0.00042261177	0.00083144306	0.00026835484	0.0007972667	-0.0002590716	-5.297286e-05	6.0111808e-05	0.00030759888	-0.00042664912	0.0004609542	0.000120582015	-0.00033267343	0.00046340487	-0.0001838338	-0.00018463875	0.0003382511	-0.00021307799	0.0003363512	-7.7527635e-05	-0.00030615757	-5.188333e-05	5.9011607e-05	-0.0003078451	0.0002987312	-0.00026447052	-0.00036117955	-0.000598459	5.2537558e-05	-0.00025474263	-0.00066433084	-8.812186e-05	-6.3476364e-05	-0.00033193405	0.00049565	-3.3808094e-05	0.00036806284	-0.00037354178	1.87046e-05	-0.00033735787	-0.00012235639	0.0005114271	-0.00030404	-0.00022271893	-0.00037690828	-8.914903e-05	9.874854e-05	-5.3485554e-05	0.00027343686	0.0007745187	-0.00040229782	-0.00044589763	-0.0002814421	4.559257e-05	6.3714964e-05	-0.00017192273	-5.7511752e-05	0.0003051944	-0.00024964538	0.0001336571	-1.1316067e-05	-4.3852022e-05	0.00044788598	0.0001271334	-0.00061266404	0.00016528004	-0.001007802	0.00012456908	1.0113395e-05	0.00015063526	-0.0003764898	0.00029719193	-0.0002922894	0.00024395471	-0.00010771635	-0.00076022116	0.00034579568	0.0005378343	-0.00036318754	-0.0005105775	-0.0004975317	-0.0007413074	-0.00064434105	-0.00046769818	0.00024250976	-3.443785e-05	0.00017749862	-0.00051612663	-0.00066364685	0.00019431919	-0.00039290666	0.00038048942	-0.00032100274	-9.2460206e-05	-0.00027317222	0.00031260354	0.00067904545	0.0002774848	1.47864685e-05	-0.001136022	-0.0007902894	0.00016300048	0.00015822003	-0.00020565656	-0.00012672997	-9.3088114e-05	7.6577635e-05	-0.00047002267	-0.00017271549	0.0001459229	0.00020441567	5.4584827e-05	-0.000662231	0.0004396056	-0.0011832336	-0.00078268175	-0.0010023441	0.00033618548	0.0004947336	-0.000389822	2.7823564e-05	-0.0002348735	-0.00079697155	0.00039693606	0.00036569987	-0.00014796232	0.0004429454	0.00072346086	0.00034671888	-0.00063105416	-0.0001224324	0.00017343438	-0.000395809	0.00052660756	-0.00023337652	0.0006996624	-0.0001980731	-0.00095703825	-0.00036981417	-0.00023697325	-9.186911e-05	-0.0001551237	0.0007045836	7.658493e-05	-0.00038410397	0.0011409866	-0.00012556856	0.00038478855	-0.0004586805	0.00033627273	0.00097427843	0.0001691452	-4.4726785e-05	0.00065773865	-0.0008646366	-0.0005040436	-0.00015703915	-0.0002829162	-0.0001498805	0.0007095383	-0.0006136397	-0.00064786803	-0.00057106966	0.00031144233	-0.00010652914	-5.0179184e-05	0.00034019584	-2.2597227e-05	-0.00017144348	7.602254e-05	-0.00016441962	-0.00015528052	0.00080960616	4.5168435e-05	-0.00084328046	0.00015353736	-0.00029206806	0.000116946685	0.0003373422	2.7342607e-05	0.0006450283
Variogram_26	-9.464973e-06	-0.00047563078	-0.0006726048	-0.0003848171	0.001176345	0.00014697458	-0.0006095415	0.00049198506	0.0006174301	0.00024429467	0.00050172827	0.00021965448	0.00049772963	0.0004899892	0.00026324159	0.00077150215	0.00016966672	-0.0007012676	0.00011049401	-0.00055068656	0.00047581512	0.00029990802	0.00054092746	0.00018289991	-0.0005079436	-5.6788227e-05	-0.00010758097	0.00013573398	0.00015303734	-0.0005820032	-0.00032682723	0.00075107935	-0.00019334788	0.00028725946	-0.000117764925	-0.00024327356	0.00089540257	-0.000581223	0.00015926207	-0.0005694384	5.92158e-05	-0.00055655546	-0.00073175837	5.5814795e-05	0.000423231	-0.00018415818	-0.0004848246	-0.00032504986	-0.00023309406	0.00012406823	0.0003732912	-0.000720991	-0.00010154136	-0.0005367417	-0.0007141107	-0.00060995633	-0.00035678837	0.00066124357	-0.00058602286	-0.00054046896	0.0007394614	0.00021906472	0.00053103146	-0.00037204055	-0.00025630102	0.0005117988	0.00049470674	0.0009515196	0.00014301503	-0.00083085673	-2.771999e-05	-0.0005334734	0.00043917866	-0.00016866993	-8.079115e-05	0.0002873539	0.00034791106	0.00052451174	4.2557844e-05	-0.000237166	-0.0005197445	0.00022607241	0.0008470605	0.0004992693	0.00050035317	-0.00023098751	0.00034035742	-0.00025941417	0.00016832554	-0.00019478716	-0.0006830379	0.00048934674	0.00031059375	6.1205894e-05	-6.017014e-05	0.0007557898	0.00033684514	0.0002464681	5.644137e-05	0.0009933915	0.00035958513	-0.00011404268	-0.0002636258	-0.0005874722	0.00040628965	-0.00046339427	0.00031962682	-0.0007315339	-0.00019813539	-4.830479e-07	-0.00021212762	-0.0005521939	0.0007372637	-7.3400246e-05	0.00053784635	-7.735973e-05	0.0007771981	-0.0001978152	0.00013490685	-7.605754e-05	0.0003954668	0.0007346785	-4.309722e-05	0.00028886396	-0.0003416019	-5.381297e-05	-0.00043023875	0.00021039252	-0.00052845385	-0.00015229329	-0.00014889664	-0.00030751404	0.00018940795	-0.00014617291	-0.000631038	0.0005290164	0.00017544751	0.0004538408	0.00034990566	0.000317828	0.00016096368	-0.00030595931	-0.00023039272	0.0002033471	-0.0005178309	-5.767276e-05	-0.00027640729	0.00018566295	-0.00047530263	-0.00073908584	-0.00046434585	0.00020271234	-0.00030227203	0.00048867526	-0.00051492907	0.00027149628	-0.00032244786	-0.00041727032	0.00013702313	-0.00019233485	0.0008264437	3.3122804e-05	-0.00037629475	-0.00034888755	-0.00011637619	0.0004984223	-0.00047171052	0.0001255231	0.0006649436	0.00027557646	-0.00048366934	-3.2833952e-05	-0.00069583266	-0.00037570676	-0.0005163249	-0.0002876777	0.00015572165	-0.00039949836	-0.00039248756	0.00030091516	-0.000840281	0.000239343	-0.00069992116	-0.00081785454	0.00032366934	-0.0008216711	0.00018857421	-0.00027239564	-6.8575515e-05	-0.00018667654	0.0006328605	-6.854591e-05	0.00028015632	7.100137e-05	-0.00065233646	0.0006121717	0.00018598772	-0.00042973395	-0.000259145	-0.0009584087	-0.00054959155	-0.0007812728	-0.0005289677	0.00012763168	-0.00019093075	-0.00031501125	-0.00040776725	-0.0007435765	-5.1464333e-05	-0.00013906826	0.0003156899	-0.00016443463	-0.00012537485	6.11059e-05	0.00010278355	0.00083210843	0.00030377868	0.00047621402	-0.00058756245	-0.0006677954	-0.00034456069	-9.3669085e-05	-0.00037331975	-0.00025148861	-0.00021793603	0.00038641095	-0.0003269373	-0.0002618338	0.0005255103	0.00037211739	-0.00033816946	-0.0008269282	0.00031169195	-0.0010619069	-0.0005002521	-0.0009807679	0.00023035321	0.0007384323	-0.00025933492	-1.6432896e-05	-3.4408535e-05	-0.00059749023	0.00015579161	0.00029736344	-6.644919e-05	0.00036338493	0.0008680384	0.0003554996	-0.00038212715	-0.00062176085	0.00017058747	-0.00029118356	0.00025289337	-0.000602832	0.0011549994	-0.00017663659	-0.00040602832	-0.00013018315	-0.00037640642	-2.3793811e-05	0.00021979473	0.00063035573	0.00050675997	-0.00026026618	0.0010966214	-0.00030984503	0.0002456872	-0.0005808446	0.00041902642	0.00078701915	-0.00010087613	-0.00026923278	0.00092620606	-0.00083427224	0.00014276916	-0.00051768805	0.0002165935	-0.00057878654	0.00037261785	-0.0006144033	-0.00043742065	-0.0006686038	4.4637454e-05	0.00028643833	0.0004193462	0.0007666734	-0.0002964866	-0.00014594362	-0.0005173563	-0.00048959244	1.8835057e-05	0.00045289184	-6.264177e-05	-0.00061040296	-0.00024093295	-0.00041680498	-0.00059465726	0.0004969027	-0.00021003731	0.0010105645
Variogram_27	-0.00016928789	-0.0002883404	-0.00052299036	-0.0003264805	0.001207082	0.00036961093	-0.00068930775	0.0001679367	0.0005321664	0.00031062882	0.00041567432	-3.3931163e-05	0.0005017575	0.00051331247	0.00017379253	0.00049675186	0.00044970514	-0.0006606167	2.5042898e-05	-0.00068148295	0.0007957281	0.00039717785	0.00067327835	2.111829e-05	-0.00050556514	0.00027076164	-0.00028418627	6.096964e-06	-0.0002211108	-0.00034998378	0.00012177522	0.0008624504	2.913867e-05	0.00035998708	-0.00027269864	-0.00011804672	0.000824105	-0.00024349125	-0.00013698853	-0.00078688544	3.3882352e-05	-0.000355698	-0.0006487069	2.2602657e-05	0.00040436306	-0.00026110647	-0.00044418502	-0.00031495045	-4.8702947e-05	0.00030717844	0.00027238065	-0.0005078025	-0.00031208657	-0.0006537417	-0.0006932098	-0.0005105564	-0.00059546623	0.0004361745	-0.00041241784	-0.00027069717	0.00066427473	0.0001297094	0.0005353332	-0.00022445834	-0.00032607818	0.0005925754	0.00034232414	0.0007259568	0.0003211973	-0.00089799985	4.8855596e-05	-0.0008617333	0.0003426514	-0.00012249933	0.00013828074	0.00035605067	0.0004531553	0.00053730287	7.748695e-05	-0.00019823633	-0.0003639495	0.00019837033	0.000794939	0.00030235283	0.0005118162	-5.6736913e-05	0.00039087806	-0.00017887498	6.8124704e-05	-0.0003291676	-0.00063412037	0.00032653532	0.0001730933	-0.00013098911	-5.2756757e-05	0.00076957664	0.00015599547	0.00014167893	3.6386886e-05	0.00068809226	0.00024009062	-1.50221695e-05	-7.271771e-05	-0.00047155173	0.00019945325	-0.00054304063	0.00036106788	-0.00065424095	-0.00039731187	-3.618199e-06	-0.0001058091	-0.000630268	0.00039995453	0.00017828931	0.0005692845	1.4063648e-05	0.00042691475	2.9045814e-05	0.00016206951	-0.00021512214	0.0002293254	0.00075013883	0.00024939573	0.0004486572	-0.00033293513	5.1304665e-05	-0.000117494536	0.0004109866	-0.00040869592	6.799577e-05	7.300155e-05	-0.00044924274	0.00038168795	-0.00023464208	-0.0003701445	0.00061574095	-7.8473364e-05	0.00036693734	0.000106603446	-6.22598e-05	-1.2342882e-05	-0.00021657311	-0.0003874015	0.00021893275	-0.00036853369	-9.63694e-05	-0.00045832133	1.3723885e-06	-0.00031862827	-0.00034885595	-0.0004887692	-2.7119542e-05	-0.0003470284	0.0003233585	-0.00031785353	0.00031395053	-0.00024422733	-0.00027531886	0.00012635508	-0.000104215804	0.0005540917	-3.7245733e-05	-0.00035555288	-0.0003730592	-0.0003386024	6.177737e-05	-0.00045820253	0.000121593774	0.0004830266	1.3585906e-05	-0.00031276394	-0.00015858404	-0.00048335528	-0.00011108224	-0.00046677448	-0.00025756768	0.00042606678	-0.00042408647	-0.00039549023	3.3632215e-05	-0.00046101483	0.0002534899	-0.00064613245	-0.0006153499	0.0003062743	-0.0007905877	0.0001401971	-0.0002372819	-9.5315554e-05	-0.0003820435	0.0006504484	3.801788e-05	0.0002989223	-9.6705044e-05	-0.0006121486	0.00035470503	0.00031939324	-0.00044754884	-0.00037174392	-0.0006672729	-0.00057664735	-0.0004950318	-0.0002532073	0.00012552383	-6.7594745e-05	-0.00037941316	-0.00024333718	-0.0004890132	-6.7871064e-05	-0.00016314913	0.00024870774	-0.00016333042	-2.0738437e-06	-4.807122e-05	0.00029472364	0.0008747762	0.00022597713	0.00037130344	-0.0007642303	-0.00053047424	-0.00012959096	-0.00018235658	-0.00033046963	-0.00035031064	-8.990008e-05	0.00042873062	-0.00042829607	-0.0002579233	0.0005382742	0.00037473423	-7.917823e-05	-0.00084819546	0.00039042364	-0.0011809826	-0.0005452354	-0.00084091537	0.00042631934	0.00059938495	-0.00035632512	-9.034481e-05	-0.00012236171	-0.0007042691	0.00030141816	0.00035057665	-8.811674e-05	0.00023047537	0.0009810963	0.0004284282	-0.00058317767	-0.00038531853	0.00020494706	-0.00023060483	0.00042081374	-0.00026658995	0.00090716017	-0.00022530496	-0.0006617587	-0.0001038826	-0.0005147523	-2.1987897e-05	-1.8810662e-05	0.00068741903	0.00012663878	-0.00022246846	0.0009657532	-0.000293388	0.0004598451	-0.0005001517	0.00046555753	0.00088120805	-0.00010357799	0.00011125211	0.00059052685	-0.0008571366	2.3227185e-06	-0.000530598	0.00030846286	-0.00048051233	0.00027922273	-0.0008375656	-0.0004932357	-0.00061353453	0.0002099011	8.726932e-05	8.822061e-05	0.00047817963	-0.00037832872	7.945327e-05	-0.00029765765	-0.00059592345	-7.015383e-05	0.000539288	-3.6723763e-05	-0.00066881016	-0.00040429647	-0.00021371985	-0.0002401127	0.0002588041	-0.00022837435	0.0007555267
Variogram_28	-0.0001810685	-0.00047902428	-0.00031354517	-0.0002566443	0.00087648194	0.00019430555	-0.00026139544	0.0001973737	0.0003143043	1.7666714e-05	0.00034611687	3.349304e-05	0.00024713788	7.703868e-05	0.00022959162	0.00034194117	0.00028024983	-0.00044791892	-2.2726366e-05	-0.00016928029	0.00027223738	0.00030260452	0.0005754244	5.9967293e-05	-0.00040240478	2.4773977e-05	-5.8639846e-05	-4.718383e-05	2.0849535e-05	-0.00021162376	0.00014777336	0.00037707537	-6.7846326e-05	0.00023507111	-8.3563045e-06	-0.00017621927	0.00038059283	-0.00043307128	-2.506156e-05	-0.0002944985	2.5947167e-05	-0.00010773224	-0.0003645342	-9.237331e-05	0.00034767346	-0.00029260415	-0.0004901323	-0.00022665405	-8.680785e-06	0.00041498948	0.00030341916	-0.0004564668	-0.00039555682	-0.00055353047	-0.00027770476	-0.00035638094	-0.00038993036	0.00029558543	-0.0004201995	-0.00019026571	0.00058953627	4.7570542e-05	0.00036554196	-0.00034594222	-0.00016160532	0.00033228012	0.00027475713	0.00040637233	0.00019206412	-0.00053043937	2.5994066e-05	-0.00041703807	0.00018810612	-0.0001722229	-0.00011635696	0.0001921321	0.00032236564	0.000304857	4.646641e-05	-0.00016064009	-0.00013629664	0.00010328876	0.00059200433	0.0004915848	0.0001386293	-0.00019855084	0.0002540303	-0.00021064712	-0.0001290527	-0.00012854191	-0.00045563726	0.00019655819	0.0002834204	-0.00014595747	7.8770645e-05	0.0004478219	-0.00014243336	5.2390584e-05	6.2903244e-05	0.00039324397	2.8212162e-05	-2.4978088e-05	5.1017123e-05	-0.0004494343	0.000409728	-0.00020840445	0.000120340075	-0.00031105315	-0.0001607386	8.3335435e-05	6.777269e-05	-0.0003490571	0.0001857515	0.00016577817	0.0003411338	0.00013491792	0.00027632713	-1.1388385e-05	0.00027429897	-0.00028366956	0.0003055122	0.00035180012	4.6796184e-05	6.772099e-05	-0.00040015724	5.4305216e-05	-0.0002284887	0.00042635636	-0.0003000406	5.788899e-05	-2.2857219e-05	-0.00031254382	0.00013785156	-0.00020648948	-0.00014507394	0.00023523516	1.4471057e-05	0.0004226659	9.291087e-05	-8.680931e-06	0.00014344689	-0.0004015725	-0.00036219932	4.6899353e-05	-0.00019802153	-0.00011309333	-0.00014857235	-9.748486e-05	-0.00027777825	-0.00034854162	-0.00031512888	8.5183594e-05	-0.00019832067	3.713993e-05	-0.00042931127	-1.528176e-05	-0.00013532855	-0.00022727638	-4.4937e-05	-9.950931e-05	0.00031221475	0.00018846367	-0.00012923362	-0.00017133953	-0.0001418946	-3.11818e-05	-0.00021938248	-7.584784e-05	0.00045142238	9.0407004e-05	-8.799527e-05	-2.328008e-05	-0.0002453359	-8.0820566e-05	-0.00017717016	-0.00041655407	0.00019645938	-0.00018565537	-4.86483e-05	-7.1365757e-06	-0.0002875774	0.00028985887	-0.00042077643	-0.00048541455	0.0001580957	-0.00060594064	0.00013280263	3.7988262e-05	7.235503e-06	-0.0002341424	0.0003862591	-0.00016894953	0.00034982685	-0.00013221265	-0.00032399176	0.0002542659	0.00029718736	-0.0004889354	-0.00034160507	-0.00059370877	-0.00019882203	-0.00039160304	-0.00015569567	0.00014185523	-3.9288883e-05	-0.00013562806	-0.0002205879	-0.0002996723	6.8501795e-05	-0.00023352598	-3.5994148e-05	6.915512e-05	8.408104e-05	-0.00022117788	0.00018163085	0.0004150397	0.00035534336	0.00021041285	-0.00048843527	-0.0005114637	-6.366534e-05	5.8156775e-06	-0.0003627313	-8.916062e-05	4.6361103e-05	0.00011846254	-0.00019615634	-0.00015253264	0.0004585824	9.120601e-05	-6.0410246e-05	-0.00061412365	4.6321948e-05	-0.00073344517	-0.00035414935	-0.00059490884	0.00031667782	0.0006124639	-5.613997e-05	-0.00010044175	-4.860068e-05	-0.00038220352	0.0002330078	4.0551668e-06	-0.00041577694	0.00017159716	0.0006575431	0.00030825855	-0.00029342738	-0.00027946546	0.00031926902	-2.7158998e-05	0.00017512895	-0.000107957254	0.00048388843	-0.0001647594	-0.0005153514	9.718369e-05	-0.00043592477	2.3593087e-05	-1.2074248e-05	0.0004931916	-6.637104e-08	-0.00014993065	0.0008352918	-0.0002867351	0.00038000767	-0.00036903337	0.0001564194	0.00050986436	-6.420579e-05	1.010186e-05	0.0003363095	-0.00051273213	6.3950414e-05	-0.00030304617	4.904747e-05	-0.00032367546	0.00034135638	-0.0005619078	-0.00042095652	-0.00037911994	0.00010753393	0.00019527812	0.00022856319	0.00021471365	-0.0002677954	4.029523e-06	-0.000359346	-0.00017879026	0.00010572675	0.00037043542	6.36504e-05	-0.00051490735	-0.00016932933	-0.0003176816	-0.00020431433	0.00017778909	-6.89944e-05	0.0005785887
