	0	1	2	3	4	5	6	7	8	9	10	11	12	13	14	15	16	17	18	19	20	21	22	23	24	25	26	27	28	29	30	31	32	33	34	35	36	37	38	39	40	41	42	43	44	45	46	47	48	49	50	51	52	53	54	55	56	57	58	59	60	61	62	63	64	65	66	67	68	69	70	71	72	73	74	75	76	77	78	79	80	81	82	83	84	85	86	87	88	89	90	91	92	93	94	95	96	97	98	99	100	101	102	103	104	105	106	107	108	109	110	111	112	113	114	115	116	117	118	119	120	121	122	123	124	125	126	127	128	129	130	131	132	133	134	135	136	137	138	139	140	141	142	143	144	145	146	147	148	149	150	151	152	153	154	155	156	157	158	159	160	161	162	163	164	165	166	167	168	169	170	171	172	173	174	175	176	177	178	179	180	181	182	183	184	185	186	187	188	189	190	191	192	193	194	195	196	197	198	199	200	201	202	203	204	205	206	207	208	209	210	211	212	213	214	215	216	217	218	219	220	221	222	223	224	225	226	227	228	229	230	231	232	233	234	235	236	237	238	239	240	241	242	243	244	245	246	247	248	249	250	251	252	253	254	255	256	257	258	259	260	261	262	263	264	265	266	267	268	269	270	271	272	273	274	275	276	277	278	279	280	281	282	283	284	285	286	287	288	289	290	291	292	293	294	295	296	297	298	299
Best linear unbiased prediction_0	0.0002844016	-0.0006167933	-0.00028156978	-0.0003294258	0.00057773286	-7.622781e-05	-0.00036097976	0.00048117898	0.00023692146	0.0002578825	0.0002738754	-6.650545e-07	0.00032079886	0.00023502801	-0.00022855315	0.00030018893	0.00016696566	-0.00023902718	0.00015699357	-0.0003254253	-3.3910146e-05	0.0006550413	5.9741913e-05	-5.6426998e-05	-0.00018772732	-0.00047270456	-0.0002298033	0.0002963211	-8.637787e-05	-0.00020071406	0.00023625145	0.00050741615	0.0001388108	0.0001445226	0.00011214355	6.26795e-05	0.00030731197	-0.00032419592	4.919506e-05	-0.0002834962	-0.00017268956	5.785155e-05	3.2080487e-05	-0.00038798185	0.00046572342	-0.0003103208	-0.0001406962	-0.00024151185	0.00047706752	0.00013467234	0.00032251133	-0.0003234971	-0.0003592803	-0.0004080127	-0.00012201892	-0.00040934302	-0.00056970806	0.0004747936	-0.00037397767	-0.00021835075	0.0002986622	0.00049009087	0.0003734556	-5.567488e-05	0.00020869091	0.00027970242	-0.00014926383	0.0005286863	-3.3930875e-05	-0.00046748744	0.00012697894	-0.0007330583	0.00029141476	8.591808e-05	-0.00014293972	0.00018910166	0.00012018446	0.0004512441	-7.013505e-05	-6.805038e-05	1.9661678e-05	0.00026024523	0.0005982108	-4.1953477e-05	0.00022410246	-0.00011096872	0.00034639452	-0.00021101373	0.00032156488	-0.00027380325	-0.00033431707	0.0003748946	-4.0152336e-05	-5.945646e-05	0.0001905639	7.0906535e-05	0.00029417445	0.00037487753	0.00020587174	0.0007247836	0.00045091336	-2.8593755e-05	-4.1747502e-05	-0.00036599298	0.00027737732	-0.00023377035	-0.00024152453	-0.0001615704	0.00022673227	0.00010174601	-9.727061e-05	-5.8105576e-05	0.00019251542	8.460851e-05	-0.00018947659	0.00047305482	0.00044958916	6.829043e-05	3.3863096e-05	-0.00018175719	0.00025813206	0.00034031557	-0.00017325731	0.0004790204	-0.00044830344	0.00023797274	-0.00067348767	0.00024988042	-0.00023021307	0.00018785788	-3.131514e-05	8.183719e-05	0.00014086126	5.5683337e-05	-0.00020555494	0.0004468373	0.000117338896	0.00021375384	0.00037234504	0.00012667813	-0.00011963369	-4.502497e-05	0.000101150086	0.000100429046	-0.0003058535	6.958845e-05	-9.03798e-05	-1.4820729e-05	-0.0005285964	-0.000662151	-0.0005170943	-6.808314e-05	-0.00011438312	0.00025101958	-0.000172477	-4.5581543e-05	-0.00019733966	1.3492564e-05	0.00023381179	-0.00028716656	0.0004307526	0.0001412334	0.00022429026	-0.00031603727	-7.8442026e-05	0.00037848757	-0.00059723697	-6.8642235e-05	-0.00012152456	0.0002186873	-0.00018720592	-0.00036304392	-0.00034641198	5.408406e-05	-4.8129248e-05	0.00025970637	0.00033647422	6.5274944e-05	-0.0005167292	0.00013187561	-0.0008040863	0.00043537965	-0.00016593764	-0.00046905514	0.0006656703	-0.0003368512	0.00048569718	-0.00019741157	0.00011191981	-8.330249e-05	0.00019562853	-0.00011590847	0.00033105692	0.00018350582	-0.00022171783	0.00014277633	2.5627256e-05	5.008774e-05	0.00012211359	-0.00015719103	-0.0003355629	-0.00068662455	2.0001988e-05	8.812047e-05	-0.00028011375	-0.00015069389	-0.00041468866	-0.00045924235	0.00015303672	0.0002649741	0.00040477925	-0.0005365224	-0.00037214532	-0.000120000775	0.00044306935	0.00059374707	7.653187e-05	0.00014752471	-0.0005213289	-0.0003291116	-4.346306e-05	8.7133245e-05	-0.00018395214	-0.0002776348	-0.00019037398	-1.2230197e-05	-0.00014330333	-0.0005390633	0.00032404138	0.0006265795	-0.0001656	-0.00030666168	-4.139804e-07	-0.0009219787	-0.00049780525	-0.0004364589	0.0004686254	0.00038349925	-0.00018229333	-9.995293e-05	-0.00050316105	-0.00030941036	0.00079920306	0.00018223096	7.7590994e-05	0.00038822586	0.0004844631	0.00031905435	0.00011709537	-0.00021055549	-0.00029263832	0.00012012667	0.00022845369	-8.760775e-05	0.00027561828	-0.00026631766	-0.00042493467	-0.00014656947	-0.00037356713	-0.00018790978	2.9187886e-05	0.00065002026	0.00016595479	0.00016795093	0.0005041949	-0.00011684014	0.00035966773	-0.00039555298	0.00055022375	0.0007466754	7.0415415e-05	0.00021615245	0.00036815865	-0.00034250887	-0.00017030229	2.7482165e-05	-1.009284e-05	-0.00042296955	0.00013177698	-0.00030795016	-0.00020475652	-0.000103908365	0.00028159696	-0.00024219241	0.00013127468	0.000939029	-0.00064145774	-1.9253197e-05	0.00010331101	-0.0002757952	0.00012514104	0.0006759039	-0.00013545246	-0.0008463447	-0.00011207375	9.599617e-05	-0.00024062471	0.00018587444	-3.302284e-05	0.0003162097
Best linear unbiased prediction_1	9.406884e-05	-0.00041313266	-0.00029806892	-0.0003035975	0.0009244229	1.4931357e-05	-0.0004627693	0.00023379982	0.00045953898	0.00050540274	0.0003255973	0.00011785061	0.00048117558	0.00041099216	-0.0001448479	0.00033734945	6.501744e-05	-0.00039597027	0.00013531199	-0.00035623557	0.00019063255	0.00039912437	5.148314e-05	-0.00033778074	-0.00039019878	-0.00019823892	-0.00039990287	0.00030702766	-0.00018955904	-0.0002558467	-9.034848e-06	0.00022853204	0.00020023536	0.000458102	0.00031193814	-7.5582204e-05	0.00052146736	-0.00029278765	-6.8000327e-06	-0.0004099508	0.00019785968	-0.0002349304	-0.00017019393	-0.000101051635	0.0005774787	-0.00035227198	-0.000291054	-0.00019874677	0.00041421782	9.212755e-05	0.00020480219	-0.0005880261	-0.00022349747	-0.00059714454	-0.0006357459	-0.0004898185	-0.0006544223	0.00035765322	-0.00024864817	-0.00022157926	0.0003683393	0.00013441933	0.00035607882	-0.00036972095	-2.4881796e-05	0.00029248488	1.1990959e-05	0.0008734664	0.00015700691	-0.00063880364	-0.00014773125	-0.000683257	0.00037527384	5.54465e-05	-0.00010022063	0.00036610436	0.000108694556	0.00027493277	9.377122e-05	0.00016952201	-0.00037161115	0.0005596649	0.0006133607	-4.4848828e-05	0.0004171425	-0.00023645775	0.0002974549	4.873599e-05	0.00028644616	-6.5665925e-05	-0.00044496896	0.0004589938	1.4397422e-05	-0.00018899122	3.1677315e-05	0.0004778223	0.0002052999	0.0002637149	5.2248128e-05	0.0009222064	0.00030752426	-0.00013035396	-3.8708757e-05	-0.0003072932	-3.8268925e-05	-3.1578864e-05	-9.1627786e-05	-0.0006190281	0.00021442444	8.185004e-05	0.00016964522	-0.00017456964	0.0003975574	-1.1689146e-05	0.00018700382	0.00038925788	0.00043391305	0.00016353242	5.098207e-05	-0.00016281824	0.0003939062	0.0007145903	-5.5150955e-05	0.00024106402	-0.00040714032	-7.8717014e-05	-0.00074686744	0.00039487917	-0.00028889094	0.0001246449	1.6403052e-05	-9.0642374e-05	0.00029780663	-0.00012575489	-0.00033727643	0.0006507934	0.00045327103	0.0004401339	0.00041756933	-2.1609654e-05	-0.00019730216	0.000115710674	9.7032906e-05	0.00011104956	-0.00017827505	8.606536e-05	-0.00013789219	-4.5801684e-05	-0.0004403642	-0.00044706202	-0.000500414	3.726393e-05	-3.7371126e-05	0.00046709942	-0.0003718557	0.00018153434	8.042827e-05	-0.00022821558	0.00016699675	-2.928465e-06	0.00052863953	7.168945e-05	8.6593674e-05	-0.00035569462	-0.00020358294	0.00030965937	-0.00042311865	-6.970517e-05	0.00016106399	0.00016516457	-0.0003048804	-0.0002651268	-0.000457859	-0.000112070506	-0.00029321172	-0.00015470781	0.0003200884	-6.581322e-05	-0.00068233814	0.000121695666	-0.00062856136	0.0004118099	-0.00010352031	-0.0004907648	0.0006476049	-0.0004902457	0.00022977636	0.00019776994	-0.00021219267	1.9547277e-05	0.0001068606	0.00025104973	0.0003506046	1.3988228e-05	-0.00031512303	0.00042730337	7.760269e-05	-0.00022136814	-5.5530483e-05	-0.0005926259	-0.00035786818	-0.0005040785	-0.00035053553	4.7001788e-05	-0.0001840355	-0.00025495264	-0.000457065	-0.00047769988	-8.632104e-05	0.0001495957	0.00056102	-0.00032628264	-0.00016438661	9.126073e-05	0.00026227935	0.00056107197	0.00031122984	0.00026747285	-0.00030039062	-0.00052806473	-0.0001542887	-0.0001546645	-0.00031971422	-9.5589734e-05	-0.00041230925	9.132982e-05	-3.751058e-05	-0.0006840671	0.000203604	0.00042506904	-0.00033916454	-0.0006149731	0.0003002249	-0.0009620523	-0.00032152704	-0.0007614233	0.00058628933	0.0006632208	-0.00023003631	-0.00017211253	-0.0003291979	-0.00026784005	0.0005664546	0.00059803185	-2.2600865e-05	0.0005922425	0.0006987569	0.00026555976	-0.00022575313	-0.00040221034	-2.463651e-05	-0.00011869728	0.0002880766	-0.00029714117	0.00038206673	9.374334e-05	-0.00018927253	2.0415813e-05	-0.00029223258	-5.459546e-05	6.92437e-05	0.00074189325	-2.2242768e-05	-4.9822796e-05	0.0007679466	-0.0002960206	0.00042508185	-0.0003234256	0.00040820803	0.000599566	9.377934e-05	0.00016853612	0.00047584553	-0.0006541579	3.4444172e-05	-0.00036632683	7.878291e-05	-0.00049671764	8.626204e-05	-0.00056862884	-0.00048343933	-0.00022877101	-3.1450181e-06	-0.0001336786	0.00028504618	0.00069482625	-0.00035038876	-1.6732296e-05	-0.00015136784	-0.00069472304	0.00013247629	0.0003373812	-0.00036869067	-0.00067512546	-0.00016910993	0.00017330845	-0.00060448254	0.00030660344	-0.0003220031	0.0005280273
Best linear unbiased prediction_2	0.00023657148	-0.00044110412	-0.00028824434	-0.00039149742	0.0009001918	-6.5203865e-05	-0.00056564214	0.0002793161	0.00036459698	0.00023647629	0.00028406174	9.57386e-05	0.0004127441	0.00016621001	-0.0001938316	0.00031651196	0.0002422383	-0.0004311606	5.351206e-05	-0.00029573674	9.714425e-05	0.00044817524	0.00011197327	-9.360908e-05	-0.00031028298	-0.00025558044	-0.00033899088	0.00024101448	-0.00014479726	-0.00010589351	-3.21813e-05	0.00039936192	8.7229746e-05	0.000118521915	2.4091196e-05	0.00027320662	0.0004666718	-0.00011275165	-4.9276005e-05	-0.00029440917	-1.1283839e-05	-0.00013835363	-8.360825e-05	-7.513658e-05	0.00047092806	-0.00044627988	-0.0003932973	-8.7672e-05	0.00023934744	0.00021604591	0.00013638161	-0.0005120352	-0.0002908435	-0.00031891823	-0.00060359493	-0.00043503154	-0.0005076202	0.00041579697	-0.0002926409	-0.00024265726	0.0003815845	8.447912e-05	0.00035200774	-5.3155116e-05	5.4230877e-06	0.00035358066	9.99526e-05	0.0006512129	0.00016632954	-0.00039508	9.078446e-05	-0.0006140255	0.0004964199	0.00012556223	-0.00027536758	0.00040117512	0.0002929739	0.00049623573	4.218954e-05	-0.00011437589	-4.7124817e-05	0.00037163278	0.0005804546	-9.0938556e-05	0.0003174675	-0.00022729897	0.00038896958	-9.185777e-05	0.00017847167	-0.00025760566	-0.000641357	0.00058442325	0.0002451386	-0.0003009527	-2.8970107e-05	0.00022662293	0.00033013214	0.00044380152	0.00022462607	0.0009995624	0.00046737515	-0.00017576062	7.619157e-05	-0.00039417358	0.00021966815	-0.0004491461	-3.204294e-05	-0.00028853596	0.000453549	0.00022814257	-4.212994e-05	-0.00014005488	0.0003149255	-3.1521562e-05	2.1690372e-05	0.00032136525	0.0006904056	0.00012202657	0.00028452656	-0.00019402405	0.00046893783	0.000589836	-6.619394e-05	0.0002979066	-0.0004841358	9.3721304e-05	-0.0006993653	0.00018973729	-0.00021595089	0.00013970224	-0.00026689188	-0.0002278335	-7.485048e-06	-0.00019847933	-0.00035093035	0.00053755817	0.0001547574	0.00025056629	0.00031442483	8.922968e-06	-0.00021924061	0.00014041536	2.9387485e-05	0.00030588964	-0.00025121326	0.00017814244	-0.00017897529	-1.4582865e-05	-0.0005104286	-0.0006074333	-0.0008218562	-1.8527213e-05	-0.00014286427	0.00020183434	-0.00060424657	5.9365033e-05	-0.00014014548	-0.00042682994	3.112456e-05	-8.717251e-05	0.00041383755	-5.6797307e-05	-5.5767374e-05	-0.0002723512	-6.9308546e-05	0.0005613401	-0.00060138694	-1.406397e-05	9.167496e-05	0.00019780092	-0.00048333514	-0.00034509297	-0.0004075441	-0.0001531716	-0.00020158007	1.6001286e-05	0.00030085567	-1.5752211e-06	-0.0005438859	-3.1675263e-05	-0.0006914396	0.0005257871	-0.00045123367	-0.00049475994	0.000593879	-0.00039474719	0.00029541325	-0.00017415108	-0.00015087012	-6.9136564e-05	0.00030208132	-3.5288713e-06	0.000211434	-5.9238897e-05	-0.00028974313	0.00025284488	0.00010407937	-0.00011309725	0.00011524061	-0.00051905174	-0.00036344258	-0.0006507605	-0.00046866445	2.1854296e-06	-0.0002598837	-0.00025057633	-0.00050171744	-0.000556857	-8.4815954e-05	0.00018610786	0.00023322101	-0.00034078816	-0.00012525279	-6.910609e-05	0.0003106346	0.00057899347	5.1144874e-05	0.00021848489	-0.0007100487	-0.00041668297	-0.00021081873	8.3986175e-05	-0.0005578934	-0.00018609599	-0.00036036776	4.444864e-05	-0.00023185779	-0.00039960138	0.0002751374	0.0003586225	-0.0001656394	-0.00060030614	9.8763085e-05	-0.00100584	-0.00035879645	-0.0005842684	0.00052124826	0.0004857813	-0.00021977996	6.949099e-05	-0.0004348624	-0.00025772856	0.00056785217	0.00043141088	-8.5667314e-05	0.0005720131	0.00061966653	0.0004479264	-7.597961e-05	-0.00037684117	-0.00020821995	5.2350326e-05	-1.6176427e-05	-0.00018900057	0.00065533	3.842248e-05	-0.00026730433	-9.8047814e-05	-0.0002946134	-0.000119413504	0.00026762797	0.0005204278	0.0003172616	4.5967252e-05	0.0006103093	-4.3181382e-05	0.00017514006	-0.00023680982	0.0005357207	0.00067686616	-4.120156e-05	0.00013575805	0.0005465339	-0.00046694203	2.4227986e-06	-0.00017386631	0.00022630859	-0.0004968499	0.00015498385	-0.0004374464	-0.00025412775	-0.00015940277	0.00020337872	-9.155576e-05	0.0002521327	0.00078467326	-0.0003286436	8.108662e-05	-8.255495e-05	-0.00041776086	5.1367326e-05	0.0004310063	-0.0002480637	-0.0009304829	-0.00043053942	1.4707053e-05	-0.0005523057	0.00013790268	-8.489303e-05	0.0005035247
Best linear unbiased prediction_3	2.5615662e-05	-0.0003263455	-0.0002685231	-0.00041424137	0.00086061255	0.00019625381	-0.0006270647	0.00024655607	0.0005729549	0.0003074058	0.00025897994	5.9912498e-05	0.00048506717	0.00031004468	2.2359962e-05	0.00023046877	0.00025937468	-0.000497409	2.8537766e-05	-0.00024265193	0.0003120708	0.0002014998	0.0004023973	-0.00025370828	-0.0003379684	2.812853e-06	-0.0002720055	0.00012034695	-0.00014495585	-0.00034330625	-2.896359e-06	0.00027497532	2.9231833e-05	0.0002605076	0.00017902961	0.00019861688	0.00045454976	-0.00036569047	-8.322855e-05	-0.00048040523	9.507407e-05	-0.00012264664	-0.00026318425	-7.256047e-05	0.0005652683	-0.00043609156	-0.00032794167	-0.00015471435	0.00015833908	0.00022729856	0.0001007398	-0.0008023341	-0.00029759642	-0.0004692928	-0.000627922	-0.00044680762	-0.000540324	0.0005626573	-0.0003331883	-0.00019780653	0.0004352336	4.6506966e-06	0.00038733165	-0.00014346093	-1.1578838e-05	0.00046309183	0.00016082315	0.0008613462	0.00037298354	-0.0005728892	-0.00017239717	-0.0006074425	0.00056886446	-2.8971033e-06	-1.3101309e-05	0.0003347202	0.00054991007	0.00037529392	8.196976e-05	3.5070265e-05	-0.0002030734	0.00044010655	0.00075913843	3.796335e-05	0.00026637962	-0.00010139196	0.00030295414	9.3184826e-05	0.00022794283	-7.814636e-05	-0.0006027751	0.0007469136	0.00031062355	-0.00026387995	-0.00012571912	0.0006771193	5.930209e-05	0.00025061224	0.00030621255	0.0008005411	0.00023960289	-1.1980861e-05	4.9183e-05	-0.00034385332	0.00011046235	-0.00012437385	0.00014962698	-0.0006664113	2.2207732e-05	-7.2342177e-06	2.1237864e-05	-0.00022674298	0.00041649328	-9.0718305e-07	0.00021837156	0.00023907104	0.0007008741	0.0001276487	0.00037469243	-5.9684487e-05	0.00040879016	0.00088581356	-3.818743e-05	7.871861e-05	-0.0005089576	-0.00020581287	-0.00071564084	0.00043811783	-0.00048867834	-6.568642e-06	-0.0001981388	-0.00014727542	2.5602974e-05	-0.00015967603	-0.0005585365	0.00059037434	0.00023476695	0.0006176483	0.00034707366	-9.8473894e-05	3.140354e-05	2.0759737e-05	-0.00022348632	0.00021043864	-0.00021313061	0.00015991503	-0.00017964341	-8.707138e-05	-0.00048460468	-0.00033707792	-0.00050241203	7.684127e-05	-0.00011224083	0.00029155004	-0.0005505184	0.00012333055	0.0002790699	-0.00037112864	5.7406807e-05	4.8203844e-07	0.0006457816	-6.672227e-05	2.1901056e-05	-0.00023554191	-0.00013176526	0.00040803754	-0.00045840308	-0.00012652823	0.00012478743	0.0001585557	-0.0003294153	-8.0320846e-05	-0.0005384613	-0.00029042916	-0.0002863565	-0.00036237974	0.00042203342	-4.593582e-06	-0.0007013168	7.280532e-05	-0.0006355737	0.00031371968	-0.00051129184	-0.000566862	0.0005314977	-0.00049311394	0.00011297077	0.0001533589	-0.00023812828	-0.00011877537	0.0002857528	0.00018685512	0.00032324408	-0.00023075573	-0.00019232233	0.00034073027	0.0001602235	-0.0004725151	-0.000222596	-0.00061012286	-0.00035869438	-0.00041310777	-0.00034353178	-0.0001919003	-3.851242e-05	-0.00046213754	-0.00042983252	-0.00052998174	-0.00032241526	9.552634e-05	0.0002802315	-0.0001685899	4.1478932e-05	-8.992463e-05	0.00013219849	0.0006230899	0.00019508398	0.00048823786	-0.00039428592	-0.00047836927	-0.00036663353	1.6877219e-05	-0.0006154757	-0.00019615052	-0.00026775445	0.00013199766	-0.00017957794	-0.00038232908	0.00022510652	0.0003305319	-0.0001848591	-0.00069483597	0.00021788888	-0.0009338485	-0.00022519773	-0.0007067881	0.0006223171	0.00075079914	-0.0002596572	-8.185553e-05	-0.00026911308	-0.00035925768	0.00048168696	0.00055861095	-0.00040518827	0.00042359415	0.00081962784	0.00024525358	-0.00032168432	-0.00054898905	0.00023825253	-6.231702e-05	0.00013242057	-0.0004648953	0.0006649008	0.00014771301	-0.00036981702	-7.158837e-05	-0.00034298436	0.00029630313	2.1980373e-05	0.00063217786	5.6409433e-05	-0.00014546466	0.0008466035	-0.00019475135	0.00021015818	-0.00027146118	0.0002925109	0.0007276363	3.8755545e-05	0.00014640002	0.0005132743	-0.00051756145	0.00014956642	-0.0005311246	0.0002425894	-0.000558199	-5.7029706e-06	-0.00067079015	-0.0003455398	-0.00029609105	9.406063e-05	0.00023695055	0.00042683491	0.0006627683	-0.00033799975	0.00027943673	-0.00023363161	-0.0005389097	0.0001298165	0.00042901255	-0.00029430093	-0.0007589929	-0.00035131097	-0.00012582139	-0.0005943022	0.0002307658	-0.000165903	0.00068196276
Best linear unbiased prediction_4	0.00010258557	-0.0003930889	-0.00021407261	-0.0003940107	0.0007812753	0.000120764445	-0.0006015463	0.00028222945	0.00056662736	0.00038238897	0.00037329574	0.00020079662	0.0004968219	0.00028546643	3.187575e-05	0.0003321178	0.00032999346	-0.0005550704	-4.5356428e-05	-0.00029838996	0.00027865986	0.00016266415	0.0004028047	-0.00023574686	-0.00044605942	-4.045455e-05	-0.000282269	0.000116553245	-8.6076696e-05	-0.00022564713	-7.883458e-05	0.000267045	-4.8740447e-05	0.0003887806	0.00023141196	0.0002230739	0.00047481805	-0.00046918576	-4.0110262e-05	-0.0005253129	0.00010546887	-0.00024609288	-0.00021090682	-0.00015205906	0.00050280296	-0.00044020318	-0.00024323398	-7.5488555e-05	0.00013483035	5.8760965e-05	4.7085763e-05	-0.0007074493	-0.000317241	-0.00041474323	-0.0007396177	-0.00049687224	-0.00050997053	0.00048563568	-0.00032708718	-0.00028696388	0.0004954406	1.0125977e-06	0.00039939609	-0.00015983277	-0.00016842541	0.0004324704	0.00019814735	0.00089301704	0.00036798845	-0.00043020383	-0.00032062008	-0.00050350605	0.0006769274	-0.00010959421	-4.427123e-05	0.00046965832	0.0004995298	0.00037893743	9.442644e-05	-1.4016206e-06	-0.0003074502	0.00034318716	0.0007342585	-3.2155147e-06	0.00021067512	-0.00027243825	0.00037192286	0.00016329589	0.00011472866	-3.699911e-05	-0.0006052822	0.00071859226	0.0002825801	-0.00025335734	-0.00021002785	0.0006718439	5.9047885e-05	0.00022212064	0.00019897435	0.0007786972	0.00014804701	-7.519266e-05	2.7485541e-05	-0.00032635438	0.00010698504	-0.00022717986	8.12728e-05	-0.00082829787	1.0157658e-05	6.6521214e-05	0.000110142755	-0.00026711685	0.00051140535	-7.448368e-05	0.00032821845	0.00036258774	0.00067971356	8.6124135e-05	0.00020278373	-0.00021483107	0.00047404325	0.0008782399	-3.5839257e-05	0.00021790361	-0.0005902618	-0.0001950535	-0.0007090737	0.00048287364	-0.0004958033	-0.00013493912	-0.00026787526	-0.0002509931	4.9268394e-05	-0.0002642375	-0.0005375483	0.0006472449	0.000302297	0.0005787267	0.00030997934	-0.00015013684	-0.00011017194	1.2929431e-05	-9.591048e-05	0.00026400806	-0.00016437612	0.00010245406	-0.00018956934	-2.3818093e-05	-0.00044687238	-0.00028050656	-0.00053807313	5.404067e-05	-4.4296165e-05	0.00030989925	-0.0006043282	3.6864654e-05	0.00029568622	-0.00045256136	0.00015420077	0.00013072399	0.00061561767	-0.00015505387	-9.626043e-05	-0.00017984353	-8.282979e-05	0.00028931213	-0.0003335641	-0.000119955665	0.00015538339	-1.2869028e-05	-0.00038964974	-0.00011002431	-0.00057367	-0.00033576318	-0.0003445266	-0.0003910311	0.00028849966	2.2083203e-05	-0.0006485813	0.00012688119	-0.0006308201	0.00021040664	-0.00054997724	-0.00053140026	0.00045989876	-0.00052503316	-6.3801976e-06	0.00018057394	-0.0002601033	-0.00016625467	0.00024094351	0.000114128445	0.00031159422	-9.619697e-05	-0.00026991774	0.00034054328	0.00013520352	-0.00054273056	-0.0002852379	-0.00063855643	-0.00033700187	-0.00034262292	-0.00048491827	-0.00021790963	1.0474197e-05	-0.00042941613	-0.0005143002	-0.0004730967	-0.00021524815	0.00011538839	0.00030698685	-9.468301e-05	-2.2534865e-05	-1.03775055e-05	9.6376934e-05	0.00059817015	0.00029576794	0.00058409764	-0.0004885803	-0.0004728323	-0.00036799797	6.6393145e-06	-0.0006414331	-0.00020168629	-0.00015538486	0.00020216148	-0.000111525704	-0.00040958772	0.00026897475	0.00036454276	-0.00019763957	-0.00070018315	0.0002537571	-0.00081905	-0.00013234171	-0.0008491471	0.0006979448	0.00057976285	-0.0002690128	-0.00010468652	-0.00016591244	-0.00028355926	0.00041426046	0.00043957413	-0.00045703983	0.00058186066	0.00094149046	0.0002842191	-0.00030719192	-0.00058265694	0.00024134114	-0.00015925796	-6.703858e-06	-0.00050913467	0.00071405625	0.00012642884	-0.0002871451	2.2413744e-06	-0.00033751305	0.00019749787	2.3443824e-06	0.0006473345	3.9566444e-06	-0.00017940866	0.00097235787	-0.00030154877	0.0002902044	-0.0003009333	0.00038075328	0.00068657746	9.5266834e-05	0.000111195295	0.00039606416	-0.0006042	0.00016814837	-0.00056122546	0.00031908372	-0.00058661506	-5.2432228e-05	-0.000751254	-0.00043467092	-0.00038171952	-2.4559198e-05	0.00027293726	0.00046878323	0.00073918636	-0.0003187268	0.00032630152	-0.0002931457	-0.0005143103	0.00019065068	0.00035556412	-0.00038188993	-0.00072108745	-0.00016821733	-3.5305784e-05	-0.0005419876	0.00026543616	-0.0003058353	0.00071363745
Best linear unbiased prediction_5	3.782542e-05	-0.00021601256	-0.00040903842	-0.00031512303	0.0010130389	-5.916876e-05	-0.0008762564	0.0003124287	0.0006718298	0.0004888525	0.00027218662	0.0003879097	0.0007745017	0.0006570849	-2.2292745e-05	0.00039084555	0.00024051162	-0.0006709646	0.00011331109	-0.0006438333	0.0003248825	0.00022573104	0.00038474886	-0.00041041058	-0.00050736323	7.0794726e-05	-0.000573937	0.0002887056	-0.00031443348	-0.00043783165	-0.0003092035	0.0005056472	5.161017e-05	0.0006327898	2.7643251e-05	0.00010310684	0.00081354356	-0.00048458757	0.00013017497	-0.00080495083	8.427639e-05	-0.00037263444	-0.00057576934	-2.8611588e-05	0.0007343996	-0.00067138806	-0.000283308	-0.00029337514	0.0002543436	8.018105e-05	0.0001639641	-0.0009797639	-0.00012744006	-0.00066360633	-0.000996712	-0.00069890346	-0.0007117864	0.0007677814	-0.0005130097	-0.00020917176	0.0005529735	1.45293825e-05	0.0005681966	-0.00036938788	-0.0002678784	0.0006956734	0.00014086306	0.0013437868	0.00050574384	-0.00049187645	-0.00025041364	-0.00060805003	0.0007600131	2.5453744e-05	-6.7856825e-05	0.0005659608	0.00044654205	0.00056372717	0.00034346394	0.00022135023	-0.0005010377	0.000591324	0.0006937228	-0.000101336445	0.00039553802	-0.0001344639	0.00037332118	0.00021635689	0.0003637773	-7.341885e-05	-0.00077670766	0.0009485523	0.0003992178	-0.00030548603	-0.00021498413	0.00080744416	0.00033303458	0.0001882153	8.078768e-05	0.0010118722	0.00015953659	-7.1012e-05	-4.6834324e-05	-0.00043167465	8.6056694e-05	-0.00026401202	-8.9503126e-05	-0.00094576896	0.00012233811	-4.861335e-05	-8.689371e-06	-0.00029914768	0.00070383045	-6.437756e-05	0.0004934878	0.00034070344	0.0008098897	0.0001437547	0.0002687147	-0.00013860647	0.0003415215	0.0012273588	-8.3528204e-05	0.0003996	-0.0006736572	-0.00027993353	-0.0007484525	0.00036676932	-0.00044570485	-7.496478e-05	-0.00028048357	-0.0003755318	9.288958e-05	-0.00020589429	-0.00070088264	0.0006451241	0.0002471133	0.00067992276	0.00033370932	-9.936573e-05	-8.3573774e-05	5.27263e-05	3.4212782e-05	0.00018584357	-0.00034447073	0.00023629467	-0.00042291096	-0.00012691293	-0.0007090464	-0.0005173115	-0.0005626376	-4.1072853e-05	-5.781128e-05	0.0006610572	-0.0006178514	0.0002872039	0.0002612253	-0.0005774314	0.00021002183	1.4165539e-05	0.00083540333	-0.00016506435	2.8701083e-05	-0.0003584604	-0.00022558552	0.0005555821	-0.00064514246	-5.2230716e-05	0.00032333552	8.8710396e-05	-0.0006338348	-0.00036358388	-0.0007737127	-0.0003566303	-0.00049462967	-0.00048788072	0.0004007937	1.6812248e-05	-0.00087224867	0.0002969735	-0.00070849713	0.00032024036	-0.00048351433	-0.00087370735	0.0006577249	-0.00067985064	2.1448035e-05	0.0001465355	-0.00043927605	-0.0003225311	0.00023105259	0.0003198064	0.00037670255	0.00012325004	-0.00042022267	0.00036959077	0.00014400286	-0.0004603541	-0.00020432373	-0.0009253262	-0.0004904152	-0.0004987833	-0.0005670485	-0.00022655656	4.7524674e-05	-0.00037269117	-0.0005154555	-0.00047736574	-0.00047582388	6.070428e-05	0.0006830573	-0.0003645061	-7.45857e-05	0.0001634935	0.00010811078	0.0007836975	0.0004071935	0.0006033932	-0.0005384405	-0.0004605803	-0.00019772793	-0.000106665335	-0.0008492439	-8.07941e-05	-0.00025759632	0.00020267162	-0.00019335122	-0.0006223871	0.0003733156	0.0004876435	-0.00046910357	-0.0008313465	0.00044609152	-0.0011865878	-0.00016697869	-0.0008567494	0.0007128785	0.00091581885	-0.00044440292	-1.6470776e-05	-0.00030937602	-0.0005394187	0.0005750371	0.0009216134	-0.00022189914	0.00083079864	0.0011394542	0.000368188	-0.00052593625	-0.0005892187	0.00020703334	-0.00036653545	0.00016759857	-0.00067349843	0.0009244953	0.00019921878	-0.00026182318	2.234578e-05	-0.00022736756	0.00011934767	0.000377012	0.0008132177	0.00036348836	1.3350846e-05	0.0010819912	-0.0003156952	0.00036587287	-0.00044240456	0.0005857896	0.00071499415	0.00015340833	1.9850899e-05	0.00060270133	-0.0010335911	0.00038694026	-0.0006738135	0.00042371877	-0.00071446254	-6.225115e-05	-0.0009018957	-0.00064076355	-0.0002450078	8.249233e-05	0.00015102464	0.0005134255	0.0008607039	-0.00034408717	0.00014140666	-0.0003814028	-0.0009864329	0.0001500977	0.00029452122	-0.00056649273	-0.00095617387	-0.00030021454	0.0002767765	-0.000680397	0.0005741718	-0.0003970834	0.00092176493
Best linear unbiased prediction_6	-4.7822075e-05	-0.0005353373	-0.00028584164	1.4830963e-05	0.0012206268	3.059725e-05	-0.0005581549	0.00013217148	0.0007076154	0.00053822924	0.00041360199	0.0003760936	0.00062315323	0.00021668129	-0.00049159164	0.00027349248	0.0001339897	-0.0007320036	-0.0003006077	-0.00025650527	0.00046993492	4.0879273e-05	-0.00011839742	-0.0004562842	-0.0004264597	-0.00020109866	-0.00045285415	0.0004199625	-0.00027863745	-0.00012259062	-3.2810683e-05	0.0005037496	0.00032677685	0.0005731385	0.00014617581	0.00034500606	0.00078412145	-0.000113735834	-0.00029816543	-0.00061713904	0.0004547141	-0.00028288912	-0.000325833	0.000301392	0.0010594865	-0.000761852	-0.00062666216	9.2960196e-05	0.0006093074	0.0006392246	4.762884e-05	-0.00059876475	-0.00047889404	-0.0007888485	-0.001095774	-0.0008045542	-0.00046947267	0.00052600703	3.9371676e-05	-9.348121e-06	0.00042945315	-0.0003586007	0.0005251002	-0.0005502395	-0.000390194	0.00012112086	-0.00023864546	0.001381733	0.00021789354	-0.00029854407	-0.00041695833	-0.00047432582	0.00048852805	0.00016132425	-0.00041821433	0.00038580789	0.00010769619	0.0006250716	0.00033399765	0.0003472495	-0.00036075868	0.0005375706	0.0006891609	-0.00020406718	0.0003461356	-0.00013284635	0.00055004086	0.00043926548	0.00025597194	-0.00027535806	-0.0010634504	0.0006935733	0.0002858236	-0.00070594554	0.00033231874	0.0004802044	0.00022239334	0.00048278848	-9.252828e-05	0.0013631409	0.00032688523	-0.00044626382	-0.00012739713	-0.00033255655	0.00012368616	1.2917153e-05	-0.00045868906	-0.00037930332	0.000462706	0.00046682294	0.00047222886	-0.00031443159	0.00037476234	-0.00020948684	0.0005443364	0.0006849394	0.0005606836	0.0001999721	-0.00014594643	-0.0003373174	0.0005463521	0.001143051	0.00028663306	0.00038842604	-0.0004977237	-0.00048742507	-0.00070396054	0.00056600675	-0.0004387995	0.00045221922	-0.00034258276	-0.0005423326	5.6157973e-05	-0.00024388445	-0.00050380937	0.0007485512	0.00047504474	0.0004763215	0.0004463289	-0.0004274157	-0.0004487772	0.0005488069	0.00017797458	-0.00014554622	-0.00015932624	-4.401472e-05	-0.00050024275	0.00010637734	-0.00014163692	-0.0006381621	-0.0005046423	-6.5529835e-05	5.100362e-05	0.0007247097	-0.0005812009	0.0003732814	0.00038850075	-0.0005239838	-0.00011663184	0.00015715559	0.0004962223	-0.0002995745	0.00029108248	-0.000476059	-0.00018562174	0.00063285424	-0.0007820949	9.780179e-05	0.0004886625	-0.00011317758	-0.00066393317	-0.00029298454	-0.0005290379	-0.00027911842	-0.0005156783	-0.00037765448	0.00027731436	0.0002603032	-0.00059657224	0.00034571424	-0.00053552573	0.0005398609	1.6299804e-05	-0.00060101785	0.00037049057	-0.0006010742	6.694143e-06	0.000571506	-0.00020026136	0.00022607628	-0.0001176525	3.9115446e-05	0.0006095542	-0.00029266044	-0.0006737821	0.0006063618	-2.7786882e-05	-9.994637e-05	-0.00026090367	-0.0011119072	-0.00015148532	-0.0004787341	-0.0008854137	-0.000269007	4.4081495e-05	-0.00017072706	-0.00082903425	-0.0003795863	-0.00018223938	9.4866264e-05	0.00092532637	-0.00042150466	-0.00029363096	0.00027563187	0.0002981221	0.00046884787	0.00037304178	0.0003020116	-0.00067959446	-0.00074850075	-0.00015230266	-9.484615e-05	-0.00044802562	0.00010293748	-0.00080876716	0.00025927727	3.8630096e-06	-0.0006415029	-0.00016091028	0.00023324607	-0.00044084905	-0.0011577943	0.0005918101	-0.0009835394	-0.00014816454	-0.001123776	0.0007191143	0.0009933622	-0.00046812522	-0.00041585107	-0.00024149254	-0.0004655916	0.0007413176	0.0007069312	0.00020095994	0.0007974376	0.0010850006	0.0007254647	-0.00030850887	-0.00050733844	-0.00018965296	-0.0003035581	-9.731573e-05	-0.00027054665	0.00071428885	0.0004279149	-2.557537e-05	0.00019895252	-0.0001951358	-0.00016593139	0.00020059623	0.0010644107	0.00019820311	-0.00046265614	0.0009856119	4.1845153e-05	0.0006211889	-0.00018181466	0.000490608	0.000684128	-0.00017550944	-4.977134e-05	0.000816189	-0.0008272423	7.787871e-05	-0.00013760499	0.00015080802	-0.00041602514	0.0002725671	-0.00064343814	-0.00075453956	0.00012918495	-0.00032819007	7.8191195e-05	0.00024354654	0.0008222813	-0.00015436059	0.000390148	7.5529184e-05	-0.0008402136	0.00026299944	0.0002991525	-0.00066461123	-0.0009634708	-0.00013175193	0.0005237289	-0.0006724719	0.00059056905	-0.00044648402	0.00060169166
Best linear unbiased prediction_7	0.00023342406	-0.00042772878	-0.0005450861	-0.0004789055	0.0011621378	2.049026e-05	-0.00082047377	0.00021357145	0.00090072426	0.00063610636	0.00033331904	9.418419e-05	0.0008341759	0.0006023857	0.00010567559	0.00040096033	0.00027021155	-0.0008241933	-6.538256e-05	-0.0004695972	0.0004709142	8.311416e-05	0.0001985116	-0.00019179222	-0.0005207086	1.3940728e-05	-0.0004659438	0.00010400872	-0.00034682476	-0.00033734745	-0.00014487532	0.0006284863	-0.00013119521	0.00050215336	8.121438e-05	0.0003705845	0.0006163271	-0.00020111108	7.3229376e-06	-0.000722233	1.16309775e-05	-0.0004564799	-0.00038184086	3.0634224e-06	0.00072004873	-0.0005831323	-0.00030106056	-0.00013590255	0.00022294794	0.00010439384	2.2473765e-05	-0.0008113708	-0.00030859013	-0.00043170986	-0.0012231531	-0.0004472597	-0.0005522615	0.000595935	-0.00024375317	-0.00043379533	0.0006673481	6.6790344e-05	0.00058620836	-0.00019744807	-0.00011353186	0.00053097965	2.8454317e-05	0.0012148981	0.0003514079	-0.00052972074	-0.00029198598	-0.0007556082	0.00086870015	-0.0001250837	-9.0059955e-05	0.0006276589	0.00046930576	0.0006726354	0.00016467157	5.3667787e-05	-0.0005162309	0.00059265405	0.00088865194	-5.604482e-06	0.00031700858	-0.00011516783	0.00037851022	0.00016629611	0.00026531678	-0.00020990575	-0.0009626021	0.00091095804	7.4131494e-05	-0.00036001086	-0.00017577241	0.00085409253	7.730992e-05	0.00025386308	0.0001662931	0.0013439846	0.00039899338	-0.0002694412	3.5378616e-06	-0.00037153924	6.326949e-05	-0.00013714365	0.00022773661	-0.0009643377	0.0001811792	0.00010659462	0.00021670645	-0.000573604	0.0007732068	-0.0002115636	0.0003990362	0.0005849076	0.0008939449	3.141038e-05	0.00028257963	-2.3016972e-05	0.00056325976	0.0011787389	5.480032e-05	0.0002813063	-0.0005325212	-0.00016139851	-0.0007909865	0.00049846264	-0.00052494113	-1.5652422e-05	-0.0003504749	-0.00034391086	8.957233e-05	-9.958965e-05	-0.0006482706	0.00080436416	0.00031487676	0.00041861174	0.00030012603	-0.00019250032	-0.00017890174	0.0002935927	-0.00020386666	0.00035552628	-0.0001577562	0.00014311487	-0.00023815192	0.00016170827	-0.00046766957	-0.0005010926	-0.000877	0.00014280206	1.9065725e-05	0.0006036308	-0.00041197712	0.00012443776	5.3706448e-05	-0.0007002397	0.0001327888	6.4194915e-05	0.0009046998	-0.00040611235	-0.00022097144	-0.00056222535	-0.00014539243	0.0004944302	-0.0006754904	-1.9886247e-05	0.00036302189	0.00013754124	-0.0005162224	-0.00015432994	-0.00078413694	-0.00025076812	-0.000669128	-0.00031367785	0.00049295375	-3.301581e-05	-0.00063987245	0.00018140013	-0.00084718387	0.0003946602	-0.0006564751	-0.000631084	0.00057596725	-0.0006166348	-1.2469077e-05	-3.0872825e-06	-0.00048777834	-6.3981264e-05	0.00026208162	1.3733541e-05	0.0005366764	-6.9209396e-05	-0.0005186156	0.000530132	0.00016630648	-0.0004636395	-0.00026257802	-0.0011827425	-0.0005953018	-0.0005833186	-0.0005145588	-0.00019902115	3.7313162e-05	-0.00043970766	-0.00061379373	-0.00047552626	-0.00038356532	0.00024405478	0.0006171411	-0.00040480512	-0.00015524676	2.6148356e-05	0.00024196226	0.00090223434	0.00014078789	0.0006954835	-0.0006387597	-0.0004780093	-0.0003819121	-2.5290556e-05	-0.0007704631	-0.00036228323	-0.00059184904	0.00038045182	-0.00026018085	-0.00042186806	0.00016460243	0.00045755407	-0.00021328974	-0.00081837014	0.000555839	-0.00096390926	-0.00032078684	-0.0010755018	0.00058700214	0.0009018872	-0.00055259606	1.4437595e-05	-0.0003637789	-0.00055526075	0.0006798373	0.0008635354	-0.00017530879	0.0006864219	0.0010448182	0.00053552724	-0.00037580822	-0.0008225988	2.3242706e-05	-0.00026005844	1.725465e-05	-0.00053492375	0.000950222	0.00025366977	-0.00033387612	2.6413692e-05	-0.0002898323	-1.2091365e-05	7.311898e-05	0.00065768446	0.00014321138	-9.7992975e-05	0.0009510964	-1.3539607e-05	0.0004046206	-0.00055174885	0.00046962014	0.0006804575	7.220208e-07	0.00014296241	0.00062560535	-0.00073995936	0.00022940424	-0.0006794283	0.00044523718	-0.0005550294	8.758522e-05	-0.00081498147	-0.00045144904	-0.00043993423	-3.799492e-05	0.00034479154	0.00032927867	0.0009621183	-0.00032217667	0.00039743644	-0.0001607106	-0.00084274926	0.0001888604	0.000534876	-0.00046667125	-0.0009264885	-0.00039875423	-3.9412756e-05	-0.00088616554	0.0003470258	-0.00052662956	0.0006938304
