	0	1	2	3	4	5	6	7	8	9	10	11	12	13	14	15	16	17	18	19	20	21	22	23	24	25	26	27	28	29	30	31	32	33	34	35	36	37	38	39	40	41	42	43	44	45	46	47	48	49	50	51	52	53	54	55	56	57	58	59	60	61	62	63	64	65	66	67	68	69	70	71	72	73	74	75	76	77	78	79	80	81	82	83	84	85	86	87	88	89	90	91	92	93	94	95	96	97	98	99	100	101	102	103	104	105	106	107	108	109	110	111	112	113	114	115	116	117	118	119	120	121	122	123	124	125	126	127	128	129	130	131	132	133	134	135	136	137	138	139	140	141	142	143	144	145	146	147	148	149	150	151	152	153	154	155	156	157	158	159	160	161	162	163	164	165	166	167	168	169	170	171	172	173	174	175	176	177	178	179	180	181	182	183	184	185	186	187	188	189	190	191	192	193	194	195	196	197	198	199	200	201	202	203	204	205	206	207	208	209	210	211	212	213	214	215	216	217	218	219	220	221	222	223	224	225	226	227	228	229	230	231	232	233	234	235	236	237	238	239	240	241	242	243	244	245	246	247	248	249	250	251	252	253	254	255	256	257	258	259	260	261	262	263	264	265	266	267	268	269	270	271	272	273	274	275	276	277	278	279	280	281	282	283	284	285	286	287	288	289	290	291	292	293	294	295	296	297	298	299
Omitted-variable bias_0	-4.902302e-07	-0.00027308462	-0.00020682975	0.00057090895	-8.388264e-05	0.00014837574	-5.4206022e-05	8.82278e-05	-3.5671448e-05	0.00040931313	-0.00014643747	-0.00037639533	0.00024753588	-6.838695e-05	0.00022235437	-4.3017153e-05	-0.00034164358	0.0002294783	0.00036242427	-3.116489e-05	-0.00023032444	0.0004599388	0.0005074	-0.00021794936	-0.00020895661	-0.00051098736	-0.00011227993	0.00026434095	0.00019969739	0.00022662626	0.00022624587	7.481613e-05	9.9796736e-05	-0.00059599703	0.00075658294	-0.00017053801	-0.00045081714	-0.00012886267	2.7455062e-05	0.00011878601	-0.00014150854	9.413269e-06	0.00042641908	9.783583e-05	-0.00049107574	0.00044491244	0.00043053206	-0.000118191674	-2.4185802e-05	-0.00023745281	8.566921e-05	0.00027695735	-0.00066747854	-0.0001011234	0.00048570198	0.00038461928	-0.00027100512	-0.00013410572	9.833972e-06	-0.00034329778	-0.00073544827	0.000319819	-0.00010342994	-5.4416552e-05	0.00021483561	-0.00020959941	-1.16419915e-05	-0.00021851495	-0.0005306705	-0.0010255389	2.0099253e-05	-0.0006332959	-0.0003826868	-2.1671358e-05	0.00046236685	-0.00023646856	-0.0004884947	-0.0006681749	-0.00023532301	-0.000104803315	-0.00020508305	0.0006653841	0.00050184387	5.236069e-05	0.00011970872	-0.00060561515	-0.0004317576	-0.00021790211	0.0003091105	0.00021058362	0.00087393855	0.00032499406	-0.00080550445	0.0005829111	0.0001742589	0.0004498518	0.00041043776	-0.0002966602	0.00057861855	0.00033238568	0.0006471794	0.00030228484	0.00047835047	-0.0002450594	-0.0003543522	0.0006365952	9.6428936e-05	-9.599252e-05	-0.00024242667	-0.00017639401	-0.00014802066	-7.826642e-05	-2.155862e-05	-5.470645e-05	-0.00026562824	-2.5975005e-05	-0.0002030172	0.00033489589	-9.04145e-05	-0.00039338457	0.00020771638	-0.00016371715	-0.00027099688	-0.00024895015	-0.00026836275	0.00051194686	-0.00044768042	0.00023365524	-0.0003049211	-0.00024318624	0.00044493118	0.0004370467	0.00069923844	-0.0004808124	-3.7110472e-05	0.00043476137	-0.0001743973	-8.979687e-05	0.00043632358	0.00018268875	-0.00037307554	0.00014072676	0.0003814536	-0.00023521081	0.000109863235	2.938576e-05	0.00039592825	-0.00014778037	0.00028732466	-1.302706e-05	0.000260887	0.0001962813	-0.00023107318	0.00022913812	0.00019614556	0.0002696593	0.0002042826	0.00056824076	0.00074355776	-0.000116279436	-0.00040638645	0.00066571933	0.0003597604	-0.00020341786	-0.00033781177	2.264713e-05	2.7365242e-05	0.00016285553	-0.00036283286	0.00068960217	9.1536385e-05	0.00023656059	-0.00013926206	0.00022425712	0.0004254382	0.0004623324	-6.728727e-05	-6.586522e-05	-0.000132103	-7.835233e-05	-0.00038733057	-0.00014770057	0.0003395111	-0.00056400266	0.0007618951	0.0002477202	0.00029400256	-0.00015301678	0.00025065104	0.00059258845	8.9571804e-05	0.00022956915	-0.00045257338	3.3402295e-05	0.00039684193	0.00055881677	7.603283e-05	-0.00028326633	0.00019074132	0.00046684986	0.00010517379	-0.0004406241	0.00031970275	0.00069015357	-0.00086874585	-0.000477968	-0.00018750216	0.00019181719	0.0005274015	0.00027911004	-7.290394e-05	-0.0004285086	-2.6421843e-05	0.00035964392	0.00053424767	0.00013758805	-0.00015284437	0.00037659204	0.00023073252	-0.0002750762	-0.000336727	-0.00011732336	0.00090863736	-0.0003364749	-0.00010683667	4.275108e-05	0.00027921327	-0.0006885046	0.00030967285	0.0006955599	1.303396e-05	-3.530913e-05	0.00026526046	-0.000787664	-0.0009328794	-0.00037067264	0.00025540314	-0.00011580209	-9.440619e-05	-0.0006447813	-0.000336832	-0.00015067689	3.8340455e-05	0.00042497067	-0.0002333129	-0.00025332408	-3.7756687e-05	-6.0548624e-05	0.00015885498	-0.00025095412	-0.000387122	0.0008149918	0.00022262121	-0.0002687108	-0.00044760734	1.4566054e-05	-0.00043937963	-0.00025309832	8.305004e-05	-0.00042083274	-0.00042070448	0.0006972074	-0.00025956632	-0.00054134376	-0.00025648132	-0.00039891424	-9.00774e-05	4.306216e-06	0.00083931105	-3.7799007e-05	0.0006014638	0.000459129	-5.4865245e-06	0.00069048867	-0.0002888517	-0.0003730566	-0.00013348101	-0.00032234035	-0.00039892102	0.00019775768	-0.00014196237	-0.00012287193	0.0004017112	-0.0004441304	0.00019267487	0.0004457728	-0.00028018645	-0.0002883382	0.00012974172	0.00029341143	-0.00024809848	0.00025495727	-0.00034998872	-0.00026411322	5.6306886e-05	-0.00035339044	-0.00039959076	1.1097481e-05	-8.4315434e-05	-3.2090364e-05
Omitted-variable bias_1	0.0005536977	-0.00057569507	-0.00026051194	0.0005812384	-0.00027867025	-0.00013195658	0.00036946475	0.00050178973	-0.000113220456	0.0003792797	-2.9893083e-05	-0.00027371	0.00029014636	-0.00012443206	0.00051194895	0.00040130748	-0.00022373674	9.841498e-05	9.7267584e-05	7.8571036e-05	0.00014918509	0.000514876	0.00011093165	-0.00038638132	-0.0002747042	-0.0006282497	-6.651244e-05	0.0004041909	0.00018038345	0.00033997293	0.00037613412	-9.207857e-05	0.00022849694	-0.00015515505	0.0005764592	-0.0004651953	-0.00036450394	0.000100651974	-0.00034960004	0.0003979429	-0.00021269861	0.00012384081	0.0007667423	9.1698836e-05	-0.00048120046	0.00016541104	5.1166426e-05	-6.940884e-05	6.3567335e-05	-0.00038228248	0.0004502798	0.00044250255	-0.0005649225	-0.00047321204	0.00048119895	0.00017793142	-0.0010412005	-0.00060640025	0.00027345965	-0.00025323688	-0.0003087893	0.00049080106	9.868792e-05	-0.00012737306	2.1936823e-05	-1.5965757e-05	-8.407021e-05	-0.00020490178	-5.0367526e-06	-0.00058372546	0.0005905849	-0.00013501997	-7.550913e-05	-0.00036001106	7.113117e-05	0.0006602022	7.379424e-05	-0.0006638259	-1.4206358e-05	-7.4315474e-05	-0.0005127303	0.00064809027	0.00066214654	3.311615e-05	0.00071922445	-0.00038707966	-0.00011892436	-0.00040260793	0.0002588057	0.0002787907	0.0005346697	0.00031348132	-0.0003301942	0.000638792	0.00036214612	-8.1068785e-05	0.00027034976	8.485693e-05	9.0766e-05	0.00032602885	0.00077529333	0.0005376422	0.00015053537	-0.0002116918	0.0003422053	-8.1615144e-05	-0.00023448923	-0.00081001903	-2.7313275e-05	-3.4832156e-05	-5.083895e-05	9.954048e-06	1.987924e-05	-0.00025340676	-0.0001957955	0.00057243276	-0.0002841932	0.00014812614	4.726702e-05	-0.00030284305	0.00019983634	-0.0003652973	1.5444733e-05	-0.00010895799	-0.00025880997	0.00021225703	-0.0006796308	0.00035082508	-0.00020589853	0.000118757416	0.0005914995	0.0006387944	0.0006492343	-0.00045258403	0.00012441097	0.00060604454	0.00017004092	-0.0004684312	-6.992379e-05	2.4715075e-05	-0.0003302077	-0.00010265299	0.0003059849	-0.00010813984	-3.9450533e-05	-0.00031671912	0.00047379674	-0.0005170163	-0.00030406358	-6.036653e-05	-0.00012595367	-4.565245e-06	9.323776e-06	0.0001569991	0.0002494849	0.0005911718	-0.0001374332	0.00042569858	0.0008451715	4.609361e-05	-0.0006617446	0.00018111808	-8.727701e-05	-0.00026043027	-0.0004914651	-0.00018539571	-0.00013799191	-0.0002787524	-0.00043303572	0.000561386	0.00037052872	0.00047409371	-0.00024728716	3.3254822e-05	-1.6778647e-05	0.00018201325	-0.00018510691	-0.0005776951	-0.00023463297	-0.0006241843	8.582916e-06	-9.3822804e-05	4.6473277e-05	-2.0756474e-05	0.0010182399	0.0004391666	-9.482232e-05	-8.302405e-05	-0.00024780392	-4.11559e-05	0.00041746252	0.00020893815	-0.00058013183	0.0001602644	0.00034347072	0.00013367055	0.00014363282	0.000102376755	0.00038837688	0.00036229612	-0.00030505916	-0.00052116305	0.00029137786	0.00025368255	-0.00082837755	0.00015304433	0.00020482452	0.0002037647	0.00053943397	0.00029099645	0.00047587464	-0.00014783436	-0.0005015901	-2.7316877e-05	0.00047420195	0.0001292553	0.00048160375	0.00030331523	0.00059994723	-3.5365447e-06	-0.00031024773	-0.00032780052	0.00057308015	-0.0003071162	0.00022313824	-0.00021946503	0.00044886715	-0.00053525594	0.00042354886	0.0006028236	-0.00041084416	0.00036893407	0.00064338406	-0.00045857514	-0.00032703142	-1.8841321e-05	0.00026014398	-0.00011926974	-5.5687957e-05	-0.00030160774	-3.736782e-05	9.506205e-05	0.00034605712	-6.087619e-05	0.00015671307	-0.0007199435	0.00028686976	0.000245122	0.00070139585	-0.00030373866	-0.00021389974	0.00044684572	0.00043093832	-2.5606576e-05	-0.0004893774	-5.8131118e-05	-0.00015259408	0.000105592335	-0.0001797607	-0.0003317554	-7.290531e-05	0.00027504668	0.000122267	0.00026972918	-2.7213784e-05	-0.00039805437	0.0005606401	-0.00030621924	0.000567901	-7.349167e-05	0.00042582658	5.7994683e-05	0.00014961048	-5.8292077e-05	-0.00012519566	-0.00043655146	-0.0003550968	-0.000121319434	6.347499e-05	0.00011296016	0.00015726191	-0.00025509053	0.00032936363	7.6169526e-06	-0.0003251179	0.0007251516	6.7609944e-05	-0.00031213887	0.00060631667	0.0002139267	2.9847943e-05	0.00058605336	-0.000400439	-0.00042454465	-0.00029355293	-0.00029488	-0.0004935004	0.00028934685	-9.018283e-05	0.00035701832
Omitted-variable bias_2	0.00010884574	-0.00060181675	-3.844043e-05	0.00042675933	-5.279026e-05	6.313147e-05	-0.00011729251	3.7411322e-05	-8.0155754e-05	0.0002356923	-8.78962e-06	-0.0003699171	0.00022831926	-0.0005621024	0.000508582	-4.3702934e-05	-0.00027457293	-5.3343197e-06	0.00024625185	0.00011381524	-0.0005684214	0.0004989636	0.0005852226	-1.4814764e-05	-3.707818e-05	-0.00033938582	0.00028160764	-2.3622793e-05	0.00022294112	0.00037483798	0.00073319074	-0.00019309415	0.00021045958	-0.0003956581	0.0006375579	-0.00023564312	-0.00052906957	-0.00050626247	0.00015388336	0.00039090367	-9.2055045e-05	4.799756e-05	0.00030715583	3.1191088e-05	-0.00034256993	0.00019552285	-0.00014678232	-0.00042817535	-5.198026e-05	7.080778e-05	7.392518e-05	0.00016178557	-0.00073941005	-0.0002880029	0.00054689177	0.00038937005	-0.00022371321	9.5380215e-05	-0.00027603228	-0.0003426203	-0.00032661328	0.00027640912	-0.00016634178	-0.00020233732	-5.99255e-05	-0.00021726375	-6.7520734e-05	7.381315e-05	-0.00020871153	-0.00050890393	-0.00019107263	-9.169502e-05	-0.00014377946	-0.00019001955	-1.8571254e-05	-0.00014352817	-0.00017009546	-0.00049724267	9.489083e-06	-0.00010186749	-0.00013851294	0.00060442236	0.00043263347	0.00019387562	3.2313328e-06	-0.0008092455	-0.0004793656	-0.0003840181	-8.1175276e-05	0.00023028126	0.00046663778	0.000469072	-0.0004812691	0.0002141624	0.00024455067	0.00011275648	-0.00016871653	-0.0002745037	0.000664945	0.00017641856	0.00030057118	0.00012938371	0.00030637227	-0.00047676792	6.75776e-05	0.00050246355	0.0001610336	-0.00021107744	7.161305e-05	-0.00015630899	0.00017074561	-0.00019335408	1.4962377e-05	5.3800075e-05	-0.0003712263	3.0483881e-05	-0.00024628898	0.00038477566	0.00024248846	-0.0003011823	0.00014702587	-0.00031940744	-0.00044704147	-0.0004773845	-6.6079396e-05	0.00030965288	-0.0005503412	0.0005677575	-0.00027991008	-0.00027430736	5.011169e-05	0.00012507975	0.0002929776	-0.000675824	-6.4660903e-06	7.8782905e-05	-0.00024499214	5.0442977e-05	0.00035348444	-4.290361e-05	-0.0002287063	-0.00028383345	-9.1835245e-05	-0.0005671139	0.00029622702	-0.00013820907	0.0005158635	-0.00038504883	0.0001273788	9.304745e-05	0.0001552065	1.628077e-05	-0.00021801796	-7.97482e-05	-9.860332e-05	-0.00014322676	0.00012273724	0.00026388143	0.00044637453	-6.111199e-05	-0.0004671039	0.0007257771	0.0001186699	-5.898901e-05	-0.00021802918	-0.00014355214	-0.00013285443	-0.00031895435	-0.00029502227	0.0005119086	0.0003441769	0.000286371	-0.0002450204	2.5289992e-06	0.00021071086	0.00012330615	-0.0001950332	6.832074e-05	6.5939246e-05	-0.00019568088	-0.00018122529	6.095352e-05	-7.329419e-05	-0.00034738972	0.0003799422	0.00034901637	0.00041113616	0.00014697584	0.00023305917	0.00021688578	-8.0527505e-05	8.3955536e-05	4.537379e-05	-0.00039510583	0.00045480908	0.00013532134	0.0003002675	-4.4315337e-05	8.330076e-05	0.00037175766	-2.5470237e-05	-0.00018911641	0.00028654395	0.00056145864	-0.0005675125	-0.00041373703	-0.00019656298	7.141248e-05	0.0003225246	0.0003362065	-0.00036570468	6.3520514e-05	0.00027069353	-2.6386922e-05	0.00021988417	-0.0002996392	0.00016563397	0.00015021006	0.00035477846	-0.00044122993	-0.00028222063	7.545171e-05	0.00040089755	-9.761596e-06	0.00023376866	0.0002148811	0.00021273953	-0.00039958186	0.0004034989	0.0005113978	-0.00013616584	-1.5170296e-05	0.00016623376	-0.0003342725	-0.0004346957	-0.0001525375	0.00011337394	3.692601e-05	-0.00020953431	-0.00051732414	-8.9507295e-05	-0.0002239517	0.00033681278	0.00011235656	-0.0004714944	-0.00022197222	0.00025499566	-0.000180235	0.00016982718	-0.00017688186	-1.3412918e-05	0.00093021436	0.000147708	-0.000115293915	-0.00051015266	-1.9338964e-05	-0.00040529133	0.00035341797	1.06298e-05	-0.00023795805	-0.00015684839	0.00046873445	-0.00029506366	-0.0006238081	0.00016609178	-0.00036611702	0.00022642537	-0.00013269014	0.00030126722	-0.0003998581	0.0005534261	0.00028879152	-9.2767244e-05	0.0006273379	6.0814313e-05	-0.00032598476	-0.00017361641	-0.00019461155	-0.00026155965	-2.516988e-05	-0.00022098144	-0.00035325973	0.0002319266	-2.0732861e-05	4.297364e-05	0.00018428214	-0.00016451045	9.330254e-05	-0.00010204283	0.0005020794	0.00032561322	0.00042245653	-1.3983893e-05	-0.00046783648	0.00014228822	-0.0003659445	-0.00033225588	0.00020544448	-0.00024808128	-1.1445016e-05
Omitted-variable bias_3	1.3128522e-05	-0.00041152467	-0.0004954281	-0.00013659873	0.00066451076	2.109498e-05	-0.00013413423	0.00058694335	0.00013766483	0.00058648176	9.749102e-05	3.580141e-05	-4.518672e-05	0.00023009448	-0.00011705218	0.00038190675	-0.00015186484	-0.00035341864	8.844428e-05	0.00022851562	3.815745e-05	-2.976029e-05	-0.00012981845	-0.00020313021	-0.00016332245	-0.00048519237	0.00018633003	0.00035898853	0.00017301613	-0.00019857945	1.247232e-05	0.00048028596	9.406862e-05	-0.00018251296	-3.7218368e-05	-0.00025406454	0.0004939406	-0.00035878303	-0.00010309481	-6.9589936e-05	1.1285864e-05	-2.4871613e-05	-3.1430016e-05	-0.00020404623	0.00023153874	5.638771e-05	-0.0006693184	-6.352142e-05	0.00013970047	-0.00010108344	0.00015607197	-9.6896445e-05	-0.00010318113	-0.00031854337	-4.2659256e-05	-0.00031840242	-0.00073223864	4.014703e-05	-2.5681753e-05	-3.9454215e-05	0.00019188283	-0.00015373094	0.00022313374	-0.00035128955	0.0001422756	-0.00031963442	0.00021041823	0.00011178958	-0.00016343784	-0.0004160499	-8.558159e-05	-0.0004926516	9.9030636e-05	-0.00024806426	0.00012304205	3.1606698e-05	0.00027245394	2.5944277e-05	-6.0814982e-05	4.792063e-05	-6.212597e-05	0.000562482	0.00033119347	-0.00016892258	0.00026668084	-0.00035595428	0.00023790024	0.00012300652	0.00040874875	-0.000114994014	-0.00030294503	0.00017807935	0.0001619094	-0.00018011392	4.8370373e-05	0.00021467081	0.00035815197	0.00043569898	0.00020246429	0.00074378744	0.00044752812	0.00025962145	-3.1016647e-05	-0.00042489075	6.160677e-05	-7.201898e-05	-1.61056e-05	6.222685e-05	0.00011331804	0.000185623	0.00013650274	0.00014959987	0.00019763834	0.00022735202	-0.0003035425	-5.1283027e-05	0.0005343011	4.0864576e-05	4.0371408e-05	0.00023021491	0.00025431276	0.00015980762	-0.00028684185	0.00022996803	-8.665772e-05	0.00015749912	-0.0004332146	-0.00010914955	-0.00019769423	0.00018096264	0.0003081876	-0.00018808007	3.7098405e-05	9.081485e-06	-9.657362e-05	0.0005605487	7.899117e-05	0.00035336972	0.0004327643	-0.00025205253	-0.00036699546	0.0003146704	-0.00016598885	0.00011697987	-0.0002596025	0.00034635334	-0.00021258317	0.00011437331	-0.00022257281	-0.00056019245	-0.00012051251	1.1986589e-06	-0.00049380463	0.0005333754	-0.0003577013	9.3266164e-05	-0.00016011049	0.00037022535	0.00025386037	-0.00018444445	0.00032536368	0.00010601616	0.0001232972	-0.00012317789	-0.00013604078	0.0003734973	-0.00034646233	0.00021412202	8.8054985e-05	0.00016357395	0.00013267584	0.00021183939	-0.00022687098	-0.00030930253	-0.00021876786	0.00013227371	0.00034686655	5.6915647e-05	-0.00016093884	0.00022777384	-0.00057014317	0.0003522402	-8.861137e-05	-0.00035930006	0.0005978224	-3.52773e-06	4.756313e-05	-6.485672e-06	-0.0001236936	0.00017331373	0.0004747521	-9.97927e-05	-3.498721e-05	-3.9030303e-05	-0.00042492955	0.0002686544	0.000116257914	0.00018992602	-0.00014239846	-0.00024207414	-0.00010925041	-0.00052028656	-0.00054968736	-0.00012205951	-0.00051802176	-0.0005025106	6.906692e-06	-0.00053361483	0.00017693527	-0.00016561846	0.00028559007	-0.00020800842	0.00016549644	6.1928615e-05	0.00016370064	0.00029904302	0.00011884877	9.503855e-05	-0.0005410064	-0.00029769173	4.9582985e-05	0.00028447557	0.00023946665	-0.0001635052	-0.00031760355	0.00014401568	6.390261e-05	-0.00060486136	0.00011764709	5.6734232e-05	-0.00012246029	-0.00038442915	-6.8195172e-06	-0.00094964454	-0.00048621427	-0.000554318	0.00019958518	0.00032183097	0.00018930866	-0.00017212561	-0.000495358	2.8923469e-05	0.00043507264	0.0002671262	0.0001441454	0.0001045453	0.0001382242	0.00036438555	-0.00021705891	-0.00045170536	3.49345e-05	0.00025602945	-4.6235262e-05	-0.000117464224	0.00048341486	0.00017747382	-0.000712227	-8.280746e-05	-4.7270782e-06	-0.0002213464	4.397112e-05	0.00032881484	-4.917505e-05	-0.0003385738	0.00024330967	-0.00017930573	-5.3172666e-05	-0.0005020106	0.00040007845	0.0006589418	0.00014839381	0.00012977916	0.0005410588	-6.503972e-05	-0.00032814726	9.159562e-05	-0.00010790586	-0.0001117046	0.00025882735	1.5628935e-05	-0.00034577356	-0.00013611106	0.00015060879	-0.00023442425	0.0002827727	0.0007709603	-0.00014889511	-0.0003722741	-0.00010968252	-0.00035581487	-9.6269e-05	0.0002855581	-0.00017783548	-0.0002698663	-0.00028891477	-0.00020368618	-0.00035795633	0.0003675595	0.00027280606	0.0005269355
Omitted-variable bias_4	-0.00010175286	-1.034056e-05	-0.00038719122	-0.00038842915	0.00065945106	5.796523e-05	-0.0005148332	5.4291962e-05	0.00015528021	0.00018231134	0.0001092144	3.065642e-05	0.00035474368	0.00029246218	0.00010268876	0.00011057956	0.00022381991	-0.00033207823	0.00015690159	-0.0003996493	0.00032315447	9.625847e-05	0.0005405182	-0.0003920515	-0.000382191	-5.731268e-05	-0.0004436312	0.00010198866	-0.00015119855	-0.00033582945	-0.0002672075	0.00033758435	-4.8474656e-05	0.00014342231	0.00014245058	0.00016597334	0.00047645989	-0.00015253141	-4.628661e-05	-0.00048973213	9.751998e-05	-7.7699784e-05	-0.00021362586	-6.110075e-05	0.0002748617	-0.00021709825	-1.4510231e-05	-0.00016792848	-0.00015196887	9.235504e-05	2.9989847e-05	-0.00071104243	-0.00010040389	-0.0003690449	-0.00034864186	-8.1949576e-05	-0.00042318268	0.0005860134	-0.00042691373	-0.00018647285	0.00019395688	0.00019919658	0.00035795546	-6.872912e-05	0.00020633846	0.00045523766	0.00021478307	0.00061387895	0.00020436106	-0.0007553201	0.00017619382	-0.00039932982	0.00033080953	-2.7155089e-05	0.00023566336	0.00020145437	0.000455685	0.00016045623	-6.021572e-05	0.000105086794	-0.00019852142	0.0005462941	0.0007830655	0.00034258733	0.00030896094	5.4611945e-05	0.00018695653	0.00012420908	0.00016219766	-5.528059e-05	-0.00018430263	0.0006201994	0.00013772414	-0.00025543512	-0.0002838344	0.000466868	-2.042033e-06	0.00011886435	0.00030389347	0.0006598735	0.00018066714	0.00016376548	-7.885801e-05	-0.00011236582	0.0002686456	-5.5878976e-05	0.00045510987	-0.00026729307	-0.000112237096	-0.00022179776	-0.00020686693	-0.00036290532	0.0005104565	2.579034e-05	0.00016207698	-1.1557822e-05	0.0003360864	1.5502144e-05	0.00031918686	0.00029296015	0.0002319549	0.0006944652	3.6787802e-05	4.508599e-05	-0.00033526347	6.6654394e-07	-0.0004110322	0.00017052573	-0.00036197784	1.4941754e-05	-0.0002814344	4.9470087e-05	3.0802974e-05	-9.954254e-05	-0.0004884584	0.00032959806	0.00020294827	0.0004865629	0.00041804992	7.4663214e-05	0.00018643471	3.9397473e-05	-6.180762e-05	0.0002866274	-0.00010992626	0.00016620081	-0.00010973986	-0.00016747342	-0.00045204395	-0.00033265038	-0.0004695966	8.853213e-05	-3.288273e-05	0.00027433148	-0.0002553053	2.6208063e-05	0.00014303265	-0.00029436868	0.00026644446	-6.31967e-05	0.0005597907	0.00011662685	-3.1314634e-05	-0.00017337356	0.00023176637	0.0004449803	-0.00030943484	-3.2651336e-05	0.00022462697	0.0003718316	-0.00032989084	0.00013979066	-0.00040156886	-0.00020263322	-0.00024071406	-0.00021917078	0.00027238473	-0.00022373987	-0.00053379394	7.676304e-05	-0.0006722225	0.00042124907	-0.00054212916	-0.000641287	0.00037470946	-0.00010925818	0.0002624743	-7.40191e-06	-0.00018646776	-0.00025255088	0.00036598108	0.0002971852	0.00018897658	6.739658e-05	-8.4157975e-05	0.0003933091	0.00010484463	-0.00039068513	-5.597387e-05	-0.0003532552	-0.0002824957	-0.00047829346	3.315011e-05	-1.1935536e-05	-0.00018184233	-0.000522622	-0.00030593606	-0.00033899408	-0.00042614638	-0.00011692744	-4.9259896e-05	-0.00034528956	0.00031077987	0.0001249903	0.00019035311	0.000645261	0.00010072565	0.000347642	-0.00043637733	-0.00057681213	-0.00014006758	-8.3016435e-05	-0.0005922998	-0.00018089083	-0.00019093502	-2.6593985e-05	-0.00032309073	-0.00035446035	0.00015885977	0.0003502302	-0.00015368957	-0.00047127478	7.731646e-05	-0.0008887999	-0.00038141524	-0.0004167002	0.00036641312	0.0006873081	-0.00019503436	-9.6788835e-06	-0.00016972754	-0.00018452253	0.0003314439	0.00055078027	-0.00045069604	0.00017302511	0.00046360827	5.3347572e-05	-0.00029279286	-0.00040729402	0.00015189944	-0.00015283166	0.00029128444	-0.00041154496	0.00054399815	5.670762e-05	-0.00027316323	-4.8068556e-05	-0.00043484077	0.0002687566	0.0003618835	0.00050354097	0.000112928945	-8.5576416e-05	0.00038530034	-9.1181064e-05	-6.0205184e-06	-0.0002723414	0.00037054368	0.00044638768	0.0001028769	0.00013621464	0.00053635857	-0.0004217989	6.692409e-05	-0.00027851516	0.0002885494	-0.00033425007	2.3632025e-05	-0.00034890944	-0.00011190091	-0.00028366994	0.00029435582	0.00017627742	0.00035446472	0.0002774552	-0.0003224545	0.00017938703	-0.0002239514	-0.0005591435	0.00011693822	0.00028380324	-0.00029189998	-0.00071114104	-0.0004424771	-0.0003414724	-0.00075281016	0.00019100394	-0.00016515772	0.00050486374
Omitted-variable bias_5	-0.00023474834	-9.58698e-06	-0.00031310425	-0.00039336257	0.0006740858	5.432006e-05	-0.000576469	4.5046803e-05	0.00012658339	0.0001025762	0.00010521879	1.838424e-05	0.00026051915	0.00010922739	0.00012874213	3.0184292e-05	0.00011414165	-0.00031146838	0.00011216319	-0.00038345894	0.00032044758	4.5412715e-05	0.00046800103	-0.00035776454	-0.0004197043	-7.2876916e-05	-0.00041249255	6.803083e-05	-5.203024e-05	-0.00030574552	-0.00019897494	0.00028623367	5.4834407e-05	0.00011740502	0.00012938914	9.522439e-05	0.00045547294	-8.161768e-05	-0.00020590921	-0.0004811736	2.951142e-05	-9.252462e-05	-0.00015104443	6.160332e-05	0.00028741852	-0.00020630278	-7.48093e-06	-0.00015510614	-0.00021647618	0.00011543511	-3.489382e-05	-0.000760967	-0.00011837464	-0.0003641097	-0.00036835604	-9.6362055e-05	-0.00026988273	0.0005190654	-0.00036924804	-0.00021621847	6.0223272e-05	0.00012910285	0.00033881547	-0.00015684479	0.00022472399	0.00037757156	0.00021256745	0.0005210733	0.00012366817	-0.0008121443	0.00013878549	-0.00031951602	0.0002162884	-0.000110820874	0.0002407512	8.3807696e-05	0.0004133697	5.2588744e-05	-0.00011049778	4.9100785e-05	-0.00014194478	0.00054237293	0.00074375607	0.0003614154	0.0002057643	4.4313896e-05	0.0002696817	0.00016597337	9.53839e-05	-0.00013124867	-0.0001462018	0.0006323129	0.00015256164	-0.00021787222	-0.00025577878	0.0004216507	-3.820784e-05	6.4077074e-05	0.00029552082	0.0005412671	0.00012420671	0.00023746853	-0.000109608096	-8.505683e-05	0.00035197084	5.700849e-05	0.0004038755	-0.00014284033	-0.00012672211	-0.00017402488	-0.0002341838	-0.00042256742	0.00041240032	-9.316705e-06	0.00012171617	-5.743307e-05	0.00036667418	-7.8565354e-05	0.00036821517	0.00022676447	0.00021612563	0.0006373323	4.7871406e-05	-2.4451432e-05	-0.000319524	1.6808091e-05	-0.0003071685	9.4994975e-05	-0.00030304518	-3.411691e-05	-0.0002972741	0.00013399501	2.5211664e-05	-8.9694186e-05	-0.00047102565	0.0002979912	9.660689e-05	0.0005903507	0.0004270814	6.81367e-05	0.00017985451	5.8145673e-05	-9.256933e-05	0.000317228	-0.00013705928	7.526745e-05	-0.00014189894	-0.0001311761	-0.00031678783	-0.00032418233	-0.00029190705	0.00015138651	-5.822242e-05	0.00024020646	-0.0002618689	2.7337439e-05	0.00017790151	-0.00023450387	0.0001856857	-0.00016114264	0.0005288129	0.00018049557	4.9931405e-05	-9.6595366e-05	0.00031076174	0.00043577675	-0.00026148328	1.0748357e-06	0.00026483287	0.0003138551	-0.00031433444	0.00017176142	-0.00026557117	-0.00020984323	-0.00016674293	-0.0001705564	0.00015027903	-0.0001339546	-0.00041771968	0.00013399044	-0.00060060766	0.00039073938	-0.0004969149	-0.0006062334	0.00042532248	-2.4353161e-05	0.00020245604	4.239422e-05	-0.0002570575	-0.00010975721	0.000285548	0.00025180334	0.00010826061	-3.3759305e-05	-5.8264428e-05	0.0004196503	8.062635e-05	-0.000312363	-0.0001173677	-0.00032284914	-0.00029316015	-0.00042871846	4.706655e-05	6.103695e-05	-0.00023792562	-0.00051520363	-0.0003142799	-0.00034026563	-0.0004717688	-0.00022404152	-9.124708e-05	-0.00031639004	0.00030982832	0.00010141321	0.0001641557	0.0006131164	6.115758e-05	0.00028919452	-0.00043704754	-0.0005179336	-0.00013129275	-8.2659055e-05	-0.000521992	-0.00018232412	-0.00012347789	-5.650965e-05	-0.00022680659	-0.00035493748	7.090351e-05	0.00030348322	-0.00014883843	-0.00046985102	4.874795e-06	-0.00078450795	-0.00038898402	-0.00033812597	0.00031996274	0.0006321438	-0.00021047564	-5.428704e-06	-0.000104980376	-0.00018734248	0.00031400562	0.000516921	-0.0004995776	0.0001386357	0.0003469806	6.218889e-05	-0.0002290769	-0.00048120337	0.00018441243	-8.468829e-05	0.00032523004	-0.0003519402	0.00049829413	7.710204e-05	-0.000270833	1.7952907e-05	-0.0004146424	0.00019910485	0.00023731809	0.00050497433	0.00013375357	-0.00022039632	0.00033125962	-0.000120072946	-0.00012248495	-0.00027200027	0.00031974915	0.00036032012	5.2856758e-05	0.00012103865	0.0005158308	-0.00025142307	6.943727e-05	-0.00026104657	0.00017115464	-0.0003450638	2.7854998e-05	-0.00021287198	-5.387417e-05	-0.00012396013	0.00026780044	0.0001461992	0.0004651885	0.00017465926	-0.00032471798	0.00021960188	-9.7610464e-05	-0.00042230127	6.402119e-05	0.00014617557	-0.0003379228	-0.00065999187	-0.0003934204	-0.0003947075	-0.00067033886	0.00019555635	8.848183e-06	0.0004082582
Omitted-variable bias_6	0.00018491995	-0.00044301795	-0.0005364359	-0.0007968306	0.00087799196	0.00031230168	-0.0005709995	0.00046387434	0.00019160329	0.00014075646	0.00035389911	-0.00027550818	0.00030470392	-5.3619267e-05	5.349488e-05	0.00024782502	0.0003740653	-0.00034652793	-4.046898e-05	-0.00024124997	-5.62426e-05	0.00027075922	0.00017594956	-0.0002181193	-0.00018786064	0.00016509708	-0.0002149285	-0.00016111806	-0.00027785808	-8.288665e-05	1.8784162e-05	0.0003171965	-2.5038724e-05	0.00024241924	0.00032159142	-5.3284566e-06	0.0002437956	-0.00048285248	0.00031681644	-0.00029389036	0.00020935648	-5.407221e-05	-0.00018614234	4.1574025e-05	0.00029996881	-3.7894224e-05	-0.00036894012	-0.0002936407	8.64512e-05	-6.401895e-05	7.992236e-05	-0.00068499695	-0.000229917	-0.00015384641	-0.00057541067	-0.0004519429	-0.00081136415	0.00039322325	-0.0002976459	-0.00014596619	0.0005461142	0.00023858009	0.0003102061	-0.00010537058	0.0001119994	0.0003279421	0.0001311003	0.0006011763	0.00023622143	-0.00041080505	-0.0002466827	-0.00065087137	0.00060844555	-0.00025440785	-1.3431825e-05	0.00036052172	0.00027613848	9.4077484e-05	-0.0001073453	-7.193269e-05	-5.2626478e-05	0.00035830174	0.0006893502	0.000106434425	7.6945485e-05	-0.00027383008	0.0002638709	-0.00034190348	0.0001077931	6.074395e-05	-0.0005976316	0.0004641473	-4.08796e-06	7.275109e-05	-0.00020462458	0.00044071497	7.802607e-06	0.00022357723	-1.23140135e-05	0.00036451066	0.0001584397	3.3824133e-05	0.00016027006	-0.00021652387	6.4540574e-05	7.909978e-07	0.0004063351	-0.00031970456	0.00011652956	-8.998966e-05	2.382235e-05	-0.00018976185	0.00029848193	-3.6897665e-05	-0.00015028994	7.4579424e-05	0.0005354491	5.2655796e-05	0.0004153736	9.554777e-05	0.0005830284	0.0003766417	-0.0003365584	-0.00017746813	-0.00056883116	3.8120335e-05	-0.00072569144	0.0004748067	-7.273927e-05	-0.00029977088	7.2829906e-05	-7.161927e-05	-4.8629467e-05	-0.0002695806	-7.3534347e-06	0.00036806858	0.00047924827	0.00046547002	0.00018608241	-2.6558122e-05	0.00012447455	-0.0003215332	-0.000361961	0.00033578908	-0.0002142512	8.193676e-06	-4.114752e-05	-0.00014939826	-0.0005836551	-0.00035058032	-0.0006816563	0.00013673109	-0.00033424553	3.1520387e-05	-0.00044394005	0.00016805573	4.718728e-05	-0.0001874417	-0.00019666158	-0.00014566764	0.0002610819	0.0002423817	-0.0005369368	-8.2094884e-05	-3.46445e-05	0.00025477668	-0.00023276896	-0.00019109732	0.00024059597	0.00023120943	-8.2705956e-05	-6.671836e-05	-0.00046129397	-0.00030610946	-6.6902314e-05	-0.00015982597	0.00045452468	-0.00036560692	-0.00041099344	-0.000102608756	-0.0006368428	0.00040490343	-0.0006380865	-0.0006161281	0.00036541873	-0.00036315699	0.00021172277	-0.00033260538	-0.000107225154	6.866016e-05	0.00023799077	0.00014168872	0.00012115665	-0.00013520026	-0.00018583823	0.00016392488	0.0002742939	-0.00020586743	-0.00043564933	-0.00045504945	-9.831122e-05	-0.00013271079	-0.00028549336	0.00010225546	-0.00022797626	-0.00039836593	-0.00010412663	-0.00039594233	-7.084715e-05	-8.252864e-05	-0.00012829971	0.00013632483	0.00020700406	-0.00021282125	5.761338e-05	0.0006879907	-0.00016571333	0.0004967619	-9.6240816e-05	-0.00045217978	-0.0004252044	-0.00024826877	-0.00051171344	-2.4130559e-05	-0.00014936425	0.00024125868	-0.0001420127	2.4533281e-05	0.0005492878	0.00012064844	-0.00022463065	-0.00035555157	2.9904826e-05	-0.00043720374	-0.00022436578	-0.00030325132	0.00034692703	0.0002946504	-9.5296615e-05	-4.5236742e-05	-0.0002466872	-0.0001744779	0.00039314438	0.00023574282	-0.0005431234	2.7114731e-05	0.0004707844	0.0003078015	-0.00010794317	-0.00037788763	0.00017460623	0.00025039358	0.00030437042	-0.00023251891	0.00038200102	-0.00012388628	-0.0005140607	-0.00015298513	-0.0005702489	0.00014673929	-0.00016343978	0.00034721187	-7.027412e-05	-0.00012339703	0.000565215	-0.000112582595	-3.5620626e-05	-0.00029628875	0.00028532505	0.00065627537	-0.00012262163	0.0004029187	0.0003849716	-0.0002627307	0.00025105113	-0.0005940796	-9.304849e-06	-0.0003922557	-2.4354752e-06	-0.00065156707	-9.520926e-05	-0.00026442512	-6.289161e-05	-1.4715891e-05	0.0004639293	0.0005866652	-0.00026824485	0.0001971084	-0.00037527128	-6.775091e-05	0.00020859978	0.00038164202	-0.00025514228	-0.00037899142	-0.00025869327	-0.00016678909	-0.00064671616	-2.3092307e-05	-0.00048625199	0.00064548984
Omitted-variable bias_7	0.00015126959	-0.0004168436	-0.00039323437	-0.00033962514	0.0006121449	0.00016594662	-0.00030759105	0.0005118888	-0.00018043193	0.00014781652	0.00029605476	-0.00026355323	0.00012234441	-0.00036021695	0.00022165079	0.00024946776	0.00015253073	-0.00032433093	6.0512866e-05	-0.0003350886	-0.00024608403	0.00015518654	0.00024360705	-0.0002121575	-1.1727411e-05	-6.628159e-05	-1.4931565e-05	-0.0002919519	-4.8237453e-05	-2.4117424e-05	-4.9593848e-05	0.00019890156	-9.015387e-06	6.755751e-05	0.00049712113	-0.00027757537	0.0001551713	-0.0004796791	0.0003999688	-5.8339712e-05	0.00023256867	-0.00010431891	2.3546227e-05	0.00028633868	0.00027282358	0.00010853038	-0.00039440693	-0.00027844709	-2.1942578e-06	-6.335559e-05	-5.8492573e-05	-0.00053393183	-7.0325215e-05	-0.00044713813	-0.00016141568	-0.00029096857	-0.0006194094	0.00056157244	-0.00022175132	-4.885503e-05	0.0004597094	0.00017101741	0.00031029963	-0.0004815373	0.00023194656	0.00017905906	1.5501542e-05	0.0006691463	0.00011589727	-0.00031202205	-0.00032976293	-0.000360284	0.000494482	-5.8622667e-05	-9.712957e-06	0.00025488014	0.00015027662	-0.00014428944	-8.3017425e-05	0.0001376649	-0.00015556483	0.00068799144	0.00053214654	0.0003256119	-4.0377695e-06	-0.00033058255	8.392196e-06	-0.00030339914	-1.7569766e-05	0.00019469298	-0.0004922012	0.00047363475	-8.9925e-05	4.8698697e-05	3.6211724e-05	0.00021053171	4.319454e-05	0.00013321394	6.098232e-05	0.00030917604	-2.4787465e-05	0.00017527505	0.00028320227	-0.00024662903	0.00022291859	0.00031660113	0.00021731303	-0.0001805422	0.00016927162	-0.00027206205	0.0002542473	-0.00015967188	0.0001724484	-8.999318e-05	-0.00027930367	3.2205535e-05	0.00016051922	0.000117504445	0.0002831491	9.2660324e-05	0.00042691678	0.00017941032	-0.0004677431	-0.00021253532	-0.0005886128	-6.127618e-05	-0.0007617506	0.0003505317	3.9858012e-05	-0.0003105797	0.00013946457	6.4830514e-05	-5.4754546e-05	-0.0004338859	0.000120966666	0.00014428893	0.00053688977	0.0005195107	0.00016041152	-0.000110471665	0.0001993574	-0.00035458227	-0.00039105688	7.561149e-05	-0.0003183516	-6.566855e-05	0.00011083756	-6.586929e-05	-0.00055260374	-0.00021228581	-0.00027551813	-5.861432e-05	-0.00018569305	2.1057376e-05	-0.0004375545	0.00017073924	0.00015039658	5.8657656e-06	8.142618e-06	-0.00014323062	0.00010543302	0.0004163724	-0.00030952017	-1.9838249e-06	-4.3418833e-05	0.00018144533	-0.00014487072	-5.4502176e-05	0.00029541604	0.00011972223	-6.841415e-05	0.00015235973	-0.0003366063	-0.00036375195	1.8194793e-05	-0.00026397526	0.00018458374	-0.0003314431	-7.542601e-05	-1.0155544e-05	-0.00062429055	0.00018222386	-0.00030627113	-0.00062545453	0.00010398141	-0.0003691668	0.0002961885	-8.8337554e-05	1.5191935e-06	0.00020029845	0.00010192119	0.00010776179	5.4917673e-06	-0.00019307592	-5.3573453e-06	9.125667e-05	0.00041309497	7.586524e-06	-0.00041788115	-0.00028177333	0.00011508698	-4.5322366e-05	-0.0001455677	0.0001655973	-0.00031931303	-0.00033189065	-9.502059e-05	-8.046965e-05	5.289252e-06	-0.00016119661	-0.00024028296	0.00020580502	0.00020543273	7.307602e-06	-6.539088e-05	0.00027248813	-0.000103596416	0.0004555828	0.00018186095	-0.00049833657	-0.0002642809	-0.00022120014	-0.00023784324	0.00018290071	6.6081804e-05	0.0002163529	4.7020044e-06	6.0342598e-05	0.0005462308	0.00023348603	-0.00053394266	-0.0003160468	8.3155566e-05	-0.00038208795	-1.4261454e-05	-0.00019803678	0.0001217661	0.00024139945	-9.338389e-06	-8.36779e-05	5.1276224e-05	-2.4625599e-05	0.00035061626	0.00018682594	-0.0003525357	-0.00010269164	0.00026389852	0.00017887655	8.9187975e-05	-0.0003259926	0.0002380883	0.00024447413	0.00043037735	-0.00017418353	2.7591203e-05	-0.0002707049	-0.00033641892	6.9887945e-05	-0.00027424266	-2.8721808e-05	5.1200503e-05	0.00030706477	7.3983276e-05	-0.0002421369	0.0006366226	-5.645019e-05	6.80393e-05	-0.00027158548	0.000264211	0.00039197406	2.68326e-05	0.0003208612	0.00038397638	-0.0002891627	0.0002995439	-0.0003952352	-0.00010277059	-0.00015813479	1.1642105e-05	-0.00030559048	-0.0001928193	-0.0002569979	-0.0002445536	-0.000183547	0.0004243435	0.0005622515	-8.0139835e-05	3.787338e-05	-0.00040644762	6.4003885e-05	0.00045323718	0.00028855746	-0.00028556335	-0.00032055058	8.287256e-05	-0.00036493092	-0.0004100916	0.00016296569	-0.00046736264	0.000494204
Omitted-variable bias_8	7.287932e-05	-0.00015078927	-0.00013562888	-0.0003893576	0.00061035884	0.00010437372	-0.0004619397	0.00042014293	0.0001450461	0.00025015848	0.0002465359	-0.00017699279	0.00022175659	-0.00017559878	0.00021183195	0.000267094	8.6681124e-05	-0.00019943321	0.00027722164	-0.00040619035	5.6219742e-05	8.003279e-05	0.00024439505	-0.00010479929	-0.00031523893	-3.4580353e-05	-0.00027033032	-5.5790053e-05	-8.199429e-05	-0.00016122981	-0.00011749648	0.00033258426	-8.266462e-05	0.00017430795	5.8866404e-05	-0.0001594289	9.288745e-05	-9.0318244e-05	3.0612722e-05	-0.00023151455	-3.2750977e-05	-0.00030328636	-2.7738366e-05	6.625484e-05	6.103685e-05	7.352551e-05	-0.00022478402	-9.841e-07	-0.00012949579	-1.4660884e-05	-0.00010490453	-0.00034118275	-6.0694358e-05	-0.00034403554	-0.00026175397	-0.00015076416	-0.00051188597	0.00042800984	-0.00025736756	-0.00024204602	0.0002771073	5.2919546e-05	0.0003549232	-0.00028958233	0.00013578159	0.00035710557	9.69274e-05	0.0005110491	0.00023212108	-0.00045132914	-8.8297435e-05	-0.00030422022	0.00047831755	-0.00016272013	7.998638e-05	0.00039812794	0.00039776333	-7.770191e-08	-9.4355026e-05	0.000100935424	-0.00019196494	0.00057033345	0.00034178668	0.00020527556	0.00019157535	-0.0001841847	0.0001252266	-0.0001742059	7.2996525e-05	-0.00026751967	-0.000540176	0.0005069991	7.019045e-05	-0.00011769383	-0.00013780859	0.00050743564	0.00010800159	0.00012244083	0.00020947515	0.00048477913	0.0002492348	0.00028841983	0.00021075206	-0.00031091605	0.00023252338	0.00015022578	0.00023395295	-0.00040722926	8.740935e-05	-0.00019617777	-7.335651e-05	-0.00023522261	0.0002062995	-0.00015929315	-8.3828985e-05	-8.347524e-05	0.00037003285	-0.00014461837	0.00024605475	0.0001904703	0.00022057527	0.0005237262	-0.0001729982	0.00014677677	-0.00038904228	5.1776864e-05	-0.00059175026	0.00013543412	-0.000106310414	-0.00017986601	8.549109e-06	6.890205e-05	6.940194e-05	-0.00023874652	-0.00012966026	0.0004182891	0.00027527602	0.00035343188	0.000113411916	-1.7346614e-05	0.00020346495	-4.0880746e-05	-0.00021451389	0.00023355546	-0.00027079502	-7.921716e-05	0.00013516548	7.4815216e-05	-0.0005217276	-0.00036364386	-0.00037356297	7.523369e-05	-1.8726461e-05	0.00020177478	-0.00030956446	0.000109797045	4.5645607e-05	-0.00019703025	0.00031107472	-0.00013346605	0.00038213498	0.00017307619	-0.0002937783	-1.2331585e-05	-9.046712e-07	0.00017169268	-0.00013082977	4.0832187e-05	0.00014432835	0.00011552504	-2.5293395e-05	5.3243777e-05	-0.00030980114	-0.00037539194	-0.00034694577	-0.00025443977	0.0002614511	-0.00029925923	-0.00032214232	0.00011620378	-0.00059483154	0.00033390953	-0.00040270507	-0.00046088718	0.00031991847	-0.000103383885	-9.5397154e-05	7.5483666e-05	-0.00039693725	-0.00012015675	0.00037788364	0.00020203435	0.00011665892	6.967635e-05	2.614761e-05	0.00010915966	0.00029008416	-8.888355e-05	-0.00026826793	-0.00025236703	-0.00015092583	-0.00034255366	-0.00019502231	5.9053473e-05	-0.00024380321	-0.0003531171	-2.8237882e-05	-0.00017627417	-0.00021651956	-0.0001653181	6.626907e-06	9.1369024e-05	0.00017111037	7.374979e-05	0.00015394953	0.000431979	-2.7953318e-05	0.00036516853	-0.00010182327	-0.00043284195	-0.00016117538	-8.834838e-05	-0.000229785	5.2828378e-05	-3.4351855e-05	-1.9496795e-07	-0.00011835425	-0.0004325279	0.00032265982	0.00033937462	-0.00025374832	-0.00037709216	0.0002013892	-0.00059654884	-6.800889e-05	-0.00029811572	0.00025097234	0.0003907501	-9.341695e-05	-3.1480977e-05	-0.00010019304	-0.00013403763	0.00028734727	0.0005065354	-3.0604435e-05	-0.00010291346	0.00045730593	0.00019942962	-0.00012773614	-0.00051684666	0.0002561358	-4.3866195e-05	0.00023144606	-0.00028314846	0.00025331357	-4.350498e-06	-0.00030302387	-3.6689398e-06	-0.00017650801	0.00010576339	0.00035719262	0.00027138935	-1.93668e-05	-7.916521e-05	0.00048272268	-8.372104e-05	1.868011e-05	-0.0003230105	0.00030675507	0.00019980971	0.00017243128	0.00035437042	0.00039563124	-0.0003320679	0.00017027996	-0.00021970994	7.239162e-05	-0.0001985144	0.00020459706	-0.00014242831	-0.00014360445	-0.00017773827	6.88036e-05	8.7957014e-05	0.00040639337	0.0005413632	-0.00013191106	8.177946e-05	-0.00015759125	-0.00016711921	0.00044156102	0.00027845916	-0.0001433441	-0.00048707044	-4.9324262e-05	-0.0004194001	-0.00037452969	0.000271671	-0.0002323361	0.00043487738
