	0	1	2	3	4	5	6	7	8	9	10	11	12	13	14	15	16	17	18	19	20	21	22	23	24	25	26	27	28	29	30	31	32	33	34	35	36	37	38	39	40	41	42	43	44	45	46	47	48	49	50	51	52	53	54	55	56	57	58	59	60	61	62	63	64	65	66	67	68	69	70	71	72	73	74	75	76	77	78	79	80	81	82	83	84	85	86	87	88	89	90	91	92	93	94	95	96	97	98	99	100	101	102	103	104	105	106	107	108	109	110	111	112	113	114	115	116	117	118	119	120	121	122	123	124	125	126	127	128	129	130	131	132	133	134	135	136	137	138	139	140	141	142	143	144	145	146	147	148	149	150	151	152	153	154	155	156	157	158	159	160	161	162	163	164	165	166	167	168	169	170	171	172	173	174	175	176	177	178	179	180	181	182	183	184	185	186	187	188	189	190	191	192	193	194	195	196	197	198	199	200	201	202	203	204	205	206	207	208	209	210	211	212	213	214	215	216	217	218	219	220	221	222	223	224	225	226	227	228	229	230	231	232	233	234	235	236	237	238	239	240	241	242	243	244	245	246	247	248	249	250	251	252	253	254	255	256	257	258	259	260	261	262	263	264	265	266	267	268	269	270	271	272	273	274	275	276	277	278	279	280	281	282	283	284	285	286	287	288	289	290	291	292	293	294	295	296	297	298	299
Weight function_0	9.417603e-05	-0.00028850453	-0.0007886714	-0.00037108082	0.00036738347	-5.3040236e-05	-0.0002575434	0.00034975662	0.00038123297	0.00042516924	0.00026367576	-0.0002515006	0.0005468876	0.0007043848	-0.00027223586	0.00032664737	0.00042428935	-0.00020927757	0.00024875166	-0.0005942338	0.00016055626	0.000295908	0.0003176253	-0.0003841159	-0.0005809375	-5.587206e-05	-4.955389e-05	6.0238937e-05	-0.00024199471	-0.0005407225	-0.0003657298	0.00019564154	-0.00015151894	0.00037339068	0.00031132778	-9.755819e-06	0.00053430884	-0.0006899734	0.00032504497	-0.00047878825	-4.2828422e-05	-0.00043588338	2.2333465e-05	0.00015588701	0.00014499741	-0.000115967116	0.00034188008	-0.00040734088	5.3812357e-05	-0.0001827351	0.00019349225	-0.0004995592	-7.472507e-06	-5.8022655e-05	-0.0005058749	-0.0003625306	-0.0005875784	0.00070762815	-0.0005572539	-0.00016170024	0.00033783246	0.00016111601	0.00014525464	-0.00010335249	0.0003501959	0.0005873038	0.00040830116	0.000676906	0.00014653377	-0.00085328624	-4.3719014e-05	-0.0005214153	0.00040933632	-6.923144e-05	-8.144512e-05	0.0002030271	0.00037074773	0.0002530556	0.00019258111	0.00029228535	-0.00047477594	0.00013595635	0.00080768083	-0.00010651246	0.00040062022	-0.00034247214	0.00019553993	-0.0002657768	0.00018900332	0.00018404008	-0.00038670783	0.0005820779	0.000118472875	-0.000238186	-0.00011203314	0.00022503214	0.00022299468	0.0002008461	0.00023425836	0.00042387864	4.821044e-05	1.4839792e-05	-0.00023523558	-0.00014001154	0.00034897175	8.187919e-05	0.00017615079	-0.0008078857	-5.055225e-05	-6.7678106e-05	9.890021e-05	-0.00032509703	0.0003884599	-2.256673e-05	-3.0934803e-05	5.790392e-05	5.4576136e-05	0.00021317824	0.0005371125	3.6398633e-05	0.00031908177	0.00076627015	-0.00017068794	9.544476e-05	-0.0006194	-0.00010921853	-0.0006771147	0.0004573263	-0.00051375746	-0.0003282148	-0.00037171398	-3.932832e-05	0.00030190352	-0.00011696569	-0.0001891245	-1.0204e-05	0.0003096848	0.0005061176	0.00035061955	0.0002056527	-3.2416952e-05	-0.0003334602	-4.799581e-05	0.0004641091	3.9895796e-05	0.0003615174	1.2508156e-05	0.00015508082	-0.0007214026	-0.0005103778	-0.00027527593	-0.00016688011	-3.66516e-05	0.00047180193	-0.00017767426	0.00039399025	-4.3169814e-05	-0.0002908523	0.0006298023	0.00015162527	0.00022498038	0.0001802345	-0.00039613206	-0.00035583766	0.00017236073	0.00052477635	-0.00019006882	-6.0735056e-05	0.00021201799	0.00038011212	-0.00040771358	-0.00023425494	-0.0006250279	-0.00012496604	-0.0003574993	0.00015281778	8.430667e-05	-0.00029054162	-0.0007951903	6.954479e-05	-0.00058980775	0.00025473142	-0.00063809636	-0.00078897865	0.00043601982	-0.0006276368	8.5313586e-05	-0.00015599452	-0.0002552045	-0.00017339342	0.00048705965	9.094888e-05	0.00018522188	4.5759643e-05	-0.0001236017	0.0005524744	0.00041152118	-0.0001511092	-7.11383e-05	-9.617422e-05	-0.00038052982	-0.0003528572	9.7740485e-05	-3.5635207e-05	-0.0001267987	-0.00048850436	-0.00016717071	-0.00031565738	-0.00014898143	-3.6869205e-05	7.361629e-05	-0.00030723613	-0.00022011033	-0.000102306985	0.0002920388	0.0004922153	-4.4785906e-05	0.00036505118	9.0550975e-06	-5.2397514e-05	4.410168e-05	-0.00050668814	-0.00039832245	-0.0003005392	-5.8926053e-05	0.00021453117	-7.95705e-05	-0.00013311012	0.00038337128	0.0005284021	6.863341e-05	-0.0006145976	0.0003104513	-0.00096516777	-0.0004649064	-0.00073313486	0.00072736223	0.00051785813	-0.00018060657	0.00026661405	-0.00039509483	9.0265545e-05	0.0005489172	0.00018877446	1.0045666e-05	0.00072602584	0.0008425333	0.00014111925	5.5003893e-05	-0.00022514584	1.8477189e-05	-0.00029697164	0.00018573712	-0.0003263524	0.00034344383	-0.0002501967	-0.00016990073	0.00017025307	-0.00022369546	0.00010198096	1.7899625e-05	0.00069703255	-1.9479387e-05	6.587498e-05	0.00063478784	-0.0001569703	0.0002578758	-0.00029931183	0.0003355979	0.00014144393	0.0003170813	0.000481331	0.00040715208	-0.0007087777	-3.772443e-05	-0.0007907134	0.00023084808	-0.00033928186	-0.00013979805	-0.00078586873	-0.0001935138	-0.0007167869	0.00014596766	-4.770374e-05	0.000113622984	0.00089958974	-0.00030891594	0.0001510502	-0.0007117932	-0.000847989	0.00024058453	0.00024676407	-0.00017293575	-0.00068717264	-0.00027862753	-0.00032436108	-0.00034799526	0.0001490605	-0.00064176484	0.00045878236
Weight function_1																																																																																																																																																																																																																																																																																																												
Weight function_2	-0.00013144528	-7.562042e-06	-0.00013361362	-0.00060846825	0.00019241986	0.00026539929	0.0005884999	0.00016311828	0.0005298351	-0.00059896323	-0.00043073323	-0.0006283092	-3.881618e-05	-0.00041701546	0.000113843475	-0.00032703608	1.8961304e-05	0.00044444748	-3.4836838e-05	-4.1198924e-05	-0.000471306	6.303129e-05	0.00066283427	-0.00014094227	-0.00029065824	9.362035e-05	0.00030863512	-0.00020478385	0.0003495907	-3.981146e-05	-0.00031190627	-0.00039768804	0.00043946132	-0.0001277302	0.00070247933	0.0001690178	-5.9746886e-05	-0.00056909595	-8.4399726e-05	0.00031325972	4.043766e-05	-8.14194e-05	0.00045432287	3.7452814e-05	0.00017677143	0.00034401665	-0.00021486876	-7.4507276e-05	-1.0941527e-05	0.00031884154	0.00022460063	-0.00013747286	-0.001083731	0.00014868917	0.00032391032	-0.00018613807	0.00025287745	0.00014110233	-0.0003229908	0.0003614123	-0.00011640293	-6.773479e-05	-0.000107708925	-0.00028017632	0.0003472625	-0.0002653077	0.00017346271	-9.336226e-05	-4.5289893e-05	-0.00013280359	-0.00025489455	4.544214e-05	-0.00024009772	-0.0003545583	-2.4458027e-06	-0.00028234036	0.00047800824	-0.00025185585	-0.0002326486	3.6978727e-05	-0.00021069097	5.2573774e-05	0.00013447633	0.0005788325	-0.00050218217	-0.00058847474	-0.0002634165	-0.0006404997	-0.0005203187	-0.00026563622	-0.00028382448	0.00033298606	0.00065349846	-0.00027050276	-0.0003970586	-0.000104188664	-0.00015852416	8.4920845e-05	0.00021066122	-0.00047799325	-9.950949e-05	-8.461822e-05	0.00011226656	-0.00048843666	0.0008282349	0.00045050922	0.00025103203	0.00020682337	0.00039184358	-0.0001229555	-0.00023865381	0.0004924423	1.1525846e-05	2.903749e-05	-0.00035513192	-0.0002738154	0.00030400258	0.0002517221	0.0009521386	-8.841725e-05	0.00034697127	-0.0004515246	-0.00024295565	-0.00031823505	-0.0001492848	0.00013471716	-0.00015711167	-5.9405917e-05	-3.6121888e-05	-0.00045451958	-4.6339755e-05	-0.00012385353	-0.00041729436	-0.00014584723	3.9498285e-05	-0.00019833256	0.00024221455	0.00062685844	0.0004301145	0.00024793623	0.0004402351	-0.00042141377	-0.00045203153	-0.00025449521	0.00017630223	0.000315763	0.00029173138	-0.000619781	-0.00034779828	-0.00024163155	0.000107695836	0.00024743963	0.00011490342	-0.00055154815	-0.00066701585	0.0004892594	0.00041109472	-0.00018127404	-0.0001765718	0.00036156405	1.4663582e-05	0.0008565296	0.00030650114	0.00040977544	0.00030009993	-6.559611e-05	9.14544e-05	-0.00047153444	-0.00027265522	0.0004239174	0.000670372	-0.00024090322	-0.00030606877	-0.00061871094	0.00058674254	-5.6916124e-05	-0.00026213506	-1.6534219e-05	-0.00033765583	-1.63089e-05	-0.0001433935	0.0006972955	-0.0005724827	-0.0006983549	-1.2374084e-05	-0.00019383754	-0.0004048895	0.00039368635	0.00014888887	0.00035041553	0.0005481212	-0.0003764406	0.00015045416	-0.00025784376	-0.00021089191	0.0003738632	7.188776e-05	-0.00043978862	-0.00028993003	0.00054569694	4.3481592e-05	-0.0006570189	-9.4170864e-05	0.00022388619	-0.00040777255	-0.00025928984	-2.6017331e-05	-4.8821053e-05	0.00022000923	-0.0009227513	-0.00093141093	0.0006974741	0.00021863321	-0.0002902125	0.00060121313	-0.0005780718	-1.4663911e-05	-0.00017786292	0.0006251096	-0.0004432423	-0.00040996732	2.3651552e-05	5.64293e-05	0.0003445674	0.00028494507	3.1075364e-05	0.0001627711	0.000313063	0.00014434716	-0.00027931435	8.777727e-05	-0.0004372624	-0.0005641844	-0.00038840488	2.1020229e-05	3.051676e-05	0.00028307433	-0.00012336716	0.0002467335	-0.00013334579	-7.369452e-05	0.0004899924	8.581752e-05	-0.00044459786	-0.0008619277	-0.0003142624	-0.0003672322	0.00011212576	0.00027030395	-0.00041442443	0.00035574395	0.00027627105	-0.00019089875	0.00023484563	0.00051072595	-0.00031078383	-0.00037736262	0.00026750413	-0.00015773086	3.7774844e-05	0.00010527835	-0.0002832099	2.4446103e-05	-0.0005491601	0.0003277473	0.0003157954	-0.00024832124	0.00042226582	-0.0004220482	-6.0380185e-05	-0.00021076413	-0.00020177662	3.4137713e-06	0.00027227946	-4.782242e-06	-0.00026381767	-0.000100796504	-0.00015460288	0.00051892566	0.00042046205	0.00032845404	-0.00021390339	-5.551363e-05	0.0002570077	3.6206206e-05	0.00015932841	0.0001642884	0.00021872018	3.590689e-05	0.0005627326	-0.0003761929	0.0005277446	0.00021485589	8.112298e-05	-0.00016875706	-0.00072916376	-8.19959e-05	-0.00021660564	-8.6221604e-05	-1.540943e-05
Weight function_3	7.392642e-05	-0.00046924988	-0.0007379988	-0.00029626163	0.00017821387	0.00010111494	-0.00022459493	0.00029840897	0.00024932882	0.00032265563	0.00041700527	-5.4104676e-05	0.00036993882	0.00049405213	-0.00023524888	8.1470804e-05	0.00054006354	-0.0005810647	0.00020148953	-0.00048879057	0.00028192272	0.00010416622	0.0002998513	-0.00037490827	-0.0006915123	9.859944e-05	-0.00017760332	0.00017617353	-9.6725664e-05	-0.0006931515	-0.00024138461	0.00013503467	-0.00033596423	0.0005534599	-8.61037e-05	0.00038838	0.0005370868	-0.00055655616	0.00025849332	-0.00029592484	0.00011516291	-0.00039242124	-0.00039078508	0.00011875437	0.00015183311	-7.4043535e-05	7.873807e-05	-0.00070857373	-0.00022655766	-0.00012621286	2.5475967e-05	-0.0003581327	8.896775e-05	1.4250593e-05	-0.00066607783	-0.0004247859	-0.0005638761	0.0006277553	-0.0005931295	-5.623155e-05	0.00030616045	-5.6794015e-05	0.00027309082	-0.00013984827	3.89446e-05	0.00066493615	0.00028151224	0.00045624576	0.00010518565	-0.0008142731	2.2598155e-05	1.1082713e-05	0.00030674587	0.00015037681	-0.00028727183	0.00020871965	0.0007081511	0.00034280063	8.453718e-05	7.1943796e-05	-0.00044991676	-8.8416564e-05	0.00062535773	-0.00019600785	0.0003196879	-0.00021281114	0.00031072972	-0.00026682613	-0.00011379106	0.00015646777	-0.0002614521	0.0006983667	0.0002699686	-0.00019770533	-0.00014287383	0.00021625968	0.0002578398	0.00040887052	0.00035173487	0.00025394998	0.00016443718	0.00010233106	-0.00041483867	-1.5838079e-05	0.00044706868	-0.00037120853	0.000286211	-0.0006886667	0.00018408815	0.00030323095	-0.00023066236	-0.00027985818	0.0002944353	0.00012810898	-6.580173e-05	-0.00012038545	0.00042406676	3.2876178e-05	0.00063019036	0.000281323	0.00018977147	0.00090024434	-0.00020504143	9.589539e-05	-0.0005485401	-0.0002349857	-0.00083855796	0.00077787996	-0.0004897774	1.6046713e-05	-0.00025924543	-2.8983004e-05	0.00015064712	-0.00038245434	-0.00034196628	-5.665186e-05	0.00022200771	0.000611632	7.771928e-05	0.00026882495	-0.00020319146	-0.00022778407	-5.840763e-05	0.0005700928	-0.00016939564	0.00027335703	-0.0001723607	0.000115943825	-0.00058274454	-0.00066690263	-0.00022880358	-0.0003393401	-0.00014104921	0.0005743547	5.402566e-05	0.0002042249	-0.00018382545	-0.00018408528	0.00079998904	0.000184604	0.00015093706	-4.6219193e-05	-0.00064776215	-0.00024052645	0.0002005696	0.000686533	-0.0003445161	-1.6296903e-05	0.00021435536	0.00040042878	-0.0006048561	4.8885395e-05	-0.000596047	-0.00033431067	-0.0007783801	0.00020003325	4.837678e-05	-0.00010135818	-0.0006772859	7.477771e-05	-0.00013264085	0.00032050462	-0.00079801644	-0.0007074636	0.00042224297	-0.00046193667	-0.00013607151	-2.8631366e-05	-4.9756785e-05	-0.00049774256	0.0004427689	0.00020672446	-7.2389375e-05	0.00028841163	-8.2528226e-05	0.00036741613	0.00026083933	-2.662364e-05	-5.766076e-05	-4.269475e-05	-0.00038429687	-0.00023301784	2.0262565e-05	-9.7472956e-05	8.91957e-05	-0.00059975905	0.00018157277	-0.00050516916	-8.4054205e-05	8.376613e-05	0.0003622325	-0.00044584725	1.3919192e-05	4.4510725e-05	5.534105e-05	0.00035678787	0.00011650328	0.00037175603	0.00018709578	9.7255484e-05	0.00027255912	-0.0006712579	-0.0007616312	-0.00023533026	0.00020036612	0.00012987465	-0.00021124171	-0.00011787086	0.0002833036	0.00049364404	0.00041050516	-0.00067464187	0.00053173635	-0.0004494924	-0.00063229655	-0.00034010876	0.0006904247	0.00045349222	-0.00037821723	2.0719353e-05	-0.00029748972	-1.4930421e-05	0.0005074891	-0.00011314286	0.0002785715	0.0005232246	0.0011840166	0.00018644921	6.73771e-05	-0.00032490905	0.00021941826	-0.00012563875	0.00015971843	-0.0003742696	0.00024557495	-0.00016602085	-0.000110673216	6.4989894e-05	-0.00041808447	0.00030426166	0.000102523816	0.0007249673	-3.9544986e-05	0.00021459145	0.0001675581	-5.2390787e-05	0.00020904893	-0.00035589805	0.00047048682	0.00016433785	0.00033058724	9.5747266e-05	0.0005840163	-0.0010771132	8.9276495e-05	-0.00054450333	0.0002966846	-8.2839084e-05	-0.00015362154	-0.00083687744	5.7887883e-05	-0.00072148297	0.00012251403	0.00039603162	7.004048e-05	0.00077361736	-5.344524e-05	0.00050490355	-0.0006057655	-0.0007719382	0.0004364308	-9.212255e-05	-5.0208982e-05	-0.0006562473	-0.00053159596	-0.00017136369	-0.00034867282	0.0002106967	-0.00025755962	0.000364493
Weight function_4	0.0016514453	-0.00070741726	-0.00026236768	0.00020540738	-0.00042689312	0.00078387593	0.0015734078	0.00041630885	0.00089113036	0.0008613479	-0.00080689206	-4.413377e-05	0.00046856145	-0.0015702302	0.0016663782	-0.0011827826	0.00056219794	-0.0016051187	-0.0008482252	-0.00072014664	-0.00031237205	-0.00018831003	0.0015600399	-0.0012826655	-0.0013156894	0.0014601023	-0.0006917176	-0.0010825003	-0.00088037783	0.0015769504	-5.846569e-05	-0.00068081846	0.00042162833	0.0011506424	-0.00081778655	0.001443439	-0.00016694385	0.00044205063	-0.00023102065	0.0012489606	0.00075364485	0.0009458474	-0.0010722232	9.8619676e-05	7.720184e-05	-0.00027525556	-0.0010734403	-0.0013195988	-0.00082616246	0.00071148877	0.00073717535	0.00020703403	1.5159927e-06	-0.00035514816	-0.0004525185	0.00017588369	-0.0010062567	-0.0014909488	0.00047538415	0.0011183269	-0.00052969245	-0.00016031436	0.0009771009	-0.0004087815	-0.0010097534	0.0008874165	-0.00085358234	-0.0005257287	0.00044814372	-0.00092731195	-8.546426e-06	0.0014255792	-0.00020485731	0.0007463296	-8.6421394e-05	0.0006182602	0.001214643	-8.699229e-05	-0.0010526361	0.00025522406	-0.0009867754	-0.00031089966	0.0003832319	-0.00084000296	0.0009294501	-0.00030568964	-2.594389e-07	-0.0015887634	-0.001525065	0.00069380633	0.0015088689	0.0016109403	0.000102156024	0.0002840158	-0.00021942741	-0.00052404136	-0.00080102123	-0.0006155683	0.00067236304	-0.0010128414	0.00048659038	7.2094103e-06	-0.001477964	0.0009106974	0.0012215395	-0.0015899759	-0.00057894614	0.0005823397	0.0012732126	0.0011041203	-0.0010625761	0.0014209513	0.0005613915	0.0010621691	0.0010854469	0.0011845517	0.0008629606	0.00058064575	0.00027105556	0.0006978326	-0.0002586579	-0.0015078739	0.00012257806	0.0012366374	-5.0328104e-05	0.00062790664	-0.0014589096	0.0016058407	0.00040426815	0.0014508377	0.0006765661	0.00026277086	-0.00019868437	-0.0015001723	-5.187576e-05	-5.3655007e-05	-0.0006788699	0.00035740715	-0.0015994872	0.0002055697	-0.0010857806	-0.0015909704	-6.257125e-05	0.0007585394	-0.00090923696	-0.00077701977	0.0009879528	-0.0008286543	0.00010629901	-0.0016357368	-0.0014293187	-0.00014391569	-0.00011388801	0.00036212336	0.00082646275	-0.001134657	-0.0012755198	0.0006442703	0.0010890199	0.0011257483	-0.0015759427	-0.0013939725	-1.6408521e-05	5.422266e-05	0.0004306126	0.00025686037	-0.0013463756	-0.0015826813	-0.0006042271	0.0010580916	-0.000547624	0.0015426583	-0.00052728946	-0.00054037693	-0.0015784547	0.0015236429	-0.001009597	-0.0006528494	0.0012621662	-2.9585564e-05	0.0016202325	0.0009671542	-0.00020200193	0.0009649235	0.0010688778	0.0013564444	-0.00026488298	-0.000627102	0.0014486882	-0.0011999579	-0.0008990561	0.0009994983	-0.000473442	0.0011177607	1.4808343e-05	-0.00044105804	0.00011686009	0.0010890586	0.0012300703	0.0011401976	-0.0011913086	-0.0006338627	0.00040645592	0.00049221254	-0.00092692394	0.00020185922	0.0013374557	0.0004192062	-0.00017386506	0.00058637117	0.00123726	0.0005670545	0.00075820775	0.00022998016	-0.00024641622	-0.00032029842	-0.00011149305	0.0007466053	0.0013914814	0.00052896515	0.0009822905	-0.0010413819	-0.0012324231	0.0005564781	0.0016520707	0.00069965044	8.700427e-05	0.00039334086	0.00017767519	0.00025604464	0.0009288662	-0.00107176	0.0012022442	0.0011118402	2.1113145e-05	0.0013747662	-0.0009782176	0.00019640021	-0.0004397138	-0.0016620355	0.0012587747	-0.00049380364	0.0015968593	-0.0016124422	0.0015947694	-0.0012229674	0.00142552	-0.00011330555	0.0015369187	-0.0005115013	0.0016321355	0.0014016796	0.0007101113	-0.00066069653	-0.0009953198	-0.00014054043	0.0016059761	0.001130422	-0.00082918996	0.0006929416	0.00070145784	0.00026659877	0.0002468512	0.0016624389	-0.0009957512	0.0012525073	0.0013268752	-0.0008698817	0.0011160632	-0.00045051257	-0.00065270497	-0.0014899352	0.0010266168	-0.001411888	0.00092489965	0.0009666249	0.0012132362	0.0015529046	0.00094877684	0.00066572864	0.0011892166	-0.0010563693	0.00014063345	0.0012358206	-0.00097018946	0.00066000986	0.0014906812	0.0010491736	0.0014243916	-0.0007497503	0.00011077138	-0.0014015513	-0.0014024982	-0.0005247067	-0.0015892115	0.0013069418	0.00045959328	-0.00045511554	0.0006481039	-0.0004352524
Weight function_5																																																																																																																																																																																																																																																																																																												
Weight function_6	-2.679064e-05	-0.00059361185	-0.00024403555	6.211925e-05	0.0004472535	0.0002968904	2.2024013e-05	0.00015557067	0.0006428593	0.00043974945	3.509922e-06	-4.2347147e-05	0.0001407738	-0.0005359733	0.00049070397	-1.19601855e-05	-8.135081e-05	-0.0005884875	-2.015971e-05	-0.0005137466	-0.00012168534	0.0002867274	0.0006462132	-0.0003051584	-0.0002798364	0.00014558455	-0.00016390966	3.2630305e-05	-8.7395936e-05	-0.00036000388	2.806401e-05	0.00019837153	0.00016118625	0.00013854675	-4.3138494e-05	0.0004886938	0.00018639173	-0.00034095693	-0.00025829702	-0.00042512227	0.00022834164	8.73673e-05	-0.00021711685	0.00021274349	0.00041416945	-0.00029483874	-0.00022983228	-3.0609146e-05	2.647284e-05	0.00058743905	0.0001374242	-0.0005617458	-0.00038835633	-0.00033162002	-8.987306e-05	0.00012237584	-0.00028814186	0.0007424967	-0.0003753776	0.00039493386	0.0004896895	5.818119e-05	0.00056350057	-0.0001906783	1.8130075e-05	8.59189e-05	-0.00011461667	0.00056463707	1.6932569e-05	-0.0004360858	-0.00021872726	-7.3557436e-05	0.000370282	-4.058575e-05	4.815014e-05	-7.1817536e-05	0.0006989306	0.00033809754	-0.00012397449	-2.8450146e-05	-9.283087e-05	0.00049005536	0.00069389615	0.00052669836	5.4800086e-05	2.774008e-05	-9.468683e-05	-0.00033662547	0.00010859042	-0.00028675742	-0.00026343024	0.00071294553	0.00016500361	9.187345e-06	0.00017487454	0.00038315117	-0.000208671	0.00015294309	0.00045720307	0.0004097731	0.0002105232	-0.00011545376	-6.3952124e-05	-0.00030603446	0.00030821966	-0.00033959682	0.00026330497	7.459445e-05	0.00020943336	-0.0001474507	-0.00014368314	0.0002497234	0.0003525355	0.0003663376	-4.9424674e-05	0.00020439862	0.00072609517	0.00015293574	0.0001247527	0.00014896037	0.00011855766	0.00051945366	-0.00017092857	2.2126424e-05	-0.00030653892	2.9809056e-05	-0.00051531394	0.00011440203	-0.0001410198	-2.2496365e-06	-2.9333916e-05	0.00023700896	-0.00032773914	-0.00019606698	-0.00033555107	0.00031540537	0.000107706925	0.0006281602	5.68606e-05	8.949707e-05	0.00010174333	-0.00025541472	-9.148777e-05	-0.00017211674	-0.00023252434	-0.00013342049	7.017664e-05	-0.0005362499	-0.00036112318	-0.00041952726	-0.0003151701	-8.084745e-05	-0.00022052714	3.5748988e-05	-6.441368e-05	0.00015283118	0.0001828315	-0.00024730293	8.86808e-05	-0.00010896845	0.00016491557	0.00035942357	2.4936502e-05	0.00013828102	0.00013534994	0.00032962346	-0.0005050448	0.00015441152	-0.00029098502	0.0002434642	-0.0003698682	6.859085e-05	-0.0005037823	-0.0004950171	-0.00015410865	-0.0002996641	0.00010823764	4.226612e-05	-0.00044793144	0.00012435342	-0.0006271859	0.00041784233	-0.00034248675	-0.00071207085	0.0003735217	-9.921456e-05	0.00030793404	0.00019672877	0.0002772153	1.869332e-05	0.0001942325	0.00033155427	0.00014233837	-0.00034194376	-0.0003711738	0.00024095843	3.857891e-05	-0.00033696336	-4.5955123e-05	5.420938e-05	-2.5097868e-06	-0.00054743816	1.6067406e-05	0.00020947802	1.8758045e-06	-0.00030644113	-0.00050047995	-0.00034464133	-0.00041756986	-0.0003829645	-0.00018759251	-7.6442346e-05	0.00022620845	-1.6566482e-06	0.00039283492	0.00029514555	0.00035625932	0.00031649895	-2.4495015e-05	-0.0007215262	-5.632348e-05	-3.9731633e-05	-0.000665235	0.000572796	0.000119681856	0.00029572146	-0.00034138575	-0.00015629848	6.2599494e-05	0.00017276684	0.00015510283	-0.0007472694	0.00015691985	-0.000832775	-0.00038788992	-0.00020254479	0.0003734389	0.0007760598	-0.00014132973	-0.00011780302	9.797495e-06	-0.00031800277	0.0004553979	0.0004154105	-0.00048537913	8.379345e-05	0.0007567301	6.438597e-05	4.1721682e-06	-0.00072554697	0.0004877467	0.00019117717	3.0678402e-05	-0.00046176955	0.00041040356	-0.00031120953	-0.00016291632	-0.00021568363	0.00019117042	0.0005535484	0.00041077408	0.0005165518	6.997074e-05	-9.310798e-05	0.00054297416	0.00019189923	0.00028997686	-1.759514e-05	0.00035781213	5.604651e-05	-0.00010533797	-6.3403995e-06	0.00056638976	-0.00036514556	0.0003643606	-0.00034005867	0.00021292362	0.00015025472	3.4553344e-05	-0.0003630253	2.80508e-05	-0.00010083146	0.00010325637	0.00034782736	0.00023732091	0.00038855587	-0.00045452532	0.00027783142	0.00024995112	-0.0005016024	0.00042320773	0.00022323978	-0.00032932946	-0.00072265044	-0.00041298303	-9.740073e-05	-0.00028225474	0.00024946642	1.17332875e-05	9.788601e-05
Weight function_7	9.417603e-05	-0.00028850453	-0.0007886714	-0.00037108082	0.00036738347	-5.3040236e-05	-0.0002575434	0.00034975662	0.00038123297	0.00042516924	0.00026367576	-0.0002515006	0.0005468876	0.0007043848	-0.00027223586	0.00032664737	0.00042428935	-0.00020927757	0.00024875166	-0.0005942338	0.00016055626	0.000295908	0.0003176253	-0.0003841159	-0.0005809375	-5.587206e-05	-4.955389e-05	6.0238937e-05	-0.00024199471	-0.0005407225	-0.0003657298	0.00019564154	-0.00015151894	0.00037339068	0.00031132778	-9.755819e-06	0.00053430884	-0.0006899734	0.00032504497	-0.00047878825	-4.2828422e-05	-0.00043588338	2.2333465e-05	0.00015588701	0.00014499741	-0.000115967116	0.00034188008	-0.00040734088	5.3812357e-05	-0.0001827351	0.00019349225	-0.0004995592	-7.472507e-06	-5.8022655e-05	-0.0005058749	-0.0003625306	-0.0005875784	0.00070762815	-0.0005572539	-0.00016170024	0.00033783246	0.00016111601	0.00014525464	-0.00010335249	0.0003501959	0.0005873038	0.00040830116	0.000676906	0.00014653377	-0.00085328624	-4.3719014e-05	-0.0005214153	0.00040933632	-6.923144e-05	-8.144512e-05	0.0002030271	0.00037074773	0.0002530556	0.00019258111	0.00029228535	-0.00047477594	0.00013595635	0.00080768083	-0.00010651246	0.00040062022	-0.00034247214	0.00019553993	-0.0002657768	0.00018900332	0.00018404008	-0.00038670783	0.0005820779	0.000118472875	-0.000238186	-0.00011203314	0.00022503214	0.00022299468	0.0002008461	0.00023425836	0.00042387864	4.821044e-05	1.4839792e-05	-0.00023523558	-0.00014001154	0.00034897175	8.187919e-05	0.00017615079	-0.0008078857	-5.055225e-05	-6.7678106e-05	9.890021e-05	-0.00032509703	0.0003884599	-2.256673e-05	-3.0934803e-05	5.790392e-05	5.4576136e-05	0.00021317824	0.0005371125	3.6398633e-05	0.00031908177	0.00076627015	-0.00017068794	9.544476e-05	-0.0006194	-0.00010921853	-0.0006771147	0.0004573263	-0.00051375746	-0.0003282148	-0.00037171398	-3.932832e-05	0.00030190352	-0.00011696569	-0.0001891245	-1.0204e-05	0.0003096848	0.0005061176	0.00035061955	0.0002056527	-3.2416952e-05	-0.0003334602	-4.799581e-05	0.0004641091	3.9895796e-05	0.0003615174	1.2508156e-05	0.00015508082	-0.0007214026	-0.0005103778	-0.00027527593	-0.00016688011	-3.66516e-05	0.00047180193	-0.00017767426	0.00039399025	-4.3169814e-05	-0.0002908523	0.0006298023	0.00015162527	0.00022498038	0.0001802345	-0.00039613206	-0.00035583766	0.00017236073	0.00052477635	-0.00019006882	-6.0735056e-05	0.00021201799	0.00038011212	-0.00040771358	-0.00023425494	-0.0006250279	-0.00012496604	-0.0003574993	0.00015281778	8.430667e-05	-0.00029054162	-0.0007951903	6.954479e-05	-0.00058980775	0.00025473142	-0.00063809636	-0.00078897865	0.00043601982	-0.0006276368	8.5313586e-05	-0.00015599452	-0.0002552045	-0.00017339342	0.00048705965	9.094888e-05	0.00018522188	4.5759643e-05	-0.0001236017	0.0005524744	0.00041152118	-0.0001511092	-7.11383e-05	-9.617422e-05	-0.00038052982	-0.0003528572	9.7740485e-05	-3.5635207e-05	-0.0001267987	-0.00048850436	-0.00016717071	-0.00031565738	-0.00014898143	-3.6869205e-05	7.361629e-05	-0.00030723613	-0.00022011033	-0.000102306985	0.0002920388	0.0004922153	-4.4785906e-05	0.00036505118	9.0550975e-06	-5.2397514e-05	4.410168e-05	-0.00050668814	-0.00039832245	-0.0003005392	-5.8926053e-05	0.00021453117	-7.95705e-05	-0.00013311012	0.00038337128	0.0005284021	6.863341e-05	-0.0006145976	0.0003104513	-0.00096516777	-0.0004649064	-0.00073313486	0.00072736223	0.00051785813	-0.00018060657	0.00026661405	-0.00039509483	9.0265545e-05	0.0005489172	0.00018877446	1.0045666e-05	0.00072602584	0.0008425333	0.00014111925	5.5003893e-05	-0.00022514584	1.8477189e-05	-0.00029697164	0.00018573712	-0.0003263524	0.00034344383	-0.0002501967	-0.00016990073	0.00017025307	-0.00022369546	0.00010198096	1.7899625e-05	0.00069703255	-1.9479387e-05	6.587498e-05	0.00063478784	-0.0001569703	0.0002578758	-0.00029931183	0.0003355979	0.00014144393	0.0003170813	0.000481331	0.00040715208	-0.0007087777	-3.772443e-05	-0.0007907134	0.00023084808	-0.00033928186	-0.00013979805	-0.00078586873	-0.0001935138	-0.0007167869	0.00014596766	-4.770374e-05	0.000113622984	0.00089958974	-0.00030891594	0.0001510502	-0.0007117932	-0.000847989	0.00024058453	0.00024676407	-0.00017293575	-0.00068717264	-0.00027862753	-0.00032436108	-0.00034799526	0.0001490605	-0.00064176484	0.00045878236
Weight function_8	7.880828e-06	-0.0004826674	-9.741272e-05	-0.00010113121	0.0002717419	0.00029061743	0.00013081839	0.00012382516	0.0006612751	0.00018301792	-0.00013172695	-0.00024557835	0.00012950634	-0.0005762421	0.00036268923	-0.00014189536	3.405774e-05	-0.00044015353	-0.00012146776	-0.00039420492	-0.00018941564	8.7876484e-05	0.0008059947	-0.00029811685	-0.00027347202	6.396661e-05	-0.00018329103	-1.217881e-05	-6.927752e-05	-0.00010205802	4.0015013e-05	-9.26508e-06	0.00019115058	6.2232095e-05	0.00010365442	0.00051580183	8.110943e-05	-0.00049409125	-0.00012659079	-0.00029749496	0.00026984685	0.00010302693	-6.799825e-05	0.00012795025	0.00012769355	-0.00011863519	7.711967e-07	2.1953263e-05	6.150838e-08	0.00056718325	0.00016990694	-0.00044849497	-0.0006722165	-0.000110961904	0.00012552338	0.00010291873	-0.00024993706	0.000661945	-0.00036924245	0.00034106837	0.00040109846	-1.8331766e-06	0.00024635642	-0.00039874922	0.00014212348	0.00012448228	-8.0269005e-05	0.00040825532	9.9490644e-05	-0.0004566716	-0.00040406385	4.9533384e-05	0.00022097817	-0.00017624747	7.08177e-05	-0.00014475045	0.00056467386	3.4035897e-05	-5.7661084e-05	3.044386e-05	-6.290112e-05	0.00032352694	0.0005036776	0.00047698827	-0.00019959194	-0.00018364178	-0.00025345996	-0.00037095667	-6.477748e-05	-0.00016854939	-0.00011015119	0.00059708353	5.330118e-05	-6.2276464e-05	5.8152036e-05	0.00016934879	-0.00048302262	-8.8702145e-06	0.00053884846	3.5855544e-05	-0.0001749004	-0.00019589165	-4.4609304e-05	-0.00036954586	0.00048710636	-7.4188545e-05	5.551211e-05	8.397118e-05	0.00014609644	-0.00025856862	-1.1921463e-05	0.00017545614	0.00035934802	0.00027907384	1.3303039e-05	0.00010213709	0.00063113944	1.5580239e-06	0.00028194854	7.081616e-05	0.00026058013	0.00036557156	-0.00017939843	2.6476868e-05	-0.00034369563	5.4660974e-05	-0.0003064498	-1.5013248e-05	-0.00036715303	-0.00010799096	-0.00013770262	5.730779e-05	-0.00037877925	-0.00027296063	-0.0003114101	0.00012965346	4.0071835e-05	0.0007167462	0.00030351686	-2.3592682e-05	0.00033110153	-0.00029746	-0.0002700088	-7.262928e-05	8.254213e-05	-9.269244e-05	0.000106560336	-0.00044945633	-0.00035294486	-0.00027569386	-0.00014266602	1.0954381e-05	-0.00016545331	-0.00023400252	-0.00018297082	0.0001774399	0.00037147265	-0.00019830091	0.00023593334	0.00015953413	0.00020491537	0.00023034697	6.314649e-05	0.00025901035	0.00039590304	0.00018921038	-0.0003513535	-0.00010947705	-0.00034219422	8.954393e-05	-8.9781664e-05	-9.178931e-05	-0.00050527387	-0.000498096	9.9102734e-05	-0.00023193375	-0.00021464983	0.000179109	-0.00048171997	0.00017569448	-0.00041433907	0.0004378253	-0.0002827392	-0.00064730406	0.00024008813	-3.763217e-05	9.769942e-05	0.00020209262	0.00029313992	-5.5711375e-06	0.00024641035	0.00010280846	0.00016870043	-0.0003622186	-0.00029966596	0.00030201185	4.8169393e-05	-0.0003554637	-0.00024216309	0.00023885767	0.00019717871	-0.00043651523	0.00012167149	0.00020143989	-2.7205439e-05	-0.00049580814	-0.00046433663	-0.00016244891	-0.00036854376	-0.00033407993	-0.00048515075	9.561785e-05	0.00021139461	-9.0839836e-05	0.00041187124	9.536291e-06	0.00022564986	0.000277018	3.9609724e-05	-0.0006210048	-0.000102749626	0.00018077019	-0.00043244165	0.00053810957	0.00018162827	0.00028549874	-0.00029915036	-0.00011236591	5.0000504e-05	0.00021964127	0.0001823688	-0.0008862416	7.5591044e-05	-0.00063016324	-0.0001968221	-0.00012634716	0.000487263	0.000559557	-6.824921e-05	-0.00012174722	3.780461e-05	-0.0001758654	0.0005483865	0.00019360396	-0.000661448	2.0171043e-05	0.0006267247	4.2852927e-05	6.523675e-06	-0.00043905035	0.0006019139	0.00015412238	3.1220232e-05	-0.0002992219	0.00050407456	-0.00030346256	-0.0002195792	0.00012997782	-2.3235061e-06	0.000568138	0.00038960873	0.00047651236	6.759568e-05	-0.00026889078	0.0006642443	0.00026296964	0.00017217471	-5.508607e-05	0.00014110621	-6.0632345e-05	3.0825297e-05	-4.3857963e-05	0.0003362903	-0.00017331398	0.00029018472	-0.00032308535	0.00022610884	0.00011877128	-7.6077e-05	-0.0002890882	-4.6901507e-05	-0.000120418656	4.6334757e-05	0.0003663593	0.00026205106	0.0003673366	-0.00047881863	0.00045540655	0.00010334235	-0.0003045719	0.0005652816	0.00021711712	-0.0002304875	-0.00045085765	-0.00021084875	-5.291084e-05	-4.4740224e-05	6.397209e-05	-2.1372602e-05	7.6558645e-05
Weight function_9	7.482071e-06	-0.00042758204	-0.00020975409	-0.00014525611	0.0003537027	0.00017670674	2.3340108e-06	0.00019607972	0.0007209687	0.00023467946	1.665468e-05	-0.00016639923	0.00021280388	-0.00034995208	0.00018931279	6.45657e-05	2.1239566e-05	-0.00040850602	-0.00013005624	-0.00046035464	-3.561092e-05	2.2581251e-05	0.0006389408	-0.00028257605	-0.00029255747	-7.1858994e-05	-0.00029669257	0.00013572614	-7.710035e-06	-0.00022574862	-0.000103066224	0.00010712991	0.00019721084	7.108241e-05	0.00011859748	0.0004128	0.00024538912	-0.00048247044	-0.00017360122	-0.00061036984	0.00020095162	-1.3745999e-05	-3.5950317e-05	0.0001298599	8.004842e-05	-0.00010761134	0.00015411037	0.00018004965	-5.63091e-05	0.0003861981	0.00010466615	-0.0005062633	-0.0005738863	4.727552e-05	-9.043591e-05	5.6440654e-06	-0.0002801349	0.00070442946	-0.00036070475	0.00022583798	0.0004455292	-7.612172e-06	0.00025761875	-0.0003016979	0.00015849792	0.0001479926	4.8941743e-05	0.0005711698	5.8073874e-05	-0.0005169243	-0.00042179457	-9.20874e-05	0.0003727892	-0.00017654523	0.00015287238	-3.994148e-05	0.0004341754	0.00017279347	1.3121471e-05	-9.462203e-06	-0.00011864725	0.00030339122	0.00059835275	0.0004291677	-5.718166e-05	-0.00016812191	-0.00020165555	-0.00018914771	0.0001047063	-0.00016560845	-0.00020982997	0.0005942951	8.2712766e-05	-4.6526846e-05	4.2577703e-05	0.00019694414	-0.00034177254	-6.562885e-05	0.00040387825	0.0003129446	-9.980031e-05	-0.0002847115	-0.00011396844	-0.00031050446	0.00036661152	-0.000107419524	3.379793e-05	-9.603913e-05	5.727123e-05	-0.0003318814	5.9284946e-05	4.1559342e-05	0.00050549494	0.000109656976	8.293235e-05	7.926278e-05	0.00059683324	1.5584399e-05	0.00015671118	5.751744e-05	0.00034745198	0.0005798625	-0.00015879369	0.00012619993	-0.00035843218	5.2957483e-05	-0.00013427866	-0.00024216891	-0.00044482684	-0.0002853264	-0.00022845335	4.3268996e-05	-0.00025771643	-0.00014607023	-0.00029045332	0.00028807906	7.00188e-05	0.00069438334	0.00043956283	-0.000115974064	0.00028276618	-0.00012614882	-0.00016303018	4.4308432e-05	0.00015578479	-3.9796712e-05	-2.9718749e-05	-0.00037044424	-0.0003627419	-0.00025546685	-0.00027820547	9.205336e-05	-0.00017030108	-6.155931e-05	-0.00021351378	0.00033761302	0.0004257433	-0.00031876622	0.00027095497	0.00013434864	0.0003405385	0.00019206874	-7.300021e-05	0.00015146621	0.00040429464	0.0003089774	-0.00031644313	1.8043911e-05	-0.00032334955	-6.436254e-06	-0.00025443055	-0.00025712315	-0.0005458288	-0.0004434252	6.534614e-05	-0.00026126803	-0.00015083136	0.00016195736	-0.0006512565	0.00022787975	-0.00061108766	0.00043328686	-0.00024357252	-0.0007774144	0.00018847053	-0.00011178188	0.00012950852	0.00015391433	0.00020077346	1.0932474e-05	0.0003818562	9.954478e-05	0.00012328247	-0.00029139698	-0.00040248776	0.0003813654	3.8371647e-05	-0.00037077413	-0.00022907788	0.00011230768	0.0001617399	-0.0004574161	-3.9849627e-05	0.0001417986	-6.978263e-05	-0.00054100633	-0.00056053593	-0.00027142436	-0.00041663428	-0.00033831556	-0.00045806248	-4.667384e-05	0.000100149155	-6.7227666e-05	0.00041052088	0.00016291403	0.000191196	0.00030643644	-0.00026332933	-0.0006579378	-0.00019872031	0.00014598272	-0.00038691782	0.0003905497	6.3849366e-06	0.00030190224	-0.00029899372	-0.00019308054	8.579933e-05	0.00027586886	0.00013065574	-0.0009314474	0.00012648507	-0.0008192429	-0.00019008211	-0.00034455588	0.00055691187	0.0004743715	2.3014861e-06	6.416728e-05	-3.1056257e-05	-0.00016706792	0.00049866166	0.00040181266	-0.0006463896	0.00029662723	0.00061143783	0.00010858216	-8.962975e-05	-0.00041612468	0.0004215595	-0.00014189855	4.5775846e-06	-0.0003209839	0.00071980443	-0.0002152811	-0.0002469296	-5.949347e-06	8.246341e-05	0.000506006	0.0003807053	0.00049458013	0.00017485471	-0.00028839888	0.0007281726	0.000185485	6.513696e-05	-7.3386625e-05	0.00020638584	-5.8494223e-08	4.5901827e-05	8.4258376e-05	0.00037994317	-0.0001668549	0.00019368343	-0.000437305	0.00023688335	-3.7229427e-05	-6.743589e-05	-0.00041652704	-8.3209234e-05	-0.00012455627	3.060908e-05	0.00023168669	0.0003663426	0.0005237319	-0.00065858423	0.00027772412	-5.091419e-05	-0.00047470263	0.00052164297	0.0002496225	-0.00028395635	-0.0004952987	-0.00020347528	-1.9517583e-05	-7.8243786e-05	7.12527e-05	-0.000120633114	0.00023891099
Weight function_10	-5.1714516e-05	-0.0004406091	-0.00046016148	-0.00022794287	0.00068084546	0.00011138891	-0.00023681884	0.00031922228	0.0004818483	0.000360205	0.00015106978	3.325254e-05	0.0005764886	0.00012192928	0.00043841527	0.0003072788	0.00019761067	-0.00061075896	3.7902025e-06	-0.00055124745	9.266776e-06	0.00014315765	0.0005400164	-4.3766744e-05	-0.00023234193	0.00015460962	-0.00031726528	0.00024400158	-8.374925e-05	-0.00043708552	-0.00019397942	0.00054151885	6.904256e-05	0.00022398033	2.2884602e-05	0.00036901486	0.00048518338	-0.00029577373	0.00022978727	-0.0003867259	-3.6898862e-06	-0.00032832872	-0.00030724215	0.00028853046	0.00044356304	-0.00025308586	-0.00029198767	-0.00019224956	-0.00025739797	0.00015502362	2.5556004e-05	-0.00075640954	-0.00040437502	-0.0001735292	-0.0003688086	-3.6813322e-05	-0.00043963612	0.00072469877	-0.00036761447	3.658106e-05	0.00044178034	0.0003990013	0.00061005563	-0.00040698843	0.00014832983	0.0005561519	-3.063178e-05	0.00087629945	0.000341249	-0.00049021357	-0.0001077842	-0.00013498434	0.00035590315	-5.157329e-05	6.159792e-05	0.00012456022	0.0005781689	0.00033727524	1.8481818e-05	-0.00011607629	-0.0004589745	0.00048526126	0.00076826854	0.000475971	0.0002712483	-0.00019444097	0.00021593833	-0.00040957937	0.00010172308	-0.00019663676	-0.00036627715	0.00067715335	4.960864e-05	-1.9137338e-05	-0.00028263804	0.0005012852	-0.000106889034	-4.0213927e-06	0.00042077675	0.0005103216	0.0002898936	6.6046814e-05	-9.057979e-06	-0.00038184773	0.0004004825	-0.00037122972	0.00032319914	-0.00021892763	-7.142431e-05	-0.00022101276	-6.253353e-05	-0.000100164085	0.00043833005	7.97519e-06	-2.0201842e-05	0.00016329708	0.00084124185	9.5217045e-05	0.00033875112	4.878978e-05	0.00031643148	0.00068001536	-0.00015859577	8.702211e-05	-0.00052343693	0.00018652593	-0.00062776456	0.00032870594	-0.00050085277	-0.0003025157	-7.3955634e-05	-1.9296911e-05	-0.0001703975	-0.00015832602	-0.00040270732	0.00044002125	0.00021071546	0.00049458805	0.00037396094	0.00024413246	0.0002686552	-0.00020691067	-0.00025146225	9.6364274e-05	-0.0004438581	9.596765e-05	-9.206164e-05	-0.0004034592	-0.0006675426	-0.00065731065	-0.0002699015	3.0124475e-05	-0.00024382974	0.00024933534	-0.00026625735	0.00026341918	0.000117932585	-0.00052213244	0.00022596116	-8.645933e-05	0.0005051332	0.00021401701	-0.00033067708	6.487989e-05	-2.2732409e-05	0.00054089737	-0.00035467025	-0.00014226483	-9.317526e-05	8.386204e-05	-0.00019833421	-3.1261563e-05	-0.0008549528	-0.0004564188	-0.00036935674	-0.00019545345	0.0002144937	5.1542804e-05	-0.0004533796	0.00033640995	-0.00088433153	0.00019358884	-0.00062425964	-0.0005995387	0.00037521153	-0.0002472821	0.00035476795	9.479124e-05	-9.000371e-05	-7.400505e-05	0.00031309493	0.00010505036	0.00027696797	9.539263e-05	-0.00041728318	0.00047663235	-5.9124504e-05	-0.0002540339	-0.00034062893	-0.0002684941	-0.00014982182	-0.000573791	-0.00017321233	0.00015059729	0.00020162496	-0.00043094534	-0.00034393885	-0.0005002252	-0.00031209536	-4.872071e-05	-4.009479e-05	-0.0001911087	7.328419e-05	5.6231314e-05	0.00024451868	0.0007588629	0.00041295605	0.00033366715	-0.00020104642	-0.0004527296	-0.00015911905	-5.2073716e-05	-0.0006337062	0.0001279287	-5.8157575e-06	0.00020521804	-0.00037800238	8.931817e-06	0.0002932247	0.00028260847	-0.00022344379	-0.0009836829	0.00016864727	-0.0006343981	-0.00030223792	-0.00036116957	0.00021302617	0.0007689605	-0.00028141617	6.998615e-05	-0.0001062504	-0.00030528742	0.00050326454	0.00039414762	-0.000247549	0.00041111698	0.00087154715	0.00014386757	-0.00018472708	-0.00071405957	0.00039025565	-3.184302e-05	0.00014800146	-0.0006535372	0.00075406174	-0.00036846503	-7.748032e-05	-4.6110978e-05	-0.0002608637	0.00023031722	0.00026916942	0.00069660967	0.0002418769	-0.00015663542	0.0009181767	-4.5681303e-05	0.00023646602	-0.00025736514	0.0003950567	0.00041639767	0.00013037655	9.128144e-05	0.000679546	-0.00054862065	0.0003577928	-0.00047571873	7.9187266e-05	-0.00025571158	1.48299e-05	-0.0006118129	-0.00026737645	-0.0005219072	0.00022626459	0.00031787937	0.00026983724	0.00056714664	-0.0003615528	0.00010502336	-0.00012449338	-0.0003879897	0.00056779245	0.00017529755	-0.00019136259	-0.0007666629	-0.00026988506	-0.00022342862	-0.00045747	0.0003201812	-0.00032535638	0.00045359702
Weight function_11	2.7151189e-05	-0.00038636915	-0.0002764495	-0.0002472069	0.0005304209	0.00026294505	-9.973668e-05	0.00027129304	0.00069734274	0.00034750727	-3.5247627e-05	-0.00016727488	0.00033461725	-0.0001710612	0.00032763716	6.2956875e-05	0.0001755883	-0.00053144956	-5.9072776e-05	-0.00056610996	-2.2977612e-05	0.00013366656	0.00072092906	-0.0002512354	-0.00028144388	0.000113696624	-0.00025378182	4.7226942e-05	-9.104836e-05	-0.00030383162	-0.00012315241	0.00023550933	0.00011402989	0.00019101557	0.00010901864	0.00047307095	0.00025197346	-0.00047106095	-1.2122467e-05	-0.0005438299	0.000119585864	-7.562479e-05	-0.00017446361	0.00013708916	0.00022237326	-0.00020120607	-2.4457957e-05	-4.1712206e-05	-1.4353835e-05	0.0003746667	0.00019535612	-0.00060729444	-0.0005833882	-0.00014437592	-0.00017807986	-5.494406e-05	-0.0004042404	0.0008057688	-0.00038966542	0.00017453924	0.0004274027	0.00010454913	0.0003848749	-0.00027849016	0.00020729585	0.00034290797	-4.128052e-06	0.0006559598	0.00021173888	-0.0005824601	-0.0003027662	-0.00024477707	0.00035334902	-0.00016169259	5.173087e-05	4.1852118e-06	0.00064139557	0.0002485404	-1.4766429e-05	-6.0107855e-06	-0.00018418953	0.00031973852	0.0006545635	0.00046914243	5.235425e-06	-0.00010122447	-0.00014173395	-0.00035167846	5.3826476e-05	-0.00026446546	-0.00030923128	0.00067615905	9.410086e-05	-5.7472746e-05	-0.0001040358	0.00033976865	-0.0002514557	-7.256459e-06	0.0005281618	0.00037001804	-2.4318353e-05	-0.00014003426	-5.659696e-06	-0.00039391193	0.00042148342	-0.00018898056	0.00016617405	-0.00020556501	-6.0455036e-06	-0.00028359817	-1.9331346e-05	1.6291007e-05	0.00054753467	0.00020951468	5.3872127e-06	0.000161594	0.0006545308	2.6592745e-05	0.00028282643	8.294435e-05	0.0002904398	0.00055808993	-0.00012735023	0.0001358511	-0.00038234692	4.8411846e-05	-0.00033941522	6.891851e-05	-0.0004439819	-0.00023929839	-0.0001603539	-3.0431664e-05	-0.00022050043	-0.0001567785	-0.00042895434	0.00032390768	0.000117792995	0.0006964195	0.000347115	8.706806e-06	0.0002994745	-0.00019644754	-0.00022639373	1.128805e-05	-6.2833e-05	-7.3555193e-06	-4.972759e-05	-0.00042610063	-0.0005221161	-0.00042846525	-0.00029525824	1.328921e-05	-0.00018950457	-1.4239191e-05	-0.000262422	0.00021921787	0.00035246715	-0.00037703066	0.00027497005	6.973263e-05	0.00040109296	0.00018033398	-9.32959e-05	7.777641e-05	0.00025816142	0.0003198107	-0.00040186488	-0.000103723425	-0.00018298852	0.00012739561	-0.00019615974	-0.0001397946	-0.0006718729	-0.00041113605	-5.7777033e-05	-0.00029793795	-1.9353838e-05	6.618051e-05	-0.0006046382	0.00023551339	-0.0006785218	0.00035091437	-0.0004964305	-0.00075222866	0.00034621308	-0.00024008725	0.00016608399	0.00015892074	6.273889e-05	-8.514137e-05	0.00041284075	0.00015855755	0.00024378354	-0.0001936595	-0.00042199672	0.00038282713	9.203809e-05	-0.00040226232	-0.00027921778	-8.7445726e-05	-5.2960288e-05	-0.00054760225	6.733e-05	0.0001295452	7.162348e-05	-0.00054122566	-0.00051004847	-0.00031842865	-0.0004571077	-0.00027234	-0.00030565745	-7.256305e-05	0.00018991187	-7.1356335e-05	0.00042579297	0.0003612487	0.00023465611	0.00038900404	-0.0002077899	-0.00062872644	-0.00018583614	4.318068e-05	-0.00047468886	0.00032099162	2.5789765e-05	0.00036897545	-0.000292266	-0.0001447816	0.00014868434	0.00031589318	6.549249e-05	-0.0009363477	9.376588e-05	-0.0008334106	-0.00026593808	-0.00027706308	0.00051054667	0.00065478095	-0.00017180589	-1.4073205e-05	-6.815492e-05	-0.00023053556	0.000504244	0.0004019624	-0.0006259938	0.00019925533	0.0007345507	0.0001099808	-0.00014507041	-0.00054812396	0.0004394132	3.065335e-05	8.674482e-05	-0.0004241139	0.00068344217	-0.00028795807	-0.000202173	1.1700285e-05	-3.2633943e-05	0.0005107151	0.00033489332	0.000539351	0.00017102345	-0.0001901722	0.0008255859	0.00010775347	0.00022419335	-0.00018794296	0.00028300588	0.00014198365	1.1858522e-05	6.772611e-05	0.00044495778	-0.00042511997	0.0002547911	-0.0004820763	0.0002773632	-0.00015878226	-3.2696207e-05	-0.0005131247	-0.00015682838	-0.00028925008	0.0001072572	0.00029327912	0.00034566424	0.00056298694	-0.0005813522	0.00029375136	-9.196363e-05	-0.0005139329	0.0005204385	0.00028635986	-0.00023065176	-0.0006413787	-0.0003043407	-8.5003885e-05	-0.00025752184	8.851549e-05	-0.0002114857	0.00031001557
Weight function_12	0.0016514453	-0.00070741726	-0.00026236768	0.00020540738	-0.00042689312	0.00078387593	0.0015734078	0.00041630885	0.00089113036	0.0008613479	-0.00080689206	-4.413377e-05	0.00046856145	-0.0015702302	0.0016663782	-0.0011827826	0.00056219794	-0.0016051187	-0.0008482252	-0.00072014664	-0.00031237205	-0.00018831003	0.0015600399	-0.0012826655	-0.0013156894	0.0014601023	-0.0006917176	-0.0010825003	-0.00088037783	0.0015769504	-5.846569e-05	-0.00068081846	0.00042162833	0.0011506424	-0.00081778655	0.001443439	-0.00016694385	0.00044205063	-0.00023102065	0.0012489606	0.00075364485	0.0009458474	-0.0010722232	9.8619676e-05	7.720184e-05	-0.00027525556	-0.0010734403	-0.0013195988	-0.00082616246	0.00071148877	0.00073717535	0.00020703403	1.5159927e-06	-0.00035514816	-0.0004525185	0.00017588369	-0.0010062567	-0.0014909488	0.00047538415	0.0011183269	-0.00052969245	-0.00016031436	0.0009771009	-0.0004087815	-0.0010097534	0.0008874165	-0.00085358234	-0.0005257287	0.00044814372	-0.00092731195	-8.546426e-06	0.0014255792	-0.00020485731	0.0007463296	-8.6421394e-05	0.0006182602	0.001214643	-8.699229e-05	-0.0010526361	0.00025522406	-0.0009867754	-0.00031089966	0.0003832319	-0.00084000296	0.0009294501	-0.00030568964	-2.594389e-07	-0.0015887634	-0.001525065	0.00069380633	0.0015088689	0.0016109403	0.000102156024	0.0002840158	-0.00021942741	-0.00052404136	-0.00080102123	-0.0006155683	0.00067236304	-0.0010128414	0.00048659038	7.2094103e-06	-0.001477964	0.0009106974	0.0012215395	-0.0015899759	-0.00057894614	0.0005823397	0.0012732126	0.0011041203	-0.0010625761	0.0014209513	0.0005613915	0.0010621691	0.0010854469	0.0011845517	0.0008629606	0.00058064575	0.00027105556	0.0006978326	-0.0002586579	-0.0015078739	0.00012257806	0.0012366374	-5.0328104e-05	0.00062790664	-0.0014589096	0.0016058407	0.00040426815	0.0014508377	0.0006765661	0.00026277086	-0.00019868437	-0.0015001723	-5.187576e-05	-5.3655007e-05	-0.0006788699	0.00035740715	-0.0015994872	0.0002055697	-0.0010857806	-0.0015909704	-6.257125e-05	0.0007585394	-0.00090923696	-0.00077701977	0.0009879528	-0.0008286543	0.00010629901	-0.0016357368	-0.0014293187	-0.00014391569	-0.00011388801	0.00036212336	0.00082646275	-0.001134657	-0.0012755198	0.0006442703	0.0010890199	0.0011257483	-0.0015759427	-0.0013939725	-1.6408521e-05	5.422266e-05	0.0004306126	0.00025686037	-0.0013463756	-0.0015826813	-0.0006042271	0.0010580916	-0.000547624	0.0015426583	-0.00052728946	-0.00054037693	-0.0015784547	0.0015236429	-0.001009597	-0.0006528494	0.0012621662	-2.9585564e-05	0.0016202325	0.0009671542	-0.00020200193	0.0009649235	0.0010688778	0.0013564444	-0.00026488298	-0.000627102	0.0014486882	-0.0011999579	-0.0008990561	0.0009994983	-0.000473442	0.0011177607	1.4808343e-05	-0.00044105804	0.00011686009	0.0010890586	0.0012300703	0.0011401976	-0.0011913086	-0.0006338627	0.00040645592	0.00049221254	-0.00092692394	0.00020185922	0.0013374557	0.0004192062	-0.00017386506	0.00058637117	0.00123726	0.0005670545	0.00075820775	0.00022998016	-0.00024641622	-0.00032029842	-0.00011149305	0.0007466053	0.0013914814	0.00052896515	0.0009822905	-0.0010413819	-0.0012324231	0.0005564781	0.0016520707	0.00069965044	8.700427e-05	0.00039334086	0.00017767519	0.00025604464	0.0009288662	-0.00107176	0.0012022442	0.0011118402	2.1113145e-05	0.0013747662	-0.0009782176	0.00019640021	-0.0004397138	-0.0016620355	0.0012587747	-0.00049380364	0.0015968593	-0.0016124422	0.0015947694	-0.0012229674	0.00142552	-0.00011330555	0.0015369187	-0.0005115013	0.0016321355	0.0014016796	0.0007101113	-0.00066069653	-0.0009953198	-0.00014054043	0.0016059761	0.001130422	-0.00082918996	0.0006929416	0.00070145784	0.00026659877	0.0002468512	0.0016624389	-0.0009957512	0.0012525073	0.0013268752	-0.0008698817	0.0011160632	-0.00045051257	-0.00065270497	-0.0014899352	0.0010266168	-0.001411888	0.00092489965	0.0009666249	0.0012132362	0.0015529046	0.00094877684	0.00066572864	0.0011892166	-0.0010563693	0.00014063345	0.0012358206	-0.00097018946	0.00066000986	0.0014906812	0.0010491736	0.0014243916	-0.0007497503	0.00011077138	-0.0014015513	-0.0014024982	-0.0005247067	-0.0015892115	0.0013069418	0.00045959328	-0.00045511554	0.0006481039	-0.0004352524
Weight function_13	0.00019524503	-0.00044791115	-0.0005770458	-1.2743059e-05	0.0007869143	0.00019647868	9.155016e-05	0.00074581185	0.0005903919	0.00088408217	0.00018739338	0.0003472486	0.00018184585	-1.9485644e-05	0.00022709393	0.00025455415	0.00011319255	-0.0010244038	-8.962684e-05	-5.0887884e-05	0.00023549938	-0.00024274344	0.00012487774	-0.00037050556	-0.00041730134	-0.0001085939	8.325323e-05	5.2777614e-06	-8.075607e-05	-6.3990956e-05	-9.304572e-05	0.000508941	-8.210053e-05	0.0003257434	-0.00044602784	0.00018289257	0.0008365734	-0.00019076522	-0.00022313907	-0.00010697464	2.368996e-05	7.470962e-05	-0.00053811085	-1.6703558e-05	0.0005416317	-0.00031545368	-0.0008665775	-0.0001059069	0.000109919856	5.011449e-05	0.00034907128	-0.0002360193	-0.00017448203	-0.00040690735	-0.000316268	-0.0002876523	-0.00082045066	0.0002232383	-0.00017280862	0.00035651788	0.000453388	-0.000387816	0.0007511805	-0.00065639144	-0.00038591045	2.0581927e-05	-0.0003278936	0.000419092	1.9514078e-05	-0.00027243496	-0.00040416597	0.00011941055	0.00016337461	-0.00028540514	0.00013114416	0.000115450915	0.0006957266	0.00030220297	-0.00035932433	0.0003857975	-0.00023330697	0.0005533527	0.0005807706	-0.0003531224	0.00037992254	-0.0002992494	0.0003522195	6.8312904e-05	0.00021838499	-0.00021215281	-0.00041502403	0.00070746255	0.00048232236	-0.0005597391	0.00025382958	0.00019359175	0.00019634896	0.0002937198	0.00034761318	0.00072055275	0.00036447452	7.065749e-05	-0.00041808715	-0.0005813905	0.0006593087	-0.0002850816	-0.00017138694	2.8963084e-05	0.00028323932	0.00041817114	0.00011397344	0.00025739556	0.0005246843	0.00022880391	0.00021393425	0.00040803384	0.00083000364	7.412606e-05	2.6780506e-05	0.00033774335	0.00027022423	0.00032949896	-8.897646e-05	0.0009343269	-0.00015198962	8.022573e-05	-0.00053440663	0.00019888094	-0.00027046792	0.0004785068	7.456844e-05	-0.00034038408	-1.5522644e-06	-0.0003898364	-0.00033386768	0.00038143073	-0.00014802934	0.0005468844	-2.609348e-05	-0.00030351622	-0.0004846488	3.7397414e-05	-0.00027150902	0.00022149892	-0.0006204117	7.009518e-06	-0.0003228109	7.43905e-05	-0.0002985239	-0.0007841297	-0.00043755668	-0.00016273066	-0.0004857961	0.00091494544	-0.00014104634	-0.0003071503	-0.0003878023	0.00024842602	0.00032823096	0.00023940761	0.00047766636	-0.00044374578	8.872659e-05	-0.00026815303	-9.9050034e-05	0.0004638844	-0.0006191175	-4.74358e-05	0.00030458218	8.652587e-05	-0.00037807118	0.0004947858	-0.0006800193	-0.00082017307	-0.00092034583	0.00019004203	0.00029221852	5.3763564e-05	0.00022331702	0.00063451164	-0.00036428875	0.0007368775	-0.00032465058	-0.00044136494	0.0006228678	-0.00017291184	5.7952595e-05	0.00011264669	1.0635081e-05	-0.000104398874	8.252666e-05	-1.1402939e-05	0.00012104458	0.00035139587	-0.0007855757	0.0001699562	0.00014780734	0.0005147404	-0.00018034424	-0.00019395123	-0.00055939856	-0.0005508383	-0.0006125184	-0.00028994592	-0.00044633154	-0.00060538837	3.5148125e-05	-0.0005992622	-0.00010652514	-0.00014786635	0.00081112905	-7.808591e-05	6.2902254e-05	0.0002584793	2.0673022e-05	0.0004256119	9.790981e-05	0.00037608301	-0.00052873464	-0.000118459386	0.00039866	0.00020212281	-0.00018736765	-3.5178324e-05	-4.392903e-05	0.00057118305	-0.00020571984	-0.00043994113	0.0002970129	0.00030998385	-9.8689e-06	-0.0009798475	0.000205497	-0.00075799745	-0.00021590937	-0.0006362448	-0.0001654624	0.00074491603	6.195709e-05	-0.0006002268	-0.0003935541	-0.00026966623	0.0010194208	0.00011841889	0.0005300953	1.8519302e-05	0.0007492107	0.0006830558	-6.741788e-05	-0.0008551253	0.00050672906	8.649535e-05	-0.00016762184	-0.0003027115	0.0006049181	0.00023352224	-0.00031605177	0.00038041812	4.353409e-06	2.6644562e-05	0.0006146933	0.0007519813	8.23458e-05	-6.153712e-05	0.00045245467	0.00028665536	0.00040911502	-0.0008605692	0.00061644934	0.00069633464	-6.517597e-05	-0.00025298368	0.0010317934	-0.0007921204	1.0353746e-06	0.00035619937	0.00034308256	0.00024369876	0.0005545055	-0.00012224706	-0.00030098468	-0.00028671054	-5.001379e-05	0.00026978558	0.00010479897	0.0010468407	0.00014833281	2.2619171e-05	9.280117e-06	-0.0008337853	0.00017306957	0.0002673017	-0.0006406565	-0.0006719228	-0.00051182567	0.0001977187	-0.00029431694	0.00047332997	0.00031777105	0.0006992385
Weight function_14	-0.0003073059	-0.00026547041	-0.00033267005	-0.0003083511	0.000987947	5.2893516e-05	-0.00010593024	0.0003477964	0.00044743903	0.00041627995	0.00033294916	-2.8564216e-05	0.0003881878	0.00045094424	0.00013171809	0.00031973506	0.00049285294	-0.0005182665	0.00030971834	-0.0002859969	0.00020542237	0.00029928592	0.00011844792	-0.00033127307	-0.00039962347	-0.00014540125	-1.8554205e-05	0.00020338874	-0.00021349042	-0.0002891291	-0.00023386655	0.00050529576	2.6869913e-05	0.00021446796	-8.672502e-05	-0.000373318	0.00055506453	-0.0003378641	-7.607732e-05	-0.00029958284	5.6551664e-05	-0.00018124584	-0.0003238637	6.6032306e-05	0.00031085673	-0.0006363362	-0.0005863343	-0.00023205364	0.0004887399	0.00016556506	0.00017050465	-0.00052927615	-0.0001886573	-0.00051080144	-0.00067636615	-0.000194023	-0.00084720657	0.00044692666	-0.0004643531	0.00016174927	0.00059612095	-4.078902e-05	0.0003008064	-0.00058107224	0.00028814012	0.00029520606	0.00016856981	0.00039643733	2.7149417e-05	-0.0005761677	2.8287595e-05	-0.00037592446	6.382349e-05	-0.00037149797	0.0002201463	0.0002485682	0.0005762467	0.00048628327	-0.00012732805	0.00036539385	3.3911092e-05	0.0006250033	0.0007534662	0.00011239531	0.00013097063	-0.00052912976	0.00045113606	0.00043080514	6.4479544e-05	-5.678582e-06	-0.00057444745	9.230328e-05	0.00028013997	-0.0006909779	0.00022800933	0.0002635293	0.00035294986	0.00013945751	-7.866206e-05	0.00055281434	-0.00014967896	-2.5927333e-05	7.8140816e-05	-0.0004219339	0.0001664533	3.021662e-05	0.00010331561	-0.00016221975	9.4427945e-05	0.0002613435	0.0002974818	8.985862e-05	0.0001901197	-4.303012e-05	0.00040827453	0.00053094875	0.0004950498	0.00017624532	0.00013899861	-0.00026723795	0.00055911904	0.00070798025	9.169955e-05	0.0006200389	-0.00043295714	-0.000100149526	-0.00018552416	0.00020592434	-0.0003674347	-1.9890116e-05	-7.108329e-05	-0.0002462721	-7.279645e-06	-0.000121813115	-8.638484e-05	-7.176539e-06	0.00028189845	0.00058966805	0.00029145752	-0.00010719169	5.1830943e-05	-4.6852827e-05	-0.00037090265	0.00030444903	-0.00037583435	0.00017995495	-0.0005361034	0.0001944375	-0.0007335418	-0.0002554403	-0.00052770006	-0.00020590122	-0.00027161225	0.00014075174	-0.00013964652	-3.0345842e-05	-0.0003818691	-0.0001302958	-3.9575116e-05	0.00025265545	0.00059455854	-0.00026175292	-0.0003730799	-0.00019584983	4.4226712e-05	3.1496707e-05	-0.00027350849	0.0003128999	0.0005445303	0.00013176577	-0.0001221456	-0.00025283644	-0.00039057614	-0.0003247992	-0.00073194475	1.4467767e-05	0.00019207	-0.00033617154	-0.00024400325	1.2061403e-05	-0.0007746274	0.0006447779	-9.55301e-05	-0.00023322474	0.00019300157	-0.00050464045	1.288355e-05	-0.00023315707	-0.00024182121	-3.4521505e-05	0.00043759402	-0.00022441847	8.3902174e-05	3.750465e-05	-0.00048400005	0.0004422706	0.00039901468	-0.000119942284	-0.00039391854	-0.0004053053	-0.00046843113	-0.00026009453	-0.00024254303	-3.2076558e-05	-0.00029783277	-0.0003564001	-2.6769936e-05	-0.0005159923	8.606675e-05	-0.00019885106	0.0002985622	-0.00021075318	-0.00012369404	-3.8943544e-05	-1.3552461e-05	0.00031883424	6.605588e-06	0.00016259211	-0.0005877485	-0.0002974358	0.00036590706	6.2650244e-05	-0.0005235266	-8.3142666e-05	5.973183e-06	0.00018296896	-0.00030032382	-5.761795e-05	0.0002697734	0.00042822817	-0.00015378234	-0.0006608766	0.00015418734	-0.0009351927	-0.000103710336	-0.00062457414	0.00027134098	0.0005672876	1.7282e-05	0.00021741264	-0.00061221106	-0.00012357104	0.0005600732	0.00030427607	-0.00018791562	0.00055272685	0.00047863944	0.00053260644	-0.0004434876	-0.00057676877	0.000434222	-0.00023713402	0.00037485745	-0.00020333522	0.00033108346	-0.00014488415	-0.00012281336	0.00014233177	-0.00026528724	-0.00014341483	0.00045552445	0.00078603067	-5.361653e-07	-3.344795e-05	0.00090872886	-0.00018269799	-6.2863694e-07	-0.00050537096	0.0002826056	0.00056598947	8.7898516e-05	0.00028863858	0.0007470721	-0.00064857095	-0.00017788663	-0.00021688777	-7.2640425e-05	-0.0001508194	0.0004401303	-0.0005575601	-0.0003182409	-0.000102457394	-6.922911e-05	7.799666e-05	0.00012240416	0.00059967383	0.00018848052	3.2624543e-05	-0.00041303603	-0.0007143114	-7.51138e-05	0.00034985688	-8.947869e-05	-0.00068527757	4.7164078e-05	-0.00033828648	-0.00036409995	0.0002976539	-0.00032076464	0.0005822547
Weight function_15	-9.5612224e-05	-0.0001731441	-0.0005031116	-0.00049337605	0.00096897525	0.00011547293	-0.00017372007	0.00059250795	0.0004904587	0.00040223607	0.00021521785	2.9368266e-05	0.0004767484	0.00047488173	0.00015728307	0.00041335597	0.00047779793	-0.0005312924	0.00014399925	-0.00035469307	0.00029084366	0.00013658384	0.00010230858	-0.00022222754	-0.00038305996	-0.00014250181	-8.637397e-05	0.0002004311	-2.9780827e-05	-0.00032388011	-0.00035907942	0.00047586617	8.840086e-05	0.00029006926	8.419019e-05	-0.00014062336	0.00059298123	-0.00034364665	1.3890866e-05	-0.0003350634	-8.98296e-05	-0.00026540746	-0.00022597745	6.5068176e-05	0.00031691772	-0.00037344915	-0.0004414502	-0.00021999925	0.00021946289	-0.00012118997	0.00026466028	-0.0005402312	-0.00033575398	-0.00022447213	-0.00068875146	-0.0003403128	-0.00072434376	0.00040647437	-0.0003596707	3.62049e-05	0.0004571779	-5.511552e-05	0.00033591103	-0.00042791542	0.00019993275	0.0003530654	0.00027076	0.00056963897	0.00012415575	-0.0004656569	-0.00016225048	-0.00048052947	0.00015789432	-0.00033215736	7.372954e-05	0.0003368252	0.00056393613	0.00040629666	-0.00017767056	0.0001686001	-0.00022335356	0.0004579018	0.0006814657	0.00013669491	0.00019505736	-0.00040807447	0.00035225952	7.532511e-05	0.00012925285	-0.00022166065	-0.0006096882	0.00033109487	0.00037101505	-0.000463986	-0.00011048608	0.0003058506	0.00036705146	0.00016785887	0.00010966752	0.0006446833	4.4317763e-05	6.650518e-05	-2.3205352e-05	-0.0005218664	0.0002959683	-0.00010225715	0.00011280252	-0.00037428076	-2.5440107e-05	0.00016291867	0.00020518531	-1.9821518e-05	0.00042201727	-4.360148e-05	0.00017963075	0.000362677	0.0005770699	0.00011418785	0.00022062678	-0.00010856141	0.0005632927	0.00051930005	2.1063508e-05	0.00057127036	-0.000398277	1.8876024e-05	-0.00025432484	6.3189545e-05	-0.0004011158	-0.00026789933	-0.000106835156	-0.0003713537	3.9917417e-05	-8.570077e-05	-0.00025273935	0.00030650606	0.00025553696	0.00051443395	0.0003702042	-9.010281e-05	3.454287e-05	6.2839204e-06	-0.00021766085	0.00030139202	-0.00039001714	0.00021194867	-0.00042284632	-3.1369166e-07	-0.00068208645	-0.00058709545	-0.000433367	3.1258725e-05	-0.0003147876	0.00034438414	-0.0003311348	9.842881e-05	-0.00019793218	-0.00021480602	0.0001333996	0.00015092878	0.00056875235	-0.00010228241	-0.00036743385	-0.00017922839	-4.7553676e-05	0.00024653546	-0.00019166026	6.03943e-05	0.00041671982	0.00013052367	-0.00015926179	-0.00015354178	-0.0005879836	-0.00040326474	-0.00048020695	-0.000109115594	0.00022012122	-0.00027039208	-0.00036349084	0.00023514702	-0.0008531283	0.00055133406	-0.00046064696	-0.0004960997	0.00036952086	-0.0005962814	-6.7369074e-05	-6.1018345e-05	-0.0003159505	-1.2365658e-05	0.00061732583	-9.3703275e-05	5.814665e-05	0.00016593047	-0.00058190955	0.00045476985	0.00026391412	-0.00013900945	-0.000380484	-0.0004394722	-0.00052174146	-0.0005797419	-0.0003315605	-9.051247e-05	-0.00027199538	-0.0004266723	-0.00016943387	-0.00059430394	-0.000100305195	-0.00024173343	0.0002507055	-7.449268e-05	-0.00010545175	-4.7803704e-05	0.00018172878	0.0004995866	7.322904e-05	0.00028635722	-0.0006273126	-0.00030677058	-8.63635e-07	-7.5233e-05	-0.0002902568	-0.00017240173	-0.00010308378	0.00030319023	-0.00010851665	-0.00012450706	0.00030756282	0.00027129173	-0.00017391793	-0.0007808547	-7.845651e-06	-0.0009627349	-7.6388475e-05	-0.0007033134	0.00027137087	0.00048559645	7.5884495e-06	0.00010417656	-0.0004188567	-8.984113e-05	0.00044335087	0.00028074536	-0.00027063664	0.00047093953	0.00049280905	0.00054622407	-0.00036954117	-0.0006011539	0.00029145885	-0.00015029311	9.540677e-05	-0.00028920098	0.0007068129	-9.3725386e-05	-0.00017123687	8.7214285e-05	-0.0002384399	-8.984439e-05	0.00028639848	0.0006024989	0.00016856099	-0.0002068623	0.00089028815	-0.0001784001	6.445358e-05	-0.0005650654	0.00034252743	0.0005598544	2.6369746e-05	0.00011295206	0.00064658246	-0.00057779334	-7.08751e-05	-0.00032456918	0.00011410833	-0.0004174591	0.0004416405	-0.0005000028	-0.00030340557	-0.0003431584	7.135656e-06	8.081552e-05	0.0002835107	0.0007945422	-4.1062947e-05	-9.306408e-05	-0.00048108603	-0.00062095694	-2.7025892e-05	0.000355226	-0.00017900649	-0.0006620361	-0.00019413722	-0.00027355304	-0.0004863782	0.00023686007	-0.00033654337	0.0007367203
Weight function_16	-0.000111552705	-0.0002528365	-0.00044538593	-0.00030894316	0.0006584951	5.7162364e-05	0.00024189995	0.0005720716	0.0004272332	9.019492e-05	0.00020868193	-0.00019749677	0.00042043024	0.00011376813	0.00010850056	0.00018401646	0.00034506008	-0.00016435875	0.00012713534	-0.0001595222	-4.019318e-05	0.0002949706	2.869078e-05	-0.0001602696	-0.0003546879	-8.0694335e-05	6.12085e-05	0.00018988017	-5.423006e-05	-2.1471436e-05	-0.00019158097	0.00011298386	0.00021130848	6.0667713e-05	0.00013694985	-0.00012647283	0.00050704816	-0.00021567108	-0.00017890145	-9.0335416e-05	-7.204736e-05	-0.0003002362	3.4805937e-05	0.00016354675	6.5700726e-05	-0.00033264272	-0.000480997	-7.53264e-05	0.0002394248	-7.998992e-05	0.00012411759	-0.00029533482	-0.00030142613	1.5131217e-05	-0.0005039923	-0.00016034565	-0.00063706737	0.00010202951	-0.00025486312	0.00014345894	0.00043617573	-0.00018616088	7.899212e-05	-0.00033284546	0.00014202493	7.121446e-05	0.00035338005	3.2998032e-05	-0.000120584344	-0.0002994523	-0.00014173637	-0.00024567978	6.1074075e-05	-0.00032024932	8.136685e-05	0.00021830028	0.0002779533	0.00021286731	-0.00022580597	0.0001717418	-1.6093709e-05	0.00042568272	0.00058716186	0.00025911018	7.277866e-05	-0.0006506154	0.00014007873	0.00012386142	-0.00010252812	5.5879842e-05	-0.00041668132	0.00017315641	0.0005725094	-0.0003872152	-0.00011703342	3.3071417e-05	0.00017940825	9.1500304e-05	1.348122e-05	0.00039520243	-4.32603e-05	-0.00012856981	-4.982742e-05	-0.0001889851	0.00020377785	2.1965205e-05	7.6957534e-05	-2.0711124e-05	3.367913e-05	0.00033306982	0.00023714654	0.0001579001	0.00015587738	-0.00013042313	0.00026692395	0.00016985563	0.00040733552	0.00024266286	0.00028316578	-0.00023599304	0.00059430767	0.00018191204	4.8935377e-05	0.00042681044	-0.0004204306	9.336715e-05	-0.00018346892	-0.00016398601	-0.00022745696	-0.00035376492	3.8034188e-05	-0.0001928307	0.00016634358	-0.00020866925	0.00016410119	7.9337384e-05	0.00027765674	0.0005657416	0.0003044675	-1.648931e-05	4.871615e-05	-0.00018580872	-0.00010432678	0.0002845874	-0.00012520404	0.00010277517	-0.0002873065	-0.00013457939	-0.00059527165	-0.00022872332	-0.00033441148	-9.6179305e-05	-0.00017225723	-0.00014796261	-0.0001695129	0.00020651547	-0.00021864475	-0.00023042745	-2.0346877e-06	0.00011608975	0.0002443188	-9.4965134e-07	-0.0004121099	-6.514169e-05	0.00015381088	0.00022564796	-0.00015807291	0.00013086676	0.0003481222	0.0001229591	-0.000112542155	-0.00027460098	-0.00033537435	-0.0004596813	-0.00017115627	-3.630509e-05	1.91182e-05	-0.000517456	-0.00032038815	4.493596e-05	-0.00069012196	0.00055319624	-0.00016552785	-0.00042329906	0.0002185974	-0.000525837	-0.00018002969	-0.00020127585	-7.5207927e-06	0.00025145616	0.0005582609	-3.9029586e-05	-7.1784634e-05	-2.914198e-05	-0.00063509407	0.00040077747	0.00021303844	-0.00015079814	-0.000115382136	-0.00014550824	-0.0003023478	-0.00039612452	-0.0002722264	-1.053646e-06	-0.00038343793	-0.00018814615	-5.9034406e-05	-0.00051450834	0.00019096928	-0.00038842254	0.00012560404	1.8624147e-05	-0.000115991345	-0.00010573784	6.737001e-05	6.197303e-05	4.9858303e-05	6.9219386e-06	-0.0005206203	-0.0002915823	-2.1282758e-06	-0.00026088252	-0.00037363017	-7.0948113e-06	7.945652e-05	0.00018724448	-0.00013763216	4.0066272e-05	0.0003227966	6.177872e-05	-7.722947e-05	-0.00063182664	-4.8156868e-05	-0.00080272346	-9.354363e-05	-0.0004212102	0.00032415186	0.00012009629	0.00015103568	0.0002863129	-0.00024274366	0.0002207521	0.0002976182	0.00016495127	-0.0003622734	0.00046289669	-4.5310124e-05	0.0004946194	-3.9948525e-05	-0.00036338062	0.00034266655	-0.00018353484	2.3512352e-05	-0.00011018942	0.0004055127	-0.000116601055	0.00017205904	0.00011591546	-0.00010977644	-0.00016921377	0.00027432677	0.00037380954	6.4637876e-05	-6.4645e-05	0.0007444377	-0.00010340408	-0.00010506399	-0.0002352477	0.00012515615	0.00013319025	-0.00015534043	0.00017077144	0.00037814333	-0.00016137422	-0.00019708481	-0.0004332926	-6.203824e-05	-0.00029031647	0.00046262908	-0.00020084801	0.00010279701	-0.00013123926	-3.105544e-05	-0.00013292745	0.00028129315	0.0005977789	0.00026828257	-0.00013380303	-0.00019101339	-0.0004936218	-0.00026506945	0.0002767468	-0.00020493663	-0.00043615763	-0.00015302401	-0.00023607978	-0.00032781775	3.8383387e-05	-0.00012317594	0.0004527498
Weight function_17	0.00019089603	-0.00012643111	-0.0007893282	-0.00017376189	0.0006392706	0.00020298739	4.30188e-05	0.00095449714	0.0006845407	0.00060721685	0.0001189191	4.2784784e-05	0.0003483261	0.00041062594	-0.00030113623	0.00038707964	0.00020463944	-0.00042441915	-0.00022766003	-0.00019620867	0.0002920748	-0.00041288533	2.6919966e-05	-0.0003898283	-0.00046187834	-0.00027093227	0.00014726038	-9.919619e-05	-0.00017472792	-0.00015862846	-0.00034372497	0.00042196916	0.00013086476	0.00013254958	1.7045706e-05	-2.6044983e-05	0.0008920085	-0.00041931224	-4.7675894e-05	-0.00040847986	-0.00022409356	5.018715e-05	-0.000117627766	-4.7355246e-05	0.00027539034	-0.00032588924	-0.0003265008	0.00036789218	0.0002862673	-0.0001817974	0.0005079991	-0.0003593306	-0.00040230824	-1.694233e-05	-0.00033316345	-0.0005755372	-0.00052865566	0.00022063064	-0.00024284628	0.00036832498	0.00041714398	-0.00060932676	0.00026859302	-0.0003518802	4.9313367e-05	2.265412e-05	8.075533e-05	0.0005047751	0.00016080581	-0.00018811302	-0.0007040882	-0.00045949608	2.180813e-05	-0.00053811155	0.00037772447	-5.9187638e-05	0.00028927962	0.0005235591	-0.00015862686	0.00053673424	-0.00016012976	0.00037231116	0.00046529886	-0.0003019217	0.00030506818	-0.00020100285	6.193052e-05	6.1044586e-05	0.00050872314	-0.00044077294	-0.00072804664	0.0005484299	0.0006123673	-0.0008227286	4.585172e-05	2.6238466e-05	0.00016608415	0.00012648215	0.00016101116	0.0005991633	-5.8319012e-05	-0.00013602358	-0.00038796716	-0.00074274035	0.0007457111	0.00031540793	-0.00034821025	-3.7296628e-05	-7.382201e-05	9.696048e-05	0.0005645248	-6.404435e-05	0.0006793045	-0.00014558462	0.0002290911	0.00018773382	0.0003426501	7.7330835e-05	0.00013788961	0.0004193773	0.0003637332	0.00034907268	0.00015401741	0.0008239605	-0.00018752196	9.519355e-05	4.405785e-05	-0.00039414587	-0.00048568883	-0.00013708933	-0.00027999675	-0.0005512265	0.00010946416	0.00011373453	-0.00021895976	0.00036400574	-0.00019598244	0.0005922113	0.0005152343	-0.0006084376	-7.123216e-05	4.8729657e-05	-0.00031670206	0.00035792525	-0.00012481361	0.00043089446	-0.00020473458	-7.751413e-05	-0.00043798477	-0.00069117715	-0.000215073	9.223995e-05	-0.00034145964	0.0007264673	-0.0002543338	0.00019743387	-7.923994e-05	0.00012925471	0.00029051033	0.0003059001	0.00054985675	-0.0002691305	0.00022298351	-0.0002474555	4.5719942e-05	0.0005521556	-0.00015570445	-4.626475e-05	0.00023655567	-0.00014716132	-0.00015119635	-0.00012276578	-0.0006893935	-0.00060644775	-0.0003699062	2.0920746e-05	0.00020520343	9.824931e-05	-0.00032789892	0.0009326291	-0.00069215073	0.0008249632	-0.00045694318	-0.00082110625	0.00041404815	-0.00052768004	-0.00015069848	8.728613e-05	-0.000253407	0.00037817255	0.0004503263	-0.0003272526	0.0003142746	0.00016732208	-0.0009473629	0.00031799293	0.0003381068	0.00041426058	-0.00030078334	-0.00014829685	-0.00021394654	-0.0007022036	-0.00062742224	-0.0005305668	-0.0005161483	-0.0006449496	-0.00019409045	-0.0004157137	-0.0003711652	-0.00046863797	0.0004971918	4.7544298e-05	-0.00027474517	0.00014044717	0.00037224792	0.00021085097	-0.00019747899	0.00035638578	-0.00072434876	-0.00016345987	-6.7608025e-06	0.0003925374	0.00038321674	-0.00019782255	-0.00044932976	0.0006829066	5.8055717e-05	-0.0003179253	0.00023820056	0.00010042876	-3.1814445e-05	-0.0010740719	-6.902695e-05	-0.0013012632	7.2235096e-05	-0.0010799313	0.00027489252	0.00050394534	0.00031702965	-3.421125e-05	-0.00051657425	2.792026e-05	0.00084279093	0.00040200655	7.125223e-05	0.00035361864	0.00033303836	0.00078477897	-0.00039443964	-0.0004266437	0.00023255628	-0.0005079272	-0.000554229	1.7390494e-05	0.0010829354	0.00022591506	-0.00047169914	0.0004325949	0.00030417237	-0.00010304432	0.0003576108	0.00037077753	0.00023554273	-0.00052350305	0.00080604234	0.000211818	5.1982257e-05	-0.00076013594	0.00019990886	0.00049785787	-9.239415e-05	0.00013309841	0.00058614253	-0.00022586258	-0.00035940015	-4.6348257e-05	0.00036103133	-5.4317257e-05	0.00069284893	-1.5957281e-05	-0.00042460798	-0.00023487271	5.8344845e-05	-8.078914e-05	0.00024706934	0.0011484751	-0.00021434567	-0.00018861552	-0.00029565202	-0.000974964	-8.702498e-05	0.00075868965	-0.00062059704	-0.0003961685	-0.0003875306	4.1919713e-05	-8.568561e-05	0.0002993186	-5.553621e-05	0.00088899554
Weight function_18	0.0015958012	-0.0011689961	-0.0014725246	-0.00043830965	-0.00087920215	-0.00057901756	0.00061521935	0.0010522621	-0.0014727399	0.0012953159	-0.00033001695	-0.0012743404	-0.00044277686	0.0005605246	0.0007895259	0.00072015927	0.0005019542	-0.0009443986	0.0006182528	-0.00014087213	-0.0003935013	-0.00037696873	0.0013796531	-0.0012762778	0.0013392438	-0.00017724262	-0.0011489246	0.00020289271	-0.0010004634	0.0013268727	-0.0014545105	0.0010612898	-0.00018359537	-0.0006214822	0.00040322143	-0.0004240076	-0.00070660096	0.0013682358	5.9515305e-06	0.0016588608	0.00073059817	-0.00046331948	0.00083286304	-0.0005295456	-0.0010025342	0.0015003425	-0.0016391762	0.0012134424	-0.0011497606	-0.00013695378	-0.00040454534	0.000710335	0.00048585006	-0.0016557241	-0.00071682176	0.0009033946	-0.0014036247	0.0011493281	0.00015110317	-0.0007419606	-0.0009612865	-0.0015372479	0.00062805886	-0.0007033763	-0.00014418727	-0.00040467104	0.0016348714	0.00062529615	-0.00011753133	-0.0013347159	0.00072545145	-0.0013812612	8.8949564e-05	0.0010347541	0.0005998461	0.00082385074	0.0016224963	0.0003807836	0.0013510677	0.0014957013	9.2117785e-05	0.0012954284	-0.0003377376	0.00030986013	0.0014372194	0.00030069225	-0.0013726854	0.00071725383	-0.0014113428	-0.0006091856	-0.00044504437	0.001648882	0.00012487962	-0.0015081972	-0.0014574607	-0.0005157897	-1.5031251e-05	0.0009205967	0.0015570954	0.0013807471	-0.00015137385	-0.00038549647	0.00016628196	-0.00021911079	0.00028801808	-0.0015268956	0.0008956388	0.0010721985	0.0016150022	0.00045744958	-0.0011263443	-0.001298274	0.0009880858	0.0009892266	0.0008052968	-0.0008590571	0.001629556	5.4965076e-05	-0.0012424341	9.4408264e-05	0.00026919748	0.0003078032	-0.00011810431	-0.0008179731	-0.0012197433	-0.0014567041	0.00023245363	-0.00048500116	0.0009739846	0.00095947477	-0.0014527303	-0.001492251	-0.0013199653	-1.4356181e-05	7.997509e-05	-0.00048107436	-0.000108458706	-0.00016639012	-0.0011986312	-0.0010261409	0.0012940102	0.00087405567	0.0002619492	-9.262984e-05	-0.0012037872	0.0007802169	0.001132856	-0.0006443534	-2.1483958e-05	-0.0011417402	-0.0014157982	2.0306052e-05	-0.0010002325	-0.0005994459	-0.0008600894	0.00090268237	-0.00019418007	-0.00051059364	0.0014504209	0.0008542234	-0.00071135914	0.0007319634	-0.001442393	-4.922127e-05	0.0009687925	0.0013272595	-0.00072604546	-0.0015813925	-0.000697955	-0.000617266	-0.00019920894	0.00030985384	0.00034315026	7.996519e-05	-0.001621323	0.00092818163	-0.0007275361	1.9957046e-05	-0.0013792226	-1.3916016e-05	0.0011748724	0.0011605752	-0.0007890087	-0.0011078808	-2.3620101e-05	0.0012483962	0.00083865266	-0.0013815085	-0.0011320486	-0.0002817983	7.030982e-06	0.0008902636	-0.0010517902	-0.00056854775	-0.000116844596	-0.0010472488	-0.00045792645	0.001426699	0.0011511123	0.0010822874	0.0010022525	-0.0014296238	-0.00050157204	2.8096818e-05	-0.0016507683	-0.0014237777	-0.00039808353	0.0016260444	-0.0010669633	-0.0008528718	9.5788804e-05	-0.000115141316	0.0008905032	0.0011420945	0.00071220304	-0.0013201875	0.0014533416	-0.0014498984	-3.0852298e-05	-0.0015028265	-0.00051451003	-0.00042493758	-0.0002020266	0.0005146276	-0.00033858136	0.00028034777	-0.00050222664	7.905182e-05	-0.00030941257	-0.0007324766	-0.0009838126	-0.00015852328	0.00072994834	-0.0010741287	-0.00017657995	0.0013363591	0.0009136848	-0.0006224814	0.00027977425	0.0012568749	-0.00017326696	0.00053998263	0.0003988668	0.0015154907	0.00037945952	-0.0003033196	-0.0007088642	-0.00017520154	-0.001044784	0.001479771	0.0003972077	0.0016618201	-0.0009784632	0.0015986334	0.0013502763	-0.0007242965	-0.0006053438	0.0010195934	0.00079066027	1.0029584e-05	0.0014640535	-0.0011822135	0.00088333857	3.455789e-05	0.0008158044	-0.0014825527	-0.0008884937	0.0012097082	0.00096413464	-0.0009005692	0.00011858368	-0.00059225445	-0.00044615386	-0.0001526858	-0.001140762	0.0013768871	0.00071607163	0.0011108653	-0.00029091007	0.0016227216	0.00095725845	-0.001311254	0.0012138922	-9.0113805e-05	-0.0015426249	-0.0013036142	0.0007000956	0.0014859411	-0.00091389654	0.00034373903	0.0006882002	-2.1470447e-05	0.00048643386	0.00015970155	-0.00032066816	-0.0014163031	-0.0004527862	0.0007694982	0.00091068307	0.000849559
Weight function_19	0.00045223656	-0.00028528518	-0.0008314469	-0.0004914877	0.0006310693	-8.7587054e-05	-0.00012450285	0.0006835153	0.00043768345	0.00038888646	6.463894e-05	-0.00041881783	0.00042503502	0.0004246923	-0.00041190386	0.00028686033	0.0004333444	-0.00019480796	-0.00017361836	-0.00044314473	0.00016340561	0.00021240242	0.0005634762	-0.00045479124	-0.0006218365	4.9545702e-05	-0.00026789363	8.0249985e-05	-0.0003923652	-0.00039922172	-3.7462465e-05	0.0003657747	0.000340741	0.00016461946	0.0001733327	1.780963e-05	0.0005319403	-0.00042057913	0.00018987991	-0.00038192887	7.510785e-05	0.000116997784	-0.000309211	-3.5372905e-05	-0.00018693304	-0.00013005879	-0.00031866785	-8.554933e-05	-8.220961e-05	0.00028641702	0.00047176462	-0.0004938008	-0.00038465127	4.7527516e-05	-0.00066758046	-0.0007644068	-0.0006488426	0.00022941054	-0.0002782724	-0.00011277843	0.00012510616	2.6054708e-05	-1.9943904e-05	0.00014718217	0.00013451054	0.00036947717	0.0005186873	0.0005263457	0.00035752254	-0.00057953247	-0.0001573253	-0.00053855317	0.00027238	-2.9414687e-05	-7.396873e-05	0.00012390113	0.00047491567	0.00063115795	0.0002145782	5.557776e-05	-0.00020058031	6.961099e-05	0.00058626285	-5.297868e-05	0.0005491875	-6.893664e-05	0.00020923206	-0.00025594875	7.93005e-05	-0.00030931315	-0.00064161746	0.00044511055	0.00028062216	-0.0003411616	-0.00039568893	3.3713677e-05	0.00020141501	0.00034865655	-4.5295656e-05	0.00044869518	-2.6080183e-05	-0.000192465	-0.00061872025	-0.00021670209	0.00038447662	-0.00020406171	-0.00019809429	-0.00014504141	0.00025631703	0.00019641718	6.313478e-05	-0.00013529618	0.0005463358	2.6341857e-05	0.00025246904	-7.127283e-05	0.0006830541	0.00027451353	0.0003367839	0.00019183857	0.00031126896	0.00019045199	1.0172734e-05	0.00021530228	-0.00034868752	0.00019376747	-0.0002195408	0.00015297387	-0.00033384375	-0.00027483073	-0.00040117	-0.00022758136	-0.00014290701	0.00014827403	-4.766026e-05	0.000281615	5.6837493e-05	0.0007313174	0.00032312298	-0.00022089377	4.4190612e-05	-0.00018677069	-0.0003977835	0.00046172447	-1.7124383e-05	0.0003870655	-2.3042447e-05	-0.00030698045	-0.00044725728	-0.0008251576	-0.00028439704	0.00022611463	-0.00039688832	0.00022177196	-0.00044418505	0.0005839456	-0.0002464068	-0.00016993692	0.00016693563	-0.00015275783	6.5436325e-05	-6.234803e-05	4.6611873e-05	-8.279917e-05	-7.045053e-05	0.00059472164	-0.0006606886	-0.00017013625	-7.3309434e-06	0.00013288845	-3.628948e-05	-0.0002879714	-0.00032634218	-8.550621e-05	-0.0003604947	0.0002642595	-2.1866108e-05	-0.00013467605	-0.0008259711	0.00022429002	-0.00032140326	0.0007493615	-0.00042409208	-0.0006176046	0.0003731191	-0.00014001585	9.030744e-05	-0.0004231082	0.000113939735	3.5800347e-06	0.00048399996	-0.00014417528	0.00023601689	-0.00027092316	-0.00023435286	0.00021858927	8.106533e-05	0.00028694439	-1.4804007e-05	-0.00024508574	-5.4934775e-05	-0.00078108517	-0.00044719508	3.0799845e-05	-0.0007083636	-0.00055936095	-0.00014054276	-0.00055306574	-0.0003200023	-0.0001264981	-3.913897e-05	-0.00015277078	0.00014276023	-0.00025055857	0.0005715885	0.00020995185	-0.00022642777	-3.4373308e-05	-0.00017366646	-0.00038363424	-0.00026652825	-5.221352e-05	-0.00012508269	-9.071212e-05	-0.0002370108	0.00045953575	-1.8381994e-05	-1.7586497e-05	0.00025214473	0.00022187647	-0.0002463975	-0.000817039	0.00010943994	-0.00078057457	-0.00028542295	-0.00027137517	0.00044298475	0.00020224517	9.0957794e-05	0.000369244	-0.00029127699	-0.00017912422	0.0005617757	0.00016816962	0.0002029112	0.00049321353	0.0006102965	0.00017732593	-0.00015658575	7.2001e-05	-7.606166e-07	-0.00014939382	9.2532835e-05	8.874223e-05	0.00067235774	-0.0001685249	-0.00035103725	1.7196518e-05	-0.0001458332	0.000118251395	-2.2360658e-05	0.00021575442	0.00032051414	-0.0001603621	0.00057820557	-0.00030385956	3.5126955e-06	-0.0001398266	0.0002517016	0.0005277082	-0.00013890093	0.00019391571	0.00054234127	3.6115773e-05	-0.00031428025	-0.00013536059	6.0555787e-05	-0.0005320914	0.00037710872	-0.00039699822	-0.00021602766	-0.0001229126	0.000274039	-0.00013306407	0.00022025316	0.000823603	-0.00022102386	3.6352027e-05	-0.000331115	-0.00051879964	-0.00046013278	0.00018588158	-0.00038250638	-0.00033773255	-0.00044175834	-8.412202e-05	-0.00024656075	8.951642e-05	-0.00033088043	0.00051626953
Weight function_20	0.00022594979	-0.0005276828	-0.0007822717	-0.0004455929	0.0006072327	5.7160487e-05	-0.00042313986	0.00063241884	0.00039266396	0.0005533787	9.360635e-05	0.00011618368	0.00026640028	0.0004868978	-4.7211663e-05	0.00055707316	0.0003113611	-0.0005775878	0.00023040443	-0.00041305475	0.00023725496	0.00024773023	0.00038383703	-0.00026759124	-0.0002991821	-0.00024526397	-0.00021154108	0.00032852372	-9.808596e-05	-0.0006049862	-0.00037269783	0.00050736504	-0.00018380016	0.00042131692	-6.353483e-05	0.00021384835	0.0007006515	-0.0004974427	0.0002693893	-0.00033540904	0.0001591581	-0.00029746906	-0.00040601045	-0.00015321792	0.00011452282	-0.00017906625	-0.00029919198	-0.00033305553	-9.663964e-05	-5.945856e-05	0.00024251186	-0.0005684763	-0.00010176198	-0.00019301387	-0.00061826414	-0.00018128526	-0.0008688507	0.0006486319	-0.00047234123	-0.00038424588	0.00046975366	0.00027356195	0.00030146743	-0.00012333089	0.00025186993	0.00046363994	0.0003440714	0.0006498157	0.00029814424	-0.00082387676	0.0002291719	-0.0005559241	0.00041638257	5.330968e-06	-3.888863e-05	0.00020309033	0.00061759347	0.0006318981	-2.8745882e-05	-0.00011224322	-0.00019263399	0.00020073463	0.00070433255	0.00024711495	0.00069849583	-7.273738e-05	0.00023991604	4.4019267e-05	7.491424e-05	-0.00023736036	-0.0005235617	0.0006495887	0.00029020512	-4.756942e-05	-0.0003280715	0.00031455656	0.00021644756	0.0004906663	0.00020367734	0.00095486996	0.00021898974	-0.00031057114	-0.0004122282	-0.00022120778	0.00012332293	-0.0004261257	0.0002320204	-0.00043295996	8.719587e-06	0.00011896235	-4.5484583e-05	-3.4662928e-05	0.00066012563	-8.5915344e-05	0.0002190233	0.00021297077	0.0007896032	2.1640508e-05	0.00019290518	0.00024768544	0.00021950236	0.00074620853	-0.00010085778	0.00012002451	-0.0005305475	-0.00013338959	-0.0003916647	0.0004930476	-0.00042013454	8.0006816e-05	-0.0001552808	-9.198713e-05	0.00015266713	-9.973239e-05	-0.00033803738	0.00063656986	0.0002215301	0.00082384615	0.000643223	9.7645454e-05	0.0001915671	9.505639e-05	-0.00018401559	0.0003243149	-0.00017432733	0.0004336835	-0.0003453549	-0.00011281683	-0.0007323102	-0.0005155341	-0.0006963375	-4.141763e-05	-0.00024306371	0.00046121972	-0.0005575502	0.00031638518	-0.00018541543	-0.00034069965	7.08401e-05	6.0691582e-05	0.00071766396	-0.00029070544	-0.00029246733	-0.00027946237	-6.208955e-05	0.00073960266	-0.00048218193	-9.4404204e-05	9.502253e-05	0.00012256824	-0.00025032423	-7.1187955e-05	-0.00059848174	-0.00024296001	-0.0007119346	-3.204429e-05	0.00017683535	-3.3957003e-05	-0.00086737407	-0.00010662001	-0.0007714988	0.0003323315	-0.00051681837	-0.00065495353	0.0006535731	-0.00046325382	0.0002966066	-0.000335709	-5.22007e-05	-0.00021474947	0.0004609517	8.017133e-05	0.0002976443	0.00020228927	-0.00032630088	0.00026922644	0.00012361296	-0.000319207	-2.145159e-05	-0.0007039998	-0.00033080045	-0.0008825576	-0.00037024228	-6.463196e-05	-0.000118020274	-0.0007071323	-0.0003171099	-0.0007319161	-3.4685563e-05	0.0001894845	9.7106495e-05	-0.0003577543	3.0484278e-05	-2.5475098e-05	0.00029567184	0.0006621029	0.00035453422	0.00011669734	-0.00018707558	-0.0006793551	-0.00038792437	0.00012659021	-0.0004905517	-0.00033501376	-0.0003293576	6.827305e-05	-0.00035765397	-0.00027817642	0.00027306852	0.0006027497	-0.00041211318	-0.0006287202	0.00017587112	-0.00093668577	-0.0007813564	-0.00036870685	0.00045613773	0.00050672475	-2.6653777e-06	0.0001056328	-0.0002834354	-0.00032606616	0.00028474742	0.00024993674	-8.1296515e-05	0.000320285	0.00066743133	0.00030809888	-0.00028678172	-0.00059103646	-3.2423297e-05	-0.00019117806	0.0003323613	-0.0005195856	0.0007122876	-1.5117014e-07	-0.00014907436	-3.445798e-05	-0.0002932128	0.00033729526	0.00015935388	0.00062578404	0.00030183946	9.63393e-05	0.0007616884	-0.0002505069	0.00018628595	-0.00046580436	0.00061605393	0.0007593911	-1.05761255e-05	4.2861968e-05	0.00083299424	-0.0006153552	-0.00021419938	-0.00036382282	0.00019844783	-0.00050739606	3.577831e-05	-0.0009010472	-0.00035730307	-0.00047124483	0.00037971174	0.00022541008	0.0002193112	0.000791921	-0.0003108863	-5.4336942e-05	-0.0003039976	-0.00041394043	7.129141e-06	0.00026657482	-0.0003534757	-0.00059874164	-0.00043868052	-0.0002980176	-0.00071109826	0.00026802052	-0.0003401082	0.0006098868
Weight function_21	0.00011136806	-0.00026182298	-0.0006607766	-0.00046435502	0.0008719093	9.286773e-05	-0.00031385745	0.0006753065	0.00042140696	0.00066198636	0.0001821235	0.000102742895	0.00035472386	0.00043003974	5.7503512e-05	0.00057675666	0.00030176967	-0.0006109153	0.0001850332	-0.00035814036	0.00021317825	0.00013056288	0.00022269363	-0.00018549067	-0.00029156927	-0.0001878274	-0.0001324892	0.00020581366	-5.933144e-05	-0.0003330935	-0.00040226063	0.0004876917	-0.000109624474	0.00026439206	2.3362516e-05	4.0841554e-05	0.0007804951	-0.0003106242	1.662186e-05	-0.00043695685	-7.9369696e-05	-0.00035927293	-0.00018402749	-1.3782813e-05	0.00029820303	-0.00021249316	-0.00040157835	1.8757417e-05	-1.8022433e-06	-0.00021172053	0.00019126263	-0.0005538766	-0.000162556	-0.00018386835	-0.0005275627	-0.0002601979	-0.00079512305	0.0005768106	-0.00037780305	-0.00010880126	0.0005647097	-2.3422133e-05	0.00044867175	-0.00031997918	6.2223546e-05	0.0003164969	0.00031250864	0.00061865605	0.00015222667	-0.0005431204	-0.0001305362	-0.0005220073	0.0004905159	-0.00026954865	6.105605e-05	0.00029756458	0.00051774486	0.00036150348	-0.00010096616	0.00014598359	-0.00029989748	0.00047471136	0.00073305005	6.781019e-05	0.00046156082	-0.0002598166	0.00024970208	-1.834474e-05	0.00026763813	-0.00023159022	-0.00066799304	0.0006516862	0.00039945307	-0.00033073072	-0.00020344571	0.00034473345	0.00023123961	0.00031199542	0.0002940154	0.0009426247	0.0002614495	-7.788323e-05	-8.970319e-05	-0.0004773191	0.00034891628	-0.00028594496	0.00023388298	-0.00040482532	1.987674e-05	-6.7225806e-06	0.000112701724	-0.00010707748	0.0006360791	8.198428e-06	6.547614e-05	0.00020339905	0.00065505644	8.921924e-05	0.00023839975	7.801907e-05	0.00047440143	0.0005888172	-7.563064e-05	0.000464366	-0.00041515438	9.623852e-06	-0.00041425138	3.8946808e-05	-0.00031326438	-0.0001454698	-0.00015475242	-0.00037212647	0.00012386456	-0.0001381587	-0.0003300477	0.0005665233	0.00020932972	0.0005840816	0.00042901107	-3.729158e-05	2.9477847e-06	6.0053768e-05	-9.184432e-05	0.00033903346	-0.00034786493	0.00024891918	-0.00028541838	-4.3437667e-05	-0.0006799224	-0.00055725616	-0.00061534526	1.6328888e-05	-0.00031748673	0.0004934631	-0.0005903714	0.00011229533	-0.00010272426	-0.00035943766	0.00019285151	0.000107843865	0.0006395594	-3.7859034e-05	-0.00031256	-0.00021435787	-4.0663217e-05	0.00054999697	-0.00029672496	-3.656661e-05	0.00025246886	0.000108242726	-0.00034918537	-3.140112e-05	-0.0007126845	-0.00045840663	-0.00048363084	-0.00011350996	0.00026567862	-0.00016754713	-0.0005734277	0.00023089634	-0.0008952969	0.00041147848	-0.0006455325	-0.0007621826	0.00055750326	-0.00050990225	0.00017703586	-0.000101583675	-0.0003852175	-7.94103e-05	0.0005611241	9.804238e-05	0.00015546697	0.00018082968	-0.0006712751	0.00030913207	0.00021545145	-0.00010692584	-0.00016675089	-0.0005015161	-0.00041807524	-0.0007262852	-0.00049649837	-0.00010385484	-0.00021228872	-0.0005939959	-0.00038178437	-0.0006507608	-0.00022779791	-0.00021472023	0.00018614848	-0.00011873638	2.6524343e-05	1.3112627e-05	0.00019057326	0.0007002719	0.00020193339	0.0002809836	-0.00068580965	-0.00045898723	-0.00017940154	3.422151e-05	-0.00032887218	-0.00019276509	-0.00025407207	0.00032107043	-0.00026494867	-0.0003277762	0.0004341665	0.00031347267	-0.00028602942	-0.00080986397	-2.0351274e-05	-0.0011342593	-0.00031892734	-0.0007246383	0.00035161688	0.00062599086	8.403045e-05	7.988736e-05	-0.00041498634	-6.3058054e-05	0.0005175677	0.00048171025	-0.0002269233	0.0003643045	0.0005080366	0.00047229382	-0.00028353964	-0.00068985956	0.00017190079	-0.00015110263	-1.4287887e-05	-0.00038034652	0.0009476305	5.0749404e-05	-0.0002746078	0.00012109309	-0.00010530493	8.901414e-05	0.00036024058	0.00053467386	0.00015895873	-0.00010929384	0.0009038472	-0.00013845887	0.00016997445	-0.0005254537	0.00052588055	0.0006201796	-3.2851258e-05	0.00018895793	0.0006544445	-0.0006039742	-7.581304e-05	-0.00034384622	0.00025956	-0.0003623033	0.00017204719	-0.0005250654	-0.00036888887	-0.00052227493	0.00012218222	5.547397e-06	0.00029561596	0.00089055	-0.0002674619	-0.00018756736	-0.00044106247	-0.0007414006	0.00011895537	0.0003904586	-0.00041039448	-0.00068688556	-0.00041699328	-0.00021827115	-0.0005774836	0.00029855396	-0.00021518998	0.00083268806
Weight function_22	-0.000111850764	-0.00041345283	-0.0007217992	-0.00044129064	0.00068023807	0.00020977278	-0.0004444628	0.0007136909	0.0005100662	0.00066335517	0.0003290966	0.0002626918	0.0001775049	0.0005754384	-1.5990738e-05	0.000581823	0.00034596465	-0.00075029844	0.0004625068	-0.00048283444	0.0004048055	3.049613e-05	0.00032272885	-0.00026523092	-0.0003153706	-0.0002755339	-6.149376e-05	0.00031391552	-0.00013841638	-0.0006148863	-0.00035546592	0.0005955629	-0.0003567259	0.0004475623	-5.5558838e-05	0.00017511299	0.00069042755	-0.0004243319	0.00025575195	-0.00038903815	7.020777e-05	-0.00036925974	-0.00047752963	-0.000119548546	0.00015342617	-0.00031289618	-0.00014889929	-0.00020846707	7.732256e-06	-0.00020106601	0.00019562572	-0.00043373005	3.9635437e-05	-4.7160207e-05	-0.00046021192	-3.2527863e-05	-0.00093007466	0.0007205501	-0.0006074695	-0.00013694556	0.000692254	8.0137936e-05	0.00029360806	-0.0004168206	0.00011077621	0.00040124755	0.0001304543	0.00057618035	9.2967675e-05	-0.0007099475	7.4076656e-06	-0.00040009312	0.00042097998	-0.0003179024	0.00010221903	0.00027077587	0.00058329565	0.00057879265	-0.000112877526	-8.7160415e-06	-0.00040685217	0.0004532968	0.00069833425	0.00028614653	0.00041779884	-0.00011739768	0.00020186449	0.0002762245	0.0001929352	-0.0003804242	-0.00046644907	0.00057000626	0.00039167635	-0.00038398526	-0.00028618754	0.00038924732	0.00037138953	0.0004602543	0.00015331573	0.0009189708	0.00012745465	-0.00011875588	-0.00027028963	-0.00038115086	0.00014179193	-0.0001622839	0.00033846186	-0.00036917112	-9.6356e-05	0.00013389932	0.00019338969	-6.4906184e-05	0.00048784696	-0.00024819534	0.00017819904	0.00038872033	0.0006448036	-9.6170785e-05	0.00024610164	0.0002616593	0.0003110493	0.000885262	4.1081905e-05	0.0004673121	-0.0004252563	-0.00015825055	-0.0003465136	0.00049853796	-0.0005146366	5.3381747e-05	-0.0001413699	-0.00013395393	0.000266395	-0.00013229648	-0.00037478007	0.00066044164	0.00017257927	0.0008154931	0.0006090219	0.00010559797	0.00015114404	9.979244e-05	-0.00013441	0.0003621712	-0.00023801417	0.000491902	-0.0003916504	0.00010180001	-0.00077805365	-0.00028897414	-0.00046206312	-0.00021739486	-0.00022347715	0.0006747641	-0.00036875575	7.10289e-05	-0.00013224957	-0.00020407191	0.00023192527	0.00020483833	0.0010833276	-0.00038899723	-0.00034948072	-0.00029810626	6.3421016e-06	0.00052517356	-0.0003215702	-3.9368857e-05	0.00031325693	4.378849e-05	-0.000282543	4.025827e-05	-0.00075751764	-0.00033439885	-0.0009006615	-9.685682e-05	0.00023188774	-0.00014940886	-0.0007263351	0.00012612982	-0.0008721267	0.00041640791	-0.000652236	-0.0006040722	0.00060592213	-0.0005308744	1.792871e-05	-0.00021438207	-0.00020750445	-4.2850737e-05	0.00047708937	4.7933285e-05	0.00023895834	0.0004781252	-0.0004430073	0.0003053982	0.00020185369	-0.00025115756	-0.00022600326	-0.0005818393	-0.00047481983	-0.0005964362	-0.00036174932	-0.00016683852	-2.90436e-06	-0.00080004224	-0.00033452304	-0.0006460303	-3.4663706e-05	7.85333e-05	0.00046269203	-0.0004173333	-6.677595e-05	7.564104e-05	0.00020382492	0.00064605207	0.00033580812	0.00040659055	-0.00044033167	-0.0005793305	-0.00019344497	0.00018362388	-0.0004149401	-0.0003490214	-0.00020157821	0.0001773311	-0.00037067215	-0.00042810693	0.0005092465	0.00071806036	-0.0002123741	-0.00065652514	0.00018253694	-0.0009716263	-0.00058160344	-0.0005700704	0.00035522075	0.00061465794	-1.2286691e-06	-0.00014827988	-0.00051202957	-0.00029337092	0.00033441003	0.00045327834	-0.00013573955	0.00022396348	0.00069467275	0.0006029183	-0.00045422342	-0.0009695409	0.00010764142	-0.00041518034	0.00019921828	-0.0005313669	0.0007877439	0.00018394554	-0.00016509857	5.8873477e-05	-0.00013403248	0.00030421445	0.00030942672	0.00087614974	8.475762e-05	3.531263e-05	0.0008893058	-0.0002029542	0.00015865131	-0.0006378512	0.0005278769	0.0008208562	7.913891e-05	2.2058171e-05	0.00091789017	-0.00079537055	-0.000271903	-0.0004934461	0.00032463047	-0.0003170075	5.3032196e-05	-0.0007784827	-0.00039606736	-0.00038577383	0.0001509691	0.00043915727	0.0003342409	0.0008006064	-0.00020387208	2.1244061e-05	-0.00040966208	-0.00073436054	0.00011237159	0.00035298336	-0.00036811753	-0.0005550199	-0.00031921026	-0.00028248245	-0.0006477572	0.00045461857	-0.0004669932	0.00072164874
Weight function_23	0.00037530344	-0.00022670557	-0.0005107863	-0.00042693454	3.685124e-05	0.0004332901	-0.00055361044	8.504006e-05	9.564296e-05	0.00030022112	-0.0002804284	-0.00036191987	0.0003883374	0.00015174583	-9.248928e-05	0.00016454306	0.00053631095	0.00013445721	-0.0001691864	-0.0003324757	6.614913e-05	0.00026296967	0.0008604934	-0.0003047993	-0.0003593965	0.00021612324	-0.0003722952	-0.00024296161	-0.00025756526	-2.910244e-05	-8.904277e-05	-0.0002640724	3.08659e-05	0.00014371744	0.00031600238	0.0005432898	0.00024656183	-0.00025765813	0.00030480244	-0.00038162153	0.00010499004	0.00022724783	0.0002917219	-0.00026611722	-0.0002798428	-0.00035997725	0.00033277125	-0.00024289159	-0.00028677462	6.7619956e-05	7.313406e-05	1.0684074e-05	-0.00050980266	-9.2502974e-05	-1.7492785e-05	-8.8107074e-05	-0.00055442046	0.00031450612	-0.0005624142	0.00024982027	0.00030436716	0.0004550349	-0.0004870972	-6.663165e-05	0.00010275121	0.000601354	0.000126966	0.00018335858	0.00030764655	-0.00021094242	-0.0004171568	-0.00065801083	0.0003356716	-0.0007464232	2.7733986e-05	0.00033996432	0.00032657798	0.00025723167	0.000121593635	-6.038101e-05	-0.00049457495	0.00016910801	0.00021286467	0.00013754287	0.00013028338	0.00014910907	-0.00029025585	-0.0005184653	-0.00017562226	-0.00038140727	-0.0005544844	0.00022942916	3.3437915e-05	-8.53862e-05	-0.0005512087	-7.243871e-05	-0.0003221703	0.00025999025	4.66207e-05	-7.072599e-05	-0.00043300682	-0.0002355696	-0.00012464545	-0.0005418123	0.00030310248	-0.00020079261	0.000524313	-0.00014729242	-0.00018684652	2.5569148e-05	0.0006554254	-0.00041373158	0.00030535038	-0.00018016848	0.00018506833	-0.00012852333	6.0108192e-05	5.4842487e-05	0.00034713463	-9.303047e-06	-0.000110836845	-0.00010403007	3.439413e-05	5.716792e-05	-0.00021967816	0.00030584724	-0.00036907915	0.0006429505	-0.0004892774	-4.6229125e-05	0.00016630939	-0.00038413474	0.00020367655	-0.0003607808	-0.0002692527	0.00026627717	0.0001384577	0.0006516552	0.0002523451	-0.00049194985	0.0005223353	-0.00048589837	-0.00037676626	0.000107821856	0.0006122004	0.00061669416	9.767701e-05	-0.00080175215	-8.640394e-05	0.0001467998	-0.00025295495	-0.0002987818	-3.505542e-05	-0.00041623978	-0.00038112045	0.0002692709	0.00028314002	-0.0002770996	0.00038656258	0.00020374487	5.9110214e-05	0.00016524206	-0.00020062344	0.00022389503	-4.3555243e-05	-2.0384374e-05	-0.00011593875	-0.00025546632	-0.000343365	-9.6452866e-05	2.0133513e-05	2.3054978e-05	-0.00037312787	-1.2409633e-05	-0.00022102158	-0.00047561692	7.8727215e-05	-0.000277709	-0.0009810684	-7.614492e-05	-0.00026827777	0.00034248322	-0.0009066169	-0.00034648672	0.0003591628	-0.0006658959	0.00030928757	-0.0004429189	0.00010628681	-0.00020450936	0.00077335007	3.906079e-05	0.00025697742	-0.00037619608	-0.0005313953	-0.00020050709	0.0006426512	-0.00012787401	-2.9173496e-05	1.183711e-05	6.5223576e-05	-0.00061824877	0.00026345428	-0.00025476015	0.00017951263	-0.00065734144	-0.0001145433	8.4420186e-05	-3.3757467e-05	-0.00023741683	-9.376748e-05	0.0005754359	0.0003756926	-3.918537e-05	0.0005218858	-0.00014557684	0.00035688162	0.00021349694	-0.00021385617	-0.00045418364	-0.000440933	-7.5412696e-05	0.0002364268	1.8621246e-05	0.0002704576	0.00057817274	-0.00019646379	-0.00026405556	0.0005786153	-8.254024e-05	2.988353e-05	-0.00047884797	-0.00027709553	-0.0007233203	-0.00024522617	6.5537664e-05	0.00054103916	0.00036443316	-3.94156e-05	-0.00018120621	-0.0003149012	-0.00013776433	0.0005575974	-0.0001562743	-0.0004867554	-0.0005096788	0.00037458492	0.00055083947	-0.0003515155	-0.00012426886	0.0005610137	0.00013202555	-0.00026499652	0.00013589788	0.000578964	-0.00029732723	-0.0003631751	0.00025254843	-0.0004950211	6.2930296e-05	-0.00027177873	6.690898e-05	-0.00021091285	-0.00021911747	0.00071758806	-0.00023387304	0.00035788186	-0.00058300176	0.0003303233	-2.4377601e-05	-6.052145e-05	0.00015184132	-0.00016685326	0.00013001166	0.0001262623	-0.0008320794	0.00071911153	-0.00021882809	-0.00046689878	-0.0006170176	-0.00059703464	-0.00077393086	0.00054560544	0.00041381238	-0.00027401466	0.00020293496	-0.0005347817	0.0002699389	-0.00025725388	-0.00030972858	-8.0836704e-05	0.00045895195	-0.00012611887	0.000110387526	-0.000503054	7.0897615e-05	1.892056e-05	0.0002423707	-0.000633665	0.00060546823
Weight function_24																																																																																																																																																																																																																																																																																																												
Weight function_25	7.904619e-05	-0.00038015176	-0.0007995884	-0.0006560883	0.0007213329	-0.0001308698	-0.00041008584	0.00037224495	0.0003081009	0.0005784244	0.00028249138	-0.0001822067	0.0005755246	0.0008571407	1.4999479e-05	0.00057473034	0.00061167916	-0.0006228629	0.00048660356	-0.00072083285	0.00024964922	0.0004075666	0.00064458104	-0.0006615116	-0.00045366306	3.848815e-05	-0.00022624878	-3.2720327e-05	-0.0003186515	-0.0005053653	-0.00061488396	0.000541221	-0.00034441723	0.00038098433	0.00027270976	-7.466151e-05	0.00059562374	-0.0005139834	0.0004307719	-0.0004005711	0.00036602683	-0.00045709955	-0.00016741276	0.00015633278	9.16141e-05	-0.0001450942	-6.853391e-05	-0.00026583174	-0.00011194759	-3.401966e-05	0.00013479427	-0.0006093258	0.0003082619	-0.00023858901	-0.0008141568	-0.00020952491	-0.00086780067	0.0011819416	-0.00066472846	-0.00048884255	0.00075978006	0.00010074784	0.00022008517	-0.0002541382	0.00021566803	0.0005906754	0.00048377784	0.0009056272	0.0001519787	-0.0008364542	0.0003593614	-0.0005899576	0.0007710539	-6.6637214e-05	-1.9635703e-05	0.00038344687	0.0010155224	0.0003588302	0.0002939742	0.00036705573	-0.0004994416	0.00043137075	0.0008595926	7.604364e-05	0.0005282609	-0.000300951	0.00032491673	-0.00011321895	-7.4155876e-05	7.8321886e-05	-0.0006388394	0.00066618656	0.00027920306	-0.00057023263	-0.0004893486	0.0005884685	0.00020475246	0.00037493295	0.0001252949	0.000869839	0.00015009489	-2.7617742e-05	-2.4125224e-05	-0.00017827372	0.0002611815	-0.00034043472	0.00050929317	-0.0005753858	0.00032005686	-0.000118219104	-8.96709e-05	-0.0002807408	0.0005597575	0.0001544492	0.00015366366	0.00019831068	0.00063616375	0.00013833336	0.0002995404	2.7084665e-05	0.00071816094	0.0010723507	-0.00013875411	0.00011880357	-0.00074941426	-0.00032979087	-0.0008156509	0.000650925	-0.0003652721	-9.2564835e-05	-0.00054425094	-0.0002879155	-2.7559357e-05	-0.00024569937	-0.00043214468	0.00012076301	0.0005069622	0.0005529128	0.0002970201	0.0002606291	0.00017865718	-0.00020248943	-5.9331483e-05	0.00050829205	-0.00022675711	0.00032062264	-9.072975e-05	0.00024793687	-0.00083469617	-0.00047471226	-0.0007238729	-0.000106517284	-0.00021639964	0.00030446908	-0.0004677878	9.104499e-05	-0.00017960063	-0.0006501799	0.0004915707	0.00014878	0.0005636661	1.5583573e-05	-0.00061119033	-0.0004339461	0.00033807388	0.0005655825	-0.00048051696	-0.00019533253	0.0005741059	0.00038006768	-0.0005069881	-0.00015572312	-0.0006480367	-0.00026856377	-0.00078680104	7.978467e-05	0.00015739533	-0.00035581793	-0.00097375346	-1.2119688e-05	-0.00075578224	0.0002963647	-0.000950044	-0.0007595359	0.0002688844	-0.0005078341	0.00024738372	-0.00027857994	-0.00032478815	-0.00042090396	0.0005759053	0.00028009343	0.00029788213	0.00019748455	-0.0001920994	0.0005086602	0.00022230655	-0.0002866846	-0.00012341549	-0.00046441835	-0.0004965432	-0.0002971587	-5.4809825e-05	-3.1018615e-06	-0.00028231918	-0.0007380133	-0.0003231779	-0.00035414964	-0.00047475766	-0.00014264691	0.00018787963	-0.0004062687	7.958096e-06	-7.350836e-06	8.470671e-05	0.00076760474	1.3815933e-05	0.00025037857	-0.0002714181	-0.00054103305	2.0260539e-05	-0.00034331088	-0.00077195605	-0.00015903288	-0.00018854295	5.913547e-05	-0.00048455613	-0.00018342011	0.000499294	0.00074747077	-0.00018430213	-0.0006136121	0.0002904049	-0.0010392977	-0.00048504752	-0.000567123	0.000695115	0.00066399795	-0.00015174788	0.00037603738	-0.000559371	-2.0675909e-05	0.00043809443	0.00061793625	-0.0002715517	0.00075955386	0.0008291251	0.00022120246	-0.00023282217	-0.00042393943	0.00016774653	-0.00023529446	0.00032011356	-0.00040367641	0.00052248465	-0.00029959437	-5.812783e-05	8.702386e-05	-0.00028055115	0.0004067913	0.0006131147	0.000678665	2.1295637e-05	0.00022846619	0.0010631315	-0.00034359735	0.0002982299	-9.2981776e-05	0.00042517245	0.00049795106	0.00028197406	0.00030887366	0.00069204514	-0.0010118849	-8.180183e-05	-0.0005179519	0.00031314	-0.00033288667	-9.901144e-05	-0.00074305787	-0.0001847252	-0.0007230856	0.00025035176	6.5525135e-05	0.00023655329	0.000649504	-0.0002878748	0.00020121767	-0.0008844929	-0.000905752	0.00028417207	0.00025707058	-0.00016648197	-0.0009259124	-0.00038415514	-0.0005402684	-0.0007602919	0.00025988359	-0.0006724548	0.00065086177
Weight function_26																																																																																																																																																																																																																																																																																																												
