	0	1	2	3	4	5	6	7	8	9	10	11	12	13	14	15	16	17	18	19	20	21	22	23	24	25	26	27	28	29	30	31	32	33	34	35	36	37	38	39	40	41	42	43	44	45	46	47	48	49	50	51	52	53	54	55	56	57	58	59	60	61	62	63	64	65	66	67	68	69	70	71	72	73	74	75	76	77	78	79	80	81	82	83	84	85	86	87	88	89	90	91	92	93	94	95	96	97	98	99	100	101	102	103	104	105	106	107	108	109	110	111	112	113	114	115	116	117	118	119	120	121	122	123	124	125	126	127	128	129	130	131	132	133	134	135	136	137	138	139	140	141	142	143	144	145	146	147	148	149	150	151	152	153	154	155	156	157	158	159	160	161	162	163	164	165	166	167	168	169	170	171	172	173	174	175	176	177	178	179	180	181	182	183	184	185	186	187	188	189	190	191	192	193	194	195	196	197	198	199	200	201	202	203	204	205	206	207	208	209	210	211	212	213	214	215	216	217	218	219	220	221	222	223	224	225	226	227	228	229	230	231	232	233	234	235	236	237	238	239	240	241	242	243	244	245	246	247	248	249	250	251	252	253	254	255	256	257	258	259	260	261	262	263	264	265	266	267	268	269	270	271	272	273	274	275	276	277	278	279	280	281	282	283	284	285	286	287	288	289	290	291	292	293	294	295	296	297	298	299
Wavelet_0	-0.00034527967	-0.00024842555	-0.00013700609	-0.00025082464	0.0005418113	0.00023652276	-0.00014672693	7.7792196e-05	-0.00014570622	8.7043125e-05	-0.00013409658	-6.197777e-05	0.00022679968	-3.6946658e-05	0.0005968953	0.00016762516	0.00023763	-0.00017591898	0.00023203406	0.0002863342	-0.00011398583	6.472562e-05	0.00043367632	3.8391197e-05	0.00014498389	0.00010316455	0.00034495172	-0.00042045838	0.00019583339	-2.8986507e-05	6.950062e-05	0.00020369199	-0.00038119263	-5.9052214e-05	1.9231718e-05	-0.00015580528	0.000117215175	-0.00026751435	-0.00018201453	-0.00013462134	3.5039073e-05	7.1057664e-05	-0.000106316525	-4.9484825e-05	8.445736e-05	-3.993398e-05	-0.0008388341	-0.00023733043	-3.3537373e-05	-1.4657638e-05	1.727288e-07	-2.6444226e-05	-0.0003054262	-0.00036175037	-7.658563e-05	4.2726704e-05	-5.3374893e-05	6.749212e-05	-0.00031481826	-0.00015400008	0.00018061418	0.00010561728	-0.00010002178	-7.3376024e-05	-0.00022273086	-0.0001389394	0.0002833987	0.00045573455	0.00027718206	-0.00039590025	-2.0534522e-05	-0.0005183255	-0.00022805354	-4.8887683e-05	-0.00011094768	4.6798505e-05	0.00039036034	-0.000107012274	0.00011934992	-2.1170921e-05	0.0001823859	0.00011423104	-6.7404304e-05	0.00032659445	-9.263388e-05	-0.00036077586	-0.0001637144	4.58546e-05	-0.00018499319	-0.00016604719	-0.00030615777	0.00039159876	-9.1111e-06	-1.8500585e-05	0.0001253351	6.637318e-05	-0.0004261397	-0.00010346939	0.00051128236	-1.2681085e-05	0.00016169647	-8.162453e-06	0.0003492576	-0.00047077463	0.00026443772	7.5219286e-06	0.00020223198	-0.00022935786	-0.00020479312	-0.00011250862	0.00031336467	-0.0002709782	-6.096064e-07	0.00047408708	-0.000200323	-0.0001827858	0.00024531301	0.00047789759	0.0002411648	0.00021818707	8.555299e-05	0.00025039312	3.8401733e-05	-0.0001027986	-0.0002162488	4.7933205e-05	-0.00028179976	0.00027756288	1.2094987e-05	0.0002612732	9.064781e-06	-0.00019324844	-0.0003548212	-5.7903246e-05	0.0002636567	0.0003389218	-0.0002182284	0.00025541382	0.00023379864	-0.00017510979	0.00029341082	-0.00012280083	-0.00027387458	-0.0002870283	-0.00035511566	-0.00011059694	-0.00019124734	-9.9605306e-05	-0.00029039397	-1.3307593e-05	0.00013934438	-0.00026707986	-0.00014672923	-5.223115e-05	-0.00022229923	-0.00025980535	6.2085855e-05	-0.00022049849	-0.000184221	1.2564422e-05	-7.7475175e-05	0.00043566187	-0.00024588735	5.5716606e-05	-5.8689275e-05	-0.00019127688	0.000115406605	3.3477016e-05	0.00018750195	-0.00010984527	-0.00014360141	0.00017884038	-0.00015218668	7.370685e-05	0.00027421632	-0.0002669937	0.00037247382	8.371595e-05	-4.852237e-05	1.0591365e-05	-0.00016499498	0.00025352082	-0.00034640764	-0.00044798641	-0.00014634851	-0.00023295601	0.00017904269	0.00021627166	-0.00024068468	6.2977786e-05	0.00028527505	-0.00030186682	0.00018965283	-0.0003797566	-0.00017491901	-2.3409515e-05	0.00036291432	-0.0002082818	-0.00038260466	-0.00014001579	-0.00017780717	-0.00011379461	-0.0001915467	-0.00014541233	3.084147e-05	-0.00014047486	-0.00015870668	3.6948622e-06	-0.00015266174	-0.00013793872	-0.00025807982	0.00033155506	0.00040139174	-0.0003419375	7.94877e-05	-2.5079533e-05	0.00029173528	0.0002853951	-0.0001833572	-0.0005157599	-0.00029933176	8.96872e-05	-0.00028326103	-4.5047007e-05	-3.4136832e-05	-8.029132e-05	0.00013205032	3.4723354e-05	0.0002314246	9.652624e-06	0.00011487418	-0.00026319208	-0.00012668203	-0.00046111926	-0.00029487707	-0.00046355565	0.000102380414	0.00015910565	-8.820573e-05	0.00015108053	-0.00022433016	-0.00020383277	-6.340983e-05	0.00011285382	-0.00035667352	-0.00019505092	0.0002990955	0.00010961149	-0.00055582204	7.0967246e-05	0.00042943758	0.00036942275	0.00014960792	-0.00022928014	-0.00014756636	-0.00017814699	-0.0006323398	6.101635e-05	-0.00040660394	8.932647e-05	-0.0001344953	0.00032590757	-0.00023887568	-0.000264316	0.00074292085	-0.00044762425	0.0003538441	-0.00013876669	-0.000112344154	0.00029124832	0.00022872201	0.00022108691	0.00016430613	-0.000121036785	0.0001517453	-0.000113673246	0.00011983511	-0.00030515305	2.9873632e-05	-0.00032991997	-0.00028865857	-0.00062073494	0.00048518312	-0.000117464195	-5.4828994e-05	0.00013359332	0.00013124778	0.0001088737	-0.00016290548	5.8187685e-05	0.00019954178	0.00013997208	2.8186585e-05	-5.808064e-05	-9.117301e-05	-8.348749e-05	-0.0003310854	2.9716955e-05	0.0002195089	0.0001446694
Wavelet_1	-2.722198e-05	-0.00010219722	-0.00020950375	-0.0003993245	0.0005355166	0.00022225184	-7.8206984e-05	2.6870148e-05	0.00038528914	0.00012747709	-0.00012173297	-0.00031258757	0.00020346083	2.3549434e-05	0.00026067937	-1.0479416e-07	0.0003574337	8.548214e-05	-1.4087269e-05	9.441178e-06	-3.2917258e-06	0.0001308429	0.00059924176	-3.7833277e-05	-0.00022904297	0.0002216456	-0.00019479616	-0.00026168057	5.814498e-05	-0.00032758887	-1.5063891e-05	0.00021873454	-0.00016840632	9.290694e-05	9.792881e-05	4.2473657e-05	-7.283354e-05	-0.00035793943	-5.7832276e-05	-0.00030252113	7.715577e-05	0.00016391065	-0.00035353733	9.915575e-05	3.7928512e-05	2.941179e-05	-4.5197616e-05	-7.2662515e-05	-0.00017227048	0.00026890452	0.00019804381	-0.00029363463	-0.00058836635	-0.00016081259	-0.0002978723	-1.14285e-05	-0.00028009884	0.0004114825	-0.00047837818	-6.729266e-05	4.4749002e-05	0.00039926436	0.00016908858	-7.670723e-05	0.00021043218	0.00031652843	-5.411415e-06	0.00046045135	0.0003666379	-0.0005952921	-8.916192e-05	-0.0005019837	0.00023871164	2.210773e-05	7.765847e-05	-0.00017981877	0.0005509962	-0.00021458404	-0.00020967181	1.6268465e-05	8.609967e-05	-0.00014828947	0.00044786872	0.00042739193	-9.7470975e-06	2.73285e-05	4.8210364e-05	-0.0004299189	0.00010314615	-0.00013106097	-0.00027024685	0.00054641906	-0.00015246909	0.00018545536	0.00011414089	0.00039855624	-6.6979905e-05	-3.4466393e-05	0.0004413254	0.00032762354	0.00018225897	0.00011018698	0.00037041013	-0.00015881556	0.00033237878	4.5417342e-05	-8.469956e-06	-0.00022315042	-0.00017911555	-0.00044208238	-5.915548e-05	-2.761809e-05	7.2489915e-05	0.00043674506	-0.00021477956	6.1794366e-05	0.00057118654	-9.2111295e-05	0.00034180869	7.594322e-05	0.0001983633	0.0004995042	-1.5550399e-05	-0.00012283259	-0.0006101839	2.092775e-06	-0.0006115974	0.00029719382	-0.00034460056	-0.0002593962	-2.66457e-06	0.0001612157	-0.0002189993	-5.0087245e-05	6.7066816e-05	0.00041321196	1.6164333e-05	0.0004941428	0.00015356038	5.6279365e-05	0.00034833312	-5.6445106e-06	-0.00028794698	0.00012275722	-0.000106017695	-5.6001103e-05	0.00011087742	-0.00014783732	-0.00038864222	-0.0005099798	-0.00018337644	0.0001170651	0.00011267583	-6.3038715e-05	-0.0004602949	-0.00014753034	0.00030477822	-0.00021432001	-6.5008257e-06	-0.00011056753	0.00022409226	0.00033075135	1.6438806e-05	9.122253e-06	-4.5426874e-05	0.00012522945	-0.00013853805	5.916227e-05	-0.00033145	0.00022471351	8.2080174e-07	2.6173644e-05	-0.00035108253	-0.00013107019	0.000109563436	-0.0003539991	0.00042919922	-6.1372935e-05	-0.00037254818	7.8758574e-05	-0.0002869619	0.00048603865	-0.00034813033	-0.00070679927	0.000371481	-0.00027418698	1.7116787e-05	6.887463e-05	-0.00018413311	-0.00017054552	0.0001215545	-0.00016076713	0.00013976223	-0.00021759902	6.7779554e-05	0.00022835804	-1.904583e-05	-0.0002700539	-0.0003402555	-7.130555e-05	-2.4503917e-05	-0.0004390228	7.905524e-05	2.1099891e-05	-0.00010841214	-0.00043089964	-0.0003688111	-0.00041011354	-0.0003710151	-0.0001579255	-0.00022019734	0.00010276089	0.00031490446	-0.00018602169	0.00035957227	0.00037424307	-4.8701415e-05	0.0004270328	0.000118252356	-0.0003052962	-0.00023558036	8.214333e-05	-0.0004668886	-2.9038232e-05	-0.00035875957	-0.00016367958	-4.9952605e-06	-3.1348907e-05	0.00025843258	0.00024396386	0.00021366117	-0.00067732047	-0.00018255271	-0.00037004732	-0.00023564752	-0.0003204291	0.0002067788	0.00054310827	2.9825513e-05	-2.5553232e-05	-0.0003063917	-0.0002856652	0.0001608488	0.00013666869	-0.0004095676	-0.00018681193	0.0006082508	-6.688487e-05	-0.0004305807	-0.00021472506	0.00020573496	0.00010852998	0.00021877566	-0.00037786757	0.00021469776	-7.986147e-05	-0.0003786922	-0.00013844013	-0.00047302624	0.00042785748	-5.7758654e-05	0.0004880396	-0.00012104332	-0.00013085017	0.00032889083	-0.0004090667	0.000308273	4.26399e-05	0.000113809045	0.0002511612	-4.709529e-05	0.00023610647	0.00028358802	-0.00017770039	0.00023164178	-0.0005035347	0.00018700644	-0.00041859972	0.00016666256	-0.00049377966	-9.188833e-05	-0.00018550894	0.00025150704	0.00019521422	0.00025703377	0.00054294453	-0.000581938	1.9897474e-05	-0.00028791284	-8.017897e-05	0.00019368457	7.9832076e-05	-0.00011363464	-0.00041402783	-0.00017876693	-0.00038140733	-0.00030662044	-5.3012616e-05	4.0783318e-05	0.00011078492
Wavelet_2	3.6399313e-05	-0.00029658107	-0.00017235198	-4.1769113e-06	0.0001620159	0.00012558831	0.00018011313	4.212182e-05	0.0001187492	4.7950383e-05	-1.3959084e-05	-0.00031246658	-0.0001645966	-0.0003045839	0.0003224954	4.5081288e-07	-8.591769e-06	0.00021160705	2.596172e-06	0.00017475903	-0.00042215435	0.0002751662	0.0005834057	-0.0001927286	-0.00016298133	-0.00011813561	-7.870781e-05	-0.00018585463	0.00018683635	-0.000121811325	0.00023019871	-0.00021181277	-5.3549014e-05	-8.026669e-05	0.00017203337	0.0001056266	-6.438822e-05	-0.0002461039	-9.003677e-06	-0.00012784397	0.000338637	0.0003226583	-0.00012720686	0.000101274614	2.12633e-06	-8.6789296e-05	-0.00012686325	0.00011607605	-5.606245e-05	0.00039373938	0.00037532867	8.876582e-05	-0.00048663528	-0.000120880366	0.00025100197	0.00028407286	-7.443218e-05	0.00023608799	-0.00035631255	0.00014687306	7.601335e-05	0.00031170095	7.7188364e-05	-0.00026734467	0.00017387173	0.00012454831	-0.00012287153	3.8073176e-05	0.000113088056	-0.0003338785	4.096749e-06	-0.0002660213	-0.00017940722	-0.00016922997	0.00011649751	-0.0004551199	0.00024681113	-0.00012240837	-0.0002386199	-2.7138663e-05	0.00036646627	0.00010667392	0.00014282332	0.00017422505	-0.00018280919	-6.057895e-05	-0.0003496463	-0.00018075014	6.739444e-05	-0.00025989287	-0.0001897482	0.00018491432	-0.00013535784	0.00011957472	0.00021741388	0.00016494296	-0.00022595459	0.00037884133	0.00051484053	0.00018997479	6.152423e-05	-0.0002657184	6.88625e-05	-0.0002669267	0.00017144978	4.0873714e-05	-0.00013512147	0.00021248778	0.00014147465	-0.00032547326	-1.3380492e-05	-3.373624e-05	-8.7793815e-05	0.00024145878	-0.00012866427	3.8647948e-05	0.0005606562	2.948534e-05	0.00017795441	0.00018615238	0.00017102373	0.00026430507	-9.556177e-05	-8.723928e-05	-0.00033529373	0.00018607636	-0.00058765424	0.00023383295	-0.00019762585	-6.7720603e-06	-5.938189e-05	0.00015395098	-0.00019559545	-0.00017491043	0.00014749788	0.000276697	-0.00020568821	0.0003380094	0.00018193662	-0.00044092909	0.00019444144	0.00014382905	-0.0002698855	2.2387915e-06	0.00026382602	0.00017772117	0.000111769106	-0.00032231075	-0.0003341918	-0.000114981354	8.273171e-05	7.055804e-06	4.5158464e-05	-0.00021431455	-0.00011787016	-8.0900145e-06	0.00012889242	0.00020931964	-0.00019011475	0.0001111913	0.0003486166	0.0004318167	0.00018267069	-0.00010771414	-3.955338e-05	0.00010488515	-2.379788e-05	0.00016442276	-0.00030891132	0.00023724664	9.2393035e-05	-0.00036028147	-1.300624e-05	-3.2905977e-05	3.967023e-05	-0.00032246122	0.00020881416	0.00017560639	-0.00030922276	-5.0971234e-05	-3.6803824e-05	0.0004906016	-0.0001485703	-0.0005550885	0.00042020463	-0.00028752448	0.00028732707	0.000110623136	0.00010825995	6.0739836e-05	0.00018032812	-0.00017210274	5.849277e-05	-0.00023481654	6.122914e-06	0.00017789063	0.00011933775	-0.00014026198	-0.00032955877	0.0001978042	0.00024387146	-0.00042298346	0.00021220904	0.00017681097	-0.0003669855	-0.00038528355	-0.00042410445	-0.0003869886	6.5393606e-06	-1.3825773e-05	-0.00044993317	0.00025432665	0.00037531494	-0.00012027153	0.00025016654	1.1366983e-05	8.505492e-05	2.3668148e-05	0.00013571883	-0.00039258026	-0.00016234748	0.00024084667	-0.00018955742	0.00021972372	-0.0005240766	-7.0090755e-05	4.993213e-05	-0.00011381454	1.6729344e-05	0.00017091635	-6.7976245e-05	-0.0004221417	-0.00015104267	-0.00032257687	-0.00019643725	-0.00015477529	0.0003375366	0.00028493739	-1.0449132e-05	-0.00018347718	-0.00043377228	-9.5449774e-05	6.648971e-05	5.024838e-05	-0.00042067835	-0.00043755563	0.00037586596	2.667515e-05	-0.0003711044	-0.00015343909	4.992747e-05	0.00035305513	-0.00011902918	-0.00031170188	-5.0604398e-05	-0.00024206334	-0.0005268489	-0.00014351403	-0.0004107356	0.0002469338	-5.667185e-06	0.00028025688	-5.652432e-05	-0.00029824424	0.00013308713	-0.00015846545	0.00016111006	0.00032222838	-3.3809752e-05	8.469935e-05	9.275313e-05	-8.844294e-05	0.00028456395	0.00027316847	-4.639271e-06	-0.0003419484	5.452971e-05	-7.4458876e-05	6.360603e-05	-0.00037945356	-0.00037550766	7.7013035e-05	0.0002638735	0.00023912675	-0.000138391	0.00035886464	-0.00030768654	0.0001176696	-4.916638e-05	0.00021489615	3.4191755e-05	0.00020269296	-0.00019854198	-0.00017179942	-0.0001954008	-0.00017914745	-0.00026961457	-7.489494e-05	0.00014694176	-5.912859e-05
Wavelet_3	0.00021860973	-0.00023081918	-0.00016011053	-0.00025336383	0.00024633913	0.00022839081	-3.5206056e-05	3.2242257e-05	7.320028e-05	0.00016382994	3.4788467e-05	-0.0002179198	-0.00010025513	-0.0001305772	0.00017740337	0.00015194726	0.00019943845	0.00022151251	9.6043186e-05	0.0001111059	-0.0003356885	0.00034776764	0.0004638575	9.386009e-06	-0.00016615617	-7.870901e-05	-0.0002448602	-9.2054564e-05	-4.6461817e-05	-0.00013867504	0.00021330093	-0.0002080568	-8.5015645e-06	7.2377865e-05	0.00021283598	1.6882903e-05	-3.3766555e-05	-0.0001615344	-0.00010866908	-0.00034763006	0.00025500124	0.0002109658	-0.00010121671	-5.281225e-05	-0.00020145733	-9.981442e-05	-0.00016003656	0.00011944625	-0.00010984957	0.00018996783	0.0002402915	9.229219e-05	-0.00035613042	0.0001376465	5.9920352e-05	0.00018558795	-0.0003667795	0.00018686638	-0.00038311456	-1.8372582e-05	7.2952644e-05	0.00021460696	-1.5233012e-05	-6.722014e-05	0.00018014085	0.00025528757	0.00016590297	1.3339533e-05	0.0001381068	-0.0005039786	0.00013215591	-0.00048447936	0.000139671	-0.00010932956	0.00016142544	-0.00023968917	0.00027409114	-0.00016038504	-0.00028527068	-0.00015854872	0.0002209249	-9.192794e-05	0.00035211354	0.00018634772	-2.3151724e-06	-0.000166971	-8.7337736e-05	-0.00037817098	0.00018108253	-9.764116e-05	-2.2674743e-05	0.00027717836	-0.00018036143	0.00033827097	8.851881e-06	0.0001486761	-0.0002088324	0.000294385	0.0005344637	0.00015571466	0.000117031916	-0.00018274164	0.00014584126	-0.0002444942	2.1233553e-05	-0.00020882126	-1.233103e-05	-3.814269e-05	0.00015571844	-0.0003637703	-5.170654e-05	-4.6037196e-05	9.776935e-05	0.00021428085	-0.00016148949	-8.379398e-06	0.0005623209	-0.00010025449	0.00025233475	0.00013582132	0.00023865815	0.0003575735	-0.00021666095	-8.6169995e-05	-0.0004562012	0.0002264018	-0.0006501104	0.00026022343	-0.0003513743	-4.3990945e-05	2.468817e-05	7.558345e-05	-2.5927093e-05	-0.00014387738	1.0043639e-05	0.0004005454	-5.4861306e-05	0.0003960858	0.00025554927	-0.00030169985	1.3113872e-05	9.187898e-05	-0.00020949206	0.00011501742	0.00032795806	0.00014598337	0.0001268851	-0.00033568923	-0.00035738404	-0.00019179624	-0.0002623843	0.00013871172	-4.1573883e-05	-0.00020393588	-0.00027384612	-0.00013622962	-2.3205891e-06	5.7902478e-05	5.960319e-05	0.00013907357	0.00027751052	0.0002604516	4.435315e-05	-5.8907353e-05	-5.69673e-06	0.0001738745	-4.981306e-05	8.019201e-05	-0.00048453605	0.00033902444	2.05159e-05	-0.00039969626	-0.00025899822	3.6231213e-05	-0.00011223004	-0.00030425	0.00023761093	9.408301e-05	-0.0005038056	-0.00024797214	-8.674167e-05	0.00044035332	-0.00016787689	-0.00045177146	0.00048567198	-0.00017053359	0.000135434	1.458288e-05	2.0672962e-05	-0.00016593967	0.00020917263	-5.0808536e-05	-2.6418116e-05	-0.00016238664	2.1626121e-05	8.154368e-05	0.00019997726	-0.00025140753	-0.00015023553	9.585408e-05	0.00013412641	-0.00041490307	9.146068e-05	0.00010258183	-0.00042843178	-0.00056230323	-0.00028038325	-0.00048389944	1.1448204e-06	6.121955e-05	-0.0003798332	0.00023388014	0.00023576472	-0.00018034517	0.00017085111	8.4162704e-05	3.839928e-05	0.00017768845	4.302666e-05	-0.00035042161	-0.0003793337	0.00012458678	-0.00037135577	2.9866289e-05	-0.00054828776	-0.00018383806	-8.001997e-05	-0.00020932898	0.00016608146	0.00023688213	6.270658e-05	-0.00044374572	-1.0470131e-05	-0.00029568622	-0.00020726715	-0.00022558984	0.00035079435	0.00026890228	1.4493221e-05	-6.133453e-05	-0.0004005666	-0.00015620705	0.000137452	0.00012010514	-0.00040709338	-0.00034819203	0.0003258902	-0.0001268799	-0.000316836	-0.00016059121	-1.2518563e-05	0.0002943481	-4.3160344e-05	-0.0004282657	5.248539e-05	-0.00011066112	-0.00046658702	-0.00026723056	-0.00058728794	0.0003005887	-4.241652e-06	0.0002611561	-0.00011873381	-0.00018379347	2.7459715e-05	-0.00017458969	0.00011616651	0.0001331731	3.4393037e-05	0.00024618424	0.00022362664	3.3575296e-05	0.00028587598	0.00018971003	2.1691805e-05	-0.000311565	0.000111434725	-0.00010263918	-7.135342e-05	-0.0004973062	-0.00037846022	-8.14858e-05	0.00040742836	0.00016985486	7.9909274e-05	0.0004311628	-0.00045605688	-0.00013589564	-0.00024896683	8.017367e-05	-8.1679194e-05	0.00013335454	-6.438314e-05	-0.00025630122	-0.00026845842	-0.0003300071	-0.0003805043	-0.00012288147	-1.3278488e-06	0.00012078412
Wavelet_4	9.3372735e-05	-0.00020122623	-0.00034767255	-0.00048169785	0.00068284257	-1.851613e-05	-0.0002764955	0.0001273925	0.00045362423	0.0003218378	3.932551e-05	-9.236644e-05	0.00033076463	0.000306459	0.00034249685	0.0003128391	0.00043189892	-0.00027086184	-1.0756733e-05	-0.0003830195	0.00019132692	0.00018170435	0.0006253568	-0.00027013788	-0.00024535434	0.00013674871	-0.00017476881	-4.825822e-05	-0.00021098975	-0.0003135574	-0.0002955202	0.00052515994	-8.4983636e-05	0.00035674966	0.00016749493	8.30659e-05	0.00026224682	-0.0004189836	0.0001769658	-0.00055783364	0.0001941535	-0.00014778048	-0.0001977892	9.1709495e-05	0.00020557316	-0.0001117243	-8.856411e-05	-8.713783e-05	-8.842163e-05	0.00017299078	4.8061644e-05	-0.0005738469	-0.00037968875	-0.00026092175	-0.00065176695	-0.00016950407	-0.0005619068	0.00061015657	-0.00045728998	-0.00023478825	0.00037407284	0.00031675264	0.00021835548	-0.00014886224	0.00015707166	0.0003602987	9.722189e-05	0.0007834909	0.00031956096	-0.00070063	-0.00010501069	-0.00061325287	0.0005855088	-0.00013505036	-5.5316432e-05	0.0003446707	0.00062856736	5.479928e-05	2.5638818e-05	0.00011045795	-0.00012516085	0.00011417157	0.0006195552	0.0003280113	0.00015692817	-0.00014445154	0.00014841216	-0.00018570991	-3.1072548e-05	-0.00011890014	-0.0005440924	0.00062553317	-7.713546e-05	5.0694547e-05	-7.875365e-05	0.00034764752	2.213143e-05	3.825274e-05	0.00028724686	0.00061879953	0.00019396952	-3.8437112e-05	7.383975e-05	-0.00026520016	0.00037553016	-0.000235924	0.00024605214	-0.00049022166	-0.00012059264	-0.00017247487	5.5052726e-05	-0.00024571875	0.00037772843	0.00034824136	8.0878504e-05	0.00025276616	0.00061876595	-2.8154933e-05	0.00020042427	-5.427008e-06	0.0002760394	0.0005334607	-0.00016180132	0.00010535757	-0.00045037543	7.221831e-05	-0.00048519255	0.00041261685	-0.000336689	-0.00037930266	-0.0002893297	-0.0002235431	-0.00023606044	-0.00013455767	-6.5967964e-05	0.00053783593	0.00013214283	0.00060681405	0.00017683922	0.000132188	0.00037253692	-0.00012501159	-0.00028336552	0.000112131886	-0.0002679903	-8.227916e-05	-5.319218e-05	-0.00018483856	-0.00044593308	-0.00042898703	-0.00048495454	7.991979e-05	-6.756629e-06	0.00015906754	-0.00048706075	8.759594e-05	0.00022627892	-0.0005167018	8.209198e-05	-0.00010891418	0.00035434464	4.997644e-05	-0.0002705951	-7.127793e-05	9.338675e-05	0.00028113325	-0.00030910218	-0.00011786322	-4.3635464e-05	0.00018267463	-0.00031234437	6.9395646e-05	-0.0004908274	-0.0002613143	-0.0002084588	-0.00036072245	0.00029949815	-0.00020074334	-0.00041992555	0.00013589424	-0.00050173094	0.00038358782	-0.0006408731	-0.0008121366	0.0003831609	-0.0003771159	5.688625e-05	-3.7100646e-05	-0.0003032366	-0.00029665828	0.00023088712	0.00013014907	0.0001499506	-0.00014121254	-0.00015846694	0.00036723493	9.725936e-05	-0.00029567938	-0.00036010033	-0.00028187514	-0.0002584241	-0.00045918865	-0.0001563336	-3.479576e-05	-5.8463156e-05	-0.00042123414	-0.00055321556	-0.00043889525	-0.0003822674	-0.000119249555	-0.0001360404	1.7498449e-05	0.000287781	-0.00010267028	0.00020578293	0.00060889765	0.0001957118	0.0003451252	-0.0003100143	-0.00036955517	-0.00017560684	-0.00015852194	-0.00054415414	-0.00014123319	-0.00029338634	5.009481e-05	-0.00016200969	-0.0001019386	0.0003301301	0.00027546057	-0.00021059788	-0.00073749636	-2.919536e-05	-0.00057013234	-0.0001254492	-0.0005071175	0.0004207666	0.0004958791	-0.00018632546	0.00010875428	-0.000254493	-0.00024883432	0.00037023236	0.00017877106	-0.0004847995	0.00021954307	0.00083367317	0.00019303427	-0.00028645335	-0.00027091586	0.00034895202	7.3389645e-05	0.00026983986	-0.00048341847	0.0005314596	-0.00012637758	-0.00019247575	3.3870812e-05	-0.0005725073	0.000355774	0.00012025985	0.00057169644	1.4386048e-05	1.1014288e-05	0.0007708141	-0.00039074058	0.00039086177	-0.00012567877	0.00036582726	0.00031119637	-3.4441175e-05	0.00024665956	0.00045712775	-0.0004937546	0.00028838214	-0.00043550914	0.00028345422	-0.0005937367	-4.3953187e-06	-0.0005702269	-0.00028416977	-0.00050137856	8.561559e-05	0.0001161507	0.0001683869	0.00065733376	-0.0004416534	0.00012207442	-0.0004710474	-0.00039247112	0.00024462628	0.00014627796	-0.00019324229	-0.00067568436	-0.00025464103	-0.00034805032	-0.00041111017	0.00018418474	-0.00034310747	0.00033746377
Wavelet_5	0.00064487127	-0.0004710354	-0.00037685529	-0.00036079867	3.9833696e-05	2.0749045e-05	-9.791798e-05	0.0001406052	0.00018871017	0.00046023587	0.00017820807	-0.00025374364	0.0001672958	0.00020315382	0.00016614323	0.00035916598	8.102113e-05	6.264168e-05	-4.603278e-06	-1.2374508e-05	-0.0001577851	0.0001466221	0.00046879656	-0.0003191208	0.000120410245	-3.5120138e-05	-0.00014671411	0.000103958344	-0.00023677836	-0.00015836643	-8.35311e-05	-4.6284867e-06	-9.654375e-05	0.0002010552	5.191285e-05	0.00011798611	4.4010212e-05	-0.0003566766	0.00026403842	-0.00029870323	9.280483e-05	9.3902476e-05	-1.3267854e-05	-0.00025467612	-0.0003575068	-7.688833e-05	-0.00032168147	1.5932508e-05	-0.00027265958	0.00015676295	9.400448e-05	-0.00023110362	-4.2186348e-05	-0.00010093142	-0.00020808094	-6.754871e-05	-0.00067441567	0.00031855982	-0.00031387058	-0.0003557419	5.4470478e-05	0.00011421777	0.00012268782	0.00024457937	0.0002492452	8.821781e-05	0.00023384675	0.0003981737	0.00025394524	-0.0007120944	0.00016746536	-0.0006345396	0.00028363714	-0.00012774923	-6.96285e-05	0.00027345997	0.0002547621	0.00043494382	0.00031040344	-0.0003032474	3.9561266e-05	0.00015469248	0.00042574946	9.920669e-05	0.00011983595	-0.0003778085	-0.00038736808	-1.9199768e-05	-0.00024289361	-1.6469687e-05	-0.00013644628	0.00039109544	3.005508e-05	0.00040614043	-0.00011149791	0.00018583267	-0.00016188451	0.00034692595	0.0003938628	0.00034488345	0.00018123456	-0.00023339625	-0.00011447037	-7.1706454e-05	2.1862086e-05	-0.00058055064	0.00022953739	-0.00018230751	7.764557e-05	-2.27446e-05	-9.992135e-05	-0.00016487685	0.00050221436	0.00033114073	-4.539736e-05	-2.3294482e-05	0.0005155633	4.8097252e-05	-5.2071675e-05	0.00033774468	-0.00014286896	0.00027880791	-0.00046467647	-0.00037181823	-0.00029019115	0.0004144706	-0.00023658172	0.0003394726	-0.00020165212	2.949939e-05	-9.088931e-05	1.8904795e-05	-0.0003847334	-3.1903917e-05	-0.00011118975	0.0005073592	-0.00014517481	0.00040566537	8.229589e-05	-0.00018311621	0.0002331925	-0.00025239034	-0.00034444843	-0.00011672868	-5.362086e-05	0.00011878334	0.00011663778	-0.00056081975	-0.00038888978	-0.00014470104	-0.0006097615	4.1608793e-05	-0.00038683458	8.019087e-05	-0.00036864588	0.00013629394	0.00010538666	-0.00050657475	-3.915468e-05	4.288205e-05	0.00017317937	6.7543e-05	-9.1668284e-05	-3.783753e-05	-2.5270809e-05	0.0005213991	-0.00045508557	-0.00036917315	-0.0004198809	0.00019549341	-0.0003121921	-3.0337858e-06	-0.00011205506	9.7421966e-05	-0.00021538348	-0.00026957117	0.00016870642	-3.440122e-05	-0.00049927103	8.578004e-05	-0.00019240912	0.0002818009	-0.0003488579	-0.00023093852	0.00042532352	-0.00010458989	0.00041075802	-9.742057e-05	-0.00018789609	-0.00032352543	0.00035708025	0.0001816131	-9.611776e-05	-0.00034404104	-0.0003389112	5.7191108e-05	0.00039192312	0.00013228653	-0.000109818524	-9.608769e-05	-1.7542516e-05	-0.0003798002	-0.00012251292	-0.00022039309	-4.6425043e-06	-0.00043662702	-0.00030199782	-0.00020919532	3.850351e-05	-9.4145566e-05	-0.00033846148	-2.1189344e-05	0.00050493167	-0.00018874262	0.00027407153	0.0002457888	0.00046685775	0.00028552825	-0.00029860638	-0.0003170571	-0.00047599664	-1.1117342e-05	-0.0006096081	-3.6745366e-06	-0.00031391915	8.45949e-05	-0.00012992352	-3.9288512e-05	0.00028572237	2.8920692e-06	-0.00033564164	-0.0003636722	0.0001462679	-0.00039316574	3.4833633e-05	-7.97211e-05	0.0004632509	0.00014198	-0.00011068313	0.00037037343	-0.00030577334	-0.0001471804	0.00015827881	0.00020353332	-0.0002510862	0.00011579225	0.0004937426	-3.2882923e-05	-0.00025396314	0.00018073179	0.0002711404	0.0003097877	-0.00011108173	-0.0002333174	2.9379655e-05	-7.632721e-05	-0.00013185925	-0.00013675772	-0.0004501263	0.00023971604	0.00020370817	0.00018677986	0.00010602864	8.980527e-05	0.00016062777	-0.00037400232	0.000127146	4.5261313e-05	2.052384e-06	3.3166412e-05	0.00016968593	-9.262978e-05	0.0002601233	-0.00014534028	-9.472624e-05	-0.00027328255	1.3580742e-05	-0.0003038937	-0.0002387957	-0.000479146	-0.00040939503	-0.0005375018	0.00040972096	0.00014255343	-6.167333e-05	0.0004821723	-0.00045267146	-0.0001484666	-0.0003733433	-0.00029139913	0.00014630974	0.0001075707	3.1717635e-05	-0.00031183258	-0.0005438159	-0.00037961875	-0.00033140992	-1.8865489e-05	-0.00021852345	0.00034017986
Wavelet_6	0.0006604898	-0.0005199874	-0.00076550635	-0.0005629203	6.0040496e-05	-0.00043392036	0.0004570991	6.91074e-05	0.0002458245	0.00034054313	8.258751e-05	-0.00024994143	-2.7264052e-06	0.00038947465	-2.2774058e-05	-6.839352e-05	0.00022642876	0.0002756393	-0.00036497653	-9.151552e-05	-0.00021330359	-7.120117e-05	0.0006901254	-0.00014158075	0.00033037635	0.00030769603	-0.00018915674	6.390379e-05	-0.00046762996	-0.0004078322	-0.00015449512	0.00042693358	0.0002838464	0.00035015793	-0.00021444878	4.6102487e-05	9.717821e-05	-0.00055958715	0.00011511566	-0.0006443816	7.521411e-05	0.00010047667	2.242056e-05	-0.00038583294	-0.00024927323	0.00018090828	-0.0002552273	0.00037095565	-0.00022562123	0.00010249919	0.00014084719	-0.00017460794	3.618291e-05	-9.441612e-05	-0.00060540496	-0.00030581953	-0.0009369397	0.00049423863	-9.873343e-05	3.52623e-05	-0.00032239215	-7.5679773e-06	0.00044779674	0.00024411254	0.00038507005	4.699613e-05	0.000103055085	0.00049021275	-0.0001082127	-0.0009402461	0.00034736955	-0.0008115551	0.00063027296	-7.769167e-05	0.0003630323	9.76401e-05	0.00046736523	0.00045277402	0.00037239146	-8.695913e-06	0.00022742784	-0.0003405336	0.0005990905	-0.000108448505	0.0002327396	-0.00025879723	-8.5363994e-05	-0.000127966	-0.00030645877	0.00032168222	-0.00042866435	0.00036882953	-0.00025615128	0.00050801353	-9.802849e-05	0.00011876167	0.00013333997	0.00017729362	0.00043040077	0.0007192321	0.00057821575	-0.00021487995	-0.00016920715	0.00034575426	8.437513e-05	-0.0005265632	0.0001490065	9.244245e-05	0.0005133998	-2.7143642e-05	-0.00029103854	0.00022241895	0.00081292784	0.00015683113	-0.00017903725	-0.000104604536	0.00040524118	-7.81241e-05	-0.00016058356	0.00026485333	-0.0002464806	0.00018347354	-0.0007576076	-0.00021690676	-0.000114781134	0.00025110893	0.00012963747	0.00044384718	-0.00034351973	-0.0002737531	-0.00060011557	-2.0629293e-06	-0.0005964652	0.00017751504	0.00016434107	0.00039033318	4.951032e-05	0.0004414252	0.00013558808	-0.00032274582	-0.0001451405	-7.315305e-05	-0.0004501299	-0.00017784256	0.00023540959	-8.397326e-05	0.0002799066	-0.00037313296	-7.166957e-05	-0.0003921757	-0.0011310326	0.00052721374	-0.00038779288	5.3146523e-05	-0.00023875944	0.00041832594	6.726644e-05	-0.00032430346	-0.00018201393	0.000116322546	-0.0002482109	6.421777e-05	-6.491754e-05	-7.611501e-05	0.00047112355	0.0007851825	-0.0007358343	-0.00058401097	-0.00058312283	0.0005712533	0.0001427149	-0.00014251196	-0.00011023493	0.00012296397	-0.0005654258	0.0002635765	0.00034337817	6.3977706e-05	-0.00046679258	4.1761195e-05	-3.465892e-05	0.00066617614	-0.00046956964	-0.0005297418	0.00046133276	0.00036399972	5.8136422e-05	-0.000412011	-0.00010670709	-0.0005869861	0.00015987603	0.0003998484	-0.0001704933	-0.00019811005	-0.00011765659	2.5402327e-05	0.000114406874	0.0001454958	-0.000115146606	0.00020263462	-9.13852e-05	-9.342784e-05	-0.00026810978	-6.2021296e-05	-0.00029071976	-0.00047343512	-0.0001272405	-0.00025159513	-4.702551e-05	-0.00021056701	-0.0002110678	-0.00017776388	0.00070323655	2.2502616e-05	0.0003013886	0.0003630033	0.000395248	0.00022264961	-0.00038635958	-0.00032254015	-0.00043229945	-0.0005384525	-0.0005874455	0.00012670922	-0.0006326536	9.353847e-05	-0.00018225644	-8.976787e-06	0.00020971535	-0.00029208907	-0.00013461415	-0.00032684227	0.00019248661	-0.0002602788	8.9472116e-05	0.00016395436	0.00063563604	9.180097e-07	-0.00027314317	0.0005157529	-0.00047916532	-0.00016957954	0.00023620961	0.00050462066	9.157952e-06	0.00044465388	0.00045444848	-0.00036582537	-0.00020526459	0.00040503914	-3.772417e-05	0.00032098612	-0.00015867765	-0.00030472962	0.00039570307	4.7668702e-05	-0.00030412406	-0.00024391185	-0.00029510912	0.0004047323	0.00022966381	-6.679211e-05	0.0002908976	-3.2590884e-05	-0.00025929086	-0.000220951	-0.0002430846	0.00053300353	0.0003122433	-6.118426e-05	0.00010792883	0.00017769201	0.0004407709	-0.00024876668	8.8480694e-05	0.00017116174	0.00022475631	-0.00032423576	0.00010660088	-5.7904024e-05	-0.000113392794	-0.0002767598	0.00020246608	-0.00023285621	-0.0002887645	0.00049652986	-0.0005266297	-4.2836124e-05	-0.00031131087	-0.00036699238	9.5491116e-05	-8.886807e-05	0.00017791211	-0.0005171382	-0.0005673229	-0.00045502177	-0.000102239996	0.00014797422	-0.00013024242	0.00013997126
Wavelet_7	0.0001753664	-0.00046276834	-0.000114452654	-0.00020427018	0.00021259849	-5.1372725e-05	0.00011584906	7.485595e-05	2.2556054e-05	9.872879e-05	8.371102e-05	-0.0003159581	0.00020322499	0.000102743135	0.0003226525	9.411238e-05	0.0003193409	7.3485295e-05	-1.0945025e-05	-0.000142931	0.00017224155	0.00016197852	0.0005805647	-0.0002719777	-9.187609e-05	0.00014871497	0.00016798101	-0.00016259732	-0.0002999401	-6.0314374e-05	-2.676034e-05	0.00022709135	7.594948e-05	5.7241363e-05	0.00017497312	1.2717318e-05	4.80204e-05	-0.00020264265	-8.961304e-05	-0.00013009293	-2.9755565e-05	2.5870038e-05	0.00012424983	-0.00021023575	1.1899861e-05	-5.8514514e-05	-0.00034919713	8.441315e-05	2.6121766e-05	0.0002610212	-3.721211e-05	-0.0005187067	-0.00034999015	-0.00039064192	-0.00022210818	-0.0001615225	-0.0007250252	0.000414042	-6.65934e-05	-0.00023953724	0.0001788937	1.0602633e-05	0.00021297616	-4.2758904e-05	0.00017319065	-2.761682e-05	0.00019422769	0.0004279295	0.00018299081	-0.00062045647	4.4925295e-05	-0.0006040948	0.0002724849	1.0152289e-06	0.00015447623	0.00031127178	0.00044755577	0.00021472893	0.00017087458	0.00013732226	0.00022768612	9.732005e-05	0.0005183798	0.00016487182	0.00013320381	-0.00019425174	-0.0001908647	1.2141378e-05	-0.00023343376	6.428013e-05	-0.00046110785	0.00045441376	0.0002185053	-3.156434e-05	3.9216455e-05	0.000109823006	-3.3020424e-05	0.00012454117	0.0003223406	0.00026876063	0.0001553022	-0.00017063419	4.933217e-05	-0.00012572372	0.0003047413	-0.0001802835	0.0002510024	-4.8187558e-05	-5.6824024e-06	9.2818125e-05	0.0001223213	-4.444704e-05	0.00012268606	0.00037297877	6.868949e-05	0.00012624537	0.00033404972	0.0002890151	1.8784944e-05	-8.384767e-05	0.00013608598	0.0002649148	-0.0002342265	-5.294562e-06	-0.00032481662	-3.556034e-06	-0.00023729292	0.00032938493	-0.0002529033	-9.264962e-05	-0.0002828514	-0.00018309617	-0.00026845827	-0.00016426317	0.00017128573	0.00035558784	3.316182e-05	0.0003647737	8.163232e-05	-0.0001464116	0.00024857162	-0.00011614929	-0.00030443812	-0.00011439819	-0.0001727037	-6.935721e-05	7.6537995e-05	-0.00032011524	-0.00031285494	-0.00015673094	-0.0004415975	9.43985e-05	-8.426467e-05	-0.00012172327	-0.0002868073	0.00028307678	0.0002377784	-0.00029824759	1.1760073e-05	5.4710803e-05	-0.00015587914	0.00016529312	-6.9113834e-05	-2.476477e-05	0.00017668583	0.00025479434	-0.00016460357	-0.00030359955	-3.4800025e-05	0.00017400643	-0.000100312296	1.3863247e-05	3.0848503e-05	-0.00017262003	-7.561222e-05	-0.00023707538	0.00022863458	-0.00019539785	-0.0002508569	9.15539e-05	-0.00013649055	0.00032980632	-0.00038719075	-0.0004831745	0.00018027521	-0.00022682197	6.663587e-05	1.43796615e-05	-9.575487e-05	-0.00023552692	0.00010053027	0.00013570579	-5.537523e-05	-0.00040418116	-3.1028303e-05	9.4240015e-05	0.00024235412	-0.00012626666	-0.0002155108	1.40298425e-05	-8.219315e-05	-0.00021567574	-0.00018688827	-0.0002096325	-0.00011463457	-7.147609e-05	-0.00031836954	-0.00021383357	-3.4229215e-05	-0.00024876805	-0.00018746153	6.2635816e-05	0.00048922293	-9.1902366e-05	0.00018721704	0.00010458322	0.00030058922	0.00016675891	-0.0002181916	-0.00040415797	-0.00019471129	-0.00018560255	-0.00041702096	-5.9648537e-05	-3.5558747e-05	-2.2192786e-05	-0.00011909733	3.805134e-05	9.675273e-05	-8.9368135e-05	-0.00021848278	-0.00038904024	1.2978667e-05	-0.00044054436	-0.00012200245	-0.00022413916	0.00044124448	0.00011219592	-6.841842e-05	0.00020202264	-0.00023344731	-0.00014434973	0.0003367427	0.00020317528	-0.000347972	0.0002690205	0.00042301178	-9.176803e-05	-0.00022782649	0.00018549337	0.00031469384	0.00024743567	7.432754e-05	-6.759689e-05	5.9053433e-05	3.562638e-05	-0.00025216382	0.00010104371	-0.0003706223	0.0002396134	0.0001290591	0.000120958735	-7.205351e-06	-4.8042657e-05	0.0005391648	-0.00027045372	0.00015481886	8.4940584e-05	0.00022486174	0.00017517155	4.1090134e-05	0.00034796205	0.00035956877	-0.0003390304	-0.00013372408	-8.033829e-05	-8.808923e-06	-0.0003782012	0.000102134894	-0.00021821732	-0.00016512461	-0.00043596613	0.0001422743	-9.410746e-05	-0.00012441745	0.00041330475	-1.75292e-05	8.864205e-05	-0.00015590759	-0.00012812647	-1.5872112e-05	0.00030258304	-2.283935e-05	-0.00051591016	-0.00030332938	-0.0004057682	-0.0001133459	1.6516135e-05	-3.6363243e-05	0.00026422707
Wavelet_8	0.00022133868	-0.0004489278	-0.00016629719	-0.00033128867	9.6379605e-05	-6.9081405e-05	9.1508155e-05	0.00011503197	5.589264e-05	0.00011300595	0.00016679158	-0.00026475405	0.0001140604	3.4049408e-05	0.00032965478	0.00012616615	0.0002628469	5.2231837e-05	-0.00011364993	-0.0001262409	0.00016268635	0.00010536004	0.0005484011	-0.00022785811	-4.9033082e-05	7.034937e-05	0.00019140219	-0.0002084197	-0.0002595048	-6.370861e-05	1.8150351e-05	0.00025492712	9.178304e-05	0.0001188859	9.9554716e-05	-0.00010288799	4.4267053e-05	-0.00023110994	-6.749016e-05	-0.00024794758	-1.13529995e-05	8.886844e-05	6.460198e-05	-0.00013459827	4.2320406e-07	-0.00011631606	-0.00033688344	0.00010468177	4.2924432e-05	0.00020651957	-5.5675373e-05	-0.0003745267	-0.0002699967	-0.0003663101	-0.00031981143	-0.000116882824	-0.00068057794	0.00036811226	-0.00014382823	-0.00015939388	0.00015183896	2.1204849e-05	0.00018644748	-2.2082813e-05	0.0001292496	-1.3867783e-05	0.00017549317	0.00048811297	0.00025161283	-0.00066899875	0.00011852309	-0.0006324346	0.00034097192	-1.6859318e-05	0.00021359348	0.00023988826	0.00043371992	0.0001628434	0.00013074774	8.093442e-05	0.00026408004	6.6219094e-05	0.0005341192	0.00025128902	0.00011779691	-0.00022226709	-0.00011515348	2.7686554e-05	-0.0002024819	3.7811933e-05	-0.00036740268	0.00039903	0.00017277068	-1.1525894e-05	6.638248e-05	8.884162e-05	-0.00011191848	0.000121356934	0.00029337357	0.0003130639	0.00016274537	-0.00014634444	7.729715e-05	-7.695504e-05	0.0002539086	-0.00020321	0.00013443934	-0.00010588023	3.1812026e-05	1.0106573e-05	0.00015683204	-6.0100218e-05	0.0001546029	0.00029651646	5.1937892e-05	0.0001293705	0.0003156037	0.00025920666	9.3458206e-05	-1.1634516e-05	0.00019853725	0.00032837753	-0.00021412797	-8.77262e-07	-0.00027096717	2.3323662e-05	-0.00019486513	0.00029807183	-0.00030313575	-0.00013218999	-0.00033650588	-0.0001221146	-0.00018489853	-0.00011356555	0.00026699706	0.00031442262	-1.0808557e-05	0.0004824724	5.541472e-05	-0.00022235131	0.00026809296	-0.00016623978	-0.00041524458	-2.9989951e-05	-8.297455e-05	-8.7752145e-05	8.148586e-05	-0.00031963957	-0.00026144195	-0.000108289205	-0.00046696054	0.00010044644	-6.439742e-05	-9.385381e-05	-0.00029596142	0.00025256933	0.00013040447	-0.00028978963	-6.0642957e-05	8.624734e-05	-0.00011860607	0.00013970527	-7.970263e-05	-6.701243e-05	0.0002059469	0.00030140378	-0.00016920085	-0.00029338643	-0.00016462602	0.00018751975	-0.00010905473	1.9544987e-06	-1.8115075e-05	-0.00013133153	-7.722059e-05	-0.000242781	0.00020358858	-0.00019953684	-0.0002861431	-4.279344e-06	-0.00012472227	0.00036209935	-0.00037518432	-0.00049117836	0.00016096997	-0.00021033597	0.00013251285	-7.336775e-06	-6.2121806e-05	-0.00028156556	9.310143e-05	7.470401e-05	-7.951082e-05	-0.00045523056	-3.501068e-05	6.0168484e-05	0.00030679433	-8.868622e-05	-0.00022944908	5.462423e-05	-0.00012873183	-0.0001838368	-0.00019817002	-0.00017234166	-0.00020926644	-0.000194169	-0.00030523314	-0.00030815898	-4.6431756e-05	-0.00023689262	-0.00017149473	8.524049e-05	0.00044971317	-0.00012496574	0.00020853103	5.6201316e-05	0.00020947348	0.00014014839	-0.00029002136	-0.0003679714	-0.00019468994	-0.00014782633	-0.00040568667	-5.8782218e-05	-0.00012724535	-8.965333e-05	-6.369813e-05	8.262636e-05	0.00013142565	-9.298102e-05	-0.00017942824	-0.00039139265	5.1580805e-06	-0.000417705	-3.558341e-05	-0.0002878362	0.0004887775	0.00010303562	-0.00013732752	0.00021101529	-0.0002192932	-0.000128492	0.0002791281	0.00020588114	-0.00038793875	0.00016435454	0.00042620837	-9.9557124e-05	-0.0002608935	0.00019690642	0.000301377	0.00014272741	0.00012230263	-0.00016320011	9.8095625e-05	6.3560154e-05	-0.00032670432	3.465434e-05	-0.0004308668	0.00033011867	0.00015721537	0.0001541556	-6.0310977e-05	-2.1452008e-05	0.0005027071	-0.00027833294	0.00016442983	7.411072e-05	0.00010674262	0.00012145568	2.9449247e-05	0.00026272633	0.0003681796	-0.00032556616	-2.1482454e-05	-9.775011e-05	9.327621e-05	-0.0002716461	0.00015626157	-0.00027515544	-9.616852e-05	-0.00044785615	0.00010520282	-4.0328563e-05	-0.00013974222	0.00044237883	-9.235862e-05	7.238946e-05	-0.00019247785	-0.00012269964	2.3498005e-05	0.00022395523	-7.722999e-06	-0.00046138055	-0.00026008717	-0.000454366	-7.329658e-05	8.4338426e-05	-1.2000952e-05	0.0001821364
Wavelet_9	-0.00016880507	-0.0003830347	-0.00065571524	-6.728067e-05	0.0010903662	4.962938e-05	-0.0002789143	0.00082818756	0.0005152073	0.0008897656	0.00043596473	0.0004450942	0.00011016695	0.00036820048	-0.00013272717	0.0006138883	9.411888e-07	-0.000879225	0.000100022706	0.0001164268	0.00037246724	-0.00025635175	-0.00023391281	-0.00014246556	-0.00019270429	-0.00050076796	0.0002769959	0.00027722228	0.000119149394	-0.0004742263	-0.00010169073	0.0008063809	-0.00020803275	0.00011951862	-0.0003530882	-0.00013224405	0.0010874528	-0.0003489692	-0.00022116868	-0.00044595846	-0.00015879876	-0.00014307481	-0.00040458274	-4.5534365e-05	0.0006577392	-0.0003255032	-0.0008148618	0.00019751606	0.00034394045	-0.00011522908	0.00025204534	-0.00034678265	-0.00021848152	-0.00041984714	-0.00028220538	-0.00040353628	-0.00077399914	0.00065178506	-0.00033485683	0.00016606558	0.0006991581	-0.0004446914	0.0006947004	-0.00071829394	-0.00022994977	-0.00019612673	-0.00019647137	0.0006552972	-8.7643326e-05	-0.000108715685	-0.0005030709	-0.00020713164	0.00025543262	-0.0005433388	0.00018553555	-1.0251382e-05	0.0005659975	0.00039950185	-0.00018599641	0.0004184408	-4.493985e-05	0.0007694158	0.0006301553	-0.00023140223	0.00024254067	-0.00029763934	0.00044033927	0.000482582	0.0006542475	-0.00043864263	-0.0008959973	0.00048159313	0.000577364	-0.0007706777	0.0003721438	0.00037300005	0.00044569152	0.0005210418	0.00026642572	0.0011539012	0.0003339456	8.651952e-05	-0.00015311796	-0.0009544125	0.000518751	4.114202e-05	-6.9497146e-05	-0.00010938107	3.5746e-05	0.0002466839	0.00040811082	-3.349338e-05	0.00051550753	2.0462598e-05	-3.9439183e-06	0.00021390435	0.00082176435	-5.2503892e-05	-3.428827e-05	0.00024772104	0.00040244477	0.00078884215	-0.00014186508	0.00085874926	-0.00017740499	-5.6694495e-05	-0.0003032809	-0.000152859	-0.00043915195	0.00023542409	-7.593096e-05	-0.00049117283	4.773077e-05	-0.000112252426	-0.0004043657	0.00049020216	-1.5319209e-05	0.00059425377	0.00036725495	-0.00043078768	-0.0003343659	0.0004444894	-0.00032374347	8.7238775e-05	-0.00054820545	0.00020301684	-0.0006505018	0.00030015167	-0.00039972964	-0.000571228	-0.00018961614	-0.0001674344	-0.0005787731	0.001053151	-0.00038292364	-0.00010027364	-0.0001658729	0.00014946492	0.00013803378	1.782245e-05	0.0009910685	-0.00020618908	0.00011501037	-0.00034874692	-0.00023146569	0.0005156405	-0.0004373031	0.0003363756	0.00053178455	-0.00015636558	-0.00033568306	0.00023281769	-0.00071820186	-0.00089012214	-0.00075581856	-0.0001433582	0.0006176724	0.00023041676	-3.639527e-05	0.00080053596	-0.000860419	0.0006793083	-0.00035531275	-0.0007929371	0.0005113653	-0.0005552509	0.0001386615	0.00029758387	-0.00034887824	0.00016949089	0.00032792237	-0.00026412826	0.00026966623	0.00015980465	-0.0009856718	0.00032270976	0.00015554416	0.00037116086	-0.0005329479	-0.0005274884	-0.000401421	-0.00053008215	-0.0008672619	-0.00048548554	-0.00032618345	-0.0008072002	-0.00029042875	-0.0008538793	-8.969016e-05	-0.0003314257	0.00070459646	-0.000239371	-0.00011092413	0.0002656041	8.7445325e-05	0.0006120895	0.00015026053	0.00028345245	-0.0010087886	-0.00028031552	0.00025275233	0.000512999	7.38962e-05	-0.00018309244	-0.00046792894	0.00053906615	-0.00027890084	-0.00064826163	0.00032684737	0.00032346864	-0.00024455268	-0.0009568693	-4.3689797e-05	-0.0012254568	-0.000275165	-0.0011389975	3.7726422e-05	0.000882045	0.00018737483	-0.00033477467	-0.0008066363	-0.00021363187	0.0008750612	0.0005511342	0.00026392672	0.00032889098	0.0005801334	0.0008821461	-0.00046850205	-0.0009410313	0.0002253775	-0.00024230074	-0.00038705513	-0.00021321526	0.0010049776	0.00032703794	-0.00079655874	0.00019291714	0.00021273925	-0.0001399297	0.0005930022	0.00087332696	4.1219442e-05	-0.0004925311	0.0008145062	4.519234e-05	0.00017967494	-0.0008582409	0.0004915459	0.0009830464	8.170628e-05	5.6254263e-05	0.0010330877	-0.0006371784	-0.00022993071	0.00020359298	0.00012554415	-8.360272e-05	0.0004559377	-0.000319241	-0.00067353505	-9.429586e-05	-9.76756e-05	2.8276809e-05	0.0003735461	0.0011435482	-0.00018725429	-0.00023401945	-0.00034449773	-0.00085479394	0.0001886441	0.000684515	-0.00045019612	-0.00070872676	-0.00024247916	-7.9587044e-05	-0.00048279448	0.0007054414	0.00023518788	0.0009828612
Wavelet_10	-0.00016880507	-0.0003830347	-0.00065571524	-6.728067e-05	0.0010903662	4.962938e-05	-0.0002789143	0.00082818756	0.0005152073	0.0008897656	0.00043596473	0.0004450942	0.00011016695	0.00036820048	-0.00013272717	0.0006138883	9.411888e-07	-0.000879225	0.000100022706	0.0001164268	0.00037246724	-0.00025635175	-0.00023391281	-0.00014246556	-0.00019270429	-0.00050076796	0.0002769959	0.00027722228	0.000119149394	-0.0004742263	-0.00010169073	0.0008063809	-0.00020803275	0.00011951862	-0.0003530882	-0.00013224405	0.0010874528	-0.0003489692	-0.00022116868	-0.00044595846	-0.00015879876	-0.00014307481	-0.00040458274	-4.5534365e-05	0.0006577392	-0.0003255032	-0.0008148618	0.00019751606	0.00034394045	-0.00011522908	0.00025204534	-0.00034678265	-0.00021848152	-0.00041984714	-0.00028220538	-0.00040353628	-0.00077399914	0.00065178506	-0.00033485683	0.00016606558	0.0006991581	-0.0004446914	0.0006947004	-0.00071829394	-0.00022994977	-0.00019612673	-0.00019647137	0.0006552972	-8.7643326e-05	-0.000108715685	-0.0005030709	-0.00020713164	0.00025543262	-0.0005433388	0.00018553555	-1.0251382e-05	0.0005659975	0.00039950185	-0.00018599641	0.0004184408	-4.493985e-05	0.0007694158	0.0006301553	-0.00023140223	0.00024254067	-0.00029763934	0.00044033927	0.000482582	0.0006542475	-0.00043864263	-0.0008959973	0.00048159313	0.000577364	-0.0007706777	0.0003721438	0.00037300005	0.00044569152	0.0005210418	0.00026642572	0.0011539012	0.0003339456	8.651952e-05	-0.00015311796	-0.0009544125	0.000518751	4.114202e-05	-6.9497146e-05	-0.00010938107	3.5746e-05	0.0002466839	0.00040811082	-3.349338e-05	0.00051550753	2.0462598e-05	-3.9439183e-06	0.00021390435	0.00082176435	-5.2503892e-05	-3.428827e-05	0.00024772104	0.00040244477	0.00078884215	-0.00014186508	0.00085874926	-0.00017740499	-5.6694495e-05	-0.0003032809	-0.000152859	-0.00043915195	0.00023542409	-7.593096e-05	-0.00049117283	4.773077e-05	-0.000112252426	-0.0004043657	0.00049020216	-1.5319209e-05	0.00059425377	0.00036725495	-0.00043078768	-0.0003343659	0.0004444894	-0.00032374347	8.7238775e-05	-0.00054820545	0.00020301684	-0.0006505018	0.00030015167	-0.00039972964	-0.000571228	-0.00018961614	-0.0001674344	-0.0005787731	0.001053151	-0.00038292364	-0.00010027364	-0.0001658729	0.00014946492	0.00013803378	1.782245e-05	0.0009910685	-0.00020618908	0.00011501037	-0.00034874692	-0.00023146569	0.0005156405	-0.0004373031	0.0003363756	0.00053178455	-0.00015636558	-0.00033568306	0.00023281769	-0.00071820186	-0.00089012214	-0.00075581856	-0.0001433582	0.0006176724	0.00023041676	-3.639527e-05	0.00080053596	-0.000860419	0.0006793083	-0.00035531275	-0.0007929371	0.0005113653	-0.0005552509	0.0001386615	0.00029758387	-0.00034887824	0.00016949089	0.00032792237	-0.00026412826	0.00026966623	0.00015980465	-0.0009856718	0.00032270976	0.00015554416	0.00037116086	-0.0005329479	-0.0005274884	-0.000401421	-0.00053008215	-0.0008672619	-0.00048548554	-0.00032618345	-0.0008072002	-0.00029042875	-0.0008538793	-8.969016e-05	-0.0003314257	0.00070459646	-0.000239371	-0.00011092413	0.0002656041	8.7445325e-05	0.0006120895	0.00015026053	0.00028345245	-0.0010087886	-0.00028031552	0.00025275233	0.000512999	7.38962e-05	-0.00018309244	-0.00046792894	0.00053906615	-0.00027890084	-0.00064826163	0.00032684737	0.00032346864	-0.00024455268	-0.0009568693	-4.3689797e-05	-0.0012254568	-0.000275165	-0.0011389975	3.7726422e-05	0.000882045	0.00018737483	-0.00033477467	-0.0008066363	-0.00021363187	0.0008750612	0.0005511342	0.00026392672	0.00032889098	0.0005801334	0.0008821461	-0.00046850205	-0.0009410313	0.0002253775	-0.00024230074	-0.00038705513	-0.00021321526	0.0010049776	0.00032703794	-0.00079655874	0.00019291714	0.00021273925	-0.0001399297	0.0005930022	0.00087332696	4.1219442e-05	-0.0004925311	0.0008145062	4.519234e-05	0.00017967494	-0.0008582409	0.0004915459	0.0009830464	8.170628e-05	5.6254263e-05	0.0010330877	-0.0006371784	-0.00022993071	0.00020359298	0.00012554415	-8.360272e-05	0.0004559377	-0.000319241	-0.00067353505	-9.429586e-05	-9.76756e-05	2.8276809e-05	0.0003735461	0.0011435482	-0.00018725429	-0.00023401945	-0.00034449773	-0.00085479394	0.0001886441	0.000684515	-0.00045019612	-0.00070872676	-0.00024247916	-7.9587044e-05	-0.00048279448	0.0007054414	0.00023518788	0.0009828612
Wavelet_11	-5.1513955e-05	-0.00032773512	-3.687919e-05	0.00026383033	0.0007694892	-0.00025625768	-8.297281e-05	-7.22893e-05	-7.5546515e-05	0.00020315732	0.00042954867	0.00031414445	0.0001754195	-0.00033510572	-5.8986992e-05	4.2720458e-05	0.00029632525	-0.00029591378	-0.00046368848	-0.00046744032	-0.00027271835	9.0367386e-05	0.00045932824	9.737323e-05	-0.00043166633	-0.00011776874	0.00036860126	-5.5775683e-05	0.00039541128	-0.00034899544	7.4909534e-05	-1.8189075e-05	0.0003929676	-0.00012418216	1.6549107e-05	0.00011994173	0.00033456692	-0.00024928528	2.0187458e-06	-0.00025712364	0.00028236347	4.6498975e-05	-0.00013787112	0.00015589323	0.00036483715	-3.0263891e-05	-0.0003792504	2.9441535e-05	0.00011480988	-0.00015836532	0.0002237456	-0.00041992796	-0.00046728586	-0.00054566836	-0.0004397272	-0.0005934629	-0.00040796655	0.0001693572	8.767616e-05	0.00014196649	0.00027706366	0.000101893536	0.00025457935	0.000112663896	2.1343602e-07	-0.0001468996	0.00031739264	0.00065789773	0.00018008323	0.00012799012	-0.00034306245	-0.00038619858	-4.0629646e-05	-0.00020343802	0.00029526034	0.00033994066	0.00027812828	0.0001231153	-0.00033387257	-8.1135986e-05	0.0003029381	0.00044128168	0.00064006774	-5.086786e-05	-8.885807e-05	-0.000282388	0.000307844	0.0003838956	0.000170623	8.0709986e-05	-0.0007368593	0.00023654991	0.00046822848	-4.795023e-05	-0.00022983366	-0.00016190142	8.899267e-05	0.00031905939	-0.00014264227	0.00030989826	-0.0002442501	0.00017197902	-0.00015406706	-6.163164e-05	0.00069025275	-3.8672726e-05	-0.0003178378	-0.00014271795	-4.9049468e-05	0.0005581243	8.8333334e-05	-4.0260435e-05	0.0003943484	0.00020223542	7.70917e-05	0.00013366336	0.000352088	0.0004932272	-0.0003109196	-0.00032724527	-1.8383108e-06	0.0007734202	3.438094e-05	0.00015589659	-0.00040676343	-0.0002535371	-0.00059851917	0.00020114038	-0.00021955906	2.4888852e-05	-0.00053821196	-0.0005732593	0.00013296431	-0.00046485945	4.812611e-05	-0.00014867475	0.0005871984	0.0003356966	0.00013036015	-0.0005219345	0.00027230737	9.750125e-06	-8.722848e-05	-8.207292e-05	-0.00022178382	0.00015781658	-0.00034661437	0.0001086903	-0.00036010475	-0.0003285603	-0.00032332927	-8.17283e-05	-0.00011668533	-0.0001789226	-0.00021436886	4.7404847e-05	0.000110417386	-0.00024381031	-0.00026173238	0.00010638415	0.0002681417	0.0002867044	-4.682568e-05	-8.89808e-05	0.00013057349	0.00014367847	-0.0002284885	0.00026780085	0.0005439584	-0.00024319578	7.6256634e-05	0.00022752144	-6.851139e-05	-0.0006539572	-0.0003690475	0.00013139728	2.7798998e-05	-0.00026185045	-6.5522174e-05	0.00019657989	-0.00034093237	0.00021987334	-0.00043328764	-0.0004668451	0.0001321237	-0.00052447227	0.00029637586	0.00051105587	0.00027811973	-0.000292115	0.00018347178	-8.653965e-05	-3.4061006e-07	-0.00013765987	-0.00018506945	0.0005162517	-6.175415e-05	8.537332e-05	-0.00027682885	-0.0008184169	-0.0001318393	-6.142691e-05	-0.00022147	0.0002399336	8.69862e-05	0.00022525268	-0.00021705272	-0.00013924655	4.0378876e-05	0.00011464925	-9.164708e-07	0.00023951297	0.00021362219	-6.36328e-05	0.0004089278	0.00045909718	4.2354815e-05	-0.00012502162	1.3300186e-07	-0.00049725384	0.00014273936	-0.0002513122	-0.00040074746	0.000260763	-0.00026194268	0.0003947119	7.538767e-05	5.5476536e-05	8.3446976e-05	0.0002894046	-0.00037099898	-0.00032137812	-3.2583677e-05	-0.0006017622	-0.00034985438	-0.000677511	0.0002975124	0.00022710573	-0.00015418616	0.0003068125	-0.00021319711	0.00020556482	0.00010196676	-0.00036492627	-0.00010962772	0.00038763	0.0003366177	0.00039576614	-0.00027197564	-0.00020401544	2.3068977e-05	0.00014370757	-0.00010902667	1.3697751e-05	0.00020785257	-9.952352e-05	-0.000259303	0.00024864957	-5.8831985e-05	-0.00041833794	-2.7735598e-07	0.00077662914	-0.00012268475	-0.0004199369	0.00093450956	0.0001392441	-0.00013141167	3.2529624e-05	0.0005710004	0.00066588377	0.00023124533	0.0002458616	0.00038521056	-0.0005462058	-0.00023451156	3.8825467e-05	-0.00035251144	-0.00032603074	0.0005358997	-0.0006942135	-0.00033101064	-0.00016628027	5.8875576e-05	7.0574446e-05	0.000327375	0.0002758058	9.0865346e-05	-5.9541435e-05	-0.00013726347	7.848713e-05	-0.00012865906	0.00025639762	-0.00051136187	-0.0004463466	0.00015796913	-0.00040229407	-0.000311085	0.000209742	-0.0002261077	0.00069637335
Wavelet_12	0.00031151975	-0.00080333813	-0.00046292835	-0.00027353823	0.0008624879	-0.00049184007	0.00020991552	0.000392831	-2.3235614e-05	-4.559058e-05	-0.00010457082	0.00035335377	8.7482105e-05	-0.0003838109	-0.00013784977	0.00022151067	4.7235895e-05	-6.505569e-05	-0.00055458245	0.00015179985	6.413211e-05	4.6273053e-05	5.284194e-05	0.00028990384	-0.00042611762	-0.00049098826	0.0006314889	7.598013e-05	0.0004182437	-0.0008756336	0.00047678215	0.00048417732	0.0008704471	-0.00044087478	0.00024627426	-0.0004089227	0.0006372689	-0.00077269657	-0.00022610952	4.6711903e-05	0.0003807036	0.0002989977	-0.00036951626	-1.2142162e-05	0.00027193836	-8.836984e-05	-0.0009616832	-0.00043857977	8.2707615e-05	0.0006139013	0.00060953014	-0.0006594987	-0.00013249737	-0.00048189203	-0.00014508251	-0.00091985235	-0.0007549601	-0.00043688162	0.00025653653	3.9481885e-05	5.043528e-05	6.453591e-05	7.330289e-05	0.00018471957	0.00020976781	-0.00050886435	0.0005452858	8.632066e-05	0.00024806004	-0.00022210932	-0.000115231654	-0.00042653765	0.00022687155	0.00014457556	4.130711e-05	-0.00021932121	0.000310392	0.00033147418	0.00013159149	-0.00032324478	0.00042711728	-9.1641356e-05	0.0004140733	-0.0005896313	0.00023815241	-3.212325e-05	0.00046791858	8.680835e-05	0.00037993677	-9.3177005e-05	-0.00035952468	0.00020689867	0.00038239322	0.0002800416	2.0837542e-05	-0.0001136403	0.00020978572	0.0007029413	-0.00048508798	0.0008331527	0.00018647854	-5.269814e-05	-0.00075078243	0.00010791356	0.0003845711	-0.00039180453	-0.0002911623	0.0003885187	0.0003346089	0.0005391013	2.6618116e-05	0.00042472634	0.00022191988	0.0003215362	-2.496902e-05	-0.00037375186	0.00050125236	0.0002849411	-0.0002451897	0.00035865503	0.00019948636	-2.3493594e-05	-0.0001405048	8.466213e-06	-0.00013597414	7.034207e-05	-0.00086695066	0.00060218835	5.7093574e-05	0.00022983633	-0.00013236463	3.15832e-05	-0.00010946534	0.00029173383	-0.00014157764	0.0004942217	0.0004671583	0.0006198378	0.0005089538	-0.00064802135	-0.00020096492	0.00022849062	-0.00015077475	-0.00011880087	-0.00029922806	0.000417898	-0.00010577694	3.8776045e-05	7.0784154e-06	-0.00090997707	-0.0002112815	0.00019210295	-0.00053636363	-3.9693296e-06	-0.0005484171	0.00030182363	-0.00073696236	0.0005990925	-0.0004004485	-0.00069573	4.8450544e-05	3.109368e-05	0.00053137884	0.00017259689	-0.00027254366	0.00053661584	-0.00094714836	0.0005399475	0.00024409703	-0.0002876433	0.00036631443	-8.661408e-05	0.00032850273	-0.0005742324	0.00010994518	0.00061439595	0.00029773213	-9.303199e-05	-8.7212655e-05	6.4137625e-05	-0.00020542041	0.00021417504	0.00023662811	-2.0957086e-06	0.0006412072	0.00014208768	0.0005026085	-0.00011195215	0.0007594658	-0.00043068657	0.00018769027	-2.2574517e-05	0.00020369061	-0.0008511325	1.4725738e-05	0.00029526983	-1.6353175e-05	0.00025138474	0.00015985615	-0.00088437647	0.00054489856	-0.0008041519	-0.00067076547	0.00010324866	-0.00051104516	-0.00016682112	-0.00022151263	-0.0010348024	0.00020835054	0.0003205454	1.0590433e-05	-0.00027127317	0.00023670969	-0.00029385206	7.8054145e-05	0.00010517836	-7.140164e-06	-0.00037067465	0.00028975692	-0.00012622976	7.882109e-05	0.00025276642	-0.000116485055	0.0003124712	-0.00072611816	0.00011711527	-1.2307344e-05	-0.00013839715	-0.00046168268	9.3684335e-05	-0.00036781013	-0.0005347726	0.00017156111	-0.00045582964	-0.0007739305	-0.00029301445	0.00017787154	0.00033830403	0.0003965732	0.0003137178	-0.0002737107	-3.5633268e-05	0.00018898566	-0.00068801007	4.9023773e-05	0.00055358675	9.717463e-05	8.1564875e-05	-0.00017882105	-0.00013925628	-0.00025346794	-5.2036226e-05	-0.00011451905	-0.00032434924	0.00032441798	7.867155e-05	-0.00066340016	-0.00058986724	-0.00036579627	-0.0001829415	-0.00040616508	0.00042899806	0.00010223363	3.597309e-05	0.00010926377	-0.00018334223	-0.00019547096	0.00027563662	0.00035168164	0.00086728996	0.000112634254	0.00016893771	0.0006689675	0.00034707482	-0.0007208316	0.00028467007	-0.0002715732	-0.00021545972	0.0006342779	-0.00021295108	-0.0003809643	-0.00010658059	-8.180681e-05	-0.0002992305	0.0005012742	0.00095203036	-0.0003538572	-0.00027930408	6.771963e-05	0.0003744039	-0.0007032462	0.00026931815	-0.0005213237	-0.00037313913	-0.00028957677	-0.00018382509	-0.000103199156	0.00029294257	0.00034367046	0.0006742465
Wavelet_13	0.00033120005	-0.00067580334	2.3136336e-05	9.463595e-05	1.6456577e-05	-0.00036055176	0.00047885027	-2.671539e-06	0.0007247415	-0.0002486433	0.0006641209	0.0004258527	-5.969054e-05	-0.00036531233	1.5424263e-05	0.000456519	5.6992085e-05	-0.00018555488	-0.00089417293	-4.3637443e-05	0.0004685577	-0.00036160435	0.0002037851	-0.00028719965	-0.0003171288	-0.0005196826	0.00029567617	0.000252147	0.00025802446	-0.00025439187	0.00013997834	0.00052674464	0.00062307937	2.5810352e-06	0.00011778417	0.00012590479	0.00030838183	-0.0005364079	2.7941387e-05	-0.0003675083	0.00032698648	0.00033679587	3.4158445e-05	3.6931153e-05	0.00019533982	-0.00010254715	-0.00025577194	0.00015315719	0.00037454162	0.00028167412	0.00018197196	-0.00042942417	-0.00071350735	3.765025e-05	-0.0005101988	-0.00044871838	-0.00052545697	0.000101160505	2.5501855e-05	-0.00018751457	0.00050940627	-0.00049744203	0.00010238475	-0.00036295684	-0.00029867174	-0.00027368346	-0.00026923761	0.0007879439	-0.00040062296	-0.0002146273	-0.0006184245	-0.00016491915	0.00018600583	-0.00018317421	3.3944656e-05	0.00039526413	4.5818542e-05	0.00031514463	8.828091e-05	-8.5821e-05	0.00046416512	-8.6067346e-05	0.0006217175	0.00021599582	-0.00023660643	-0.000578937	-4.372076e-06	0.0005523021	-0.0003773939	-0.00010245546	-0.00047457777	0.00010020977	0.00027134334	0.00021037302	0.00064253	-0.00033632602	0.00023926693	0.0002563405	-0.00024097724	0.00077090296	0.00037350145	-0.0006021706	-0.00048526417	-0.00029198854	0.00043964013	-0.00010542289	-9.686477e-05	0.00023417514	0.00043456213	0.0007269826	0.0003277701	0.00021921317	0.0001771938	0.00027649442	0.00012868554	0.0005193977	0.0006061534	8.478281e-06	-0.00045055774	-0.00028080045	0.00056808145	0.00016734758	-0.00017013038	0.0005587798	-0.00020457973	0.0002222478	8.957908e-05	0.00030241275	-0.0004830852	-0.00039520202	-0.0007300402	-0.00048760686	-0.0001726163	-0.00048496542	0.00023849214	0.0006393818	7.407888e-05	0.00084976456	3.6368456e-05	-0.00014520124	0.0003229403	-9.493058e-06	-0.00020952313	-0.00022197372	-0.00033455793	-0.0004375017	-6.383486e-05	-2.6037522e-05	0.00029941683	-0.00044267683	-0.00055004866	0.00024918542	-0.00020711172	0.00067019626	-6.860666e-06	0.00036579443	0.00019901479	-7.4366384e-05	-0.0003060661	-0.00043119554	-0.00010992335	-0.00041133535	0.000129057	1.1672002e-05	0.00011125277	0.0005291872	-0.00019321617	-0.0001476649	3.3571214e-05	-9.286889e-05	-0.0007616359	0.00021709659	0.00020286962	-0.0011768402	8.092006e-05	-0.0002275142	0.00022570865	-3.6922032e-05	0.00014503059	0.0006649451	-5.0071572e-05	0.00026164914	-2.4891388e-06	-0.00083827495	0.00016256221	-0.00046572328	-0.00011683282	0.00040826484	0.00045410995	0.00018327642	-0.0005024508	0.00033234485	-0.0003536687	-0.00039962755	-0.00025781337	0.000565092	0.0002851762	8.3663035e-05	-0.00054855994	-6.1983796e-05	4.39818e-05	-0.00034990394	-0.000747986	-0.00029365465	-0.00032055736	7.4076233e-06	-0.0008865333	-0.00076515775	0.00061306386	-8.85023e-05	0.0002541222	-0.00017152542	-5.8046317e-05	-5.0509665e-05	9.4632385e-05	9.270714e-05	0.00013594364	0.00013126411	-0.0007314662	0.00014602621	-1.5962192e-05	-0.0002210558	0.00023914337	-0.00015328497	-0.0004602388	0.00027073204	-0.000104019724	-8.372124e-06	-6.8707326e-05	0.00010136107	-0.0008736649	-0.00067238894	0.0002260229	4.0149203e-05	8.3201085e-05	-0.00087282376	0.00073105434	-0.00018675157	0.00020289345	-0.00017575108	-0.00020347131	-0.0004740716	0.00067771226	-0.00039721883	-0.00028159792	0.00083211256	0.0005036638	0.0005404186	0.00023571946	0.00012640866	-3.151402e-05	0.00020224214	-0.0004819812	-0.00028991888	0.0004559479	0.0005197859	-5.7118323e-05	-0.00032900998	-0.00035419723	0.00025080488	0.0002749416	0.00034599472	0.00034991314	-0.00045921316	0.0003882779	1.4099288e-05	0.0001223043	-2.3425297e-05	0.0004862145	0.00021949975	0.00014552055	-0.00026339956	0.00071423326	6.0349075e-06	-0.00022117926	0.00022955758	-0.0001281438	-0.0005066102	0.0002553894	-9.4003706e-05	-0.000175662	-0.00022424663	-0.00051927584	-0.00015753468	-4.4893073e-05	0.0012048199	-0.00021530144	-0.00018507846	4.8863145e-05	-0.00010374519	-0.00020804015	4.8470407e-05	-0.00045226156	-0.00082971866	4.6284185e-05	-0.00015940523	0.00021953182	0.0004590387	-7.683686e-05	0.0002586696
Wavelet_14	0.00043088142	-0.0004902419	5.240765e-05	3.1664156e-05	0.0007956132	-5.9072903e-05	0.00034280884	0.0004101821	0.0002596014	-8.211181e-05	0.00072671805	0.00037934107	1.7898528e-05	-0.0005836599	-0.0003188128	0.0003961659	-6.720675e-05	-0.0002361014	-0.00077320676	3.833448e-05	-6.878571e-05	0.00018560131	-9.445851e-05	-0.00013681095	-0.0006576427	-0.00043916013	0.00043261063	-0.00011260163	0.0004894161	-0.00018112789	0.00024504293	0.00031468403	0.0005607059	-0.00031017233	0.00035580446	0.00011454935	0.00074153993	-0.00029333888	-7.6001554e-05	0.00013699365	0.00021660388	6.0979997e-05	-0.00013095184	0.00016234364	0.000384577	-0.0003281947	-0.00055389403	0.00017702479	0.00022530965	1.8839619e-05	0.0005906178	-0.00034120234	-0.00075368246	-0.0005148192	-0.00020749563	-0.00072832307	-0.00012387437	-4.148862e-06	-2.6744574e-05	-7.399285e-05	6.69349e-05	-5.19578e-05	0.0005993385	-0.00014281485	-0.00031576378	-0.00021363304	9.9327e-05	0.00056950486	7.3974814e-05	0.00019929952	-0.0004654933	-0.000100977246	-0.0005378269	-0.00029118775	0.00016313905	-0.00015748096	0.00038912828	0.00043050598	4.316275e-05	-0.0001796537	0.00036925962	2.2672572e-05	0.00064624473	0.00012654373	4.341211e-05	-0.00034017704	0.0006439075	0.00046456914	-8.804178e-05	-0.0003893433	-0.00042572318	0.00018129213	0.0006635353	-8.640611e-05	4.4825832e-05	-0.00028944516	0.00025767853	0.0003389491	-0.00056828145	0.0005598572	0.00017670754	-0.0002529703	-0.00045733264	-0.0003268269	0.0006810095	-0.00010123291	-0.00027147788	0.00033316258	0.00014956288	0.00062444253	-2.2081991e-05	0.0003214728	9.199849e-05	-1.06871485e-05	0.00026391956	0.00039335323	0.0006323762	1.8841598e-05	-0.00033656813	-0.0005116591	0.00053454353	0.00057421456	0.0004698703	0.00068336684	-0.0006808284	-0.00018525944	-0.00041049393	0.00033356986	-0.00021621338	-0.0001109832	-0.00052479847	-0.00016446115	0.00018179607	-0.00025749303	-0.00012755695	0.00032517352	0.00043750418	0.0005407621	0.00017271248	-0.0005076246	-0.00015955318	0.00020935936	0.00024799947	0.00018075053	-0.00046932485	-7.3581235e-05	-0.00027285313	5.0593797e-05	2.89826e-06	-0.0007045401	-1.8097662e-05	-0.00029837777	-0.00033752006	0.0003526922	-0.00045061906	0.000102102495	9.5187264e-05	0.0003423101	-0.0002571039	-8.626349e-05	-2.4877847e-06	3.1989144e-05	0.00031563768	-3.9792107e-05	4.474444e-05	0.00043866018	-0.00014359696	0.00021680813	0.00037809322	-0.00061157905	-0.000282694	6.0572584e-06	-1.2219735e-05	-0.0009029109	0.00024010957	4.976172e-05	0.00010127951	-0.00016758832	0.0002058891	0.0006668125	-0.0003441982	0.00018684634	-0.00017699093	-0.0004008172	0.00028914743	-0.00048085305	0.0003407174	0.00040114138	0.0004597297	0.00040196962	-0.00041100438	-0.00010756934	0.00040918656	-0.00021997794	-0.0006352983	0.000566202	-5.745835e-05	-8.7522094e-05	-0.00034953616	-0.00043029973	7.587468e-05	-0.00048400255	-0.0007238351	-0.00012088238	-0.0006551999	7.130889e-05	-0.00085193984	-0.0005397534	0.00069459155	-0.00011703317	0.00037428515	-0.00029567428	-0.00024896933	0.00013376873	0.00049881334	0.00020384713	2.3926581e-05	1.3969643e-05	-0.0003985661	-0.00012004587	-1.6677162e-05	9.572736e-05	4.632701e-05	-0.00010692999	-0.00011177087	0.0005579371	8.2038874e-05	-8.96124e-05	-0.00028682884	0.00036687934	-0.00060901826	-0.00068070006	0.000118829164	-0.00041093444	-0.0005028416	-0.0009428149	0.00064762967	1.5749565e-05	0.000274839	-0.00019005938	7.680467e-05	-0.0001037294	0.00010939215	-0.000499974	-6.049449e-05	0.00077351776	0.00013264638	0.00050128833	-3.403473e-05	-0.00043401745	-0.00040818437	-0.0003237557	-0.0006781674	-0.00024401481	0.00048902427	0.000109797744	-0.00046049955	-0.0005100536	6.754659e-05	-8.6133514e-05	-0.0003001486	0.0006476938	0.00019082562	-0.0005981632	0.0005590745	-0.00032556162	-8.56491e-05	-0.000114298775	0.0006695338	0.00094420346	1.0426252e-05	-0.0003318707	0.00065608445	-0.00035567573	-0.0007718066	-5.797612e-05	-0.00042530548	-0.00031213748	0.0006910497	-0.0004074555	-0.00028813203	-6.4361902e-06	-0.00037819418	-0.00021183562	0.0003913004	0.000835195	2.0600548e-05	0.00013460043	0.00039681408	2.402282e-05	-0.00055340916	0.0002795503	-0.00068383245	-0.0006953952	0.0002279838	-8.714431e-05	-0.00032933854	8.0335616e-05	0.00014384392	0.0007588986
Wavelet_15	0.0007026305	-0.0004974256	-0.00059031	0.00021549124	6.0821218e-05	-0.00036061462	-1.9154983e-05	0.00023664473	-0.00019373692	0.00064490386	0.0003383409	-0.0003699271	-0.00014872215	0.0004250437	0.0002561943	5.53731e-05	-0.00015568601	-0.00019240916	0.0004496411	4.5448935e-05	6.245782e-05	4.1393272e-05	0.00032029295	-0.0002205445	-0.0001352391	-0.0002921907	-0.00011735447	6.299151e-05	0.00025563265	0.00029497137	-0.0005638481	2.4582068e-05	-3.5133333e-05	0.000110208166	0.0005980985	-0.00019790427	-0.0003390266	0.0002215445	-0.00022735195	-0.0003393527	0.0002472342	-0.00025624622	0.0005551933	-0.0002384439	-0.00014797016	-3.5518828e-05	-0.00014905442	0.00034958968	-5.2291856e-05	2.4870493e-05	0.00019228602	1.755342e-05	0.00011392429	-0.00020469996	-0.00027012682	-8.787059e-05	-0.0004685242	0.00049113395	0.0003165519	-0.0003353245	-0.00026926195	-0.00024665703	0.0006651828	-9.5907475e-05	2.4028694e-05	-0.00021234514	0.00026144035	0.0005966376	-0.00034683372	-0.00071074086	0.00034812686	-0.0006620908	-8.667305e-05	-0.0003376201	-0.00013055526	0.00012678147	0.000500809	0.0006296744	0.00029266352	0.0003518206	0.00011464779	0.0006840557	-0.00014475339	-0.00019121496	0.0002906787	0.00026712904	-5.93464e-05	0.0006464162	-6.625381e-05	0.00014040894	-0.00030807665	0.00029094366	0.00014172796	-2.9833596e-05	-0.00036147024	-0.0003021977	0.00038609662	0.00053649413	0.00026178767	0.00051460403	0.0006945402	-0.0002942574	0.00014385556	-0.00025480433	-0.00024145165	-0.00037807177	0.000654213	-0.0001288681	0.0005271543	0.0003529198	-0.00013682414	-0.00055481767	0.00048340892	-0.0001472809	3.3680233e-05	-0.00020341015	0.00081836624	0.0003142414	-1.9464367e-05	-0.0004583071	0.0004945055	0.00031730355	-0.00021688837	9.7040174e-05	-0.0004590952	-0.00023667015	1.7456974e-05	-0.00061201747	2.2298742e-05	0.00036457332	-0.0007158892	-0.00055109157	-0.00023037031	-0.00019191642	-0.00016948901	0.00010587057	0.00024390254	0.00045947562	-0.00017451984	-0.00047290802	-0.00025578606	0.00021270284	0.00011624156	-0.00011120585	-0.00016848698	0.00017525093	-8.04542e-05	-0.0006416006	1.30044755e-05	-0.0003374619	-0.0007557983	9.86761e-05	-0.00038568137	-2.4444244e-05	-0.00022068048	0.00036408397	-0.00017691782	-0.00025487956	0.0008188756	0.00036708007	0.00037528138	0.00072510034	-6.119671e-05	-0.0008643929	0.0007082682	3.2077973e-05	-0.0007202167	-0.0004031158	0.00011198738	7.7127916e-05	-0.0006048794	1.567129e-05	0.0003340754	2.018194e-05	-0.0009305617	-0.00032139616	9.6664386e-05	0.00019724848	-0.00032472055	0.00048158158	0.00019877296	0.0003432812	-0.00018009306	-0.000729586	0.00044014398	-0.00036264688	0.00019270652	3.586138e-05	-0.00027356952	-0.00021790377	0.00041968358	0.00043049463	-0.0005243791	0.00017422237	-6.277908e-05	-9.523409e-05	-0.00018293792	0.0005672062	-9.6178774e-05	5.197284e-05	-0.00010590856	3.7127081e-06	-0.00043414216	0.00023575385	-0.00079315697	-0.00028061718	-0.00041616822	-0.00025970442	0.00016186443	-0.00071470015	3.0342891e-05	-0.00019656768	0.0006542116	0.0005306438	0.0005633068	-0.00029228878	-1.8017165e-05	-0.0002593668	-0.0007699589	-0.00058654323	-0.00013535396	0.000115624636	-0.0004208977	-7.527157e-05	-0.00014542362	0.0003513577	2.7036063e-05	-7.1846036e-05	-0.00029163927	0.0002224998	-0.00052923994	-0.00017605828	0.00017995201	-0.00040581246	-0.00020290882	-6.5627128e-06	0.00038902406	0.00026144864	-0.00013007878	0.00018319835	-0.00047247743	-9.648557e-05	-0.00026647962	0.00075181446	0.00035961485	0.00015902598	6.398611e-05	0.00023711855	-0.00023815337	-9.721371e-05	-0.00031201087	0.0002597698	-0.00067451026	0.00060437527	0.0005782505	0.00018849154	-0.00015710952	-0.00013694548	0.00027454138	-0.00024414048	0.00011989202	-2.862473e-06	0.00019191303	9.346706e-05	-0.00021054613	-4.974868e-05	-0.00019870474	4.4435285e-05	0.00022529416	-4.7204074e-05	0.0004923796	-0.00030515768	0.00048733645	-0.0005897717	-9.3298084e-05	0.0003272535	-0.00027583464	-0.00026063595	2.4222536e-05	-0.00014522983	0.00020892346	-3.103422e-05	-4.1599364e-05	0.00022862232	-0.0003248949	-0.0003200201	-7.403073e-05	0.00016260595	-0.00038092994	-0.0004674029	-0.00014955377	-0.00015314328	0.00016068293	-0.00057448336	-0.0005822727	-0.00012036846	-0.00063682627	-3.782619e-05	2.669806e-05	0.00096535514
Wavelet_16	0.00081126293	-0.00042758646	-0.0003598499	0.0002985322	0.00026670587	-0.00015664444	4.513215e-05	0.00031928593	-0.00013933676	0.00047747028	0.00036969336	-0.00046251985	-0.00035997742	-2.321785e-05	5.8840702e-05	0.00024087085	8.8337874e-05	8.174016e-05	0.00027730362	-9.33331e-05	-0.00017726661	7.458339e-05	0.00026234108	-7.8291625e-05	0.00021576602	4.9714872e-05	-0.00050771446	0.00024454237	0.000369192	1.1027674e-05	-6.0732986e-05	4.777105e-05	-0.00013382104	-0.00040919744	0.00033421468	0.00013564544	-8.7343484e-05	0.00022800424	-0.00024356577	-0.00029426784	2.1142017e-05	-1.51237655e-05	0.00041013627	-4.2884945e-05	-4.145932e-05	4.5458346e-05	-0.0005349573	0.0006339248	-0.00045833143	-0.0004345986	0.0003181066	-7.769782e-05	-0.00017689684	-0.0002472287	7.6340715e-05	0.00023779595	-0.0006148848	0.0003703947	0.00026932207	0.00018467853	5.9371094e-05	-0.00049749034	0.00026336443	-0.0001977243	-0.00020685335	0.00017343486	0.000334683	0.00063241966	1.2577578e-05	-0.0003767149	0.00033951996	-0.0009161267	-0.00024971194	0.0002259107	-6.4321204e-05	0.00048518638	0.00068709167	0.00016660478	0.00038261636	-0.0001095563	-0.00017872514	0.0006524117	-7.1066686e-05	0.000105655214	0.00067568757	0.00019318679	0.00021009134	0.0006247303	-0.0004346531	0.00011104431	-0.00039865356	0.00039527175	0.00010890439	0.00015889305	-0.00037697938	0.00023986887	-7.559851e-05	0.00011619825	0.00038345624	0.0010102667	0.00071106217	-1.2144484e-05	0.00033977826	-0.0004479331	-0.00016457083	-0.00068832247	0.00025889723	-0.00033823735	0.00050832436	7.831337e-05	-0.00036770644	-0.0001016998	0.00058349513	0.00014194973	9.169479e-06	-0.00030374026	0.00079845596	-6.5487235e-05	9.369266e-05	-0.00011533738	8.184058e-06	0.00059759105	-0.0002635929	0.00043260495	-0.00055491994	-6.940344e-05	0.00014080704	-9.17628e-05	0.00015004203	0.00019206478	-0.0005307403	-0.00033109647	2.6696177e-06	-0.00044597947	-0.00013344637	0.0001515403	0.00028246784	0.00033694593	-0.0003428756	-0.00017517633	-9.01478e-06	0.00041354727	-0.00025017522	0.00014714886	-0.00037436082	-0.00017494128	-7.76923e-05	-0.00036479076	0.00013008997	-0.00067735364	-0.0007283268	0.0003405734	-0.00029030564	0.00019759046	-0.00026250098	0.0005437503	0.0001665385	-0.0001333162	0.00082670007	0.00046180608	8.715281e-05	0.00024486647	-8.624482e-05	-0.00046065284	0.00024754024	0.00041289674	-0.00047822532	-0.00026347104	-2.078933e-05	-0.00040038404	-0.00018687885	-0.0002208161	0.00033967828	-0.0002451829	-0.0010054833	-0.00013039244	0.00043301118	6.56994e-05	-0.0004798905	0.00041901934	-0.00021859742	0.00020428035	-0.00023027946	-0.0007419935	0.0004457957	-0.00013765962	9.882338e-07	0.000173692	-0.00038843785	2.2789474e-05	0.0006297477	0.0007874604	4.421597e-05	0.00028088808	-2.553024e-05	-0.0004178105	0.0002464049	9.1878144e-05	-9.276573e-05	4.8673057e-05	9.423755e-05	6.765886e-05	-0.0001775881	3.166075e-05	-0.0004258776	-0.00012688547	5.304946e-05	0.00027734533	-0.00018070672	-0.00023861007	6.0968858e-05	-0.00034558293	0.0006732272	0.00022943834	0.0007570056	-0.00016776417	-2.436146e-05	0.00013242492	-0.00032524	-0.0005336458	-0.0004209646	-9.250099e-05	-0.0004652991	0.00037227458	0.00017025092	0.00047103112	-9.92036e-05	-0.00025068785	-1.5542408e-05	0.00033517057	-0.00032143632	-0.00017587087	0.00012566331	-0.0005078021	4.1090843e-05	0.00027462622	0.0007488016	6.313163e-05	0.00027335438	0.00019694939	-0.00016848114	0.0004281166	-0.00022116723	0.0009821551	0.0005263786	4.270108e-05	0.00034310148	0.00024957184	-0.00019772822	-0.000189631	-0.0001800497	0.00023429422	-0.00015835388	0.0001320704	0.00032199858	-0.00039191774	-1.5555246e-05	5.0398558e-05	0.0004814075	0.00023943876	-1.9265465e-06	0.0002616739	0.0002179427	0.00013978669	-0.00013439442	4.6301106e-05	-0.000557059	3.7683723e-05	4.999108e-05	-0.0001606439	0.00063361693	-0.0003772788	9.2681665e-05	-0.00044995733	-0.00031057774	0.00037474808	2.0252912e-05	-0.00037448303	-4.4629673e-05	0.0001425068	-8.275171e-05	-0.00015197755	0.00028581254	2.2644315e-06	-0.00029984748	-0.00023249802	0.00013638492	0.00031699415	-0.0003884203	-0.00033632715	0.0003587892	5.454333e-06	-3.647545e-05	-0.00074272545	-0.00088900235	-8.275959e-05	-0.000253693	4.7717695e-05	0.00023032929	0.0007417928
Wavelet_17	0.00063372595	-0.00040632967	-0.00019025498	-0.0002535994	0.0006976791	0.00014776965	0.00015482168	0.00043465887	-0.00015822347	0.0003089741	0.00010778231	-4.3041342e-05	-4.7823713e-05	1.237237e-05	-0.0002420828	0.00031005216	0.00024906304	0.00013929463	-0.00012031967	-4.168763e-05	-3.3322875e-05	0.00039453074	0.00035063265	7.9652586e-05	-0.00020314878	-8.465214e-05	-5.6205823e-05	0.00013296105	-9.870091e-05	-0.00021299659	0.000117638476	-1.6183145e-05	0.00025553998	-0.00030362894	0.0002722963	6.1658044e-05	0.00019167208	-0.00018374584	-0.00011145221	7.811359e-05	3.5172793e-06	5.392339e-05	0.00016145862	-0.00017226364	-0.00034609358	-1.7858581e-05	-0.0007302555	0.00025777158	-0.00015153359	6.970332e-05	1.0548538e-05	-0.00032996904	-0.000355496	-0.00028239685	-4.7967595e-05	-0.00047368355	-0.0006652463	0.00014629019	-0.000238048	-0.00034035518	-0.0003182478	4.5827648e-05	0.0003831811	0.00032613555	0.00016012105	7.086745e-05	0.0006870783	0.00022740592	0.00019279536	-0.0004661347	6.152544e-05	-0.00051605224	0.0001412993	0.00026452047	0.00020839821	0.00011346602	0.00045786513	0.00015634323	0.00013168415	-0.00021479822	7.180907e-05	-4.101688e-05	0.00047586797	-0.00014989503	0.00039484602	-7.5915465e-05	0.00038117706	-0.00024002205	-9.791022e-05	-0.00011286291	-0.00034696556	0.0003495943	0.00014073859	0.00018015035	-0.0003603066	0.00022059753	0.000102440456	0.0004980788	0.00029834436	0.00036003807	0.00014381685	3.6710622e-05	-0.00023462476	-0.0001650425	0.00023033719	-0.00060759287	-6.0773746e-05	6.2031206e-05	6.406543e-05	0.00021564611	-0.00032401874	0.00026743388	0.00048383683	0.0004899971	4.97261e-05	-0.00018405236	0.0006203273	-0.00017981997	0.00012619635	6.152518e-06	-0.00010532517	0.00035740391	-0.00031854265	0.00016682518	-0.00071248057	1.4456035e-05	-0.0006721938	0.00033412373	7.758745e-05	1.5905918e-05	-8.4085004e-05	8.8820714e-05	-1.7846029e-05	2.682662e-05	-0.0003036408	0.00043634867	0.000250741	0.0003777775	0.000118024065	-0.00010976933	-0.00014374373	0.00014624062	-4.4841086e-06	0.00023893768	-0.0002590867	0.0001458719	-9.696709e-05	-0.00022270143	-0.00019902892	-0.0007526403	-0.00054414396	0.00022623413	-0.0004662671	-4.8245904e-05	-0.00073568686	5.3999323e-05	-1.0348545e-05	0.00013896886	0.00013471785	0.00011235365	-0.00027435637	-4.404921e-05	0.00034818106	0.0001412957	6.9581685e-05	0.0006980945	-0.00043534744	-0.00025831957	6.4859814e-05	-0.00011148468	6.798641e-05	5.4906763e-05	-0.00015338811	-0.00014433023	-5.983837e-05	0.00015991891	0.000175477	-5.846204e-05	-0.00042956433	5.0756742e-05	-0.00039595994	0.00012045198	-0.00035163114	-0.0002128126	0.00057054055	0.00020631708	0.00023734491	-0.00015750977	-0.00020796317	-7.2500785e-05	0.00020825006	0.00020665459	-1.3652863e-05	-0.00036472647	-2.7773789e-05	0.00023243293	5.7631918e-05	-0.00016840169	7.56961e-05	-0.00027063082	0.00022850216	-0.000369071	-0.0005851429	-7.863475e-05	-0.0005592465	-0.0003471736	-0.00024168461	-0.00032215478	-2.1218104e-06	-2.257634e-05	-0.00017984559	-2.4006078e-05	0.00028582447	-3.9076513e-05	0.00023748013	0.00020640685	0.00018602304	0.00011588938	4.331262e-05	-0.00027403812	-0.00036377268	-6.524287e-06	-0.00045542239	-0.00016654123	-0.0001130775	0.00029564468	-5.7893572e-05	-0.000281563	-4.7103902e-05	0.00031023257	-0.0001375658	-0.00057379145	0.00025884545	-0.00049419404	-0.00034733827	-7.960621e-05	0.0005036165	-1.3744141e-05	0.00012320718	0.0003994638	6.787957e-05	3.4788274e-05	-0.00012953366	-2.3298988e-05	0.00010841058	0.0004686901	0.00019580752	-0.00014369359	-0.00020400737	7.291542e-05	-8.7946464e-05	0.00020283174	9.757389e-05	-0.00010498605	0.00020148116	-3.9893694e-05	-0.00028816197	-0.00036078086	-0.00030154665	0.00021973113	-0.00021080289	0.00018055565	6.0800918e-05	-6.6979715e-05	0.00015204892	-0.0004329036	-0.00025882287	7.2137744e-05	0.0004943459	0.0007324483	7.873868e-05	0.00017336624	0.00033650122	-6.5111903e-06	-0.00061652134	0.00018407044	-0.0003455148	-0.00033813532	0.00019414956	-0.00030445668	-0.000500229	-7.3064315e-05	0.0002327695	-0.0002819314	0.00043062298	0.00040371538	-0.00012651054	0.00013831975	-0.00019231674	-0.00011179404	-0.00027611415	0.00015077615	-7.7948665e-05	-0.000448419	-0.00026793018	-0.00034717267	-0.00033495395	-0.00013884218	0.0002637406	0.0005771305
Wavelet_18	0.00042252374	-0.0005197832	-0.0002554894	3.6109694e-05	0.00030515823	6.8381545e-05	0.00023647994	0.00011028394	-0.00016979917	0.0002135573	0.000120951765	-0.00043436114	0.0001247256	-0.0001820825	0.00040508423	8.57008e-05	0.00020418275	0.00013274325	7.7426645e-05	0.00028493427	-0.00031593067	0.000104604056	0.00038564115	-0.00030686287	0.00036520118	8.439207e-05	5.4379754e-05	6.002509e-06	9.312074e-05	0.00018095401	-3.230803e-05	6.622854e-05	8.937128e-05	-8.489676e-05	0.00011980264	-0.00014079295	-0.00014188165	-2.2855767e-05	-0.00020606113	0.00030384157	0.00013911819	9.801078e-05	3.8229366e-05	-0.0001601385	3.2203177e-06	0.00012190635	-0.0006608022	5.4075976e-05	-0.000343167	2.6568108e-05	0.00013508335	-0.00016524333	-0.0003822985	-0.00039783388	-0.000100833524	7.537618e-05	-0.0005441473	0.0002785783	0.00017003939	-0.00011374147	2.3885283e-05	-0.00015922693	-1.8292776e-05	-0.00018704798	-2.6545731e-05	-0.00020404188	0.0003976874	0.00022171409	0.00036825522	-0.00027062753	-0.00011863786	-0.0005181432	-0.00039745384	2.0732865e-05	-0.00020949588	0.000262969	0.00056940137	4.929998e-05	0.00030969654	8.71276e-05	0.00047076654	0.00012993831	0.00017626489	0.00016005989	0.0001629938	-0.00012348987	-0.00040204942	0.00015504226	-0.00049775565	7.122203e-05	-0.00040386242	0.00044079765	0.00038670097	9.1648515e-05	-0.000118628355	2.1423026e-05	-0.00036381872	-1.9337951e-05	0.00044353062	0.00011535151	-0.00016199477	-0.00017067435	0.00015682369	-0.00016331382	4.6783476e-05	-0.0002465325	-0.00015289955	-6.2338295e-05	0.00027853285	-8.707566e-05	3.433088e-05	1.0573051e-05	0.0001390117	0.0004842286	-0.00012044958	-4.324399e-05	0.0006416542	0.00048790473	-0.00018752307	5.4092934e-06	8.34318e-05	0.0004504663	-6.199035e-05	-0.00013424164	-0.0005805409	4.555557e-05	-0.000170474	0.00023723934	7.051335e-05	0.00020550253	-7.425071e-05	-0.00018962828	-0.00050276384	-0.0002617454	0.00017069108	3.1317464e-05	-3.8259244e-05	4.2020733e-05	-0.000119763725	-0.0004381067	0.00052127405	-7.499228e-05	-0.00027105518	-0.00011285469	-0.00042343835	-0.00010682689	4.4480632e-05	-0.00054971746	-5.34281e-05	-0.00020255231	-0.00020088447	-0.00013542495	-0.00039075085	-0.00022708053	-0.00033658353	0.00017216339	0.00021241413	-0.00035459574	0.00019151633	-8.686932e-06	-7.053478e-05	0.0003662578	-0.00017576976	-6.709187e-05	-4.3537915e-05	0.0003038164	-0.00022234446	-4.1856678e-05	-9.380172e-05	-0.00020683544	-8.39966e-05	-8.0994934e-05	0.00012238578	-5.825721e-05	1.2903932e-05	-0.00015502115	-6.54365e-05	0.0003900077	-9.6000054e-05	0.00014597237	-0.00018337207	0.00042670406	-0.00034847454	-0.00035034868	-2.4964467e-05	-0.00020053356	0.00029280657	0.00014603921	5.5718017e-05	4.339805e-05	0.00017752768	-8.4273335e-05	0.0003119258	-0.00040787904	-0.00017903288	-0.00040241188	0.0003072498	-2.9684737e-05	-0.00015295416	4.72639e-05	0.00031252968	-7.145871e-06	-1.9069663e-05	-0.00017414801	-2.1087471e-05	-8.45452e-06	-0.00019889507	0.0004157943	-0.0002151825	-0.0002353642	-0.0002530296	-4.2364838e-05	0.0006638118	-0.0002210352	0.000320886	-0.000115442235	0.0004555689	2.5581076e-06	0.00016021534	-0.00058326445	-0.00043371774	6.917259e-05	-0.00046135604	0.00041636734	8.3789455e-05	0.000105164996	-0.00014110097	0.00024319095	0.0001108055	3.798442e-05	-0.00037765608	-0.0004516497	3.891432e-05	-0.0002002867	-0.0002660921	8.1474565e-05	0.00028775676	6.7915746e-05	0.00023980835	0.000311579	-0.00012320788	5.3021005e-05	0.000112503185	0.00030990344	5.5227196e-05	4.9289984e-06	0.00040702595	-9.699697e-05	-0.0002322279	0.00030344946	0.00043712932	0.00043809685	-1.9585492e-05	0.00012528816	-0.000359637	-0.00041282867	-0.0005336176	0.00012476892	6.936897e-05	-3.8371018e-05	-7.724953e-06	0.00042606433	2.9561557e-05	-0.00016724064	0.00030261054	-0.00036825967	0.0001157399	9.881891e-05	5.215085e-05	1.0823466e-05	5.550302e-05	-3.0391362e-05	-7.145219e-05	-8.9830826e-07	-6.686616e-05	-6.949677e-05	-0.00016422682	-0.00031098563	-0.00026223774	-0.0002705512	-0.0001368464	-0.0004677034	0.000551845	0.00022978704	-0.00028176498	0.00030653307	2.7254067e-05	0.00027912107	-0.00029881776	5.335228e-05	0.00010762679	0.00015182034	-6.9592315e-05	-0.00010232848	-0.00032802284	-0.0003701396	-0.000273122	-0.00011221452	0.00017495919	0.00036222945
Wavelet_19	0.0007136707	-0.00040349294	-0.0003864045	-0.00043715382	0.0004871151	0.00011976843	0.0001582854	0.0004227332	-0.00017467025	0.00039190426	0.00023249195	5.8239122e-05	-2.542061e-05	5.8253692e-05	-0.00021174751	0.00025727373	0.00013875091	5.7496924e-05	-0.00020308998	1.0244408e-05	-4.5715093e-05	0.0003239633	0.00033182596	5.904554e-05	-0.00016766443	-0.00022468052	0.00010321778	2.1945292e-05	-6.80168e-05	-0.00010926201	1.877393e-05	-7.959485e-06	0.00031463502	-4.7086796e-05	0.00022489936	-0.00018260826	9.546531e-05	-0.00019381897	-9.9795754e-05	-4.0911156e-05	7.087714e-05	0.00010725639	0.00012265758	-0.00012690078	-0.0003543151	-0.00016150868	-0.00065608806	0.00017010243	-4.373065e-05	0.000113642986	2.7015238e-05	-0.00016351606	-0.0001558583	-0.00028646825	-0.00027574087	-0.0005324526	-0.00063431135	0.0001588686	-0.0002581463	-0.00038191228	-0.000466732	0.00012174995	0.0004939194	0.00036428514	0.00015531803	2.2372678e-05	0.0006126228	0.00025989045	0.00016920507	-0.00060978305	0.00014626319	-0.00051290303	0.000182204	4.9709797e-05	0.00022968251	-0.00010527789	0.0003819576	0.0002690444	8.566501e-05	-0.00017983261	0.00024323337	-8.2143386e-05	0.00051559694	-0.00013781045	0.00028494498	-9.8722834e-05	0.000361557	-0.00021266814	3.1350792e-06	-0.00013451788	-0.00017984025	0.00025636383	0.00015574	0.00015436967	-0.0003835612	7.4354684e-05	0.00017321901	0.0006279839	0.00026077288	0.00031226745	0.0001184256	-1.3250603e-05	-0.00018621287	-1.9850962e-05	0.000106775944	-0.00051699823	-9.025928e-05	6.406832e-05	0.00016984137	0.00020365455	-0.00021600956	0.0001876366	0.0005346115	0.00028967118	-1.5141687e-05	-0.00018337219	0.00058751705	-2.8355174e-05	0.00017161368	-1.6483798e-06	0.000120245226	0.0003450071	-0.00024593965	7.54286e-05	-0.00064109155	3.904265e-05	-0.00064150424	0.00018404431	-6.660398e-05	4.52457e-05	-0.00019217409	9.9919074e-05	4.5738e-05	0.00012658486	-0.00019959177	0.00032999937	0.00021576295	0.00053210737	0.00010560579	-0.00031455568	-0.00014130781	1.9349205e-05	-6.1740364e-05	0.00026975296	-0.00014220257	0.00022835404	-3.4948465e-05	-0.0003433433	-0.00018828119	-0.000635896	-0.0006260798	9.286406e-05	-0.000507336	-8.5167914e-05	-0.000728011	-1.655735e-05	-0.0002471223	0.00010418343	2.7560221e-05	6.710969e-05	-0.00014232068	0.0001012658	0.00032813492	-7.791189e-05	0.0001538565	0.000689926	-0.00047776592	-0.00026308483	-1.1173955e-05	7.657613e-05	-7.9352394e-05	0.00010783351	-0.00022346813	-4.265379e-05	8.45044e-06	0.0001422369	2.6985213e-05	8.091203e-06	-0.0004134293	-5.8832193e-05	-0.00032213278	0.00019231098	-0.00038903835	-0.00018344735	0.00057422754	7.57223e-05	0.0004029781	-0.00021767686	-9.938823e-05	-0.00016791598	0.00011715306	2.8167846e-05	-0.00016281	-0.00048318124	-0.00012491408	0.00025866818	7.5573815e-05	6.555961e-05	3.759893e-05	-0.00023237169	0.00013819544	-0.00033033968	-0.0006030795	1.2811617e-05	-0.0006937916	-0.0005145187	-0.00033112994	-0.0005866667	8.079161e-05	-0.00018099185	-0.00011129865	-1.8375045e-05	0.00026896317	1.0995502e-05	0.00025366148	0.00018566099	9.492554e-05	1.8802128e-05	-0.00016898203	-0.0002530902	-0.00032816906	7.290925e-05	-0.00040192012	-0.00022680417	-0.00033234397	0.00023705668	-9.198341e-06	-0.00013312769	-5.2309515e-05	0.00025125188	-0.00022995961	-0.0005517025	0.00022930666	-0.00041755647	-0.00032602722	-0.00021200636	0.0004416421	6.718055e-05	-8.9479014e-05	0.0004108736	-7.927221e-05	-0.00013445242	-0.00021442535	-2.6943113e-05	5.1857252e-05	0.00036768545	9.79829e-05	-0.00021882693	-0.00019606652	8.1712045e-05	-0.00018402003	7.4381795e-05	-2.2114516e-05	-8.8976245e-05	0.0002913954	0.00010721337	-0.0003956371	-0.00048297946	-0.00035956968	0.00016339228	-0.00011255154	0.00016317713	5.281869e-05	-8.063301e-05	4.9394446e-05	-0.00044652988	-0.00015410874	3.1821113e-05	0.0004112213	0.0007575241	1.1358998e-05	9.591292e-05	0.0004512275	-4.5111967e-05	-0.00040786847	0.00014220012	-0.00027537646	-0.00018724205	0.00026974868	-0.00048743995	-0.00030102837	-7.771852e-05	0.00017933517	-0.00014497309	0.00040672542	0.00048199348	-0.00025417592	1.6948286e-05	-0.00020223246	-0.0001872766	-0.00038791995	-2.244629e-05	-6.594106e-05	-0.0003223042	-0.00015087091	-0.00045761815	-0.00043711966	-9.859569e-05	0.00022865013	0.0005353459
Wavelet_20	0.00027256284	-0.00052929873	-0.00019993623	-3.1901582e-06	0.00017526775	-6.514825e-05	0.00012882987	0.00015825714	-9.169914e-05	0.00021007782	0.00015663721	-0.0003903334	3.9184753e-05	-0.00012699007	0.00059458346	0.00014323041	9.637391e-05	-4.1086823e-05	0.000100548175	0.00026509076	-0.00012162736	1.403419e-05	0.0003866555	-0.00030218888	0.00016571929	-0.00013744902	0.00014217266	-8.8213106e-05	8.050699e-05	0.00023539545	-0.00017925193	0.000120858145	4.33497e-05	4.4765868e-05	0.00024692444	-0.00024678957	-0.00019547936	-4.427804e-05	-0.00015633562	0.00013355208	0.00023891684	-6.625862e-05	8.162956e-05	-0.00012818984	-3.5913738e-05	0.00014570408	-0.00042721105	9.4143696e-05	-0.00017964895	9.864294e-05	-8.207866e-05	-1.0451397e-06	-0.0003181545	-0.0003104263	-0.00021837275	0.00012134528	-0.0003256478	0.0002760016	3.244548e-08	-0.000202082	1.9863317e-05	-0.000102502534	4.2184383e-05	-0.00019721471	-2.8264138e-05	-0.00036136134	0.00037777334	0.00035720458	0.00030127622	-0.00036312186	-0.00012655814	-0.00039240028	-0.00014669614	-0.00012743505	-0.000116633164	0.00026978183	0.0005269418	4.0819043e-05	0.00022548315	0.00024417578	0.00042480195	0.00021822579	0.000105387015	0.00023825375	-3.2398028e-05	-0.000118315285	-0.0004187653	0.0002308364	-0.0003884048	4.392448e-05	-0.00039125085	0.00041322986	0.00029672316	-1.2336886e-05	-7.6682245e-06	-0.00014319555	-0.00036252727	5.4069915e-06	0.00032915885	-6.344831e-05	-0.00014515262	-0.00021445	5.1766365e-05	-0.00019110777	0.00011183736	-0.00020654284	-5.556006e-05	-7.777658e-05	0.00017783091	-5.5823384e-05	0.00015948238	-0.00030046262	6.065579e-05	0.00038806276	1.1488443e-05	0.00010810222	0.0006655532	0.00043312914	-0.00019599938	-8.667691e-05	0.00025017816	0.00048465747	-4.170891e-05	-0.0001379629	-0.00049823406	-9.92776e-05	-0.00015679632	7.589342e-06	9.601551e-05	0.00015277404	-0.00021587047	-0.00028559586	-0.0005385962	-0.00018138121	0.0002027717	2.7657503e-05	-0.00011048252	0.00016641985	-9.4641764e-05	-0.00046490988	0.00047143066	-0.00012295753	-0.00015433159	-0.00018923962	-0.00028939324	-8.6695545e-05	-4.7763842e-05	-0.0005383506	6.3684524e-06	2.185972e-05	-0.00010317778	-0.00011264721	-0.00026579818	-0.00022510979	-0.00030127427	8.612639e-05	0.00017263718	-0.0004174319	0.00023381058	0.00015092475	4.5131954e-05	0.00041956163	-0.00022505596	-0.00010060643	0.0002704247	0.00010802404	-0.00027822555	-0.00011409906	-0.0001526984	-0.0001978808	-0.00022806629	6.699289e-06	9.083116e-05	9.377012e-06	-7.337651e-05	-0.00036526527	-0.00013919933	0.00031695174	-4.2764714e-05	0.000182776	1.6585393e-05	0.00045943566	-0.00026653195	-0.0004974471	-0.00015650482	-0.00017189539	0.00028625652	0.0001583551	1.2925012e-05	-2.8573784e-05	0.00014673885	-0.00018100246	6.4061285e-05	-0.000368347	-9.481899e-05	-0.00027299268	0.00014507837	5.9827685e-06	-0.00016449258	0.00012506939	0.00017078113	-6.986708e-06	-0.00017436537	-0.00011265155	-0.0002502743	-0.00013712388	-0.00041379005	0.0002949333	-0.00015500361	-0.00034748507	-0.00029783457	0.00013855603	0.0005358075	-0.00011624875	0.0002181955	-0.00033276918	0.00039089442	-0.00015116131	-4.056441e-05	-0.00057869597	-0.0002658327	0.00012501876	-0.0004935358	0.00020528148	6.548619e-05	-8.513563e-06	7.018866e-06	0.00028024663	4.734205e-05	5.230629e-05	-0.00030635294	-0.0004893165	0.000106466214	-0.00018257028	-0.0001815345	-0.00010003522	0.0002783032	3.371417e-05	0.0001174482	0.00024971366	-5.6174044e-06	3.574076e-05	6.394348e-05	0.0001895822	-0.00013743195	-6.0803766e-05	0.00036137886	7.29335e-05	-0.0003736777	0.00033164202	0.0005173007	0.00035643784	-0.000117436626	0.0001807663	-0.00016558419	-0.00017507501	-0.0006006435	8.699016e-05	-0.00011309367	-7.106678e-05	4.0422627e-05	0.00039089692	-0.000114550116	-0.0001457211	0.0004142278	-0.0004006984	0.00024292119	0.00013157238	2.7006212e-05	-0.00014615328	6.3051855e-05	-0.00013112283	2.1228228e-05	-6.508677e-05	6.243233e-05	-0.000101683785	-0.00017628481	-0.00018770144	-0.00021557213	-0.0002694436	-3.51354e-05	-0.0004430771	0.00025954426	0.00035763846	-0.00031077975	0.00015102283	-6.6733315e-05	0.00040646092	-0.00038901131	0.000114962924	0.00010695286	0.00014868936	6.556168e-05	-6.291938e-05	-0.00014354923	-0.00034829258	-0.0002689642	-1.1152029e-05	0.000122012425	0.00040877314
Wavelet_21	0.0003312916	-0.00034811287	0.00015028275	9.1820075e-05	0.0006053897	-0.00020061516	5.5994326e-05	0.00016055061	0.00012604322	-4.6639198e-05	0.00035191522	0.00034073606	0.00015668024	-0.0002787079	-0.00022565265	0.00030034798	0.00012382353	-0.00045796816	-0.00056135235	-0.00031771764	3.2881468e-05	0.0002903571	-2.3694689e-05	5.9825637e-05	-0.0005085637	-0.00033899205	0.000107535205	-0.00019355558	0.00020358241	-0.00021775017	0.0003000296	0.0005755864	0.0003983555	-0.00014772057	-6.0805607e-05	0.00018148456	0.0006230933	-5.4270567e-05	2.1020629e-05	4.73879e-05	-3.12518e-05	0.00016131939	-0.00018348159	5.926388e-05	0.0004809221	-0.0005845459	-0.00032763905	-1.597921e-05	0.0004549133	0.000287035	0.00047405146	-0.00031623463	-0.0006037341	-0.0007059331	-0.00015101799	-0.00049968227	-0.0002542769	0.00023914654	-0.00014301861	3.5279727e-06	0.00032904625	0.0001255178	0.0004872109	-9.271395e-05	-4.3022763e-05	0.00013427157	-0.00013025933	0.0005110622	0.00013164584	1.9198369e-05	-7.408105e-05	-0.0004441002	-0.00019396473	5.45551e-05	7.558589e-05	-3.0660107e-05	0.00038394408	0.0007237116	0.000121469944	-3.235805e-05	0.00041604735	1.7814102e-05	0.00048056224	0.00012864434	-4.4842916e-05	-9.313878e-05	0.0005551601	0.00028312227	-7.089712e-05	-0.00057803775	-0.0004998214	0.00033235556	0.0004601871	-0.00022143465	0.00023817309	-0.00034957562	0.000118572934	0.0002668759	-0.00036882385	0.0006517018	0.00019928358	-0.00014154844	-0.00015536275	-0.00034226355	0.00072496955	-0.00024294108	-0.00030260897	0.00045872567	0.00031403019	0.00047825425	7.821232e-05	6.3581315e-06	-6.641433e-06	-7.1663235e-05	5.5612665e-05	0.00053313014	0.00037116528	9.895039e-06	-0.00025040645	-0.0005050471	0.000436544	0.0005694396	0.00036817387	0.0009105891	-0.0006791135	-1.5893107e-05	-0.00040970664	0.00045568656	-0.00012490177	0.00013304531	-0.0003732872	-0.00011668882	9.599715e-05	-0.00017548726	-0.00014504613	0.00030022077	9.727456e-05	0.00042438082	0.00016647358	-0.0004658404	1.4017118e-05	0.00014140252	0.00017524428	0.00020423494	-0.00048339955	-2.432165e-05	-0.000222575	6.0578994e-05	-0.0002297306	-0.00058041414	-0.0004053286	-0.00046424277	1.5359692e-05	0.00019010488	-0.00030189147	-0.00012562977	-0.00010810567	0.00013507005	-8.089501e-05	-8.260293e-05	0.00012746909	-0.00016205758	0.00036218594	-9.168077e-05	4.837229e-05	0.0003798987	-0.0002514753	0.000162482	0.00019357166	-0.00045284073	-0.00020407382	-0.000357246	6.260124e-05	-0.00040367726	0.00015505184	0.00018232028	0.00036715443	-3.8771876e-05	4.023267e-05	0.00053979567	-0.00033719122	0.00023735076	-4.3482076e-05	-0.00024292893	0.00025718703	-0.0004437685	0.0005552917	0.0001506944	0.00039241137	0.00011908726	-0.00027771332	-0.000179835	0.00049913366	-0.00012268449	-0.00048126493	0.00017581854	0.00015446609	-6.489188e-05	-0.00016442742	-0.00040159494	-9.075501e-05	-0.00050652644	-0.00016495032	-9.386266e-06	-0.00026102172	8.349707e-05	-0.0008375102	-0.00026710882	0.00045090943	5.489557e-05	0.0004140728	-0.00043941708	-0.00047603427	3.3553326e-05	0.00044397914	0.0002551282	-0.000122042096	-2.2507194e-05	-0.00069437054	-1.6676076e-05	0.00014575511	0.00033509184	-0.00025193384	-0.00020591382	-0.00016763296	0.0002792568	-0.00019809323	-0.0001574094	-0.00016186331	0.00058056414	-0.00023223559	-0.00056824595	0.00016300938	-0.00064930186	-0.00053604745	-0.0006628058	0.0005959867	0.00036663306	-2.4960586e-05	-0.00022834078	-5.923979e-05	-0.00031610788	0.0005401974	-0.0002458729	4.5991797e-05	0.00075697014	0.00022969114	0.00057248777	-0.00010619443	-0.00024924858	-0.00037768952	-0.00025627218	-0.00043497767	-0.00019145837	0.00040417834	-0.00011521408	-0.00053764245	-0.00038540445	-0.00017875628	-0.00024073827	-4.6103443e-05	0.00069067895	0.00018142536	-8.867945e-05	0.0007345098	-1.0198708e-05	0.000119211734	-0.0002620955	0.0007210439	0.0008592086	3.0097526e-05	-3.5126286e-05	0.0006065493	-0.0006869533	-0.0005222679	0.00011364114	-2.4953159e-05	-9.22445e-05	0.00036166646	-0.0004414473	-0.00018545348	-8.311345e-05	-3.2366544e-05	-0.00027761355	0.00023066178	0.00093454873	-0.0003104114	2.9732497e-05	0.00046244008	-8.334009e-05	-0.0001340043	0.00043214113	-0.00045801167	-0.000978035	0.000110114976	3.9259372e-05	-1.590243e-05	1.9065465e-05	0.00018544437	0.00043671136
Wavelet_22	-0.0001884512	0.00021601438	-0.00012216165	-0.00010063858	0.0006427193	-0.00070445595	0.0010159266	-0.0011226562	-0.0003936829	0.00040540498	0.00056171115	-0.0006472577	0.0006425212	-0.00017174149	0.00072384014	0.00015540169	-5.432556e-05	0.00049205264	0.00046805214	-0.00044067018	-0.00011943447	0.00030932765	-0.00037111025	-0.00068141875	0.00036560526	-0.00019059889	-0.00021607541	-0.00046705714	-0.000993432	0.0001518673	-0.00040519485	-0.00028683103	0.00043496036	0.00016524812	8.176147e-05	-0.00038958853	1.2580131e-05	0.00043860613	-0.0003679374	-0.00031210846	0.00022006225	0.0002898319	0.000636858	0.00054063584	0.0005061499	-0.0006246648	8.958e-05	0.00017429655	0.0004883416	0.0001934712	0.000137617	-0.0012752363	0.00052105915	-0.00037992434	-0.00011887436	0.0001951441	-0.0011141581	0.00016464747	0.00064982567	0.0012188795	0.00012713339	0.00023450993	0.00015037884	-0.00018174147	0.0010587062	0.00019640382	-0.00019897598	-0.00022659615	0.00017281371	-0.0004700235	0.0007738276	-0.0009755998	4.3935415e-05	-0.0002024471	0.0007933169	0.00067916623	0.0005004755	0.00057335594	0.00015241782	0.0002885911	0.00026401604	0.00059312885	0.0011644682	1.9058216e-05	7.754789e-05	-0.0006981296	4.6562327e-05	0.00043192517	-8.729127e-05	0.0007468749	-0.0002510151	-0.00095685624	0.0002912843	-0.00012431067	0.0009403841	0.00024623837	-0.00032447293	-0.0007535089	-0.0009989042	-0.00035121047	0.00018870855	-3.8562168e-05	4.680893e-05	0.00019934658	-0.00027152992	0.0002640105	8.290075e-05	0.00044863168	0.00061886146	0.00034742628	0.00043819856	0.0007141081	-0.00061269663	-0.00013820695	0.0009763113	0.0004855524	-0.0006363445	0.00093688624	-0.00030496492	-0.0006351638	0.00037635677	0.0009819731	-0.00036897755	1.5389096e-05	-3.487221e-06	0.00081025035	0.00062968425	-0.000102504775	0.00049881527	0.00038506088	0.0003038684	9.216062e-05	7.201537e-05	-0.00029334248	0.00095225946	-0.0009616733	0.00029658354	-0.0006114638	-0.0005450839	-0.00052211597	-0.0002981148	3.5439716e-05	7.0416136e-06	-0.00044441214	0.00046050697	-0.00033450066	-0.00039448636	-0.00032236832	-0.00040589893	0.00086056534	-0.0012157563	8.3970575e-05	-0.0002585709	-0.00037664874	0.0001577938	0.00063135644	-0.00027968673	-0.00033220914	-0.00040526735	0.0010454522	-0.00088914315	0.00077763974	-0.0007459452	-0.0001874881	0.00042550103	-0.0003637783	7.994331e-05	0.0008355021	0.000423476	-0.00012677175	0.00035832007	-0.0010722494	0.0007955705	0.0010494372	-3.3084198e-05	0.00014530928	8.731915e-05	-0.0006472195	0.0011247048	-0.0003705771	-0.00017336292	0.00061003055	0.0011760195	0.0008814132	-0.0008188303	-0.0005599248	0.0009884619	-0.00027561595	0.0002714224	-0.0005900381	0.00023570812	0.00038723563	0.0002830989	-0.0007260907	-0.00061979797	0.0006095812	0.00064196606	-0.00022537443	0.0003104557	0.0002504206	-0.0004099518	0.0008281677	0.0004172765	0.0001916002	-0.00017701816	0.0009963763	0.0002835367	0.0009957257	0.00020982457	-0.0012205861	-0.0010683956	0.00053711847	0.00021372661	5.484295e-05	0.00068978145	6.160468e-05	2.7100905e-05	-0.00012960377	-0.0008828955	-0.00044484212	0.000586022	-0.00026243724	-0.0010397034	0.00043167933	0.00068225805	-0.00036497225	-0.00040284832	0.00064776296	0.00043002414	-0.0005207409	0.00045999675	0.000106002706	-0.00019456225	-0.0014586393	0.00032585204	-0.00063430937	-0.0003631548	0.0002137433	9.5667354e-05	0.0009620148	-0.00015849494	0.00034489552	0.00016480329	0.00032594203	-0.0002460488	0.0013359971	-3.5374876e-05	-0.00025215998	0.00021495426	0.00023928344	0.0008545529	-0.00075329305	0.00032715942	-1.2061404e-06	-0.00089136814	-0.00073519995	-4.6350335e-05	0.000115841125	-0.00028561603	-0.0006876872	0.00035157576	0.0010499328	-0.00013695197	0.00050927134	0.0003986718	0.0006986349	-0.0002130822	0.00044277823	0.00015947751	-0.00017208183	0.000371361	0.00066478533	-6.449552e-05	-0.0014793099	4.352311e-05	-8.2414736e-05	-0.00034387864	0.0005594616	0.0006626793	-0.0011713385	-0.00044484847	-0.0001943239	0.00011139266	-0.000962767	-0.0006796583	-0.00047668754	8.921962e-05	-0.0006103337	-0.00055670115	-0.000677105	0.00046490048	-0.00042350148	0.00026464442	-0.00070502347	-0.00029588366	1.8046392e-05	0.00012021192	-0.001066044	-0.00066504907	-2.3482324e-05
