	0	1	2	3	4	5	6	7	8	9	10	11	12	13	14	15	16	17	18	19	20	21	22	23	24	25	26	27	28	29	30	31	32	33	34	35	36	37	38	39	40	41	42	43	44	45	46	47	48	49	50	51	52	53	54	55	56	57	58	59	60	61	62	63	64	65	66	67	68	69	70	71	72	73	74	75	76	77	78	79	80	81	82	83	84	85	86	87	88	89	90	91	92	93	94	95	96	97	98	99	100	101	102	103	104	105	106	107	108	109	110	111	112	113	114	115	116	117	118	119	120	121	122	123	124	125	126	127	128	129	130	131	132	133	134	135	136	137	138	139	140	141	142	143	144	145	146	147	148	149	150	151	152	153	154	155	156	157	158	159	160	161	162	163	164	165	166	167	168	169	170	171	172	173	174	175	176	177	178	179	180	181	182	183	184	185	186	187	188	189	190	191	192	193	194	195	196	197	198	199	200	201	202	203	204	205	206	207	208	209	210	211	212	213	214	215	216	217	218	219	220	221	222	223	224	225	226	227	228	229	230	231	232	233	234	235	236	237	238	239	240	241	242	243	244	245	246	247	248	249	250	251	252	253	254	255	256	257	258	259	260	261	262	263	264	265	266	267	268	269	270	271	272	273	274	275	276	277	278	279	280	281	282	283	284	285	286	287	288	289	290	291	292	293	294	295	296	297	298	299
Geometry.Trigonometry.0	-0.10852654	0.324559	0.27517262	0.22621657	0.004275256	-0.23626624	0.24666719	-0.11259527	-0.033248745	0.3160887	0.20327808	-0.010928521	0.15901785	0.2352144	0.042118922	0.44310802	0.19562052	-0.2568566	0.046891633	0.3160526	0.039250102	-0.22881912	-0.09221153	-0.0016509687	0.03349246	-0.20444584	-0.10235518	0.22601514	0.13852942	0.3024456	-0.0725257	-0.28047103	0.46525213	0.350191	0.36566502	-0.040709816	-0.15515086	-0.015914757	-0.26201713	0.017752575	0.003489314	-0.36827144	-0.26246905	0.052419357	-0.48929003	-0.082224265	0.18327247	-0.18099566	0.20419927	0.09650223	-0.48134175	-0.066985026	0.31203175	-0.10834858	-0.08896639	0.3669655	0.44318667	0.09663869	-0.04781251	0.07713017	-0.085126035	0.046746496	0.15882221	0.06612889	-0.25769338	-0.3584298	0.098442316	0.02885704	0.06026871	-0.24052942	-0.03593528	-0.15452015	0.16251177	-0.0915369	0.3477144	-0.27197772	0.23761949	-0.36506388	-0.3155362	0.17136589	-0.28465614	0.13248259	0.030305486	0.05384209	0.039994	0.23696427	0.047575522	-0.2844285	0.1912527	0.10549739	-0.023175728	0.14490868	0.24186723	-0.19821967	0.13017018	0.060865212	0.15654758	-0.018696165	0.12053976	-0.11791219	0.1432809	-0.24031566	0.016964613	0.17106394	-0.21169695	0.29914492	0.24715608	-0.0951015	0.07978467	-0.085564196	0.22758351	-0.4289149	0.053020995	-0.2720006	-0.3378959	-0.50109607	-0.20249927	-0.30963355	-0.09827935	-0.20383273	-0.51526713	-0.2459468	-0.17877685	0.10503664	0.12876976	-0.042937446	0.18011443	-0.10688776	0.29939315	-0.08376371	0.30995762	-0.2905594	0.39118424	0.053652313	-0.14689323	-0.27978125	0.12220504	-0.10094116	0.02226095	0.1498275	0.094168045	-0.37234706	-0.26582754	0.15615137	0.20029955	-0.064072795	0.31916893	-0.006465413	0.3636079	0.18048413	0.33989194	-0.21893881	-0.23693018	-0.55202466	-0.12976624	0.14536592	0.14897437	0.25497538	0.065915875	0.06730976	-0.13829906	-0.062066793	-0.21622308	0.21509235	-0.26555362	-0.018232258	0.12325821	-0.2887271	-0.11023622	-0.10821687	-0.036919747	0.050421983	0.03504851	-0.2074584	-0.37490812	0.07906537	-0.05504065	-0.28928766	0.06712662	-0.045941085	-0.18973763	-0.07326067	-0.13778248	0.06824193	-0.03742431	-0.42572972	0.09308542	0.38829997	0.06304712	-0.31621078	0.5166322	-0.076660044	0.5510025	-0.2146518	-0.2057244	0.08950805	-0.08793551	-0.096077144	-0.4534881	0.24441881	0.10696763	0.28779176	0.17401819	-0.09047747	0.049355485	-0.26938865	-0.5152889	-0.25182548	-0.015561213	-0.31507644	0.010838451	0.4150981	0.16802159	-0.08660521	0.39754018	0.5571724	0.19742845	-0.3814978	0.1621661	-0.283855	0.03421513	0.110580795	-0.16852205	0.16013601	0.094306014	0.042099807	-0.25555432	-0.09844634	-0.5038437	-0.03072593	-0.4683178	-0.12717868	0.073319316	-0.1584152	0.20779383	-0.024752125	-0.003939182	-0.31335524	-0.37153447	-0.103778474	0.26165897	-0.049970895	-0.14939912	-0.09991989	0.03208021	-0.08430119	0.27886313	-0.048994385	0.048107628	0.19546472	0.15272431	0.1994595	0.37382963	0.104887195	0.53618073	0.037552234	-0.16457075	-0.36355096	-0.010170308	0.1321146	-0.379677	-0.15076302	-0.44345456	-0.48690307	-0.02116364	0.14568771	0.20230824	0.0019874754	0.2050806	0.069421776	-0.28043443	-0.11198825	0.19097732	-0.19332266	-0.08139385	0.14006335	0.14343502	-0.20536257	0.098642275	-0.2901859	0.091437005	0.34509256	0.39056978	0.004706125	0.036549658	0.1916595	0.03581079	0.17901449	0.069820605	0.7939805	0.052194625	0.16694455	0.21763048	-0.23807839	0.05815486	-0.36843958	0.10502248	0.13684772	-0.032464836	0.037690792
Geometry.Trigonometry.1	-0.07533251	0.2935948	0.2235791	0.1893009	0.07324868	-0.23306167	0.21311952	-0.115796484	-0.0029009685	0.2418783	0.111444026	-0.05704221	0.23624288	0.2282237	0.05818792	0.33785293	0.1032566	-0.2228426	0.04055727	0.38206333	0.05156498	-0.22002894	-0.1144362	-0.009945133	-0.025434144	-0.22747421	-0.12937632	0.24530682	0.1369072	0.33862254	-0.11113964	-0.23703708	0.48441485	0.26564053	0.32211944	-0.021600151	-0.10738691	0.015709173	-0.24850665	0.05563833	-0.06987731	-0.38129666	-0.24107885	0.002487132	-0.43832263	-0.085481085	0.25174478	-0.14904773	0.18740326	0.12388615	-0.46816042	-0.059093345	0.28636056	-0.062106393	-0.09418137	0.3178424	0.39790934	-0.005173572	-0.05438738	0.06947579	-0.11206152	0.0051999725	0.094041236	0.07061852	-0.3268646	-0.4729625	0.09409265	0.085152686	0.083146274	-0.22759995	-0.044395406	-0.1492182	0.09694456	-0.00854662	0.33055472	-0.285954	0.22439374	-0.37473983	-0.2349288	0.17153174	-0.26768348	0.09865465	-0.028092993	-0.002196273	0.089963414	0.23021984	0.004612891	-0.28427672	0.20136096	0.07994192	-0.0345954	0.07475435	0.20460145	-0.15550475	0.18469667	0.038712036	0.16930822	0.024443163	0.12069957	-0.076473825	0.11286693	-0.23327653	0.030415595	0.15756667	-0.2709591	0.28821757	0.23819914	-0.1361503	0.053586114	-0.076754324	0.29030237	-0.40264398	0.04406548	-0.24680766	-0.29995468	-0.46967104	-0.2287468	-0.2833191	-0.06833658	-0.11885862	-0.43940935	-0.2404256	-0.2009421	0.05584706	0.08759859	-0.11094334	0.18226151	-0.12858853	0.39122126	-0.09851749	0.27083236	-0.277208	0.34769535	-0.0044417214	-0.08642382	-0.2004911	0.10869647	-0.116242215	0.044377994	0.11803344	0.021763092	-0.409295	-0.35818267	0.17230529	0.18598816	-0.07620468	0.31001443	0.04497919	0.3254834	0.18823285	0.37743208	-0.09347531	-0.19122708	-0.56917346	-0.1516556	0.18154497	0.15200596	0.28301957	0.079282604	0.0074711507	-0.11468063	-0.1107981	-0.2391861	0.24101321	-0.2072365	-0.105854414	0.12751947	-0.17473474	-0.073867366	-0.16133653	-0.036247957	-0.021322101	0.078769796	-0.19448131	-0.32125363	0.035818893	-0.091562994	-0.25287187	0.112644084	-0.056668375	-0.15913838	-0.10809327	-0.107848465	0.046392318	0.008707758	-0.38174972	-0.011627879	0.3273558	0.06369479	-0.36196488	0.46090388	-0.106046945	0.5616419	-0.18063901	-0.19787157	0.04795488	-0.08356877	-0.09645175	-0.43718606	0.24329484	0.1473561	0.33733323	0.13276362	-0.12522192	0.021155689	-0.31547126	-0.51275444	-0.15866472	-0.0871444	-0.20920785	0.08796621	0.30971518	0.15557788	-0.0664675	0.3510425	0.5402857	0.20009232	-0.3129445	0.17370954	-0.29816878	0.083559856	0.13108368	-0.11384367	0.25605503	0.0043519475	0.06301751	-0.26165026	-0.113936394	-0.43128964	-0.0745775	-0.43789494	-0.10794406	0.037501782	-0.117760256	0.22955382	0.089017384	-0.018946959	-0.26638696	-0.29212973	-0.15194203	0.2490628	-0.13458683	-0.11707708	-0.063928746	0.04939214	-0.116854556	0.35685986	-0.035528656	0.028874988	0.21567704	0.15753005	0.20413971	0.39448142	0.038198296	0.58503115	-0.0012958186	-0.14761268	-0.38348657	0.019093812	0.16732965	-0.41468623	-0.109402575	-0.4484914	-0.5175972	0.0723228	0.19957182	0.185707	-0.025152896	0.19961081	0.13299705	-0.29031762	-0.1670085	0.20821533	-0.17580967	-0.0743712	0.13752793	0.14519344	-0.18815342	0.12252945	-0.26942727	0.07099063	0.31274223	0.31605318	0.025903655	0.064882234	0.18910924	0.04674628	0.22691834	0.039594363	0.82656634	0.0022069023	0.16447906	0.21878327	-0.2483893	0.061254527	-0.36806145	0.13738292	0.15020283	-0.007025474	0.07053049
Geometry.Trigonometry.2	-0.06344145	0.20220672	0.2620296	0.19476092	0.06198908	-0.21312262	0.24088562	-0.06445834	-0.001618664	0.18447407	0.08040096	-0.072861075	0.30763257	0.1798386	0.121113054	0.19206262	0.04218043	-0.22524461	0.099812835	0.37760025	0.066316955	-0.13929683	-0.10280875	-0.042411767	-0.05565051	-0.24900866	-0.049757466	0.30095637	0.09497985	0.30683357	-0.105313055	-0.19057167	0.52902776	0.30402985	0.29019827	0.01744098	-0.15371352	0.0045151263	-0.26640633	0.068069115	-0.14160295	-0.35280454	-0.122898236	-0.0017230058	-0.4397074	-0.22881024	0.31105277	-0.23627271	0.20777546	0.061378565	-0.51129997	0.017937975	0.2334486	0.0022124304	-0.054941468	0.33441424	0.33743492	-0.202676	0.090658486	-0.00837869	-0.09057433	0.051795717	0.06311767	0.08505954	-0.24716331	-0.6089243	0.13598497	0.1085585	0.0117514795	-0.2833468	0.091989145	-0.16627674	-0.009741696	0.07310686	0.40892282	-0.26234993	0.23036481	-0.2819102	-0.24493521	0.1845655	-0.20663035	0.10814815	-0.09723569	-0.021495115	0.110409975	0.27497828	-0.19093442	-0.2136217	0.2052913	-0.046427354	0.038547605	0.09183061	0.19729275	-0.21104237	0.2263831	-0.06106682	0.11732894	-0.028205758	0.08851337	-0.109356426	0.18239066	-0.26327142	0.14591667	0.2308531	-0.19348869	0.19102389	0.1841515	-0.21069734	0.0575927	-0.18280444	0.3818664	-0.5188861	-0.00011297977	-0.26456013	-0.28581116	-0.5084785	-0.18242978	-0.15200713	-0.048762217	-0.120378345	-0.4008515	-0.30797818	-0.2355336	0.041940205	0.028321445	-0.16530621	0.11942233	-0.26059982	0.2682796	-0.11645046	0.29102463	-0.25132307	0.30146912	-0.12121443	-0.18197376	-0.16604821	0.10025609	0.08665667	0.08995428	0.26874635	0.041273568	-0.42326155	-0.53209484	0.10222535	0.16199186	-0.02230083	0.3403289	-0.0076586655	0.32651752	0.3652355	0.4827934	0.036859974	-0.1855753	-0.7218327	-0.16971786	0.272867	0.005582262	0.32729265	0.055919766	0.05890029	0.018689623	-0.1364606	-0.2974037	0.1677489	-0.25261647	-0.06962866	0.11252773	-0.18582869	-0.06736255	-0.20310967	-0.0029088603	-0.021501524	0.21020474	-0.07375535	-0.24996486	0.14384735	-0.16730238	-0.2999834	0.09492266	-0.069680065	-0.124850824	-0.109016694	-0.087907776	0.11653597	0.058326874	-0.29691455	0.026984844	0.36652815	0.029831326	-0.31076968	0.42365646	-0.070132464	0.5476001	-0.18742283	-0.35685173	0.0140018035	-0.20057808	-0.029774794	-0.42395553	0.054296467	0.19710086	0.3722912	0.08280424	-0.1424123	0.006829911	-0.28408542	-0.52590585	-0.24602729	-0.24025393	-0.25710064	0.09496723	0.33798286	0.15687262	-0.010139155	0.21573603	0.5169415	0.20140246	-0.24607946	0.29486832	-0.39769998	0.16260149	-0.012018266	-0.18215558	0.27824277	-0.07950323	0.036869682	-0.2965435	-0.013548025	-0.3934669	-0.01724044	-0.38815057	-0.10546595	-0.034194257	-0.15008168	0.34689987	0.08324384	0.01019601	-0.187884	-0.2743424	-0.23447733	0.41549978	-0.14852846	-0.059869424	-0.046901993	0.05051565	-0.07945235	0.3783994	-0.08180324	0.04396195	0.17880924	0.3210045	0.21167272	0.40891355	0.022379147	0.66891515	0.05395911	-0.07619753	-0.4978374	0.09489753	0.15101351	-0.5394313	-0.24470665	-0.45303687	-0.52717686	0.1780983	0.15748177	0.1664691	-0.18462625	0.20873086	0.0335194	-0.3482814	-0.16958156	0.17801139	-0.21441576	-0.10919535	0.15335192	0.15940377	-0.27577654	0.08048286	-0.33207265	-0.017623706	0.2533537	0.19353436	0.09870519	0.06462269	0.044107243	0.13752224	0.26036954	0.023477007	0.82166123	-0.06267031	0.13840686	0.17724931	-0.32277524	0.18251747	-0.3383892	0.1556553	0.12724912	-0.025090916	0.088978395
Geometry.Trigonometry.3	-0.111020066	0.06611857	0.280431	0.09794579	0.075840965	-0.165892	0.24902636	-0.121399045	-0.018817425	0.1381216	0.25495458	-0.036802467	0.2578892	0.23669921	0.08773759	0.25203094	0.10996339	-0.1650043	0.14854148	0.34764898	0.11790187	-0.070182525	-0.035489295	-0.027670098	-0.04009843	-0.16556488	0.04338738	0.40517852	0.06912716	0.31673	-0.008515854	-0.22105342	0.4942529	0.2346048	0.2904538	0.07713377	-0.17800638	-0.0077474043	-0.3039685	-0.02519191	-0.10086351	-0.31340453	-0.089593366	-0.042481586	-0.54050857	-0.24317439	0.3028992	-0.3286753	0.22335441	0.024609838	-0.41423455	0.03230711	0.30759528	0.07947689	0.0057582115	0.42366776	0.4198934	-0.20286623	0.03698931	0.062815	-0.018258614	0.08166092	0.06781864	0.1769832	-0.20453879	-0.7656939	0.11991821	0.041856118	-0.025248624	-0.28688264	0.11248669	-0.24809949	0.096366994	-0.017688511	0.5059661	-0.34058762	0.10808639	-0.22131802	-0.23643541	0.029619826	-0.25460672	0.19441925	-0.08427072	0.014372789	0.080599554	0.36776555	-0.2327923	-0.17056896	0.2792856	-0.101669945	0.05178986	0.1881175	0.14817682	-0.27993816	0.18970996	-0.096396655	0.100305095	0.05945134	0.056064215	-0.14227173	0.14797491	-0.32492965	0.079546854	0.20914981	-0.13978195	0.15255752	0.16504136	-0.24502246	0.072146356	-0.15579173	0.42399174	-0.5880941	-0.102554746	-0.32961106	-0.30111873	-0.59295833	-0.33396325	-0.19155103	-0.12005251	-0.062460847	-0.41297898	-0.43801272	-0.19175035	0.11137971	-0.087993614	-0.01504011	0.22489254	-0.1851365	0.25898245	-0.08977403	0.27948296	-0.1836148	0.38528594	-0.05165759	-0.19878154	-0.2686805	0.1709022	0.038402993	0.11800493	0.35902974	0.0050283372	-0.3937708	-0.51566005	0.055521086	0.16033734	-0.09591756	0.43704587	-0.06227639	0.4185156	0.40869188	0.4858207	0.032004245	-0.3125843	-0.6954877	-0.044301316	0.16777228	0.010927268	0.40653488	0.134798	-0.0022651406	0.2778708	-0.1390342	-0.2813043	0.091890104	-0.14907485	-0.07682498	0.06960484	-0.17368689	-0.197074	-0.32193804	-0.07321887	-0.015752874	0.22448118	-0.017705666	-0.20317727	0.21398866	-0.13871254	-0.23894313	0.09039106	-0.11981179	-0.09635834	-0.21349895	-0.023508422	-0.06474319	0.041459307	-0.30040509	0.05187656	0.3247042	0.017981926	-0.3397503	0.5331023	-0.09701479	0.50295717	-0.13204974	-0.45251757	0.06085711	-0.30324477	-0.007148165	-0.38643277	-0.020760654	0.22084004	0.44612148	0.04309876	-0.20970266	-0.07500532	-0.25001028	-0.5578563	-0.28713858	-0.3293571	-0.34119642	0.069639295	0.2519911	0.20874813	0.07111818	0.21117419	0.5416673	0.18658973	-0.25677764	0.3686849	-0.44014525	0.12289716	-0.013783294	-0.10569122	0.34211665	-0.10689458	-0.03438866	-0.41033876	-0.0406555	-0.39274916	0.018545931	-0.38137254	-0.032481685	-0.011464938	-0.16425382	0.3611148	0.080690496	0.01845704	-0.23965012	-0.3992568	-0.3046442	0.45523718	-0.1523962	-0.09408528	0.012061238	-0.015701037	-0.15111417	0.38921344	-0.119387016	0.029946957	0.093567066	0.39710793	0.34553924	0.39452046	0.06623858	0.6542552	0.038051315	-0.06295928	-0.62128913	-0.01376293	0.09647562	-0.6044576	-0.32184708	-0.5217937	-0.4965557	0.08929008	0.09957653	0.21501802	-0.20055512	0.20641449	-0.07064178	-0.38914514	-0.12055964	0.16661793	-0.11559534	-0.028064467	0.1849891	0.19818093	-0.2801088	0.110726014	-0.35145795	-0.043398876	0.30561182	0.106153734	0.23315944	0.08201218	0.00016138206	0.04677381	0.18262714	0.007651325	0.90264344	-0.25015578	0.10330254	0.10216536	-0.27664772	0.17921874	-0.40238413	0.099176176	0.20310992	-0.05104113	0.14733085
Geometry.Trigonometry.4	-0.08974826	0.04583524	0.24740131	0.07476958	0.119803056	-0.16343604	0.22741264	-0.1228346	2.3814126e-05	0.09052476	0.19611426	-0.06657914	0.30731285	0.23251489	0.0984384	0.18511632	0.050995104	-0.14293173	0.14435999	0.38988495	0.12549616	-0.06427411	-0.049814165	-0.032884546	-0.07736847	-0.18035474	0.02642461	0.41744068	0.0676899	0.339898	-0.033720892	-0.19318174	0.5066273	0.18095039	0.26259694	0.08957962	-0.14734015	0.011872847	-0.29552293	-0.0011649473	-0.14754061	-0.32257906	-0.07616827	-0.073734015	-0.50862247	-0.24579865	0.34690532	-0.3087613	0.2120377	0.04249172	-0.40629172	0.037347045	0.29124773	0.108833425	0.0023452356	0.3928744	0.3914698	-0.26744014	0.03281979	0.058267348	-0.035888746	0.05435961	0.026547972	0.18029097	-0.2488264	-0.83922267	0.117710985	0.07754849	-0.010797175	-0.27871063	0.10706398	-0.2440255	0.054764193	0.035545114	0.49574292	-0.35007155	0.09956341	-0.22730388	-0.18500322	0.029533837	-0.24434392	0.17269175	-0.121532336	-0.021143831	0.11243737	0.36308366	-0.26082176	-0.17115855	0.2858132	-0.11719886	0.04509266	0.14316745	0.124503784	-0.25325975	0.2241587	-0.11129146	0.10844594	0.08710057	0.056679886	-0.115981065	0.1287964	-0.3207634	0.0877867	0.2010306	-0.17784272	0.14575341	0.15958145	-0.27114114	0.055912454	-0.15044872	0.46366405	-0.57159317	-0.10835352	-0.31351134	-0.27669114	-0.5733554	-0.35104296	-0.17517243	-0.10102668	-0.008469245	-0.36497736	-0.43450764	-0.20597634	0.07957379	-0.1149557	-0.059139438	0.22626424	-0.1996873	0.31859457	-0.099405	0.25384563	-0.17474683	0.35788482	-0.08917943	-0.15984337	-0.21816424	0.1625435	0.028139153	0.13175708	0.33882844	-0.041680966	-0.41736123	-0.57470256	0.066456676	0.15165341	-0.103448614	0.4316781	-0.029235022	0.39372534	0.41394112	0.509654	0.11133451	-0.28323522	-0.7063927	-0.05791052	0.19121848	0.012636132	0.4247367	0.14346819	-0.04061716	0.29258478	-0.17035961	-0.2964427	0.108314686	-0.1118769	-0.13302928	0.07239279	-0.10113473	-0.17363423	-0.35626638	-0.072368614	-0.061970968	0.2522429	-0.009616036	-0.16887365	0.18592198	-0.16214634	-0.21534662	0.11970115	-0.12647262	-0.07642589	-0.23548208	-0.0047836383	-0.079175755	0.07111489	-0.27261382	-0.015703188	0.28607142	0.018144475	-0.36919972	0.4978387	-0.11658088	0.5095659	-0.11049877	-0.44772136	0.03467006	-0.30091602	-0.007319445	-0.37596488	-0.021853734	0.24619086	0.4779992	0.016579108	-0.23159917	-0.09295987	-0.2800222	-0.5569071	-0.22768378	-0.37464905	-0.2734987	0.11935981	0.1845948	0.20075606	0.08416925	0.1814808	0.531073	0.18875818	-0.21311066	0.3754772	-0.44909403	0.15388341	-0.0008664073	-0.07139897	0.40332696	-0.1641093	-0.020619292	-0.41497993	-0.05107241	-0.3466087	-0.009124193	-0.36173475	-0.019666234	-0.033757344	-0.13785437	0.37487343	0.15346792	0.008607395	-0.20953736	-0.34838852	-0.3355057	0.44734097	-0.20717296	-0.07348542	0.03499841	-0.004566786	-0.17208326	0.43870172	-0.11097917	0.017581772	0.10702661	0.4007445	0.34879604	0.40742695	0.023195593	0.685582	0.012968658	-0.052324884	-0.63471776	0.0047622644	0.1188921	-0.6270635	-0.29513556	-0.5248329	-0.5155655	0.14834815	0.13412221	0.20447567	-0.21770014	0.20321284	-0.029819258	-0.3957769	-0.15566391	0.17757982	-0.10488419	-0.023980672	0.18301815	0.19913703	-0.26880944	0.12578894	-0.33796653	-0.05598367	0.28519022	0.058662847	0.24658023	0.10061261	-0.0013421351	0.053077515	0.21268342	-0.012092478	0.9242006	-0.28192526	0.10208613	0.10259674	-0.28249064	0.18206993	-0.4023483	0.119560376	0.2115278	-0.034642357	0.16891952
Geometry.Trigonometry.5	-0.10529763	-0.0021525316	0.24192007	0.05716259	0.124478504	-0.16459034	0.22872953	-0.10594482	-0.020010075	0.047346402	0.21018918	-0.040117852	0.30787295	0.19824983	0.11091339	0.15272619	0.01941279	-0.16854782	0.1641574	0.37782705	0.15068282	-0.045900047	-0.048455797	-0.044064168	-0.118807405	-0.19126347	0.053832565	0.50128746	0.01840071	0.2993984	-0.00500565	-0.18558206	0.5383052	0.20061556	0.21281323	0.12200515	-0.17671162	0.009366685	-0.30489987	-0.0008202209	-0.18940549	-0.27263492	-0.03380245	-0.045086898	-0.45180646	-0.27918318	0.34719932	-0.2959393	0.20778707	-0.0006051611	-0.38151693	0.04905981	0.29096544	0.11729113	0.029570341	0.4101621	0.37198946	-0.31899127	0.07604107	0.017075539	-0.025594324	0.083044626	0.029339619	0.1865314	-0.11838043	-0.8484671	0.06968076	0.10157794	-0.05680207	-0.27657378	0.17222793	-0.26285815	-0.0013139368	0.061910674	0.5201946	-0.35812873	0.0943334	-0.2191484	-0.1673528	0.00741531	-0.21036811	0.16860193	-0.13992043	0.009752589	0.12276035	0.3645413	-0.34919378	-0.12667714	0.30033103	-0.17186955	0.061482597	0.13337748	0.120681144	-0.25819442	0.24515197	-0.09879051	0.07061439	0.06283981	0.009988312	-0.13971257	0.16655706	-0.31806317	0.13784292	0.20161341	-0.11184617	0.076633416	0.11639867	-0.3106489	0.012189928	-0.17693886	0.4967716	-0.5848105	-0.13032104	-0.31588885	-0.27140507	-0.567981	-0.30634412	-0.10968101	-0.074411325	-0.02337256	-0.38930547	-0.46642557	-0.21548022	0.09241478	-0.11012514	-0.08376355	0.2197247	-0.26006696	0.22212341	-0.08966625	0.23682874	-0.13025303	0.3264163	-0.10692957	-0.18161823	-0.19398136	0.15599144	0.08754948	0.142894	0.39315596	-0.05200144	-0.37983721	-0.6099499	0.023189208	0.18454753	-0.07706616	0.4475501	-0.06980257	0.3835364	0.4623292	0.5438956	0.15066063	-0.29333183	-0.7142711	-0.04137006	0.22421227	-0.07615292	0.39368302	0.12034493	-0.0045809126	0.39250413	-0.14058663	-0.2718103	0.04217112	-0.13163713	-0.07979191	0.035688154	-0.08987334	-0.1718081	-0.34518868	-0.049886033	-0.047917534	0.32510084	0.04602387	-0.107692674	0.2869073	-0.1678764	-0.2314134	0.110545434	-0.13209008	-0.06891936	-0.21766262	-0.017850142	-0.04002348	0.07509167	-0.24041057	0.03233357	0.31723619	-0.007135232	-0.34599793	0.44428542	-0.10205775	0.48904246	-0.10313291	-0.5123933	0.024177955	-0.36886778	-0.008436325	-0.33781108	-0.09914505	0.26125494	0.46736184	-0.020538267	-0.22801726	-0.09600687	-0.24554734	-0.530114	-0.27847692	-0.4054115	-0.27754095	0.13537322	0.18673201	0.20672055	0.12891355	0.1149814	0.4818345	0.18434384	-0.2110287	0.40159816	-0.46975616	0.20099926	-0.08841354	-0.09108757	0.38801146	-0.19302501	0.01987131	-0.39655256	0.03887188	-0.32914573	0.027855517	-0.35958612	0.006392263	-0.07535279	-0.16551119	0.38346455	0.1262195	0.023567263	-0.18466195	-0.33307618	-0.3134297	0.4884329	-0.19419958	-0.046487898	0.040054865	0.0028526636	-0.17269917	0.41743314	-0.1207393	0.025496323	0.07194672	0.43588683	0.32357204	0.3700328	0.024266046	0.6611293	0.05902513	-0.02887155	-0.6367113	0.03431274	0.096316785	-0.6280036	-0.3361017	-0.47724298	-0.5014332	0.16741234	0.0953318	0.17341404	-0.26412508	0.18617794	-0.09717183	-0.38905215	-0.12455373	0.16399226	-0.1026253	-0.047637384	0.16137059	0.2504931	-0.28578582	0.08269443	-0.34696406	-0.127384	0.2595808	0.017056312	0.29472417	0.0735946	-0.082910135	0.11118015	0.20903066	-0.016873859	0.87679595	-0.30719915	0.07863652	0.10372459	-0.33746457	0.21719952	-0.4002146	0.12345164	0.18473285	-0.040128265	0.15593769
Geometry.Trigonometry.6	-0.20310016	0.112514436	0.21608827	0.020425463	0.1998317	-0.16487159	0.2585204	-0.08418099	-0.021124734	0.05104347	0.050248176	-0.15120511	0.33479974	0.35029742	0.09129029	0.079206094	-0.06176708	-0.26268512	-0.0935795	0.34668463	0.17259707	0.07432831	-0.04189849	0.18184258	-0.26149213	0.033365317	0.08077948	0.4820312	-0.05188407	0.49351987	-0.004219906	-0.18709394	0.75332004	0.02067912	0.33227542	0.07634457	-0.28735894	0.0041118325	-0.19373508	-0.015255262	-0.123799875	-0.41285783	0.055780247	-0.06779506	-0.36197224	-0.1433883	0.30419728	-0.17753331	0.4139248	0.0656082	-0.31709552	-0.04963397	0.30648097	0.009744976	-0.038763214	0.40413058	0.34468803	-0.22707118	-0.09271692	0.052338645	-0.1567712	0.12809421	0.07796886	0.34943345	-0.24339075	-0.84440625	-0.06703577	0.30261204	-0.04912046	-0.2218106	0.1785594	-0.25488845	0.15979548	0.12781034	0.1003642	-0.35418552	0.0068837944	-0.35738873	-0.18120538	0.0077685895	-0.023573585	0.006443731	-0.10871723	0.061077707	0.17905046	0.34529337	-0.13760224	-0.104428865	0.20915648	-0.04118498	-0.038497407	0.026633503	0.18894266	-0.19098368	0.13743708	-0.08303922	0.17472982	0.14781973	0.012953673	0.0011254519	0.04766772	-0.30881813	0.08924303	0.108866885	-0.080643184	0.07023488	0.015780848	-0.23835182	0.0038433655	-0.32791358	0.5148908	-0.5053266	-0.036916215	-0.13381493	-0.3889236	-0.38873008	-0.34012035	-0.12944035	-0.12847802	0.060030796	-0.33237097	-0.32107818	-0.22139712	-0.0007987829	-0.07645969	-0.011319663	0.09176122	-0.065236144	0.41277733	-0.15195926	0.23890144	-0.009068886	0.41217372	-0.02849549	-0.027289465	-0.0104673905	0.17258056	-0.074093655	0.17538656	0.2798106	-0.059685074	-0.27493754	-0.30959672	-0.13057812	0.2230681	-0.07533369	0.4071701	-0.14848389	0.31745982	0.31855565	0.54158723	0.18387558	-0.21205823	-0.6081393	-0.08239332	0.1727346	0.059514366	0.19282034	0.18095806	-0.13682067	0.48857784	-0.19809473	-0.20417991	0.05572677	0.06976257	-0.2641106	0.23237601	-0.110645786	-0.24230894	-0.4707035	-0.21814665	0.046300188	0.2578797	0.030323928	-0.14726964	0.28289354	-0.17547089	-0.29795513	0.1918132	-0.22132552	-0.02216977	-0.09699064	-0.18333785	0.028488882	0.036509883	-0.33000535	0.10884357	0.3035513	0.03827123	-0.43499213	0.42900282	-0.12777892	0.43926024	-0.020636186	-0.4324602	-0.0021699117	-0.11741111	-0.036913678	-0.35151023	-0.12410886	0.112846486	0.5581183	-0.096936755	-0.19789074	-0.17618641	-0.47268122	-0.37568796	-0.005170023	-0.34645092	-0.2424609	0.1990009	0.041301876	0.20279016	0.024403945	0.16580406	0.5205759	0.31621993	-0.237953	0.28413197	-0.31934515	0.14486495	-0.1067225	0.0175907	0.33731416	-0.33538908	-0.15436116	-0.33115315	-0.08671555	-0.3517265	-0.0028221558	-0.3304697	0.1751275	-0.17759736	-0.15896788	0.21247052	0.17467259	-0.15326658	-0.40512267	-0.17637005	-0.23156147	0.39945793	-0.21033946	-0.17809168	-0.047959324	-0.03182147	-0.187315	0.3673387	-0.06523517	-0.015502519	0.15452549	0.26219535	0.13670388	0.21014854	-0.0898153	0.75154394	-0.07872885	0.018645661	-0.69529194	-0.15564129	0.12815966	-0.52216995	-0.31781527	-0.35129517	-0.31136253	0.027454007	0.06708531	0.11401294	-0.18291782	0.22321078	-0.010535306	-0.47908404	0.013424532	0.026818234	-0.10984084	0.010958538	0.084532164	0.46480232	-0.122257225	0.026359398	-0.21598308	-0.18901853	0.28722185	-0.014879898	0.376061	0.009176571	0.06547796	-0.022665665	0.2274875	0.09460916	0.79268783	-0.4404319	0.1480396	0.0457406	-0.36295193	0.06865983	-0.455405	0.11348795	0.377189	-0.11633958	0.080452286
Geometry.Trigonometry.7	-0.10756791	-0.1841621	0.05091256	-0.31680062	0.26545832	0.14674297	0.091366775	-0.16377196	-0.04744578	-0.25382742	0.34519264	0.050588906	0.27309927	0.21559373	0.13264172	0.07345297	-0.17551377	-0.12720704	0.16558337	0.4474141	0.2784233	0.077927366	-0.01656062	-0.047864705	-0.26236993	0.051549517	0.16268049	0.88579977	-0.01976351	0.32773906	0.19043931	-0.14735216	0.40667605	0.03589024	0.07224594	0.43333706	-0.103204206	0.0041416367	-0.40623456	0.056302506	-0.08013838	0.07382874	0.2516226	-0.07504379	-0.26753673	-0.043470867	0.31746298	-0.24818465	0.17127278	-0.10200664	-0.004823266	-0.033581898	0.4120001	0.29783916	0.18417248	0.24029188	0.29014876	-0.40000415	-0.014581984	-0.10424793	-0.01709626	0.21622746	0.08322016	0.365594	0.17709799	-1.0733111	-0.19851477	0.14284538	-0.14884914	-0.21467319	0.19310448	-0.4448336	-0.07196341	0.096127234	0.4733687	-0.6528422	-0.14357148	-0.29521227	0.050227463	-0.3338885	-0.1613806	0.23122534	-0.29602805	0.13545895	0.14807549	0.51757514	-0.30346859	0.019635776	0.59614825	-0.17706998	-0.05050226	-0.08335254	0.0665238	0.041112125	0.25734472	0.17074378	-0.11316103	0.16733506	-0.119706616	-0.18734488	0.10486927	-0.38153914	-0.04775111	-0.11911617	0.087264	-0.12520596	-0.02647835	-0.4999383	-0.16036962	-0.1783479	0.7836682	-0.3700108	-0.37108847	-0.13458991	-0.12843902	-0.52730066	-0.4105249	0.029725414	-0.03188675	0.22070618	-0.32725635	-0.6229254	-0.2852882	0.26657826	-0.35629243	-0.07722504	0.44879588	-0.19878344	-0.021653596	0.05253131	-0.06656299	0.11579081	0.37044126	-0.05867981	-0.08240287	0.03228429	0.1904509	-0.09274499	0.3091793	0.5327988	-0.24540122	-0.26451007	-0.6783823	-0.27528992	0.3016686	-0.074792705	0.49097738	-0.08182912	0.4183483	0.41495657	0.41093707	0.32257107	-0.37711746	-0.46960473	0.27241427	0.1512776	-0.2614407	0.31168777	0.0966766	-0.116107665	0.77942723	-0.022303196	0.12521474	0.06328977	0.15174332	-0.0059023225	-0.15811019	0.18888769	-0.23122415	-0.49218816	0.015034536	-0.13007745	0.51568526	0.028669227	0.041973487	0.43034488	0.043414753	-0.008988242	0.059291005	-0.41878492	0.16788292	-0.2918772	-0.005964309	-0.33992535	0.12368008	-0.23870197	-0.08151938	0.19493084	-0.037613302	-0.42655158	0.24464825	-0.12803215	0.3332569	0.14853205	-0.5819711	0.068154834	-0.47361678	-0.16235971	-0.001730451	-0.31142527	0.4697203	0.5976649	-0.44841474	-0.33083874	-0.09225251	-0.060455598	-0.23239827	-0.13213222	-0.5162519	-0.10968815	0.16953936	-0.305233	0.32279795	0.1380051	-0.11453654	0.3411354	0.18463317	-0.2901461	0.528568	-0.5403898	0.4056314	-0.21174595	0.28418714	0.4163684	-0.3322268	0.25494725	-0.46430215	0.17166618	-0.26121855	0.046067674	-0.2488431	0.27581722	-0.3576496	-0.2872989	0.22778288	0.29537952	0.055236746	-0.18598814	-0.07116886	-0.23271878	0.35088134	-0.29610196	-0.15028527	0.15718806	-0.116226986	-0.264422	0.40975207	-0.03447748	-0.00034916325	-0.21527903	0.39214787	0.25096482	0.033185028	0.08063632	0.4506429	0.10429214	0.017007124	-0.6129984	0.07149533	0.05167962	-0.5611589	-0.12668128	-0.22063807	-0.35391286	0.05412268	0.057737373	0.24280083	-0.2614136	-0.024151871	-0.3523434	-0.41566426	0.102015756	0.18618011	0.32746702	0.054166216	0.07133293	0.5038698	-0.1922193	-0.08299555	-0.2526734	-0.3714829	0.19213091	-0.29461387	0.6545953	-0.11147825	-0.36707824	0.13802695	-0.049115207	-0.191059	0.5608022	-0.6193687	-0.092879936	0.05986377	-0.49982572	0.16041663	-0.2713859	0.041945286	0.37544358	-0.10500296	0.22971995
Geometry.Trigonometry.8	-0.067064226	-0.081190884	0.24418733	-0.07622705	0.08355975	0.016069863	0.20798004	-0.021437313	-0.04066617	-0.2811744	0.13377546	-0.013489883	0.35914648	0.17180695	0.2121936	-0.06614421	-0.09452201	-0.12088348	0.134748	0.4312458	0.36396313	0.17974298	-0.16465692	-0.009858766	-0.29648003	0.0012893465	0.15237074	0.80783814	-0.06890448	0.32472283	0.09394781	-0.17255683	0.53243846	0.1441379	0.06220758	0.50618416	-0.19861984	0.03558723	-0.31952572	0.12575857	-0.234122	-0.16677964	0.24481565	-0.0380901	-0.27372637	-0.2640884	0.3527902	-0.17640702	0.20322146	-0.09241599	-0.15252632	-0.039355233	0.2627827	0.22789443	0.113996856	0.20906915	0.30251914	-0.3437702	-0.05623968	-0.010458584	-0.12541707	0.08551071	0.07462565	0.34195453	0.057913028	-1.0695623	-0.12673308	0.30294037	-0.06627927	-0.18105887	0.2837283	-0.28012347	-0.13487998	0.12135293	0.4662858	-0.55540466	-0.0005640121	-0.30073217	0.0003323951	-0.20505646	-0.10098582	0.09589534	-0.31450266	0.20000747	0.1461102	0.4446717	-0.28785032	-0.0841662	0.47381723	-0.107707955	-0.028948752	-0.15015239	0.15125835	0.056090117	0.19155607	0.1041142	0.03203205	0.04219885	-0.21765453	-0.1207125	0.15250836	-0.31193545	0.087640375	0.055147886	0.08826365	-0.017308056	0.019854039	-0.44212762	-0.077131584	-0.2698225	0.6933225	-0.39412364	-0.27388957	-0.026219996	-0.2176392	-0.4859305	-0.26393366	-0.09193813	-0.049940355	0.1661139	-0.36074588	-0.51037955	-0.2571608	0.1535687	-0.25458205	-0.13479018	0.36002883	-0.2936665	0.039095197	-0.08297572	0.044523016	-0.0033819927	0.24370484	-0.15821251	-0.12778555	0.072728485	0.15696381	-0.066230506	0.2914946	0.42129892	-0.20909762	-0.29370287	-0.676358	-0.23134555	0.19993347	0.09424168	0.41717297	-0.017092975	0.22766796	0.46193475	0.48880973	0.19572787	-0.13188677	-0.71291995	0.11148955	0.2124747	-0.33016452	0.2637155	0.04122141	-0.06936519	0.58429646	-0.05562198	0.0311526	0.0032062577	0.07075735	-0.11175133	-0.115305126	0.16073397	-0.107594125	-0.36014485	-0.046295162	-0.068571955	0.5309718	0.015814548	0.07017251	0.30003446	0.041349795	-0.13363934	0.103923835	-0.26933858	0.20179115	-0.22908522	-0.15966181	-0.164459	0.062980875	-0.23919299	-0.042510528	0.30621552	0.038843594	-0.36390832	0.22294517	-0.25409102	0.405379	0.05364359	-0.6007122	0.030701542	-0.35785225	-0.14424473	-0.021958161	-0.21343903	0.43201518	0.6512738	-0.2913002	-0.27792576	-0.0556154	-0.22049738	-0.35333315	0.018206907	-0.48628682	-0.16293055	0.13533588	-0.09152324	0.19623649	0.16904986	-0.112917624	0.29965675	0.22955114	-0.25510603	0.44178626	-0.4357998	0.2876924	-0.20525402	0.24443758	0.28918096	-0.39387822	0.19336884	-0.4930185	0.2209307	-0.23511656	0.026774008	-0.18308891	0.2799836	-0.30113405	-0.290481	0.32098457	0.17368029	0.09070903	-0.1218827	0.008976865	-0.22812164	0.32269007	-0.39023	-0.087408006	-0.07054478	0.014272329	-0.14137596	0.43566045	0.0136041185	0.033023953	-0.13923077	0.32244623	0.25054628	0.18188883	0.019106703	0.6160478	0.12284993	0.0659739	-0.5862696	0.06323809	0.1492546	-0.48960721	-0.13593495	-0.20857206	-0.37782168	0.10832917	0.054003604	0.24230307	-0.27163148	0.07496292	-0.11101882	-0.534638	0.031743992	0.2972176	0.09501642	-0.019654678	-0.032145284	0.50465125	-0.16542272	-0.16767435	-0.23425496	-0.31719163	0.046727806	-0.25268716	0.5236115	-0.04373591	-0.2971104	0.17604434	0.06942481	-0.027559321	0.6346474	-0.6187807	-0.009669854	0.21008067	-0.38500983	0.113326676	-0.22522083	0.042503823	0.25029165	-0.10786082	0.19771235
Geometry.Trigonometry.9	-0.07149598	-0.094829984	0.25793284	-0.06282065	0.07716169	0.014141411	0.20842023	0.017480435	-0.042190332	-0.27554938	0.20475495	0.0065917955	0.370395	0.18043385	0.25090775	-0.03270206	-0.065004885	-0.11632341	0.13003436	0.40174124	0.31952626	0.17704464	-0.12949193	0.0034367535	-0.27300945	-0.03347586	0.17921767	0.75501245	-0.07498883	0.2914858	0.09589127	-0.12553757	0.55913436	0.12357007	0.07120992	0.4012921	-0.19266757	0.025256837	-0.31841698	0.09277357	-0.2327021	-0.19472472	0.26383922	-0.039378826	-0.32486722	-0.27647153	0.3245549	-0.27059627	0.19002756	-0.038736448	-0.17986211	-0.0029981614	0.25888318	0.21829568	0.102639414	0.27247703	0.28484887	-0.39778087	0.009562473	0.011172143	-0.08001603	0.062086295	0.02914424	0.3610271	0.0654837	-1.0556347	-0.067178205	0.22990364	-0.07353508	-0.25194117	0.3333951	-0.27152625	-0.09566072	0.12457262	0.4728699	-0.54033965	-0.007920692	-0.2993496	-0.02368819	-0.19421507	-0.11409087	0.109534845	-0.28049222	0.14206256	0.11914528	0.47152516	-0.3157757	-0.083826594	0.4306269	-0.14246558	0.0029779377	-0.07197003	0.13101478	-0.014131729	0.20515706	0.062468883	0.050939202	0.05051743	-0.14596653	-0.16089913	0.15596269	-0.36002976	0.11950814	0.09685025	0.11236281	-0.003557826	0.013125956	-0.4811434	-0.08569341	-0.291701	0.64030534	-0.41421023	-0.25121433	-0.059137203	-0.26563674	-0.52123326	-0.2705551	-0.08064981	-0.059234988	0.15001214	-0.3205302	-0.5116131	-0.2505869	0.14586745	-0.25984302	-0.08623614	0.31039476	-0.28701848	0.067396276	-0.048263974	0.07485024	0.017081603	0.23894468	-0.14735487	-0.11636066	0.018640682	0.15192981	-0.023559855	0.3202306	0.43754876	-0.18732727	-0.3041707	-0.62526476	-0.21231796	0.22197808	0.03751356	0.399816	-0.01001023	0.23008549	0.43655747	0.48451298	0.20859495	-0.1937171	-0.719297	0.084974214	0.21395302	-0.2983922	0.2930984	0.07309818	-0.099352896	0.6448761	-0.12476172	0.0020963855	-0.04932983	0.09872193	-0.08831218	-0.048621338	0.09283036	-0.09415004	-0.38984406	-0.03696286	-0.085826464	0.51750356	0.1051459	0.057197466	0.3410845	0.023884473	-0.11853616	0.06539791	-0.27907348	0.16241843	-0.22865915	-0.10619315	-0.15310895	0.08872838	-0.20692305	-0.030900037	0.28963235	-0.019705262	-0.32783723	0.2702829	-0.25275645	0.44233733	0.03944755	-0.62330234	0.025713956	-0.40879098	-0.10638035	-0.061418843	-0.24206449	0.3698154	0.6397459	-0.24847826	-0.27267548	-0.10508019	-0.24586168	-0.3524254	-0.018580832	-0.46717778	-0.19463797	0.14027527	-0.06584538	0.2270893	0.1996826	-0.09659034	0.3212363	0.23479593	-0.22802317	0.5004109	-0.4592643	0.23650196	-0.21889167	0.14679666	0.325188	-0.34997082	0.09009166	-0.4761518	0.20319882	-0.17697473	0.08882446	-0.20212546	0.27150634	-0.28124243	-0.23508188	0.32954797	0.17883034	0.03161106	-0.11962192	-0.06701188	-0.25270846	0.42640963	-0.3769471	-0.11192308	-0.06484036	-0.049109355	-0.17230165	0.4129034	-0.05160356	0.04573383	-0.114871785	0.38839188	0.21931006	0.186734	0.03755875	0.6666994	0.13136859	0.08363919	-0.67532825	0.002180783	0.1371548	-0.5611617	-0.17992434	-0.28791416	-0.36300468	0.10880776	0.030390542	0.18168162	-0.35712537	0.075929426	-0.099208094	-0.47210282	0.0060118865	0.23360114	0.059792284	0.023969652	-0.01655948	0.47959155	-0.17747632	-0.084327176	-0.21626185	-0.3197355	0.052220147	-0.2503186	0.49451467	-0.003174954	-0.35481855	0.12460367	0.08963204	-0.04032679	0.6620427	-0.6476345	-0.048656356	0.16442724	-0.37580913	0.1443517	-0.24487135	0.037166063	0.25298232	-0.14142878	0.1864536
Geometry.Trigonometry.10	-0.19112056	-0.382909	0.17257164	-0.4357982	0.30530778	0.30642375	0.060174204	-0.2567759	-0.051270995	0.032967646	0.54856163	0.07789316	0.23338248	0.1437719	0.03124384	0.28943026	-0.2515451	-0.18465805	0.127241	0.20141457	0.045773845	-0.16233777	0.07811395	-0.12114816	0.04462853	-0.12138438	0.10105033	0.5613141	0.20636947	0.019544752	0.0029584435	0.01015131	0.3314816	0.16230202	0.24956214	0.18164267	0.07343691	-0.009281986	-0.49657446	-0.08310154	-0.03493536	0.28739074	0.29040453	-0.07496687	-0.30362353	0.05815774	0.3262671	-0.4061575	-0.07084008	-0.07460598	-0.03840794	0.039821267	0.47757316	0.21736766	0.12660442	0.36559635	0.2137212	-0.38753083	0.08317605	-0.25791463	0.19743235	0.35871428	0.052809693	0.17422532	0.35678333	-0.82494974	-0.13797733	-0.21948989	-0.43500695	-0.47863582	0.16241452	-0.5023453	-0.02694693	0.06700808	0.40729675	-0.7106275	-0.123248845	-0.3208967	0.18814419	-0.26261756	-0.21410875	0.41894463	-0.1550783	-0.002001227	0.09052202	0.4770303	-0.42387968	0.14077161	0.54711187	-0.36809772	-0.009676742	0.1926282	0.18127537	-0.20164658	0.2701717	0.13883862	-0.14427173	0.17137785	-0.036283333	-0.30571142	0.09796777	-0.40223262	-0.15966189	-0.17233828	0.3414303	-0.12655345	-0.19771005	-0.5033985	-0.33848587	0.10840737	0.7782517	-0.22498901	-0.30463868	-0.37035194	-0.0480918	-0.7598924	-0.5630055	0.15607396	0.086208165	0.13086328	-0.24025823	-0.56569207	-0.2464398	0.27636182	-0.54309344	0.07777733	0.48199555	-0.28881758	-0.18399075	0.2759518	-0.16273983	0.014643081	0.38612232	-0.011130637	0.016895784	-0.122973815	-0.018095465	0.08105421	0.12284983	0.7336885	-0.24801111	-0.22388561	-0.7368747	-0.098037966	0.41794467	-0.21021251	0.60572857	0.018891038	0.37546924	0.27249116	0.2979314	0.4793083	-0.49872476	-0.3124793	0.3143458	0.20371975	-0.22706454	0.1855344	0.07736679	-0.0024341654	1.0276166	-0.06726124	0.010302735	0.10829205	0.061620213	0.108899206	-0.108956985	0.055420503	-0.11931878	-0.46961725	0.1268463	-0.3632216	0.52749646	0.26012897	0.10192205	0.640071	0.055391762	0.025986107	0.038841944	-0.18963143	-0.120854706	-0.19000308	0.2481798	-0.23906934	0.14965113	-0.23083289	0.006945607	0.15224838	-0.17725705	-0.11801108	0.26869747	0.072586454	0.15494545	0.21635965	-0.32594302	0.037137724	-0.57666844	-0.060597505	-0.005662044	-0.33062592	0.3660235	0.39800534	-0.33593696	-0.36245283	-0.22244242	0.04098536	-0.25730821	-0.47860807	-0.39234588	-0.012744159	0.036317732	-0.31587255	0.018390533	-0.023385493	-0.15560262	0.24294205	-0.054647114	-0.16783383	0.43103796	-0.3574057	0.38400477	-0.084225304	-0.004871245	0.29567754	-0.16128127	0.22019483	-0.20504332	0.30442178	-0.0591765	0.026464436	-0.5663094	0.13816285	-0.45464402	-0.3015902	0.21377322	0.3668526	-0.12118179	-0.2888762	-0.3049337	-0.1248191	0.497541	-0.22411631	-0.065658465	0.52199847	-0.15491256	-0.30147555	0.31006527	-0.268934	0.07335249	-0.3266832	0.4353294	0.30140284	-0.06576772	-0.045830578	0.47342613	0.13961308	-0.22360906	-0.7421431	0.1322963	0.0040266654	-0.42778853	-0.058211707	-0.24069604	-0.3995976	0.14780433	0.005123364	-0.023346575	-0.037090905	-0.06585535	-0.3956586	-0.16245773	-0.10850154	-0.06555295	0.3189673	-0.07671502	0.33646604	0.48410457	-0.16265547	0.0074159526	-0.5308753	-0.44224927	0.0740056	-0.21853994	0.6034893	-0.18061906	-0.42582586	0.13076392	-0.17217933	-0.2823218	0.60180444	-0.35158294	-0.14290875	-0.09413384	-0.5527122	0.34714866	-0.3094129	-0.022652782	0.31267312	-0.084900126	0.19811745
Geometry.Trigonometry.11	-0.19179071	-0.38324216	0.1613766	-0.44270742	0.3136105	0.3125241	0.058557082	-0.26382828	-0.055158157	0.037921518	0.54195505	0.06112413	0.21840785	0.14392205	0.030938275	0.29696745	-0.25366974	-0.18313164	0.12275659	0.19242248	0.038014602	-0.16479625	0.09222341	-0.1226338	0.047552917	-0.1099227	0.09009904	0.54580176	0.19760807	0.026804226	-0.0065461067	0.027098525	0.33177754	0.15828478	0.22090064	0.17822297	0.06810531	-0.012870001	-0.4934135	-0.09553412	-0.03024293	0.3071549	0.26494142	-0.07121697	-0.3090199	0.072355516	0.3359451	-0.38128704	-0.07039417	-0.07151944	-0.034822736	0.04276845	0.48534122	0.20949315	0.121520706	0.35706207	0.2073004	-0.38851815	0.07354706	-0.27391478	0.18976139	0.359175	0.06033471	0.17812149	0.3499214	-0.82622266	-0.14065854	-0.21864563	-0.4417598	-0.47153878	0.14270115	-0.49089977	-0.033224467	0.08727573	0.3872937	-0.7055547	-0.13698429	-0.30633858	0.19911067	-0.27266547	-0.21770771	0.43339542	-0.15947416	0.007426103	0.09022956	0.46730417	-0.4194223	0.1408475	0.5394776	-0.3630097	-0.0056233145	0.18851022	0.17307433	-0.20503986	0.26754832	0.1259328	-0.14934194	0.16789044	-0.021707116	-0.291859	0.09465694	-0.4000176	-0.16798458	-0.18744637	0.3258926	-0.12696971	-0.20307846	-0.50121063	-0.32728004	0.133715	0.7760386	-0.22200133	-0.3094037	-0.3757147	-0.04475442	-0.7618447	-0.5673714	0.15917702	0.0838202	0.13681416	-0.22927678	-0.57445604	-0.25836968	0.28661925	-0.5385972	0.06320387	0.48861316	-0.284097	-0.18066241	0.26259246	-0.18079528	0.0069055776	0.3789839	-0.01855168	0.041740634	-0.10034049	-0.016681006	0.07103178	0.11693389	0.7313737	-0.25158864	-0.2181297	-0.72709316	-0.10210924	0.4051228	-0.21155207	0.5927583	0.014515759	0.37733364	0.25583798	0.2930477	0.47943434	-0.48676297	-0.28933284	0.3225996	0.20492783	-0.20526326	0.18103749	0.07150899	0.0034420004	1.0103965	-0.06516844	0.0045816367	0.11788681	0.06314022	0.105977535	-0.11760602	0.052608773	-0.11598734	-0.47439733	0.12620813	-0.36991468	0.52618915	0.26304772	0.10240759	0.63187623	0.05751964	0.032483324	0.041179284	-0.19562514	-0.11377845	-0.19797815	0.25777173	-0.24978903	0.15783873	-0.23480141	0.0031900648	0.13902237	-0.17387034	-0.11018819	0.26656964	0.072366126	0.15121624	0.2297467	-0.33084017	0.03533237	-0.56311876	-0.057325765	0.0031842368	-0.32510394	0.36862946	0.37554926	-0.3425182	-0.360319	-0.2158167	0.04231248	-0.24242315	-0.46176848	-0.3980707	0.0069247354	0.052299235	-0.3242697	0.020229833	-0.014610405	-0.14869277	0.23726054	-0.054112926	-0.17439154	0.42109373	-0.35721728	0.37352577	-0.06128116	0.006476676	0.29238522	-0.16224071	0.22296523	-0.19245563	0.28481102	-0.052354958	0.027868757	-0.5649555	0.13631843	-0.4557596	-0.3045239	0.20381622	0.37614152	-0.11984233	-0.30049205	-0.29751372	-0.115077145	0.49040866	-0.21449178	-0.05088573	0.5330285	-0.13095559	-0.31039053	0.2960626	-0.26633522	0.058172736	-0.31937975	0.43821797	0.30126852	-0.065099716	-0.04681582	0.46136928	0.13779446	-0.21544681	-0.7312613	0.1466712	-0.0026965197	-0.39547774	-0.044459388	-0.22895862	-0.396583	0.15938212	0.01537685	-0.025845664	-0.030834273	-0.06490547	-0.3856905	-0.14675243	-0.101257086	-0.06057041	0.314965	-0.06336125	0.3244783	0.47450072	-0.15843102	-0.008868372	-0.529264	-0.43768942	0.0841506	-0.22070791	0.5846426	-0.1781643	-0.42648825	0.13362077	-0.18947135	-0.2835782	0.6028357	-0.3458965	-0.14434606	-0.09138566	-0.55008626	0.34498507	-0.31062967	-0.024562068	0.31760502	-0.07390755	0.20160411
Geometry.Trigonometry.12	-0.120516725	-0.25538552	0.29101014	-0.17773747	0.12044435	0.098841585	0.14205873	-0.07395308	-0.033509776	-0.044561602	0.3581057	0.030390551	0.2770633	0.09739411	0.12495772	0.11843827	-0.12254061	-0.15458481	0.09321659	0.22648321	0.14551266	-0.019175218	2.3331908e-05	-0.083020695	-0.06712054	-0.1299694	0.14102751	0.5216838	0.090775706	0.07821678	-0.02521048	-0.049689155	0.46276453	0.18487415	0.15603967	0.24533486	-0.053353284	-0.0047231987	-0.34812942	-0.044723015	-0.20082603	0.013757118	0.259855	-0.073417105	-0.33662632	-0.16185854	0.32391703	-0.35423058	0.016165134	-0.034757067	-0.17593578	0.08595982	0.3240005	0.15548629	0.07136528	0.38090625	0.20793216	-0.3822385	0.07254519	-0.07705197	0.08270992	0.17472613	0.0039743986	0.22087571	0.17976804	-0.81959164	-0.039441213	-0.029590283	-0.28321895	-0.40050185	0.26400602	-0.29794905	-0.038275592	0.101768084	0.430132	-0.55756104	-0.018232971	-0.30551538	0.072738685	-0.17164356	-0.15155242	0.2444053	-0.1369119	0.04283753	0.08558163	0.4004189	-0.41319236	0.003177522	0.37861928	-0.27077445	0.019663917	0.13846844	0.17882864	-0.21734573	0.23221251	0.029773036	-0.0003953098	0.07123194	-0.062549725	-0.21037135	0.15579076	-0.3470575	0.004643748	-0.0032521014	0.2801149	-0.06144625	-0.13555232	-0.43328544	-0.20748097	-0.049319185	0.58257985	-0.3064248	-0.21475405	-0.2738824	-0.178688	-0.65097666	-0.37925342	0.009492717	0.0050353054	0.09066096	-0.24716027	-0.45206982	-0.20434515	0.15652578	-0.39980265	0.033055063	0.35195056	-0.3290201	-0.085635535	0.12085508	-0.037424903	-0.046075277	0.23598804	-0.08965805	-0.02995844	-0.10303055	0.028833022	0.11275646	0.16748036	0.5599793	-0.20823084	-0.28035486	-0.640404	-0.043560233	0.27309263	-0.08701026	0.49569818	0.033593055	0.20768613	0.32819068	0.39568144	0.3355479	-0.33217487	-0.5190761	0.14358316	0.20284551	-0.23306757	0.20593132	0.06348184	0.026006307	0.79637843	-0.13615896	-0.07502203	-0.023899717	0.009540837	0.02908289	-0.036734052	0.04505359	-0.06441406	-0.36706626	0.032514054	-0.24484974	0.48989084	0.25052178	0.117073506	0.47596756	0.014067405	-0.08057132	0.05283401	-0.12248879	-0.03200911	-0.16665769	0.07804214	-0.117603436	0.1261875	-0.16743964	-0.008164041	0.2278143	-0.10039028	-0.10259736	0.27771714	-0.07804966	0.26705256	0.07870224	-0.40944752	0.020819753	-0.46605206	-0.014982805	-0.04705705	-0.29490227	0.269805	0.44061124	-0.16280268	-0.30317548	-0.20338055	-0.13460997	-0.31987795	-0.27749732	-0.37303004	-0.07395476	0.07070388	-0.10593694	0.007655863	0.10454201	-0.11497508	0.24340256	0.06347784	-0.13060561	0.36430436	-0.32002825	0.2378226	-0.099421926	-0.019812664	0.2567945	-0.22872557	0.09981409	-0.28336775	0.27016276	-0.038163308	0.062115822	-0.3997129	0.13988012	-0.339209	-0.22511353	0.3142793	0.21858205	-0.06628124	-0.18922739	-0.24498923	-0.16951087	0.4944411	-0.26580125	-0.019929083	0.24206124	-0.050538223	-0.17202944	0.33342862	-0.20634608	0.07763395	-0.18758659	0.4016682	0.26898316	0.1065326	-0.065340884	0.58171266	0.16334648	-0.1014727	-0.7015272	0.05351907	0.062265854	-0.44983333	-0.14162758	-0.27020162	-0.3608051	0.17346096	0.0062897187	0.005022319	-0.14728804	0.050306678	-0.16987173	-0.23371145	-0.13409229	0.04586996	0.083602846	-0.062370855	0.16945036	0.42455924	-0.15652353	-0.0030618268	-0.39728487	-0.34578586	0.00043216016	-0.18137805	0.46625933	-0.09545973	-0.37353662	0.11059713	-0.01850281	-0.09478935	0.6292389	-0.40553984	-0.06303941	0.028390093	-0.36439452	0.29713312	-0.2704637	0.0020879507	0.21295315	-0.084899224	0.13567834
Geometry.Trigonometry.13	-0.16692601	-0.34677184	0.18232049	-0.35160938	0.30923817	0.17458278	0.092828944	-0.20998383	-0.0039922902	-0.018973062	0.4719421	0.058722515	0.27329224	0.13039157	0.05627229	0.12787426	-0.1722196	-0.1338202	0.118733406	0.22544709	0.104053676	-0.07518013	0.06209082	-0.13450827	-0.03594352	-0.047263294	0.16038078	0.5552805	0.10235639	0.102127574	0.019953836	-0.029648641	0.3437099	0.10359305	0.18239728	0.22009714	-0.0119212745	-0.018799132	-0.378118	-0.09076829	-0.1079466	0.13821524	0.24820709	-0.116543934	-0.34832972	-0.08778119	0.3200249	-0.3689151	0.018036041	-0.04559107	-0.108251475	0.05855161	0.4175735	0.24018002	0.1584597	0.40074515	0.25305277	-0.41037783	0.113461375	-0.17654084	0.15765032	0.23103535	0.013812291	0.21294157	0.22862563	-0.85601556	-0.0591426	-0.11992173	-0.3551101	-0.4154666	0.18630461	-0.40459004	0.029549856	0.064582065	0.45944613	-0.62795234	-0.13725951	-0.24226534	0.12118046	-0.26791686	-0.2404753	0.34966913	-0.11519377	0.036502767	0.09950686	0.46610922	-0.47313127	0.06763981	0.46525353	-0.30057764	0.028939992	0.17150012	0.07673691	-0.1992993	0.22460946	0.009723533	-0.071673855	0.18151928	-0.03789295	-0.23235229	0.1023739	-0.3434524	-0.047295474	-0.076378584	0.22874713	-0.11886941	-0.1525048	-0.44485933	-0.19844475	0.052819174	0.67878234	-0.32330602	-0.28252578	-0.3306157	-0.09454973	-0.6640263	-0.5060407	0.07599205	-0.00074219145	0.109806955	-0.25400805	-0.56623924	-0.23759322	0.24584341	-0.4530353	0.04564621	0.4497156	-0.26011807	-0.053853743	0.16974062	-0.06707619	0.036851455	0.3550317	-0.061831642	-0.013923688	-0.11265061	0.08026895	0.064169005	0.12213828	0.6731703	-0.20877841	-0.24699807	-0.68980736	-0.093773305	0.32457668	-0.20539784	0.5702159	-0.0020731608	0.3403712	0.30826995	0.3488025	0.41538048	-0.4621354	-0.40086192	0.28474692	0.18378687	-0.24950035	0.30247834	0.13659988	-0.017640835	0.8971163	-0.15593565	-0.07201193	0.094200075	0.11133765	0.019924607	-0.090231195	0.07583145	-0.21282515	-0.4479866	0.056991924	-0.2824472	0.47885856	0.25745708	0.09783142	0.53507173	-0.04559394	0.0006831225	0.016268926	-0.1926215	-0.081548214	-0.22057271	0.18282376	-0.2604254	0.19381914	-0.14946009	0.022491643	0.15234688	-0.09201971	-0.21905272	0.3250598	-0.008373709	0.20654988	0.1330857	-0.39104873	0.047639254	-0.50188977	0.017186183	-0.049857013	-0.35246584	0.35673112	0.45100585	-0.3000133	-0.36652422	-0.19643602	-0.01834139	-0.27898368	-0.37847123	-0.44810042	-0.038497146	0.097784385	-0.23551157	0.10168056	0.08290441	-0.14776254	0.28285247	0.03472846	-0.14091381	0.4381264	-0.3708693	0.31506857	-0.12451281	-0.01820434	0.37109917	-0.24136516	0.13298154	-0.31942737	0.23366407	-0.039149564	0.06327551	-0.4122424	0.10775838	-0.34139085	-0.2226562	0.28159928	0.31376776	-0.066047184	-0.2145124	-0.31751692	-0.19011015	0.5486774	-0.23595104	-0.044684596	0.36639044	-0.054021366	-0.2829477	0.36555064	-0.22466953	0.018659607	-0.23320651	0.4555033	0.3131434	0.01680764	-0.055661045	0.48880878	0.10152175	-0.11042496	-0.7807348	0.06570907	0.012055578	-0.5255002	-0.15742368	-0.30167916	-0.36426213	0.09705274	0.0019896706	0.072047874	-0.19153874	0.0011727664	-0.34433016	-0.24219072	-0.11463536	0.032462966	0.17933899	-0.06451452	0.2442981	0.3608494	-0.2052044	0.025025377	-0.42530265	-0.35943955	0.12757504	-0.2291216	0.60245484	-0.10925392	-0.3395986	0.114276014	-0.07687076	-0.1968255	0.64451456	-0.42768985	-0.12821467	-0.061986566	-0.41147333	0.29154825	-0.3209042	-0.0074634985	0.2793662	-0.07238545	0.202764
Geometry.Trigonometry.14	-0.05855832	-0.010817265	0.16400066	0.008099409	0.123951755	-0.11143466	0.19056593	-0.07655047	-0.039913647	-0.056806765	0.19797415	-0.019331945	0.2996057	0.14908485	0.11735401	0.036083408	-0.03552098	-0.10155572	0.19096056	0.46100616	0.2047938	0.017552681	-0.07912116	-0.028478395	-0.25109145	-0.1830441	0.12764405	0.6446015	-0.03166695	0.29165384	0.037648916	-0.18930794	0.5957192	0.10193341	0.23776317	0.23906662	-0.14317675	0.09928499	-0.33900854	0.11423321	-0.19032948	-0.23462512	0.09028642	-0.13684593	-0.40573704	-0.27408102	0.3409416	-0.3250216	0.24889699	-0.018934023	-0.28401256	0.060649086	0.26868397	0.16223626	0.07484786	0.35685217	0.25769278	-0.4195705	0.09996942	0.031936973	0.03457989	0.07567272	-0.0355372	0.22934319	-0.08302015	-0.9960203	0.06349313	0.17814502	-0.07107509	-0.25523514	0.2462756	-0.31924286	0.01102021	0.10703497	0.53923875	-0.36834916	0.06932849	-0.21882987	-0.110799216	-0.07199088	-0.16648781	0.16822667	-0.22247015	-0.010778077	0.07909323	0.4326314	-0.4058399	-0.09473421	0.36175653	-0.22328979	0.08180818	0.06539922	0.13174753	-0.20593768	0.2549711	0.0077087	0.050830193	0.111661784	0.019557562	-0.16779706	0.13489623	-0.31473485	0.14998336	0.19156818	-0.09117171	0.017451335	0.08195976	-0.43312097	-0.07630755	-0.26491937	0.55778956	-0.5973142	-0.19231282	-0.29164922	-0.24813521	-0.5041975	-0.28673628	-0.03537418	-0.10717471	0.05237387	-0.27057394	-0.5195625	-0.21854816	0.09620696	-0.17439471	-0.0699863	0.24848329	-0.26373282	0.22634612	-0.04339206	0.15044665	-0.016901778	0.28460896	-0.12042008	-0.123538874	-0.1407403	0.12895277	0.13645399	0.22969326	0.40572292	-0.07804715	-0.36984104	-0.68530667	-0.07156493	0.1974172	-0.011423762	0.5082374	-0.041125987	0.3142335	0.5381457	0.58358043	0.26841015	-0.33140737	-0.75257546	-0.039309923	0.22725265	-0.12436749	0.4284477	0.13280909	-0.053952504	0.54690355	-0.19396907	-0.12510082	-0.054785457	-0.052851554	-0.08171286	-0.00049684185	-0.0009054288	-0.17403063	-0.35070014	-0.03769373	-0.08755917	0.42739925	0.10413831	-0.051793624	0.28734398	-0.10243127	-0.19513075	0.16086209	-0.2254032	0.016794983	-0.27751812	0.007989166	-0.09484094	0.12679204	-0.20334433	-0.07498603	0.28017625	-0.023330048	-0.4202435	0.3835973	-0.19809791	0.55665404	-0.07107956	-0.60545254	-0.027829273	-0.44922695	-0.047127355	-0.31858122	-0.24100108	0.33539513	0.55736005	-0.1348558	-0.25101733	-0.07600388	-0.26279807	-0.48806995	-0.19649814	-0.5103931	-0.30996552	0.1849453	0.052713934	0.25645164	0.1964868	0.0009402496	0.44653088	0.19210939	-0.18343498	0.46684223	-0.5994999	0.27930185	-0.12317717	-0.003459548	0.4622378	-0.27551815	0.026302956	-0.41514412	0.06974882	-0.22853544	0.04735961	-0.28949454	0.037189636	-0.1718769	-0.114786245	0.37827837	0.19116044	0.063647404	-0.09019728	-0.2793337	-0.34726742	0.44539598	-0.2679364	-0.059217963	0.08127153	-0.009159706	-0.11940004	0.4603368	-0.06433678	-0.004146779	0.06866075	0.46924868	0.28563094	0.39874563	0.026607554	0.74286026	0.11061446	-0.03596881	-0.67592233	0.061133925	0.08365142	-0.7366405	-0.3410293	-0.45595157	-0.46244666	0.1706595	0.1281245	0.15032196	-0.31907132	0.1573088	-0.16051006	-0.47159985	-0.09762907	0.15994166	-0.02421257	0.043530207	0.16143727	0.3305764	-0.3020011	0.043973006	-0.2764802	-0.21983302	0.18957616	-0.09688425	0.41469204	0.0769961	-0.2337235	0.10402638	0.22981201	-0.048467785	0.83705324	-0.44136626	0.07970773	0.09048902	-0.40023103	0.16344476	-0.37267327	0.19576953	0.24107665	-0.07057781	0.16378018
Geometry.Trigonometry.15	-0.2236627	-0.3077727	-0.101667374	-0.5276661	0.4040012	0.16535753	0.34109163	-0.5433309	-0.14393789	-0.120248914	0.66913915	0.075468235	0.22697459	-0.04364066	-0.1300998	-0.17130977	-0.21270692	0.24017487	0.24851543	-0.044247463	-0.23313674	-0.13319924	0.0034950674	-0.050103508	-0.12541464	0.009106182	-0.11146389	0.5694846	-0.072837114	0.17435667	0.3000527	-0.027441317	0.17188378	-0.027741231	0.4011186	-0.35027444	0.03185523	0.26700574	0.040677994	-0.083934605	0.0025572106	0.0698281	-0.029115304	-0.21758655	-0.602841	0.17567047	0.074708246	-0.27436638	0.32788783	0.063695416	0.12975901	0.14639945	0.2616115	0.35341424	0.1491366	0.27642936	0.16529997	0.14008015	0.28647202	-0.46901572	0.23985562	0.3009022	-0.040194713	0.55233896	0.08878401	-0.44114095	-0.031789392	-0.068085715	-0.27387193	-0.028462872	0.16737148	-0.2477758	0.20521411	0.027653579	0.06767321	-0.5472142	-0.2663893	-0.015929341	-0.31401724	-0.18724084	-0.450418	0.46792132	-0.21561396	0.0032283626	0.09847715	0.3566913	-0.37818235	0.20859689	0.3923095	-0.3531621	0.26826206	0.34405762	0.037255526	-0.07083606	0.17635542	0.14956449	-0.18326679	0.3425218	0.2748663	-0.22972074	-0.06281758	-0.38401872	-0.057794347	0.02293729	-0.076832354	-0.0750118	0.11376308	-0.4917525	0.08170882	-0.11517654	0.28925776	-0.27917004	-0.038626656	-0.3928134	-0.084950425	-0.21923448	-0.22924457	0.069631994	0.054205477	-0.018255062	-0.080325246	-0.7845521	-0.08708654	0.24247132	-0.39433217	0.1134717	0.29910016	0.23122866	0.11286941	0.15493138	-0.004279659	0.27437648	0.3564136	0.116552025	0.012447868	-0.1897164	0.20230652	0.103608936	0.20347646	0.5420506	-0.1741033	-0.2822262	-0.1314854	0.019554794	-0.006839752	-0.5467565	0.2763536	-0.142387	0.52321357	0.19916515	0.36129087	0.17598756	-0.6132973	-0.38335884	0.04418291	0.031406373	-0.203269	0.25457263	0.45762038	-0.13647883	0.94147944	-0.30049747	-0.076280266	0.19354469	0.17804526	0.07449775	-0.14242068	-0.2645952	-0.4916628	-0.29362765	-0.1824978	-0.028841466	0.31943232	0.25958717	0.13877988	0.36675724	-0.16894329	0.22261581	-0.0039981604	-0.14678115	-0.05829027	-0.31879145	0.38117874	-0.31135207	0.4151935	0.08655402	0.096820876	0.041457083	-0.17540754	-0.3148615	0.4456142	0.00612906	0.27845252	0.14116925	-0.05751206	0.13114052	-0.403241	-0.13750486	-0.092084184	-0.3178258	0.45629478	0.16717795	-0.3165505	-0.15590058	-0.0052369833	0.18175328	-0.041964725	-0.4648	-0.12460241	-0.37915945	-0.008178212	-0.37781036	0.50939375	0.04697596	-0.19123645	0.28884554	0.26147884	-0.030963559	0.5611568	-0.47738963	0.112807356	-0.25357738	0.13006547	0.49276474	-0.11574727	-0.027879635	-0.2073088	0.063928746	0.039251108	0.2536127	-0.74800676	0.18690187	-0.034631416	-0.031456504	-0.052514896	0.26966622	-0.020493992	-0.046136208	-0.5410945	-0.39105242	0.3787379	0.08668442	-0.09098316	0.42136645	-0.5124121	-0.39979112	0.04488522	-0.22502969	-0.3660038	-0.32561243	0.6524035	0.06083113	0.28800488	-0.16728953	0.4750547	0.0043879375	0.02394139	-0.9125638	-0.10629373	-0.0613719	-0.53997815	-0.6861359	-0.5585041	-0.19700345	-0.2894341	0.0036936142	0.3713866	-0.15712312	-0.30519977	-0.4387482	-0.20244683	-0.08087094	-0.37877053	0.35820678	0.22253484	0.16044927	0.24269494	-0.090735435	0.13489683	-0.21979381	-0.15395112	0.26385546	-0.06913927	0.5058986	0.08253643	-0.13224468	0.056407794	0.14667654	-0.4880621	0.27642402	-0.4446417	-0.14678723	-0.17147696	-0.016287163	0.21621177	-0.29875115	-0.31584162	0.19895291	-0.24899453	0.25016013
Geometry.Trigonometry.16	-0.07073154	0.40433055	0.013715833	-0.010247204	0.31887916	-0.22694269	0.109172694	-0.0801971	-0.042097878	0.49699184	-0.088312484	-0.23144232	0.07415778	0.2164587	0.15383323	0.3529623	-0.12454283	-0.312501	-0.13151248	0.7599587	0.041825216	-0.2102359	-0.0014184252	-0.109471105	-0.2773521	-0.25602424	-0.049027123	0.17384039	0.30835375	0.49351165	-0.052477933	-0.4692559	0.6140582	0.13677593	0.67236876	0.068103775	-0.09031913	0.088308685	-0.44066116	0.23152438	-0.0642798	-0.24983805	-0.04156437	-0.115203016	-0.31808746	0.15590116	0.32652614	-0.29449102	0.30423328	0.015765691	-0.40922728	0.027289854	0.29019427	-0.27114147	-0.23643066	0.4134243	0.27922046	-0.16690202	-0.107101515	0.08690279	0.0063186437	0.3079563	0.3356514	-0.01829779	-0.5111694	-0.7363556	0.16587007	0.47640383	0.092672475	-0.35468206	-0.13810848	-0.45060417	0.20880695	0.16660872	0.103709556	-0.21388096	0.25391316	-0.399279	-0.2395032	0.12439676	-0.018422874	0.1151843	-0.20541057	-0.1492781	0.07938922	0.45143014	-0.08380883	-0.30277428	0.28853297	0.06602656	0.01106219	0.05480167	0.29681465	-0.15994395	0.26400763	0.19765958	0.007987606	0.109239906	0.39436767	-0.11183791	0.13167103	-0.33011028	0.11993504	0.24307226	-0.34588313	0.3001305	0.2994034	-0.21528028	-0.15665187	-0.33281368	0.46121797	-0.4781419	0.16603063	-0.16895829	-0.2079948	-0.3245558	-0.15951082	-0.10897463	-0.03771055	-0.121275395	-0.12679528	-0.11187159	-0.583023	0.07923797	0.038436186	-0.19014683	0.13153188	-0.102815956	0.48922938	-0.0038539285	0.09452304	-0.2076006	0.48137778	-0.04553652	-0.009258603	0.11271169	-0.028414125	0.06403676	0.20496325	0.2119949	0.0058800145	-0.5755519	-0.6488356	0.17190883	0.35572627	-0.02722758	0.5553086	-0.0955075	0.4473612	0.1927728	0.5562891	0.14445287	-0.32115456	-0.79327685	-0.26369736	0.3473661	0.3384598	0.27190888	-0.05131811	0.03245093	-0.059897963	-0.0092946375	-0.20808436	0.09375076	-0.084290914	-0.20171677	0.41045392	-0.08256973	-0.106282406	-0.23453619	0.07280119	-0.12927864	0.28131735	-0.17571451	-0.5446258	0.12338246	-0.3502673	-0.19968529	0.12692009	-0.34960636	-0.06811336	0.015984766	-0.39438295	0.25800475	0.062092863	-0.5341228	-0.1638498	0.39651635	0.052498225	-0.44388512	0.3929012	-0.23206843	0.85622466	-0.17048873	-0.41699296	0.16067432	-0.1759492	-0.21797405	-0.6297241	-0.18536045	0.11087348	0.5497925	0.024884135	0.005419143	0.07693175	-0.37616426	-0.50279325	-0.23655295	-0.20481084	-0.27019647	0.43779096	0.14539747	0.03393896	0.023788972	0.24007516	0.68610567	0.34136122	-0.21389264	0.20729066	-0.59531087	0.31500494	0.08398526	-0.0023983866	0.35234767	-0.06399602	-0.0846701	-0.20568682	-0.42667463	-0.5880967	-0.09804371	-0.36097977	-0.063509814	-0.17210579	-0.21400744	0.2748042	-0.03396195	0.06368545	-0.44461295	-0.20387216	-0.09871833	0.111084886	-0.036365673	-0.3048677	0.02272126	0.17129607	0.0031970136	0.512899	0.07009986	-0.063799255	0.46092904	0.0014495979	-0.05041193	0.36755463	0.092541434	0.68106055	0.13004185	-0.24877349	-0.45555732	0.13958845	0.24725641	-0.8410444	-0.027271496	-0.2725411	-0.5173905	-0.09279969	0.45581475	0.218644	-0.027520288	0.22736555	-0.18737398	-0.53948975	-0.079792	0.17022182	-0.06116934	-0.13752986	0.17553765	0.25417608	-0.31137562	0.14064509	-0.21052733	-0.12396267	0.3859226	0.38379824	0.21647811	-0.346233	0.2260411	0.044005845	0.39475757	-0.11441001	0.9173669	-0.03467947	0.40140983	0.048799943	-0.42690516	0.038647544	-0.51460433	0.40899056	0.46319106	0.03794321	-0.07902613
Geometry.Trigonometry.17	-0.106664196	0.08658732	0.17587113	0.061055366	0.16071023	-0.18398228	0.18758345	-0.14691979	-0.013166028	0.0813541	0.10740174	0.00028656522	0.23146535	0.16740039	0.14074188	0.15589863	0.014867146	-0.15289125	0.20077553	0.49038923	0.13625643	-0.13558562	-0.05158604	-0.04917846	-0.16740866	-0.23225042	0.019049581	0.46232876	0.06912555	0.3353069	0.026219793	-0.29283273	0.5378306	0.17294471	0.26122668	0.12364541	-0.16229853	0.10028054	-0.28867695	0.047525287	-0.16931506	-0.27610263	-0.116461664	-0.1432444	-0.44496572	-0.25319102	0.30040157	-0.20769176	0.2579576	0.039384913	-0.43581632	0.0918204	0.21654841	0.094564535	0.0046705767	0.3974257	0.36859524	-0.3136954	0.06054177	-0.052406892	0.033459578	0.1028957	0.0360036	0.1292778	-0.15335396	-0.8760497	0.047839828	0.20910975	0.12048952	-0.24399862	0.1313634	-0.28471243	-0.0038310764	0.07123278	0.5176624	-0.32025665	0.14037222	-0.25909582	-0.23231034	0.051715717	-0.16704983	0.15433197	-0.16031711	0.003702744	0.1280671	0.3699245	-0.3399808	-0.10543619	0.25805813	-0.09170258	0.088636585	0.0857097	0.13113563	-0.23828354	0.25889695	-0.024936398	0.037399586	0.038999118	-0.0021404072	-0.14681755	0.10630308	-0.31756696	0.16308793	0.30421874	-0.163449	0.09505105	0.22814122	-0.3378854	-0.09087271	-0.23122844	0.4973935	-0.5532055	-0.077339105	-0.2506199	-0.23148504	-0.45562991	-0.2169868	-0.053013463	-0.06010467	-0.052243315	-0.40329736	-0.4256177	-0.19976963	0.044535074	-0.02688539	-0.08453294	0.16428137	-0.2529914	0.25402683	-0.091172144	0.26817814	-0.18135792	0.27395895	-0.11047406	-0.16630384	-0.1215295	0.06487315	0.06895762	0.20259859	0.3002294	-0.03441682	-0.37328058	-0.6978817	0.062215813	0.15307958	-0.06706051	0.4053114	-0.06336587	0.39204732	0.44651946	0.5546933	0.16130872	-0.21687578	-0.77832717	-0.114848614	0.26665565	-0.15788215	0.38740075	0.11307082	0.025922915	0.32888642	-0.12521465	-0.2417112	0.07105091	-0.2419677	-0.092557386	0.023236819	-0.035555847	-0.08538175	-0.26413587	-0.00043362877	-0.067554735	0.2611376	-0.046770632	-0.21454883	0.19813289	-0.22207715	-0.160174	0.13472374	-0.18364547	-0.065850906	-0.1802029	-0.087801404	-0.0069235307	0.06847503	-0.2220764	-0.031482197	0.3224446	0.0108855935	-0.42108962	0.4155196	-0.14366685	0.6080145	-0.097291015	-0.566822	0.021184836	-0.32745898	-0.060042426	-0.37599584	-0.068172105	0.3082546	0.47571582	-0.02172026	-0.14629908	0.029674646	-0.28873554	-0.5566414	-0.3169237	-0.3813457	-0.25716105	0.16554834	0.100438796	0.16388369	0.080594264	0.08967896	0.46453628	0.24909589	-0.17466082	0.32571164	-0.56179804	0.3263184	-0.16187812	-0.07672235	0.33777395	-0.10759535	0.07857838	-0.2990541	0.13237053	-0.33457142	0.06808327	-0.39585412	-0.055932455	-0.1564674	-0.1687527	0.37210652	0.08692394	0.12245385	-0.12371902	-0.32602003	-0.30232254	0.38528633	-0.102961704	-0.079554275	-0.019787632	0.006756244	-0.16025989	0.39871615	0.026773412	0.016630018	0.19690797	0.35023305	0.2484476	0.44021967	-0.0065603727	0.6150187	0.107475296	-0.15308905	-0.6346305	0.074807264	0.089774184	-0.6118992	-0.2965903	-0.46223772	-0.5341495	0.11298187	0.16737543	0.20275474	-0.23009542	0.10034265	-0.1200562	-0.4733075	-0.14144954	0.23939498	-0.13507576	-0.058247693	0.16131678	0.22670923	-0.30648866	0.013541098	-0.3120002	-0.07383679	0.21505183	0.058562342	0.2709881	0.056079164	-0.052332886	0.1428772	0.33798605	-0.023730902	0.894436	-0.2509414	0.11549383	0.10400808	-0.3814481	0.17230828	-0.4472326	0.07238458	0.12752566	-0.014934423	0.17716667
Geometry.Trigonometry.18	0.039478164	0.34790218	-0.085048534	0.026884986	0.20398025	-0.124607034	0.11183119	-0.138184	-0.09881472	0.12163282	0.008750943	-0.15067399	0.196303	0.19312869	0.12490694	0.20042647	-0.12991895	-0.19845057	-0.009379875	0.749452	0.15697034	-0.07874728	-0.11276981	-0.06698257	-0.42370272	-0.059309494	-0.009962854	0.51429105	0.099544756	0.6225399	0.15922977	-0.36415407	0.4321887	0.056113616	0.3906497	0.36462575	-0.061916567	0.09463866	-0.42927486	0.3439584	0.06892201	-0.25746837	-0.013341049	-0.18861693	-0.23632035	0.07913249	0.2724231	-0.16599642	0.32505897	-0.048456933	-0.33460116	-0.16796443	0.29134315	-0.003761259	-0.051674638	0.11971483	0.21156244	-0.2617722	-0.11802759	-0.010622445	-0.06564831	0.11357961	0.26515505	0.14062689	-0.36042753	-0.8740038	-0.03129143	0.40829533	0.20961905	-0.22419165	0.061988052	-0.3987654	0.12033952	0.110024646	0.35178804	-0.45219705	0.19097658	-0.3818304	-0.13436736	-0.14135513	-0.08567834	0.06362209	-0.24988025	0.021415336	0.05620451	0.43502295	0.058551136	-0.28340784	0.3859623	0.20062065	-0.12955949	-0.24384178	0.12144361	0.21206866	0.23224421	0.2955634	-0.011946692	0.12115819	0.1445259	-0.119077675	0.0493197	-0.19476914	0.061981257	0.05728676	-0.32055882	0.14585245	0.2600298	-0.32683757	-0.084670864	-0.28710034	0.5748299	-0.51259655	-0.07686277	-0.028465856	-0.18481578	-0.2594461	-0.07594845	-0.11763616	-0.18438838	-0.0048061837	-0.28645787	-0.3169923	-0.4230935	0.16763659	0.047959425	-0.30566207	0.26867348	-0.09758223	0.4019107	-0.002625838	0.073573485	-0.062486127	0.3940052	-0.09398783	0.01733224	0.18844119	0.08287433	-0.17314668	0.30342695	0.13960816	-0.038010005	-0.4516095	-0.64189154	-0.1873126	0.24323684	0.06759832	0.3609873	0.022520412	0.29785374	0.2635738	0.39037016	0.099983215	-0.17259902	-0.7074334	0.005621593	0.33349827	0.108322136	0.3109579	0.016210672	-0.039922833	-0.024282811	0.023819132	0.098506086	0.22006083	-0.0169765	-0.1913607	0.016043099	0.054949414	-0.04590946	-0.1909246	0.11495796	-0.03586692	0.35079443	-0.40024307	-0.39997962	-0.04856143	-0.028666817	-0.08285505	0.05967002	-0.47191536	0.09580414	-0.13321598	-0.29416993	-0.05462337	0.11689632	-0.43022853	-0.21672302	0.29288685	0.22032534	-0.61735016	0.26120317	-0.3188218	0.7886055	-0.070279606	-0.52009547	0.03975429	-0.20652828	-0.22199754	-0.4021602	-0.17276977	0.4250747	0.6452518	-0.3076214	-0.11365018	0.19628839	-0.33613318	-0.40880203	0.09904998	-0.2941306	-0.17105006	0.28450835	-0.06881281	0.16715752	0.08336094	0.13895899	0.5253265	0.30719733	-0.32341802	0.32158107	-0.59437394	0.3970877	0.040414896	0.20952372	0.28883007	-0.08066822	0.20708574	-0.3275648	-0.15745702	-0.55430466	-0.047698494	-0.09091251	0.0070780977	-0.31073472	-0.0859923	0.21151792	0.15105914	0.2095765	-0.12928559	0.09694302	-0.0815316	0.12691905	-0.29688132	-0.28461194	-0.1022125	0.08673298	-0.0024037538	0.48454723	0.20353352	-0.042945944	0.34152701	0.023073785	-0.04876317	0.19341968	0.16409703	0.44702113	0.10842072	-0.099239804	-0.3916499	0.21107388	0.19765519	-0.74726045	0.13906199	-0.23622914	-0.3322178	-0.059317447	0.34453323	0.35936567	-0.2254076	0.032928944	-0.14589621	-0.63092417	0.08374577	0.33515075	0.010774025	-0.039017025	0.0779358	0.32033134	-0.20061322	-0.07039887	-0.09818688	-0.23190713	0.23382844	0.16638258	0.40785304	-0.19889508	-0.0093993135	0.12639672	0.18450108	-0.021910677	0.72770983	-0.22643822	0.16073461	0.16073358	-0.5338417	-0.16828264	-0.2853172	0.27017447	0.3574308	-0.052423432	0.044430792
Geometry.Trigonometry.19	0.046029694	0.30492613	0.024893254	0.08025868	0.126517	-0.2546398	0.12899984	-0.0690449	-0.08756483	0.04423862	-0.049657244	-0.11966875	0.20614675	0.19829549	0.1424433	0.10364715	-0.08568595	-0.18684441	0.06610231	0.71908784	0.24467519	0.017114196	-0.17957981	-0.053456683	-0.49329928	-0.076891445	0.05118827	0.64267325	-0.018600764	0.52034634	0.12745705	-0.39858353	0.5795494	0.08259502	0.28695175	0.38494068	-0.18273544	0.08078284	-0.39851063	0.36945122	-0.077246994	-0.33778012	0.013994091	-0.12603241	-0.24050692	-0.03538567	0.27599436	-0.112968445	0.38944772	-0.06958608	-0.29640853	-0.09827757	0.21321584	-0.09515082	-0.04267576	0.19368672	0.2396921	-0.30131218	-0.13342102	0.07742484	-0.12456959	0.07898729	0.19699512	0.21872988	-0.27385518	-0.9347683	-0.02460599	0.5090862	0.19855157	-0.1403873	0.13609622	-0.3499921	0.040570393	0.15001936	0.4047363	-0.36940268	0.17800972	-0.35159743	-0.14906557	-0.14172485	-0.06265133	0.018706247	-0.2589271	0.07946463	0.10704914	0.42705333	-0.088006936	-0.24847245	0.37816626	0.12419687	-0.1058083	-0.2169608	0.1084322	0.087674655	0.24244429	0.24006493	0.06678668	0.043014094	0.071513124	-0.10811806	0.15177478	-0.23989119	0.10823596	0.1388519	-0.31787857	0.100900285	0.22388022	-0.32364655	-0.077519506	-0.3656214	0.52045786	-0.5551212	-0.07276317	-0.0018115559	-0.26437247	-0.27845067	-0.013187264	-0.14291376	-0.16418709	-0.015007599	-0.31384358	-0.35915506	-0.39741728	0.09885338	0.06365756	-0.2921818	0.25690663	-0.186717	0.36273944	-0.08041931	0.09826928	-0.06265077	0.33224338	-0.08389647	-0.046837494	0.14072734	0.09488642	-0.057606917	0.32335898	0.118754536	-0.013303726	-0.47453117	-0.61730206	-0.13183844	0.23480846	0.11174536	0.4013634	-0.008952994	0.31033128	0.37162307	0.4728828	0.12648195	-0.1312058	-0.7264948	-0.06913625	0.3351584	0.039576486	0.33330792	-0.0071376446	-0.035048157	0.053476337	0.025429277	0.0496048	0.06881456	-0.03521076	-0.11890742	0.018419217	0.087154835	-0.08288816	-0.18511452	0.05035059	-0.023302369	0.39467335	-0.2710137	-0.3229998	0.006326998	-0.05966369	-0.13623485	0.15595418	-0.38488662	0.17382485	-0.122637026	-0.3502399	-0.013643981	0.07885166	-0.37519342	-0.1962672	0.3777741	0.19640161	-0.61718124	0.23306091	-0.33048564	0.7601319	-0.18033853	-0.65233886	0.020103373	-0.22443986	-0.20104724	-0.38439992	-0.19379014	0.37136093	0.64511865	-0.23772374	-0.10740823	0.2063007	-0.34928244	-0.4069514	0.077754036	-0.33960834	-0.21145013	0.32060748	0.035455402	0.20475906	0.17288256	0.10717035	0.4808032	0.3104749	-0.28564045	0.2854182	-0.6141329	0.38160828	-0.08368174	0.17444111	0.31454098	-0.17495562	0.2014189	-0.38442087	-0.11494451	-0.57165015	-0.037066784	-0.10815447	0.041939285	-0.18904927	-0.1029573	0.26298198	0.09081577	0.22120498	-0.081562124	0.050677758	-0.16565569	0.14699827	-0.26621068	-0.1430653	-0.18060544	0.13569412	0.015037372	0.49400637	0.17156792	-0.03437411	0.31797746	0.123268776	-0.010223854	0.30077854	0.12843595	0.52442867	0.16991363	-0.054559946	-0.4103157	0.19425124	0.1838495	-0.73677695	-0.0042640385	-0.26003236	-0.4149933	-0.021233203	0.2961599	0.32174823	-0.25991032	0.13005754	-0.11389709	-0.6536054	0.06292467	0.3502993	-0.003167138	-0.018852329	0.030596616	0.35683534	-0.25573742	-0.11026459	-0.105383284	-0.21959406	0.18894464	0.11972264	0.35479766	-0.11998145	0.0044710385	0.097358376	0.24098131	-0.027641952	0.7811002	-0.2932929	0.23634087	0.20875579	-0.4271867	-0.13557304	-0.3228063	0.31707004	0.28295016	-0.052558653	0.061432157
Geometry.Trigonometry.20	-0.041376177	0.32735658	0.11959805	0.089592576	0.2205727	-0.2294141	0.14293753	-0.0781689	-0.037998408	0.18848072	-0.011597409	-0.11238688	0.16667718	0.26845908	0.16395618	0.21144846	0.053379405	-0.25670248	-0.07143951	0.7420426	0.18476084	-0.022708183	-0.040151414	-0.035008002	-0.34007764	-0.19708571	-0.0143063385	0.40288424	0.20201476	0.58064765	0.09403216	-0.4411458	0.6239753	0.15893653	0.4303706	0.33324122	-0.08772659	0.18536955	-0.3480136	0.19627929	-0.20924404	-0.2834398	-0.021248028	-0.20131767	-0.3767962	-0.061165866	0.3095713	-0.22585241	0.31848526	-0.01815182	-0.39617547	-0.01362767	0.31566003	0.04089473	-0.067115486	0.38999677	0.3126806	-0.19035177	-0.16934602	0.17717199	-0.038745116	0.18530856	0.2198586	0.060993966	-0.43103346	-0.8862738	0.038594525	0.4575966	0.1482515	-0.22338454	0.076419026	-0.36840773	0.18603987	0.06634251	0.32277903	-0.330074	0.14500725	-0.5225461	-0.2117136	-0.025343522	0.03477727	0.015408276	-0.18328144	-0.01882877	0.037310764	0.43020022	-0.09164883	-0.32552773	0.28293046	0.08624487	-0.071881	-0.06550203	0.35470378	-0.09171826	0.14725828	0.21528514	0.06488031	0.101169646	0.17807098	-0.0781177	0.113912284	-0.29228377	0.20284192	0.2582378	-0.20293346	0.19337879	0.2131241	-0.28281936	-0.16432995	-0.3205405	0.53187597	-0.5795985	-0.016718913	-0.21175614	-0.26629657	-0.36628383	-0.23449768	-0.18205515	-0.11091897	0.06455496	-0.2409995	-0.26173747	-0.37335947	0.032548312	-0.0016098688	-0.0926076	0.21949193	-0.11874779	0.39104056	-0.12257174	0.10999022	-0.18504447	0.37158388	-0.0738077	-0.022399051	-0.010428208	0.11207605	-0.07290664	0.28920093	0.17014776	-0.10222656	-0.47835383	-0.61947083	0.02695705	0.21558554	-0.016005853	0.5017176	-0.057769783	0.34211248	0.32475367	0.568665	0.101389915	-0.31756923	-0.9101049	-0.12682141	0.1733508	0.13950896	0.29088	0.0034393142	0.01831877	0.078603156	-0.120005414	-0.06907017	-0.00397969	-0.08613721	-0.24554373	0.25371945	-0.022324018	-0.10857619	-0.24663785	-0.009101114	-0.0023931458	0.30974835	-0.23405753	-0.3309419	0.06585272	-0.14904003	-0.2485101	0.14897335	-0.40264168	0.102434985	-0.15460144	-0.3394053	0.10521456	0.06323333	-0.48451474	-0.17864476	0.3436285	0.102700576	-0.4376757	0.45627403	-0.31186455	0.75639814	-0.077585824	-0.47179413	0.18985045	-0.26516163	-0.19009554	-0.4769743	-0.12959446	0.20603193	0.6534293	0.07205779	-0.07069517	0.014788806	-0.40487984	-0.49368504	-0.0034270638	-0.291381	-0.31267038	0.2970412	0.118024744	0.13165763	0.13063192	0.13772748	0.6682926	0.33689198	-0.29452145	0.2581078	-0.5677124	0.2869541	0.11875896	0.18743198	0.39326882	-0.24499568	-0.06033844	-0.359045	-0.23710725	-0.41836533	-0.043757368	-0.18042001	-0.06508853	-0.20253038	-0.15315354	0.37531394	-0.021147262	0.1791119	-0.36422992	-0.19123544	-0.20729436	0.08654254	-0.20976967	-0.27811134	-0.11880785	0.15635142	0.004299851	0.567245	0.14494258	-0.0056680264	0.28293625	0.04023628	0.0696863	0.4610718	0.14835088	0.7369833	0.12669916	-0.14720246	-0.4402524	0.03879443	0.2122453	-0.71747774	-0.13063033	-0.30424434	-0.47790197	0.01134093	0.3551896	0.2530873	-0.114148796	0.2719288	-0.06464539	-0.5461473	-0.047030743	0.30031836	-0.038740516	-0.03903108	0.07641157	0.3203261	-0.23636532	0.064073	-0.17523511	-0.093821935	0.33426774	0.15769333	0.31868666	-0.20468199	0.010549703	0.023029938	0.40185863	0.057334803	0.8010022	-0.31450498	0.28560913	0.19873774	-0.42723334	0.020721927	-0.4099583	0.30111918	0.4079402	-0.009431732	-0.00066748785
Geometry.Trigonometry.21	-0.078594744	0.18210079	0.17706406	-0.009164312	0.12883751	-0.10976506	0.15795259	-0.00010594521	-0.04990086	0.26791468	0.09626314	-0.07089871	0.18838587	0.12441365	0.07875794	0.30653435	0.013646044	-0.1863282	0.059551198	0.58208543	0.053043436	-0.061703242	-0.101665914	0.0016015526	-0.11179536	-0.26392156	-0.023310205	0.29659352	0.2182592	0.36674586	-0.05982599	-0.32948467	0.5630067	0.15713766	0.4392199	0.119870335	-0.1589652	0.047365714	-0.41921586	0.107776456	-0.048614908	-0.27214155	-0.062208746	-0.0690391	-0.4268976	-0.05027413	0.26760575	-0.2579655	0.29108968	0.13171664	-0.32188478	0.10727907	0.23156598	-0.03897589	-0.12105996	0.3917335	0.36111364	-0.24692722	0.02979136	0.12272144	-0.0101488875	0.17074828	0.1009396	0.104930244	-0.35963717	-0.91962326	0.21876156	0.28273717	0.057330236	-0.32117376	-0.048563886	-0.33118165	0.09459279	0.09172549	0.4085049	-0.25124004	0.12799037	-0.23004647	-0.12158916	0.13285135	-0.13612364	0.19354033	-0.15634625	-0.12630644	0.05953152	0.4384296	-0.20843703	-0.19343235	0.28491765	-0.09015352	0.0772373	0.123561285	0.22094035	-0.27190956	0.21342665	0.018340357	0.10240854	0.026304428	0.1758155	-0.13710041	0.17154427	-0.35902682	-0.018054241	0.2896021	-0.23135862	0.23902519	0.28482178	-0.23550236	-0.06837607	-0.2450301	0.4186001	-0.5264566	-0.043626435	-0.25031507	-0.20859075	-0.45783174	-0.29331517	-0.13461456	-0.054699995	-0.027651206	-0.17065546	-0.26613736	-0.31280795	0.022994295	-0.09221417	-0.109754264	0.124753945	-0.17673957	0.38295612	-0.042079087	0.161094	-0.21110004	0.3827746	-0.009822995	-0.047099426	-0.17073783	0.021417497	0.050620463	0.124992594	0.27993885	0.037987318	-0.47586754	-0.65217894	0.13721904	0.24748737	-0.03678814	0.43723446	-0.022890015	0.42831832	0.3660418	0.54676616	0.20533098	-0.3057945	-0.7458519	-0.20722978	0.1817413	0.16923775	0.4114613	-0.029766826	-0.052849464	0.23678926	-0.13368005	-0.25987515	0.0013101277	-0.1626535	-0.13977301	0.24707875	-0.023976775	-0.060252115	-0.33665484	0.029917946	-0.09866241	0.28518936	-0.04048683	-0.35287124	0.13353533	-0.19373962	-0.21589823	0.22664417	-0.2154668	-0.035974056	-0.14482939	-0.117458574	0.07893209	0.015400447	-0.4159198	-0.13505098	0.34774578	-0.074367866	-0.38256323	0.44810197	-0.15471764	0.640481	-0.14378914	-0.49618497	0.11671495	-0.2310284	-0.09397832	-0.4688191	-0.029543279	0.21865976	0.49492764	0.15480012	-0.10386343	-0.01615027	-0.3155189	-0.5224689	-0.23999462	-0.3600592	-0.3818465	0.1954433	0.21564591	0.16308515	0.056517985	0.1654088	0.59580517	0.20733811	-0.20023817	0.34380955	-0.62121725	0.19115712	0.0030623996	0.001986827	0.3843409	-0.063891485	-0.036420323	-0.30236155	-0.20983416	-0.47680223	-0.05669345	-0.40658066	-0.053339925	-0.07509277	-0.24501805	0.33411163	-0.00841675	0.031970844	-0.2810083	-0.38027763	-0.29078642	0.23261006	-0.12522505	-0.21084362	-0.0036630607	-0.037156306	-0.083092	0.42126906	0.01688622	-0.008784041	0.2121321	0.28098458	0.19073568	0.4348225	0.050258465	0.73337764	0.046955813	-0.18494783	-0.5377738	0.08385013	0.19440866	-0.68168944	-0.26549864	-0.47407866	-0.54196453	0.11708464	0.31464413	0.13839585	-0.09274009	0.2885656	-0.10523317	-0.40132406	-0.18713129	0.21460843	-0.0005328719	-0.020855086	0.19640917	0.21561705	-0.33589777	0.08159778	-0.24287952	-0.00196312	0.319391	0.13729873	0.16158293	-0.058587056	0.056608785	0.015658136	0.35025772	-0.04339228	0.914348	-0.22165407	0.22543703	0.07704701	-0.32077113	0.12089227	-0.4489228	0.20166807	0.38041198	-0.041656185	0.13426952
Geometry.Trigonometry.22	-0.16172428	0.021431968	0.1168622	0.012628577	0.14449273	-0.20023079	0.12317669	-0.068402104	-0.13960797	-0.16003725	-0.049902823	-0.09599236	0.06540196	0.23004025	0.21998405	-0.08396981	-0.026268601	-0.15502325	0.09342769	0.5923301	0.30060023	0.042802997	-0.11599164	-0.07434241	-0.36123616	-0.17423078	0.09327519	0.64449346	-0.03438684	0.29952127	0.0107145645	-0.17587832	0.5718107	0.09894152	0.17510419	0.36436388	-0.19821873	0.06720083	-0.2928977	0.16348873	-0.38234445	-0.2449726	0.059545387	-0.064378485	-0.3580696	-0.20798238	0.43206438	-0.2290826	0.20626228	-0.16564521	-0.25730523	0.09974761	0.15943424	-0.039102327	0.022679027	0.32754022	0.2576925	-0.3528183	-0.19145106	0.14783895	0.020958943	0.08714305	0.030628795	0.18807316	-0.09282365	-0.9586124	0.017359667	0.5194958	-0.103537604	-0.05060454	0.14009738	-0.27814874	-0.00423318	0.24396178	0.37923196	-0.2926265	0.1189118	-0.26587495	-0.0122363055	-0.11420832	0.03305974	0.012845032	-0.30307373	0.10102796	0.08586193	0.3538407	-0.34728757	-0.2011232	0.3779531	-0.040317394	0.14135465	-0.023499863	0.27915314	-0.20898601	0.22995323	0.19243522	-0.08932219	0.056572825	-0.01858538	-0.0748367	0.14653881	-0.25054196	0.19748122	0.16119027	-0.19284433	0.052545	0.07220494	-0.31287032	-0.16524239	-0.2724558	0.6655809	-0.4995073	-0.17271085	-0.105563745	-0.24520303	-0.42191237	-0.15949918	0.047907587	-0.0019731566	0.13055564	-0.20496853	-0.4078523	-0.3765877	-0.0908859	-0.12909362	-0.11534378	0.14640324	-0.4256276	0.15097913	-0.02778567	0.02934599	-0.024955291	0.26197705	-0.22237395	-0.116178654	0.29429847	0.082046606	0.04645225	0.24484934	0.33226278	-0.18740867	-0.32192153	-0.70335597	-0.052116904	0.15280807	0.105330385	0.58403605	-0.06202658	0.36128026	0.5063514	0.59820116	0.15763952	-0.211803	-0.7848492	-0.14288138	0.23013069	-0.124521516	0.108188406	-0.008505512	-0.09699351	0.41347283	-0.11999582	-0.025328193	-0.18492398	-0.017639823	-0.049251214	0.07127829	0.068888694	-0.061703626	-0.3245275	-0.016319899	-0.043943975	0.65847486	0.08770977	-0.03851137	0.35314253	-0.22075325	-0.15318263	0.114757806	-0.27453429	0.089005664	-0.1338729	-0.28392076	-0.035271548	0.056291502	-0.17074928	-0.1053346	0.3251796	0.055883866	-0.30622166	0.2804774	-0.30424896	0.56084734	-0.12095911	-0.678706	0.06336101	-0.54881305	-0.17908047	-0.28379193	-0.36122656	0.15883973	0.5217338	-0.14716223	-0.07708363	-0.078055404	-0.33405158	-0.49860117	-0.15568674	-0.53470993	-0.22636816	0.34336913	0.00867977	0.18652461	0.18785046	-0.036645528	0.3688176	0.27164757	-0.25125703	0.13983093	-0.6214924	0.3409902	-0.12535378	0.24053684	0.28040007	-0.25700766	0.043006513	-0.32111034	0.10954498	-0.22855724	-0.1350685	-0.2683655	0.11451111	-0.22146446	-0.15761212	0.286828	0.008794944	0.086892776	-0.22100914	-0.011669463	-0.29343677	0.19285752	-0.14276737	0.024077473	-0.09868128	0.19437744	0.021666693	0.4462462	-0.070690766	0.02253606	0.21641783	0.20918556	0.14816175	0.34294334	0.07919833	0.5660755	0.22232033	-0.117534965	-0.42046237	0.16650344	0.18237928	-0.6023202	-0.09029597	-0.2830455	-0.39593518	-0.013753642	0.2408002	0.15396248	-0.17133616	0.06929248	-0.15424597	-0.5837342	0.12547596	0.21020846	0.022857105	0.05817958	0.017079549	0.45194176	-0.27301627	-0.10212329	-0.22436607	-0.19977589	0.20094599	-0.1409338	0.4115387	-0.21804294	-0.20737293	0.1788693	0.24329378	-0.06595506	0.8008343	-0.41903454	0.30103388	0.1263009	-0.41307968	0.19808376	-0.4300058	0.30027166	0.37785867	-0.034370795	0.09736132
Geometry.Trigonometry.23	-0.1770177	-0.12177966	0.0133706005	-0.17475003	0.264845	-0.070834614	0.21504469	-0.21453115	-0.014170187	0.033590797	0.19602962	-0.11002328	0.37560266	0.2925038	-0.045460396	0.14625339	-0.14076069	-0.2099282	0.02840131	0.35302845	0.13263746	-0.04638873	0.08406428	0.12412155	-0.17830244	0.055401027	0.027284235	0.6008691	-0.0019044627	0.5739578	0.12682837	-0.14249231	0.5860463	-0.028877404	0.2628011	0.15680234	-0.19125704	-0.0070696883	-0.28485927	-0.09740005	-0.043440334	-0.18385312	-0.061600484	-0.16561696	-0.33989376	-0.029432893	0.40438685	-0.18756944	0.33982736	0.0003916502	-0.2201617	-0.020025466	0.43366832	0.28182143	0.0840721	0.3918743	0.34603202	-0.36447123	0.08734162	-0.09137495	-0.049166624	0.23798224	0.059407163	0.31828162	-0.15576802	-0.9095238	-0.096219644	0.046684317	-0.15623039	-0.27310234	0.16558234	-0.36319473	0.18157062	0.062125124	0.26556164	-0.42048973	-0.077788934	-0.15815279	-0.053924	-0.07676966	-0.06769277	0.19359548	-0.119723976	-0.023352483	0.110567346	0.35893732	-0.2666355	-0.05415638	0.34664267	-0.17400604	0.03731051	0.058196735	0.06179422	-0.16270712	0.19574633	-0.1525695	-0.0039755167	0.26951995	0.06723263	0.012780252	-0.029949356	-0.20223871	0.08350445	0.014575273	-0.15778896	-0.08305754	0.00127047	-0.31484264	0.0033367649	-0.14961816	0.6292975	-0.64578766	-0.20171332	-0.33552855	-0.18502863	-0.37088284	-0.478738	0.037768032	-0.12613706	0.10774984	-0.36826044	-0.49470443	-0.23467322	0.15366367	-0.13607651	-0.03420833	0.14241059	-0.057588864	0.39141008	-0.04520904	0.07204559	0.11897036	0.41827053	-0.09495081	0.007691699	-0.06780893	0.24609752	-0.09826963	0.110793576	0.423639	-0.09585187	-0.26938853	-0.5288069	-0.25268137	0.12875755	-0.18278274	0.4423535	-0.26665813	0.4474527	0.4347546	0.58332705	0.3181539	-0.33707187	-0.54528534	0.14947614	0.20546007	0.0138612315	0.3195352	0.27360702	-0.18580455	0.7232743	-0.14954272	-0.2503688	0.13511512	0.10107789	-0.2849385	0.027701845	-0.0307388	-0.38094467	-0.56703407	-0.16499372	0.007680708	0.2579318	0.008522955	-0.058531217	0.367128	-0.22697735	-0.2601846	0.11857929	-0.28558165	-0.076147094	-0.30428472	0.11147022	-0.15420797	0.113236606	-0.27081317	0.11343107	0.179221	0.041894577	-0.5281074	0.43955845	-0.010326391	0.37153062	0.09289194	-0.47491974	-0.040286552	-0.28787458	0.048656993	-0.35428026	-0.26182854	0.28305358	0.4285783	-0.29847422	-0.3573429	-0.27592123	-0.29100972	-0.45034114	-0.1489088	-0.5599972	-0.30932438	0.19689319	-0.11303953	0.34848353	0.12896794	0.10059015	0.5647758	0.2688528	-0.22704382	0.44490814	-0.41670328	0.2547441	-0.093369424	0.0945935	0.5563892	-0.3375023	-0.020769412	-0.40556702	-0.038876552	-0.32260805	0.05778113	-0.2518963	0.116723314	-0.21902618	-0.10136918	0.2759666	0.28223544	-0.121494316	-0.30249888	-0.28468361	-0.3885886	0.53266937	-0.21575436	-0.2296476	0.27245966	-0.1291103	-0.34221366	0.4216485	-0.12785795	-0.07122602	0.017918143	0.45055142	0.31734568	0.17537737	-0.035795268	0.5607587	-0.15182623	0.026494443	-0.66889364	-0.093725055	-0.0027664572	-0.63226855	-0.4414378	-0.4237562	-0.30246574	0.13609186	0.08253388	0.19101848	-0.284377	0.15521748	-0.19224028	-0.38310823	0.04435385	0.00010379553	-0.0020894655	0.09584657	0.24179736	0.32735252	-0.16001034	0.047700092	-0.22781555	-0.22661157	0.4808611	-0.06306924	0.4925151	0.035657633	-0.039786596	0.16510019	0.13444425	0.009305203	0.75436145	-0.49685484	-0.022459608	-0.091360524	-0.52082264	0.13388373	-0.51349026	0.06669767	0.463171	-0.08731375	0.22793977
Geometry.Trigonometry.24	-0.12622528	-0.018855568	0.15220903	-0.031585686	0.12610829	-0.18184173	0.24011536	-0.08469348	0.0058697616	0.0046991357	0.10103108	-0.12639008	0.42207202	0.2702071	-0.0006526515	0.076582514	-0.0559179	-0.19418809	0.063939326	0.4011516	0.2719789	0.0913041	-0.03683838	0.10199355	-0.29118112	-0.009016565	0.028587002	0.6399501	-0.07767974	0.5216091	0.056478888	-0.24660517	0.68943024	0.058621842	0.18762727	0.23790626	-0.30231577	-0.018045342	-0.2756725	-0.012742435	-0.14503172	-0.36995298	-0.03509571	-0.1339566	-0.35355905	-0.1508628	0.36990762	-0.14142503	0.39494753	-0.023685142	-0.32790676	-0.035692185	0.307704	0.13822472	0.033231627	0.40898705	0.36405292	-0.34685498	0.025295643	0.06331662	-0.13380314	0.097740315	0.061991956	0.34606597	-0.22968586	-0.97480166	-0.035074938	0.23790158	-0.077752724	-0.23028147	0.21302201	-0.26304978	0.08879131	0.058773797	0.35780352	-0.33415732	0.02004795	-0.22883192	-0.119098224	-0.049155097	-0.06323563	0.10404213	-0.1430495	0.050443746	0.12355057	0.34658003	-0.25827166	-0.13621211	0.30842528	-0.13181916	0.030171597	0.014402508	0.069130614	-0.15043901	0.1861649	-0.13271654	0.1163546	0.18760307	-0.03157235	0.00031414203	0.08905157	-0.20351438	0.16494294	0.14432192	-0.22125019	-0.012639103	0.085897826	-0.25553998	0.02279021	-0.26048002	0.5586842	-0.6976906	-0.1656584	-0.2112294	-0.29845554	-0.3716933	-0.34704652	-0.045193233	-0.17017743	0.058986504	-0.39010715	-0.49702057	-0.23048456	0.058582067	-0.03638927	-0.06468783	0.11115092	-0.12600185	0.4008164	-0.10211484	0.17503153	0.063024215	0.3709231	-0.1259903	-0.0510708	-0.04444464	0.22436535	-0.08840048	0.13736083	0.3395857	-0.07729193	-0.35113654	-0.49045828	-0.19729848	0.097318605	-0.055158157	0.43747547	-0.14669357	0.37963682	0.502175	0.669561	0.23458266	-0.23127913	-0.6861373	0.045223303	0.24533366	0.012104261	0.3501517	0.22966482	-0.18495841	0.58085054	-0.15231858	-0.22234142	0.004546191	0.07193245	-0.25499076	0.085288286	-0.008028431	-0.3369158	-0.5102828	-0.21064416	0.1082803	0.3517408	0.0142380465	-0.06461413	0.2831752	-0.18994321	-0.3142069	0.20593615	-0.19532397	0.011588338	-0.20187546	-0.051759638	-0.11858901	0.057891548	-0.29053703	0.108598955	0.32605258	0.088173114	-0.5227471	0.42359862	-0.14106713	0.49749517	-0.05839136	-0.60565245	-0.05019672	-0.31269526	0.05154931	-0.40175763	-0.19737777	0.22966804	0.5196503	-0.18035994	-0.28812137	-0.22349536	-0.39370131	-0.48843864	0.0045690066	-0.53519374	-0.34894988	0.16218626	0.081467286	0.27794942	0.20395027	0.10291099	0.5333324	0.26795346	-0.23176451	0.37575817	-0.43275455	0.19551422	-0.1403199	0.08137695	0.48886886	-0.3096592	-0.052883804	-0.509255	-0.05844001	-0.4120765	0.016569983	-0.23197846	0.08244908	-0.11628298	-0.12755746	0.30269083	0.18584892	-0.047322188	-0.25559837	-0.2301053	-0.4313242	0.4629579	-0.26914284	-0.08945614	0.043337278	-0.031673364	-0.24846087	0.45293283	-0.0848331	-0.04698696	0.15187433	0.3770721	0.323803	0.250652	-0.012375908	0.6324577	-0.0758363	0.07517352	-0.61209	-0.081567526	0.063998744	-0.6582284	-0.40643787	-0.48427883	-0.368816	0.11752437	0.12493213	0.18569432	-0.36638564	0.2509774	-0.077761516	-0.48912552	0.05457655	0.15314205	-0.110704415	0.09141837	0.13880208	0.32886305	-0.18335	0.02535051	-0.20657225	-0.20920399	0.39523342	-0.030014394	0.44215393	0.06200462	0.015584006	0.1240704	0.22520329	0.10956258	0.8600442	-0.5106141	0.10851175	0.010434328	-0.4201853	0.07614703	-0.50943077	0.1399547	0.3837114	-0.09642468	0.20627865
