	0	1	2	3	4	5	6	7	8	9	10	11	12	13	14	15	16	17	18	19	20	21	22	23	24	25	26	27	28	29	30	31	32	33	34	35	36	37	38	39	40	41	42	43	44	45	46	47	48	49	50	51	52	53	54	55	56	57	58	59	60	61	62	63	64	65	66	67	68	69	70	71	72	73	74	75	76	77	78	79	80	81	82	83	84	85	86	87	88	89	90	91	92	93	94	95	96	97	98	99	100	101	102	103	104	105	106	107	108	109	110	111	112	113	114	115	116	117	118	119	120	121	122	123	124	125	126	127	128	129	130	131	132	133	134	135	136	137	138	139	140	141	142	143	144	145	146	147	148	149	150	151	152	153	154	155	156	157	158	159	160	161	162	163	164	165	166	167	168	169	170	171	172	173	174	175	176	177	178	179	180	181	182	183	184	185	186	187	188	189	190	191	192	193	194	195	196	197	198	199	200	201	202	203	204	205	206	207	208	209	210	211	212	213	214	215	216	217	218	219	220	221	222	223	224	225	226	227	228	229	230	231	232	233	234	235	236	237	238	239	240	241	242	243	244	245	246	247	248	249	250	251	252	253	254	255	256	257	258	259	260	261	262	263	264	265	266	267	268	269	270	271	272	273	274	275	276	277	278	279	280	281	282	283	284	285	286	287	288	289	290	291	292	293	294	295	296	297	298	299
Mean_0	0.0002669545	0.0001213905	-0.00070679636	-0.00037570854	0.0006948385	0.00029033623	-0.0009924168	0.00027614224	0.00024809447	0.0005695724	0.0002782091	0.0005046388	0.00058777473	0.0008379437	0.000326357	0.00078672613	0.00024039128	-0.0009323629	0.0005161547	-0.00077937	4.5538112e-05	0.0007541442	0.0009282565	-0.00016821153	-0.00071881566	-7.727795e-05	-0.0009524738	0.00056445994	0.00010803392	-0.0005066267	-0.00079037045	0.00048403288	-0.00028934734	0.000526783	0.00011236942	7.4037984e-05	0.00074640434	-0.0003841021	0.00058497855	-0.0005995165	-2.3073324e-06	-0.00031276632	-0.00040747251	-0.00026190982	0.00024962085	-0.00059650687	-8.0060294e-05	-0.00012432926	-4.295506e-05	-0.00040725156	6.2564795e-06	-0.0007011797	-0.00023491966	1.7251607e-05	-0.0007270459	-4.0505565e-05	-0.0009874463	0.000551304	-0.000683963	-0.0004003184	0.0010718838	0.0005617069	0.00015568029	-0.00026512603	0.00022058036	0.00074925245	0.00033730303	0.0008707963	0.0003455196	-0.0008175078	0.00027793166	-0.0010277518	0.00043986065	-2.2320814e-05	0.00018953336	0.00050513487	0.00028729145	0.0005850622	6.912858e-05	-1.760384e-05	-0.00059802004	0.00032548336	0.0010230074	0.00028253568	0.0007717901	9.052611e-06	0.0002131982	0.00024900536	0.00042997222	0.00016834524	-0.00032913347	0.0009398763	-0.00018011576	0.00016597314	-0.00020633305	0.0007447383	-8.043167e-05	0.0002710271	0.00056901295	0.0013559005	0.00026173264	-7.124474e-05	0.00022453087	-0.0006935583	6.722642e-05	-0.00034601972	0.0007524551	-0.0011895068	-0.00031848127	-0.0004475018	-5.790625e-05	-0.0006218974	0.0012925481	-0.00011917943	0.0003329677	0.00037653302	0.00075504143	-0.00016013651	0.000131146	0.00022087421	7.403114e-05	0.00075451424	-0.00016780861	0.00022003781	-0.00013178047	0.00021380384	-0.00060644455	0.00065797055	-0.0006675902	-0.00023908273	-5.499941e-05	-0.00036021566	0.00049565337	-0.00037550562	-0.0009191539	0.00087749184	0.0002737867	0.00051028334	0.0008418487	6.774444e-05	-1.139089e-05	0.0003214549	-0.00028114556	0.000529501	4.5345794e-05	0.00034516156	-9.4335184e-05	-0.00058171776	-0.0008542805	-4.944562e-05	-0.0010899077	0.00012278002	-8.0221025e-06	0.00026672744	-0.00028098337	0.0002536699	-8.476195e-06	-0.0006533827	0.0007890938	0.00014577496	0.0012445418	-0.00048442217	-0.00046204161	-9.381362e-06	-0.00023095845	0.00022094157	-0.0005329435	0.00014816062	0.00021945515	0.00051831355	-0.00055862055	0.00016272947	-0.00091997674	0.00013544895	-0.001006245	-0.0004990068	0.00030863602	3.6080164e-05	-0.00084806	-0.00015357112	-0.0010000766	0.00037840498	-0.0011289337	-0.0005191728	0.00051842275	-0.00045826138	0.00045339103	-0.00022024925	-0.00021538226	-0.0003010547	0.00069408934	0.00016897556	8.610621e-05	0.0007692262	-0.0007541238	0.000261126	0.00058300415	-0.00079047587	0.00024343938	-0.0007937991	-0.00036946344	-0.00081964076	-0.00021331938	0.00040590242	0.00045767846	-0.0006124347	-0.00033232794	-0.0009109997	-0.0003528533	0.00031284906	0.00028456337	-0.00038505692	0.00027249192	9.4688694e-05	-0.00014622674	0.0008849986	0.0003282332	0.00064918067	-0.0004944915	-0.00058131275	-0.0007031516	-0.00017167977	-0.00072231394	-0.00041261272	-0.00057818857	0.00043509505	-0.0008066232	-0.00057735277	0.00085081207	0.0008155098	-0.000113837166	-0.0007086056	0.00016743776	-0.001026453	-0.00055621384	-0.00037166718	0.00073664007	0.0011854756	-0.0003124393	0.00015346723	-0.00067240326	-0.00028792457	0.0005992047	0.0004135721	-0.00066302164	0.00036656274	0.0010366552	0.00025661508	-0.00047678652	-0.0012435943	0.00018312111	-0.00020056294	7.488371e-05	-0.00070942106	0.001027106	-0.00012001258	-0.00040384824	5.3220672e-05	-0.00045919407	0.00015456218	0.0005714467	0.0005712767	-2.224427e-05	0.00053839356	0.00083928724	-0.00048531164	0.000629582	-0.00070203625	0.0009241839	0.00078122644	-0.00010231297	1.1967398e-06	0.0004876156	-0.0011218603	-0.00019741863	-0.00086049805	0.00043402516	-0.00034235406	-0.00049144094	-0.000987481	-0.0008787499	-0.00085438555	0.000538886	0.0005821952	0.0005680788	0.0005556647	-0.00015651913	-0.0003428744	-0.00034565377	-0.00078171934	0.00013562628	0.00034299926	-0.000510203	-0.0008840808	-0.00060899445	-0.00016768584	-0.0008883099	0.00015320808	-0.000740513	0.001080988
Mean_1	0.0002669545	0.0001213905	-0.00070679636	-0.00037570854	0.0006948385	0.00029033623	-0.0009924168	0.00027614224	0.00024809447	0.0005695724	0.0002782091	0.0005046388	0.00058777473	0.0008379437	0.000326357	0.00078672613	0.00024039128	-0.0009323629	0.0005161547	-0.00077937	4.5538112e-05	0.0007541442	0.0009282565	-0.00016821153	-0.00071881566	-7.727795e-05	-0.0009524738	0.00056445994	0.00010803392	-0.0005066267	-0.00079037045	0.00048403288	-0.00028934734	0.000526783	0.00011236942	7.4037984e-05	0.00074640434	-0.0003841021	0.00058497855	-0.0005995165	-2.3073324e-06	-0.00031276632	-0.00040747251	-0.00026190982	0.00024962085	-0.00059650687	-8.0060294e-05	-0.00012432926	-4.295506e-05	-0.00040725156	6.2564795e-06	-0.0007011797	-0.00023491966	1.7251607e-05	-0.0007270459	-4.0505565e-05	-0.0009874463	0.000551304	-0.000683963	-0.0004003184	0.0010718838	0.0005617069	0.00015568029	-0.00026512603	0.00022058036	0.00074925245	0.00033730303	0.0008707963	0.0003455196	-0.0008175078	0.00027793166	-0.0010277518	0.00043986065	-2.2320814e-05	0.00018953336	0.00050513487	0.00028729145	0.0005850622	6.912858e-05	-1.760384e-05	-0.00059802004	0.00032548336	0.0010230074	0.00028253568	0.0007717901	9.052611e-06	0.0002131982	0.00024900536	0.00042997222	0.00016834524	-0.00032913347	0.0009398763	-0.00018011576	0.00016597314	-0.00020633305	0.0007447383	-8.043167e-05	0.0002710271	0.00056901295	0.0013559005	0.00026173264	-7.124474e-05	0.00022453087	-0.0006935583	6.722642e-05	-0.00034601972	0.0007524551	-0.0011895068	-0.00031848127	-0.0004475018	-5.790625e-05	-0.0006218974	0.0012925481	-0.00011917943	0.0003329677	0.00037653302	0.00075504143	-0.00016013651	0.000131146	0.00022087421	7.403114e-05	0.00075451424	-0.00016780861	0.00022003781	-0.00013178047	0.00021380384	-0.00060644455	0.00065797055	-0.0006675902	-0.00023908273	-5.499941e-05	-0.00036021566	0.00049565337	-0.00037550562	-0.0009191539	0.00087749184	0.0002737867	0.00051028334	0.0008418487	6.774444e-05	-1.139089e-05	0.0003214549	-0.00028114556	0.000529501	4.5345794e-05	0.00034516156	-9.4335184e-05	-0.00058171776	-0.0008542805	-4.944562e-05	-0.0010899077	0.00012278002	-8.0221025e-06	0.00026672744	-0.00028098337	0.0002536699	-8.476195e-06	-0.0006533827	0.0007890938	0.00014577496	0.0012445418	-0.00048442217	-0.00046204161	-9.381362e-06	-0.00023095845	0.00022094157	-0.0005329435	0.00014816062	0.00021945515	0.00051831355	-0.00055862055	0.00016272947	-0.00091997674	0.00013544895	-0.001006245	-0.0004990068	0.00030863602	3.6080164e-05	-0.00084806	-0.00015357112	-0.0010000766	0.00037840498	-0.0011289337	-0.0005191728	0.00051842275	-0.00045826138	0.00045339103	-0.00022024925	-0.00021538226	-0.0003010547	0.00069408934	0.00016897556	8.610621e-05	0.0007692262	-0.0007541238	0.000261126	0.00058300415	-0.00079047587	0.00024343938	-0.0007937991	-0.00036946344	-0.00081964076	-0.00021331938	0.00040590242	0.00045767846	-0.0006124347	-0.00033232794	-0.0009109997	-0.0003528533	0.00031284906	0.00028456337	-0.00038505692	0.00027249192	9.4688694e-05	-0.00014622674	0.0008849986	0.0003282332	0.00064918067	-0.0004944915	-0.00058131275	-0.0007031516	-0.00017167977	-0.00072231394	-0.00041261272	-0.00057818857	0.00043509505	-0.0008066232	-0.00057735277	0.00085081207	0.0008155098	-0.000113837166	-0.0007086056	0.00016743776	-0.001026453	-0.00055621384	-0.00037166718	0.00073664007	0.0011854756	-0.0003124393	0.00015346723	-0.00067240326	-0.00028792457	0.0005992047	0.0004135721	-0.00066302164	0.00036656274	0.0010366552	0.00025661508	-0.00047678652	-0.0012435943	0.00018312111	-0.00020056294	7.488371e-05	-0.00070942106	0.001027106	-0.00012001258	-0.00040384824	5.3220672e-05	-0.00045919407	0.00015456218	0.0005714467	0.0005712767	-2.224427e-05	0.00053839356	0.00083928724	-0.00048531164	0.000629582	-0.00070203625	0.0009241839	0.00078122644	-0.00010231297	1.1967398e-06	0.0004876156	-0.0011218603	-0.00019741863	-0.00086049805	0.00043402516	-0.00034235406	-0.00049144094	-0.000987481	-0.0008787499	-0.00085438555	0.000538886	0.0005821952	0.0005680788	0.0005556647	-0.00015651913	-0.0003428744	-0.00034565377	-0.00078171934	0.00013562628	0.00034299926	-0.000510203	-0.0008840808	-0.00060899445	-0.00016768584	-0.0008883099	0.00015320808	-0.000740513	0.001080988
Mean_2	0.0014823282	-0.0016516839	-0.0006735773	-0.0014143969	0.0006651117	-0.0009004276	0.0014221673	-0.0012413679	1.5053161e-05	0.00079393515	0.0008459942	0.0007290477	0.0008745637	-0.0008283577	0.00015473927	-0.00027584512	-0.00022814149	0.00093944685	0.0011354744	-0.0014660127	0.00020823177	-0.0014424773	-0.00048863766	0.0008988842	-0.00038092397	-0.00096346304	-0.0011289371	-3.3279783e-05	-0.0005705247	-0.0010779619	0.0011058154	-0.0012535203	0.0013160675	0.0008643695	0.0013100504	-0.0009927533	-8.748564e-05	0.0013708238	0.0007973047	0.0012699123	-0.0010584246	-0.00011724571	-0.0013068942	-0.0007283603	-6.788029e-05	0.00036119277	0.0011203567	-0.0011177137	0.0010490633	0.00027304885	0.001033454	-0.0012612265	-0.00079821807	-0.0012364995	-0.00094094203	-0.0011394058	0.000116221716	-0.0006651392	-0.0005556774	0.00091756484	-0.001098134	-0.0003497518	-0.0011038017	-0.0012006052	0.0006293398	0.000574511	-0.0006861564	-0.0009747477	-0.00038110925	-0.00044689418	-0.00069265015	-0.0003292953	-0.00017823736	0.00043601176	-0.00024924128	0.001147011	0.00057637267	-0.00045015253	-0.0014838172	-0.0016012911	-0.0011756303	0.0015713989	0.0011188707	-0.0016581164	-0.00029658063	0.00076199434	0.0010383757	-0.0005279522	-0.0012966563	5.8710662e-05	0.00043018392	-0.0013467562	-0.0010454421	0.001020161	-0.0013850526	0.00039649248	-0.0016178907	-0.00052612036	-0.0015661591	0.0005098619	0.00052361964	7.331504e-05	-0.0010490284	-9.191488e-06	-0.0005598335	0.0003849445	0.00022603598	-0.0013744042	0.0012429749	0.0011752136	0.0015411961	-0.0004608442	0.0010197584	9.9152705e-05	0.00030214863	-0.0014097764	-0.0008903343	-0.0006391742	0.0009804757	-0.00025925486	0.0014151955	-0.0007528618	-0.0014559333	0.0005308298	0.00046665096	-0.00015232805	-0.0010365839	-0.00050612795	0.0008746585	0.0011172065	-2.5158164e-05	0.0015696569	0.0011477025	0.00031611638	0.0015000292	0.0013636766	0.00100662	0.0007588265	0.0006593409	0.0013081694	-0.0002609962	0.0009824309	-0.00074339815	0.00046929024	-0.00033644476	0.00010752264	0.001534181	0.000293869	0.00055322016	4.0454503e-05	-0.0002631701	0.0010622685	-0.0005073606	-0.00043762373	-0.0006427432	-0.0012459524	-0.0013950958	0.00081680116	0.0003685151	-0.00026443598	0.0014189909	0.001361727	-0.00036848043	-0.00045096033	-8.639619e-05	-0.00122825	0.0013575192	0.00038452083	0.00078555493	-0.0011528982	0.0015117495	0.00097293296	0.0013551031	0.0005087354	9.9721445e-05	0.0016194863	-0.00028626682	0.0009525105	-0.00039611958	0.00093485287	0.00058811024	0.0014787894	0.00032225382	0.0009646771	-0.00072775374	-0.0016473155	0.0012029915	0.0016547189	0.000505884	0.0006847412	-0.00040696163	0.0005060389	-0.0005431601	0.0016026007	-0.00024295792	-0.0013036428	-0.0013228256	-0.00040827965	0.0003164794	0.00010750524	0.0004294442	-0.0010561622	-0.00042035646	0.0016386396	-0.0005007539	-0.00062486087	-0.001337039	-0.0016533316	-0.0010258934	-7.1371585e-05	0.0010183193	-0.0013987967	-0.00071250275	0.00068482925	0.00047155406	-0.00048384094	-3.313026e-05	0.000107302745	0.0015371991	-0.0016183399	-0.0011698566	-0.0009443453	-0.00044313408	0.0014763563	-0.0004992293	0.00028968733	-0.00048238778	-0.0005615294	0.0014749526	0.0016018878	0.0016614497	-0.00070222595	-0.00024299638	-0.00079805066	4.499874e-05	-0.00016950104	0.0013972411	0.0007383591	-0.00074813544	-0.001087926	-0.0009331757	0.00075575843	0.00070494507	-0.0008545508	0.0013952729	0.00064091035	-0.00017817055	0.0001576238	-0.0011357748	0.0010098296	0.0009960925	-0.0013439093	0.0010867082	0.0006265825	-0.0014180773	-0.000981044	-0.00014966681	-0.001455254	-0.0015217477	0.0005648404	-0.0005083903	0.00024792698	-0.0015436868	-9.1383125e-05	0.00012912662	-0.0007314363	0.001161037	0.00029904564	-0.0009887099	0.0007609005	-0.00059024646	-0.00066461734	-0.0011186393	-0.0012903142	-3.1505264e-05	0.00077534595	-0.00065152603	0.00035040168	0.0009947299	0.00033789492	0.0010872317	0.0006174725	-0.0005192497	-0.00046059102	0.00057678454	2.1716555e-06	-0.00054505677	-0.00084158074	-0.00057315023	-0.00041082772	0.0010444389	0.0004549759	-0.00024448274	0.0011573677	-0.00026026476	0.00022317808	-0.0013454458	-0.0010536988	0.0013166948	-0.0009461066
Mean_3	0.0005828148	-0.00065939454	-0.0004585132	-0.000116451105	0.00060070574	-4.7962716e-05	-0.00012955767	7.048767e-05	0.0002906903	0.0007729559	0.0006977811	0.0005148356	0.00037945985	0.00016920749	-8.835862e-05	0.00064733037	4.5560882e-05	-0.00036268373	0.00016058258	-0.00069403334	0.00017525243	9.764449e-05	0.00016972872	-0.00023933598	-0.0005939443	-0.00062969205	-0.000531648	0.00045864447	1.2896536e-05	-0.00053407485	5.7949474e-05	0.00021783887	2.0256732e-06	0.00046287765	0.00043301037	2.4752215e-05	0.0006946155	0.00018617678	0.0003473032	-0.00023141908	-2.2654864e-05	-3.9137656e-05	-0.0005609106	-0.0003937794	0.00020427848	-0.0005438144	-2.5105652e-05	-0.00013190662	0.00033663292	2.9236428e-05	0.00051257975	-0.00048274128	-0.0005985553	-0.0004555799	-0.00049537315	-0.00027560542	-0.0006485398	0.0003732278	-0.00046810243	0.00016325149	0.0005752869	0.00014625644	0.00022896405	-0.00067537435	5.4540356e-05	0.00042896793	-0.00043369032	0.0003051351	0.00016687208	-0.00057500316	-5.4185766e-05	-0.00053299183	6.195484e-06	-0.00014156601	-0.00011213522	0.0003568083	0.00025208428	0.0005299744	-0.00039867932	-0.00051381375	-0.00034699315	0.00094798056	0.00086147134	-5.2337855e-05	0.0004466204	0.00020729422	0.00022932472	0.0003765117	-3.2272237e-05	-0.0001850611	-0.00032857741	0.00020894171	-2.2990955e-05	-3.4288805e-05	-0.0003189648	0.00013869055	-0.000292385	0.00025405403	-0.00027181217	0.001278418	0.00030997948	-0.0005254409	-0.0005556542	-0.0006464516	0.00021508087	-0.0002524904	0.00021984863	-0.000718631	0.00015837087	0.00028920663	0.00056780264	-0.00043414632	0.0008805065	-0.0001045852	0.0004880039	0.00032562442	0.0005331432	2.3617526e-05	-1.628159e-05	0.00010670853	0.0005149123	0.00052318414	-3.0822655e-05	0.00067500427	-1.3254769e-05	2.8073637e-05	-0.00053707784	0.00039778845	-0.00042109232	0.0006068182	-0.00017046044	-4.068373e-05	0.000600885	-0.00024672126	-0.000318137	0.0008399751	0.00045891906	0.00075777096	0.00048525882	-0.00015375906	4.033451e-05	0.0005238227	-0.00017170589	0.00017747431	-8.35056e-05	0.0003435281	-9.757007e-05	-0.0003135906	-6.1415645e-05	-0.00038837333	-0.000494851	-6.668607e-05	-0.00015628812	0.00051746226	-2.4045166e-05	-7.556232e-05	-0.000336228	1.82673e-05	0.0003639927	6.47244e-05	0.0012728312	2.9189618e-05	-0.0003156044	-0.00031808816	-0.0003538762	0.00013686302	-0.00013370256	0.00028610113	0.00010773132	-0.0002419414	-0.00040535978	2.2737915e-05	-0.0003665571	-0.00016264112	-0.0007377212	-9.6170865e-05	0.00026006004	0.00044853092	-0.00065568864	0.00023826654	-0.0003380961	0.0006141891	-0.0001700321	-0.00047726146	0.000485975	-0.0010415984	0.0006973831	0.0002993383	0.00010128498	2.6675116e-05	0.0002758382	0.00014287897	0.00014841658	0.0007012099	-0.0007270877	4.8005186e-05	7.4398806e-05	-0.00026012748	0.00020401103	-0.000509123	1.2600678e-05	-0.00095908286	-0.00017633234	0.00031472495	-0.00011499094	-0.00063853763	-0.000984404	-0.0009883579	1.9800418e-05	0.00024650586	0.0008262995	-0.0005625552	-0.00030649145	0.00027190952	0.0002293801	0.00023775645	0.00031601812	0.000121882025	-0.00032978435	-0.0009053167	-0.0003722709	-3.054745e-05	-3.4553e-06	0.00023655267	-0.0007913135	0.00038476894	-0.0005605173	-0.00061748916	0.00056176295	0.0008713845	-0.00023312955	-0.0006222521	0.00024484665	-0.0009206703	-0.00073254725	-0.0006005933	0.0007466984	0.0007657094	-0.0001468909	-0.00046696787	-0.0007888979	-0.00015766756	0.00068037736	7.64467e-05	0.00010669988	0.00031881226	0.00042589876	0.00071099156	-0.0007356455	-0.000494986	-9.531225e-05	-0.00042037893	3.7512116e-05	-0.00019254428	0.00041483218	-3.4939043e-05	-0.00025220538	-0.00041316808	-0.00052797317	0.0002714807	0.00026986832	0.00078912935	-7.2296054e-05	-4.85864e-06	0.00054595235	-0.00028876445	0.0006202208	-0.0005965614	0.0005353644	0.0011112869	4.509593e-05	-0.0005233954	0.00042229952	-0.00075392553	-0.00045053326	-7.010937e-05	0.00023036117	-6.6205954e-05	0.0001353282	-0.0007435562	-0.0005031425	-0.00034722142	-4.594519e-05	0.00035563303	6.1614583e-06	0.0007563123	-0.0003727179	-0.0003495033	-0.0002619308	-0.00030569546	0.00017888502	0.00072926615	-0.00074946124	-0.00035329658	-0.0005242918	0.0003470585	-0.0007087693	8.644811e-05	-0.00014942321	0.0005844597
Mean_4	0.00020045448	-0.0001726436	3.373134e-07	-0.00022599421	0.00013177363	0.00048712268	-0.00019959669	0.00020570039	-0.00022150538	0.00037115652	0.0001218291	-9.03348e-06	0.00013917881	-3.9734157e-05	6.5279666e-05	0.00017001326	0.0003123682	-9.232222e-05	0.0003131197	-0.00030035627	-0.00023614164	0.00039765376	0.000606726	-0.0001246586	-0.00037036548	-4.7118174e-05	-0.0002725424	0.00036771197	1.3994603e-06	-0.00014761138	0.00033944772	-0.0002888724	-0.00021115424	4.9748054e-05	0.0004467154	0.0005181086	0.00010793526	1.9102792e-05	0.00018984723	1.4223793e-05	-5.3996206e-05	-8.7120774e-05	6.460444e-05	-0.00044776	-0.00013004738	-7.962468e-05	0.00013060328	-0.0001928268	6.3847976e-05	7.9179044e-05	2.3078597e-05	0.0002719646	-0.00067138445	0.00016592328	0.00044100304	0.0001477355	-0.00064311456	-9.333463e-05	-0.00053527014	0.00032881633	0.0007272314	0.0004607911	-0.00019486043	-7.9133126e-05	-2.1240017e-05	0.00043494217	-0.00014907782	-0.00031108773	0.0001958103	-0.00023005818	0.0001490869	-0.0004164417	0.00018812716	-0.00023147858	-0.00020111878	0.00052778097	-4.0442163e-05	-8.6249915e-05	-9.262907e-05	-0.0007802555	-0.0005069491	0.0006846104	0.0004387028	0.00033225518	0.00010953629	-0.00018716931	-0.0002180392	-2.9831606e-05	-0.00018293419	7.392935e-05	-6.2959125e-06	0.00015711914	2.0365655e-05	-2.8731629e-05	-0.00043521813	7.120748e-05	-0.00040089388	0.00017650277	0.00018192186	0.000455956	2.8221368e-05	-0.00021011756	6.5119025e-06	-0.00038233175	-4.658771e-05	-0.0006407396	0.0007424643	-0.00030828847	-4.809479e-05	-5.6579247e-05	0.0004239467	-8.589795e-05	0.0002614098	8.910006e-06	2.6144023e-06	5.8206326e-05	0.0001659799	0.00037982722	0.00038879403	3.8310394e-05	0.00035193717	-0.00024911718	0.00020198277	0.00014677599	8.469654e-05	0.00038782824	-0.00027964148	0.0003319638	-0.00013925043	0.00024929893	0.0003219156	-0.0002660868	0.0005228222	-0.00047182225	6.9213784e-05	0.0006052354	0.00026184958	0.0005012075	0.0003227778	-1.0619517e-05	0.0003454535	-0.00024114181	-0.00019360846	0.00018586685	0.00022485488	0.00031650075	1.5531588e-05	-0.00071152986	-0.00031155968	0.00020514353	-0.00024082173	-0.00013376096	-2.5010762e-05	-8.937832e-05	-0.00033380877	-2.6343163e-05	-3.9826682e-05	-0.00016656873	0.00022990914	0.00026755585	0.00034854803	0.00029958138	-0.00044632592	0.000119409575	-0.00048643106	-2.944706e-05	0.00010462334	-8.445838e-05	-0.0004525671	1.8413288e-05	-0.00017617508	0.00016009364	-0.0003689624	9.921718e-06	0.0001031263	-0.00032828626	0.00029848595	-0.00017621313	-0.00070178614	-0.0006713711	-0.000370715	0.0002671139	-0.0006736392	-0.00019411201	0.0004119445	-0.00055948854	0.00033304113	6.916167e-05	0.00015465614	-0.00011828942	0.00069634925	0.00051265495	-0.00017647255	0.00025478352	-0.00036040385	-0.0003329606	0.0002286408	-0.0005574135	0.00018186797	1.448884e-06	0.00013084296	-0.00056411955	5.6026907e-05	0.00023199651	0.00030491126	-0.00036714383	-0.0003386848	-0.0004813201	0.0002746327	0.00028673012	-5.5462377e-05	6.291298e-05	0.00043974695	4.0313143e-06	0.0003078748	9.319315e-05	0.000603138	6.433323e-05	-0.0002468165	-0.0007515697	-0.0005099461	-0.00018726617	-1.4880873e-05	0.00021071396	0.00016210075	0.00035359224	-0.00045698753	-0.00029504483	0.0008576931	0.00012932491	3.2004144e-05	-0.00013190435	-9.2171045e-05	-0.0006321592	-0.00055170676	1.2215037e-05	0.00093285163	0.00022946902	6.583592e-05	-0.000411983	-0.00051720976	0.00014700828	0.00032317018	-2.572014e-05	-0.0005803862	-0.00047092894	5.3876185e-05	0.00045781827	-0.00039451756	-0.00032069188	7.422956e-05	0.00019043624	5.9842355e-06	-7.4381824e-05	0.00024373639	-9.997681e-05	-0.0002064472	-0.00013658986	-0.0007711975	0.0004362354	2.5531981e-05	0.00020710587	-0.0005268347	8.739478e-06	0.0001639914	-0.00028928186	0.00035284273	-0.0001897405	0.0003855205	0.00044744005	-0.00020087628	-8.1529055e-05	-0.00018990818	-0.00013521359	-0.00014455627	-0.00047121293	0.00035273365	-0.000112573085	-0.000359466	-0.0006096856	-0.00010161076	-0.00041767827	4.1213225e-05	0.00027874464	-0.00021044034	9.596695e-05	-0.00020281524	-6.925269e-05	-0.0001536563	-5.32174e-05	1.9337876e-05	0.00045325403	-0.00023477981	-6.910465e-05	-0.0006433158	0.00012815901	-0.00037348847	9.5992955e-06	-0.00037430617	0.00030554394
Mean_5	0.00045942646	-0.00035693066	-0.00045438056	-9.262137e-05	0.0006131508	-6.141651e-05	-0.00016873854	0.00036979796	-3.445135e-05	0.000519955	0.00022415674	-3.589532e-05	0.00021022666	0.0003816012	-0.0002060962	0.0005308417	0.00015745648	-0.00037215053	-4.583706e-05	-0.0002032355	6.753927e-05	0.0005640514	0.0003651548	-0.00025494766	-0.0004552428	-0.00035705217	-0.00039479128	0.0005129124	-9.142202e-05	-0.00045117084	0.0001273339	0.00037803943	1.4095652e-05	0.00019206289	-3.346274e-05	-6.1349006e-06	0.00070386456	-0.00012086484	0.0001556342	-0.00018824407	4.251321e-05	0.00014433064	-0.00032646328	-0.00039412105	-0.000114918235	-0.00036847705	-0.0006504098	-2.7072812e-05	5.6623005e-05	8.662131e-05	0.00032277478	-0.0003605554	-0.0004090718	-0.00022260135	-0.00038042903	-0.00032986555	-0.00085347006	0.00022490404	-0.0002619124	-8.3970124e-05	0.00043563475	0.0002173377	0.00029184652	-0.00012916348	0.00016024573	0.00025948114	0.00018152382	0.00019049039	0.00035146225	-0.0005947151	0.00030467453	-0.00054639956	0.00011022694	0.00020037829	-5.062635e-05	1.654397e-05	0.00026814928	0.0007056076	-6.595635e-05	-0.00015876543	0.00010009065	0.00041290952	0.0006653608	0.0001620102	0.0006355586	-7.06082e-05	0.0001415598	0.00014911148	0.00020382254	-0.00012235166	-0.00057209394	0.0003504948	0.00012478394	-7.312836e-05	-1.4326246e-05	2.1355017e-05	-5.5330975e-08	0.0005677294	5.937864e-05	0.0009618479	0.00028664485	-0.0003825558	-0.0004056896	-0.00040697108	0.00027574954	-0.0003429621	-5.0335533e-05	-0.00016652241	0.00019901886	0.00016938885	5.8558195e-05	-0.00015265706	0.0005736191	8.3481485e-05	0.00032043667	0.00017842032	0.0007604849	0.00023300872	5.9885083e-06	0.0002672835	0.00017400406	0.00040787688	-9.570642e-05	0.00024593584	-0.0001850293	0.0002961871	-0.00035406195	0.0005099758	-0.00037267138	0.0002444735	-3.8993963e-05	-0.00015480735	6.459659e-05	-6.395773e-05	-0.0003669545	0.00047623215	0.00024378633	0.0006518765	0.0004489611	-0.00048144985	-0.00011312518	0.00031746592	-0.00028860304	0.00020639168	4.9216233e-05	0.00030268598	-0.00027896377	-0.00045898356	-0.00029628826	-0.00058615225	-0.00054059736	2.6555512e-05	-0.0003097617	0.00031820365	-0.0002079009	0.0004126058	-0.00043612567	-9.755512e-07	6.9896516e-05	-1.2810723e-05	0.00041475912	-9.380318e-05	-3.8637012e-05	5.3131585e-05	-0.00050657307	0.00057859457	-0.0006046955	0.0001717384	-0.00012629498	0.00017639757	-0.00018389741	-0.00022349654	-0.000340522	7.629417e-05	-0.00062774436	1.6808489e-06	0.00028924536	0.00027745846	-0.0006779589	-0.00014603024	-0.00025347117	0.00055211975	9.711311e-06	-0.00045619847	0.0006291038	-0.00029758466	0.0005146635	-0.00033603798	8.5945874e-05	-0.00033283248	0.00048082974	-0.00012844762	0.00022969613	-6.854093e-05	-0.00039313073	0.00010406174	0.00026962868	-5.1337538e-05	0.00024767537	-0.0005157128	0.00010314031	-0.0008681157	-0.0003530255	0.000262338	-0.00037837733	-0.0005204643	-0.00037078332	-0.0007557144	0.00019747457	0.00020141115	0.00014087082	-0.00015662193	0.0001785435	-8.3147286e-05	0.00021290647	0.00026002005	0.00031611515	-0.00022578867	-0.00040510116	-0.00063094206	-0.00019791348	0.00019158212	-0.00014651974	-0.00018094089	-0.000603365	6.4443666e-05	-0.00042681774	-0.00036297046	0.00020477935	0.0002440816	-0.0004121055	-0.0005091042	0.00017843841	-0.00075330335	-0.0007879218	-0.0002727283	0.00029800902	0.0005014484	0.00012078799	0.00014205786	-0.00051002525	-0.00030420383	0.0005564864	0.00019890384	1.3407192e-05	0.00037052654	0.00044688638	0.0002647361	-0.00046067988	-0.00024029677	-0.0002117552	0.00014653052	0.00014912532	-0.00011129525	0.00051102065	7.577239e-05	-0.0005382464	-0.00017496591	-0.00040264922	6.7035835e-05	0.0001486187	0.00043466696	0.00017155147	2.178505e-05	0.00039021895	-0.0003593863	8.0391575e-05	-0.0004190628	0.0006425436	0.0009903241	8.614007e-05	-6.874405e-05	0.00065125275	-0.0002298288	-0.0005294267	8.753324e-05	-1.108011e-05	-0.0002613903	0.00012143091	-0.00075496454	-0.00075150793	-0.00032545085	0.00030674407	-1.0377303e-05	-9.407552e-05	0.00070257153	-0.0001246272	-0.0004285922	-0.00024053498	-0.00012977277	-0.00032829077	0.00035567832	-0.00049962045	-0.00048644058	-0.0005004956	4.7707978e-05	-0.00044919344	7.903193e-05	-0.00015995228	0.0005835548
Mean_6	0.0002669545	0.0001213905	-0.00070679636	-0.00037570854	0.0006948385	0.00029033623	-0.0009924168	0.00027614224	0.00024809447	0.0005695724	0.0002782091	0.0005046388	0.00058777473	0.0008379437	0.000326357	0.00078672613	0.00024039128	-0.0009323629	0.0005161547	-0.00077937	4.5538112e-05	0.0007541442	0.0009282565	-0.00016821153	-0.00071881566	-7.727795e-05	-0.0009524738	0.00056445994	0.00010803392	-0.0005066267	-0.00079037045	0.00048403288	-0.00028934734	0.000526783	0.00011236942	7.4037984e-05	0.00074640434	-0.0003841021	0.00058497855	-0.0005995165	-2.3073324e-06	-0.00031276632	-0.00040747251	-0.00026190982	0.00024962085	-0.00059650687	-8.0060294e-05	-0.00012432926	-4.295506e-05	-0.00040725156	6.2564795e-06	-0.0007011797	-0.00023491966	1.7251607e-05	-0.0007270459	-4.0505565e-05	-0.0009874463	0.000551304	-0.000683963	-0.0004003184	0.0010718838	0.0005617069	0.00015568029	-0.00026512603	0.00022058036	0.00074925245	0.00033730303	0.0008707963	0.0003455196	-0.0008175078	0.00027793166	-0.0010277518	0.00043986065	-2.2320814e-05	0.00018953336	0.00050513487	0.00028729145	0.0005850622	6.912858e-05	-1.760384e-05	-0.00059802004	0.00032548336	0.0010230074	0.00028253568	0.0007717901	9.052611e-06	0.0002131982	0.00024900536	0.00042997222	0.00016834524	-0.00032913347	0.0009398763	-0.00018011576	0.00016597314	-0.00020633305	0.0007447383	-8.043167e-05	0.0002710271	0.00056901295	0.0013559005	0.00026173264	-7.124474e-05	0.00022453087	-0.0006935583	6.722642e-05	-0.00034601972	0.0007524551	-0.0011895068	-0.00031848127	-0.0004475018	-5.790625e-05	-0.0006218974	0.0012925481	-0.00011917943	0.0003329677	0.00037653302	0.00075504143	-0.00016013651	0.000131146	0.00022087421	7.403114e-05	0.00075451424	-0.00016780861	0.00022003781	-0.00013178047	0.00021380384	-0.00060644455	0.00065797055	-0.0006675902	-0.00023908273	-5.499941e-05	-0.00036021566	0.00049565337	-0.00037550562	-0.0009191539	0.00087749184	0.0002737867	0.00051028334	0.0008418487	6.774444e-05	-1.139089e-05	0.0003214549	-0.00028114556	0.000529501	4.5345794e-05	0.00034516156	-9.4335184e-05	-0.00058171776	-0.0008542805	-4.944562e-05	-0.0010899077	0.00012278002	-8.0221025e-06	0.00026672744	-0.00028098337	0.0002536699	-8.476195e-06	-0.0006533827	0.0007890938	0.00014577496	0.0012445418	-0.00048442217	-0.00046204161	-9.381362e-06	-0.00023095845	0.00022094157	-0.0005329435	0.00014816062	0.00021945515	0.00051831355	-0.00055862055	0.00016272947	-0.00091997674	0.00013544895	-0.001006245	-0.0004990068	0.00030863602	3.6080164e-05	-0.00084806	-0.00015357112	-0.0010000766	0.00037840498	-0.0011289337	-0.0005191728	0.00051842275	-0.00045826138	0.00045339103	-0.00022024925	-0.00021538226	-0.0003010547	0.00069408934	0.00016897556	8.610621e-05	0.0007692262	-0.0007541238	0.000261126	0.00058300415	-0.00079047587	0.00024343938	-0.0007937991	-0.00036946344	-0.00081964076	-0.00021331938	0.00040590242	0.00045767846	-0.0006124347	-0.00033232794	-0.0009109997	-0.0003528533	0.00031284906	0.00028456337	-0.00038505692	0.00027249192	9.4688694e-05	-0.00014622674	0.0008849986	0.0003282332	0.00064918067	-0.0004944915	-0.00058131275	-0.0007031516	-0.00017167977	-0.00072231394	-0.00041261272	-0.00057818857	0.00043509505	-0.0008066232	-0.00057735277	0.00085081207	0.0008155098	-0.000113837166	-0.0007086056	0.00016743776	-0.001026453	-0.00055621384	-0.00037166718	0.00073664007	0.0011854756	-0.0003124393	0.00015346723	-0.00067240326	-0.00028792457	0.0005992047	0.0004135721	-0.00066302164	0.00036656274	0.0010366552	0.00025661508	-0.00047678652	-0.0012435943	0.00018312111	-0.00020056294	7.488371e-05	-0.00070942106	0.001027106	-0.00012001258	-0.00040384824	5.3220672e-05	-0.00045919407	0.00015456218	0.0005714467	0.0005712767	-2.224427e-05	0.00053839356	0.00083928724	-0.00048531164	0.000629582	-0.00070203625	0.0009241839	0.00078122644	-0.00010231297	1.1967398e-06	0.0004876156	-0.0011218603	-0.00019741863	-0.00086049805	0.00043402516	-0.00034235406	-0.00049144094	-0.000987481	-0.0008787499	-0.00085438555	0.000538886	0.0005821952	0.0005680788	0.0005556647	-0.00015651913	-0.0003428744	-0.00034565377	-0.00078171934	0.00013562628	0.00034299926	-0.000510203	-0.0008840808	-0.00060899445	-0.00016768584	-0.0008883099	0.00015320808	-0.000740513	0.001080988
Mean_7	0.00019946058	-0.00031050143	-0.00060918333	-0.0003460447	0.00073344866	7.803281e-05	-0.00039433973	0.00047959955	0.00025185183	0.0005832035	0.00020624697	4.568393e-05	0.00040364778	0.00047082626	0.00019169023	0.000554324	0.00031970415	-0.0006071452	0.00022424133	-0.00040132494	0.00012096335	0.00041359838	0.00045795858	-0.00026956585	-0.00026218873	-0.00021565752	-0.000333325	0.00031901358	5.3734664e-05	-0.00026677287	-0.00033134053	0.00048520966	-9.4898205e-05	0.0003173187	0.00024449808	2.954345e-05	0.0005017053	-0.00022155921	0.00012999299	-0.00035761355	-3.2985634e-05	-0.00027652542	-0.00010890118	-0.000119709286	0.00018690487	-0.00019236663	-0.0003172977	-0.00012205456	-7.615332e-05	-0.00020125284	0.00013414503	-0.00035049664	-0.0003651495	-0.00028485022	-0.0005276462	-0.00013040958	-0.00083479984	0.00052811386	-0.0004297359	-0.00022167576	0.00047098007	0.00020879133	0.0004736956	-0.00037034578	1.3955093e-05	0.0003563501	0.00021164292	0.0006258953	0.0001382024	-0.00060897134	-1.3035884e-06	-0.0006162253	0.00036486425	-0.00015363497	-7.412734e-05	0.00045393943	0.00044721094	0.00034205572	3.9249812e-06	-4.381039e-05	-0.00041423627	0.00054454105	0.00074806355	0.00032047837	0.00044242598	-0.00019119703	0.00013818199	4.4188724e-05	6.7395486e-05	-0.0001368975	-0.0004763307	0.00061463617	0.00016709226	-0.00021892147	-0.0002698353	0.00034864535	0.00017723757	0.000275865	0.0003298916	0.0010008076	0.0002566657	-2.7132312e-05	2.0021707e-05	-0.0005073612	0.00026810085	-0.00032895466	0.0002973011	-0.00055859645	-7.759207e-05	-1.2980507e-05	4.160742e-05	-0.00032583802	0.00061147026	9.998226e-05	0.0001248032	0.00030684873	0.0006384837	0.00013421591	0.00010687097	-0.0001147345	0.00037013015	0.000479576	-5.316996e-05	0.00031586527	-0.0004283584	6.1152314e-05	-0.00047790195	0.00031433065	-0.0003359576	-7.630831e-05	-5.808745e-05	-0.00038224045	0.00017559897	-0.00026437448	-0.00036947374	0.00052493735	0.00024199691	0.00047184585	0.00032769158	-5.0714807e-05	9.465598e-05	6.34907e-05	-8.6497654e-05	0.00018803331	-0.00028899728	0.00019731841	-0.0001625569	-0.00023988918	-0.0004445577	-0.0005256816	-0.00052949856	-3.2395103e-05	-0.00020781181	0.00034180438	-0.00034791708	0.00018901953	-5.8707064e-06	-0.00031405382	0.0003526554	1.0810905e-05	0.0005693759	8.015622e-05	-0.0004434587	-0.0001554189	-0.00023333642	0.0003565149	-0.00037460358	-0.000121496065	0.00014210497	0.00016565395	-0.00036570843	7.561621e-05	-0.0006501462	-0.00022531522	-0.00048233103	-0.00025583743	0.0002881058	-0.00019191157	-0.00052957836	-1.8019235e-05	-0.0006986811	0.00032608077	-0.0006182964	-0.0007596322	0.00058540405	-0.00050142047	0.00027599317	-0.00011537402	-0.0002563095	-0.00014246319	0.00056067476	9.979104e-05	7.962781e-05	0.00020356635	-0.0005415817	0.0003103578	0.00020543451	-0.00020868787	-8.652408e-05	-0.00042928505	-0.00035672938	-0.00076514296	-0.00015485918	0.00017713808	-0.00011678228	-0.0005567195	-0.00042692726	-0.00046772673	-7.167827e-05	-4.3278647e-05	0.00019907752	-0.00015108274	5.9940125e-05	5.301673e-05	0.00025337693	0.00059390033	0.0004286251	0.0002362504	-0.00050038676	-0.000532988	-0.0002495832	-0.00018685954	-0.00026998852	-0.0001899443	-0.00017460219	0.0003170922	-0.00024972932	-0.00033099533	0.00049687846	0.00030846611	-0.00038725173	-0.0006087538	7.952074e-05	-0.00092820154	-0.0004470018	-0.00048546848	0.00040918158	0.0006172035	-3.0255927e-05	1.4734231e-06	-0.00038110377	-0.00019586357	0.00044268375	0.00040807	-0.00029888758	0.00027621648	0.0005352645	0.00044382678	-0.00027813262	-0.0006086994	2.6638585e-05	0.00011201527	5.2557956e-05	-0.00026861322	0.00077523186	-7.061839e-05	-0.00033002562	5.1716637e-05	-0.00028348985	1.9667688e-05	0.00021848317	0.00055711635	0.00015199435	-3.3118937e-05	0.00077120616	-0.00038218772	0.00033071567	-0.00046854877	0.00064535753	0.00056596467	6.8255846e-05	-2.3467757e-05	0.0004083947	-0.00052948756	-0.00014411006	-0.00040039254	0.00022380294	-0.0004479557	-1.7142633e-05	-0.0006007885	-0.000390535	-0.0005936801	0.0002601502	0.00016691638	0.0001572939	0.0006401881	-0.00024828082	-0.00010284653	-0.00046647398	-0.00042701355	0.00010841312	0.00037281273	-0.00033075252	-0.00069201307	-0.00038753834	-0.00023591518	-0.0006367263	0.00033128518	-0.00034917166	0.00079059636
Mean_8	0.0001206732	-0.00037927742	-0.00020809747	-0.00035970204	0.0005785184	7.34286e-05	-0.00050026894	0.00020873974	0.00014776767	0.00021942344	0.00023528312	7.419524e-05	0.0005234338	0.0004979263	0.00038447083	0.00026426604	0.0004812008	-0.00039107483	3.533742e-05	-0.0006827013	0.0001354438	0.00034432838	0.00015359638	0.00025415674	-0.00026517984	0.00016280911	-0.00027291593	0.0004573151	0.00011387046	-0.00016499504	-0.0002209829	0.00019049784	0.000474067	0.00058468245	-3.948011e-05	-0.00014388526	0.00021745155	-0.00025594508	-0.00011339807	-0.00042831205	-7.099924e-05	-0.0002918251	-0.00019591134	0.00010363576	5.9398863e-05	-1.650205e-05	-0.0001398376	-0.0005919706	-0.00018032081	-0.0002374138	-0.00012112915	-6.528913e-05	-0.00025002845	-5.246653e-05	-0.0004116428	-0.00020481957	-0.0006454353	0.00036723612	-0.00040904633	-0.00019504344	2.9297062e-05	0.000395992	0.00033742085	0.00013383882	8.281867e-05	0.00037160236	0.000103051214	0.0006598354	0.00024764435	-0.0003453296	1.8906081e-05	-0.00042351047	0.0006409652	0.00018951957	-0.000116769355	0.00032100087	0.00040989934	0.00020189215	0.00030011364	-0.00013993442	-0.00027141048	4.3732514e-05	0.0009049412	0.0002619086	0.00016096268	-0.0004547412	0.00048253383	-0.00011128953	-0.00017506807	-0.00014839345	-0.00012427745	0.0006314911	-0.0001763353	0.00024078453	2.0959547e-05	0.0004428224	0.00032701832	-0.00022745719	0.00026363955	0.00043919534	0.00019132275	0.00017081495	0.0001823715	-0.00025109202	0.00016235757	-0.0002524539	-8.701956e-05	-0.00074897363	-0.00063673116	0.00013145203	-0.00018998014	-0.0005392037	0.00035461932	-1.5781832e-05	0.00018118351	0.00017646699	5.953632e-05	0.00029049162	-7.755765e-05	-0.00029335197	0.000344666	0.00011581949	-7.9634534e-05	0.0003946693	-0.000616545	0.0001119307	-0.0005504451	0.00040497846	-0.0003402261	-0.00052590115	-0.0001040871	-0.00013884125	0.00020218086	-0.0002530988	-0.0002662512	0.00045502954	0.00011812306	0.00017518911	0.00033376328	-0.00016356	-0.00029755375	-7.049663e-05	-0.00016401595	0.00014860452	-4.5455792e-05	0.00028112502	3.5990645e-06	-7.553138e-05	-0.00061401905	-0.00027398975	-0.00017393779	-0.00012122246	-7.32797e-05	0.00022669518	-0.0003898158	0.00028906792	-1.2930645e-05	-0.0001330055	0.00013857764	3.3258726e-05	0.00026625913	0.00031424343	-5.0248746e-05	-0.00024211666	-0.000120495606	-0.00013610524	-0.0001156288	-0.00043298662	0.00021785064	-9.885025e-05	-2.02694e-05	-7.0678034e-05	-0.0003725583	-0.00013479994	-0.00010611565	-0.00021446872	0.00039961227	-0.00038190157	-0.00022279669	8.049123e-05	-0.0007602805	0.00010130976	-0.00029885076	-0.0003805779	0.00033395435	-0.00047034686	9.020232e-05	2.7476428e-05	-0.00024838097	-0.00024036695	0.0005564399	0.00022106749	-2.2149557e-05	-0.000113640985	-0.0003906829	0.00036698137	0.00024844575	-0.00032167247	-0.0006075894	-0.00037256573	-0.0004659812	-0.00058588653	-0.000114574505	0.00035771218	-9.18258e-05	-0.0004546651	-5.462564e-05	-0.00038798802	-4.2107742e-05	-0.00014291264	-0.00014388154	-9.5466436e-05	8.6967986e-05	-0.00013279554	0.00046134842	0.0007344269	0.00039284382	0.00033846102	-9.01099e-05	-0.0002568651	-6.795036e-05	-0.00025912808	6.141658e-05	-0.00049816247	0.0002796965	0.00041653827	0.00024088919	-0.0004584045	0.00038861245	0.00026237703	5.0225517e-05	-0.000600955	0.00038202768	-0.000571702	-0.0004272067	-0.0004361025	0.00014416462	0.00034803682	-0.00036023837	-7.748147e-05	0.00012017218	-0.00045330692	-6.221236e-06	0.00017571676	-0.00041303603	0.00037307772	0.00069937954	0.00015650313	7.390333e-06	-0.0002984069	-0.00010882312	0.00041319212	0.00037424307	-0.00018462341	0.00024884014	-0.00027271063	-0.0001418215	-0.0003358442	-0.0004454228	-4.296102e-05	-0.00037153257	0.0007127671	9.786541e-05	-9.545379e-05	0.0005023152	-0.00047938488	0.00030560832	-0.00036992045	0.000377072	0.00035132663	-6.4893145e-05	0.00033557386	0.00041322154	-0.00031459128	-1.4906318e-05	-0.00066574255	-2.0628071e-05	-0.00064015057	0.00015116068	-0.0004512479	-1.4826134e-05	-0.0007990824	0.0003894461	-1.2178179e-05	0.0005302942	0.00071009225	-0.0005218866	-0.00017570573	-0.0005088059	-0.0006425515	8.100593e-05	0.000106270934	-0.0003101527	-0.0006095137	0.00013690144	-0.00039962464	-0.00042407276	7.784162e-05	-0.00041151792	0.00028645003
Mean_9	9.8875396e-05	-0.0002190952	-0.0005561378	-0.00037848132	0.0007535623	5.1962714e-05	-0.00035266983	0.000344302	0.00015099895	0.0004750826	0.00022842616	9.003089e-05	0.0003563912	0.00038246388	0.0001840521	0.000561075	0.00035122596	-0.0005153687	0.00018366304	-0.0003372486	9.510812e-05	0.00038075136	0.00043251563	-0.0003239365	-0.00032643962	-0.00017215461	-0.00034660223	0.00023611354	5.3906355e-05	-0.0002283567	-0.00041243056	0.00040420145	-0.00017807659	0.00035399725	0.00028734253	4.2629057e-05	0.00050785975	-0.00023820504	0.00016670508	-0.00028874358	7.039322e-05	-0.00020799221	-0.000117077325	-8.126719e-05	0.00023362426	-0.00030630486	-0.0003194885	-8.235538e-05	-0.000110126944	-7.21477e-05	0.00018326488	-0.0004911277	-0.00032953228	-0.00028385897	-0.00056457805	-0.00017590607	-0.00080576265	0.0005407136	-0.00045768538	-0.00018372935	0.0005419985	0.00019159698	0.00037919785	-0.00041658245	-2.4073734e-06	0.00038016742	0.00019518219	0.0005122862	0.00019482715	-0.0005064567	2.243049e-05	-0.00056112814	0.0003214933	-0.00025795092	-0.0001470802	0.00043624875	0.00048989826	0.0003028246	-3.2548214e-05	-2.5849853e-05	-0.00035729303	0.0004659191	0.00068149983	0.00031543904	0.0003602862	-0.0001710213	0.00025064574	9.295445e-05	-8.1778235e-06	-0.00013086543	-0.00056091417	0.0005064929	0.00020259978	-0.00036051983	-0.0002901499	0.00028772966	7.9465404e-05	0.00030702457	0.00020335095	0.0008741113	0.0001603949	-7.292755e-05	-3.3251438e-06	-0.0005354885	0.00038105197	-0.0003061731	0.00029719368	-0.00045814257	1.0536542e-05	5.1991803e-05	9.885003e-05	-0.0002601493	0.00056493754	6.256891e-05	0.00019782338	0.0003043985	0.00065277045	5.038582e-05	0.00018891595	-9.829797e-05	0.00042127032	0.0004465668	-4.568904e-05	0.00027248397	-0.00040595036	6.728279e-05	-0.00047650954	0.00034758874	-0.0002983108	-3.1456628e-05	-0.00011830103	-0.00045989684	1.4970259e-05	-0.00028239493	-0.0002951371	0.00042952975	0.00025193713	0.00051203964	0.00025769477	-4.362776e-07	0.00019021105	3.1413012e-05	-8.463779e-05	0.0002594344	-0.00029043856	0.00019919779	-0.00016625215	-0.00023566153	-0.00046567363	-0.00046972654	-0.00056167133	-5.744153e-05	-0.0001422275	0.0001819563	-0.0004207787	8.933264e-05	-2.5122032e-05	-0.00037639495	0.00025357096	5.6305526e-05	0.00053947634	6.990648e-05	-0.0004605785	-9.994325e-05	-0.00014654783	0.0002726262	-0.0002825704	-7.394756e-05	0.00021873527	0.00010671953	-0.0003580238	2.671719e-06	-0.0005392701	-0.00020898519	-0.0004806532	-0.0003372156	0.00022484694	-0.00015454568	-0.0004411401	-4.3907025e-05	-0.0005764957	0.00041851262	-0.000627914	-0.00067198504	0.00049147225	-0.00059495703	0.00021463286	-8.20295e-05	-0.00028812373	-0.00017687782	0.00048086792	8.3864856e-05	0.00014525131	0.00021356308	-0.000550522	0.00030647934	0.00018400584	-0.00023736517	-0.00011183057	-0.00043960585	-0.00025523556	-0.0007051614	-0.00014190031	0.00012195962	-8.23079e-05	-0.00045355124	-0.00043054007	-0.00043567995	-0.00013933373	-0.00018018634	0.00010212685	4.276378e-06	0.00010758853	4.3047196e-05	0.00022269925	0.00053234294	0.000339002	0.00016298104	-0.00048949046	-0.00048925134	-0.00019696257	-8.050202e-05	-0.00036903404	-7.703831e-05	-0.00021190502	0.0001995874	-0.0002501752	-0.00024561392	0.00046764282	0.00021271955	-0.0003537184	-0.0005485955	-7.788281e-05	-0.00080957037	-0.00034342997	-0.00046672198	0.0003264595	0.00066984637	2.6598276e-05	6.61557e-05	-0.00039028635	-0.00010685563	0.00040216153	0.00026164297	-0.000435163	0.00026659644	0.0005013825	0.00047860295	-0.00027936485	-0.0005937069	0.00015129542	4.775151e-05	4.8638394e-06	-0.00023483414	0.0007522841	-0.0001072824	-0.00023697001	0.00013241057	-0.0003681451	3.374179e-05	0.00027585987	0.00055653614	0.000113422844	1.2247254e-05	0.00073398475	-0.00032251226	0.00032841452	-0.00043869662	0.0005378586	0.00060872093	1.0410771e-05	-7.792163e-05	0.0003943665	-0.0006230223	-7.75778e-06	-0.00031991908	0.00025315242	-0.00040542308	5.0621416e-05	-0.0006118361	-0.00037764956	-0.0005161312	0.00020116167	0.0002083352	0.00016174997	0.0005247945	-0.00020299606	-4.7053407e-05	-0.00054041616	-0.000330579	0.00016774824	0.00027996828	-0.00033888768	-0.0006108745	-0.0004426707	-0.0001938027	-0.0006033608	0.00023772893	-0.00035568565	0.0007526974
Mean_10	0.00016688771	-0.0002800098	-0.00014987886	-0.00045842282	0.00043829496	9.0724396e-05	-0.0004274805	-4.9012083e-06	0.00020088076	7.115935e-05	0.00038274264	0.00032770843	0.00023787441	0.0002714098	0.00016154778	0.0002026809	0.00043469938	-0.0003126681	-0.00018581765	-0.00053526106	0.000107305306	0.00014791127	0.0001528063	0.00031374287	-0.00021724292	0.00027537456	-0.00035756727	0.00035010156	-4.9961604e-05	-9.242018e-05	-0.0003636967	7.727986e-05	0.00033427723	0.00048015916	-0.0002903859	0.000116550036	0.00025681805	-0.0002439715	-0.00012255915	-0.0002590784	5.0635394e-05	-0.00013529885	-0.00032587931	-5.366968e-05	9.113964e-05	-0.00028981388	-0.00034039654	-0.00049828755	-8.9385074e-05	4.6416786e-05	-9.530183e-05	-0.00020917482	-0.0001365891	8.142505e-06	-0.00038284194	-6.17775e-05	-0.00051429676	0.00033576213	-0.00031697412	5.04989e-05	0.00020312544	0.0003656364	5.8426973e-05	4.814342e-05	9.005322e-05	0.00029655983	9.307193e-05	0.0005044724	0.0003261648	-0.00010836963	7.339662e-05	-0.00016409266	0.00061337766	1.9877841e-06	-0.0001975438	0.00022885895	0.0004541677	0.00027208327	0.00020991573	-0.00012630524	-1.929302e-05	-9.092319e-05	0.0006088383	0.0003739707	5.4860804e-05	-0.0002588841	0.0004447313	-2.4338186e-05	-0.00019039538	-0.00018859138	-0.00034416595	0.00039438158	-1.834315e-05	0.0002503871	-0.00017586722	0.00028790915	0.00024026468	-6.216844e-05	0.00025985256	0.00015603271	6.468666e-05	-4.081039e-05	0.00012821238	-0.00028824233	0.00025408732	-0.00019702774	0.00013713267	-0.0005957023	-0.00046191536	4.81107e-05	-0.00017456255	-0.00053567335	0.00030199546	3.766346e-05	0.00029581398	0.00015629194	0.00010744831	0.00016041704	0.00013018487	-0.00020992586	0.00046448736	0.00020164876	1.5008344e-05	0.0002906283	-0.00032421306	0.0001555528	-0.0005434149	0.00014192825	-0.00017536189	-0.000329297	-0.00035351195	-0.00016363332	-9.86655e-05	-0.00021935951	-0.00023332454	0.00037872372	0.00016330494	0.00037247236	0.0002581587	-1.6076297e-05	-0.00014018819	4.640112e-05	-8.4340376e-05	0.000100511614	1.9733048e-05	0.0003341478	7.726112e-05	-0.00012257477	-0.0007236253	-0.00023973257	-0.00031461497	3.871509e-05	-0.00011509442	-0.00010224827	-0.00057957525	-1.3333864e-06	-0.00016258865	-0.0001655644	7.753313e-05	7.0661345e-06	0.00029646716	0.00028672608	-3.394699e-05	-0.00015443057	0.00024216656	-0.0002368103	-5.8045127e-05	-0.00029028568	0.00032799694	-4.4296234e-05	8.4785985e-05	-0.00014799015	-0.00024092317	-0.000287055	-1.8360364e-05	-0.00031115353	0.00040140332	-0.00013524569	-0.00019750364	0.00016412516	-0.0006713409	0.00028395074	-0.0003370782	-0.00021667054	2.979364e-05	-0.000505469	7.4610965e-05	1.4356779e-05	-0.00031368306	-0.00018522958	0.0005186812	0.00017638126	4.352121e-05	3.3674314e-05	-0.00034522617	0.0003234858	0.0001867152	-0.0005179454	-0.00047057672	-0.00030060683	-0.0002527975	-0.0004329198	-0.00030776448	1.2274301e-05	-3.4387274e-06	-0.0002787473	2.1775495e-05	-0.00033216263	-0.00016239076	-0.00031951224	-0.0002847228	2.7424607e-05	0.00022852913	-1.9081412e-05	0.00018565706	0.00045656908	0.00018099738	0.00028340373	-0.00026569568	-0.0001965216	-2.0540414e-05	7.801016e-05	-0.00029289364	-8.818132e-05	-1.2479807e-05	4.911715e-05	-3.344226e-06	-0.0004171362	0.00022687594	0.00017060291	-6.332406e-05	-0.000454761	0.0001296394	-0.00057808176	-0.00027030442	-0.00024043718	0.00023350283	0.00032533842	-0.00029837672	-0.00021876788	9.458036e-05	-0.00019269258	5.828543e-05	-8.213885e-06	-0.00032697304	0.00013385573	0.0006022394	2.2768154e-05	-6.7990164e-05	-0.00020297056	0.00011874333	0.000119652075	4.6960507e-05	-0.000195932	0.0001666036	-0.0003396734	0.00019331096	-0.00036926416	-0.00036945986	0.0001462177	-0.00014054331	0.00056817086	3.465409e-05	9.3534065e-05	0.00045362872	-0.00035061914	0.0003442257	-0.00029371586	0.00022193576	0.00028179112	-5.982791e-05	0.0001549365	0.00026283183	-0.00026785734	8.405939e-05	-0.00048066434	-6.615859e-05	-0.0005560301	7.1030074e-05	-0.0003209251	-7.9437945e-05	-0.0007036953	0.00026535738	0.00014912343	0.00050887046	0.0003188005	-0.00042325666	-6.394085e-05	-0.00026372983	-0.0006546645	2.9950663e-05	0.00011630935	-0.00031604536	-0.00046191286	3.5439243e-05	-0.00024397633	-0.00046261118	-4.977666e-05	-0.00027735514	0.00022909029
Mean_11	5.768449e-05	-0.00020388336	-0.00058890873	-0.0004556995	0.0007957211	9.385228e-05	-0.00031879314	0.0004312626	0.00014120921	0.00047727357	0.00020301981	0.00013292984	0.00032286366	0.00034538482	0.00019889385	0.0005159104	0.00032234684	-0.0005257299	0.00023630788	-0.00033485948	9.405659e-05	0.0003498145	0.00042038393	-0.0002160889	-0.00029211093	-0.00018345825	-0.00026169585	0.00021101176	7.329459e-05	-0.00028846622	-0.00042761353	0.0003332203	-0.0001744067	0.00029203127	0.0002491585	2.207388e-06	0.0005271197	-0.00028171437	0.00013255063	-0.00027245822	9.6359545e-05	-0.00026428475	-8.158337e-05	5.7561836e-05	0.00026109864	-0.00019505167	-0.00032453425	-8.278137e-05	-0.000121891804	-0.00011588417	7.12527e-05	-0.0005050016	-0.00027414726	-0.00022169348	-0.00051174336	-0.00023594535	-0.00079848716	0.00048059123	-0.00046582663	-0.00016005588	0.0005450196	0.00021977173	0.00034069316	-0.0003610172	5.6504006e-05	0.00039504378	0.00025821853	0.0005568318	0.00017186419	-0.0005310429	-5.1587715e-05	-0.00052888296	0.0004971286	-0.0002570523	-0.00013543178	0.0004346106	0.00047220997	0.000229382	-7.969244e-05	-2.6328571e-05	-0.000391262	0.00047354502	0.00069236004	0.00028452394	0.00032665857	-0.00020901143	0.00026686152	1.9181729e-05	8.094046e-05	-6.916804e-05	-0.00057862716	0.00058330764	0.00027142817	-0.00026537673	-0.00024763832	0.00040491356	0.00012960253	0.00029443458	0.0001984159	0.0008944185	0.00017285162	9.883925e-08	3.9027298e-05	-0.00050481694	0.00035839525	-0.00027837988	0.0003868211	-0.0004446206	5.304643e-06	5.3547454e-05	0.00011442395	-0.00021944266	0.00054091954	2.5937603e-05	9.420752e-05	0.00021593334	0.0006421223	8.602886e-05	0.00026021802	-8.2907005e-05	0.00043503416	0.000421219	-8.871149e-05	0.00024129228	-0.0004293122	5.051134e-05	-0.0005276419	0.00026569652	-0.00030045837	-0.00015638914	-7.688432e-05	-0.00038102784	7.051279e-05	-0.00031756112	-0.0002787983	0.00049415714	0.00031406447	0.00054458674	0.00029048006	5.5756733e-05	0.00019324012	1.403772e-05	-0.00013061902	0.00026175936	-0.00030232474	0.00020815986	-0.00011465482	-0.00016349791	-0.0005239344	-0.00042256358	-0.000625175	-2.6805425e-05	-0.00020808108	0.00020809207	-0.0005747174	4.6121455e-05	1.2487126e-05	-0.00041404387	0.00023019033	2.2060312e-05	0.00048349137	0.00013325912	-0.00048082325	-3.1141335e-05	-0.0001337421	0.00033941196	-0.0002690193	-1.2653811e-05	0.00026099832	0.00013116737	-0.00034792814	0.00013258183	-0.00061275676	-0.0003183903	-0.00037514608	-0.00027633758	0.00026378935	-0.0002571017	-0.0004897466	-2.356198e-05	-0.00072793453	0.00038814443	-0.0007371331	-0.00070176326	0.0004339724	-0.00053259084	0.0002457716	-0.000120143726	-0.00026744668	-0.00012232897	0.0005429448	0.0001383992	1.8534773e-05	0.00013955706	-0.0005468142	0.00028733056	0.00018135573	-0.0002192805	-0.00015107532	-0.0004906058	-0.0002613629	-0.0006443441	-0.00023795357	9.576263e-05	-6.980705e-05	-0.00047891054	-0.00036473275	-0.00053639384	-0.00018932625	-0.00020067516	4.7191395e-05	4.44465e-05	0.00017344701	2.1354948e-05	0.00015910984	0.00061692385	0.00024186088	0.00024432904	-0.00048181508	-0.00043660664	-0.00028013563	-0.00016087253	-0.0004055594	-0.0001456588	-0.00013693247	0.00024373941	-0.0002923472	-0.00024900233	0.00057866384	0.00022775917	-0.00032975225	-0.00060726923	-0.000102712394	-0.0008514731	-0.00029818492	-0.00046119513	0.0003813161	0.00065959455	5.7381418e-05	6.2233215e-05	-0.00034328888	-3.1541156e-05	0.0003543155	0.00021908987	-0.00039587263	0.0002414974	0.00044968075	0.00042486182	-0.00020267222	-0.0006545021	0.00022670635	-1.5489337e-05	3.0115376e-05	-0.00027495378	0.0008078853	-0.00011781003	-0.0002464636	0.00015745284	-0.00032596037	4.237832e-05	0.00028965808	0.0005461143	3.1180083e-05	5.878249e-06	0.00079780637	-0.000324578	0.00027187017	-0.00039589487	0.00057409186	0.00056345994	-9.6289725e-05	0.00010705424	0.00044254234	-0.0005827572	4.316776e-05	-0.00041385612	0.00022599171	-0.00042381586	4.8496517e-05	-0.0005809096	-0.00032998106	-0.0005308362	0.00011983171	0.00014848605	0.00031373024	0.00057305105	-0.00018560654	-0.00012737983	-0.0005020763	-0.0004158429	0.00014594498	0.00022061709	-0.00035230548	-0.00056101516	-0.00037502628	-0.00026907554	-0.00061703095	0.00024943205	-0.00030723645	0.0007999724
Mean_12	0.0003033615	-0.0003645729	-0.00059193926	-0.00047558942	0.00085274887	7.265068e-05	-0.0006105083	0.0003377964	0.00041111777	0.00040196173	0.00025780877	0.00020780433	0.0006808562	0.000624124	0.00040929584	0.00059769914	0.00034442512	-0.00058745936	9.146679e-05	-0.00077712565	7.447704e-05	0.0003716405	0.00030765362	3.105731e-05	-0.0004252027	-6.411379e-06	-0.00031660515	0.00018219282	7.795264e-05	-0.000638536	-0.00040865067	0.0003278834	-1.8925457e-05	0.0006254071	-4.7221136e-05	-7.3490687e-06	0.000551236	-0.0005465281	0.00025052336	-0.0006127474	-0.00013766397	-0.00054996856	-0.00045215097	-1.991443e-05	0.00023596545	-0.000149253	-0.00019050312	-0.0005102565	-0.0002835077	-0.00020359259	-0.00023116122	-0.00048791798	-6.271356e-05	-0.00018449586	-0.00067020906	-0.00030344483	-0.0007239695	0.0007219812	-0.0005848724	-0.00047600784	0.00038709873	0.000356514	0.0002964159	-8.526648e-05	0.0002684228	0.00070703315	0.0003755022	0.0008979149	0.00039242022	-0.0006876196	-8.0017264e-05	-0.00039539242	0.00090398575	9.826446e-06	-6.7212124e-05	0.00033403418	0.00065328245	0.00045068646	0.00015072043	-0.00015373503	-0.0005788612	0.00015866078	0.00083090056	0.0005052769	0.00037695104	-0.00026680157	0.00038438392	-0.00023779577	-1.5893102e-05	-0.0001776844	-0.00060058746	0.00075652415	-2.714154e-05	0.00016953427	-0.000121088866	0.00061025505	0.00023599365	-6.292139e-05	0.0004554264	0.00086317246	0.00025536443	2.5425696e-05	-1.1898163e-05	-0.00038223187	0.00041457723	-0.000375228	0.00019571855	-0.00093358697	-0.00037297542	-2.7852993e-05	-0.00022936144	-0.00052225206	0.0008859196	-0.00014615491	0.00030309326	0.00021003047	0.00062784675	0.00020771608	0.0002051195	-6.556681e-05	0.0003593016	0.0005932647	-0.00043438427	0.000323838	-0.0006060921	6.907238e-05	-0.0006481397	0.00047554594	-0.00041514475	-0.00057702855	-0.000195006	-9.058319e-05	1.6225855e-05	-9.694907e-05	-0.0005153868	0.00046351086	0.0003184799	0.0004009698	0.00041442568	0.00013790223	-5.1590767e-05	-6.582749e-05	-0.0002558858	0.00026533724	-0.00030196275	0.0004032582	-3.070891e-05	3.527954e-05	-0.00065220566	-0.00067981286	-0.0004951351	5.748233e-05	5.5807624e-05	0.0004999623	-0.00043723604	0.00017332897	7.070286e-05	-0.00043020723	0.00032728905	-4.7861897e-05	0.00050983863	3.690359e-05	-0.00022476242	-0.000304342	-8.863906e-05	0.00046008325	-0.00024384473	-0.00023790383	0.00040991476	0.00018622074	-0.00022114847	0.00018611872	-0.000710331	-0.00032089103	-0.0004834022	-0.00026938712	0.00045562218	-0.0004584669	-0.00069826934	0.00016454808	-0.0009426636	6.80663e-05	-0.00064119464	-0.00079456944	0.00036985672	-0.0005721565	0.00010716942	-0.0002716351	-0.00020105482	-0.00030806463	0.0005723258	0.00014415356	2.240435e-05	0.00011514792	-0.00041833936	0.00047512335	0.00014247156	-0.00028098657	-0.00038598117	-0.00073732634	-0.00066959724	-0.0006750046	-0.0002981636	0.0003255728	3.982086e-05	-0.00058846455	-0.00027578403	-0.0007079976	-0.00028058802	-0.00015445669	2.363743e-05	-0.00016032967	6.489483e-05	-6.0574494e-05	0.00021724513	0.0007978316	0.00020079002	0.0005092192	-0.00032325278	-0.00033063197	-0.00030497066	-0.00031762366	-0.00033534065	-0.0004652585	2.538698e-05	0.00020712009	-3.907691e-05	-0.0003206431	0.00062202313	0.0005816533	-0.0002854794	-0.0008089857	0.00019779432	-0.00079931074	-0.00046197843	-0.0006714718	0.00020826882	0.0007827891	-0.00026720276	9.206106e-05	0.00012251928	-0.00045454837	0.00017400284	0.0005259268	-0.00029830163	0.0004681974	0.00066541135	0.00013150815	-0.00014385002	-0.0006371189	0.00019326595	0.00022028277	0.00029965784	-0.00044725294	0.00072260085	-0.00023354604	2.744402e-06	-0.0002113132	-0.00048392045	2.4682031e-05	7.4420685e-05	0.0006146941	0.00023042422	-0.00010865059	0.0007999591	-0.0003063772	0.00037091828	-0.00036073956	0.00038672003	0.00036264933	-5.518994e-05	0.00037128938	0.0005429187	-0.0005753867	0.0003444004	-0.00068221625	6.26408e-05	-0.0007994973	-7.242905e-05	-0.0007637105	-0.00012933975	-0.0007162483	0.00042069712	0.00017853949	0.00079631864	0.00090046664	-0.00042461779	-5.613452e-05	-0.00061435316	-0.000561342	9.033706e-05	0.00011169097	-0.0003401013	-0.0008153239	-0.00018274551	-0.00040222378	-0.0007943505	0.00035645737	-0.00046691397	0.0006774602
Mean_13	-0.00018017224	-0.0002551303	-0.00044031683	-0.0004886554	0.000821387	-7.830013e-05	-0.0002547784	0.0002607808	0.00085570745	0.00057813915	0.00015658858	2.5232574e-05	0.00049245363	0.00042597408	-0.00018743318	0.00021324096	0.0005977039	0.000113747265	-7.2274424e-06	-0.0003429168	0.00020015365	4.5789504e-05	0.00059840403	-0.00041377687	-0.00047031592	0.00058813044	-0.0004797081	-4.829683e-05	-1.2756638e-05	-0.00011103279	-0.00042171605	0.0007598362	0.00012506562	0.00063122285	-0.00012788983	0.00060064567	0.00034012922	-0.0006168313	0.0003629683	-0.00052250846	-0.00014630129	-0.00044354642	-8.8810644e-05	-0.00033686284	0.00020830955	8.500334e-05	-0.0004961883	3.4084594e-06	-0.00045194692	-0.0003225698	-1.322322e-05	-0.00077565166	-7.995602e-05	-0.00062505546	-0.00090399734	-6.636016e-05	-0.0007698349	0.0003088146	-0.0007931035	0.00021293758	0.00012824581	0.00026695384	0.00017722679	0.00029674426	-4.2267144e-05	0.00042366295	0.0004788208	0.00037873624	3.326177e-05	-0.0007206613	0.0004949689	-0.0007004761	0.00056190894	-0.00046469577	0.00016544716	0.00044717322	0.00085057004	0.00041751115	0.000105239305	0.00017335809	-0.0002719673	0.00014909734	0.00092868187	-0.00028201434	0.0002836013	-5.7891884e-05	0.00040968435	-0.00045204101	-0.00013144352	-0.00018365812	-0.00023103286	0.00070332794	0.00022172005	-9.9817764e-05	-0.0002511605	0.00081114954	0.0001038577	0.00046312154	0.00026354173	0.00018694243	-8.174351e-06	-0.00015170101	-0.0003954582	-9.966214e-05	8.663984e-05	-0.0003427363	0.0004557144	-0.0009856872	-0.00029101348	-2.4300363e-05	-0.00025811756	-4.468247e-06	0.00046231117	0.0001864307	-0.00022731317	0.00027621066	0.0004701419	-0.00015284395	0.00041615978	-6.512602e-05	1.7312783e-05	0.00066644704	-0.000111707006	0.00034420795	-0.00045361248	0.00030134665	-0.00016250348	0.0008584066	-0.00031807163	-0.00012835566	-7.768376e-05	-6.8533525e-05	8.718558e-05	0.0002411938	-0.0001321991	0.0005237147	4.7677673e-05	0.0006805775	0.00050111	-0.00025698327	0.000115218085	-0.00012904503	-0.0002217071	0.00027880736	0.00038298915	0.00034157245	-0.00020244598	0.00027106013	-0.0006414832	3.171241e-06	-0.0010152225	-0.00021766822	-0.00058177323	-0.00011955175	-0.000634468	0.0003043263	6.701446e-05	-6.9477785e-05	0.00031835877	0.00015725155	5.716262e-05	-0.00019295633	-0.0005013695	5.480758e-05	0.00016313833	0.00075230317	-0.00040699402	-0.0005631536	0.00028431823	0.000120239696	9.523943e-05	0.00030075363	-0.0009182321	-0.00045415206	4.3219e-05	0.00011085194	0.00082738406	8.10583e-05	-0.00066064356	0.00012883644	-0.00050767174	0.00036863977	-0.001085281	-0.00096852623	6.251894e-05	-0.0004031083	0.00028268673	-0.00028035382	-0.00048416184	-0.0006067637	0.0007108574	0.000555809	-2.1789601e-05	-0.000114500246	7.1164695e-06	0.0001392508	0.00012344011	-0.00031729916	2.5376463e-05	-0.0007270962	2.627242e-05	-0.0003696642	-0.00026282683	-0.00016701287	-1.663356e-05	-0.0006780141	0.0001087752	-0.00056236796	0.0001243285	0.0004065578	-0.00017044222	3.8620557e-05	-0.00012321837	-8.963971e-05	9.590337e-05	0.001314559	-0.00015941469	0.00056778407	-0.00070933305	3.374416e-05	-0.00023526025	-0.00034049433	-0.0007182395	-0.00034611928	-0.00029721917	0.00058125996	-0.00015559854	-0.00049969845	0.00027189575	0.00012839891	-0.00022548327	-0.0010504052	-0.00012876811	-0.00064092275	-0.00026933305	-0.0001842987	0.0007790397	0.0006934382	-0.00014721528	-9.04866e-05	-9.6970034e-05	-0.00022797895	0.0003744107	0.00035871504	-0.0001425504	0.00021336682	0.00070831494	0.00010177355	-0.00029085032	-0.00028701915	-0.0002842127	0.000112455666	-3.761559e-05	-0.000173447	0.0010243352	3.13178e-05	-0.00023435653	-6.0260714e-05	-0.00057170494	0.00031248553	0.0001928804	0.0003614261	-0.00026604714	4.8144233e-05	0.00047705765	-0.00010000097	0.00044629627	-0.0003885611	0.00052213506	0.000802001	-0.00022599712	0.00087452424	0.00020972447	-0.0004570254	-9.768595e-05	-0.0005404609	0.0003500697	-0.0006250626	-0.00014167215	-0.00052924367	0.00014241223	-0.00022910544	-0.00014484367	-3.059631e-05	0.00016620844	0.00052296347	-0.00026999178	0.00028164213	-0.00021804708	-0.00091844966	-0.000142439	0.0006651813	-0.0003072526	-0.0005046432	-0.00017446194	5.60268e-05	-0.0005617143	-6.0570783e-06	-0.00041628533	0.00037054898
Mean_14	6.1708465e-06	-0.00031760256	-9.27058e-05	8.207088e-05	-0.00031505193	0.0006041722	0.00022399948	0.0004679202	-0.00082806294	0.00040573915	-0.00023162652	8.342496e-05	-0.00022737635	-0.00012827305	-3.6577385e-05	0.00040623196	3.7290276e-05	-0.00022790104	0.00031995305	-0.00015426161	-0.0010839693	0.00095451466	0.0009827885	-0.00022436139	0.00024119066	-0.00040108594	3.396427e-05	0.00019678252	0.00023956515	0.00022686964	0.00013749205	-0.0006766994	-0.00045044546	-0.00013316293	0.0006624411	0.0005582396	7.247428e-05	-0.00023202348	0.00045433827	0.00015669792	4.9773394e-06	-0.00012501168	0.00048198333	-0.0006602817	-0.00072053354	-0.00042745448	-1.3391575e-05	0.00016282493	-9.3269504e-05	-9.159907e-05	-5.4414984e-05	0.0006191559	-0.0007207947	0.000118737335	0.0008497746	0.000720398	-0.00020125369	0.00023836759	-0.0004724116	0.00078952144	0.000970027	0.00043314692	5.679492e-05	-0.0002647318	0.00020919925	0.00016492915	-0.00033633658	-0.00081580825	-0.00022918191	3.4471293e-05	0.0003651434	-0.00031112763	0.00011176599	-0.00016451557	-0.000212393	-0.0003078487	-0.0003907499	0.00015059956	-0.00043880768	-0.00096906	-0.00023514067	0.0006397493	-0.00015008217	0.0005827734	-0.0001596157	-0.00011365058	-0.0011834844	0.00027348622	-0.0005634048	0.0003736151	-0.00019351271	0.00029598575	0.0003859251	0.000121587385	6.2184445e-05	-0.00019811104	-0.0011150021	4.0568216e-06	0.000437076	0.0006805318	-1.936012e-05	-0.0005373945	0.00027556226	-0.00043066018	6.4684464e-05	-0.00023942949	0.0003865816	0.0003245246	-0.00021552529	-0.0004476346	0.0008459733	-0.00037632158	0.00010572106	-0.00021126588	-4.1062023e-05	0.00044093258	-8.262431e-05	0.0005304278	0.00025628312	0.00022436696	-0.00014519996	8.492691e-06	0.00031196323	-0.00019075935	0.00011846214	0.00070692546	-0.00017267512	0.0004630992	5.0630813e-05	0.00019134996	0.0005579291	0.00010133974	0.00025039003	-0.0007686389	-0.00015803483	0.00037811496	0.00030359323	0.00093234517	0.00046728645	-0.00014413067	0.00063658634	-0.00038801352	0.000110536384	-0.0005060428	0.0006260195	0.00045105326	0.00019025632	-0.0012523766	-0.00042103603	0.00084894686	-0.00023010951	-0.0008290906	0.00030240364	-0.00044051802	0.00011715062	-0.00047763318	0.0002562288	-0.0005035106	0.00032549608	0.00044165124	0.00020070764	0.00027838576	-0.00040698922	0.0005417554	-9.803064e-05	0.00032369423	0.00031703225	3.0502057e-05	-0.0010285302	4.830887e-05	-6.450367e-05	-0.00012397997	-0.0003765172	6.335898e-05	0.000115581024	-0.0006514638	-4.9448936e-05	0.00070731994	-0.00041077976	-0.0008174583	-0.00043970844	-0.00013600517	-0.00031102521	-0.00026939553	0.00048997503	-0.00032921135	0.0005449085	0.00012595304	0.00011827678	-0.00030542084	0.00081752875	-0.00012427299	0.00031524952	-0.0001163895	-0.0007757579	-0.00043232008	0.00033944283	-0.0006282602	0.00015145664	6.256048e-05	0.0008540712	-0.0004178656	0.0002752537	0.0005976029	0.00078155875	-0.00021527572	-0.00081085134	-0.0005024885	0.00051945506	0.00040172716	-0.00016050188	0.00034938825	0.0005890865	2.9008545e-05	-0.00030462115	-0.00045340773	0.0011090627	3.5226705e-05	-0.00014207962	-0.0005969161	-0.0007921762	1.7049868e-05	5.7931942e-05	0.00037399106	0.00026939114	0.00026177007	-0.00062649726	-0.00021274312	0.0003333011	-1.2597205e-05	8.522467e-05	-0.00018201514	-7.282847e-05	-0.00046453372	-0.00083429884	0.0003462506	0.0007530456	0.0004538379	0.00037280226	-6.860287e-05	-0.0005007212	0.00032345986	0.00047427462	-4.708122e-05	-0.0009890058	-0.0007422501	-0.0006538755	0.00066588377	-0.00020628703	-0.00050898263	-2.3856797e-05	0.00015910866	-0.00031361138	3.7451144e-05	9.710869e-05	-6.0125472e-05	0.00036242607	3.2581254e-06	-0.00024213055	0.0003822041	0.0003653623	-8.609861e-05	-0.00078402506	-4.8469607e-05	0.0005657119	-0.00011177285	0.00041884254	-0.00048679826	0.00020095857	-0.00016380627	-0.00020426448	-0.00023060269	-0.0003415886	0.00022131151	-0.00039716318	-0.0007074129	0.00015820189	0.000486762	-0.0005369334	-0.0003712177	-0.00090006593	-0.00049693167	-0.0001543996	0.0006717421	-0.0002503262	-0.0002653852	-1.759864e-05	-0.00073026493	-0.00015590487	0.0004983745	0.00034907195	0.0006137511	-0.00021514566	0.00025929514	-0.0005578676	0.00036295163	0.00017890346	7.477298e-06	-0.00015052153	0.00042504419
Mean_15	0.00017643033	-0.00065453135	0.00016841792	0.00019981991	-0.0006272624	0.00059188285	-5.64457e-05	0.00011668777	-0.00073472114	0.0004736937	2.2199627e-06	5.1503474e-05	-0.00037339	-0.00040154753	0.000327041	0.00016893125	0.00013920499	-0.00023693954	0.00029701064	0.00023893529	-0.0011597945	0.0007923593	0.0010613997	-0.000104230225	-1.3767101e-05	-0.00039683003	0.0003079032	1.659675e-06	7.482161e-05	6.219374e-05	0.0004912971	-0.000810811	-0.00071452145	0.00011934468	0.00067817495	0.0005790919	-0.00031000204	-0.0006664358	0.0008019765	0.00073513266	0.00025547468	0.00015233962	0.00027321457	-0.00077402877	-0.00025507036	-0.00068561034	-0.00035294192	-0.00025060342	0.00019576703	0.00039288754	0.00026485548	0.00030697355	-0.00094416965	-0.00038554636	0.0014169678	0.0005543646	-0.00049011136	0.00053670595	-0.0008184978	0.00066473504	0.0012128437	0.0005908704	-0.0005316062	-0.00055304007	0.0004282281	4.8601846e-06	-0.00035469214	-0.0006606756	0.0003350716	9.3627175e-05	0.00012994651	-0.00029791088	-0.00029551628	-0.0008024993	-0.0006141937	-0.00022128505	8.677408e-05	5.4959633e-05	3.3740933e-05	-0.00048054557	4.9526065e-05	0.00066126237	2.7439867e-06	0.00106271	-0.00052711	-0.00037334254	-0.0009899581	-0.00013216583	-0.0006095778	0.00013299352	-0.00011931592	3.307179e-05	0.00016088576	-0.0001282202	-0.00017226127	-0.00023947279	-0.0011512255	0.0004341482	0.0006817875	-9.8589226e-05	-0.00068180426	-0.00055029476	0.00018235443	-0.0011581649	0.00065498514	-7.489822e-05	0.00070280844	6.8672445e-05	5.001144e-05	-0.00012004315	0.00084756076	-0.00026768685	0.00010459218	-3.5185334e-05	-0.00016486632	0.00039122472	0.00047011874	0.00021684055	0.00035571842	0.0001059811	-0.00013011838	-0.0004326206	-0.00011282426	-0.00074225414	0.00031570558	0.00039096002	-0.00050827576	0.0013703378	-0.00039608488	0.0006597761	0.00032161723	-0.0004076888	-0.0002464323	-0.0008426932	-0.00038830776	-0.000118090305	0.00019460637	0.00088522583	0.00040922395	-0.00047269752	0.0008733699	-0.0006979277	-0.0006321866	-0.00077497005	0.00075068214	0.00044466436	0.0002702897	-0.0013512196	-0.00019841587	0.0006123775	0.0003677016	-0.00048410206	8.3442115e-05	-0.00066187046	-0.0002159112	-0.00057090906	0.00021099397	-0.00018314192	0.000115471754	0.0005655268	0.00043530596	0.0004578708	2.331085e-05	0.0007416929	-0.00024781367	-0.00024413336	9.849022e-05	-0.00025013296	-0.00065080676	0.00036472376	0.00044108563	-3.0311285e-05	-0.0004335841	0.000129346	-0.00019601076	-0.001088797	-6.5728345e-05	0.0007053418	-0.00035027604	-0.0006361628	-1.6933069e-05	-7.200016e-06	-0.00049410545	-2.247192e-05	0.0004171	-0.00063054013	0.0006307749	0.00019267896	0.00012675383	-6.929686e-05	0.0006528537	-8.665272e-05	0.00069476786	-0.0003515879	-0.0004552833	-0.00038205073	0.0007783331	-0.00063785445	-3.757188e-05	3.453503e-05	0.00074709085	-0.00030634293	0.00081636064	0.0001747349	0.00080947625	-0.0003447133	-0.0006489463	8.297531e-06	0.000802865	0.00030977794	-0.000372701	0.00085842836	0.0006449698	-0.00014384593	-4.5941706e-05	-0.0009023687	0.0011956507	-9.7513526e-05	0.00032159683	-0.0008967505	-0.00072488276	0.00060063665	1.2473276e-05	0.0006713641	0.0002932109	0.00023805181	-0.00053163274	-0.00026249525	0.0005673196	-0.00021319526	-0.00024326846	0.00021126447	-0.00043457627	-0.00020457133	-0.0007334568	0.00036966396	0.00071706163	0.000749093	-0.00017514708	-0.0005774637	-0.00043188725	0.0001196195	0.00040327967	-0.00067208265	-0.0013040699	-0.0010017069	-3.2528496e-05	0.0004419901	-0.00044481442	-0.00045840428	0.0006967394	0.0009970433	-0.0005182621	-6.773526e-05	-0.0002511223	-0.00031229143	-0.00039679973	0.000681253	-0.00071647094	0.0003902033	4.9543352e-05	0.00033864053	-0.00078628847	-0.00036990116	0.0008331312	-0.0003418612	0.00066428026	-0.00056253374	-0.00015114516	0.00014535738	0.00020690968	-0.0006606509	-0.0005943394	0.00012731641	-0.00030665824	-0.0004956322	0.0002430472	0.00045041888	-0.00090882095	-0.00088083814	-0.0012055488	-0.00082706666	0.00020630604	0.0010749806	-0.0004103715	-0.0003923908	-0.00012636818	3.750269e-05	-0.00029867253	0.0008084055	0.0005569824	0.0008239408	7.301309e-05	0.00015072133	-0.00030546292	1.2353848e-05	-0.00014714562	0.00033632794	-0.0006527261	0.0002985747
Mean_16	-6.7313995e-05	-0.00058947754	-0.0004081191	-0.00025312463	0.00032800972	-1.3821372e-05	-0.00022715302	0.00018225933	0.0001544925	0.00032926767	-6.395811e-05	0.00010870896	0.00036648373	7.928366e-05	0.00014643524	0.00053049834	0.00017123761	-0.0002213535	-8.419116e-05	-2.8601396e-05	-6.489345e-05	0.0003792941	0.00051593344	-0.00042108409	-6.9132606e-05	-0.000372341	1.8539764e-05	-0.00015319255	0.00022530949	0.00023038716	-0.00031575173	-0.00014326116	-0.00022919	-8.786116e-05	0.00046428174	0.00013520454	0.00013696274	-5.670244e-05	0.00033569807	3.391748e-05	0.00029494133	0.00019590069	-3.4089782e-05	-0.00021952705	9.559224e-05	-0.00039706327	-0.00023897905	4.9940827e-05	-3.185935e-05	-5.573888e-05	6.392693e-05	3.945518e-05	-0.0005029964	-0.0002578507	0.00011737319	-6.163989e-05	-0.00048019632	0.00050370314	-0.000353278	0.00028215774	0.0003144543	0.0001058706	0.0003571303	-0.00014219496	0.00032809548	0.00058391434	-0.00038112007	0.0004668029	-8.118814e-05	-0.00042262278	-3.5533354e-05	-0.00027200434	0.00029964835	-0.00013808506	6.906798e-06	0.00019157016	0.00013484957	0.00033409067	-1.76688e-05	1.6299584e-05	-0.00010862122	0.00057765323	0.0004164955	0.00018112331	0.0003382844	-9.390896e-06	-0.00021102141	0.00015537786	-5.200956e-05	8.3828825e-05	-0.00039626553	0.00047531608	5.926891e-05	-0.00014680106	0.00030496786	0.00014253563	-0.00044146288	4.41439e-05	-0.00020545896	0.00033031675	-7.5552e-05	-0.00030388084	7.436063e-05	-0.00019008013	0.00028113628	-1.3783484e-05	6.1503206e-06	-0.00011740386	4.9033562e-05	0.00018175143	0.0003300293	-0.0002594984	0.00017717508	-0.00020753324	0.000111314155	0.00032921552	0.00027882704	0.00044344942	3.2486667e-05	-0.00015879916	0.0001986897	0.00059104187	0.00018213896	0.000327067	-0.00023683645	0.00013070331	-0.0005397038	0.00049640157	-0.00023193509	0.00014496814	0.0002182824	-0.00016153722	0.00042351347	-0.0005540308	-0.00024321936	0.00016659674	0.00046858483	0.00069348584	-6.0887403e-05	-7.07386e-05	0.00018500096	-0.00032682286	-3.0920306e-05	1.3511207e-05	-6.09791e-06	0.0004465946	0.00017729921	-0.0001919083	-0.00013560241	-1.7128641e-05	-0.00062312937	-0.0004697028	8.828005e-05	-0.00016033756	2.0385414e-05	-3.069789e-05	0.00021001333	-0.00036799564	0.00051589	0.00020440674	0.00011928659	0.00016997418	-8.936007e-05	0.00015030215	4.112591e-05	0.000183868	-0.0001784601	8.5329586e-05	-0.00015326323	0.00011134073	-0.0002917946	0.00018838911	-0.00025207136	-0.0004037166	-0.0006046961	-9.983272e-05	-4.868874e-06	0.00013689965	-0.00051673054	-0.00012577449	-0.00047107812	9.7777556e-05	-0.00013958912	-0.00028262008	5.6548626e-05	-0.0007274105	0.00041222438	-0.0002539764	0.00012059577	-0.00031453834	-2.985807e-05	0.00017096072	0.0002494699	-0.00017542967	-0.00025088986	-0.00013026148	0.00059758296	-0.00019272785	-7.041897e-05	-0.00042500714	-0.00010414288	-0.00032249087	-8.054392e-06	-0.00023813124	0.00024591348	-0.00023040138	-0.00036677462	-0.00042995383	0.00017326468	0.00012044168	0.00039852702	0.00033927715	5.461388e-05	0.00021326166	-0.0001422185	8.47801e-05	0.00015379165	3.7243608e-05	-0.00018761953	-0.0003311084	-9.6161595e-05	-7.41594e-05	-0.00023767527	0.0001456216	0.0001047698	0.00018014893	-0.00018425951	-3.0336654e-05	0.00028345772	0.0001737318	-0.00030427088	-0.00026210802	0.00014927366	-0.0005194085	-0.00015778992	-9.078585e-05	0.00021009936	0.0008006844	0.00039413266	-0.00019926611	-7.865073e-05	-0.0001521131	0.00032770447	1.2285798e-05	-0.000274274	1.3121644e-05	0.0003987826	0.0004883911	-5.6852132e-05	-0.00035831405	0.00015002905	3.780634e-05	3.1061383e-05	-0.0004145867	0.00015867085	-0.0002953399	0.00014231264	-0.00015799222	-0.0003955893	0.00023881302	0.0003830103	0.0004809926	-0.00033915095	0.0004046197	0.00066589063	6.944022e-05	0.00044536794	-0.00065958366	0.00041214743	0.0005100338	3.7819434e-06	0.00014562054	0.0004948583	-0.00032261296	-5.7072582e-05	-0.0005687096	0.0003889573	0.00025042926	-3.791755e-05	-0.0005579982	-0.000464753	-0.000561575	-4.9509348e-05	0.0004686647	-0.0002359045	0.00019847337	-5.711874e-05	-0.00027402613	-0.00044124637	-0.00015756245	0.00036465994	0.0003230606	-0.00035583458	-8.8537265e-05	-0.00020770267	0.00019420835	-3.489779e-05	-6.1023886e-05	-0.00022813317	0.0005243621
Mean_17	0.0005451841	-0.0006677528	6.0721515e-05	0.00020121678	-0.0005771701	0.0006398811	0.00035101766	0.00019159302	-0.0003282583	0.00057060726	-0.0002000581	2.7594167e-05	-0.00016290213	-0.0006937182	0.00066187535	-0.00016899721	0.0002449532	-0.0005789843	1.0701682e-05	-8.351926e-07	-0.0009479389	0.000547192	0.0011860598	-0.00039883907	-0.0003392477	6.7403045e-05	5.7997997e-05	-0.00026938034	-0.00016397826	0.00044088293	0.00035385642	-0.0007783129	-0.000430484	0.0003771691	0.00030418456	0.0007951787	-0.0002742375	-0.0003893142	0.0005437272	0.0008635897	0.0003800172	0.00035071658	-6.314488e-05	-0.0005558667	-0.00017200233	-0.00058302167	-0.0005330665	-0.0005178523	-5.971534e-05	0.00047253785	0.00038293545	0.00028198867	-0.00070774823	-0.00037794682	0.0009495963	0.00045974436	-0.0006191477	2.9792252e-05	-0.0004950273	0.00077813305	0.00077720964	0.0004030742	-0.00015442946	-0.0005169754	6.873272e-05	0.00022549926	-0.00047941468	-0.0006269388	0.00036333967	-0.0001616076	9.532328e-05	0.00013296164	-0.00027285155	-0.00041529207	-0.0004822506	-1.1398748e-05	0.0003687413	1.9471656e-05	-0.00023785332	-0.0002966032	-0.00020954931	0.00041822187	9.786598e-05	0.0005870317	-0.00016297	-0.00035642931	-0.0007425334	-0.00049631525	-0.00083844963	0.00027319673	0.00028773028	0.0004275389	0.00014620331	-2.5161193e-05	-0.0001840528	-0.0003106149	-0.0010636746	0.00017171909	0.00067943137	-0.00032715226	-0.0003897056	-0.00041091873	-0.00023272517	-0.00064094935	0.0007966237	-0.00045366766	0.00038236982	0.00019708928	0.00035581173	0.00018599772	0.0003700265	0.0001544727	0.000218792	0.00023915325	0.00014771201	0.00058955647	0.00056832924	0.00030779187	0.00033455266	0.000253944	-0.00016225324	-0.0007014339	-5.3973665e-05	-0.00024753125	0.00022419715	0.00045019665	-0.00074593426	0.0014292136	-0.00019599663	0.00085754145	0.00041035443	-0.0002400739	-0.00023449532	-0.001007063	-0.00030419978	-0.00010198148	-2.3762695e-05	0.00075327116	-9.295382e-05	-0.0003031307	0.00038358232	-0.00092118845	-0.0004897828	-0.00039159268	0.00033570238	0.00013924332	0.00044970546	-0.0012205783	-0.00012223716	5.0348943e-05	-8.155347e-05	-0.00039905548	3.4109602e-05	-0.000405872	4.4682267e-05	-0.000711846	-0.00016063449	2.3711124e-05	0.0003588588	0.00070558215	-6.750622e-05	-5.090027e-06	1.338101e-05	0.0005698253	-7.8207115e-05	-0.00011888493	-0.00026272621	-0.00058327004	-0.0006391618	0.00053806574	0.00019390821	0.0003629311	-0.0004570105	-3.808472e-05	-0.0005416218	-0.00043568702	-0.0003016955	0.00036579397	5.2834534e-05	-0.0004845185	0.00039235834	0.00023638853	-0.00042107955	0.00022437696	0.00058004446	-0.00013379399	0.00040686043	-1.2266275e-05	0.0004572374	-0.0003519621	0.0002648763	0.00018488505	0.00040271535	1.5749247e-05	-0.00033776037	-0.00039680256	0.00061296485	-0.00020612616	0.00027933868	0.00031095068	0.00026249094	-0.00038822286	0.0007138845	0.00025410432	0.00037537626	-0.0002080702	-0.00015234585	0.00011102469	0.00055868254	0.00037892628	2.9789226e-05	0.00078558485	0.0006732793	-5.038941e-05	-9.606034e-05	-0.00075685116	0.0008688648	0.00011351619	0.00058906793	-0.0005403216	-0.00029808946	0.00019013199	-0.00029875082	0.00064264255	0.0006329259	0.00035345147	-0.0003769735	-9.853623e-05	0.00046990855	-9.5885276e-05	4.976522e-05	-0.00010949161	-2.5371148e-05	0.00012453157	-0.00054481433	0.00062093954	0.00029324184	0.00061091984	-0.00024128876	-0.0008486067	-9.221811e-06	-3.3736287e-05	0.00070167455	-0.00090717257	-0.00057936006	-0.001057022	0.0003319836	0.00030316616	5.0618895e-05	-0.00047167853	0.0009305884	0.0010982023	-0.00021116876	-0.00021597557	-0.0004371717	-0.00026935368	0.00010389423	0.0007935452	-0.0007446507	0.0004658879	0.00021252198	0.0003206301	-0.00052800355	0.00013818382	0.00037591066	5.6730918e-05	0.000829929	-0.00063937076	0.00016565692	-3.6100973e-06	-7.993978e-06	-0.0008679719	-0.00018910036	-0.00025748473	1.2312084e-06	-0.00013006791	0.00048559444	0.00072604034	-0.00044442154	-0.0004941964	-0.0006068575	-0.00088439236	0.00018988788	0.0011151906	-0.00055032596	-0.00012929064	0.00027789417	0.00029042046	0.00013209351	0.0004188666	0.0004454297	0.00026756775	-0.00029586474	-1.8135675e-05	-0.00062640005	0.00033600084	4.539099e-06	0.00013846706	-0.00032751862	0.00011511793
Mean_18	0.00010743883	-0.00023063386	-0.0005358764	-0.00050758955	0.00071799854	2.099627e-05	-0.00029919218	0.00031070103	0.00028017137	0.00048616994	0.00018553557	0.00013370816	0.00037006187	0.00039860752	0.00022648319	0.00046825403	0.00038666063	-0.0004800524	0.00015113894	-0.000451206	0.000101531776	0.0002986119	0.00051570294	-0.00023419852	-0.00023841146	-6.117545e-05	-0.00017943078	0.00018816392	-8.865848e-05	-0.00030348302	-0.00039276047	0.00039677267	-0.00011255148	0.00040535352	0.0002188087	0.00010925134	0.0004776397	-0.00041401637	0.00023250989	-0.00041556492	6.5393084e-05	-0.00027314838	-5.5611716e-05	-1.2668215e-05	0.0002495132	-0.000289336	-0.0002550167	-0.00012124935	-1.9211482e-05	-1.9288376e-05	0.000116221454	-0.0006215005	-0.000261679	-0.00022663265	-0.00053400995	-0.00022676785	-0.00082021154	0.0006209919	-0.00044885062	-0.00014795002	0.0006246161	0.00021122782	0.00028849128	-0.00032077424	9.77532e-05	0.0004088588	0.0001766128	0.0006263346	0.00015232128	-0.00054660405	-7.031469e-05	-0.0005867489	0.0005633313	-0.00033389524	-0.00015325674	0.00046865942	0.00049541803	0.0002403654	1.8109988e-05	-1.8667039e-05	-0.00033192133	0.00035599846	0.0007445182	0.0003004708	0.00020402587	-0.00031766953	0.00018339386	-6.471757e-05	-2.3006074e-05	-4.2909578e-05	-0.00058610336	0.00051421154	0.00016243337	-0.00015439307	-0.00021794521	0.00037125192	0.000116933305	0.00027065232	0.0002799974	0.00082860625	0.00018668904	-4.6150184e-05	2.9676963e-05	-0.0004812014	0.000369414	-0.0002865423	0.00044067856	-0.0004758981	1.20873865e-05	3.194573e-05	0.00015201874	-0.000176937	0.000559349	9.489222e-05	6.0542843e-05	0.0002785965	0.0005841349	3.1039806e-05	0.00021826106	-7.4645606e-05	0.00038473238	0.00036460228	-0.00019477683	0.0001834213	-0.00031587252	0.00015861276	-0.00046838797	0.00040008107	-0.00036155162	-0.00026323306	-0.00020208473	-0.00041915866	-4.5049594e-05	-0.00032130087	-0.00025652073	0.0005050019	0.0002777368	0.00058756454	0.0002863401	0.00014904967	0.00025301863	-0.00012609533	-0.00020520586	0.00015833387	-0.0002685618	7.2087634e-05	-0.0001129656	-0.0002377314	-0.0005698764	-0.00037539305	-0.00063580956	3.3706285e-05	-0.00016994977	0.0002395274	-0.0005288184	6.0942082e-05	5.8834943e-05	-0.00053128286	0.00013212457	-5.488129e-05	0.00043332056	2.781022e-05	-0.00039795527	-4.769189e-05	-4.87357e-05	0.00032433317	-0.0002795599	-0.00014441366	0.00021261144	0.00024825495	-0.00034342197	0.000121698205	-0.00058470207	-0.000322166	-0.00035947465	-0.00033848648	0.00023444075	-0.00023917326	-0.0003999751	2.9467994e-05	-0.00071956124	0.00030271482	-0.0007823513	-0.000683302	0.00050428644	-0.000540871	0.00014402092	-4.242131e-05	-0.00031663402	-0.00022925156	0.00046020994	0.00021357228	6.363853e-05	7.505147e-05	-0.0005168756	0.0004000296	0.00025496646	-0.00024152198	-0.00028134394	-0.00044496913	-0.0003255187	-0.00059394527	-0.0002408382	4.5780384e-05	6.367646e-05	-0.00040774682	-0.00048134656	-0.000585556	-0.00016215444	-0.00019858126	-1.997459e-05	6.7310425e-06	0.00024396417	-2.037924e-05	0.00016778451	0.0006800707	0.00034293998	0.00031977563	-0.00056057976	-0.0003569788	-0.00023940795	-0.0001997213	-0.00045156834	-9.752526e-05	-0.00015429691	0.00027203027	-0.00031527455	-0.00020750647	0.00052151515	0.00014774674	-0.00037706373	-0.00065276976	-0.00013924863	-0.000752612	-0.0001879557	-0.0005142636	0.00043524144	0.0006328841	-0.00011030489	9.494316e-05	-0.00038912	-0.00011902916	0.00046284663	0.00021266147	-0.0005369016	0.00033289054	0.0006155665	0.00037023416	-0.00012622713	-0.00054607086	0.00027650123	8.246083e-05	1.0051401e-05	-0.00041161687	0.00075284997	-0.000116510455	-0.00011876889	0.00016510488	-0.00043674963	0.00012135315	0.00033990783	0.0005181245	6.877962e-05	-3.0622e-05	0.0008287943	-0.00026855752	0.00033468864	-0.0003724346	0.0005110582	0.00042702464	-5.4055483e-05	0.00012481982	0.0004433863	-0.00064118614	0.00014674768	-0.00039767352	0.00027939698	-0.0004991031	-5.1202544e-05	-0.0005574694	-0.0004343148	-0.00058885885	7.4696196e-05	8.411178e-05	0.00022234018	0.0006444693	-0.00027116764	-0.00012119493	-0.000506749	-0.0005140722	0.00022196858	0.00018921844	-0.00028023642	-0.00069603696	-0.00038210163	-0.00030836655	-0.0005650884	0.00032101542	-0.00046688598	0.00063371565
Mean_19	-0.000103357714	-0.0006615466	-0.0006152357	-0.000107876804	-0.0003372579	-0.00016771835	-0.00061417645	6.1599244e-06	0.0009240536	-0.0006396062	0.00026625892	0.00039197787	0.00053540105	2.5730502e-05	-0.00016908853	-0.00012927358	0.00015549535	0.00074202224	-0.00039623235	-0.00022729028	-0.0003115681	-0.0007342941	0.0008763708	-0.00026675628	0.0011389239	-0.00056732446	0.00059588486	0.000673974	-0.00014041441	0.0002522642	0.00041202348	-0.00013355473	-0.00025318074	0.00027805273	0.00088684494	0.0003501925	-0.000107470994	0.00024956765	-0.00025265882	-0.00034973669	0.0001859758	0.00038106673	0.00080418756	-0.0010243418	-0.00031970756	0.00022911972	-0.0003124227	0.00017388014	0.0009464614	-0.0006656228	-0.000875582	0.00023812806	0.00013954769	0.00062987563	-0.00011519269	-0.00027420162	-0.00040822153	0.00060467725	0.00010894844	0.00038620166	0.00031044215	-0.0010343135	5.1720417e-06	0.00084267184	3.2537344e-05	-0.00033402737	-0.00093058916	0.0011901818	-0.001024277	-0.00041795088	-0.0013458965	0.00069949665	0.001148668	-0.000369066	0.0006706678	0.0005290701	-0.00015763343	0.0009217419	0.0005860604	0.00045841318	0.00020663011	-0.0005823202	0.001214186	0.0007957131	-0.00024249624	-0.00057273975	-0.0003905903	0.000910768	-0.000232414	0.00066199776	0.00045001696	0.0002731517	7.5943775e-05	0.0003430961	0.0015150999	-0.0007139366	0.00014986521	-0.00051925896	-1.1532412e-05	1.9363864e-05	0.00017901526	-3.2671658e-06	0.00019593387	0.0010552176	0.0007681714	0.0007210821	0.00010119659	-0.00013344342	0.00014461111	0.0006491867	-0.00034124518	4.427302e-05	-0.0007200705	1.2106689e-05	-0.00039792238	-0.00074716966	0.00017463545	0.000104466395	-0.000538689	-0.00028140945	-0.00022316472	-0.00015405379	-0.0004432587	2.7825756e-05	0.00037023224	0.0004085604	0.0003732654	4.9714643e-05	-0.0003597105	3.422977e-05	-0.00073993945	-0.0010363621	-0.00022897885	-0.0006829584	0.0011151625	0.00046788398	0.00017802235	0.00048138897	-0.00072598923	0.0007010717	0.00072059344	-0.0008205706	-4.9394555e-05	-0.00015728944	0.00011440121	-0.0002342874	0.00050206925	-9.6492855e-05	0.0011407019	0.00048478777	-0.0006958192	0.00029519937	0.00087592675	0.00033650105	0.0008718977	0.0013579378	0.0007550971	-0.00093216024	0.00040602256	-0.00052170345	-0.0007352366	-0.0001717038	0.00063316204	0.00039748722	-0.0002008817	0.0001160583	4.609154e-06	9.129613e-05	-0.0010966156	0.0001607035	-0.00086646545	0.0013817009	0.0010310066	-0.0015355073	2.2638395e-05	-4.1933577e-06	-0.00030625262	-3.1593663e-05	-0.00034083877	-0.0002941028	0.00016984592	-0.00019216079	-0.00030576673	-0.0006551896	0.00019697247	-3.7360296e-05	-0.0002354962	-9.811126e-05	0.0007081157	-0.00036263268	-0.00065992237	0.00037774825	-0.0011289885	-0.00014931179	-0.00015935901	0.0007141841	0.0010465259	0.0007432741	-0.0010663554	-0.0002935136	-0.00073111366	-3.3181237e-05	-0.0008328829	-0.0010872714	0.0009583407	0.00032414898	-0.00031205977	-0.0006362455	0.0010170775	0.000648663	-0.00011382679	-2.9406661e-05	-0.00022085548	0.0007860737	-4.947201e-05	-7.310519e-05	-0.00016530087	-0.00041987046	-0.0006367039	0.00059722573	-0.00023303581	-0.001147552	-0.0006272657	0.00017455943	0.0006582611	-0.00032639477	0.00048156382	0.00060614146	0.00022200774	-0.0010008757	-0.0006177637	0.00012415634	0.000118219956	5.564395e-05	0.0007111483	-0.00045179788	0.0007518519	0.00027456062	0.00066267484	0.0003844373	0.0005224052	-0.00019018953	-0.0003655411	-0.0003110035	-0.00044503677	0.0006503714	0.0006649964	0.0004112924	0.00063317263	0.00014200309	3.8042974e-06	-0.000114735274	-4.438181e-05	-0.00038696363	0.0002567706	-0.00061282486	0.0012586935	-0.00016651822	-0.0010604827	0.0006389953	0.00095028925	0.00025578786	3.389987e-05	0.0005575448	-0.0007219379	0.0007035217	0.00040912617	0.0002651538	0.00051394425	-0.00046009748	-0.0002005172	0.00032227833	0.000800986	-0.00039080935	-0.00055401906	-0.00015607807	-0.000269464	0.000209504	0.00030074964	0.0009121269	4.1221978e-05	0.00026317048	1.0306093e-05	-0.00036773575	-0.0010872906	0.00029718145	-0.0002831015	-0.0009968512	3.104913e-06	-0.0010487403	0.00025922686	-0.00040989392	3.605188e-05	-5.5990105e-05	-0.0002908767	-0.00056239404	0.00048580827	0.0002532252	-0.00060985476	-0.00095974957
Mean_20	5.694572e-07	-0.00019507913	-0.00045733404	7.934644e-05	0.00063528406	0.00026445746	-0.00026769735	0.00058085914	7.900258e-05	0.00088543596	0.00041276385	0.0005892613	-1.27854755e-05	0.00046879094	-0.00011962706	0.00069611386	-5.232168e-05	-0.00069097744	0.0002056841	-9.068162e-05	0.00020319139	7.262708e-05	-5.4196462e-05	-0.0002757133	-0.00027070197	-0.0006407279	-4.509331e-05	0.0005089009	0.00016528423	-0.0003265185	-0.00020944604	0.00047486098	-0.00047660284	0.00022011383	-0.000105616884	1.5360385e-05	0.0009003505	-9.841607e-05	2.4466146e-05	-0.00020139237	2.852527e-05	-6.9033194e-05	-0.0002064954	-0.00028757416	0.00021273302	-0.00043771797	-0.00047625462	0.00022319725	0.00020585151	-0.0003192321	0.00018984237	3.729004e-05	-0.00023146118	-0.00022897145	1.4903746e-05	1.0495447e-05	-0.0008548802	0.00044564554	-0.00048403727	0.000308874	0.0008850867	-0.000104121355	0.0004748921	-0.00073728786	-2.4469176e-05	-1.2208079e-05	-0.00039529186	0.00019306652	-1.31386505e-05	-0.00029976937	-0.00015857711	-0.0003470945	8.194143e-05	-0.0004912557	0.00016517518	5.408575e-05	0.00017780137	0.0004378573	-0.0003781863	7.037276e-05	-0.00015903663	0.0009474637	0.0004923678	5.462049e-05	0.00033917784	-0.00020926066	4.293431e-05	0.0006573849	0.0005362352	-0.00023533407	-0.00057445746	0.00038296534	0.00037573065	-0.0005714449	0.00018683804	0.00020453776	0.00019788757	0.0005781172	0.00015949151	0.0012563865	0.00026374985	-0.00020932328	-0.00023834375	-0.0009746642	0.0004349527	-2.3782184e-05	0.00020295553	-0.00018099553	-0.00010872995	0.00016860566	0.00051103235	-0.00019638997	0.00060262333	-0.00025150288	0.00021283687	0.0003361993	0.00065694517	-5.0726067e-05	-0.00020318138	0.0004862086	0.00020339724	0.0006647217	3.6044792e-05	0.0007749541	5.5384844e-05	0.00014196332	-0.0003020397	0.00020629421	-0.0005968857	0.00046989167	0.00016511972	-0.00036037306	0.00023844547	-0.00031139972	-0.0005837289	0.0006453601	0.0001079316	0.00057296245	0.00052834273	-0.0006103222	-5.263323e-05	0.00055812334	-0.00018656332	0.0001001682	-0.0001168741	0.0004421207	-0.0004639687	-9.237734e-05	-0.00028601554	-0.00021719534	-0.00034856613	-0.00037631832	-0.0002576071	0.00088005094	-5.588534e-05	-7.620147e-05	-0.00018520468	0.00018771683	0.0003333756	0.00031220997	0.0011101844	-0.0002575228	-0.00017822438	-4.3258697e-05	-0.00044862283	0.00046632154	-0.00021621038	0.00041670748	0.0001230546	-6.7688394e-05	-0.0004329908	0.00014716007	-0.00082816184	-0.0004951308	-0.000875061	-0.0002796127	0.00057927973	0.0003139822	-0.0003366648	0.00030966336	-0.0006578852	0.00063838	-0.0002380454	-0.00059594214	0.0007311784	-0.0006241393	0.00029499477	5.212211e-06	-0.0002657412	6.894436e-05	0.0005919814	-0.00013368708	0.000104571576	0.00043985323	-0.00096827745	0.00020335431	0.00032068364	0.00010638523	-0.00010699719	-0.00038248714	-0.00010361117	-0.000651298	-0.0003981529	-0.00022533417	-8.465315e-05	-0.0008379842	-0.00045462852	-0.0007228566	0.00025088628	2.965451e-05	0.00076008204	-4.9367313e-06	-0.0001220175	0.0004267484	-6.327295e-05	0.00037211907	0.0004059743	0.00023267337	-0.0008526339	-0.00045630647	-5.7507947e-05	0.0004559572	0.00027166627	-0.0002558118	-0.0006981235	0.0003234773	-0.00054106646	-0.00082147226	0.00045614745	0.00029394712	-0.0002938897	-0.00056235737	6.462125e-05	-0.001050749	-0.0005527971	-0.0008100318	0.00016854875	0.0007992343	0.00019639244	-0.00047980924	-0.0009105263	-0.0001351011	0.00069273065	0.0004018458	5.1639345e-05	-3.078021e-05	0.00019326575	0.0009959152	-0.00070042827	-0.0009811446	2.4061417e-05	-0.0001686888	-0.00040531502	-0.00027985685	0.00092204305	0.00036983617	-0.0005485214	0.00014885579	-0.00012318794	-3.747419e-05	0.0006306024	0.0008588737	-6.874881e-05	-0.0002250144	0.00053777307	-0.000102930586	0.00016954532	-0.0009826657	0.0006752803	0.0010638942	0.00010993731	-0.00025739	0.00084926083	-0.0005486778	-0.00048579945	4.73425e-06	0.0004111831	0.0001588751	8.890042e-05	-0.0005107427	-0.0008556406	-0.0003720344	-1.0053487e-05	0.00034831892	3.894909e-05	0.0008653238	-8.8768094e-05	-0.0004996487	-0.00032992777	-0.00051333057	9.623521e-05	0.0007252507	-0.00068935845	-0.00035630877	-0.00044222974	0.00010324912	-0.0005075871	0.00056369754	-0.000112206886	0.0009066711
Mean_21	5.030597e-05	-0.00020599819	0.00051402487	-0.00045769967	0.00040828474	0.00029090015	0.0007297271	-0.00092631445	0.0005033056	-0.001115745	0.00076037855	-0.00052667555	0.000101814825	-9.59503e-05	0.0005305055	-0.0003343645	0.001059249	0.00030596368	-0.0002890184	-0.00030584517	0.0008498639	0.00016455846	0.0003636769	-0.0003961307	0.00017750952	3.3719214e-06	-2.8371674e-05	0.0004004344	-0.0005080359	0.00038589785	0.0005184871	0.000104882965	0.0011835664	0.00040814443	-6.8763155e-05	0.00044893788	-0.00045418114	0.00042771074	-0.0006267121	-0.0002604296	-0.00030020642	0.0003831009	0.0007886169	-0.0007372341	0.00012085832	-0.00018100679	-0.0006864003	0.00010951139	0.00097381434	-0.00032508184	5.5579312e-05	-0.00050585537	-0.0008861739	0.0002188236	-0.0003987587	9.153795e-05	-0.00088451523	-0.00089169014	0.00035361285	0.00030216106	0.00035523888	-0.001406461	0.0002671446	2.9967961e-05	-0.00010061774	-0.0001888618	0.00014958787	-0.0005390898	-0.0002585788	-0.0003354037	0.00011479247	-0.0010571541	-0.00027034458	-0.00019178652	0.00061522645	0.0011549374	0.00019303837	7.426293e-05	-0.00023343654	-0.00029306824	0.00091282296	-0.00014625574	0.00082631846	0.00033403814	-0.00071249605	-0.0010320042	-0.0002381783	5.5128727e-05	-0.0011191083	-2.2524291e-05	5.1909727e-05	-0.0008181114	0.0006014393	0.00032865396	0.00054321956	7.527676e-05	0.00027806428	0.00021857228	7.516753e-05	-0.0006142453	0.000581915	0.00017419197	0.0009647294	-8.133797e-05	-0.00015327593	-5.8675225e-05	0.00023664655	0.0002271973	0.000104217695	0.0009629811	-0.00012571766	0.00068866275	-0.0008067401	0.0012215541	1.3352294e-05	0.0005536927	-0.00025063154	0.00047855545	0.00016227881	-0.0007397895	0.0005535118	7.233272e-05	-7.247601e-05	0.0005635949	-0.00031863243	0.00074756256	0.00072559685	0.000500223	2.5743773e-05	-0.00042409895	8.149006e-05	-0.0010336059	0.00036828002	-0.0009849184	0.00051241176	0.0005621481	-6.416981e-05	6.925015e-05	-0.00026737442	0.00019578834	-0.00025683377	1.561599e-05	-0.00041178404	-0.00022181986	-0.00016805349	-0.00060747284	-0.00023766923	-0.0007708406	-8.669891e-05	0.0002785355	-0.0010074071	0.0005824902	2.3211362e-05	-0.00023848559	0.00025677282	0.0009822706	0.00010928593	-0.00012580153	-0.0007377484	0.00010390853	-0.0009658592	-0.00021250511	-0.00020343812	0.00015284367	-0.00036887024	-0.0004677707	0.0006168714	-0.0005940694	0.0003414027	0.00019946361	-4.6098216e-05	-7.973161e-05	0.0006162093	-0.00046731194	0.00061532605	-0.0006004407	0.00061069365	-0.0007911954	0.0008261334	-0.00027530288	0.0004197034	5.7686866e-05	-0.00026755116	-0.00032566368	0.00054237194	-0.00071667176	-0.0009835516	0.00068184733	-8.4275496e-05	-0.00048532218	0.00018022004	0.00045166546	-0.0010379945	-0.00045387007	-7.19273e-05	0.0005387463	0.0007490583	-0.0007353623	-0.0006452744	0.00064686494	-0.00068913406	0.0001881889	-0.00062695186	0.00022307633	0.00030278414	0.0006315461	0.00015847512	-0.0003362836	0.0011185635	-0.0007346899	-0.00014404692	0.00024804717	0.0004530196	-0.00052111637	0.00049267913	0.00012574978	0.00068541477	0.00026933543	-0.0012435191	0.0002478713	0.0005899611	-0.0010800321	-0.00022770045	-0.000707732	0.0006355395	-0.00049272255	-0.00016856391	0.00035695345	0.00026738408	-0.00095911993	-0.00020585935	-0.00032392264	-0.00022269129	-0.00026531413	0.00048776192	-0.00090192864	0.0010034427	-0.00086549105	6.6361856e-05	0.00018817121	-0.000292647	-4.939405e-05	6.912735e-05	0.00020213856	-0.001603107	0.0005641043	0.00032940824	0.00036609836	8.885306e-05	0.00032757164	0.00042857626	0.00079394877	-0.00017296441	0.00020047346	-0.00011906788	0.0007102158	-1.609434e-05	-0.00036182642	-0.0012198916	-0.00024914657	-6.3004845e-05	-0.00027204765	-0.0001564474	-0.00033218038	-0.00022786896	0.00023826778	-0.0004276184	0.00052109413	-2.7798038e-05	0.00021756864	0.00062284456	0.00019469089	-0.00060481444	-0.00030389224	-0.000489797	-1.6941185e-05	-0.00047441828	-0.00091209373	0.0005828434	0.00016481448	-0.00014242611	-0.0005543208	0.00010693636	-0.0008546896	-0.0005366449	0.000116479096	0.00067377486	-0.00015929168	-1.5175853e-05	-0.0002882612	-0.0006968982	5.033518e-05	0.00025034646	-0.0013481345	-0.00044665355	-0.0009358648	0.00013342185	-0.00031593002	-5.3679e-05	-0.00031835298
Mean_22	0.00054981693	-0.0002978038	-9.6998374e-05	-0.0009259507	7.897325e-05	-0.00018714576	0.0007024116	-0.0001232134	0.00041043374	-0.0010939821	0.00058768195	-9.986078e-06	-7.691483e-06	-0.00039644775	0.00036388464	0.00010528998	0.0003438293	0.0007360135	-0.00011717307	-3.938992e-05	6.949841e-05	3.6437104e-05	4.3376855e-05	-0.00020749476	0.00014811246	-0.0006325513	0.00037838388	0.0006425329	0.00029275657	-8.575754e-05	-0.0004669578	-0.00035729926	0.0007679889	0.00018132718	0.00063170335	0.00029101738	-0.00030076064	-0.0004444314	6.1409686e-05	0.0002876046	0.0003204082	-5.8697383e-06	0.0008509457	-0.00013017864	-0.00016007783	0.0004940769	-0.00025712323	-0.0002196912	6.9523e-05	-0.00053858623	1.9051522e-05	-0.000614203	-0.00041478765	0.00083204266	-0.00039679874	-0.00057338347	-0.00038929377	-0.0006330179	-6.6772416e-05	-0.00020530268	0.0001318683	-0.0006400716	-0.00040474837	-6.2544575e-05	-5.983507e-05	-0.00038288883	0.00036057134	-0.00011758937	-0.0007875646	-6.6290763e-06	-0.00045443643	-8.355535e-05	0.00034386836	-0.0006897659	-0.00031856404	0.0011829011	-0.00018620158	-0.00039749066	-0.00025006468	-0.0007916239	0.00010458784	-2.6428103e-05	0.0006160634	0.00048580393	-0.0007832111	-0.0013699634	-0.00017238618	-0.00034566005	-0.00089194445	0.0002751375	-0.0002320716	-0.00049829023	0.00078197615	0.0007851962	2.4823647e-05	-4.463657e-05	0.0010088735	0.0008380716	-0.00027662943	2.824585e-06	0.0007622931	0.000103731836	-4.234553e-05	-0.00031116558	0.00031486576	-0.00012327271	0.00052465685	0.00020270974	0.0006678439	0.0012674009	-0.00036845205	0.0007573256	-0.00032161002	0.00032637073	-0.00023095735	-0.00027865026	0.0007138299	-5.2558535e-05	0.0002767802	-0.00036719404	0.00070903794	-0.00061667745	-0.00071573205	-0.00013978533	-4.9083512e-05	0.00078610936	-0.00016597472	-0.00010309541	-7.047374e-05	-0.0010065218	-0.00031090897	-0.0006743024	-0.00033033788	-0.0009630478	0.0002957405	0.00054459815	0.00049492315	0.0003424919	0.00014071008	0.0010644003	0.00047594437	-0.000320448	-0.00018009241	-0.00024529174	-0.00034494812	-0.00035400095	0.000361479	-0.00042061298	-3.0600175e-05	-0.00048292024	-0.0005081765	0.00087259134	-0.00018882456	5.5462977e-05	-0.0004934895	0.0009955188	3.9070612e-05	-0.00035853262	-0.0008014043	-0.00047576395	-0.0007578241	0.00028491567	-0.00045340913	0.0005546076	-7.0506205e-05	0.0005935616	0.0002766817	-0.00035407036	0.00032943915	0.0006564528	-0.00039890292	0.0006673774	0.0002898877	-0.0013484209	0.00093087927	-0.00027000028	-0.00011700791	-0.0010911877	0.0005089005	9.049618e-05	-0.00031143	0.0002760774	-0.0007544677	-0.0008031072	0.0005691763	-0.0005955803	-0.00096668705	0.00017601321	0.00027648493	0.00021880005	0.00039793015	0.00052488665	-0.0013833683	-0.00038733464	-0.00012878382	0.0010501156	1.864114e-05	-6.5315944e-05	-0.00046911754	0.0003436303	-0.00029922058	-0.0005698568	-0.0011108875	6.892212e-05	-0.0003419678	0.00045804644	-0.00015966759	-0.0010006587	0.001174703	-0.0007232062	-0.000438756	0.0005937788	0.0003895452	-7.571429e-05	0.00027147788	0.00016547547	0.00047187277	0.000345194	-0.00036239438	0.0003741792	-0.00041253606	-0.0011597542	4.8840498e-06	-0.00031945182	0.00048034417	-0.00027536805	0.00014234251	0.0003475471	0.00053648505	-0.0011225719	-0.0010743404	-0.00017374141	-0.0006594281	0.00024386637	0.0006877608	-0.00075228955	0.0006129018	-0.000987866	0.00026855196	0.0002590285	-7.9966885e-05	0.00021881222	-0.00044845426	-0.00061072095	-0.0009498399	0.00038516577	-0.00021781691	0.00041683693	0.0010244963	-1.6157826e-05	0.0001984785	0.0007476034	-0.0006525397	-0.0003331492	0.0005672302	0.00052445807	0.0006119398	-0.00036779992	-0.0010902315	-0.00029211244	0.00021032302	-0.00033461102	0.0006770745	-0.0007116811	-0.0003834718	7.0546004e-05	-0.00079818117	0.0005840208	9.501978e-05	-0.0002576859	0.00016463741	-0.00067453575	8.761629e-05	0.00046325615	0.00010245503	-7.695635e-05	-0.00045627952	-0.0013010645	0.00050801056	0.0007812855	0.00032382083	-0.00032673372	-0.0003093022	-0.00043990786	0.00014644308	0.00064335956	0.0006990509	-0.00046399623	-0.00032958656	0.00026542463	-0.0009085601	-0.00048200018	-1.0094965e-05	-0.00046105697	-0.00032228258	-0.0012327499	-0.00064217346	0.0005745748	-0.00025779646	0.00010026116
