	0	1	2	3	4	5	6	7	8	9	10	11	12	13	14	15	16	17	18	19	20	21	22	23	24	25	26	27	28	29	30	31	32	33	34	35	36	37	38	39	40	41	42	43	44	45	46	47	48	49	50	51	52	53	54	55	56	57	58	59	60	61	62	63	64	65	66	67	68	69	70	71	72	73	74	75	76	77	78	79	80	81	82	83	84	85	86	87	88	89	90	91	92	93	94	95	96	97	98	99	100	101	102	103	104	105	106	107	108	109	110	111	112	113	114	115	116	117	118	119	120	121	122	123	124	125	126	127	128	129	130	131	132	133	134	135	136	137	138	139	140	141	142	143	144	145	146	147	148	149	150	151	152	153	154	155	156	157	158	159	160	161	162	163	164	165	166	167	168	169	170	171	172	173	174	175	176	177	178	179	180	181	182	183	184	185	186	187	188	189	190	191	192	193	194	195	196	197	198	199	200	201	202	203	204	205	206	207	208	209	210	211	212	213	214	215	216	217	218	219	220	221	222	223	224	225	226	227	228	229	230	231	232	233	234	235	236	237	238	239	240	241	242	243	244	245	246	247	248	249	250	251	252	253	254	255	256	257	258	259	260	261	262	263	264	265	266	267	268	269	270	271	272	273	274	275	276	277	278	279	280	281	282	283	284	285	286	287	288	289	290	291	292	293	294	295	296	297	298	299
Stein's unbiased risk estimate_0	0.0003414574	-0.00024997815	-0.00071549905	-0.00036865697	0.00067624025	-0.00027099522	-0.00026380032	-0.00016149675	0.00033484263	0.00072539836	0.0004294142	6.820537e-05	0.0007830921	0.0004264924	0.00018821856	0.00069232413	0.00018777348	-0.00022566272	0.0005193619	-0.0006943617	0.00023696055	4.9799664e-06	6.260208e-05	-0.0002987182	-0.00032550862	-0.00022508335	-0.00045599145	5.186982e-05	-0.00020253271	-0.00062749884	-0.00039304615	1.4155722e-05	-0.00020734951	0.0004260767	0.00026622158	-0.00010854236	0.00060171925	-0.00039647837	0.00023946843	-0.00048933964	0.0002820791	-0.00027814743	-0.000100655554	0.00027898073	0.0002914658	-0.00010771874	0.00014087433	-0.00026318323	-0.000115872266	-2.8890563e-05	0.000295807	-0.0008951273	0.00028607502	-0.00030075188	-0.00055883115	-0.0005842518	-0.00081871287	0.00095520983	-0.0003339372	-0.00034221666	0.00042018158	0.00031194184	4.265542e-05	-6.331644e-05	0.0003842614	0.0007614466	-5.551812e-05	0.0006202421	0.00023502583	-0.0006259428	0.0003198883	-0.00052590057	0.0008645134	-0.0002826521	-6.929896e-05	0.0005234978	0.0009007973	0.00019771358	0.0001357839	8.2385246e-05	-0.00055986975	0.00058527204	0.0011552951	-0.00017834277	0.0005907403	-0.00029877204	0.00028255308	-0.00029755387	0.000101025915	0.00012459737	-0.00068316545	0.00034087017	5.872009e-05	-4.865918e-05	-0.00015086791	0.00075746083	-7.8853365e-05	-2.2773676e-05	-0.00029844185	0.0009494385	0.0005973281	0.0001388543	-0.000119825636	-0.0001842561	0.0002651685	-0.00021884352	0.00053054886	-0.00096048904	0.00042011205	-0.00019458146	1.2509207e-05	-0.00030115625	0.00086181203	-0.00010584979	0.0001027947	-0.00013620804	0.00023568537	-4.697009e-06	0.00038292148	0.00019900742	0.0006153644	0.0009983579	-0.00035350933	3.7333593e-05	-0.00028892083	-4.4160162e-05	-0.0008229857	0.0003951411	-0.0002616446	-1.0347562e-05	-0.00022870755	8.637092e-05	0.00023213617	-0.00018291733	-0.0004125029	0.0004148661	0.0005608138	0.00019541825	0.00019163078	0.00020401599	-2.749324e-05	3.7279417e-05	1.968234e-05	0.00020459991	-9.227376e-07	8.5438944e-05	-3.660367e-05	-1.1486944e-05	-0.0006419014	-0.0001915475	-0.0009521646	1.2725835e-05	-0.00019974248	0.00048956054	-0.0005053742	5.9346043e-05	-0.00020966452	-0.0006024685	0.0005011831	0.00016538681	0.00051902136	0.00015592182	-0.0006305612	-0.0003689157	0.00014556671	0.00038844236	-0.00040117142	0.0002768897	0.00046419443	0.00021426102	-0.00020565226	3.4474822e-05	-0.00046215442	-0.00017048277	-0.0006044905	-1.4302715e-05	0.00025747277	-0.00014642083	-0.0006226608	0.000104305305	-0.00068845105	0.00028068366	-0.0007170046	-0.00043042918	0.00011907218	-0.00060170586	0.00043889665	0.00019525262	-0.00027657746	-0.00046529857	0.0005091306	0.0006075245	0.00046789928	0.00034267895	-0.00045042488	0.0003285858	0.00028146684	-0.00034225822	0.00011021337	-0.00057384983	-0.0004037203	-0.0002823914	3.3246375e-05	-4.5510536e-05	-5.912549e-05	-0.00055807806	-0.0002761936	-0.0004174379	-0.00064074487	-0.0002587557	1.4968862e-05	-0.00023335443	-9.09305e-05	0.0001502527	6.921499e-05	0.0009793964	-1.3957626e-05	0.00042840207	-0.00017690353	-0.00037436263	-0.00021827906	-0.00036374637	-0.0006789389	-0.00011655493	-0.0002730035	0.00011463268	-0.0005151916	-0.00028909964	0.0007402301	0.00083641824	-9.848122e-05	-0.00034891375	0.00018066425	-0.0011425023	-0.00016204777	-0.0006448854	0.00054681796	0.00081097597	-0.00027286302	0.0002559852	-0.00033776832	7.752536e-05	0.00035614896	0.0003511912	-0.00013204884	0.00064317486	0.00082538533	0.00021546018	2.2713888e-05	-0.00059552264	0.0003269368	-0.00052623084	0.00044081509	-0.00048944977	0.00026517498	-0.0004736022	-0.00013532987	-8.952931e-05	-0.00035154636	0.00022589663	0.00043119135	0.0006821828	4.653365e-05	0.00016648986	0.0008122718	3.1671614e-05	0.00037836813	-3.9634786e-05	0.00027591124	0.0003448489	0.00023987154	0.00029948924	0.0004312547	-0.0011464305	0.00032489988	-0.0004593377	0.00012358003	-0.0002187952	6.291971e-05	-0.0010045405	-0.000106807725	-0.0005081928	0.00026185578	-6.721111e-05	0.000268009	0.0006600507	-0.0006400594	-0.00017385524	-0.00063214556	-0.00088284427	0.00064787077	0.00040901967	-0.00014331167	-0.00083470176	-0.0004245428	-0.00028352474	-0.0009790403	-6.389473e-05	-0.0006316778	0.0006057494
Stein's unbiased risk estimate_1	0.0002683428	-4.921206e-05	-0.000623702	-0.0001795432	0.00050804426	-8.6977336e-05	-0.00041334546	-8.5777356e-05	0.00018203631	0.0007321421	0.00038159295	0.000107921915	0.000657714	0.0005809933	0.00016803984	0.0008105843	0.00018438879	-0.00030542948	0.00047325788	-0.00064464373	0.0001749475	0.0002623454	0.00016744812	-0.00045395346	-0.00034385125	-0.00024663837	-0.00047458353	0.00018540575	-0.00011886466	-0.0005054739	-0.000551799	5.072859e-05	-0.0004679813	0.0004040881	0.00022751413	3.67787e-05	0.00062348536	-0.00043893539	0.00025853215	-0.00053416146	0.0004490106	-0.00024684027	7.141247e-05	0.00023103772	0.00015515568	-0.00022115234	0.00011885774	-0.00013194363	-0.00024274201	-0.00015691719	0.0001964958	-0.0006374174	0.00033287847	-0.0001397491	-0.00036389643	-0.00032915836	-0.00093640614	0.0009812304	-0.0003816719	-0.00034562187	0.0006680848	0.00045811554	0.00010624274	-2.8103539e-05	0.00039954446	0.000774988	-0.00010137424	0.0005583231	0.00029557035	-0.00068204186	0.0004937108	-0.0005784143	0.0008250783	-0.0003480098	-3.9028502e-05	0.00044753632	0.00072340126	0.00029238916	0.00016640859	0.00010778448	-0.0005089419	0.0005932954	0.0010482357	8.136885e-05	0.0006836773	-0.0003549302	4.7547535e-05	-0.00012623129	0.00022473886	0.00017179639	-0.00065757293	0.000462253	0.00011459642	-0.00012090232	-7.535267e-05	0.0006787514	-3.8931826e-06	9.836625e-05	-0.00018044972	0.0010545716	0.0005481779	5.5807177e-06	-7.711821e-05	-0.0002793906	0.0003251315	-0.00027960926	0.00062752434	-0.000878039	0.00024469307	-0.00031448333	-4.3716016e-05	-0.0003363501	0.00085556915	-0.00023662405	0.00017350481	6.6987945e-05	0.00031641292	4.9444774e-05	0.00021390064	0.00035349958	0.00043282003	0.0010820943	-0.00015318039	2.9055704e-05	-0.00024165776	5.4832813e-05	-0.0007557575	0.000590508	-0.00045277906	1.6066564e-05	-0.00012375477	-4.15228e-05	0.00021882723	-0.00031238142	-0.00066715846	0.0004059856	0.00052393327	0.00017077924	0.00023829922	-3.567766e-05	9.389708e-05	4.0027462e-05	0.00012018738	0.00017574498	0.00017588596	0.00020280381	-0.00015042341	-0.00018933801	-0.00067684497	-8.6231106e-05	-0.0010177278	-0.00019401257	-6.024997e-05	0.00054640364	-0.00033310044	0.00017444057	-0.000106704145	-0.00064574816	0.000569022	0.00032485917	0.0005342628	-9.9494855e-06	-0.000719896	-0.00022076523	3.3670778e-05	0.0005245602	-0.00046384044	0.00030902738	0.000255338	0.0003451627	-0.00041783162	-7.174369e-05	-0.0007006186	-0.000118110125	-0.00073646806	-0.00023649517	0.00032219785	-0.00017408146	-0.0007264447	-0.00013102923	-0.0007280747	0.00018939977	-0.00072529825	-0.0005006692	0.0003316344	-0.0005337402	0.00041319992	-6.1019535e-05	-0.00031649356	-0.0005578425	0.0006959651	0.00059680076	0.00046674957	0.00033881047	-0.0005100378	0.00042218354	0.00049092754	-0.00039175255	0.00022660663	-0.0005656669	-0.0003438854	-0.00028966408	0.00020584998	-0.000120362194	6.653106e-05	-0.00058864703	-0.0002556834	-0.00028520462	-0.00040082802	-0.00011826961	1.1669313e-05	-2.1391066e-05	-4.1283987e-05	0.00018538874	-3.42123e-05	0.0009699491	0.0001189478	0.00042133426	-0.00033737754	-0.0003327199	-0.00022997834	-0.00025718863	-0.0005420407	-0.0003004682	-0.00037479194	3.9308565e-05	-0.000615859	-0.00037571648	0.0006946297	0.00070677936	-0.0002941801	-0.00019273954	0.00024801536	-0.0011019447	-0.00031735006	-0.00058349164	0.0004826904	0.0007863971	-0.00018371773	0.0002585287	-0.00037348748	2.509475e-05	0.00028873654	0.0004111224	-0.00033139272	0.00045132256	0.0007184731	0.00033303903	-2.204595e-05	-0.0007911069	0.0001653645	-0.00039262467	0.00029853664	-0.00059608667	0.00044775518	-0.000335232	-8.1394e-05	4.0276573e-05	-0.0003465599	0.00020839731	0.00054840895	0.0007324677	0.00014063048	0.00025162037	0.0007487912	3.4945635e-05	0.000284549	-0.00020139938	0.00049399555	0.00040179296	0.0003137905	0.00022245743	0.00054330856	-0.001046827	0.00019055723	-0.0006017056	0.0003240587	-0.00014803295	-0.00015289654	-0.0011513262	-0.0003496527	-0.0006991438	0.00034000905	0.00012270511	9.744324e-05	0.00063734665	-0.0005627654	-0.00023936298	-0.00060473627	-0.0007679941	0.00052806723	0.00044840304	-0.00027072302	-0.0008441567	-0.00051372166	-0.00022794145	-0.00091188675	3.1598076e-05	-0.0008879034	0.00074647827
Stein's unbiased risk estimate_2	0.0014823282	-0.0016516839	-0.0006735773	-0.0014143969	0.0006651117	-0.0009004276	0.0014221673	-0.0012413679	1.5053161e-05	0.00079393515	0.0008459942	0.0007290477	0.0008745637	-0.0008283577	0.00015473927	-0.00027584512	-0.00022814149	0.00093944685	0.0011354744	-0.0014660127	0.00020823177	-0.0014424773	-0.00048863766	0.0008988842	-0.00038092397	-0.00096346304	-0.0011289371	-3.3279783e-05	-0.0005705247	-0.0010779619	0.0011058154	-0.0012535203	0.0013160675	0.0008643695	0.0013100504	-0.0009927533	-8.748564e-05	0.0013708238	0.0007973047	0.0012699123	-0.0010584246	-0.00011724571	-0.0013068942	-0.0007283603	-6.788029e-05	0.00036119277	0.0011203567	-0.0011177137	0.0010490633	0.00027304885	0.001033454	-0.0012612265	-0.00079821807	-0.0012364995	-0.00094094203	-0.0011394058	0.000116221716	-0.0006651392	-0.0005556774	0.00091756484	-0.001098134	-0.0003497518	-0.0011038017	-0.0012006052	0.0006293398	0.000574511	-0.0006861564	-0.0009747477	-0.00038110925	-0.00044689418	-0.00069265015	-0.0003292953	-0.00017823736	0.00043601176	-0.00024924128	0.001147011	0.00057637267	-0.00045015253	-0.0014838172	-0.0016012911	-0.0011756303	0.0015713989	0.0011188707	-0.0016581164	-0.00029658063	0.00076199434	0.0010383757	-0.0005279522	-0.0012966563	5.8710662e-05	0.00043018392	-0.0013467562	-0.0010454421	0.001020161	-0.0013850526	0.00039649248	-0.0016178907	-0.00052612036	-0.0015661591	0.0005098619	0.00052361964	7.331504e-05	-0.0010490284	-9.191488e-06	-0.0005598335	0.0003849445	0.00022603598	-0.0013744042	0.0012429749	0.0011752136	0.0015411961	-0.0004608442	0.0010197584	9.9152705e-05	0.00030214863	-0.0014097764	-0.0008903343	-0.0006391742	0.0009804757	-0.00025925486	0.0014151955	-0.0007528618	-0.0014559333	0.0005308298	0.00046665096	-0.00015232805	-0.0010365839	-0.00050612795	0.0008746585	0.0011172065	-2.5158164e-05	0.0015696569	0.0011477025	0.00031611638	0.0015000292	0.0013636766	0.00100662	0.0007588265	0.0006593409	0.0013081694	-0.0002609962	0.0009824309	-0.00074339815	0.00046929024	-0.00033644476	0.00010752264	0.001534181	0.000293869	0.00055322016	4.0454503e-05	-0.0002631701	0.0010622685	-0.0005073606	-0.00043762373	-0.0006427432	-0.0012459524	-0.0013950958	0.00081680116	0.0003685151	-0.00026443598	0.0014189909	0.001361727	-0.00036848043	-0.00045096033	-8.639619e-05	-0.00122825	0.0013575192	0.00038452083	0.00078555493	-0.0011528982	0.0015117495	0.00097293296	0.0013551031	0.0005087354	9.9721445e-05	0.0016194863	-0.00028626682	0.0009525105	-0.00039611958	0.00093485287	0.00058811024	0.0014787894	0.00032225382	0.0009646771	-0.00072775374	-0.0016473155	0.0012029915	0.0016547189	0.000505884	0.0006847412	-0.00040696163	0.0005060389	-0.0005431601	0.0016026007	-0.00024295792	-0.0013036428	-0.0013228256	-0.00040827965	0.0003164794	0.00010750524	0.0004294442	-0.0010561622	-0.00042035646	0.0016386396	-0.0005007539	-0.00062486087	-0.001337039	-0.0016533316	-0.0010258934	-7.1371585e-05	0.0010183193	-0.0013987967	-0.00071250275	0.00068482925	0.00047155406	-0.00048384094	-3.313026e-05	0.000107302745	0.0015371991	-0.0016183399	-0.0011698566	-0.0009443453	-0.00044313408	0.0014763563	-0.0004992293	0.00028968733	-0.00048238778	-0.0005615294	0.0014749526	0.0016018878	0.0016614497	-0.00070222595	-0.00024299638	-0.00079805066	4.499874e-05	-0.00016950104	0.0013972411	0.0007383591	-0.00074813544	-0.001087926	-0.0009331757	0.00075575843	0.00070494507	-0.0008545508	0.0013952729	0.00064091035	-0.00017817055	0.0001576238	-0.0011357748	0.0010098296	0.0009960925	-0.0013439093	0.0010867082	0.0006265825	-0.0014180773	-0.000981044	-0.00014966681	-0.001455254	-0.0015217477	0.0005648404	-0.0005083903	0.00024792698	-0.0015436868	-9.1383125e-05	0.00012912662	-0.0007314363	0.001161037	0.00029904564	-0.0009887099	0.0007609005	-0.00059024646	-0.00066461734	-0.0011186393	-0.0012903142	-3.1505264e-05	0.00077534595	-0.00065152603	0.00035040168	0.0009947299	0.00033789492	0.0010872317	0.0006174725	-0.0005192497	-0.00046059102	0.00057678454	2.1716555e-06	-0.00054505677	-0.00084158074	-0.00057315023	-0.00041082772	0.0010444389	0.0004549759	-0.00024448274	0.0011573677	-0.00026026476	0.00022317808	-0.0013454458	-0.0010536988	0.0013166948	-0.0009461066
Stein's unbiased risk estimate_3	-0.00021229684	5.0865743e-05	8.892801e-05	-0.00024451924	0.0009380039	0.00013022589	-0.00012086594	-0.000229558	0.00025766646	0.000344417	-7.474341e-06	-0.00030555326	0.00080831983	0.00046414774	0.0006076688	0.0002978971	0.0008456572	-0.00026568864	0.00032328762	-0.00047286256	0.00012728367	0.00083397503	0.0001558216	-0.0003115405	-0.0004964193	3.895419e-05	-0.0004605339	7.240185e-05	-0.00042191497	9.33392e-05	-0.00046438334	0.00025148413	1.8612574e-05	0.00039417422	-9.029898e-05	-0.0005551843	0.00054857554	-0.00021030936	-0.0002045446	-0.00043992334	2.4386147e-05	-0.00035249072	-0.00011460157	0.000120464385	0.00040500145	-0.000958257	-0.0006285783	-0.00039094585	0.00070621906	0.00018252381	-1.956803e-05	-0.000960905	-0.0003613742	-0.0009557802	-0.00097216025	-0.00014413954	-0.00095176586	0.0002548237	-0.0004045703	3.0652758e-05	0.00047388853	0.0004214584	0.00020525258	-0.000355331	0.000611627	0.0008173068	0.00031097504	0.00021122438	0.0003197893	-0.00089878327	0.0004262487	-0.00072268245	0.00019098501	-0.00022381842	0.00045244014	0.00042193098	0.00037998313	0.0005037128	-0.00028154804	0.00053324417	0.00019989982	0.0006650789	0.0010030001	0.0002457121	0.0003164771	-0.00065557874	0.00046947645	0.00029426505	-0.00012364353	0.00038595742	-0.0006696514	0.00010462564	-0.00016208096	-0.00050242635	0.0003490334	0.00034310637	4.1965533e-05	-0.0002293227	-0.00011782736	0.00039615977	-0.00024169942	-0.00013049273	0.00060619507	-0.00022219335	6.3999556e-05	-0.00014663875	0.00042727645	-0.0004419007	-2.8903625e-05	0.000126597	0.00023496329	-0.0001123064	0.00029110143	2.4400058e-05	0.00078212575	0.0008099528	0.00018368306	0.00033777303	0.00022731585	-0.00062873884	0.00047097853	0.0005183293	0.00025164615	0.0005224901	-0.00054197886	3.3471733e-07	-3.8964397e-05	0.0002498691	-0.00019177992	-0.00015876765	9.6656804e-05	-0.000325352	7.3263895e-05	-8.139587e-05	-9.1304384e-05	-0.00013064346	0.00051362335	0.00041079064	0.00022557456	-0.00015193703	0.00017471172	-0.00020312623	-0.00031092597	0.0002956952	-0.00033358485	-0.00012818644	-0.0005689705	-0.00011452922	-0.0008424555	-2.268604e-05	-0.001177108	-0.00026828755	-8.349565e-05	-0.00041818368	-0.00014045679	-6.2816776e-05	-0.0005185306	-0.00042696763	-0.00022806265	0.00067512086	0.00030321296	-0.00019584731	-0.0006804912	1.2044359e-06	-7.4871436e-06	-0.00032456656	-0.00012224723	0.0004693453	0.00035867572	0.00038292335	-6.711636e-05	-0.0004445933	-0.00015075944	-2.3203018e-05	-0.00055197545	-3.5215566e-05	0.00016154858	-0.00057682575	-0.00035478568	-0.0005619639	-0.00082877185	0.00044231908	0.00014929264	-4.582198e-05	4.447568e-05	-0.0007262866	0.00011656412	-0.0005022191	-0.00047753804	-0.00039007043	0.00054520194	-9.365065e-06	0.00022052175	4.4135376e-07	-0.0005126253	0.0003432455	0.0009167747	-0.00067746354	-0.00020051282	-0.00047369767	-0.00046134484	-0.00034958348	0.0002103921	0.00017100517	-5.245911e-05	-4.497705e-05	-0.00011271598	-0.0003327283	0.00010964459	-0.00024259966	-0.0002577887	8.487338e-05	-0.00010230324	-6.185726e-05	-0.0001755007	0.00046742178	-1.06818125e-05	0.00011432741	-0.0006684271	-0.0001434344	0.00035803518	-9.575859e-05	-0.0010594489	-0.00023220592	0.0001914703	-4.7434052e-05	-0.00044914763	0.00023936392	0.0002300983	0.00038387947	-0.00038534874	-0.0004507467	0.00011414185	-0.0011429831	0.00011554754	-0.0006097475	0.00036469978	0.0006016455	-5.6630037e-05	0.00058224273	-0.00030465433	-7.3462026e-05	0.0005011881	0.00014312126	-0.0007228204	0.000580675	0.0004205924	0.00027105326	-0.0004535756	-0.00044633198	0.00060147874	-1.9010437e-05	0.0009348149	-0.0003860384	6.648374e-05	-0.0004639804	0.00011403723	0.0003109505	-0.00065741	-0.00041490808	0.00036511934	0.0007018725	-2.7356728e-06	0.00016378099	0.0011867415	-0.0001464069	0.00011173553	-0.00054353615	0.0004399161	0.00030669064	1.5321024e-05	0.00056227756	0.0004305326	-0.0007982358	0.00013235435	-0.00043997547	-1.1025486e-05	-0.00013194342	0.00030415185	-0.00091568584	-0.0003257653	-0.0004268745	0.00020359553	-0.00015219527	-0.00036776304	0.00025403974	0.000230482	-4.621465e-05	-0.00029973412	-0.0006109839	-6.3178326e-05	0.000425697	-8.656566e-05	-0.00086613756	8.914851e-05	-0.00038864563	-0.0003711659	-8.2132254e-05	-0.0005216137	0.0005138075
Stein's unbiased risk estimate_4	0.0003827271	-0.00049462856	0.00012123487	0.00044544434	-0.0008020966	0.00024033157	-0.00012765665	0.00017695638	-0.00086779916	0.00067136204	-4.5860215e-05	9.210762e-06	-0.00039414395	6.391539e-05	0.00028347486	-8.23441e-05	-0.00015791107	-0.00018255762	0.0006375435	0.00021582282	-0.0006673775	0.0005325076	0.00094896223	0.00010390874	-0.00040993694	-0.00037235324	0.0006473748	-0.0002539091	0.00023327174	0.0001950055	3.1180753e-05	-0.0006670974	-0.0006056418	0.00047888426	0.0007765151	0.00013401626	-0.0006382833	-0.0002028312	0.00060578785	0.00037938193	0.0002373974	-4.2363885e-05	0.00059332803	-0.00085774105	-0.00059289124	-0.0009011808	-7.287381e-05	-0.0003505095	0.00038356535	0.00053076854	-0.00018762375	0.0002651275	-0.0004933105	-0.0004400132	0.0009916543	0.000281139	-0.00029476327	0.0007348256	-0.00023299539	0.0001876957	0.0006251016	0.00052910665	-0.00010402911	-0.00053406565	0.00028733062	-0.0003641153	-0.00014380447	-0.0002993723	0.00014122414	-0.00012780007	3.760695e-05	-0.00026923153	-0.00027164537	-0.0010001606	-0.0007441954	-0.0004385542	-8.157405e-05	0.00037752773	4.334414e-05	-9.007417e-07	0.00017962161	0.0007730897	-0.00037455693	0.0007071935	-0.0007418146	0.00013193817	-0.0007190234	0.00017778795	-0.00014340466	0.0003432418	-0.00030101463	0.00013152129	0.00013642375	-9.469768e-06	-0.00020238239	-0.00055835873	-0.0006080078	0.0006675137	0.00053311884	-0.00039124495	-0.00014013558	-0.00071506697	0.00022964727	-0.0009136143	0.00024721984	7.536866e-05	0.00085903483	-1.0906559e-05	6.974407e-05	-4.50039e-05	0.0009816362	-0.0005861475	0.0002005634	-0.000393113	-0.00012554467	0.00020304578	0.0006380803	0.00045592317	0.00041492406	-0.0003072441	0.00029705354	-0.00029975516	-0.0001892943	-0.00068333215	0.00015574998	0.000308321	-0.0005992325	0.0006156815	-0.00014886068	0.00080617546	-0.00015346796	-0.00035685924	-0.000103214	-0.00063296506	-0.0002940593	4.7428824e-05	0.00013850248	0.001077599	0.00041713167	-0.0005860817	0.00066668616	-0.0005436074	-0.00036574327	-0.0006170651	0.00048710854	0.00045425392	-3.655978e-05	-0.0013885312	-4.422667e-05	0.0007730634	0.00017524816	-0.0005343115	0.00018289356	-0.0008690306	-0.0001449559	-0.0005100229	-0.00018413778	-0.00020175062	0.0004120143	0.00037516514	0.000522243	0.0007158314	0.00039542853	0.00016487029	9.762315e-05	-0.0004078776	-0.00027762458	-0.00026721304	-0.000104972045	0.0006371872	6.58498e-05	0.00035788497	-5.0099217e-05	0.00043935643	-0.00041473072	-0.0011565976	-0.00014206834	0.0009153353	-0.0002609288	-0.00014770898	0.00019868182	-0.00010593656	-0.00062659045	-0.00040804993	0.00041105083	-0.0006138576	0.000400381	0.00018216216	-1.9325307e-06	-0.00020794275	0.0004899574	-0.0003333757	0.00013553597	-0.00018181934	-4.60592e-05	-0.00014591773	0.00039216364	-0.00013083601	-0.0003145351	-3.059514e-05	0.000681023	6.497462e-05	0.00040340345	0.0005007214	0.00030599211	-9.132693e-05	-0.00081307406	-0.00040433934	0.00074485096	-0.000180874	-8.9867215e-05	0.0005321597	0.0007729982	0.00027066216	5.9059028e-05	-0.0009095762	0.000703183	-0.00035402577	2.9922521e-05	-0.0008649898	-0.0002802136	0.0008294308	-1.8595445e-05	0.00022788381	0.00010295426	0.00021420069	-0.00026741493	-0.00025594418	1.3439538e-05	8.313276e-06	-0.0004698026	-0.00020282748	-0.00042694996	4.040978e-05	-0.00071926875	0.00021587597	0.00029259172	0.0008929084	-0.0003421696	-0.0004165918	-0.0003808281	-0.0002694908	3.5258563e-06	-0.00047220307	-0.00083792757	-0.0008289542	-0.00019374667	0.00037024706	-0.0005572031	-0.00020347997	0.00014696199	0.0006625174	-0.0006970491	0.0003048828	-0.00015749232	0.00017737594	-0.0003131718	0.00030390208	-0.00065890944	-7.944327e-05	-5.528117e-05	0.00017949805	-0.00093151105	5.5758166e-05	0.00024467416	1.0375588e-05	0.00059476704	-0.00077059283	1.1296492e-05	-5.732302e-05	0.0003017605	-0.0002934595	-7.60715e-05	-0.00022806025	-0.0001347654	-3.6499958e-05	-0.0001365012	0.00022095314	-0.0008870095	-0.0009642661	-0.0008451905	-0.00036228748	-0.00019371495	0.0011752095	-0.00023492344	-0.00043533542	-3.587897e-05	-0.00010538922	-0.00036219516	0.00029207597	6.6643697e-06	0.00028056	8.517782e-05	0.00023459128	-0.00020611117	2.5008456e-05	-0.00051353965	0.00019971395	-0.00072611496	0.0004990219
Stein's unbiased risk estimate_5	0.0014823282	-0.0016516839	-0.0006735773	-0.0014143969	0.0006651117	-0.0009004276	0.0014221673	-0.0012413679	1.5053161e-05	0.00079393515	0.0008459942	0.0007290477	0.0008745637	-0.0008283577	0.00015473927	-0.00027584512	-0.00022814149	0.00093944685	0.0011354744	-0.0014660127	0.00020823177	-0.0014424773	-0.00048863766	0.0008988842	-0.00038092397	-0.00096346304	-0.0011289371	-3.3279783e-05	-0.0005705247	-0.0010779619	0.0011058154	-0.0012535203	0.0013160675	0.0008643695	0.0013100504	-0.0009927533	-8.748564e-05	0.0013708238	0.0007973047	0.0012699123	-0.0010584246	-0.00011724571	-0.0013068942	-0.0007283603	-6.788029e-05	0.00036119277	0.0011203567	-0.0011177137	0.0010490633	0.00027304885	0.001033454	-0.0012612265	-0.00079821807	-0.0012364995	-0.00094094203	-0.0011394058	0.000116221716	-0.0006651392	-0.0005556774	0.00091756484	-0.001098134	-0.0003497518	-0.0011038017	-0.0012006052	0.0006293398	0.000574511	-0.0006861564	-0.0009747477	-0.00038110925	-0.00044689418	-0.00069265015	-0.0003292953	-0.00017823736	0.00043601176	-0.00024924128	0.001147011	0.00057637267	-0.00045015253	-0.0014838172	-0.0016012911	-0.0011756303	0.0015713989	0.0011188707	-0.0016581164	-0.00029658063	0.00076199434	0.0010383757	-0.0005279522	-0.0012966563	5.8710662e-05	0.00043018392	-0.0013467562	-0.0010454421	0.001020161	-0.0013850526	0.00039649248	-0.0016178907	-0.00052612036	-0.0015661591	0.0005098619	0.00052361964	7.331504e-05	-0.0010490284	-9.191488e-06	-0.0005598335	0.0003849445	0.00022603598	-0.0013744042	0.0012429749	0.0011752136	0.0015411961	-0.0004608442	0.0010197584	9.9152705e-05	0.00030214863	-0.0014097764	-0.0008903343	-0.0006391742	0.0009804757	-0.00025925486	0.0014151955	-0.0007528618	-0.0014559333	0.0005308298	0.00046665096	-0.00015232805	-0.0010365839	-0.00050612795	0.0008746585	0.0011172065	-2.5158164e-05	0.0015696569	0.0011477025	0.00031611638	0.0015000292	0.0013636766	0.00100662	0.0007588265	0.0006593409	0.0013081694	-0.0002609962	0.0009824309	-0.00074339815	0.00046929024	-0.00033644476	0.00010752264	0.001534181	0.000293869	0.00055322016	4.0454503e-05	-0.0002631701	0.0010622685	-0.0005073606	-0.00043762373	-0.0006427432	-0.0012459524	-0.0013950958	0.00081680116	0.0003685151	-0.00026443598	0.0014189909	0.001361727	-0.00036848043	-0.00045096033	-8.639619e-05	-0.00122825	0.0013575192	0.00038452083	0.00078555493	-0.0011528982	0.0015117495	0.00097293296	0.0013551031	0.0005087354	9.9721445e-05	0.0016194863	-0.00028626682	0.0009525105	-0.00039611958	0.00093485287	0.00058811024	0.0014787894	0.00032225382	0.0009646771	-0.00072775374	-0.0016473155	0.0012029915	0.0016547189	0.000505884	0.0006847412	-0.00040696163	0.0005060389	-0.0005431601	0.0016026007	-0.00024295792	-0.0013036428	-0.0013228256	-0.00040827965	0.0003164794	0.00010750524	0.0004294442	-0.0010561622	-0.00042035646	0.0016386396	-0.0005007539	-0.00062486087	-0.001337039	-0.0016533316	-0.0010258934	-7.1371585e-05	0.0010183193	-0.0013987967	-0.00071250275	0.00068482925	0.00047155406	-0.00048384094	-3.313026e-05	0.000107302745	0.0015371991	-0.0016183399	-0.0011698566	-0.0009443453	-0.00044313408	0.0014763563	-0.0004992293	0.00028968733	-0.00048238778	-0.0005615294	0.0014749526	0.0016018878	0.0016614497	-0.00070222595	-0.00024299638	-0.00079805066	4.499874e-05	-0.00016950104	0.0013972411	0.0007383591	-0.00074813544	-0.001087926	-0.0009331757	0.00075575843	0.00070494507	-0.0008545508	0.0013952729	0.00064091035	-0.00017817055	0.0001576238	-0.0011357748	0.0010098296	0.0009960925	-0.0013439093	0.0010867082	0.0006265825	-0.0014180773	-0.000981044	-0.00014966681	-0.001455254	-0.0015217477	0.0005648404	-0.0005083903	0.00024792698	-0.0015436868	-9.1383125e-05	0.00012912662	-0.0007314363	0.001161037	0.00029904564	-0.0009887099	0.0007609005	-0.00059024646	-0.00066461734	-0.0011186393	-0.0012903142	-3.1505264e-05	0.00077534595	-0.00065152603	0.00035040168	0.0009947299	0.00033789492	0.0010872317	0.0006174725	-0.0005192497	-0.00046059102	0.00057678454	2.1716555e-06	-0.00054505677	-0.00084158074	-0.00057315023	-0.00041082772	0.0010444389	0.0004549759	-0.00024448274	0.0011573677	-0.00026026476	0.00022317808	-0.0013454458	-0.0010536988	0.0013166948	-0.0009461066
Stein's unbiased risk estimate_6	0.0006780676	0.0005567431	0.00033619071	0.0006658549	-0.0011850445	0.0011237698	-0.00022282962	-0.00040845468	-0.0016658163	0.000868117	0.00031996018	0.0011659297	-0.00050459517	0.0008711529	-6.722662e-05	0.0010250162	-0.0002653732	6.201232e-05	0.0006283298	-0.00091911526	-0.000473912	0.0013885424	0.0006646689	-0.00080870424	-0.0005826926	-0.001200568	-0.0013334503	0.0014356156	0.00034982382	0.00026431284	-0.0006404673	-0.0008512185	-0.0015508832	0.00062249467	0.0008842683	0.0006057781	0.00015194181	0.0009037964	0.0010070055	0.000776872	0.0007778214	0.00022713325	0.000585854	-0.0012557333	-0.0015672916	-0.0008865769	0.0008781742	0.00032592198	-0.0003465042	-0.0011352442	-5.8969326e-05	0.0015735808	-0.00028337978	0.00053453125	0.0012033402	0.0016666224	-0.0011784042	-0.0003789127	-0.001080759	0.00088010775	0.0016288009	0.0012581588	-0.00040434112	-0.00081326335	0.0007974532	0.00072346645	-0.0011905737	-0.0016558561	0.00028488005	-0.0010639841	0.001219398	-0.0009069459	-0.00061202334	-0.00028292305	8.373368e-05	0.00031143424	-0.0013749832	0.0005912791	-0.001146946	-0.0013218995	-0.0006154238	0.0016596554	-5.8782363e-05	0.0011987115	0.0007257265	0.00014425413	-0.0015466855	0.0013565966	6.4186155e-05	0.00057790003	0.0007117017	-1.154596e-05	-0.00043080273	0.00022548664	-0.00055438513	-0.0004693114	-0.0007933284	0.0008064186	-0.0002682454	0.0016663272	-1.7033082e-05	-0.0013926945	-0.00057924667	-0.0010556709	9.975953e-05	-0.0002834789	0.0012927663	-0.00046745333	-0.0006866338	-0.00014370726	0.0009227186	-0.0008479763	0.00095108687	-0.0013393647	0.0010799599	0.00082537916	-2.3313678e-06	-4.3614793e-05	-0.00087875396	0.001440159	-0.00059279293	0.00016823995	0.00074768433	0.00043977288	0.0009865443	0.0009365946	-0.00029707488	0.001642907	-0.0012278208	0.0014077619	0.0011293225	0.000162826	0.0010013044	-0.0011079888	-0.0013011816	0.001265992	0.00060093484	0.0004877974	0.0011726939	-0.0013284605	0.0010742974	0.0010126594	0.0003621572	0.0001518859	0.001608451	0.0013985364	0.00028216385	-0.0016624933	0.00016884092	0.0011989353	-0.000984366	-0.001211854	0.001027057	0.00018765086	0.0012522679	2.0087235e-05	-0.00026253177	0.00034072448	0.0011147428	0.00148976	0.0015866474	-0.0004628575	-0.0013511634	0.0011786944	-0.0013172514	0.00026904594	0.00066816044	0.0007380353	-0.0015118651	0.0002870203	-0.0008222221	-0.00019547042	-0.001268002	0.0010848346	-0.0013520309	-0.0008246307	0.0004257091	0.0006482437	-0.0015377428	-0.0016538271	0.0001522498	0.0004746669	0.0002310241	0.00019203774	0.0016104307	-0.00089969294	0.0009203278	-0.0011642744	6.6806875e-05	-0.00033324174	0.0016482178	0.00038807763	-0.00055580697	0.0015600475	-0.00089870027	-0.00027406766	0.0009812416	-0.0009527174	0.0015968055	0.00019751798	0.0010876283	-0.001136161	0.0014782833	0.0008152713	0.00088146806	-0.0009611199	-0.0011114274	-0.00019876573	0.001613192	0.0014739754	0.0009820244	0.0009328004	-0.00016639105	0.0010713255	-0.00066614605	-0.0005877627	0.0014288294	2.9557006e-05	-0.00022801498	-0.0011602703	-0.001298549	0.00022778969	0.0010627465	-0.0005466894	-0.001618902	-0.000538878	-0.0015897291	-0.0015143144	0.0009733479	0.00017586093	-0.0004912378	0.0010156904	0.0004978655	-0.00035191726	-0.0016633259	0.00050583086	0.0006918382	0.0004679916	0.00023246286	-0.0010599475	-0.0013260862	0.00017902195	-3.6591624e-05	-0.00019530763	-0.0007975102	-0.001469465	-0.0013542048	0.0014509911	-0.001628133	-0.0011415976	-0.00078120286	0.0001257589	-0.00047835478	-0.00054642325	0.00059030496	0.00054102903	0.00044362774	-2.7389537e-05	-0.0014668967	0.00037234786	0.0007810036	0.0008010609	-0.00050862174	0.00084505224	-0.00056915934	-0.00069542235	0.00012902691	-0.001480365	0.0014102178	0.0013872853	0.0002228614	-0.0015119669	0.00011395328	-0.00019467543	-0.0015092745	-0.00079070067	0.0015537388	0.0011287866	-0.0013792486	-0.0012767495	-0.0015840628	-0.0014829885	0.00034043496	0.0016284874	-0.001299439	-0.00024757403	0.00030517674	-0.0015621654	-0.00027164796	0.0008525229	-0.00027340034	0.0008881935	-0.0016460081	0.0010533633	-0.001241232	0.0008345938	-0.0006067576	-3.2775924e-06	-0.0015017859	0.0006019109
Stein's unbiased risk estimate_7	0.00049372384	-0.0004100929	0.00020887108	0.00038847953	-0.00046404175	0.00041975453	-4.9851093e-05	0.00027300214	-0.00055678637	0.00048236278	7.4582356e-05	-0.00013827272	-0.00043501146	-8.173008e-05	0.0001517999	0.00022581982	-8.761565e-06	0.000116148985	0.0005528803	0.00012846444	-0.00067921844	0.00072209793	0.0006823492	7.1565632e-06	-0.00014178442	-0.00037467023	0.00017074862	0.00020547221	0.0003793342	0.00016513519	0.00033155922	-0.00062462554	-0.0004597497	1.4614483e-05	0.00074007665	0.00024402273	-0.0005377184	-5.4624004e-05	0.00039414343	0.00044196917	2.87204e-05	5.1638883e-05	0.00069048966	-0.0007189082	-0.0005206008	-0.0004906374	-0.00017492165	-0.0001782268	0.00017139321	-0.0001234644	0.00010180904	0.00048248647	-0.0007222879	-0.00024879503	0.0012064793	0.0006077157	-0.00051037554	0.00029267248	-0.00025914737	0.00032863877	0.00065431645	0.00034759913	-0.00023482596	-0.0005146163	0.00014425728	-0.000112538924	-7.917858e-05	-0.00032690386	0.00013615127	-0.00012541495	0.00018397774	-0.000573819	-0.00040944933	-0.0005038774	-0.0004900892	4.4798795e-05	-0.00019187942	-0.00013634666	-2.0431024e-05	-0.0003820054	-0.00020518381	0.0008554757	-7.5666954e-05	0.0007865838	-0.00016668456	-0.00016093855	-0.0005920034	0.0001542403	-0.0002609913	0.00031397442	2.9871475e-05	0.00010423967	6.358809e-05	0.00021691875	-0.00019597734	-0.00014963011	-0.00054525596	0.00038952034	0.00056646526	0.00016878448	0.00012221248	-0.00032050515	0.00039139268	-0.00096665474	4.5955487e-05	-8.918928e-05	0.0005126438	-0.00037201252	-5.605528e-05	-0.00016461703	0.0005715625	-0.00018025706	0.00015720581	-9.829989e-05	-0.00022334068	0.00025913716	0.0004244239	0.00032436269	0.00035699367	-0.00017242962	2.8380055e-05	-0.00018741758	-0.00012320414	-0.0002761839	-2.6950163e-05	0.0004172626	-0.0005413723	0.0008066788	-0.00015161616	0.00055109634	0.00022240821	-9.0542475e-05	0.00036136265	-0.0007611215	-0.0002951083	0.00028131675	0.00023016376	0.00062894955	0.0002976238	-0.000276386	0.00048304486	-0.0002773961	-0.00030828686	-0.00034070582	0.00038649802	0.00032425413	0.00011707715	-0.0010287164	6.984128e-06	0.00035767385	8.269152e-05	-0.00030177378	0.00019146562	-0.00038970524	-4.797544e-05	-0.00010918516	7.485263e-05	5.9183916e-05	0.0005411778	0.00042290054	0.00031397317	0.00045376254	0.00021192129	0.0002519709	-0.00042881587	-0.00017415512	-1.9226321e-05	-0.00024297046	-0.00032438288	0.000402987	0.00023173391	0.00017180502	-0.000206347	0.0002161386	-0.00028124097	-0.00078377366	0.00024046419	0.00040846207	-0.00041638844	-0.00042644318	-0.0001545101	-0.000120523735	-0.00042645723	-0.00035741116	0.0007220946	-0.00043637847	0.00027679847	0.00015405529	-5.080033e-05	9.829875e-05	0.0007312745	3.2224332e-05	0.00020550865	1.0371219e-05	6.0173683e-05	-0.00018097613	0.00060828944	-0.0005209158	-3.14394e-05	0.00020730105	0.00046165715	-0.00014405882	0.0005741559	0.00046043142	0.00024844104	-8.828923e-05	-0.00042140504	-3.427733e-05	0.0007862415	0.00030198717	5.5537177e-05	0.00034821618	0.00045517806	1.122749e-05	0.00031138517	-0.00062846387	0.0007045695	9.917553e-06	0.0002366362	-0.0006940655	-0.00050213357	0.00028619857	0.00024590877	0.00016177293	0.00024265813	0.00020357422	-0.0001954229	-0.0005507332	0.00037002226	0.00014581344	-0.0003977788	2.9603443e-05	-0.00024590857	-0.00028822574	-0.0006468523	0.00014137411	0.00058151264	0.00044551215	0.00010627366	-0.0005403094	-0.00031362523	0.0001382529	5.6116896e-06	-0.0001549856	-0.0006110845	-0.00083200296	-0.00015010072	0.0004305721	-0.00035143632	-0.00038591295	-7.4212796e-05	0.00074098824	-0.00029031787	7.402295e-07	-0.0003217102	-6.3721134e-05	-0.00022237259	0.00022022278	-0.0004825852	4.9112426e-05	-0.00020927837	0.0003840454	-0.00075611897	6.1129685e-05	0.00011651548	-0.00014272443	0.00027629558	-0.0006122776	-6.810132e-06	5.2490443e-05	0.00050276885	-0.00041485278	-0.00035323537	8.765395e-05	-0.0005348461	-0.0003065339	1.460308e-05	-2.754666e-05	-0.0007701263	-0.0006174406	-0.0008270622	-0.0005554795	0.0001785554	0.0007439665	-0.00026924393	-0.00021829642	0.00011834626	-0.00016994154	-0.0003206125	0.0003614353	5.6791432e-05	0.00047188016	-0.00012721421	-3.3699536e-05	-0.0004143278	-0.00011718399	-0.00038954	0.00020983371	-0.0005965485	0.0003562699
Stein's unbiased risk estimate_8	0.0015990955	0.0003691951	0.0012472164	0.0016390431	-0.00019423399	0.0003075138	1.2289768e-05	0.0008122888	-0.00096783205	0.00034348277	-1.7662069e-05	-0.0006269276	-0.00161831	-0.0010051342	-0.0009326684	0.00018406741	0.00029287222	0.0014884094	0.0007112859	-0.0006168158	-0.000508611	-6.450184e-05	0.00029291486	0.0015107166	0.0003320818	0.0015815576	-0.0004811907	-2.2085498e-05	0.0013331986	-0.0009682495	0.0014179649	-0.00010841726	-0.000821785	-0.0012992274	-0.00037982542	0.0006333126	-0.00023886985	0.0012235111	-7.195423e-05	-0.00043990355	-0.0010603413	0.0006996991	0.0007558549	-3.3303153e-05	-0.0010205442	-0.0011025177	-0.0013551352	0.0009136153	-0.0012862573	-0.0015826685	-0.00085304835	-0.0003842925	-0.00074024935	-0.0008373217	0.0016212856	0.0012526282	-0.00051370217	0.000665119	0.0012637477	0.0016165941	0.00066935696	-0.0010357677	-0.0010312987	-0.0010371349	-0.0014052129	0.0006507486	0.00089169294	0.0009813389	0.0015364438	0.0010450609	-0.00028674974	-0.001580391	-0.0010967465	0.0015062749	-0.0007699132	0.00088086544	0.00043793654	-0.0012016506	0.00056689425	-0.0010995392	-0.0010436429	0.00093452964	-0.0011011828	0.0012734303	0.0007316205	0.0012410982	0.0015756882	0.0009883764	-0.00077108154	0.0008124811	-0.0013442836	0.001000674	-0.0001174918	0.0013847781	-0.00037804584	0.0014663498	-0.001517678	-0.0009440176	0.00075629	0.0014569323	0.0015757409	0.00034223768	0.0014491003	-0.0012421703	-0.00055323145	-0.0011802102	-0.0008465227	-0.0014011746	2.5377192e-05	-0.0013302214	0.00011401023	0.0009506193	0.0010389513	0.00012387223	-0.00014238889	-0.0009133066	0.0010324582	-0.00091533666	0.0012149046	0.00033941347	-0.001096199	0.0016404225	-0.0006755792	0.0013390402	-0.0008511526	0.0009803708	-0.00019367723	0.0012131134	0.0012954001	0.00029657656	-0.00056040456	0.0010056027	0.0016081603	-0.0014011274	0.00018692054	0.0007951698	0.00018230014	0.0009808056	-0.0004851018	0.0007112901	0.0014038767	0.0010239981	-0.0015817055	0.0012776006	-0.0014359184	-0.0014430345	-0.00094191777	2.1988422e-05	0.0010623113	-0.00061428396	-0.0002510187	0.0006454953	0.0010058144	-0.00026932	-0.00016210273	0.0006608001	0.00051947683	0.00041102164	0.0013446766	0.00032507346	-0.0008016531	-0.0011515736	0.001374017	0.00065497326	-0.00140007	0.0011953928	-7.50166e-05	0.0004495926	0.0008022598	-0.0011717381	0.0012391452	0.00022179307	0.0011311714	-9.0119014e-05	-0.0014829593	-0.00030947902	0.0014788193	0.0008217959	-0.0008463218	0.0009735605	-0.0014500106	-0.0011666507	-0.0013000708	-0.001633025	0.0004239881	0.00067362026	-0.0013452512	0.00090867997	-0.0010197677	0.00069993234	0.0011566208	0.0008897676	0.0015851132	0.0009141479	0.0013864816	-0.0012116889	0.0015950406	-0.0012240848	-0.001126653	-0.0002441344	0.0015836232	0.0015306313	0.0005755791	0.0003561687	0.0008155762	0.0015143567	0.0012752401	0.0013115236	-0.0013133324	0.0009656657	0.00092707714	-0.0012662304	0.0012616691	-0.00014244317	0.0014394047	-0.0002463129	-0.0008091139	0.0010312914	0.0016008535	-0.0004787722	-0.0005170645	0.00037112265	-0.0003560092	0.001358947	0.0012683943	0.00080085103	-0.00016907956	-0.001219921	-0.00012966785	0.001292528	-6.4852793e-06	-0.0014440727	-0.00070265896	0.00021441025	0.0006652936	0.0013010514	0.0009979584	0.00023361114	0.0013756453	0.00014165482	0.0014443285	0.0014484902	-0.0009465177	0.0013943088	0.0014776996	-0.00095048296	0.00085773336	0.000223511	-0.00067203084	5.29978e-05	-0.0007765835	-0.00048117663	0.0016054498	-0.0011749401	-0.0012859876	-0.001545873	0.0007162606	0.00020224178	0.00065153895	0.0011713024	-0.0010397568	0.001157021	-0.0012240156	0.0015874939	-0.0011018626	0.0015953599	-0.0015847213	-0.0014319036	-0.00046554563	-0.0012892833	0.0013631181	0.00041144842	-0.0006918692	-0.0005252114	-0.0008141246	0.001602117	0.000353335	-0.0010936032	-0.0012002623	0.00036800164	-0.001368329	0.00036686167	0.0004069876	0.00023092773	0.00042918164	-8.2797684e-05	0.0013928745	0.00031506986	-0.0005939601	-0.00053599634	0.0011515963	-0.00047729554	-0.0009626992	-0.00043913015	-0.0015950686	0.0002698211	0.0004945112	0.00026036322	0.00017369038	-0.00012923028
Stein's unbiased risk estimate_9	-1.9820473e-05	-0.0001556971	-0.00022255433	-0.00014149606	0.00062670425	0.00016561376	-0.00027260857	0.00027301832	0.00012530823	0.00042505187	0.00014655513	-9.201961e-06	0.00039769596	0.00022966649	0.00028115098	0.00044027998	0.0002554707	-0.0004551413	0.0002617723	-0.00022786701	7.876435e-05	0.00039010448	0.00028645864	-6.9430076e-05	-0.00022692622	-0.00014812611	-0.00010415565	0.00021612496	4.58677e-05	-0.00014916816	-8.5367654e-05	0.00025140666	-0.00012505456	0.0003175835	0.000132697	-7.6823984e-05	0.0005017567	-0.0002362212	-4.980955e-05	-0.00031113034	-6.120412e-05	-0.00022174357	1.8355338e-05	-7.570735e-05	0.00021684197	-0.00029934695	-0.00045522442	-0.00014827808	0.00019728237	-7.233917e-05	7.590771e-05	-0.00042336874	-0.0003954785	-0.0003828203	-0.00027934948	-0.00013457554	-0.0007753914	0.00044145292	-0.000297478	-1.5273416e-05	0.00042654382	9.451537e-05	0.00029003533	-0.00036989353	0.000119962	0.00029610936	0.00013116564	0.00033733272	0.00024199704	-0.00049133465	5.4124568e-05	-0.00057465985	0.00018861545	-0.00030003107	-8.1823884e-05	0.00027071452	0.0004410606	0.00025618827	-8.4425876e-05	8.177367e-05	-4.0250743e-05	0.0005660808	0.00071860565	0.00019537413	0.00015618218	-0.00038046527	0.00016272144	-8.830812e-07	2.4741152e-05	-9.197901e-06	-0.0005042441	0.00038425106	0.00017100415	-0.00013178519	0.00014366722	0.0002525443	3.226504e-05	0.00018912353	0.00018776792	0.0005999294	0.00015586216	-7.715091e-05	0.00016491089	-0.00050661416	0.00021213065	-4.1320596e-05	0.0002161379	-0.00045866493	-8.0461825e-05	-5.2148298e-05	0.00021710905	-0.00018262731	0.00035344507	9.70834e-06	8.53359e-05	0.00033327163	0.0003899791	0.00031381787	0.00023311598	-0.00014177205	0.00042589958	0.00048310493	-4.8188293e-05	0.00029389467	-0.0003779283	0.00012661149	-0.00035858018	0.00036975628	-0.0002230362	-7.676852e-06	8.2677936e-05	-0.0002537114	0.00025720117	-0.0003349169	-0.00026701234	0.0003159818	0.00027875387	0.000524423	0.00022663393	-0.0001264172	2.3878292e-05	-9.8477885e-06	-0.00019988442	1.476869e-05	-0.00022328943	7.5209224e-05	-0.00026093217	-0.00022146828	-0.0005240134	-0.0001989157	-0.00043501292	-0.00016829958	-0.00017247538	0.0001461596	-0.00030093075	-2.2743578e-09	-0.00013062256	-0.00022440896	0.00016495895	0.0001542093	0.00039353463	6.42922e-05	-0.00034599224	1.8637951e-05	-0.00023085273	0.00012061613	-0.00019628485	0.00014407004	0.00026642182	0.00021525455	-5.9997714e-05	-3.5192963e-05	-0.00053493376	-0.00023634867	-0.00035143664	-0.00036050612	0.00025488168	-0.0001286746	-0.0003871166	-7.853345e-05	-0.00054142287	0.00019120947	-0.00033872732	-0.00044276053	0.00036512004	-0.00051356445	0.00021581927	4.8719718e-05	-0.000290864	-0.00019857477	0.0005427897	-3.999744e-05	0.00011700358	-1.8415169e-05	-0.0004327513	0.0002492964	0.00048420223	-0.00026782448	-0.00022033055	-0.00041576725	-0.0002477817	-0.00041734794	3.0354759e-05	0.00013110208	-3.3278135e-05	-0.0003518926	-0.00019528857	-0.00044957447	6.144232e-05	-0.00013622256	-9.714701e-06	8.7690714e-05	5.185548e-06	-8.7668916e-05	2.8599465e-05	0.00048010435	0.0003069305	0.00020037146	-0.0004770093	-0.00042808574	-0.00010281705	-3.2120985e-05	-0.00022157888	-0.00011096728	-6.11921e-05	0.000101358644	-0.00028491032	-0.00022122577	0.00038529848	0.0003254813	-0.0002586375	-0.00050951925	-8.543827e-06	-0.00087655854	-0.00025766285	-0.00049483316	0.00035693502	0.0006054132	-5.5856945e-05	-4.2209167e-06	-0.00032007144	-9.201153e-05	0.00037790247	0.00022272744	-0.00047479913	0.00013084225	0.00038681203	0.00042065704	-0.0002495825	-0.00060413807	0.00030731014	5.2132982e-05	0.0002892499	-0.00023367029	0.00038670006	-0.00013612965	-0.00025471626	0.00014564111	-0.00035410552	-0.000111702655	0.00011052077	0.0005656978	-6.99093e-05	-9.405072e-05	0.0007995956	-9.643837e-05	0.00029117274	-0.00047088068	0.00037007366	0.00042601515	0.00011882139	0.0003003206	0.00031118037	-0.0004867353	-9.4713156e-05	-0.00032359734	-4.0503342e-05	-0.0002415835	8.717212e-05	-0.00063753664	-0.0003582054	-0.00040562497	0.00014953302	2.7191565e-05	5.392272e-05	0.00056806114	-0.00013841354	-0.00013074784	-0.0003213584	-0.0004143548	9.145646e-05	0.000468774	-0.00012683454	-0.0006625322	-0.00020849486	-0.0002463792	-0.00036479722	0.00019126052	-0.0003579126	0.00064197136
Stein's unbiased risk estimate_10	0.00018164575	-0.00039081724	-0.00010879887	0.00024617248	0.00028568043	0.00028520997	-0.00015908807	0.00055938784	-0.0001388958	0.0006654534	0.00021660709	0.00016349496	-0.00028722652	-9.212186e-05	-6.030676e-05	0.00039330177	8.92815e-05	-0.0003424136	0.0002503011	7.071216e-05	-0.0003122657	0.00016089613	0.00031768286	7.852043e-05	-6.0004582e-05	-0.00020150053	0.00019381283	0.00013647284	0.00025428264	-0.0003348217	0.00031063668	8.558418e-05	-0.00047468508	-5.7889847e-05	3.0293333e-05	0.00023020152	0.0003976169	-0.00027145914	0.00018116256	-2.2924432e-06	-0.00011613905	7.305233e-05	-5.35405e-06	-0.0003171909	0.00010565018	-0.0005576702	-0.000709176	0.000118983655	8.460069e-05	-0.00010811527	0.00011871242	-0.000106312786	-0.00055583555	-0.00045916866	0.00059292093	0.0001626971	-0.00063500414	0.0006102972	-0.0003163966	0.0005343827	0.000888065	-0.00013024028	1.908552e-05	-0.0006961789	-0.00013004095	-1.4897225e-05	-0.000119783625	0.00020256269	0.00027388567	0.00011138497	-0.0002386492	-0.00041283126	-0.000120195626	-0.00038432228	-0.00023379398	2.200059e-05	0.0003702811	7.015445e-05	-9.483567e-06	-0.0001084266	-0.00013435303	0.0007494975	0.00017845881	0.00044199388	1.5056619e-05	-0.00013368588	4.5896406e-05	0.00031527586	2.1468659e-06	-6.788859e-05	-0.00066077756	0.00037828274	0.00033432763	-0.0002603242	7.42182e-05	0.00027999142	-0.00039857358	0.00030532427	0.00048341943	0.0007220961	0.000108263805	-0.00012032106	0.00017296146	-0.0010667894	0.00043584095	-0.0001550421	0.00012298928	-0.0002040852	3.979944e-05	-8.795192e-05	0.0005361419	1.6981503e-06	0.00042684475	1.252083e-05	-8.159543e-05	0.00013949812	0.0007162339	-5.9353813e-05	0.00026811333	0.0002060301	1.540313e-05	0.00043724116	-0.00019768903	0.00031840935	-7.670698e-05	0.0002408091	-0.00036645352	0.0005890864	-0.0002061828	0.00040220012	1.2590397e-05	-0.00027276942	0.0001324733	-0.0005472771	-0.0003244332	0.00030021346	8.81053e-05	0.0007516873	0.00027644873	-0.00030374413	0.00033581536	8.852157e-05	-0.00059665483	-8.7294284e-05	-0.00017208669	8.787823e-05	-0.00034163197	-0.00035388296	-0.00014148187	-0.00013275791	1.1702694e-05	-0.00018456855	-0.00013236896	0.00024470908	-0.00029269137	-0.00018162769	6.1120896e-05	5.7431935e-05	0.00028040336	0.00026161794	0.0005585674	-7.53397e-05	0.00023799887	0.000185633	-0.00038367175	0.00031569428	-0.00019109482	0.00013058697	0.00012212225	-8.787862e-05	0.00015245876	0.00013276625	-0.0003802986	-0.0004078212	-0.0006367833	-0.00051866286	0.00046904047	0.00048243607	-0.00025534138	0.00028340198	-0.0006178108	0.00019112279	-0.00052545476	-0.0006090237	0.0004650937	-0.00042987545	0.00013771493	0.0003346315	-0.00025437737	0.00014625068	0.000553359	-5.3337943e-05	0.00059351017	6.232534e-05	-0.00049025693	-0.00013337524	0.0005690271	-0.00020662555	-0.00042139506	-0.0002813104	0.0002774014	-0.00018859075	-5.5548353e-05	-0.00013269609	0.00024240892	-0.00034357305	-0.00022916426	-0.00025988763	9.206277e-05	7.1162074e-05	0.00032841996	4.394634e-05	0.00034411025	6.105441e-05	0.00020642011	-6.313264e-05	0.00042236008	0.00023407009	-0.00018368884	-0.00053628575	-0.00021008795	0.0005281286	-2.8755767e-06	0.00033008365	3.4538905e-05	0.00045890882	-0.00035994768	-0.00057505665	0.00035996008	0.00024335213	-0.00021431266	-0.00057971955	-0.00027264337	-0.0006626414	-0.0003294671	-0.00026824334	0.0004125061	0.0007511338	0.0001999629	-0.0003662294	-0.00038473483	0.00011910265	0.00047044575	0.0001978247	-0.00017235041	-0.00033000496	0.00038508515	0.0006347582	-0.00048506027	-0.0006357925	0.0002768931	0.00019259381	-0.00018719462	-0.00027887587	0.00024756946	-0.00014682444	-0.0004575467	0.00037720863	-8.086463e-05	0.0002227742	0.00018511023	0.0007082813	-0.00042725043	-0.00018654173	0.0005819445	9.38182e-05	0.00014085243	-0.00081905856	0.0001309003	0.00038487176	0.00028883404	-0.00016818591	0.00020718292	-0.000336497	-0.00033172776	0.000116199066	0.00019808166	-9.59466e-06	-0.00026287182	-0.0004439346	-0.00095988944	-0.0003114402	7.9400415e-05	0.0004461221	8.6531436e-05	0.0004142779	3.3094097e-05	-6.3562504e-05	-0.00035849607	-0.00019124441	0.00044714005	0.0005915733	-0.00031805557	-0.00035273418	-0.00043517177	-1.4331854e-06	-0.00023476295	0.000511389	-0.00010546706	0.0005872424
Stein's unbiased risk estimate_11	-0.0014288985	0.00066989305	-0.00066768157	-0.0004354092	0.00083800306	0.0006616731	0.0007314687	0.0013104894	-0.0010433855	0.0013563352	-0.0005790922	0.0011011763	-0.0010866629	0.00066955975	-1.6029554e-06	-3.1927724e-05	-0.0007175544	-0.000702022	0.0013609821	0.001550746	0.00034792649	-0.0015675644	-0.0016082636	0.00071699766	0.0012352876	-0.0010186426	0.0013038365	0.00021800246	0.00019141397	-4.018018e-05	-0.00023116216	3.1590465e-05	-0.001077075	-0.0003494497	-0.0013830857	-0.0010397125	0.00094118976	-5.214042e-05	-0.00081688055	0.001420046	-0.000802524	-0.00026672342	0.00046518192	-0.00019733416	-2.5607398e-05	0.000891675	-0.001135388	0.0006578056	0.00039515627	-0.0014692937	-0.0005802327	0.00133893	0.0010372527	-0.00010345733	0.0016104423	0.00029109867	-0.0009154802	-0.00030305056	-0.0006353516	0.0016456775	0.00045086464	-0.0016016407	0.00012583862	-0.0015101724	0.00023429212	-0.001631369	-0.0004941639	-0.0015350906	-0.0012811628	0.0009292748	-0.0012146068	0.0006001914	0.00020049239	-0.0013124365	0.0011373108	-0.00036660183	0.00020495807	-0.0009107381	-0.0013813522	0.0013196414	-0.00023584768	0.0015688146	-0.00072664715	-0.0011233245	-0.00083379354	-0.00132078	0.000106423504	0.0008764137	0.0015458809	-0.00019265423	-0.0007992163	-0.00047663815	0.0009481659	-0.0016656194	0.0011439616	0.0007257284	0.00083347206	0.0010941953	0.0005903593	0.00039970406	0.00029247135	0.0016539032	0.00053752435	-0.0016502544	0.0005395256	0.0015284857	0.00014157048	0.0013137733	-9.252919e-05	0.0005722086	0.0012573448	0.0007279375	-0.000369657	-0.0006354355	-0.0010736868	-0.0013569018	-0.0002713242	-0.0010108921	4.5976605e-05	0.0016382457	-0.00014237929	-4.517389e-05	-0.001121596	0.0010305787	0.0008098491	0.00041712038	0.00013860682	-0.0014635992	-4.3084137e-06	0.00043257402	0.0016527426	-2.8789713e-05	-0.0006644951	-7.2757357e-06	0.00017206985	0.0003906019	-0.00074831734	-0.00016521585	0.0008747603	-0.0009746464	-0.000725835	0.0011539344	-0.0008176853	8.275972e-05	-0.0005032873	0.0006004857	-0.00029781234	0.0013999355	-0.0005697793	0.0008963444	0.00046825412	-0.00048589276	-0.0010139555	0.0013753199	-0.00080194406	-0.0012491482	-0.00063997915	0.0016640488	0.00021542946	0.0009729919	0.0006057567	-7.1835e-05	0.00031841977	0.0009231872	-0.0005601291	0.0004190426	0.0009449801	0.0010375531	0.0008621712	-0.00028163314	0.0013735943	0.0015950438	-0.00095292076	-0.0011537127	-0.0005869779	0.00070227706	0.0013098316	0.00027976703	0.0011989998	0.0012918368	-0.0010108354	0.0015997437	-1.781264e-05	0.00037127372	0.00049826293	0.0004399798	-0.0008089503	0.00018408855	-0.001329247	0.00089608744	0.0011737547	-0.0008767913	-0.0007623851	0.00029581736	-0.0014489066	-0.0005268972	-9.140141e-05	0.001424284	-0.0012385618	0.0007406845	-0.00015161495	0.000482763	-0.0015294595	-0.0010616559	-0.000349065	-0.0016220936	0.0013118386	-0.00032582533	0.00012953595	-0.0011556284	0.0006872322	0.0013892958	0.00020986689	0.0014590236	-0.0009917112	0.0001879721	0.0004166506	0.0006612595	-0.0010770486	0.00062671065	0.0004039584	0.0014881776	0.00093247375	-0.0009854661	-3.327953e-05	-1.677086e-05	-0.00038513367	-0.0015814446	0.00094687525	-0.0012852994	0.001357649	-0.00040275202	-0.0011441234	-0.0014484441	0.0009437495	-0.0012166937	-0.0014935068	0.0009059836	0.00096828135	-0.0011521329	-0.0015413179	0.00086859067	0.00076671125	0.00077244465	0.0011199702	-0.0011070521	-0.0013413355	0.001582242	-0.00095968874	-0.0014209632	0.0015929607	-8.5458676e-05	-0.0011274277	0.00019001965	0.0011179771	0.0010428319	-0.0016312471	0.0013548651	0.00050217845	-0.0009799342	0.0012952803	0.00059664855	-0.0015259506	-0.001192162	8.823e-05	0.00019773301	-0.0010923403	-0.0016314758	-0.0002891304	0.0005239367	-0.00026603957	0.0006654098	0.0010161673	-0.0002640755	-0.00020783619	0.0011495639	0.00025258362	0.0014758072	0.00076259085	0.0015019625	-0.00067525875	0.00049340754	-0.00033979118	-0.0004971616	0.0007407225	0.0005472293	0.00087469234	-0.0015923075	-0.0009131352	-0.0014490033	0.00063118985	0.00043489845	5.60306e-05	0.0011423068	0.00015004576	-0.0009958687	-0.0003395347	0.0013325486	0.0015027763	0.0006649505
Stein's unbiased risk estimate_12	0.0005320966	-0.00039859975	0.00043811754	0.0005596257	-0.0005190053	0.0005207906	-3.9261835e-05	0.000290588	-0.0007929989	0.00044114096	-2.7505448e-06	-0.00011810429	-0.00068462	-0.0005524442	1.21136545e-05	0.00017271528	0.0001776218	0.0001943977	0.00040057948	2.4997513e-05	-0.0009969986	0.00057814404	0.0008692785	0.0002995065	7.2695126e-05	9.77669e-05	0.00011062971	-4.2766187e-06	0.00038941586	-0.00019541707	0.00072296406	-0.0006352125	-0.00074133737	-0.00023529833	0.00041367486	0.00059264706	-0.00029221902	-0.00019394909	0.00058349385	0.0004413736	-7.3479314e-05	0.0002891795	0.00039387462	-0.0005888474	-0.00044643882	-0.0007898372	-0.0006034903	4.0451254e-05	-0.00017473903	-0.00010100147	-1.4620484e-05	0.00013415705	-0.0008931896	-0.0004984902	0.0014680473	0.00072893046	-0.000496009	0.0005688092	-0.00029793638	0.0009026999	0.001076972	0.00018421085	-0.00065652933	-0.0006740638	-3.0132149e-05	0.00016633229	-4.3095853e-05	-0.00025017193	0.0006354146	0.00033148561	2.577246e-05	-0.0006185309	-0.00049582386	-0.00022530575	-0.00065312354	5.4252567e-05	0.00017456469	-0.00025919292	0.00016702924	-0.000635294	-0.00022376618	0.0007295792	-0.00027323765	0.0011153901	-0.0002124274	3.026763e-05	-0.0003485465	0.00014796974	-0.0006499537	0.0003028654	-0.00042555787	0.00027497232	9.129137e-05	0.00025002938	-0.00022370741	0.00018698286	-0.0012428387	8.9606765e-05	0.00070041313	0.00029029115	-0.00011741798	-0.00032716163	0.00049904094	-0.0011791663	0.00035293098	-0.0003512262	0.00031547569	-0.0002987893	4.385288e-05	-0.0004225877	0.0006641731	3.6889687e-05	0.00033818197	4.579047e-06	-0.00015924696	6.509188e-05	0.0006107036	-6.620375e-05	0.00057051494	0.00016433919	-0.00037163848	8.5640175e-05	-0.000253513	-0.00022193053	2.399103e-05	0.0005383127	-0.00042962615	0.0013310318	2.6786358e-05	0.00056897616	0.00010111177	-5.4365973e-05	0.00021721586	-0.0009823017	-0.0002445007	0.000110224704	0.0001915298	0.0009091208	0.00018564254	-0.00017670059	0.0010059966	-0.00026744627	-0.00086956634	-0.00026182737	0.00020403203	-2.7260336e-05	-3.2762167e-05	-0.0010079176	0.00011676593	0.00030571216	0.00021302153	-0.00020170273	0.0003140352	-0.0005637329	-0.0002024591	-0.00026298175	0.00028811468	-3.4601035e-05	0.00042277295	0.0005054134	0.00012606618	5.5509707e-05	0.00036098738	0.00072001305	-0.00053587777	0.000115748175	5.5113516e-05	-7.520156e-05	-0.00028754008	-1.9391715e-05	0.0006406005	3.271481e-05	-4.239526e-05	7.447976e-05	-0.00051774795	-0.00089396746	0.00032040855	0.00073445536	-0.00047428746	-0.00023373199	-0.00037520242	-0.00029706268	-0.0006955968	-0.0004251102	0.00041882202	-0.00030450005	0.00013676837	0.00037167923	-0.00015987655	0.00012301045	0.00077879557	0.00015745238	0.00091735413	-3.5153935e-05	5.1579555e-06	-0.00058946025	0.0009825099	-0.000784412	-0.00030984217	-3.513237e-05	0.0009562239	0.00015290067	0.0007561653	0.00022009335	0.0008110013	0.00012005419	-0.00016789975	0.00033410406	0.0002738157	0.00047374988	-4.7756475e-05	0.00032726367	0.0007991446	-0.00014349524	0.00032539488	-0.00073835475	0.00069445965	0.00018468774	0.00064141094	-0.000792256	-0.00067292823	0.0005432581	-7.964733e-05	0.0008432598	0.00053700677	0.0003787516	-0.00044099448	-0.00050185167	0.00039307278	0.00016323556	-0.00018407266	-0.00020256979	-0.00050159695	-9.9825935e-05	-0.00038376916	0.0006025108	0.00078728586	0.00062022253	0.00021255098	-0.00039768408	3.716667e-05	0.00045183714	6.5830354e-05	-0.00015548483	-0.0006086275	-0.0009889009	0.00019003695	0.0003873703	-0.0005016185	-0.00033055377	0.00032840867	0.00062748836	1.2665892e-05	-0.0003445365	-0.00050983863	-0.0006206868	-0.000118534655	0.0005615002	-0.0003744685	0.0005854781	-0.00022278169	0.0005432356	-0.0008957203	0.00011944759	0.0003493828	0.00014244406	0.00010202994	-0.00077987625	-0.00022974527	-0.00021330279	0.00049596175	-0.00039262604	-0.0006187218	-3.5815538e-05	-0.00043352484	2.8805109e-05	0.00027061914	6.4413354e-05	-0.0009816814	-0.0005686282	-0.0012462438	-0.0005285846	0.00025647643	0.0008639674	-0.00020048322	-0.00031499253	0.00025344247	0.0001068945	-0.0003724944	0.0004723051	0.0007056359	0.00049863174	-0.00018591495	3.258463e-06	-0.0006278643	7.672066e-05	1.3268589e-05	0.00031733676	-0.000446122	0.00019162346
Stein's unbiased risk estimate_13	-8.936118e-05	-0.0006908186	-0.0011131761	-0.00044799954	0.00014416162	-0.00024997653	0.00040230574	0.0007695251	3.3320644e-05	-0.00038919167	0.0007116248	-0.00045775808	0.00058599917	-0.0005040614	-0.00018280646	-0.00037811787	0.00038719273	0.00092387554	-0.0006462368	-7.637076e-05	-0.0011993749	0.00013053318	-0.00057439134	0.00071155553	0.00097622146	0.00030002292	0.00019345681	0.0009145985	0.0001503377	0.00075883145	0.00075462396	0.00090466207	0.00013411498	-0.00020409694	0.00035741917	0.00072481245	-0.00055806787	0.00035840823	0.000703414	0.00038640978	-0.0006777802	-7.9219346e-05	-0.00053697237	0.0005582766	0.0006476895	0.00012194117	7.945229e-06	0.0005751441	0.00031977557	-0.00024737007	0.00040385374	6.176116e-05	-0.0008932692	0.0010969805	7.053608e-05	0.00025522607	0.0002693448	-0.00013072803	-0.0005862263	0.0006955696	0.00024238207	0.0006650993	0.00011296388	-0.0009794805	-0.00037518833	-0.00041291755	-0.0005398039	0.00047863112	0.0008362739	0.00035274916	0.00021478394	0.00042368006	-0.0007044443	-0.0006676035	0.0005519072	0.00018405535	-0.0005845029	-0.000434912	-9.884515e-06	0.0009655174	0.0001889291	0.00032809688	0.0011308442	-8.925936e-05	0.00025318458	-0.00054176967	0.0006183566	5.7023037e-05	-0.00014597604	0.00023991252	-0.00062601495	8.4990425e-05	-7.416287e-05	-0.00012765454	0.00042361402	2.5240073e-05	-0.00052976044	-0.0005982383	-6.9669295e-05	-0.0006600767	0.0006351759	-0.0006187965	9.83112e-05	0.00017727882	-0.0002359678	1.5149834e-05	-0.0005869851	0.0006282169	-0.0005292757	-0.00058301026	0.000504815	0.00039417544	-0.0005671202	-0.00037624172	0.00019647308	0.00016335792	0.0005290395	0.00018295592	0.00034788935	-0.00028569883	0.00018160262	0.0010714384	-0.00016950945	-0.0005304658	-0.0011895763	-8.285694e-05	-7.519848e-05	0.00017506456	-0.0004474955	-0.0005615869	0.0002670499	-5.9012556e-05	-0.0003507475	0.000511799	-3.4846365e-05	-0.0002915154	-0.00023419534	-0.0004988184	0.0010697683	0.0005033605	0.0002726564	1.0516999e-05	2.3145694e-05	-0.00036835636	7.325038e-05	-0.0004400597	0.0004448987	-0.00021943888	-8.268185e-05	-0.00089892466	0.00016808475	0.00030748372	0.0002169877	-0.0005133715	0.00047785882	0.00019754346	-0.00012108331	0.00012676495	-0.00071204855	0.00056195847	-0.0004335045	0.0006074862	-0.00028748866	0.00075812713	0.00031920167	0.0006684999	0.0006581082	-0.0013798409	-0.000108358254	-0.00037348372	0.0001705393	0.000109371285	-0.0011478	1.0703807e-05	-0.00012618357	0.00040848923	0.0011772049	0.0010199137	-2.4780797e-05	0.001083006	-0.00032056172	-8.366678e-05	-0.0006894436	7.295626e-05	-0.00047983634	0.0006811058	-0.00039939932	0.00029581494	-0.00037219448	0.0005805918	-0.00048604258	-0.00081728335	0.0005567199	0.00089129223	-0.0002914926	5.064799e-05	-0.00032097104	0.0004817253	-0.00012688285	0.0004921535	0.0012103694	0.0010179247	-0.0009264333	-0.0002703177	0.0008502568	0.00033758502	-0.00048769606	0.0006469128	0.00035552736	-0.00014211024	0.0011415157	-0.0005105449	-0.00048559	-0.0003795115	0.00040159686	0.001215763	0.0013995335	-0.00060107285	8.7466826e-05	-0.00020506089	-0.0002520587	-8.584369e-05	-0.00095211784	0.00035775767	-0.0006197148	-0.00038264075	3.0479394e-05	0.0006632558	-0.00010217936	-0.00024679524	0.00038264334	-0.00080454815	0.0006901445	0.00092435064	-0.00015370025	-0.0002508846	0.0004676144	0.0005447829	-0.00042481985	0.00056279777	-6.6128734e-05	-0.0004886834	0.00037902835	0.00041429032	0.00018887404	-0.00034687386	-0.00014001231	0.0007403843	-0.00026974085	0.0005189102	-0.0001892181	4.9347193e-05	-0.0006247794	-0.00013850683	0.00022675311	-2.4045274e-05	0.00013103777	-0.00032527733	-0.0003261964	1.6250842e-05	-0.00034757575	0.00049214676	-0.0008572347	-0.00027689865	0.00045064514	-0.00016330004	-0.00040465104	0.0006316491	-0.00044833435	0.00067085726	0.0005548008	0.00054197456	-0.00052350754	0.0014242748	0.00033153655	0.0001246824	-0.0011018729	-2.64717e-05	-0.00035949415	0.0005783569	1.2262414e-05	-0.0002463593	0.00074470177	0.00032410838	0.00013506801	0.00031355917	-0.0004053351	0.00029340468	0.0005359494	0.0008147289	0.0006400334	0.000921606	-0.0005613594	-0.00038658772	0.00032204445	0.000296794	-0.0001838198	0.00011157964	-0.0008857797	0.0003222257
Stein's unbiased risk estimate_14	0.0003827271	-0.00049462856	0.00012123487	0.00044544434	-0.0008020966	0.00024033157	-0.00012765665	0.00017695638	-0.00086779916	0.00067136204	-4.5860215e-05	9.210762e-06	-0.00039414395	6.391539e-05	0.00028347486	-8.23441e-05	-0.00015791107	-0.00018255762	0.0006375435	0.00021582282	-0.0006673775	0.0005325076	0.00094896223	0.00010390874	-0.00040993694	-0.00037235324	0.0006473748	-0.0002539091	0.00023327174	0.0001950055	3.1180753e-05	-0.0006670974	-0.0006056418	0.00047888426	0.0007765151	0.00013401626	-0.0006382833	-0.0002028312	0.00060578785	0.00037938193	0.0002373974	-4.2363885e-05	0.00059332803	-0.00085774105	-0.00059289124	-0.0009011808	-7.287381e-05	-0.0003505095	0.00038356535	0.00053076854	-0.00018762375	0.0002651275	-0.0004933105	-0.0004400132	0.0009916543	0.000281139	-0.00029476327	0.0007348256	-0.00023299539	0.0001876957	0.0006251016	0.00052910665	-0.00010402911	-0.00053406565	0.00028733062	-0.0003641153	-0.00014380447	-0.0002993723	0.00014122414	-0.00012780007	3.760695e-05	-0.00026923153	-0.00027164537	-0.0010001606	-0.0007441954	-0.0004385542	-8.157405e-05	0.00037752773	4.334414e-05	-9.007417e-07	0.00017962161	0.0007730897	-0.00037455693	0.0007071935	-0.0007418146	0.00013193817	-0.0007190234	0.00017778795	-0.00014340466	0.0003432418	-0.00030101463	0.00013152129	0.00013642375	-9.469768e-06	-0.00020238239	-0.00055835873	-0.0006080078	0.0006675137	0.00053311884	-0.00039124495	-0.00014013558	-0.00071506697	0.00022964727	-0.0009136143	0.00024721984	7.536866e-05	0.00085903483	-1.0906559e-05	6.974407e-05	-4.50039e-05	0.0009816362	-0.0005861475	0.0002005634	-0.000393113	-0.00012554467	0.00020304578	0.0006380803	0.00045592317	0.00041492406	-0.0003072441	0.00029705354	-0.00029975516	-0.0001892943	-0.00068333215	0.00015574998	0.000308321	-0.0005992325	0.0006156815	-0.00014886068	0.00080617546	-0.00015346796	-0.00035685924	-0.000103214	-0.00063296506	-0.0002940593	4.7428824e-05	0.00013850248	0.001077599	0.00041713167	-0.0005860817	0.00066668616	-0.0005436074	-0.00036574327	-0.0006170651	0.00048710854	0.00045425392	-3.655978e-05	-0.0013885312	-4.422667e-05	0.0007730634	0.00017524816	-0.0005343115	0.00018289356	-0.0008690306	-0.0001449559	-0.0005100229	-0.00018413778	-0.00020175062	0.0004120143	0.00037516514	0.000522243	0.0007158314	0.00039542853	0.00016487029	9.762315e-05	-0.0004078776	-0.00027762458	-0.00026721304	-0.000104972045	0.0006371872	6.58498e-05	0.00035788497	-5.0099217e-05	0.00043935643	-0.00041473072	-0.0011565976	-0.00014206834	0.0009153353	-0.0002609288	-0.00014770898	0.00019868182	-0.00010593656	-0.00062659045	-0.00040804993	0.00041105083	-0.0006138576	0.000400381	0.00018216216	-1.9325307e-06	-0.00020794275	0.0004899574	-0.0003333757	0.00013553597	-0.00018181934	-4.60592e-05	-0.00014591773	0.00039216364	-0.00013083601	-0.0003145351	-3.059514e-05	0.000681023	6.497462e-05	0.00040340345	0.0005007214	0.00030599211	-9.132693e-05	-0.00081307406	-0.00040433934	0.00074485096	-0.000180874	-8.9867215e-05	0.0005321597	0.0007729982	0.00027066216	5.9059028e-05	-0.0009095762	0.000703183	-0.00035402577	2.9922521e-05	-0.0008649898	-0.0002802136	0.0008294308	-1.8595445e-05	0.00022788381	0.00010295426	0.00021420069	-0.00026741493	-0.00025594418	1.3439538e-05	8.313276e-06	-0.0004698026	-0.00020282748	-0.00042694996	4.040978e-05	-0.00071926875	0.00021587597	0.00029259172	0.0008929084	-0.0003421696	-0.0004165918	-0.0003808281	-0.0002694908	3.5258563e-06	-0.00047220307	-0.00083792757	-0.0008289542	-0.00019374667	0.00037024706	-0.0005572031	-0.00020347997	0.00014696199	0.0006625174	-0.0006970491	0.0003048828	-0.00015749232	0.00017737594	-0.0003131718	0.00030390208	-0.00065890944	-7.944327e-05	-5.528117e-05	0.00017949805	-0.00093151105	5.5758166e-05	0.00024467416	1.0375588e-05	0.00059476704	-0.00077059283	1.1296492e-05	-5.732302e-05	0.0003017605	-0.0002934595	-7.60715e-05	-0.00022806025	-0.0001347654	-3.6499958e-05	-0.0001365012	0.00022095314	-0.0008870095	-0.0009642661	-0.0008451905	-0.00036228748	-0.00019371495	0.0011752095	-0.00023492344	-0.00043533542	-3.587897e-05	-0.00010538922	-0.00036219516	0.00029207597	6.6643697e-06	0.00028056	8.517782e-05	0.00023459128	-0.00020611117	2.5008456e-05	-0.00051353965	0.00019971395	-0.00072611496	0.0004990219
Stein's unbiased risk estimate_15	0.00033036122	-0.00039710387	-0.00038374236	-0.00025566018	0.00049089803	-0.00010295913	-0.00028407224	0.00044244755	0.00021665983	0.0004902365	0.00017835572	-0.00021696991	0.00030067077	0.00023626396	-0.0001245626	0.000117671494	0.00028705582	-9.6261116e-05	0.00011869924	8.151313e-05	4.0934815e-06	0.00032951235	0.00064774277	3.461715e-05	-0.00018752158	0.00024491604	6.0502236e-05	6.281123e-05	-6.9476126e-05	-0.0003038966	0.00020664836	0.00019941766	-6.736337e-05	0.0004064015	0.00016278979	0.0001259032	0.00019219409	-0.0004938894	0.00016931196	-0.0005873078	-1.4296506e-05	-4.277104e-05	-0.00016272003	-0.00031195357	0.00010836067	-0.00030699998	-0.00017379262	-9.085076e-05	0.00020124593	0.00034596634	9.068037e-05	-0.0005716376	-0.0002813676	-0.00026483546	-0.0004996464	-0.00044807838	-0.0005469089	0.0005662939	-0.0001732904	-0.00015445803	0.00014166384	1.8043644e-05	0.00028694674	-2.305339e-05	-3.2395978e-06	0.0002555102	0.00036828194	0.00030139252	0.00021003035	-0.0005392487	-6.148184e-07	-0.00046868055	0.0005795894	-0.00031262217	-0.00034409694	-6.1677274e-05	0.00063183735	0.0004924018	-0.00014446334	4.5564284e-05	-9.919503e-05	4.73144e-05	0.0006021137	-0.00017394728	0.00010670269	0.00012732607	0.0004982831	-5.817859e-05	3.5076093e-05	0.00016875847	-0.000643952	0.00047696166	5.84548e-05	-2.3176524e-05	-0.00031941812	0.00038011902	-8.985513e-05	0.0003113308	0.00029659187	0.00034474747	0.00033028974	-3.7179718e-05	-0.00018328721	-0.00023271536	3.9937935e-05	-0.000104852385	0.00017850583	-0.00046699567	-0.00013818037	-1.0260391e-05	0.00015020292	-0.00029983462	0.00045841958	0.00010107549	1.0879744e-05	8.408205e-05	0.00048974284	4.6519563e-06	0.00031821377	-0.00024862363	0.00040675217	0.00016979744	-0.00036632092	-0.00017445767	-0.00041114297	9.363607e-05	-0.00064849027	0.00045406056	-0.00025791148	8.3899184e-05	-0.00020101739	-0.00012246407	-7.4659896e-05	-0.00011542904	-0.0002241618	0.0003444949	0.00013230983	0.00078287575	0.0005295149	-6.148281e-05	1.7537308e-05	-0.00026386636	-0.0003236998	9.3425415e-06	-2.7931645e-05	4.575328e-06	-8.534023e-05	-0.00032830736	-0.00024898915	-0.00027468638	-0.00039164443	0.00022203861	-0.0002438872	-0.00036435534	-0.00040497576	1.4026092e-06	-7.2051815e-05	-0.00027462296	-2.061755e-05	-0.00014301382	0.00046497496	0.0002554141	-0.00012012054	-0.00025072286	9.556663e-05	0.00015631497	-0.0003162773	-0.0003723091	4.382265e-05	0.00028682363	8.690743e-05	0.00013061546	-0.00022556247	9.5126066e-05	-0.00046527575	-0.00017058742	0.0002471483	0.00029863822	-0.0006808798	0.00023157457	-0.00036527324	0.0001700069	-0.0005477212	-0.0004989143	0.000398219	-0.00025577092	0.00020498937	8.628855e-05	-6.0898306e-05	-0.00023672206	0.0004214941	-5.760373e-05	5.509548e-05	-0.00014673275	-9.450525e-05	9.765599e-05	-0.0001627415	-0.00019979301	-0.00033198253	-0.00027241377	-6.3691834e-05	-0.00019860109	-0.00022819218	0.00014195708	-0.00010255856	-0.00051956525	-0.00026268818	-0.00073664857	-1.6800637e-05	-0.00020395707	-0.00011760688	-9.861688e-05	0.00024503347	-0.00021162824	0.00019593917	0.0005136392	0.00022694636	-1.2838435e-05	-0.00029180912	-0.0006220463	-0.00029138435	0.00015790682	-0.00047559667	0.00010171843	-0.000238371	8.819392e-05	-0.00013413743	-0.00015340929	0.00023057385	0.00023610973	6.146948e-05	-0.0007506497	-0.00016386303	-0.0005184111	-0.00030592698	-0.0003669593	0.0006274474	0.00069545215	-0.0002853923	-9.800924e-05	-0.00034585161	-0.00032138595	0.00037118414	0.00017745323	-0.00032045855	0.00013897436	0.00084451324	-5.6494962e-05	-0.000279888	-4.8843776e-05	-2.2456117e-05	0.00021774463	-0.0001429403	-0.00020304768	0.00035897465	-1.1562372e-05	-0.00035920058	-0.00012965189	-0.0005511541	0.00031871363	-0.00034272898	0.00048132194	-0.00019083075	-0.00019735943	0.00039279525	-0.00021382744	0.00041272165	-0.00022021765	0.00037874136	0.0005400192	7.225363e-05	0.00033041064	0.00016391362	-0.00025158038	0.00011980342	-0.00012201904	1.4954583e-05	-0.0005440076	-0.0001708682	-0.00054167124	-0.0003371972	-0.00010021972	0.00016497125	0.00027043343	0.00017400089	0.00050867593	-0.0005705052	0.00018212448	-0.0004296087	-0.00018645133	0.00017264383	0.0002083373	2.0183823e-05	-0.0004115222	-0.000422939	2.6448148e-05	-0.0004109528	7.252825e-05	-0.00027296212	0.0006754715
Stein's unbiased risk estimate_16	0.00023712814	-0.00047087154	-8.401561e-05	-0.0003451653	0.0004232078	0.00019956371	-0.00035208362	0.000254249	0.00019993345	0.00042735407	0.00040791905	-0.00010028716	0.00032633467	0.00016249952	0.00013984232	0.00027705208	0.00038374294	-0.00024027248	0.00015583192	-0.000300811	0.00017660377	0.00019974196	0.0006435941	-0.00014142599	-0.00028355117	-0.00014396898	-0.00013668051	9.631145e-05	3.0131816e-05	-0.00022196307	0.0001766154	0.00014525175	-9.243908e-05	0.00036751997	0.00025692544	4.3156797e-05	0.00026845513	-0.00024567588	-5.839277e-05	-0.0004117776	-6.4086094e-06	-2.048732e-05	-9.3307244e-05	-0.0002472515	0.00013397635	-0.00031367832	-6.129326e-05	-0.00021133047	0.00021152858	0.0001221103	8.891377e-05	-0.0005692434	-0.00041735268	-0.00024984617	-0.00045258805	-0.0004017562	-0.0005134117	0.0003349653	-0.00030181036	-8.716104e-05	0.00031046537	9.434705e-06	0.000117733136	-0.00013861105	1.9041947e-05	0.00035403488	0.00018863693	0.0002458293	0.0002728766	-0.0005254423	-0.00018272937	-0.00044697314	0.0003973269	-0.00017966038	-0.00016892576	0.00035200402	0.0006052667	0.00020901454	-0.00027894744	-0.00028839725	-0.0001449531	0.00027772944	0.0006805441	5.321324e-05	0.00011033776	-7.193023e-05	0.00035696363	4.46799e-05	-8.536754e-05	4.0914187e-05	-0.00049659034	0.00030670283	0.00021120721	-7.0023193e-06	-0.0002903196	0.00038276013	-0.0003011162	0.00021404268	0.00031212196	0.00033631496	0.00024906982	-0.00011466978	-1.289397e-05	-0.0002954429	4.566856e-05	-0.00020509977	0.00028864626	-0.00074981863	-8.5835614e-05	0.00025031593	0.00021582156	-0.0003643187	0.000296775	-8.722468e-06	0.00015838914	9.6501215e-05	0.0004420493	0.00029647126	0.00020261019	-0.00030556292	0.000500208	0.00032486412	-0.00017890231	0.00011336664	-0.00036843005	-2.4809784e-05	-0.0005814416	0.00053494045	-0.00033652136	2.7006405e-05	-9.445745e-05	-0.00027652673	0.0002217208	-0.00041867472	-0.00014394251	0.0005075254	0.00022712945	0.0008331834	0.00033620777	-5.7840047e-05	2.4338615e-05	-0.00011267567	-0.00033579298	0.00020507295	-0.00016474145	5.320812e-05	-8.25767e-05	-0.00023168503	-0.00023330307	-7.802903e-06	-0.00030151563	2.332213e-05	-9.4322066e-05	-0.00016202232	-0.00043913242	-0.00012569282	0.00010048942	-0.00033807132	0.0001861823	-1.4533152e-05	0.0005639683	0.00024421455	-0.00029356376	1.1409668e-05	-0.00015742482	-0.000102529055	-0.00010635236	-0.00012772335	0.00013016045	-2.1940794e-05	-6.831305e-05	6.0562812e-05	-0.0001821647	-0.00018668539	-0.00022833738	-0.00028869064	0.000164085	0.0001867394	-0.0006538326	0.00010963967	-0.00021802894	0.00018988656	-0.00047603558	-0.00046149068	0.00016794751	-0.0005691271	0.00025443608	0.00024171674	8.494904e-06	-0.00015447907	0.00043966292	-1.4579996e-05	-4.9959985e-05	-4.1872096e-05	-0.00027953042	5.0812607e-05	0.00017456098	-0.0004599034	-0.00033130217	-0.00020272828	-6.2323095e-05	-0.00024372715	-0.00012876563	5.91441e-05	1.9516414e-05	-0.0005465391	-0.00042131575	-0.0007111651	-9.795758e-05	-9.2862254e-05	-2.0781315e-05	9.5237665e-05	4.5633788e-05	-0.00010368788	6.935768e-05	0.00025885474	0.00027541633	0.00020684872	-0.00036383423	-0.00057685794	-0.0004490024	0.00011274688	-0.0003519066	2.2010094e-05	3.692386e-05	4.881873e-05	-0.00023981281	-0.00025807563	0.0004734649	0.00038700883	7.1526774e-05	-0.00065621827	-0.00011769104	-0.0007381513	-0.00032816775	-0.00054194225	0.0006801498	0.00055182114	-8.117732e-05	-0.00022852198	-0.00023479188	-9.736432e-05	0.0003324847	-3.287969e-05	-0.00047243826	0.00013874826	0.0007282696	0.0001770101	-0.0003599442	-0.00038913553	0.00031885764	5.457037e-05	0.00015337025	-8.442063e-05	0.00032867325	-9.35766e-05	-0.0003221592	-4.9898368e-05	-0.0005427625	0.00028039524	-0.00012956733	0.0005772011	-0.00031751272	-0.00013400985	0.00084564247	-0.00029733052	0.00050910714	-0.00027995775	0.00028593064	0.00065479224	0.00012246637	0.0001319079	0.00016830605	-0.0004202072	8.075041e-06	-0.00025367324	6.756346e-05	-0.00038333208	-0.00018328048	-0.00070254796	-0.00020146092	-0.00040751492	8.819902e-05	0.0003568265	0.00021304465	0.00041710396	-0.0003937462	9.56036e-05	-0.00045723753	-0.00019359477	0.00032233502	0.00033412565	-0.00014500956	-0.00034920944	-0.00027396897	-0.00012708073	-0.00024025458	0.00014550576	-0.00013808496	0.0006013108
Stein's unbiased risk estimate_17	0.0014823282	-0.0016516839	-0.0006735773	-0.0014143969	0.0006651117	-0.0009004276	0.0014221673	-0.0012413679	1.5053161e-05	0.00079393515	0.0008459942	0.0007290477	0.0008745637	-0.0008283577	0.00015473927	-0.00027584512	-0.00022814149	0.00093944685	0.0011354744	-0.0014660127	0.00020823177	-0.0014424773	-0.00048863766	0.0008988842	-0.00038092397	-0.00096346304	-0.0011289371	-3.3279783e-05	-0.0005705247	-0.0010779619	0.0011058154	-0.0012535203	0.0013160675	0.0008643695	0.0013100504	-0.0009927533	-8.748564e-05	0.0013708238	0.0007973047	0.0012699123	-0.0010584246	-0.00011724571	-0.0013068942	-0.0007283603	-6.788029e-05	0.00036119277	0.0011203567	-0.0011177137	0.0010490633	0.00027304885	0.001033454	-0.0012612265	-0.00079821807	-0.0012364995	-0.00094094203	-0.0011394058	0.000116221716	-0.0006651392	-0.0005556774	0.00091756484	-0.001098134	-0.0003497518	-0.0011038017	-0.0012006052	0.0006293398	0.000574511	-0.0006861564	-0.0009747477	-0.00038110925	-0.00044689418	-0.00069265015	-0.0003292953	-0.00017823736	0.00043601176	-0.00024924128	0.001147011	0.00057637267	-0.00045015253	-0.0014838172	-0.0016012911	-0.0011756303	0.0015713989	0.0011188707	-0.0016581164	-0.00029658063	0.00076199434	0.0010383757	-0.0005279522	-0.0012966563	5.8710662e-05	0.00043018392	-0.0013467562	-0.0010454421	0.001020161	-0.0013850526	0.00039649248	-0.0016178907	-0.00052612036	-0.0015661591	0.0005098619	0.00052361964	7.331504e-05	-0.0010490284	-9.191488e-06	-0.0005598335	0.0003849445	0.00022603598	-0.0013744042	0.0012429749	0.0011752136	0.0015411961	-0.0004608442	0.0010197584	9.9152705e-05	0.00030214863	-0.0014097764	-0.0008903343	-0.0006391742	0.0009804757	-0.00025925486	0.0014151955	-0.0007528618	-0.0014559333	0.0005308298	0.00046665096	-0.00015232805	-0.0010365839	-0.00050612795	0.0008746585	0.0011172065	-2.5158164e-05	0.0015696569	0.0011477025	0.00031611638	0.0015000292	0.0013636766	0.00100662	0.0007588265	0.0006593409	0.0013081694	-0.0002609962	0.0009824309	-0.00074339815	0.00046929024	-0.00033644476	0.00010752264	0.001534181	0.000293869	0.00055322016	4.0454503e-05	-0.0002631701	0.0010622685	-0.0005073606	-0.00043762373	-0.0006427432	-0.0012459524	-0.0013950958	0.00081680116	0.0003685151	-0.00026443598	0.0014189909	0.001361727	-0.00036848043	-0.00045096033	-8.639619e-05	-0.00122825	0.0013575192	0.00038452083	0.00078555493	-0.0011528982	0.0015117495	0.00097293296	0.0013551031	0.0005087354	9.9721445e-05	0.0016194863	-0.00028626682	0.0009525105	-0.00039611958	0.00093485287	0.00058811024	0.0014787894	0.00032225382	0.0009646771	-0.00072775374	-0.0016473155	0.0012029915	0.0016547189	0.000505884	0.0006847412	-0.00040696163	0.0005060389	-0.0005431601	0.0016026007	-0.00024295792	-0.0013036428	-0.0013228256	-0.00040827965	0.0003164794	0.00010750524	0.0004294442	-0.0010561622	-0.00042035646	0.0016386396	-0.0005007539	-0.00062486087	-0.001337039	-0.0016533316	-0.0010258934	-7.1371585e-05	0.0010183193	-0.0013987967	-0.00071250275	0.00068482925	0.00047155406	-0.00048384094	-3.313026e-05	0.000107302745	0.0015371991	-0.0016183399	-0.0011698566	-0.0009443453	-0.00044313408	0.0014763563	-0.0004992293	0.00028968733	-0.00048238778	-0.0005615294	0.0014749526	0.0016018878	0.0016614497	-0.00070222595	-0.00024299638	-0.00079805066	4.499874e-05	-0.00016950104	0.0013972411	0.0007383591	-0.00074813544	-0.001087926	-0.0009331757	0.00075575843	0.00070494507	-0.0008545508	0.0013952729	0.00064091035	-0.00017817055	0.0001576238	-0.0011357748	0.0010098296	0.0009960925	-0.0013439093	0.0010867082	0.0006265825	-0.0014180773	-0.000981044	-0.00014966681	-0.001455254	-0.0015217477	0.0005648404	-0.0005083903	0.00024792698	-0.0015436868	-9.1383125e-05	0.00012912662	-0.0007314363	0.001161037	0.00029904564	-0.0009887099	0.0007609005	-0.00059024646	-0.00066461734	-0.0011186393	-0.0012903142	-3.1505264e-05	0.00077534595	-0.00065152603	0.00035040168	0.0009947299	0.00033789492	0.0010872317	0.0006174725	-0.0005192497	-0.00046059102	0.00057678454	2.1716555e-06	-0.00054505677	-0.00084158074	-0.00057315023	-0.00041082772	0.0010444389	0.0004549759	-0.00024448274	0.0011573677	-0.00026026476	0.00022317808	-0.0013454458	-0.0010536988	0.0013166948	-0.0009461066
Stein's unbiased risk estimate_18	0.0014823282	-0.0016516839	-0.0006735773	-0.0014143969	0.0006651117	-0.0009004276	0.0014221673	-0.0012413679	1.5053161e-05	0.00079393515	0.0008459942	0.0007290477	0.0008745637	-0.0008283577	0.00015473927	-0.00027584512	-0.00022814149	0.00093944685	0.0011354744	-0.0014660127	0.00020823177	-0.0014424773	-0.00048863766	0.0008988842	-0.00038092397	-0.00096346304	-0.0011289371	-3.3279783e-05	-0.0005705247	-0.0010779619	0.0011058154	-0.0012535203	0.0013160675	0.0008643695	0.0013100504	-0.0009927533	-8.748564e-05	0.0013708238	0.0007973047	0.0012699123	-0.0010584246	-0.00011724571	-0.0013068942	-0.0007283603	-6.788029e-05	0.00036119277	0.0011203567	-0.0011177137	0.0010490633	0.00027304885	0.001033454	-0.0012612265	-0.00079821807	-0.0012364995	-0.00094094203	-0.0011394058	0.000116221716	-0.0006651392	-0.0005556774	0.00091756484	-0.001098134	-0.0003497518	-0.0011038017	-0.0012006052	0.0006293398	0.000574511	-0.0006861564	-0.0009747477	-0.00038110925	-0.00044689418	-0.00069265015	-0.0003292953	-0.00017823736	0.00043601176	-0.00024924128	0.001147011	0.00057637267	-0.00045015253	-0.0014838172	-0.0016012911	-0.0011756303	0.0015713989	0.0011188707	-0.0016581164	-0.00029658063	0.00076199434	0.0010383757	-0.0005279522	-0.0012966563	5.8710662e-05	0.00043018392	-0.0013467562	-0.0010454421	0.001020161	-0.0013850526	0.00039649248	-0.0016178907	-0.00052612036	-0.0015661591	0.0005098619	0.00052361964	7.331504e-05	-0.0010490284	-9.191488e-06	-0.0005598335	0.0003849445	0.00022603598	-0.0013744042	0.0012429749	0.0011752136	0.0015411961	-0.0004608442	0.0010197584	9.9152705e-05	0.00030214863	-0.0014097764	-0.0008903343	-0.0006391742	0.0009804757	-0.00025925486	0.0014151955	-0.0007528618	-0.0014559333	0.0005308298	0.00046665096	-0.00015232805	-0.0010365839	-0.00050612795	0.0008746585	0.0011172065	-2.5158164e-05	0.0015696569	0.0011477025	0.00031611638	0.0015000292	0.0013636766	0.00100662	0.0007588265	0.0006593409	0.0013081694	-0.0002609962	0.0009824309	-0.00074339815	0.00046929024	-0.00033644476	0.00010752264	0.001534181	0.000293869	0.00055322016	4.0454503e-05	-0.0002631701	0.0010622685	-0.0005073606	-0.00043762373	-0.0006427432	-0.0012459524	-0.0013950958	0.00081680116	0.0003685151	-0.00026443598	0.0014189909	0.001361727	-0.00036848043	-0.00045096033	-8.639619e-05	-0.00122825	0.0013575192	0.00038452083	0.00078555493	-0.0011528982	0.0015117495	0.00097293296	0.0013551031	0.0005087354	9.9721445e-05	0.0016194863	-0.00028626682	0.0009525105	-0.00039611958	0.00093485287	0.00058811024	0.0014787894	0.00032225382	0.0009646771	-0.00072775374	-0.0016473155	0.0012029915	0.0016547189	0.000505884	0.0006847412	-0.00040696163	0.0005060389	-0.0005431601	0.0016026007	-0.00024295792	-0.0013036428	-0.0013228256	-0.00040827965	0.0003164794	0.00010750524	0.0004294442	-0.0010561622	-0.00042035646	0.0016386396	-0.0005007539	-0.00062486087	-0.001337039	-0.0016533316	-0.0010258934	-7.1371585e-05	0.0010183193	-0.0013987967	-0.00071250275	0.00068482925	0.00047155406	-0.00048384094	-3.313026e-05	0.000107302745	0.0015371991	-0.0016183399	-0.0011698566	-0.0009443453	-0.00044313408	0.0014763563	-0.0004992293	0.00028968733	-0.00048238778	-0.0005615294	0.0014749526	0.0016018878	0.0016614497	-0.00070222595	-0.00024299638	-0.00079805066	4.499874e-05	-0.00016950104	0.0013972411	0.0007383591	-0.00074813544	-0.001087926	-0.0009331757	0.00075575843	0.00070494507	-0.0008545508	0.0013952729	0.00064091035	-0.00017817055	0.0001576238	-0.0011357748	0.0010098296	0.0009960925	-0.0013439093	0.0010867082	0.0006265825	-0.0014180773	-0.000981044	-0.00014966681	-0.001455254	-0.0015217477	0.0005648404	-0.0005083903	0.00024792698	-0.0015436868	-9.1383125e-05	0.00012912662	-0.0007314363	0.001161037	0.00029904564	-0.0009887099	0.0007609005	-0.00059024646	-0.00066461734	-0.0011186393	-0.0012903142	-3.1505264e-05	0.00077534595	-0.00065152603	0.00035040168	0.0009947299	0.00033789492	0.0010872317	0.0006174725	-0.0005192497	-0.00046059102	0.00057678454	2.1716555e-06	-0.00054505677	-0.00084158074	-0.00057315023	-0.00041082772	0.0010444389	0.0004549759	-0.00024448274	0.0011573677	-0.00026026476	0.00022317808	-0.0013454458	-0.0010536988	0.0013166948	-0.0009461066
Stein's unbiased risk estimate_19	0.0002727873	-0.00046350836	-0.00021547369	-0.00032962652	0.00055330264	0.0001324845	-0.00030251662	0.00026612577	0.00030160235	0.00041828805	0.0004290252	-0.00012979965	0.0004287585	0.00021959479	5.651097e-05	0.0002592809	0.00038921423	-0.00026400297	9.934549e-05	-0.0002846909	0.000129973	0.00019025877	0.0005884352	-0.00014074499	-0.00027357324	-5.234907e-05	-0.00018181477	0.00013452074	2.1646807e-05	-0.0003196588	0.00017411263	0.000247025	-4.1731957e-05	0.00041994118	0.00024982626	4.9785158e-05	0.00036799873	-0.00030594715	-1.6037853e-05	-0.0005193137	-1.3879178e-05	-4.694342e-05	-0.0001815707	-0.00023441277	0.00021636684	-0.00032288884	-5.6028723e-05	-8.567903e-05	0.00021153173	6.142953e-05	0.00015693322	-0.0006250252	-0.00038646674	-0.0002528905	-0.0005797538	-0.000410623	-0.0005166303	0.0003609611	-0.00028732957	-6.859736e-05	0.00030380508	-4.0020586e-06	0.0002253347	-0.00016331402	-6.0513607e-06	0.00040573676	0.00017512268	0.00031970986	0.00021293406	-0.00056422857	-0.0001961888	-0.00044154483	0.0004508858	-0.00021634094	-0.00015487136	0.00032739647	0.0006369624	0.00030067028	-0.00025920806	-0.00027878562	-0.0001528726	0.00023424611	0.00077634427	-6.7200395e-05	0.00014999326	-6.1354775e-05	0.00047725695	3.0343797e-05	-4.6120687e-05	9.182798e-05	-0.0005741444	0.00036816983	0.00012187525	3.8775044e-05	-0.00029218246	0.00042958645	-0.0002653689	0.00016457301	0.0002837466	0.0004898509	0.00031982508	-7.4461685e-05	-6.156641e-05	-0.00025144048	5.1895597e-05	-0.00019560008	0.0002386209	-0.0007343346	-8.787157e-05	0.00023526806	0.00017572219	-0.00035872022	0.00044101296	-5.217519e-05	0.00016028616	0.00015513125	0.00042996145	0.00016498005	0.00014519	-0.0003152321	0.0004855618	0.0003804918	-0.00019213493	0.00017872674	-0.00039397657	-4.3779135e-05	-0.0005576164	0.0005002499	-0.00036788004	9.514556e-06	-0.00020994572	-0.00027048853	0.00018773226	-0.00036565796	-0.00023227521	0.0005269429	0.0003016292	0.0007752629	0.0004228645	-1.0536894e-05	-3.858693e-05	-7.295424e-05	-0.0002656539	0.00020450905	-0.00015697192	-2.816439e-05	-5.8370024e-05	-0.00017422302	-0.00020819092	-0.00015134171	-0.00035549875	0.00012978558	-0.00013461066	-0.000106179206	-0.0003495564	-0.00010148366	0.000107554	-0.000302393	0.00012871774	-2.7535867e-05	0.0006443644	0.00021527207	-0.00033222357	-9.118554e-05	-8.7650405e-05	-3.1811785e-05	-0.00014070838	-0.00017320788	0.00014090119	-3.9793515e-05	-7.79855e-05	2.613604e-05	-0.0002180114	-0.00015287013	-0.0003417625	-0.00021018417	0.0002120609	0.00020334632	-0.0006693131	0.00018483298	-0.0003318395	0.00023165764	-0.0004859867	-0.0005367868	0.00022692577	-0.0005713896	0.00020532252	0.00023390436	-1.2916602e-06	-0.00015610704	0.0004594167	4.489553e-05	-4.1003377e-06	7.002502e-05	-0.00029134087	7.3755255e-05	7.8697936e-05	-0.00043260894	-0.00031183055	-0.0002591553	-0.00013504123	-0.00025671642	-0.0001428959	7.022926e-05	-4.282034e-06	-0.0005448006	-0.0004611628	-0.00072068133	-0.0001532604	-8.757119e-05	9.821975e-05	-3.0811392e-05	-2.1612317e-05	-0.0001019546	8.7987966e-05	0.00041670015	0.00024258037	0.00021657863	-0.00045933432	-0.0006731024	-0.0004409839	5.001107e-06	-0.00041044713	9.487041e-05	-0.00013218047	0.0001077477	-0.00023518266	-0.00022988372	0.0005069363	0.00042029633	6.2747305e-05	-0.0006813533	-5.8945006e-05	-0.00073313864	-0.00024142109	-0.0005701768	0.0007385177	0.00061639043	-9.354383e-05	-0.00018859946	-0.0002918223	-0.00012799978	0.0003463665	0.000109634115	-0.0004069886	0.00024221196	0.0007982544	0.00015480006	-0.00038367382	-0.000361122	0.00021757142	-4.3350075e-05	6.466502e-05	-0.00018992854	0.0004636752	-0.00012162718	-0.00029555758	-0.00012078473	-0.00049952156	0.00032062505	-0.00015406108	0.0006203727	-0.00022383757	-0.00021061394	0.0007657348	-0.00026059084	0.00041782268	-0.00021304945	0.00038309567	0.0006840598	0.00015579535	0.00012252796	0.00022834078	-0.0004312997	6.3151034e-05	-0.00020013291	0.000101051315	-0.00046475403	-0.0001328778	-0.00061670766	-0.00021284791	-0.00033974653	6.613768e-05	0.00028925572	0.00019440509	0.00051407714	-0.00047364327	0.00015029153	-0.00045957975	-0.00021536631	0.00038799358	0.00034146078	-0.00017987519	-0.0004546557	-0.00031571367	-9.2496535e-05	-0.00031813103	0.00012356436	-0.00010645812	0.00066055864
Stein's unbiased risk estimate_20	0.00023370335	-0.0004220335	-0.000120347	-0.00020405206	0.0004660294	9.4775336e-05	-0.00021821925	0.00017195987	0.000100353565	0.00042202065	0.00035446495	-8.838823e-05	0.00038101568	0.00011439871	0.000282369	0.00032074846	0.00025931912	-0.00025143143	0.00024572844	-0.00037871965	7.404743e-05	0.00023415012	0.0005029155	-9.577896e-05	-0.00022164178	-0.00018020779	-0.00020245691	0.00013671082	1.0740168e-06	-0.00027944447	0.00010887931	0.00020503026	-7.0945614e-05	0.00032429924	0.0002308966	-7.1304195e-05	0.00036450906	-0.00014877814	3.840363e-05	-0.00024267791	-0.00015900112	-8.672532e-05	-0.0001438377	-0.00017210167	0.00015208969	-0.00027107896	-0.00022279438	-0.00012914474	0.00023092717	-5.870767e-05	0.00012644916	-0.0005846693	-0.000467053	-0.0005070493	-0.00029080934	-0.0002359018	-0.0006257739	0.0003338043	-0.00029083592	0.00010632558	0.00033440697	4.594853e-05	0.00016220413	-0.00035595827	0.00011745527	0.0003925233	9.418232e-05	0.0003046229	0.00032600109	-0.00048543772	-0.0001188196	-0.0005336156	0.0002575732	-0.00013224593	-0.00010164498	0.00040360237	0.0005433613	0.00023709636	-0.00023939121	-0.00013152647	-0.000209535	0.0005010025	0.0007129807	0.0001343381	0.0001745085	-0.000113700386	0.00021969569	4.5547105e-05	-0.00011686355	8.019047e-06	-0.0004993715	0.00035119077	2.8361976e-05	-1.6000882e-05	-3.337404e-05	0.0003944889	-0.00032399961	7.506117e-05	0.00022233612	0.00059794285	0.00021696501	-8.5517495e-05	6.979117e-05	-0.00040455384	0.0001359686	-1.3245892e-05	0.00013280087	-0.0005978896	-3.661818e-05	7.32877e-05	0.0002557667	-0.00026452358	0.0003629869	3.9518018e-05	0.00015840001	0.00016091506	0.00032359257	0.00024718797	0.00020686886	-8.832566e-05	0.00037184352	0.0004785876	-0.00018132538	0.00021550161	-0.00034465364	-2.8907303e-05	-0.0005180996	0.0005587758	-0.00026960627	8.170327e-05	2.0656955e-06	-8.438979e-05	0.0003228986	-0.00033773098	-0.00018110074	0.00043508713	0.0003044242	0.0006620029	0.00028752585	-2.085638e-05	8.653374e-05	1.7451915e-05	-0.0003211245	3.165392e-05	-0.00021506143	4.1976913e-05	5.4588847e-05	-0.00014443092	-0.00032066694	-0.00015840528	-0.0003706941	-7.791553e-05	-7.614532e-05	1.8918934e-05	-0.00030556924	-5.7661382e-05	-1.0410706e-05	-0.0002515456	0.00029657912	7.540573e-05	0.00043142913	0.00016381252	-0.00026686647	1.9486066e-05	-0.00023953844	7.128236e-05	-0.00013476837	7.131243e-05	0.00014421025	-8.879959e-06	5.3586623e-06	3.916712e-05	-0.00033378147	-0.00020846375	-0.00035551074	-0.00022849791	0.0001995876	8.700153e-05	-0.0005503459	6.440559e-05	-0.00039591372	0.00015099389	-0.00031477655	-0.00044162176	0.00023525086	-0.0005444944	0.00030347638	0.00022032742	-0.00016644165	-8.793575e-05	0.00035071478	8.525466e-05	0.00010584236	4.0081754e-06	-0.00027705272	4.3591986e-05	0.000312611	-0.00042083606	-0.00013205183	-0.00036289214	-3.3009113e-05	-0.0003112344	4.5084e-05	0.0001952279	3.0395018e-05	-0.00038700458	-0.00032865646	-0.00041799177	-0.00014996855	-8.714842e-06	0.00012386369	-3.517279e-05	-4.4582524e-05	-5.3329622e-05	0.00011926477	0.00027866111	0.00031211795	0.00026653614	-0.00015623111	-0.00063238095	-0.00031790155	4.0445107e-06	-0.00027348855	4.5785542e-05	-6.0257455e-05	8.000787e-05	-0.00033010019	-0.00025326296	0.00043398383	0.0005103732	-0.00013224223	-0.0005013942	5.7576035e-05	-0.000785737	-0.0003598928	-0.00042305636	0.0005857577	0.0006271765	-9.471697e-05	-0.000100819794	-0.00024157496	-5.357738e-05	0.0003955704	0.00024180395	-0.00027548432	0.00016958006	0.000521551	0.00021570848	-0.0003986548	-0.00043700734	0.00033104655	-8.29426e-06	0.00035185038	-0.00022343732	0.00015829003	-0.00020094171	-0.00026365943	-4.094467e-07	-0.00037896444	0.0001722337	7.98676e-06	0.00056072255	-0.0002053792	-6.905082e-05	0.00074201246	-0.0002008474	0.00042412954	-0.0003182526	0.0003172072	0.0005854082	0.00018693313	0.00012163595	0.00018034711	-0.00048243316	-0.00010259375	-0.00017210543	2.9588162e-05	-0.00025682207	7.767687e-06	-0.0005977742	-0.0003259447	-0.00041538783	0.00010944616	0.00013844972	7.6724704e-05	0.0005629279	-0.00027631092	5.138379e-06	-0.00032106147	-0.00022788478	0.00036758522	0.0005330674	-0.00018519058	-0.00046579784	-0.00025610335	-0.00023922244	-0.00029673308	0.0001527458	-0.00017053343	0.0004774062
Stein's unbiased risk estimate_21	3.7319187e-05	-0.00016163917	-0.0003401164	-0.00019578493	0.0007972467	2.0224441e-05	-0.000249201	0.00017300504	0.00018203669	0.00046960043	0.00023658524	7.581328e-05	0.00043542325	0.00018068012	0.00024277989	0.00047419572	0.00031155228	-0.00043051393	0.00023560187	-0.0004026268	0.0002047457	0.00017172383	0.00023172185	-5.0985975e-05	-0.00028196225	-0.00014136868	-0.00018796994	0.0001452771	2.7354386e-05	-0.00031647334	-0.00013552333	0.00029779557	-9.8192824e-05	0.00027361023	0.00011494462	-0.00011776564	0.000547783	-0.00023641477	-2.4768022e-05	-0.0003027407	9.791264e-06	-0.00014903613	-0.000102023354	6.7933084e-05	0.00031952193	-0.00030745493	-0.00038780837	-8.6608336e-05	4.517028e-05	-1.2558661e-05	9.2956005e-05	-0.00058823574	-0.0002740498	-0.00043422973	-0.00041895238	-0.00026964355	-0.0007654355	0.0004935774	-0.00026621282	-8.966246e-05	0.00048097022	0.00011986902	0.00030757659	-0.00033621013	0.0001605172	0.000494727	8.962314e-05	0.00046579182	0.00036495345	-0.00046482426	2.1928636e-05	-0.00051246583	0.00035200783	-0.00021571724	-6.7207126e-05	0.00038559877	0.0006039243	0.00016482834	-9.2299924e-05	7.555546e-05	-0.0002337552	0.0005534231	0.00074461603	0.00017648966	0.00031243046	-0.00022225177	0.00031051485	7.480947e-06	4.8139962e-05	-0.00011583354	-0.00071532646	0.00042041496	0.00014391194	-0.0001981227	2.1845057e-05	0.00046681124	-9.3211565e-05	7.145716e-05	7.581524e-05	0.00077775697	0.00023442095	4.519511e-05	0.00013349258	-0.00040982157	0.0003643473	-9.434869e-05	0.00023658064	-0.00059452857	-2.0812686e-06	-9.066138e-05	0.00015092203	-0.00019154487	0.0005377866	-1.8581404e-05	9.784869e-05	0.0002332288	0.00037795186	9.818256e-05	0.00026635043	-1.0698415e-05	0.000416103	0.0006557979	-4.5125187e-05	0.0003509478	-0.0003670623	3.472713e-06	-0.0005009034	0.0003734636	-0.00026425184	-8.595974e-05	-3.0562118e-05	-0.00020432993	0.00020938745	-0.000317346	-0.0003077824	0.00043023156	0.00033412772	0.00047121852	0.00022719074	-4.439282e-05	0.00013223146	7.959931e-05	-0.00016907378	0.00014692845	-0.00029940525	5.342578e-05	-0.00022207739	-6.212242e-05	-0.0005717741	-0.00026965654	-0.000630005	-9.203835e-05	-7.519934e-05	0.00022688125	-0.00042091237	1.343499e-05	-0.0001132117	-0.00034571326	0.0002296815	0.000101249585	0.00043173757	1.0560787e-05	-0.0004036882	-2.5263107e-05	-0.00018973454	0.0002030688	-0.00022145886	0.00017425577	0.000335366	9.79596e-06	-0.00012241863	1.6904905e-05	-0.00055761053	-0.0002925337	-0.00050388253	-0.00026902324	0.00027752866	-5.4795863e-05	-0.00044617802	3.170033e-05	-0.0006437081	0.0002420045	-0.0005217417	-0.0005180744	0.00034246576	-0.00051520753	0.00012210333	0.00011003436	-0.00043993315	-0.00022170207	0.00041746956	0.0001931486	0.00023358528	0.00010809058	-0.00043951758	0.00018761569	0.0003559401	-0.00028063016	-0.00016603229	-0.0005575576	-0.00027715077	-0.00041987307	-0.00010302715	2.2337696e-05	3.5894263e-05	-0.0003704078	-0.00022214746	-0.0004052526	-0.00028597077	-0.000154604	0.0001237929	7.7313445e-05	-3.750902e-05	-3.7085498e-05	4.6654422e-05	0.0006346702	0.00016225639	0.00024164893	-0.00038089007	-0.0003766484	-0.00013344706	-4.0421633e-05	-0.00035226854	-9.970931e-05	-0.00021881421	0.00013404891	-0.0003580249	-0.00020229988	0.00042594242	0.00047476406	-0.00026900833	-0.000527264	3.245562e-05	-0.0008390274	-0.00015340686	-0.00045516703	0.00037271198	0.00070783816	-5.6211986e-05	8.064203e-05	-0.00021680063	-4.5955043e-05	0.0003769061	0.00025622424	-0.00033425505	0.00020240812	0.00054458354	0.00041163823	-0.0002982679	-0.0006517403	0.0003000454	-0.00011513596	0.00034478877	-0.00030378532	0.0005072893	-0.00023117622	-0.00020252926	0.00011190868	-0.00033764483	8.239552e-05	0.0002538452	0.0005452523	-5.169222e-06	-1.1762165e-05	0.0008228884	-8.35536e-05	0.00029241806	-0.00043131318	0.00043693616	0.0005048163	0.00010489173	0.00029156174	0.00039547737	-0.00066410576	0.00013243084	-0.0002424629	0.00011834337	-0.00029701382	0.000117632626	-0.0006775646	-0.00034524602	-0.00039435268	2.0726102e-05	9.839319e-05	0.00020657587	0.0006864588	-0.00021707204	-6.5202636e-05	-0.00033985125	-0.00045590886	0.0003480688	0.00045893996	-0.00025036288	-0.0006547294	-0.00019572297	-0.0002557236	-0.00052018324	0.0001359364	-0.00035309902	0.0006306082
Stein's unbiased risk estimate_22	9.358498e-05	-0.00027698118	-0.00025641438	-0.00019999577	0.00072087476	0.00011226936	-0.00024559072	0.00019437278	0.00024148909	0.00042152812	0.00030653985	-2.2686789e-05	0.00043289067	0.00020379615	0.00023594387	0.00042159806	0.0002915592	-0.00035613903	0.00020083897	-0.00031715274	0.00015393931	0.00022530196	0.00032246005	-8.969709e-05	-0.00022234149	-0.0001760022	-0.00023445148	0.00027242734	1.5745649e-05	-0.00024406805	5.7002748e-05	0.00025756532	-4.6215995e-05	0.00029444735	0.00012702652	-0.000119283555	0.000496049	-0.00023506815	-9.6997355e-05	-0.0003407886	-5.59745e-05	-9.818083e-05	-9.5493924e-05	-2.4581306e-05	0.00027171822	-0.00033810118	-0.00035157966	-0.00011522511	0.00016950627	-1.558898e-05	0.00019932282	-0.00053652737	-0.0003844751	-0.00042266885	-0.00039634103	-0.00028352125	-0.0007146143	0.00035722044	-0.00029316123	-1.4308532e-05	0.0003949306	6.533118e-05	0.00027700156	-0.0003568277	8.6215354e-05	0.00042638506	0.00010412253	0.0003096833	0.0002559333	-0.00045785925	-4.628657e-05	-0.00048469362	0.00029562082	-0.0002618228	-0.00010923729	0.000397349	0.00054124504	0.00018102572	-0.00016532221	-4.056482e-05	-0.00016691495	0.0004756286	0.00079677097	0.00018380984	0.00023956514	-0.00031117164	0.00030109618	2.5442358e-05	3.697871e-06	-2.4287312e-05	-0.000575531	0.00032522573	0.00011302026	-0.00016182636	4.284282e-05	0.00035294975	-0.00015200941	4.8610622e-05	0.00015012511	0.0006646246	0.00024110984	5.2487962e-06	8.93128e-05	-0.0003899432	0.00024023258	-5.1921852e-05	0.00016613667	-0.0005898711	-2.5354622e-05	3.0855408e-05	0.0001853425	-0.00021179204	0.0004186071	-7.5098033e-06	0.0001540798	0.00023200933	0.00031947027	0.00018134153	0.00020289565	-0.0001481025	0.0004533607	0.00046994936	-5.7653087e-05	0.00029134838	-0.00037202975	8.693102e-06	-0.0004528196	0.000444223	-0.0003046876	-3.8904953e-05	1.51360055e-05	-0.0002369445	0.00026235892	-0.00031183628	-0.0001915851	0.0004105354	0.00028421235	0.0005515999	0.00025641342	-6.7504654e-05	4.845823e-05	1.8585946e-05	-0.0002261407	0.00013147596	-0.0002170414	2.3905013e-05	-0.00017578113	-0.00014395831	-0.00044668917	-0.00021208203	-0.0005057686	-9.540635e-05	-0.00010313453	0.00012879768	-0.00036841707	-1.3983326e-05	-7.9131445e-05	-0.0002775673	0.00018760528	4.0818406e-05	0.00042306908	1.7406628e-05	-0.00038419332	-3.586974e-05	-0.00025546685	3.1825155e-05	-0.00018683617	0.00010251869	0.00025057985	2.8101035e-06	-5.4761866e-05	7.906711e-06	-0.00042600956	-0.00024281278	-0.00037091566	-0.00027470765	0.00023566688	-4.6984e-05	-0.0004213935	-3.279259e-05	-0.00046762938	0.00025282524	-0.00036536108	-0.00045795235	0.00032828705	-0.0004814562	0.00019253601	0.0001543152	-0.0002470073	-0.00015311869	0.00040683235	3.064391e-05	0.00010752244	4.8935643e-05	-0.00046624683	0.00018488945	0.00036430944	-0.00034002896	-0.000203119	-0.00042587525	-0.00019252303	-0.00040115058	-4.073292e-05	0.00011934767	-1.3982076e-05	-0.00037917442	-0.00023168226	-0.00048617864	-0.00014063396	-0.00012903854	8.370149e-05	3.262878e-05	-7.07541e-05	-0.00011374514	7.0346294e-05	0.0004967561	0.00030994165	0.00019273438	-0.00039873517	-0.00040072418	-0.00013763411	-1.660605e-05	-0.00028751546	-8.595684e-05	-9.117955e-05	0.000112501315	-0.0003018234	-0.00022133817	0.00046376153	0.00039828965	-0.0001716027	-0.0005307495	-7.5814587e-06	-0.0008180784	-0.00022964097	-0.00049642916	0.00044437993	0.0006567441	-2.4958985e-05	-9.853041e-06	-0.0002334941	-6.0610713e-05	0.00042169134	0.00018851367	-0.00042338797	0.00020699034	0.00057080603	0.00039077635	-0.00025481445	-0.00058518973	0.00030252937	-3.4135464e-05	0.00033412685	-0.0001861283	0.0003969392	-0.00018537616	-0.00027508254	0.00012113574	-0.00036258623	1.712354e-05	8.459723e-05	0.0005736583	-7.845367e-05	-9.219962e-05	0.0008247942	-0.00016168074	0.00032975047	-0.00038386285	0.00037266887	0.00053335115	0.00013050705	0.00023965845	0.00027656558	-0.0005022577	2.4339064e-05	-0.0002553744	1.8398182e-06	-0.0003021114	9.3258706e-05	-0.0006437615	-0.00029750093	-0.0003668247	0.000113763694	8.7242595e-05	0.00011192758	0.00056837633	-0.00025143108	-4.1884607e-05	-0.0003050718	-0.00035272003	0.00030030578	0.0004622744	-0.00017978794	-0.00060829695	-0.00018445174	-0.00022599252	-0.0003842598	0.00020763192	-0.00025740618	0.00059971696
