	0	1	2	3	4	5	6	7	8	9	10	11	12	13	14	15	16	17	18	19	20	21	22	23	24	25	26	27	28	29	30	31	32	33	34	35	36	37	38	39	40	41	42	43	44	45	46	47	48	49	50	51	52	53	54	55	56	57	58	59	60	61	62	63	64	65	66	67	68	69	70	71	72	73	74	75	76	77	78	79	80	81	82	83	84	85	86	87	88	89	90	91	92	93	94	95	96	97	98	99	100	101	102	103	104	105	106	107	108	109	110	111	112	113	114	115	116	117	118	119	120	121	122	123	124	125	126	127	128	129	130	131	132	133	134	135	136	137	138	139	140	141	142	143	144	145	146	147	148	149	150	151	152	153	154	155	156	157	158	159	160	161	162	163	164	165	166	167	168	169	170	171	172	173	174	175	176	177	178	179	180	181	182	183	184	185	186	187	188	189	190	191	192	193	194	195	196	197	198	199	200	201	202	203	204	205	206	207	208	209	210	211	212	213	214	215	216	217	218	219	220	221	222	223	224	225	226	227	228	229	230	231	232	233	234	235	236	237	238	239	240	241	242	243	244	245	246	247	248	249	250	251	252	253	254	255	256	257	258	259	260	261	262	263	264	265	266	267	268	269	270	271	272	273	274	275	276	277	278	279	280	281	282	283	284	285	286	287	288	289	290	291	292	293	294	295	296	297	298	299
Covariance_0	2.0739923e-05	-0.00037268034	2.5055479e-05	-0.00036416022	0.00034079616	0.00013547853	-0.0005028596	0.0005230045	0.00029339013	0.00034958796	0.00037119057	7.435065e-05	0.00034685156	-4.764288e-05	0.00015369973	0.00034343216	0.00031430944	-4.2173055e-05	-8.858315e-05	-4.2724518e-05	0.00015091966	0.00037918024	0.00060700317	-5.9939735e-05	-0.00027111993	0.00016349259	-4.639852e-05	-9.046241e-05	-0.00015868503	-0.0002403816	0.00029601486	0.00016712167	-0.00031752366	0.00030109403	0.0001316618	4.3056418e-05	-3.0187604e-05	-0.00041180872	-1.8453979e-05	-0.00043922098	-0.00012816457	0.00021351017	-6.708225e-05	-0.00036662098	0.00024570798	-5.306459e-05	-0.00023422926	-4.1235537e-05	-3.4167177e-05	0.00018682212	-0.00014343446	-0.00069719844	-0.0003155678	-0.00025004757	-0.00027219212	-0.00038407615	-0.00030307408	0.00021240467	-0.00016535641	-0.0003241761	0.00023942297	-6.3342886e-05	0.00028316095	8.915307e-05	0.0002711358	0.00069672253	0.00015089977	0.0002061931	0.00031634796	-0.000614948	8.219071e-05	-0.00019886713	0.0005614816	-0.00012156039	-7.781311e-05	0.0002338002	0.0007374642	0.00038200134	-6.841698e-05	-0.00011095195	0.00014327398	0.0001469983	0.0007556612	0.00024442957	0.0004098451	-0.00018681702	0.00015153778	-0.00030975504	-2.3916862e-05	-1.5151966e-05	-0.0004302507	0.000623716	0.00045603974	-0.0001621072	-0.00018210072	0.0006608569	-0.00012539144	0.0002289523	0.00049136963	0.00042064078	0.00039712276	8.260913e-05	-2.0564967e-05	-6.684722e-05	0.00033124184	-0.00033921367	0.00035090506	-0.00063314167	-2.6529433e-05	9.399104e-05	-0.00014483978	-0.0001508552	0.00018228692	-0.00014061018	-0.00015772422	-3.3025113e-05	0.00021495104	0.00025467252	0.0003437053	0.00010239377	0.000312222	0.00034472905	-0.00015921812	-0.00015433047	-0.0003883354	0.00012930717	-0.00068224553	0.0005565199	-0.00024523758	5.7895802e-05	-0.00018350432	4.334999e-05	0.00017112485	-0.00020797577	-0.00038179226	0.00028691426	0.00019031661	0.00059872924	0.00022988525	4.372481e-05	0.0003490019	-0.00038340778	-0.00045043655	0.000151595	-0.00013195831	5.601003e-05	0.00020735878	-0.00038216112	-0.00044315401	-0.00020375979	-0.00033854516	0.00024106473	-0.00013643727	2.8412434e-05	-0.0006796316	-0.00012964528	0.0002866683	-0.00051130657	-6.642837e-05	-0.000101868165	0.0005446681	0.00028288903	-4.785606e-05	0.00010895231	-9.107268e-06	0.00023109936	-0.00032032162	-0.00023817178	3.9283343e-05	0.00035409603	3.4903867e-05	7.24893e-05	-0.0002900395	-0.00018786307	-0.00025718525	-0.00012181853	0.00027030954	3.7405778e-05	-0.000509238	0.00013768298	-0.0005867785	0.00019490145	-0.0005339405	-0.0003461807	0.00023694255	-0.00022882168	0.00030873233	0.00010615234	-4.242306e-05	-0.0002870275	0.00037646125	4.752665e-05	0.00043420767	-0.00022487233	0.00013039303	9.8491306e-05	0.00039524274	-0.00050260936	1.0250814e-05	-0.0003073101	-0.00026334924	-0.0004914356	-0.00035915736	-0.00023043917	9.925544e-06	-0.00042774115	1.4924308e-05	-0.0005301164	1.9287238e-05	6.471097e-05	-0.00024177958	0.0001535669	0.0003568702	-0.00034587563	-0.00014169118	0.0005081504	0.00013047269	0.00039069075	-0.0004964051	-0.00049759436	-0.0005035579	4.583693e-05	-0.00046859783	1.717521e-05	-0.000126761	-2.6652508e-05	-4.7709025e-05	-0.00034173825	0.0005365065	8.519329e-05	-5.810447e-05	-0.0005797647	-0.00014887107	-0.000773928	-0.0001319209	-0.0003360885	0.0006835241	0.00058313785	0.00010205334	-7.1553484e-05	-7.545081e-05	3.1066895e-05	0.00025582808	0.00017735989	-0.00040356658	0.00017972753	0.00054372346	-0.000116872834	2.9265891e-05	-0.00034157778	0.00030850392	5.5603636e-05	-7.4371754e-05	-0.00045599014	0.00016700363	3.159867e-05	-0.00014905105	-1.9831936e-05	-0.00039429223	0.0005942053	-4.222356e-05	0.0003629891	-7.71787e-05	-3.8215658e-05	0.0006446832	-0.00041801593	0.00027978062	-0.00019002495	0.0001910846	0.00041692876	0.00016555472	0.0005704168	0.0002863821	-6.209176e-05	0.00021036636	-0.00029907114	0.00010507226	-0.00052528596	-3.3177086e-05	-0.0005517405	-0.00021423734	-0.000407016	0.00021299026	0.00041958882	0.00054273487	0.00037295395	-0.00036663847	7.04813e-06	-0.00021393601	-2.3500415e-05	0.0001798443	0.00024357424	-5.4955297e-05	-0.000601932	-0.00015956705	-0.00017155094	-0.00038839367	0.00011315169	-8.690487e-05	0.0005104765
Covariance_1	-6.711768e-05	-0.00011900751	3.5026344e-05	-0.00021445958	0.0004782875	3.4181772e-05	-0.00023269773	0.00034174687	0.00029074805	0.00012769752	0.0003567322	0.00014874482	0.00025956018	6.625971e-05	-0.0001359369	0.0001973308	0.0002669506	9.769331e-05	-0.00016282988	1.4830963e-05	0.0002542329	5.7025154e-05	0.0005023262	-0.0002745326	-0.00038599412	0.0002086213	-0.0004059624	-7.141957e-05	0.00012876278	-0.00016023868	5.1787047e-05	0.00012895063	-0.0005397416	0.0006252616	0.0003188085	1.3888746e-05	-0.00027280496	-0.00014315109	-0.00018892942	-0.0005302842	-8.882624e-05	0.00034590904	3.0938085e-05	-0.00021669711	4.428735e-05	-0.00022612278	0.00019021037	0.00018864214	-0.00031943078	0.00029639644	-9.468634e-05	-0.0004990126	-0.00025189834	-0.0002605922	-0.00042171814	-0.0004249588	-0.0003728547	2.8006862e-05	-0.00021832863	-0.00029454476	-4.3382774e-05	-6.4727756e-05	0.0004465015	-0.00013610726	-6.830677e-05	0.00079720194	-0.00018473377	9.869932e-05	0.00025520354	-0.00069438363	7.1455e-05	0.00014938877	0.000675527	-0.00013091811	-0.00037766236	0.00040927395	0.0004905345	0.00029978392	-8.872848e-05	-0.000114779235	-0.00021820403	-5.1112405e-05	0.000591532	0.0004185531	0.00034762872	0.00014008158	0.0004288084	-5.4073844e-06	-1.1849185e-06	-2.386809e-05	-0.00031530668	0.00059014617	0.00031591798	-0.00040469505	-0.00028509446	0.00064146036	-9.4588926e-05	-8.7903354e-05	9.610038e-05	0.00067146175	0.0003350798	0.00032503117	8.4129584e-05	-3.153403e-06	0.00056540273	0.00013136539	-1.8454617e-06	-0.00054234575	-0.0001999495	0.0002250149	5.2149186e-05	-0.0003578366	3.8349222e-05	-0.00027209293	8.2971965e-05	0.00015116083	-0.00023148116	-0.00016273474	0.00033776002	7.72943e-06	0.00019105936	8.741669e-05	0.00023755725	-5.9138078e-05	-0.00059067906	6.724302e-05	-0.00053442304	0.00040724708	-0.000327364	0.00012923607	-6.8581794e-05	0.00016763169	0.00025804224	-9.945194e-05	-9.49309e-05	0.00039592088	0.00010839444	0.0006054062	-1.3057203e-05	0.00018355584	0.00053741504	-0.000259689	-0.0002442052	0.00045585897	-0.00010012166	-7.066878e-05	0.00044271877	-0.0002569967	-0.00019517711	-0.00042226462	-0.0005392755	0.00018785904	0.00035902634	-3.5883393e-05	-0.0003578448	-0.00041197208	0.00049298216	-0.00034704185	-9.8256605e-06	-0.00040783882	0.0004532591	0.00014589456	-0.00019419697	-8.8780034e-05	-8.6749926e-05	-3.9593426e-05	-0.00010472571	-0.00031454343	0.0001546695	9.639466e-05	-0.000106537904	0.0004937508	-0.00010649142	8.628126e-05	-0.00023765852	-0.00033096975	0.00029581448	-0.0002306532	-0.00017090238	0.00017499184	-0.00016711422	0.00044797343	-0.00045501438	-0.00052458583	0.00024633599	-6.283963e-05	-0.00013897658	0.00037008178	-8.826353e-05	-0.00026749013	0.00017813961	-0.000108698805	0.0002516947	0.00036885415	0.0003210246	0.00020753579	0.00013815258	-0.00031220703	-6.3977284e-05	-0.0004567461	5.9604204e-06	-0.0004742559	-1.0398408e-05	-0.00018246638	-1.4423567e-05	-0.00030366765	7.268321e-05	-3.2659238e-05	-0.00031378868	-0.0002486813	-0.00013255097	-3.2334808e-06	7.63578e-05	-0.00016935208	0.00012793185	0.0006861133	0.00016877218	0.00027415506	-0.00051759515	-0.00027705895	-8.9207606e-07	-5.738914e-05	-0.00040265656	-0.00015710859	-0.00016746848	-0.00034824855	0.00016349545	-0.00042653483	0.00060330797	-9.890443e-05	2.4531053e-05	-0.00061745633	-0.00017020224	-0.00044326298	-5.321352e-05	-0.0003059517	0.00039877897	0.00072781893	0.00042453682	-0.00015379934	-4.5768007e-05	2.2989238e-05	0.00014999633	0.00023243715	-0.00040479336	4.4007702e-05	0.0004616062	0.00013616902	0.00015188906	-0.00029056962	6.2875215e-06	-0.00036943803	-4.5309356e-05	-2.6671987e-05	0.00016062999	0.00012097369	0.000115678624	0.00013691065	-0.0003311026	0.00038009556	3.9957773e-05	0.00029915193	-7.260783e-05	0.00033660216	0.0001237211	-0.0004448368	0.00027655793	-0.00013146446	0.00021673834	0.00019289245	-0.00013548703	0.0005139652	0.00027335915	-0.00018773641	0.00031909387	-2.8184706e-05	0.000262249	-0.00047635505	0.00034177903	-0.00011379963	4.4878998e-05	8.2304425e-05	0.00031422812	0.00034965522	0.0005549493	1.393364e-05	-0.00038926362	2.9696384e-05	-0.00036789352	-0.0001898047	0.00034525368	-0.00011839011	-0.00027255667	-0.0004685239	-0.0001322765	-0.00036840385	-0.000244753	0.00010221383	-1.6171718e-05	0.00034342613
Covariance_2	1.1295073e-05	7.6083874e-05	0.0003822632	-0.00047846133	0.0002762412	4.3218577e-05	-0.00061957596	0.0006673527	0.000531836	0.00035139325	0.00047668224	0.000113760645	0.0005967468	3.9689556e-05	-4.4842447e-05	0.00040964253	0.00026594062	-2.5399444e-05	-0.00017103457	-0.00031544088	0.00024595068	9.1525406e-05	0.00045499852	2.4487665e-05	-0.0004946033	0.00061869086	-0.0003604654	-6.836744e-05	-0.00029964754	-0.00036026194	7.489632e-05	0.00027867514	-0.0006800206	0.0007449812	0.00011576844	-3.622154e-05	-0.000121077435	-0.00021425888	-0.0002697057	-0.00079153944	-0.00047648977	0.00021965319	-0.00014386729	-0.00048855005	0.0001712423	-6.0411126e-05	0.00037726926	0.0001823582	-0.00011182128	3.768231e-05	-0.00020811986	-0.00085437275	0.00026166724	-0.00023972025	-0.00034432515	-0.00049928646	-9.143047e-05	0.00030440194	6.4179745e-05	-0.00038659203	1.1811775e-05	-0.00029047372	0.0004385141	-1.7280625e-05	0.00023187036	0.0010618543	8.021641e-05	0.00020449051	0.00038912898	-0.0008566249	0.00016542105	0.00015448482	0.0008701116	-0.00012656869	-0.00010573	0.0005124408	0.0007745563	0.0006228976	-4.1582833e-05	-7.1259536e-05	0.00015793357	0.00011008643	0.0010007189	0.00021693509	0.00066174363	-0.00017035574	0.00032781938	-0.00036720684	0.00019647912	-0.00020918137	-0.0004275996	0.0007415207	0.0007215899	-0.00015881943	-0.00066682434	0.0009635095	8.101834e-05	0.0002667011	0.0003765848	0.0005426671	0.0007053049	0.0003490414	-0.0002445076	0.00012054485	0.00031499413	-0.0003736677	0.00038961635	-0.001085183	-2.8542165e-05	0.0002356556	-0.00048276322	-0.0003789949	-2.3265206e-05	-0.0006800433	0.00012741493	-0.00026263058	-6.0965212e-05	8.661904e-05	0.000238917	0.000251918	0.00042075926	0.00028227683	0.00027848786	-5.0987775e-05	-0.0002879011	0.00023032965	-0.00070882484	0.0003722226	-0.00030869973	0.0002739581	-0.00037942932	0.000305833	0.00053609954	-0.00022194501	-0.00050823676	0.00014529884	0.00041086253	0.0004680629	0.00025445645	0.000188265	0.00041187636	-0.00017886434	-0.00045607507	0.00041491483	-0.00013257827	-7.805466e-05	0.00044913345	-0.00052347884	-0.00059184013	-0.00041989988	-0.0003984772	0.00060483115	0.00022343888	0.00014243776	-0.00064404384	-0.0001294559	0.0002414184	-0.0005982349	-0.00025840217	-0.00039291158	0.0012028445	6.771254e-05	-0.0001516984	-0.00012551837	-2.4543158e-05	4.7067173e-05	-0.0001227039	-0.00014818314	1.1081966e-05	0.00041944694	-0.0002170774	0.00017222695	0.00013071978	6.7896217e-06	-0.00041813022	-0.00011067865	-5.877027e-05	-4.6759113e-05	-0.00048081114	0.0004548671	-0.00048078015	0.00019767825	-0.00052248064	-4.25193e-05	8.6955406e-05	-3.482882e-05	9.404568e-05	0.0004268381	-2.2328604e-05	-0.00034575697	0.0005424852	-0.000103273735	0.00052878394	0.00032572198	0.00043527866	0.00020839777	0.00052211614	-0.0004175884	0.00031232843	-0.00051767554	-0.00048219526	-0.0007144757	-0.0004861485	-0.00061070547	-0.00010100146	-0.00040808955	0.0001488717	-0.00038181222	-1.0447838e-05	-0.00019187719	-0.00033269258	-9.267838e-05	-0.00012648774	-0.0003366153	-0.00014062322	0.001114678	0.00032445462	0.00017684033	-0.0009274008	-0.0007849344	-0.00031694176	-4.5652516e-05	-0.0005465501	0.00016003303	-0.0003752457	-0.0004570016	-0.00010123287	-0.00034543115	0.00058597396	-4.6953344e-05	5.5024033e-05	-0.00094621227	-1.8603809e-05	-0.0009899954	-2.8743014e-05	-0.0006304354	0.0007894288	0.00058942736	0.00021477364	-5.504708e-05	-5.9094633e-05	3.2432832e-05	0.00037702234	0.0005107241	-0.00032089176	0.00017575592	0.0004899321	-0.0001636651	0.00025518518	-0.0005309384	8.660331e-05	-0.00019627353	-0.000366086	-0.00045054342	0.00017192538	0.00025726267	0.00026511546	-0.0002234039	-0.0004699745	0.0007878829	0.00031714808	0.00022852395	0.00015743682	0.00021078294	0.0006488991	-0.0004698518	0.00019685861	-5.1334024e-05	0.0003337587	9.303496e-05	9.477887e-05	0.00063670037	0.000696578	-0.0002534005	0.0001664951	7.083063e-06	0.00034064817	-0.00035502523	8.890552e-05	-0.00013471188	-0.00022428118	-0.00013469561	0.00052668486	0.00044463473	0.0005997734	0.00019080642	-5.138106e-05	-0.00016665722	-0.00018450973	-0.00031793103	7.1041635e-05	2.6910597e-05	3.14828e-05	-0.000762113	-2.1419546e-06	-0.0003414715	-0.00036378411	0.0003073695	-0.0001539108	0.0004259324
Covariance_3	0.00012201863	-0.00032727755	-0.0006427671	-0.00039691085	0.0005652953	-7.920486e-05	-0.00017929821	-0.00014818515	0.0005298565	0.0004928675	0.00045221762	0.00018865551	0.00048677193	0.0006951242	0.00028398962	0.0005979342	0.00027342635	-0.0002869159	5.5188033e-05	-0.0005954882	0.00038757606	0.00029711783	0.0004700695	-0.0004225868	-0.0002532609	3.584471e-05	-0.0001490537	-5.382745e-05	-0.0002917911	-0.00052730716	-0.00057085225	0.00033355178	-0.00026964865	0.0004804859	7.033947e-05	9.580653e-05	0.00056152674	-0.00068283273	0.0003331259	-0.0007722203	0.00038913422	-0.00042145277	-0.0001067949	0.00025415688	0.00011004661	-0.00013819778	0.00016166792	-0.0003175774	2.798205e-05	1.6682316e-05	0.00022791658	-0.0008073378	0.00034259615	-0.00016988393	-0.0005059727	-0.00041132784	-0.00068440894	0.0010405332	-0.00038065898	-0.00035561138	0.0007555541	0.00013109416	0.000108576336	-3.123923e-06	0.00019237677	0.0006735155	7.372067e-05	0.00070977886	7.627862e-05	-0.0008033434	0.0003372355	-0.0006374687	0.0009410588	-0.00024606028	0.00023833798	0.00040997006	0.000514646	0.0005134247	0.0003889177	0.00010568369	-0.0004108325	7.00455e-05	0.0011209826	0.00012835843	0.00039852073	-0.00037695904	0.00011973534	-0.00017247313	-1.9520733e-06	0.0003136271	-0.00048883667	0.00030888978	2.7360162e-05	0.00013910778	6.5649896e-05	0.0007371189	0.00031534818	0.00020545418	-7.735621e-05	0.00084870437	0.0004650521	-1.7498016e-05	-3.2048534e-05	-0.00027528498	0.00011368824	-0.00047734092	0.0007155458	-0.0006008213	0.00016344122	-1.589858e-05	-7.04839e-05	-0.00027717382	0.00058141653	0.000105961895	0.00022790936	2.005222e-05	0.0003693506	-6.347877e-05	5.301958e-05	9.172943e-05	0.00027822712	0.00092896965	-0.0002826706	-8.536293e-05	-0.0002186383	0.00017221663	-0.00034603744	0.0005099826	-0.0004271069	-0.0002604208	-0.00034535865	-0.00021148924	1.0254319e-05	-0.00020073904	-0.000489217	0.0003413941	0.00033733176	0.00025781378	0.00022432323	0.00026703067	2.2039081e-05	-0.000363117	-0.00012104717	-4.0698596e-05	-0.00011713567	-0.00012403973	-0.000120548735	2.5147403e-05	-0.00045423684	-8.853782e-05	-0.0010263368	0.00011826165	-0.00027390503	0.00048062878	-0.00027317458	0.00020924778	-4.221528e-05	-0.00065571896	0.00036782378	0.00016867415	0.00033076384	0.0001312878	-0.00037835288	-0.00041646243	0.00014777378	0.00052370917	-0.0005915783	2.8045562e-05	0.00038992192	0.0006305089	-0.0004891801	-3.898637e-05	-0.00057065673	-0.0003131359	-0.00057712715	-0.00028970995	0.0003532249	-0.000300662	-0.00038047897	0.00029703256	-0.00081923226	2.3315957e-05	-0.0007662724	-0.00058750005	0.00016553927	-0.00065129885	0.00024458618	-5.671104e-05	-0.00012086376	-0.0005083141	0.0005314169	0.0005112384	0.00041008944	3.5038658e-05	-0.00038635722	0.0007509414	0.00039004814	-0.000483515	-0.00011859765	-0.00051840354	-0.00039524573	-4.357551e-06	-0.000116254596	-0.00022515074	4.1126743e-05	-0.0004268096	-0.0002938071	-0.00028357725	-0.00022267798	-0.00020889411	5.783979e-06	-0.00018293271	7.308489e-05	0.00029392156	6.0733768e-05	0.0008974116	0.00021164687	0.0007014757	-0.0005289383	-0.0001970618	-6.413728e-05	-0.00043726212	-0.000682096	-0.0003570186	-0.00020325878	0.00024323413	-0.0004275092	-0.00015426126	0.0006128447	0.00035999392	-0.00021545737	-0.0005717184	0.00022605686	-0.001048877	-0.000107912	-0.00095643295	0.0004577718	0.00056018535	-0.00017567072	0.0001910879	-0.00029023216	-0.00025706438	0.0003036389	0.0004270964	-0.0003484497	0.0007714992	0.0010178228	0.00019231172	-2.9309622e-05	-0.0003969297	0.00024028897	-0.00025025083	8.86815e-05	-0.0006766738	0.00047521887	-9.907016e-05	6.0164475e-05	-3.5636476e-06	-0.00041485616	0.00021741595	0.0006060274	0.00067663344	0.00024176278	9.932192e-05	0.00072973856	7.89625e-06	0.00028622986	-0.00014828022	0.00035787493	0.00027172372	0.00015668814	0.00010821834	0.00067639357	-0.0011670815	0.00028747774	-0.0005424825	0.00046463247	-0.00038254497	7.003239e-06	-0.0007987523	-0.0003788594	-0.0007303827	9.118509e-05	-0.00010501265	7.8129684e-05	0.00068903714	-0.00065803557	-0.00019294472	-0.0008245588	-0.0011128661	0.00043715045	0.00015799906	-6.536276e-05	-0.0009517675	-0.0006657678	-0.0003837447	-0.00062574004	0.0001039505	-0.0005995774	0.0005753299
Covariance_4	0.00016653683	-0.0003579715	-0.0008067403	-0.00041113235	0.0006357193	-7.2741386e-05	-0.00024610976	9.30804e-05	0.00026451398	0.00068215077	0.00034582146	-2.856816e-06	0.00045900105	0.0007284895	0.00033637552	0.00071529974	0.00026647132	-0.00046484478	0.0002558625	-0.00049246976	0.0002797911	0.00036545933	0.0004440087	-0.00047098816	-0.00020687905	-9.279704e-06	-0.00035718127	-6.047107e-05	-0.0002405353	-0.00037327988	-0.0006936329	0.00036063418	-0.00037527888	0.0003245147	0.00012163693	-5.9642945e-05	0.0005716074	-0.00041080554	0.00025172465	-0.00047662732	0.00041209965	-0.0005402062	-0.0001224847	0.0002836108	7.57398e-05	2.649019e-05	-4.72675e-05	-0.00025766547	-0.00017154161	-6.556272e-05	0.00022830912	-0.0006338814	0.00038639267	-0.00037169678	-0.00052026525	-0.00026753813	-0.0007159039	0.0011005064	-0.00036348726	-0.00043332434	0.0006101187	0.00010253819	0.00021388644	-0.000119808974	0.00016745008	0.00068759505	0.00036523736	0.0006996685	0.0001626485	-0.000851779	0.00050535315	-0.00068413926	0.00080775586	-7.655853e-05	0.00024665127	0.00037115134	0.0007167144	0.00051622913	0.0004471669	0.0002679694	-0.0005189723	0.0003056178	0.0009891391	0.00012968504	0.0006789431	-0.0002074127	0.00014453236	-0.00012129831	1.3259525e-05	0.00018865004	-0.0005002799	0.0005175388	9.5862204e-05	-0.00014139485	-0.00019088881	0.00072485866	0.00024435087	0.0002485378	3.9372404e-05	0.0009462768	0.00037524768	3.90549e-05	1.242542e-05	-0.0003377711	8.237225e-05	-0.0006371908	0.0007310006	-0.0005638749	0.00027378357	-9.793225e-05	-0.00022235238	-0.00047176593	0.0006455292	8.9956586e-05	0.00029448702	-9.1878275e-05	0.0005578103	2.0753148e-06	4.3820273e-05	3.3896067e-05	0.00036484332	0.0010116565	-0.00016942728	-0.00014798666	-0.00043569322	-0.000110283094	-0.00041542837	0.00031903814	-0.00023085618	-2.947569e-05	-0.00032592515	-0.0002870709	-3.97829e-06	-0.000120397744	-0.00055652374	0.00016812733	0.00037264926	0.00012187444	0.00014327875	8.6938184e-05	1.1347202e-05	-0.0001964915	2.8466777e-05	7.070252e-05	-0.00022937809	9.2971415e-05	-0.000102956205	4.939001e-05	-0.00050929724	-0.00025801783	-0.0010182302	5.4189815e-05	-0.00039748364	0.0003435551	-0.00041300655	0.00019115565	-0.00015020923	-0.0006250017	0.0006256358	0.00036391884	0.0004104117	0.0003449078	-0.00057833013	-0.0004895548	0.00018516475	0.00054389273	-0.0006270667	-3.7339685e-06	0.00037924794	0.00048248816	-0.00038816483	-0.00015590269	-0.00059881917	-0.00016697586	-0.00078362686	-0.00014886422	0.0002710603	-0.0002575889	-0.0006254127	0.00019665886	-0.00075294264	0.00016498801	-0.0007575078	-0.0005778818	7.5061565e-05	-0.0005224297	0.00046012376	-0.00023910099	-0.00025298394	-0.00046739884	0.00067127176	0.00045580746	0.00044314133	8.565943e-05	-0.00041669057	0.0005128614	0.00026174987	-0.00040049606	0.00012666214	-0.00051248487	-0.00031966725	-0.00018752641	-4.764873e-05	-0.00014294963	-0.0002289455	-0.00060361123	-0.0002030023	-2.9335688e-05	-0.00041786066	-0.0002696055	1.6653941e-05	-0.00017528846	2.1971226e-05	0.00035475183	0.00014993004	0.00070800184	0.00023348712	0.00042995688	-0.00043186414	-0.0004677266	-0.00013232589	-0.00033606513	-0.00070932176	-0.00025373464	-0.00018252501	0.00024627984	-0.00041645655	-0.00018687606	0.0005768374	0.00043054813	-0.00015550462	-0.0005291721	0.00029686926	-0.0012789002	-0.00027445823	-0.00075658876	0.0004020229	0.00061411987	-5.9128328e-05	0.00026800574	-0.00023889751	-0.00011177575	0.00023695211	0.00059830653	-0.00017500692	0.00063196506	0.00083272246	0.00016985048	-0.0002411174	-0.00039481735	0.00022175076	-0.00020337371	6.786595e-05	-0.00042471619	0.0005868198	-0.00029331597	-0.00014573419	0.00011094321	-0.00020236807	0.000115979725	0.0006409786	0.000616759	0.00025901722	0.00013444765	0.00085363357	-0.00016572437	0.00021217052	-0.00012438944	0.0004123317	0.00031837483	0.00015751626	3.2485117e-05	0.0005947476	-0.0011795287	0.00014181016	-0.0004820658	0.0004883361	-0.00016378144	2.0440224e-05	-0.00077927945	-0.00023681078	-0.00079381705	0.00029302796	-9.221244e-06	1.901481e-05	0.000419404	-0.00056700606	-6.9489997e-06	-0.0009194074	-0.0009666897	0.0005174541	0.00021900813	5.622426e-06	-0.0008124506	-0.0006788043	-0.00040642556	-0.0007441707	3.826678e-05	-0.0004067112	0.00078986364
Covariance_5	-9.7735705e-05	-0.00023920836	-0.00021002055	-0.0003463852	0.00072950736	0.00014722128	-0.0004049225	0.00030955704	0.00037022665	0.0003681908	0.0003773148	0.00015071862	0.00024818434	0.00020406958	0.00023727499	0.00041944906	0.00021130877	-0.00018686276	-3.2334572e-06	-0.00024493184	0.00025810165	0.00029559707	0.0005812228	-1.9040996e-05	-0.0003965709	0.00021266832	-0.00023036535	-7.292984e-05	-1.6726264e-05	-0.00026107067	-0.000118878634	0.00038256383	-0.00026825795	0.00038886972	0.00010745394	-4.3292574e-05	0.0002110677	-0.00029614125	3.6442189e-06	-0.00037851022	-2.963884e-05	-0.00022225588	-0.00021088256	-7.366238e-05	8.941065e-05	-0.00011097904	-0.00024141169	-0.000103507824	-0.000104321065	0.00011273074	5.8322836e-05	-0.00061513914	-0.000110735	-0.0005148311	-0.0003736584	-0.00021353441	-0.0004421789	0.0004668695	-0.00027170472	-0.00029868187	0.0003716252	-6.8610105e-05	0.0002770604	-0.00022599527	4.8743812e-05	0.00072835904	0.00026566544	0.00031946236	0.00036939498	-0.0007874934	0.00022618115	-0.00035884758	0.0005597215	-0.00015426871	1.9085604e-05	0.00032816143	0.0005599773	0.00041173567	5.4572563e-05	4.5736753e-05	-0.00015806236	0.0002276155	0.00079590804	0.00029316606	0.00043985024	-9.492145e-05	0.00033222142	-0.00014927723	-5.673621e-06	-0.000120790006	-0.00041950177	0.00056338724	0.00022677712	-5.3834356e-05	-0.00016132258	0.0007553765	9.899523e-05	0.00021608398	0.00028017882	0.0006425645	0.00023226891	0.00021069717	0.000100317935	-0.00031829585	0.00021093407	-0.00026975333	0.00042037712	-0.0006991538	-0.00012549039	-3.475219e-05	-0.00014856411	-0.00040139697	0.00031260643	-7.647692e-05	8.745191e-05	-2.6100959e-05	0.00026937437	-9.700843e-05	0.00029312383	-4.012113e-05	0.00020824507	0.0005667531	7.7764365e-05	1.3034405e-05	-0.0004474523	5.1827687e-05	-0.00047105548	0.00039209193	-0.00031092853	-7.867151e-05	-0.00015037257	-8.3637584e-05	0.00024147365	-0.00012934119	-0.00047147545	0.00035484802	0.00019475474	0.0004407799	0.00025400973	0.0001585634	0.0002471217	-0.00029615453	-0.00029351417	0.0001730796	-0.00031551463	-1.3136695e-05	5.7442223e-05	-7.81537e-06	-0.00054697576	-0.00018575581	-0.00071842957	0.000168743	-2.3646851e-05	1.922711e-06	-0.00052425097	-5.7733087e-05	3.390847e-05	-0.00044836302	0.0002466703	-4.9080896e-05	0.00057368516	0.00015625145	-0.00021998836	-0.00012523073	-9.874673e-05	0.00017081712	-0.0003288487	-0.00015402654	0.0002649325	0.00035383727	-2.069994e-05	5.194032e-05	-0.0005341211	-0.00021787376	-0.00053588767	-0.00032566904	0.00028608664	-0.00015520651	-0.0004164001	0.00027144782	-0.0006808379	0.00017012512	-0.00074651564	-0.00043538123	0.00023337461	-0.00035178542	0.00013071566	6.233237e-05	-0.00037775922	-0.0003084927	0.0004987288	0.00014329416	0.00033027874	3.435202e-05	1.6150701e-05	0.00024521476	0.00030179525	-0.00051148795	3.1386877e-05	-0.00068452716	-0.00018212122	-0.0003585835	-0.00020029636	-0.0001450991	-0.00010106973	-0.00043196173	2.0652604e-05	-0.00023124527	-0.00018350623	-3.2781358e-05	-1.942728e-05	5.408125e-05	-1.1087925e-05	-5.7780813e-05	-2.1435219e-05	0.0006556574	0.00018447588	0.00047592638	-0.00044269825	-0.00047804692	-0.00018305262	-9.2083916e-05	-0.00047446325	-0.0001508466	-0.00025388357	9.160565e-05	-0.00011425015	-0.00034186864	0.0005302355	0.00025862065	-0.00020334376	-0.00073006604	6.841432e-05	-0.0008463055	-0.00014245129	-0.00052222185	0.00044230642	0.0007339311	7.311702e-05	-9.131446e-05	1.7798357e-05	-8.685351e-05	0.00021781438	0.0004152962	-0.000315355	0.000121358295	0.0006559321	0.00010681543	-0.00027233156	-0.0005231607	0.00020914848	-0.00013347754	5.091779e-05	-0.0003685357	0.0004965375	-2.8950257e-05	-3.301204e-05	0.00011904241	-0.0003448613	0.00025269628	0.00033793304	0.00033120968	7.307378e-05	0.00012424139	0.00063467753	-0.00026737127	0.00026084113	-0.00034093263	0.00027908478	0.00043688956	-1.8413602e-05	0.00034243113	0.00045333404	-0.0005849141	0.00022170699	-0.00031726275	0.00037401344	-0.00043170195	0.0001636924	-0.00039512423	-0.00023522951	-0.00038170573	5.2342115e-05	0.00028555197	0.0003911406	0.00041134644	-0.00031260485	7.5008946e-05	-0.0004488627	-0.0004827683	0.0003052507	0.00028662742	-7.072572e-05	-0.00060002826	-0.00029395166	-0.00037556258	-0.00042571628	4.8367416e-05	-0.00013494084	0.0005785991
Covariance_6	-0.00010248119	-3.2302374e-05	-0.0003531355	-0.00036210357	0.0006694444	-1.14267805e-05	-0.00035913556	-4.652845e-06	0.00033424248	0.00032803806	0.00027718302	3.413039e-05	0.00042696611	0.00032280927	0.00021793872	0.00024032607	0.00034653433	-0.00015644681	0.00020711179	-0.0004286911	0.00023878967	-3.9459333e-05	0.00044879652	-0.00034866837	-0.00026650383	-0.00013347152	-0.00015261382	-6.094803e-05	-8.449497e-06	-0.00028993623	-0.00030618804	0.00040530198	4.887259e-06	0.00039756487	0.00016212462	0.00013824433	0.00055714615	-0.00020922249	-1.0695395e-05	-0.00056835404	2.6964692e-05	-0.00020725923	-0.00025671336	-3.3824206e-06	0.00018341545	-0.00025727754	-0.00031436983	-2.343888e-05	-3.0236868e-05	1.8350775e-05	0.00014553811	-0.0006123551	-0.00018960863	-0.000262914	-0.00046025487	-0.00018271104	-0.0004955107	0.0005911445	-0.0003170072	-4.7867925e-06	0.00048981904	1.1113368e-05	0.00024659082	-0.00020043495	5.7681707e-05	0.00021058315	6.37468e-05	0.0004541234	0.00020117132	-0.00066507957	-0.00023210722	-0.00056904805	0.00043792784	-0.00023271005	0.00017241898	0.00034306198	0.00043759134	0.00026984207	-0.000120077646	8.8482775e-05	-4.5829285e-05	0.00035490858	0.00067127147	0.00011160324	5.7101595e-05	-0.00016735778	7.245255e-05	0.000109638546	3.33049e-05	-0.00021724147	-0.00039917856	0.0005882331	9.147331e-05	1.5816511e-05	-3.8691727e-05	0.0004444622	0.00024087723	0.00011702813	0.00031681315	0.0005990506	0.00017269973	3.6176345e-05	4.5606103e-05	-0.00025285836	0.00021329775	1.1740821e-05	0.00047219917	-0.00028548721	-0.00011791725	-3.762557e-05	9.316336e-05	-0.00026711554	0.00031735064	3.717831e-05	0.00021401042	-1.8321124e-06	0.0005066765	4.8285416e-05	-1.2825376e-05	9.759649e-05	0.00017808855	0.00076844124	0.00013639865	0.000251009	-0.00033132583	5.946335e-05	-0.00036337157	0.00038001046	-0.00033488736	-0.0001481792	-0.00019538656	-0.0002854867	5.2724685e-05	-0.00018331513	-0.0002827722	0.0004196583	0.00015839185	0.0005533919	0.0003849394	-2.7863149e-05	0.00025547072	6.2414483e-06	-0.00019538602	0.00018252373	-0.00015937557	-9.361701e-05	-0.00022752724	2.9076877e-05	-0.00048442604	-7.968279e-05	-0.0003498645	7.473363e-05	-5.9797247e-05	0.0003878632	-0.00031861954	9.315107e-05	0.00013654112	-0.0003591259	0.00022130858	-6.706201e-05	0.0005154361	-0.000114063434	-0.00019891802	-5.7753674e-05	-0.00010681015	0.0002917406	-0.00022222247	0.000202897	6.279528e-05	0.00023351121	-0.00039053484	5.4572232e-05	-0.00040127247	-0.00044928666	-0.00040886	-0.00028742166	0.0004246903	-0.00017466517	-0.00020071077	0.00020881313	-0.000522519	0.00038126594	-0.0005635981	-0.0006974779	0.00054821913	-0.0005603155	2.2466866e-05	0.00016794604	-0.00025348566	-0.00026731394	0.00044853232	0.00030793622	1.1745987e-06	-6.896244e-05	-0.00037644035	0.00034957842	0.00021476414	-0.00012772501	-0.00030072418	-0.0004503399	-0.00018925642	-0.0004218968	-0.00014177467	-1.0510964e-05	1.6957494e-05	-0.00047392867	-0.00047326315	-0.00049858063	-0.00011162535	-0.00016099843	0.000113249735	8.2805445e-06	0.0001379392	5.596376e-05	6.544493e-06	0.00059644243	0.00013474996	0.0004666122	-0.0005584247	-0.00027151787	-0.00017205618	-0.00018812485	-0.0003224615	-0.0001574286	-0.0003982555	0.00016469874	-0.00033871294	-0.0002593993	0.00038927846	0.00018670948	-0.00038178213	-0.00064757915	-5.572648e-05	-0.0006103223	-0.000172552	-0.0007004787	0.0001859013	0.00053630606	-8.478202e-06	5.456046e-05	-0.00027339312	-0.00032900684	0.0004247404	0.00035531996	-0.000256449	-4.6444336e-05	0.00054734823	0.00037808344	-0.00024346013	-0.0005616391	0.00010335493	-0.00010961197	-5.6054047e-05	-0.0005757382	0.000603216	0.00013317834	-0.0003198581	0.00010528207	-0.0005812366	2.987234e-05	0.00035634948	0.00070521253	0.00014207205	-0.00028675297	0.00048395162	-0.00011040668	0.00016834371	-0.00029341242	0.00038113492	0.0005153889	7.23128e-05	0.00021140555	0.00061420246	-0.00051701145	3.4367655e-05	-0.00023136612	0.00047807896	-0.00030333956	-2.1208703e-05	-0.000363079	-0.00039814904	-0.0004245594	7.903853e-05	3.5882e-06	0.00017888933	0.00079085946	-0.00032173886	-9.4796735e-05	-0.00029027567	-0.00058944576	-3.0203385e-06	0.00033452324	-0.00045447578	-0.0006837208	-0.00034772107	-0.0003038352	-0.00045370666	0.00019745606	-0.00024235623	0.00045167597
Covariance_7	-0.00015040315	-0.00049721193	-0.00041787702	-0.00041535415	0.00074899546	0.00030174895	-0.00050720817	0.00017798386	0.00030201895	0.0003365131	0.00020271781	7.079777e-05	6.7330264e-05	0.00018449972	0.0003117065	0.00028779256	0.00032089237	-0.00031441578	-0.00012483455	-2.1243335e-05	0.000274028	0.0005589729	0.0008191578	3.835071e-05	-0.00024198521	0.00019257957	-0.00016509688	2.4664123e-05	-3.9212024e-05	-0.00011132092	0.00020471767	0.0002234063	-0.00012683996	0.00024382694	4.77299e-05	2.5291438e-06	0.00035567273	-0.00047907894	4.956489e-05	-0.00030550957	0.00024992766	-0.0002332723	-0.00030531094	-4.817805e-05	-8.902854e-06	-2.2053704e-05	-0.0004233142	-0.00040382947	-4.6886933e-05	0.00028485912	9.870652e-05	-0.00041084952	-0.00031929172	-0.00030386876	-0.0003709621	-0.00021424628	-0.00032093425	0.00033465	-0.00033235707	-0.00034702147	0.0005529193	-8.007638e-05	2.2700644e-05	-0.00016933707	-0.00015992604	0.00060691655	0.00047984914	0.00015142113	0.0002875748	-0.0007173166	0.00013126731	-0.00040202437	0.00041391185	-0.00017713671	-2.820948e-05	0.00012784457	0.0003889566	0.00021415733	0.00017913386	-0.00015449504	-0.00014608631	1.8059136e-06	0.0006427549	0.0003344683	0.00029777276	-0.00031745515	0.00030982294	-0.00028523454	-0.00018554395	4.68243e-05	-0.00020341182	0.0003940719	-4.1580188e-05	8.621353e-05	-0.000120514145	0.00058935303	0.00011185119	0.000269853	0.00040934008	0.00045542206	0.00011019366	0.00012190641	2.886354e-05	-0.00050326774	-7.554693e-05	-0.0006256125	0.0005374752	-0.00063271297	-0.00013554809	-4.1119718e-05	-7.48218e-05	-0.00043536056	0.00031885682	0.00012951177	4.8289592e-05	-0.00021912213	0.00050790363	-3.5434132e-05	0.00033824748	-0.00026894445	0.00024575286	0.00031242264	-0.00010788052	-0.0003062772	-0.00030082394	0.00011190461	-0.0003083223	0.00043218545	-0.00028939548	-0.00024391511	-4.7037538e-05	-0.00039696964	0.00010015864	-0.00022447329	-0.00045121324	0.00039276437	-5.1308096e-05	0.00043925628	0.00043409847	0.00012672221	4.4604636e-05	-0.00057112775	-0.00045326445	9.9445395e-05	-0.00014673523	1.747085e-05	-0.00014650862	-0.00012305318	-0.00023861644	9.547805e-05	-0.00051566673	0.00012542045	-0.00024182152	-0.00018424299	-0.00055453816	-4.7988062e-05	-2.7708878e-05	-0.0004552249	0.00015621271	3.109104e-08	0.00037869147	0.00030540058	-0.00023183857	-0.00010472206	-0.00024376198	-4.0983305e-05	-0.00044408318	-0.000224294	0.00010722903	0.0004683996	0.00014027093	-0.00018504867	-0.0006191589	-0.00014251871	-0.0005384821	-0.0003655219	0.00022738236	-5.720552e-05	-0.0004971648	4.4540797e-05	-0.00058748096	0.0001573281	-0.00081452227	-0.00034601387	0.00030388354	-0.00030621796	0.00011949208	-0.00011167582	-0.00016219117	-0.0002048832	0.00057570037	8.799465e-05	0.00032087206	-0.00031389052	-0.00015374146	0.00029394406	0.00024946022	-0.0006618418	-6.3207575e-05	-0.00033582002	-0.00029504497	-0.00027956098	-0.0002913527	-1.3801063e-05	-0.00012912169	-0.00051419024	-3.0945544e-06	-0.00036547176	1.2107335e-05	5.7075034e-05	-0.00017931062	0.0001799625	0.00021063603	-0.00016739812	-1.459861e-05	0.00031456613	0.0003325571	0.000407888	-0.00039547865	-0.00040534727	-0.00042993962	8.998072e-05	-0.00037465882	-0.00012569196	-0.00015357987	0.00034601218	-5.9546768e-05	-0.00037964166	0.000560365	0.00016667567	8.8809626e-05	-0.0006652737	2.9380652e-05	-0.0006966195	-0.0001603586	-0.00058276375	0.00049749203	0.0004969751	-4.2156462e-05	-0.00025448724	5.689446e-05	-0.00027097945	0.00018705639	7.528164e-05	-0.0004982177	0.00014157854	0.0008708612	8.867421e-05	-0.00038194546	-0.00031189472	0.00032934317	0.00019174696	-2.1375461e-05	-0.00035742772	0.0005845826	-8.123637e-05	-0.00031371138	0.00016184473	-0.0006061004	7.390837e-05	5.3910153e-05	0.00039951186	2.334075e-06	-0.00032811728	0.00063487486	-0.00036514728	0.00024313624	-0.0003535499	7.890065e-05	0.0005835101	2.3708244e-05	7.8785e-05	0.00028365004	-0.0003733093	0.00035919368	-0.0005642292	0.00040936787	-0.0005750634	-0.000192765	-0.00063235784	-0.00034483074	-0.00059039216	3.984516e-05	0.0002712689	0.00035854246	0.00029800233	-0.0006034221	0.00031570956	-0.0005635271	-0.00023060953	0.00025390557	0.00036452193	9.775646e-05	-0.00046781535	-0.0005229308	-0.00014395174	-0.00040452182	8.48125e-05	-0.00012328062	0.0006045868
Covariance_8	-7.4388285e-05	-0.0012601686	8.4531515e-05	-3.3197575e-05	-0.00034837134	0.00032593939	2.674626e-05	0.00037925897	-0.00026917362	0.00027648205	-0.00015665015	-0.0005057097	-0.0003077874	-0.0010378978	0.00052417483	-0.00025911123	0.0003414941	-0.00038641546	0.00013135106	0.0008179606	-0.0015027358	0.0004942678	0.0012597651	0.00024800678	0.00027069566	5.039008e-06	0.00112858	-0.00071531825	-6.267949e-05	-3.8865808e-05	0.0010571793	-0.0007906073	-0.00029634067	-0.00013223031	0.00057512824	0.0005657488	-0.00054097397	-0.0014515519	0.000699462	0.000714263	-5.6987046e-06	0.00011494281	0.000116894844	-0.0005331766	0.00040104025	-0.0005851271	-0.0009684999	-0.0005388661	0.00046690265	0.0011569534	0.00042676792	-0.00032633008	-0.0012745645	-0.00084558513	0.0015237817	-1.7643324e-06	-0.00014596494	0.0009945153	-0.00068736717	0.00055704877	0.001004865	0.00025722617	-0.0005952388	-0.0004229284	0.00024361555	-0.00035444295	6.324863e-05	-0.00016308526	0.00036016744	0.0006724328	-0.00041477924	6.6066495e-06	-0.00013726274	-0.0010622875	-0.00096315733	-0.00048764472	0.00081765273	-0.00021320011	0.0006240844	-5.9868653e-05	0.000382001	0.0001620659	3.350718e-05	0.0009947092	-0.0011535282	-0.0006321409	-0.0007115944	-0.00087654707	-0.0009464598	-8.945975e-05	-0.00053482474	5.538066e-05	0.00045673	-0.00030507363	1.8800652e-05	-0.00012455348	-0.0013301742	0.000248013	0.0011568039	-0.0009810475	-0.0010141898	-0.00012909487	0.000563155	-0.0012094119	0.0009325979	2.9392133e-05	0.00040782956	0.00033673533	0.00041833406	-0.00010821109	0.0008099818	2.2457883e-05	-0.00031865516	0.00061690435	-0.00078727945	0.00017414747	0.0007063438	0.0003470682	0.00097295456	-0.0005611079	0.00010121893	-0.00073305087	-0.0005430785	-0.0013332677	-1.97138e-05	0.00011814275	-0.0006138762	0.0012340533	1.9783045e-05	0.00028578308	-8.2235405e-05	-0.00069294625	-0.00087030063	-0.00071004534	6.812914e-05	-0.00081013143	-8.557865e-06	0.00108394	2.7489004e-05	-4.4816e-05	0.00077290623	-0.0015532214	-0.0011293585	-0.001238398	0.00032179776	-3.2271666e-05	0.00026435262	-0.0011955827	-0.0003820443	0.00031909865	0.0010437354	-0.00012022606	-0.0003883653	-0.0010866311	-0.0009500007	-0.0008664072	0.00044775684	-0.00044507513	-0.0003841638	0.00010341013	-0.00014036475	0.000918235	0.00071054796	0.00052319217	0.00028690515	-0.000500723	-0.00018634489	-0.0007442171	-0.00022027752	0.00040357548	0.0010727395	5.2268282e-05	-1.6375212e-05	-0.0003483983	0.00038199933	-0.0012208801	-0.00031144705	0.0007338908	0.00024345734	-0.00012733063	-0.00010152451	-0.00024813347	-0.0008566702	-0.00012972674	-0.00017956537	-0.00049596373	0.00048599843	0.00087115564	0.00015672731	6.2675594e-05	0.00015517176	-0.00032401786	0.0013200552	-0.0013074055	-0.0002335748	-0.00043604226	0.0006768789	-0.00048042295	-0.0008547606	-4.695647e-05	0.000576822	0.000108566135	0.00048539927	-0.0001455333	0.00077348045	-3.6510042e-05	-0.00041770583	0.000111829155	0.00039770154	-0.0002723208	-0.0010500638	0.0008212423	0.0010506501	-0.0007514317	0.00026416045	-0.0010596717	0.0010790615	-0.00016104878	0.00059640274	-0.00076499063	-0.00043804967	0.00078706007	-0.00051266333	0.0012803908	0.0012492674	0.0006265167	-2.5845948e-06	0.00036341432	0.00036430554	-0.00040772336	-0.000119283766	-0.00019094843	-0.00090079714	-0.00013089836	-0.00026852216	0.00030158053	0.00072967337	0.0008896438	-0.00037895204	-0.00033622183	1.5212223e-05	8.991827e-05	0.00062321534	-0.0009104702	-0.0015573497	-0.0007678278	0.0006283097	-6.251046e-05	0.00014684489	-0.00011680759	0.0014357106	0.0014326856	-0.0005382158	0.00017160874	-0.00067183597	-0.00073895167	-0.00081701344	0.0010355741	-0.00034125813	0.00039913104	-0.0003161868	0.00010743033	-0.0009251219	-0.0009773779	0.0015342766	-0.00016508065	0.000931907	-0.00010361808	-0.00093182665	-0.0004756066	0.00019893382	-0.00023499288	-0.00094848574	0.00028831232	0.00029464986	-0.00034809794	-0.00041229863	0.000111235015	-0.0006736072	-0.00068288244	-0.0010162918	-0.0004991058	0.00013924157	0.00079822727	3.416225e-05	-0.0004647992	-0.0003421406	0.00083733676	-0.0003121848	0.0007863469	0.0009721739	0.0007918144	0.00093252375	-0.00030059967	0.00016242164	-0.00039876613	8.266036e-05	0.0005061307	-0.00022819621	0.00014690665
Covariance_9	-9.617815e-06	-0.00036789398	-0.00048863946	-0.0005332333	0.00045836437	0.00041321275	-0.0007949186	0.00022308136	0.00013502105	0.0006892007	-0.000115803225	-0.0003683223	0.00026457972	-3.3473363e-05	0.00010143892	1.3390707e-05	0.00067923794	-0.00036722817	0.00013050888	-0.00031467274	-8.325249e-05	0.0005563391	0.0010448003	-0.00019667763	-0.00028301627	0.0004072031	1.3517053e-05	-0.0003542457	-0.0004667861	-0.00022700666	0.00048116068	0.00015393621	-9.504329e-05	0.0003928679	0.00023308354	0.00047060763	0.00028910593	-0.00072796305	0.0002020575	-0.0004951198	0.00026300462	-0.00011467542	-0.00017286374	2.8973736e-07	0.0002424483	-0.00019700793	-0.00024553336	-0.0006044762	-9.4830764e-05	0.0006704653	1.8758199e-05	-0.00036168174	-0.0007725904	-0.00050243805	6.883708e-06	-0.0005001653	-0.00076090405	0.0006685929	-0.0005844162	0.00011302387	0.0005942703	0.00056442793	-0.00023189257	4.9658138e-05	-4.071692e-05	0.00046849268	0.00011337184	0.0004547569	0.00048903836	-0.00033622724	-0.00034561905	-0.0006161871	0.0006791012	-0.00077821966	-0.0004945917	0.00030703167	0.0007999699	5.688983e-05	0.00035644503	-0.00025842417	-0.0003395128	0.00030490934	0.0004462882	0.0003013554	-8.837339e-05	-9.012796e-05	0.0001376207	-0.00058594905	-0.00030758634	-0.00030287035	-0.0007470787	0.00046459693	0.00014424918	-0.00028865619	-0.00052023854	0.00049373123	-0.0003071776	0.00037288675	0.00042785314	2.2451393e-05	-0.00033019105	0.0001022293	3.8076705e-05	-0.00063427293	0.00041440167	-0.00058288954	0.00072423177	-0.00043051102	-0.00010261785	-2.0111736e-05	0.00029669618	-0.0004890822	0.00012024296	0.00027663584	-0.00019068796	-9.2640614e-05	0.00067887834	0.00029830966	0.0007736274	-0.00029232656	3.3892906e-05	-2.3388118e-05	-8.6218104e-05	-0.0003229443	-0.0002297604	0.0002485042	-0.000529406	0.000874183	-0.00019995582	1.8714618e-05	6.443462e-05	-0.0006231074	-0.00020184295	-0.00057656085	-2.3475091e-05	0.00035723066	-4.5629822e-05	0.0008335194	1.7912933e-05	-0.00012856211	0.0003690038	-0.0007588013	-0.00081878493	-0.0002128816	5.9014557e-05	0.0001577252	-0.00015055014	-0.0006768737	-0.0003070239	7.1225026e-05	0.000117813215	-0.0002757278	-0.00044173043	-0.00025418337	-0.0007958645	-0.00011294723	0.0002883985	-0.0005113053	1.6903714e-05	-0.0001457949	0.00012503075	0.00039157347	-0.000112133195	0.0001588677	-0.00023690437	-0.00016376554	-0.0005854073	-0.000240505	-0.00018861964	0.00012675315	0.00022339095	0.00014010433	-0.0003837135	-0.0003141009	-2.7044187e-05	-0.0004913418	0.00030088122	-0.00019267751	-0.0006548631	-0.0002576534	-0.00036290675	0.000153353	-0.001216035	-0.0005329558	0.00027469094	-0.0004969973	0.00025901763	-4.7765907e-06	-7.172236e-05	-0.00025879446	0.0006928324	0.00024704813	0.00064290466	-0.00065613247	-0.00041006616	-0.00015921601	0.0003060467	-0.00021661764	-0.00067789084	-0.000222132	-9.892101e-05	-0.00025285388	0.00028424241	-0.000113801754	0.00028964103	-0.0007037345	-0.00026970785	-0.00031449087	-0.00011467823	-0.00014455356	-0.0005822837	0.00032564596	0.0007157075	-0.0003228446	0.00046965192	0.00043377504	0.00028612994	0.00022812528	-5.602846e-05	-0.00033216382	-0.00053045957	-3.4115394e-05	-0.00048850436	0.00025879295	0.0005934908	0.00070658576	-0.00031795635	-0.00015360264	0.0007290339	0.00020569365	-0.00022080429	-0.0006293833	-0.00025770636	-0.00076913193	-0.00040296806	-7.49833e-05	0.0008060265	0.0006387054	-0.0005083738	-0.00018770581	-0.00019512905	-0.00032569235	0.0005091896	-0.00027346626	-0.00046539065	-0.00035945847	0.00095459184	0.00031591757	-8.633486e-05	-0.00032299515	0.0006739383	0.00052526407	0.00012289813	-2.5414e-05	0.00028591254	-0.0005940987	-0.0007308025	0.0004288464	-0.00066602894	0.00026517603	-0.0003167607	0.0005860663	-0.00048084758	-0.0004856384	0.0010327192	-0.00034988363	0.00087329	-0.0002449369	0.00014728183	0.00029832596	-0.00015736831	0.0003475393	-0.00018197873	-0.00014063563	0.00034609044	-0.0007019009	0.0003184972	-0.00052121375	-0.00055705884	-0.0010833396	-0.0005687199	-0.0004781611	0.00035128355	0.00035597128	9.998871e-05	0.00017303704	-0.0006126026	0.00065981026	-0.00025823462	-0.00018195095	0.00022551455	0.00049778057	9.2884715e-05	-0.00035796306	-0.00050135684	-8.780234e-05	-0.00021228772	0.00047164233	-0.0006147004	0.00041426875
Covariance_10	-2.4630493e-05	-0.00046492668	-0.00035356134	-0.00030016317	0.00051056937	0.00014888159	-0.00025013334	0.0004767612	2.1050011e-05	0.0004890525	0.00012471784	3.3276836e-05	0.000114723865	-3.258285e-05	0.00023170224	0.00028307768	0.00028331432	-0.00042575193	6.8274145e-05	6.4382543e-06	-2.1821354e-05	0.00023566386	0.000506347	-8.00719e-05	-0.00013253152	-0.00017066023	8.11073e-05	3.7784426e-05	6.189926e-05	-0.0001604412	2.2040043e-05	0.00017695304	-0.0001771478	7.057992e-05	0.00022003986	6.0246282e-05	0.00032826935	-0.0004411297	6.123878e-05	-0.000108801025	0.00010932521	-8.7241264e-05	-4.43829e-05	-8.097536e-05	0.00026383958	-0.00012747453	-0.00051915343	-0.00010453793	-1.0901543e-05	8.4010266e-05	-2.2999804e-05	-0.00041430307	-0.00043891874	-0.00029900126	-0.00019639469	-0.00022586317	-0.0005674879	0.0004246462	-0.000333903	-4.54444e-05	0.00043139246	9.152742e-06	0.00018833949	-0.00029950956	7.054687e-05	0.00015860768	0.00020975711	0.00034961867	0.0001540602	-0.0003592633	-0.00016542355	-0.00035417159	0.00034922958	-0.00025125765	-0.00014196495	0.00013646077	0.0005041621	0.00010678394	-6.554832e-05	-2.3781995e-05	-6.269127e-05	0.0004074969	0.0004855446	0.00024462317	0.00012169308	-0.00035342944	8.483638e-05	-6.885833e-05	-8.2386316e-05	-9.170968e-05	-0.00052482757	0.00047626736	0.00032578348	-0.00026620118	-0.000107962	0.00032182128	-6.055627e-05	0.00027012802	0.00042631477	0.0005375522	3.4916295e-05	1.4847211e-06	1.6525019e-05	-0.00051132817	0.0003090573	-0.00027935152	0.00029886395	-0.00025051236	6.133152e-05	0.00010635443	0.0001969764	-0.00014019299	0.00033543966	0.00014104153	-0.00013267143	6.0167597e-05	0.00060673006	0.00020423884	0.0002622007	-7.32304e-05	0.00039101977	0.00028956198	-0.0001959581	1.1615035e-05	-0.0003152581	5.94931e-05	-0.00045509823	0.00033126722	-0.0002214206	-5.7057794e-05	-5.7697303e-05	-0.00036162883	-6.615364e-05	-0.0003042899	-0.00024187763	0.00031593852	0.00011967699	0.000661156	0.00025625637	-0.000145418	0.00016766998	-0.00017789465	-0.00032213225	2.2082393e-05	-0.00017565873	0.00016336431	-0.00013398398	-0.000226961	-0.00030080994	-0.00022513632	-0.00027304742	-8.567733e-05	-0.00031720786	6.156009e-05	-0.00060008233	-0.00014276148	8.724932e-05	-0.0003270782	6.417356e-05	2.7816332e-05	0.00029113275	0.0002905808	-0.00019762537	0.000119082586	-7.8817124e-05	0.0002828359	-0.00024010047	-8.044038e-05	9.160536e-05	0.000107610635	-4.0939092e-05	4.318373e-05	-0.00044267878	-0.00039665072	-0.00025445665	-0.00027240452	0.00018579376	6.571021e-05	-0.00039124987	9.750092e-05	-0.0005924569	0.00028173352	-0.0005887632	-0.00056938385	0.00027113254	-0.00038112304	0.00026925484	5.3453743e-05	-0.00014204784	-2.1182348e-05	0.00039837023	9.3298586e-05	0.00017203159	-0.00028191484	-0.0003748279	8.7701905e-05	0.00024758012	-0.00022042065	-0.0002401069	-0.00026688224	-0.00014156818	-0.0004286934	-0.00025239782	-0.0001154259	-7.430329e-05	-0.0005112481	-0.00028535267	-0.00046121632	1.0475104e-06	-0.000141238	-0.00012747114	0.00017752654	0.00034527326	-9.696547e-05	5.7463007e-05	0.00026431965	0.00027057223	0.00018129742	-0.00038742012	-0.0004878245	-0.00032845043	0.00013817874	-0.00025768366	6.940883e-05	-4.3968776e-06	0.00029096002	-0.00011472223	-0.00021623127	0.00039309522	0.00014431245	-0.00018492177	-0.00049764686	-0.00014706983	-0.00068301917	-0.00027174878	-0.00036897347	0.00048605638	0.000511836	2.2500828e-06	-0.00014685038	-0.00018074956	-1.9285319e-05	0.00039041773	6.1212144e-05	-0.00045862832	0.00013799753	0.0004488187	0.00022615925	-0.00025140398	-0.00042820614	0.0004119527	0.0002590129	-6.485719e-05	-0.00022538936	0.00047231824	-7.835928e-05	-0.00039070589	0.00021979246	-0.00027804097	0.00013664557	9.796798e-05	0.00044665954	-0.00017067247	-0.00033727475	0.0008147417	-0.00026331138	0.0002618758	-0.00033200646	0.0002858292	0.0004493948	5.143327e-05	0.00013646891	0.00027514473	-0.00022519991	5.327783e-05	-0.00026387617	0.00010607915	-0.00031859073	-0.000105002066	-0.0005135424	-0.00036642313	-0.0004710637	2.6808772e-05	0.00018837077	0.00032027147	0.00047605313	-0.00029756897	9.2064496e-05	-0.00039514073	-6.7995905e-05	0.00023585695	0.0003812371	-0.00014702805	-0.0004261025	-0.00021212899	-0.00015771671	-0.00038467874	0.00027242897	-9.903103e-05	0.0006310164
Covariance_11	1.1186132e-05	-0.000359021	-0.00035660536	-0.00026417	0.0006122942	7.69913e-05	-0.0003276562	0.0004528457	7.125784e-05	0.00044804037	0.0001597879	0.000118052085	0.00024580976	0.00011565909	0.00016394262	0.00036122504	0.00028816986	-0.00054447615	8.030436e-05	-0.00030056125	0.00014376733	0.00028300277	0.00034814188	-8.894135e-05	-0.00026161852	-0.0002652064	-6.337197e-05	0.00017043317	4.747917e-05	-0.00019921629	-0.00015049924	0.00037397645	-0.00014192151	0.00013527465	0.00010282439	8.361426e-05	0.0005037003	-0.00025875028	3.0867504e-05	-0.00024883013	-3.1428503e-05	-0.00013743898	-7.571061e-05	-7.783107e-05	0.00037342272	-0.000309425	-0.00038071405	-8.22929e-05	8.755554e-05	-3.486324e-05	-1.3674544e-06	-0.00044346484	-0.0003658441	-0.0003637431	-0.00031641935	-0.00026841447	-0.0005830627	0.00047207825	-0.0003495072	-4.358787e-05	0.00044768112	0.00013321584	0.0003809176	-0.00030820753	0.00013561964	0.00028807344	0.00012221628	0.00048062173	0.00012246286	-0.00038673307	-4.1001673e-05	-0.0004928668	0.00039817597	-0.000120444936	-7.7502176e-05	0.00023902701	0.00039311653	0.00037670758	-9.1282694e-05	-6.428871e-05	-0.00010171968	0.00046982523	0.00057316234	0.00016938474	0.00018707803	-0.00027567236	0.00018151001	1.7567916e-05	2.3710976e-05	-0.00022290456	-0.00055825425	0.0004966487	0.00036845249	-0.00028924982	-2.3266683e-05	0.00028822199	8.160524e-05	0.00031273466	0.00027578324	0.0007479043	0.00012844302	-2.6175505e-05	3.0239416e-05	-0.00042227015	0.00033707562	-0.00036310678	0.00020083529	-0.00020466992	3.7701087e-05	0.00014331107	0.00012398958	-0.00019928414	0.00040314524	6.841985e-05	-4.7548194e-05	0.00027425625	0.00055014953	0.00018322546	0.00014298361	-7.3664494e-05	0.00039119908	0.00050013326	-8.191267e-05	0.00040288243	-0.00039826462	0.00014177067	-0.00043778887	0.00021894126	-0.00023366095	-5.4944953e-06	-6.0099297e-05	-0.0003081458	2.4627465e-05	-0.0002976847	-0.00030585434	0.000404576	0.00012682675	0.00055780157	0.00025028305	-0.0001252158	5.907413e-05	5.445934e-05	-0.00012169658	0.00013592758	-0.00030618167	0.00017516462	-0.00025569202	-0.00013788669	-0.00041280515	-0.0003770752	-0.0005030875	-0.0001693987	-0.0001915622	0.00022601163	-0.00045760474	-7.894154e-05	-5.1319235e-05	-0.00034674295	0.00012262825	1.1989458e-05	0.00043823916	0.0001319609	-0.00019078421	3.2877733e-08	-0.00011196709	0.00041483325	-0.00027780622	5.415551e-05	0.00016426483	4.8825896e-05	-0.00026942434	-0.000101478465	-0.00046173047	-0.0003204823	-0.00026881899	-0.00020444901	0.00025046576	1.027973e-06	-0.00040765564	0.000145565	-0.0007214639	0.0002762368	-0.0005025191	-0.0005973639	0.00038798098	-0.00051968475	0.0003568221	-5.3091127e-05	-0.00014680077	-8.299561e-05	0.00041858677	3.3305918e-05	9.9928184e-05	-2.0967995e-05	-0.00047392063	0.00015499035	0.00022588135	-0.00012216173	-0.00014687434	-0.00042214943	-0.00025672652	-0.00052585953	-0.0001770324	-3.7503974e-05	-4.81064e-05	-0.00042636078	-0.00038322542	-0.00050095806	1.6035487e-05	-0.000111884656	8.026353e-05	-5.311331e-05	0.00011235212	8.126232e-06	0.00015256245	0.0005107383	0.0001777862	0.00020217284	-0.000643578	-0.00046625728	-0.00012916178	8.031938e-05	-0.00032561753	-0.00013266895	-5.6776615e-05	0.00022911253	-0.000236066	-0.0002035938	0.0003685752	0.00031025967	-0.00021507585	-0.00052946917	-6.542927e-05	-0.00087048794	-0.0003371427	-0.000421021	0.0004341326	0.0005434309	-8.9070796e-05	-0.00010964043	-0.00027082989	-0.00010800995	0.00046573687	0.00023373548	-0.0003440389	0.0003203558	0.00045290843	0.0004044706	-0.00027015526	-0.0005240071	0.00021335641	7.41341e-05	6.547442e-05	-0.00023676569	0.0005906968	-8.3159925e-05	-0.00031755344	0.000117784	-0.0003014388	-1.50302485e-05	0.0002302696	0.00051939004	7.784467e-06	-0.00010461894	0.0008183219	-0.00012631575	0.00024620394	-0.00043398526	0.00054818427	0.0005841049	-1.0285278e-05	0.00012538776	0.0004225506	-0.0004691861	-5.7384143e-05	-0.00018459834	0.00016437455	-0.00031610485	3.225876e-05	-0.0005244311	-0.0003431001	-0.00039525225	6.347173e-05	6.0599465e-05	0.00028086043	0.00071012875	-0.0002999559	-5.439524e-05	-0.0002734756	-0.00026814413	0.00014939895	0.00038115797	-0.00028238265	-0.0005944092	-0.00024231178	-6.8142275e-05	-0.00039398216	0.00019326515	-7.295302e-05	0.0006414425
Covariance_12	-9.095646e-05	-0.00047938523	-0.0002728155	-0.000121392186	0.00037535094	0.00011138774	-0.0001723444	0.00052076945	2.652108e-05	0.00048360782	0.000118572694	2.892792e-06	2.0348705e-06	-0.00011894184	0.00019534597	0.00027784065	0.00019256653	-0.00039492297	1.0679232e-05	0.00015597741	-3.0373563e-05	0.00016985569	0.00046698345	-0.00013314327	-0.00019536805	-0.00025370764	0.00018083915	4.4829743e-05	0.00013419929	-9.1449154e-05	9.636154e-05	7.140127e-05	-0.00023886737	-9.4826566e-05	0.0001541996	4.4237164e-05	0.00028442705	-0.00047137353	6.443669e-05	6.784237e-07	5.780448e-05	5.386116e-05	-9.6428375e-06	-0.00012220265	0.00029869247	-0.00017026902	-0.0005547934	-4.0825285e-05	8.3985986e-05	0.00017315452	-2.6474333e-06	-0.00025592718	-0.000479004	-0.00026406258	3.5404253e-05	-0.00023770984	-0.0004713278	0.0002794745	-0.00033665777	-1.811968e-05	0.0004357137	4.3133423e-06	0.00015976264	-0.0003102954	8.723219e-06	6.5331245e-05	8.789997e-05	0.00025567625	6.922528e-05	-0.00019181633	-0.0001695655	-0.0002007511	0.00026144035	-0.0003342614	-6.776299e-05	2.170302e-05	0.00033690807	9.880022e-05	-3.8036692e-06	-1.6473103e-05	-4.481123e-05	0.0004917407	0.00038097647	0.00012851905	7.6018274e-05	-0.0004275301	1.643173e-05	6.910242e-05	-2.0552337e-05	-0.0001016031	-0.0004052293	0.0004069959	0.00037839267	-0.00036767643	0.00011377889	0.0003066435	-8.406265e-05	0.0003150361	0.00041185704	0.00046503803	-7.0565426e-07	-5.7967303e-05	1.098138e-05	-0.00047881895	0.0002482643	-0.00022127548	0.00021959184	-0.00011639075	5.4326767e-05	0.00016705367	0.00029717528	-8.597166e-05	0.00029186503	0.00012927593	-0.00010040146	0.0001071772	0.00047519046	0.0002697455	0.00024718075	7.595014e-07	0.0003041276	0.0001669902	-0.0001347242	0.00010426216	-0.00026811135	0.000109749715	-0.00037622085	0.000247427	-0.00021292147	-9.049015e-06	-1.50975875e-05	-0.00034705072	-3.7925158e-05	-0.00031484722	-0.0001243111	0.00023802377	1.2992636e-05	0.00065344333	0.00018688796	-0.00021050268	0.0001251607	-0.0001700082	-0.00036323103	9.035396e-06	-0.00015472608	0.00014151618	-0.00014284441	-0.00011845958	-0.0002704865	-7.7016666e-05	-0.00021410576	-0.00013018474	-0.00035566784	0.00011162942	-0.00051189685	-0.00013016908	2.160959e-05	-0.00022615748	-5.4604858e-05	7.206904e-05	0.0003036037	0.00022472123	-3.102698e-05	6.932062e-05	-0.00016137505	0.0002689544	-0.0001813749	-3.296611e-05	9.8108e-05	3.3544606e-05	-3.0388173e-05	9.0152804e-05	-0.0003191737	-0.00044588218	-0.00018434133	-0.00024583086	0.00027129764	5.4325694e-05	-0.00031971777	0.00014868438	-0.0005232287	0.00031453458	-0.00049054244	-0.00043680423	0.00027894074	-0.00040345467	0.00028896873	7.21868e-05	-6.224264e-05	7.20294e-05	0.00030005112	6.373081e-05	0.00013092038	-0.00027132107	-0.00033660696	5.874724e-05	0.0002680673	-0.00013334297	-0.00025239255	-0.0002014748	-7.516257e-05	-0.0002804651	-0.0002990315	-0.00016324403	-3.39789e-05	-0.00043351157	-0.00021959681	-0.00046287978	0.00010151604	-0.0001107128	-0.00012629086	0.00020238155	0.00037037267	-0.00011265266	7.915929e-05	0.00021409841	0.00021079139	0.0001226287	-0.0004270863	-0.00043595515	-0.00018091936	0.00031779346	-0.0001734105	4.4873745e-05	1.2545683e-05	0.00035397604	-6.748336e-05	-0.0002628528	0.00040648904	0.00016333746	-0.00019709664	-0.00040470515	-0.00018868656	-0.0006892347	-0.00020336264	-0.0003683408	0.0004971048	0.00041999377	0.00010203656	-0.00028961542	-0.0003030255	4.886689e-05	0.00040797066	3.150462e-05	-0.00041689182	9.968889e-05	0.00040499636	0.00029541837	-0.00026882018	-0.00039809916	0.0003991662	0.0002762261	-0.000101688755	-0.00017215939	0.00033061777	-6.9594857e-06	-0.00042495053	0.00023662788	-0.0002868786	8.051453e-05	9.824781e-05	0.00037253028	-0.00024814613	-0.00029904555	0.00068835844	-0.00022209251	0.0002212345	-0.00027438972	0.00018756419	0.000452025	1.7811944e-05	0.00013121164	0.00027841312	-0.000120824174	-5.1756433e-05	-0.00019456669	4.0638955e-05	-0.00025168434	-4.420139e-05	-0.0004832415	-0.0003661711	-0.00032260816	-3.729186e-05	0.00018967253	0.00029413795	0.00049597234	-0.00022726477	0.00012966717	-0.00026347395	-5.2524574e-05	0.00020015641	0.00042083516	-0.00018337375	-0.00033725964	-0.00017714749	-6.481065e-05	-0.00027921738	0.00022500347	-5.6542474e-05	0.0005892382
Covariance_13	0.00016723142	-0.00034161354	-0.00058950234	-0.00029031068	0.000896412	-6.0452086e-05	-0.00012166016	-5.517763e-06	0.00062453194	0.00042028463	0.0002653613	-0.0001454522	0.0004218622	0.00013034247	0.00022804017	0.0001658771	0.00051095244	-0.00019913772	-5.8243342e-05	-0.0003508718	0.00032810803	0.00024544288	7.912414e-06	9.80361e-06	-0.00027942986	1.8912715e-05	-0.00045836845	0.00012570812	-0.00020601973	-0.0001505699	0.00022902478	0.00027130466	0.00027084487	0.00045382555	-5.8623744e-05	0.00015072193	0.00047120775	0.00033387725	-0.00027323666	-0.00026200298	-0.000113617796	-7.444989e-05	-0.0002114539	-2.9860536e-05	0.0002175432	-0.00028207595	-0.0005164252	-0.00036311493	0.00018827825	0.00018819532	0.00022578704	-0.0002987474	-0.0007405938	-0.00024823772	-0.00072946923	-0.00023885096	-0.0007623904	0.00024055736	6.647056e-05	-0.00020611007	0.00032201642	-0.00018787509	0.00022767762	-0.00016790083	-0.0002672616	0.00015410528	-9.8464014e-05	0.00014229625	0.00017848272	-0.0004428085	9.451104e-06	-0.00070682913	0.00019776318	-0.00029504724	4.5630437e-05	0.00032946648	0.0005295684	5.3529642e-05	-0.0001651585	-6.9806e-05	-0.00011490042	0.00053342304	0.00070626807	0.000110682726	0.00012972562	1.1285989e-05	0.00047330224	-4.4457698e-05	-0.00029094645	-0.00043367103	-0.00040861804	0.00034635153	0.00039386086	-0.00023921033	-0.00039822387	0.00026601835	-0.00012000498	0.00020426161	0.00011123912	0.00048322883	0.00034212973	0.00014044293	2.5517233e-05	-0.0002825827	4.7026013e-05	-0.0002647268	0.00014040813	-0.00047410335	-1.2927607e-05	0.00040944808	0.00016938293	-0.00042161372	0.00013946833	0.00031531768	0.00010217507	-0.00013343635	0.0003468937	0.00033523378	0.000490626	-0.00035747912	0.00058742944	0.00028373342	-7.062008e-05	0.00060374686	-0.00039732244	4.3087777e-05	-0.00017610732	0.00022330196	-0.0002321932	-2.7409737e-05	0.00018738746	-0.00019608294	0.000621801	-0.00021627126	7.3694806e-05	0.0007279636	8.7289605e-05	0.0005027654	-0.0001300453	-0.00016920247	-0.00028496888	0.00012141399	-0.00031159195	0.00020552505	-0.00014672281	-2.855697e-05	-0.0004989252	-0.00038119697	-8.870563e-05	-8.857438e-05	-0.0003630378	-4.7099133e-05	-0.00039065976	-0.00010331368	-0.00023816232	0.0003130005	-0.00021281088	-0.00016772008	9.97419e-05	-2.9474584e-05	0.00035285068	0.00025893122	-0.00036267322	-0.00047599056	-0.0002971202	-0.00024140962	-0.00022637476	-2.0190217e-05	0.00020644242	-0.00025971144	8.814481e-05	-1.6884582e-05	-0.00010388863	-0.00023905023	-0.00014777532	-0.0002385859	0.0006354959	-0.00024432264	-0.00048215315	0.00016886642	-0.00011848961	0.0004868984	-0.00031531154	-0.00047963916	0.00023464131	-0.0008567512	-5.4854852e-05	0.00029802576	1.9974346e-05	-0.00016995083	0.00027343482	0.00039737934	2.0770076e-05	2.704966e-05	-0.0006573125	3.8646347e-05	0.00011888667	-0.00049018936	-0.00026626294	-0.00021735985	-0.00056593487	-0.00037381027	-7.557189e-05	0.00017246151	-8.405035e-05	-0.0006028427	-0.00034443106	-0.00065621175	-0.00013636582	-0.00040534735	0.0003999968	-0.0001115877	-0.000140451	-0.00029293727	0.00041300102	0.00038501696	-2.722582e-05	8.678928e-05	-0.00064210483	-0.00031431273	-2.0548505e-05	-0.00039994472	-0.00039704397	6.211501e-05	-0.00010763083	0.00022465279	-0.00014226855	-0.00034409994	0.00045018352	0.00051540486	-4.0874736e-05	-0.0006742982	7.449535e-05	-0.00095795037	-0.00052293116	-0.0004722012	0.0005500164	0.0002821277	-0.00034939553	-0.00012584917	-0.00015297778	3.5635894e-06	0.00022774212	0.00024448597	-0.0001710206	0.00049537426	0.0003690323	0.0004000541	-0.00023285621	-0.00022895294	0.00033702364	3.6485515e-05	1.9348485e-05	-8.611718e-06	0.00028269083	-0.00020937048	-0.00021964879	-0.00034316664	-0.00043619433	-0.00021717836	-0.00017421052	0.0006553494	-0.00024426784	7.9203004e-05	0.00065334013	-0.00018162081	0.0003902474	-1.5775004e-05	0.00015174598	0.00061388675	2.2751141e-05	0.0002634268	7.964561e-05	-0.00059113884	3.0399502e-05	-0.00030094234	0.0001946656	-0.000607768	0.00021881185	-0.00062047987	0.000110048386	-0.00030745444	0.00019772061	-0.0001997158	0.00038362815	0.00058663817	1.15274925e-05	2.0052941e-05	9.8347075e-05	-0.00022489972	-1.931897e-05	0.0005340569	-0.00023849863	-0.0006922968	-0.00057816657	-1.4922317e-05	-0.0006603474	-0.00031238142	3.197533e-05	0.00017502942
Covariance_14	4.767418e-05	-0.00039026423	-0.00033860435	-0.0005505098	0.00089913525	5.0528273e-05	-0.0003963123	-5.9914822e-05	0.00048268036	0.0002980376	0.00041753316	-3.8079095e-05	0.00041806363	5.4571585e-05	7.441196e-05	0.000311658	0.0006055755	-0.00043729233	3.3270066e-05	-0.00048472747	0.0007244077	0.00011367242	0.00025043346	-0.0002206031	-0.0006083795	-0.00018929174	-0.0006382025	0.0002742912	-0.000119148855	-0.00013622796	0.00027494004	0.00035022345	0.0004765423	0.00051026867	9.43769e-05	-3.5147103e-05	0.00058772106	8.541914e-05	-0.00037446967	-0.0005816582	-2.6911346e-05	-0.00013305897	-0.0002629767	-0.00019742979	0.0002571591	-8.7738e-05	-0.0001441935	-0.00028289985	0.00011395023	2.628587e-05	8.5201165e-05	-0.00044116913	-0.00071225263	-0.00021299403	-0.0008588002	-0.0003401149	-0.00072368083	-1.1609867e-06	-0.00021490877	-7.56009e-05	0.00038337286	-0.00013979031	0.00017848199	-0.00035907817	-0.00028427548	0.00036854157	0.00031059713	0.0004176911	0.00015496943	-0.0005323331	-0.00024714152	-0.00057015894	0.0003529131	-0.00016815707	3.9694132e-05	0.00073724485	0.00054855575	9.8096774e-05	-0.00022257508	-0.0002809145	-0.0002820413	0.0004736472	0.00075907074	-0.00014776678	0.00021669125	-0.0001483253	0.00067258335	8.899941e-05	-0.00019673076	-0.0002400444	-0.000333371	0.00020167949	9.429584e-05	-0.00015283165	-0.000288169	0.00035800855	-0.00010388405	0.0001313058	-0.00013732932	0.00045531924	0.00015624892	1.6407226e-05	-0.00012530814	-0.00026763865	-5.59103e-05	-0.00051815715	0.00015043006	-0.000759567	9.724434e-06	0.00020152998	0.00021229622	-0.0003382265	0.00029466138	0.0002617354	0.0003018497	0.00019256075	0.00048774836	0.00022803256	0.0002944071	-0.0005062509	0.0007073826	0.00046364457	-6.596219e-05	0.00066603895	-0.00048754588	6.981401e-05	-0.00015839028	7.7180375e-05	-0.00019306665	-4.5790716e-06	-7.235812e-05	-0.00044334837	0.00039052273	-0.00041941128	0.00010353399	0.0007652358	0.00016683768	0.00047635095	0.00022323935	-0.00019855655	-0.00038040717	0.00023089047	-0.00023791325	0.00040577532	-0.00012936546	-1.3153354e-05	-0.00043528937	-8.323161e-05	-0.00010027783	-0.00021785805	-0.0005343484	0.00023768908	-0.00033118954	0.00020413613	-0.00037382854	0.00021156036	-0.00014210744	-0.00013409692	0.00022855266	8.759486e-05	0.0004799393	2.417454e-05	-0.00045269448	-0.00022439964	-0.00022227918	-0.00032146828	-4.0365732e-05	2.8049737e-05	0.00015598563	-0.0002837109	-0.00018395383	-0.00016715782	-0.00011008211	-0.00029168214	-0.0002838417	-9.7571276e-05	0.00033487164	-0.00011083619	-0.0005740114	-9.174123e-05	-0.00021334566	0.00054166355	-0.0003780835	-0.0004440769	0.00021886108	-0.0006424366	-3.6829501e-06	0.00023177778	-6.3719344e-05	-0.000296624	0.0005150458	0.00017026154	-0.00014044212	0.0001453537	-0.00037116697	1.2028555e-05	6.025274e-05	-0.00042985776	-0.00034663174	-0.0001406529	-0.00041764407	-0.00047370064	-0.00036652	0.00026095074	-0.00033241286	-0.0005634185	-0.00036372937	-0.0007068529	-7.93849e-05	-0.00015223018	5.6149216e-05	-0.0001834203	-9.121329e-05	-0.00026809578	0.00038483617	0.00048365272	9.3595685e-05	0.00013087953	-0.0006693772	-0.00046619918	-0.00014046016	-0.0003150308	-0.0003767062	-0.0001098319	5.02213e-05	0.00017875117	-0.00029309426	-0.00040690377	0.00048784743	0.00055807334	6.0660073e-05	-0.0008163294	0.00013796121	-0.000878458	-0.00024078178	-0.0007400752	0.00071664207	0.00023120819	-9.580885e-05	-0.00018428208	-0.00027220746	-0.00021638468	0.00049767364	6.4699765e-05	-0.0002251317	0.00048036836	0.0008237449	0.0004998767	-0.00040755808	-0.00024782782	0.00029342558	-0.00015264597	0.00034141523	3.4154706e-05	0.00046309494	-0.00012080909	-0.0006139052	-0.0001972073	-0.00072542956	1.25495335e-05	-0.00010957982	0.0006347252	-0.00024860242	-0.00027678272	0.00062716973	-0.00026060137	0.00044664432	-0.00029232714	0.00034025632	0.00081079564	0.00013700066	0.00014543138	0.000104447405	-0.00045592285	-3.1729833e-05	-0.0002729248	0.00014661347	-0.0005438328	0.0001141089	-0.0008374074	-0.00019024742	-0.00029448798	9.0250265e-05	1.6117207e-06	0.000186925	0.00053906924	-0.00033704296	0.00019049091	-0.00029541235	-0.00034991666	1.1341181e-06	0.0003509531	-0.00028089847	-0.0006011663	-0.00038301246	6.4394684e-05	-0.00031802285	-5.283852e-05	-0.000107980566	0.0004345718
Covariance_15	-3.445142e-06	-0.0002478505	-0.0004377145	-0.00024651008	0.00073562993	0.0001142526	-0.00023705102	0.00035074013	0.0004691645	0.00012358905	0.00021840753	-0.00029631672	0.0006149385	0.0001280258	0.00032318442	0.00021583475	0.0005965891	-0.00018174502	2.228648e-05	-0.00014326129	0.0002945085	0.00050764217	3.2290744e-05	-0.00015620123	-0.00044954658	8.105118e-06	-0.0002896283	0.0002647321	-5.183844e-05	-5.0159986e-05	-9.868591e-06	0.00037841237	0.00022735797	0.00031672747	5.6814965e-06	1.6813516e-05	0.0006343745	-0.000114305185	-0.00032123848	-0.000364396	4.028097e-05	-0.00032540245	-0.00016295846	0.00014349172	0.00027617658	-0.00024148347	-0.00069233146	-0.00046650384	0.00013927925	4.888163e-06	-3.5895326e-05	-0.00039832524	-0.0006897437	-0.0002700103	-0.00089672493	-0.0004849649	-0.00079827546	6.513815e-05	-0.00015745289	-0.00022821518	0.00018935539	3.5139976e-05	9.8577126e-05	-9.79255e-05	-0.00012738201	0.00029936663	0.00023421893	0.00026559996	6.059938e-05	-0.000394829	-0.00012300686	-0.00043815916	0.00021520689	-0.00033298053	-4.109775e-05	0.00044353073	0.00047048955	0.0002753001	-0.00020640808	-4.212113e-05	9.920967e-07	0.0005049416	0.0006621737	0.00036685614	0.00019902346	-0.00040406987	0.00037662362	0.00012191697	-0.00020067184	-0.00016590864	-0.0006230569	0.00033444128	0.0004200318	-0.00023536706	-0.00029281244	0.00033509388	0.00034977117	0.00029189495	3.8409027e-05	0.0005728394	0.0001653409	5.003206e-05	3.23132e-05	-0.00029502308	9.65677e-05	-0.00044134687	0.00036919024	-0.0003969564	-0.0001628864	0.00058216474	-4.200086e-05	-0.00029216826	0.0002319489	8.615861e-06	0.0004235441	6.275904e-05	0.00082053064	0.0002033321	0.00032424624	-0.0004026395	0.00035542864	0.00016213961	4.5870078e-05	0.00037842497	-0.0005095063	0.00010541806	-0.00022899924	7.587874e-05	-0.0002920827	-0.00029046347	0.00016361206	-0.00047075443	0.00024592725	-0.0003179975	-3.1064534e-05	0.00039368158	0.0002843466	0.0005168654	6.862007e-05	-0.00018553212	-9.8812954e-05	3.9079646e-06	-0.00024676678	6.157128e-05	-0.00026287665	-3.1457424e-05	-0.0005989796	-0.0003908266	-0.0002519225	-0.00037233287	-0.00032231177	-0.00016014368	-0.0003459654	-7.370889e-05	-0.00011975328	0.00042826953	-0.00015638568	-0.0002449196	2.8941182e-05	-5.579741e-05	0.000358181	2.5803893e-05	-0.0005391434	-9.55554e-05	-0.00022624308	9.2486494e-05	-0.0005118604	0.00021453705	0.00024344622	0.00010507914	-0.00016144336	-6.441008e-05	-0.00019564471	-0.0006253917	-0.00022386688	-0.00022598024	0.0003881073	-0.0006104964	-0.0004933246	-3.8212267e-05	-0.0005073725	0.00051529973	-0.00037273162	-0.0006078616	0.0002643211	-0.00073962845	-0.00023579708	-0.00017550938	5.3821735e-05	2.1077738e-05	0.00068662356	0.00017840513	4.5772656e-05	-6.212179e-05	-0.0006926604	0.00027343736	0.0001837939	-0.0003280535	-0.00026821124	-0.00033457988	-0.00040959465	-0.00058356323	-0.0001281216	-8.972594e-05	-0.00027919922	-0.00043026777	-7.746663e-05	-0.00069748756	0.00030089414	-0.00031234024	7.5616736e-05	-2.5246683e-05	1.41933115e-05	-3.0099858e-05	0.00024134954	0.00032226555	0.00012713567	2.0813402e-05	-0.0005907819	-0.0001503444	-0.00020478829	-0.00046680094	-0.00052035134	-0.00023713881	0.00014997592	0.00025867025	-0.0002069281	-0.0001393116	0.00034828373	0.00020848756	-0.00039975336	-0.0006073509	4.83947e-05	-0.0008375302	-0.0002487412	-0.00043472208	0.00042463487	8.348282e-05	-0.00017234996	0.0001319852	-7.254916e-05	-0.00014641802	0.00013739354	-8.4548055e-06	-0.00023721876	0.00034091956	0.00035534304	0.00055786246	-9.0440786e-05	-0.0004272205	0.00024173531	0.00016536651	0.00016881015	-0.000113704155	0.0004062215	-0.00028367693	-0.00018831482	-5.4477438e-05	-0.0004600859	-0.00039248483	-3.15088e-05	0.0005681319	0.00021249092	-0.00024746827	0.00070852466	-0.00028719447	0.00014105052	-0.00027079982	0.00036712407	0.00040379996	-0.00012256695	-2.5842812e-05	0.00034335983	-0.00016889528	-1.0900421e-05	-0.0004804692	3.5928515e-05	-0.0007302723	0.00031541777	-0.00064044277	6.692107e-05	-0.00016446145	0.000312057	1.27210915e-05	0.0001712218	0.0005128188	0.00016957769	0.00020385688	-1.5895137e-05	-0.00014688542	-0.00041774195	0.00045492017	-0.00012268142	-0.00057165045	-0.00034075076	-0.00016228219	-0.0005744843	0.00015705767	-0.00012946803	0.000569694
Covariance_16	6.3212006e-05	-0.00019393036	-0.00037930935	-0.00030185265	0.0007646443	-2.9606643e-05	-0.00038189825	0.0002515897	0.000585918	0.00023623268	0.00014257873	-0.00011591467	0.0005814757	0.00032856798	0.00026536224	0.0003470046	0.0006748053	-0.0004927691	6.666482e-05	-0.00028996577	0.00039752127	0.00032139194	0.00015385635	-0.00015703295	-0.0005604744	3.099941e-05	-0.0003828569	0.00019183436	-2.8321869e-05	-0.00016077666	-0.00014026806	0.00052177766	4.904359e-05	0.00044570712	-7.84539e-05	-7.7895405e-05	0.0006344541	-0.00031932344	-0.0001406857	-0.0005637991	-2.680504e-06	-0.00039213686	-0.00031412588	-9.113902e-05	0.00027668185	-0.00018553747	-0.0003276993	-0.00035770625	-9.45614e-05	-6.181951e-05	-0.00019424233	-0.0005363915	-0.00059038115	-0.0001087291	-0.0010343546	-0.00033747178	-0.0006856295	0.00021114976	-0.0003491189	-0.0003586869	0.00033515473	0.00014530466	0.00021857035	-0.00014601559	-5.0036153e-05	0.00032262	0.0003625964	0.00058877195	0.00015261763	-0.00052204187	-0.00019529148	-0.00040536944	0.00042519873	-0.0001776729	7.273607e-05	0.000504958	0.0005178837	0.00018009459	-8.13556e-05	2.2847404e-05	-0.00022007406	0.00035127142	0.0007284966	0.00037773303	0.0003130024	-0.00030829004	0.0005023613	1.8503599e-06	-0.00014768056	-1.7823404e-05	-0.0005228615	0.0006038055	0.00024888717	-5.971552e-05	-0.00025298205	0.00039263105	0.00023760888	0.00016124356	0.000114372044	0.0007621896	0.00017883125	5.5146713e-05	5.813306e-05	-0.00014714601	0.00019974889	-0.00047764115	0.00034949486	-0.0007427592	-0.00026288786	0.00015418543	-1.2302257e-05	-0.00042881558	0.00048469033	2.0812176e-05	0.00046654374	0.0002350177	0.0008265987	0.00010094647	0.00022517928	-0.00029277688	0.0004048221	0.00039356906	-0.00016374273	0.00039213608	-0.0005330436	7.862587e-05	-0.00021763604	6.4024745e-05	-0.00035009347	-0.00045833044	-9.234778e-05	-0.00032850678	0.00014657406	-0.0003099042	-0.00010805619	0.0005266414	0.00033502764	0.00063211384	0.00020575905	-8.574276e-05	-5.9886876e-05	2.5458026e-05	-0.00022150036	0.00015750164	-0.00021153424	-0.0001098059	-0.0004879921	-0.00014348543	-0.00033449527	-0.00044990363	-0.00049016287	0.00010126116	-0.00011910761	0.00022371075	-0.00032372586	0.00036944152	-0.000103793725	-0.00040749804	0.00017879385	8.3763174e-05	0.00063512026	-6.470247e-05	-0.0005116368	-9.646226e-05	-5.1874656e-05	0.00012517022	-0.0004777413	0.00015541277	9.5588824e-05	0.00020204583	-0.0003413642	-2.937911e-05	-0.00050754834	-0.0005286202	-0.00035285266	-0.00020010084	0.00035697516	-0.00040715843	-0.00064322806	4.2306987e-05	-0.0006077099	0.0005113653	-0.00038031145	-0.00069172634	0.00022828727	-0.0005825446	-0.00020600868	-0.0002117283	-0.00020897103	-0.00023703118	0.0006046932	0.00014921185	0.0001473168	-6.504826e-06	-0.00051763107	0.00026767328	0.000111429785	-0.00037384132	-0.00021625985	-0.0003193073	-0.00043615804	-0.000521032	-0.00028264453	-9.403575e-05	-0.00016637331	-0.0005052709	-0.00014881742	-0.0007682714	-1.6035536e-05	-0.00018109505	0.000109566645	-2.6227715e-05	-5.3095315e-05	-0.00010779436	0.0001040567	0.00048634683	0.00023168033	0.00016432272	-0.00066193205	-0.00034805704	-0.00023288242	-0.00030399134	-0.00068907347	-0.00033026497	6.1721967e-06	0.000120920595	-0.0003250736	-0.00030013616	0.00042345177	0.0003974479	-0.00021467083	-0.0007616172	0.00016413152	-0.0008453794	-0.00013459829	-0.0005852352	0.0003892567	0.0002766749	-0.00019725585	8.990381e-05	-0.00011239766	-0.00025432068	0.0002608968	9.234266e-05	-0.00029551564	0.00038716706	0.0006162932	0.00042245674	-0.00026645247	-0.000571984	0.00036825292	-5.5704702e-05	0.0002917303	-0.0003138128	0.0006206697	-0.00013750458	-0.00015682628	-3.914626e-05	-0.00058528775	-8.388961e-05	6.286119e-06	0.0006147786	0.00015818026	-0.0001282234	0.0008458911	-0.00041702294	0.000293702	-0.0004655561	0.00045079706	0.0004601468	5.7789915e-05	0.000108336855	0.00041969874	-0.00036230276	9.6719945e-05	-0.0006110606	0.00016810304	-0.0008005253	0.00010386942	-0.00082478346	-5.1419538e-05	-0.0003137113	0.00018809305	0.00024913723	0.00040632894	0.0007607032	-0.000120842444	9.705048e-05	-0.00022174172	-0.0003927015	-1.8258785e-05	0.0003725833	-0.0002584646	-0.00069898425	-0.00020114971	-0.0001742272	-0.00047653087	0.00021819572	-0.00030098925	0.00053104805
Covariance_17	-4.03966e-05	-0.00037406653	-0.00027285147	-0.0002277437	0.00062435755	0.00013234769	-0.00010911096	0.0002613636	2.511961e-05	0.00029807817	3.9136237e-05	-7.14885e-05	0.00028780958	5.061465e-05	0.00037999562	6.4867454e-05	0.0004433839	-0.00039856604	-2.2452065e-05	-0.00020643487	4.59363e-05	0.00025070534	0.0005405178	1.5441707e-05	-0.00015214157	-8.176335e-05	-9.0862275e-05	-3.5901707e-05	0.0001351001	-0.00037771114	1.5334848e-05	0.00017259979	-2.8620383e-05	0.00038710292	0.0001776778	4.9611943e-05	0.00018174204	-0.00035813334	0.0001511774	-0.00015109328	-6.558386e-05	5.5718388e-06	-0.00012329323	-1.9466872e-05	0.00022119196	-0.0003216899	-0.00036957042	-0.00029283387	-1.927474e-05	0.000119462005	1.235082e-06	-0.0005138845	-0.00065966666	-0.00043717556	-0.00036310722	-0.000264898	-0.00062124024	0.0003852659	-0.00031358708	-4.0225965e-05	0.000316079	0.00019633742	0.00036836433	-0.00018155498	0.00013009513	0.0003346433	6.512681e-05	0.00036231725	0.00037339402	-0.00040690054	-0.00013700603	-0.000447454	0.00036600258	-9.050862e-05	-0.00019395095	0.00019049933	0.0004854991	0.00024084547	-2.9140223e-05	-0.00012911267	-0.0001659385	0.00017757928	0.0005672687	0.0005159993	-3.857808e-05	-9.401186e-05	0.00012951822	-0.00023132212	-0.00025165052	-0.0001261883	-0.00048807307	0.0005473404	0.0001746778	-0.0001277226	-4.1129184e-05	0.00036836753	-0.00021428493	-6.789564e-05	0.0002783935	0.00038254837	-4.0840412e-05	0.00017469958	0.00024436612	-0.00033535156	0.0004338522	3.4454822e-06	3.5349403e-05	-0.00031285136	-0.00018232797	8.9619796e-05	0.00023207082	-0.00024341192	0.0002605606	0.00021891492	-4.960776e-05	0.00029237746	0.00024770855	0.00017786724	0.00031576867	-0.00019021086	0.00027041006	0.00032107925	-8.4764564e-05	8.674694e-05	-0.00048672143	1.2216548e-05	-0.00034109887	0.00062969496	-0.00029567888	-0.0002559407	9.1104026e-05	-0.0002060065	7.1737515e-05	-0.00020690719	-0.00016994479	0.00030609794	0.00015910518	0.0006518959	0.00016503622	-0.00013972394	0.00022486865	-0.00018683726	-0.0003589783	-9.7862685e-06	-0.00016026339	-1.9016456e-05	-9.407672e-05	-0.00028528797	-0.00029123726	-0.00030945116	-0.0003558082	-2.6711343e-05	-0.0001851087	-0.00012765013	-0.00039319665	-0.0001704676	0.00011727064	-0.00027046693	3.364378e-05	-2.4948586e-05	4.8840197e-05	0.00028504262	-0.00021747801	9.299843e-05	-0.00021539979	3.4239023e-05	-0.00017584709	-0.00021367187	0.00014895096	-2.6277408e-05	0.00013553532	0.00012736727	-0.00041712486	-0.00010804191	-0.00010852581	-0.0004107942	0.00029513275	-2.3679786e-05	-0.00024288677	4.806285e-05	-0.00042824185	0.000116901	-0.00050638744	-0.0005643531	0.00020395782	-0.00046145526	0.00010080328	0.00023526115	-9.268158e-05	-0.00027664792	0.00030745642	3.3317058e-06	0.00020458504	-0.00016255346	-0.00025558757	8.715346e-05	0.00025653548	-0.00041004008	-0.00044664706	-0.00046082796	-0.00011794465	-0.0003117809	0.00019513017	0.00017354164	0.00019889495	-0.0003282661	-0.00021639526	-0.00017894135	-0.00021037002	-0.00020822848	-4.9102167e-05	0.0001000715	0.0002979817	-0.00016684059	0.00022449292	0.00039381962	0.00027691404	0.00028268495	-0.00020369596	-0.0004356665	-0.000119388525	-9.7452554e-05	-0.0003928261	-2.3402867e-05	0.00017357088	0.00013784607	3.6386737e-05	-5.1281266e-05	0.00036937298	0.00015358972	-0.00010337575	-0.0005044824	-2.1140726e-05	-0.0004919145	-0.00031883878	-0.0002446011	0.00032998022	0.00058191305	-0.00014600769	-4.387938e-06	0.00012604978	-0.00021393584	0.00019747467	6.72617e-05	-0.0006194324	0.00019403617	0.0005347958	0.0001815821	-0.00022742891	-0.000350573	0.00041758514	0.00016693145	0.00025889947	-0.00017462122	0.00028261065	-0.00018519777	-0.0003274831	0.00014789744	-0.00039196387	5.6586785e-05	-0.00015032639	0.0004839041	-0.00015081123	-0.000102483624	0.0007642871	-0.0002888038	0.00034739534	-0.00033126224	0.00031343047	0.000340054	3.1397165e-05	0.00028478127	0.000104803665	-0.00051121745	0.00020269593	-0.0003095623	5.6540848e-05	-0.00044184792	0.00013400301	-0.00059211976	-0.0002854477	-0.0004967465	6.517353e-05	0.00015742402	0.00037648558	0.00045968744	-0.00028497394	5.199034e-05	-0.00036910104	-8.9580135e-05	0.00033522065	0.00027105858	-7.05434e-05	-0.00055714004	-8.721163e-05	-0.00028173043	-0.00031840606	4.4001725e-05	-0.00022468652	0.00043023325
Covariance_18	-7.031061e-05	-0.0002601851	-0.00016512108	-0.00033361514	0.0005410441	0.00017935087	-0.00039765597	0.0001778764	0.00018730004	0.00033882508	8.096256e-05	-0.00016793705	0.00042217792	0.00011300849	0.00021882844	5.8142978e-06	0.00048122028	-0.00020558517	0.00015189982	-0.00013680285	0.00014331602	0.0004236821	0.00059097196	-0.0003508153	-0.00013049264	6.829029e-05	-8.647145e-05	-2.110259e-05	-2.7313366e-05	-2.9960489e-05	0.00018015197	0.00017259951	-0.00013239316	0.00023209419	4.515656e-05	-3.908844e-05	0.00041682876	-0.00040031658	-0.00017001643	-0.00032604192	0.00013092304	6.803572e-05	-8.8496156e-05	-7.929811e-05	0.00025056163	-0.00033095697	-0.0004940494	-0.0002483977	0.00023530233	0.00038866347	-0.00013577932	-0.000658189	-0.00038944432	-0.0004297676	-0.00048728535	-0.00011981279	-0.00036712195	0.00033768016	-0.0003658221	2.3256027e-05	0.00044450717	0.00011816081	7.519181e-05	-0.0002534721	6.0233793e-05	0.0004494748	0.00020334497	0.00018084771	0.00019153827	-0.0005191682	-3.8869104e-05	-0.0002379544	0.00020853101	-8.275151e-05	6.980993e-05	0.00011675967	0.0005023899	0.00014464158	-7.739161e-05	-1.9351559e-05	8.845118e-05	0.00030101722	0.00061317947	0.00016522981	0.00016936005	-0.00041900834	0.00023456448	1.1377598e-06	-0.00017062564	0.0001920069	-0.0003952505	0.0003821161	8.031342e-05	-0.00027411908	-4.3852913e-05	0.0003253883	-0.00011635799	5.0508555e-05	0.00047700168	0.00038023212	-1.531174e-05	5.6479246e-05	0.00017488337	-0.0003965854	0.000117674084	-0.0001983976	0.0002498972	-0.0004018837	5.7029592e-05	-2.3586446e-05	9.469518e-05	-0.000113913455	0.00012927716	3.074688e-05	0.000106176936	0.00012579428	0.0004493262	0.00020477493	0.00023760657	-0.00016881138	0.00036849026	0.00023575418	-0.00011982303	-0.00019234756	-0.0003815439	4.107334e-05	-0.00027125303	0.0002935889	-0.0002622626	-4.694899e-05	-9.2080816e-05	-0.00030188056	-3.6730027e-05	-0.0002681128	-0.00020643805	9.7903074e-05	0.0001284694	0.00055988744	0.00029026787	-0.0001271093	0.00020960651	-0.0003729301	-0.0003899905	0.00027152756	-6.0306247e-05	-6.900368e-05	-0.00027532945	-0.00030079484	-0.0003934942	3.6113117e-05	-0.0004147794	-7.451428e-05	-0.00015299533	-0.0002348299	-0.00040279137	-9.9862256e-05	7.468443e-05	-0.00031573884	-0.00019447508	0.00017793727	0.00027794664	7.961635e-05	-0.00015089211	0.00013090554	2.6678563e-05	-0.000114772985	-0.00023532484	-0.00012301127	4.613109e-05	0.00024758343	-1.37306915e-05	-0.0001872373	-0.00023647885	-0.000112895	-0.00035611406	-0.000102507176	0.00017386457	-6.929484e-05	-0.000486473	-0.00010967007	-0.00048061533	0.00030484408	-0.00030775374	-0.0002831719	0.00028233262	-0.00041220165	0.00016047203	-4.863063e-05	-0.0001084017	-0.00013797116	0.0004055319	7.386094e-05	0.0003209453	-0.00040608333	-0.00022130147	0.00028907837	0.00048183926	-0.00040934244	-0.00016775061	-0.00012784223	-0.0003392354	-0.00035585868	-5.4458695e-05	-9.453039e-05	-4.209524e-05	-0.00032215877	-0.00026358364	-0.00043266974	6.453937e-05	-0.00019813863	-0.00033654986	0.00020146732	0.00026924824	-0.0002466539	0.00010155499	0.00037711405	0.00014839684	0.00013981707	-0.0003831129	-0.00034443827	-0.00021551886	0.0002347752	-0.00059381593	1.250987e-05	4.677639e-05	0.00013934087	-0.00022803526	-0.00015992003	0.00036980293	9.271946e-05	-3.4886216e-05	-0.0005782407	-0.0002356968	-0.0005914344	-0.00016835758	-0.0004018944	0.00054881675	0.00047272674	-4.0611376e-05	-1.5204882e-05	-0.00019394526	-4.6517456e-05	0.00045018524	4.098395e-05	-0.00064674666	0.00026796362	0.00055675645	5.6460925e-05	-0.00015150759	-0.0002871712	0.0004398156	0.0001160069	0.00016041702	-0.00031725463	0.00031986946	-0.00022344437	-0.00020418398	0.00021923851	-0.00043407024	0.00015328964	-8.434505e-05	0.00054365717	-0.00010377845	-0.00031150272	0.00078408304	-8.8315144e-05	0.00025512406	-0.00019789372	0.0001412343	0.0004031185	0.00014072978	0.00027865526	0.00029139442	-0.00014625832	0.00017686708	-0.00033810383	7.296402e-06	-0.0004149819	-0.00021155529	-0.00052427273	-0.00018282045	-0.00036794215	0.00023959561	0.00018663684	0.00019901375	0.0001628209	-0.00043469568	0.00036590223	-0.00017901423	-6.566985e-05	0.00012041662	0.00045297435	-6.335095e-05	-0.00058491464	-0.0001678223	-7.427342e-05	-0.00037850993	0.000234427	-0.00014649787	0.00033672273
Covariance_19	2.9223818e-05	-0.00034190773	-0.0001988699	-0.00016835026	0.00056956237	2.2212449e-05	-0.00032077238	0.00019403273	1.8544742e-05	0.00022402694	-4.6866957e-05	-0.00025657177	0.00012347571	-0.00021926581	0.00026288853	-8.473762e-05	0.0001221557	0.00022639977	0.00012314385	7.833968e-05	-0.00016914573	0.00046230564	0.0006742051	-5.503528e-05	5.7942347e-05	-7.300258e-05	-3.6325968e-05	-0.0001277434	-3.3172582e-05	-1.16952915e-05	0.0003089918	5.897729e-05	-0.00012687662	-3.5501373e-05	0.00011268002	5.5414002e-05	1.807198e-05	-0.00014498507	0.00014900397	-3.325129e-05	0.00015040147	0.00016433523	6.0590114e-06	2.1396345e-05	-2.9114866e-05	-2.48964e-05	-0.00060036604	-8.602986e-05	-1.3860958e-05	0.00037529887	-6.1077095e-05	-0.00044908855	-0.00039782206	-0.00015423006	-0.00022550445	-5.79641e-05	-0.00021122531	0.00019985539	-0.00012082047	-0.00017854448	-9.557654e-05	-0.00011160644	6.056503e-05	-8.01089e-05	0.00016967664	0.00023951619	5.8920956e-05	-9.187029e-05	0.00022494563	-0.00044190392	5.6946265e-05	-0.00012944594	0.00015906207	-0.000105103885	-2.344462e-05	-0.0002197311	0.00044466218	-0.0001351891	-6.5886816e-05	9.149433e-05	0.00018569773	0.00026654676	0.00016025006	0.00019304192	0.0001573878	-0.00032498455	-4.76563e-05	-0.00035445523	-1.5561765e-05	-3.7483038e-05	-0.00016456317	0.00050865335	-0.0001424379	-2.8206636e-05	9.3232e-05	0.00036430638	0.000109577166	1.03467255e-05	0.00063008955	0.00029330121	0.00033385865	0.00016912629	0.00015415832	-0.00033364398	0.00010144176	0.000104126266	0.0002420881	-0.0002832594	0.00018365878	-0.0001543154	5.2045157e-06	1.0593058e-05	0.00011771408	0.00015211916	-0.00022685215	-0.00043936854	0.00024318135	0.00011874101	0.00040877933	0.00011226715	0.00016078922	0.00028131503	-0.00022006473	-0.0003867833	-0.00036544594	0.00010621534	-0.00045840853	0.00040259046	-0.00015940408	-0.0002474092	1.8719423e-06	-0.00014252569	9.568433e-05	-0.00011510343	-0.00023791735	0.00015894968	-0.0001744607	0.00043931906	0.00032735243	1.9318481e-06	0.00017756644	-0.0002506882	-0.00032928985	0.00019354494	0.00012791781	-4.4128838e-06	0.00010804834	-0.00011088576	-0.00020782754	0.0001261588	-0.00019535968	-0.00010976494	-0.000108887296	-0.00017356151	-0.0004414807	-8.063914e-05	0.00012445026	-0.0002595062	-7.02986e-05	-0.000182966	-4.5128294e-05	0.0003386048	-6.241326e-05	0.00014441987	-0.00018560598	0.00020683049	-0.0003610937	-7.9468926e-05	-9.2612405e-05	0.00040747435	0.00033724977	-9.823001e-05	-0.0004573958	-7.115467e-05	-0.00019045017	7.772461e-05	0.00023483935	3.765217e-05	-0.00033352064	7.213375e-05	-0.0003251598	0.00044469046	-0.00053929555	-0.00048287795	0.00046146006	4.8421633e-05	0.000107590604	3.383462e-05	-0.00015507071	8.439405e-06	0.00019406616	0.00018314128	0.00021364294	-0.000411801	7.408675e-05	0.00015637351	0.00021743824	-0.00029944777	4.2023625e-05	8.396863e-05	-0.00018059996	-0.00039270113	-0.00021812481	3.739466e-05	-0.00020942811	-0.00035691325	-6.448553e-05	-0.00032801036	4.1124604e-05	4.2875385e-05	-0.00036358944	0.00016885127	0.00047075035	-0.00022707164	0.00012979539	9.987432e-05	1.4204458e-05	0.0002726705	-8.096295e-05	-0.0002619429	-0.00038381896	0.0003240956	-0.00016894704	0.00022334018	-0.00035398273	6.5737095e-06	2.7748316e-05	-0.000561255	0.00028672133	0.00020729743	6.185971e-05	-0.0003470747	-5.7163346e-05	-0.00040799222	-0.00016971726	-0.00015340366	0.00039998587	0.0003514755	5.1516043e-05	-8.83558e-05	2.2088638e-05	-0.00015011802	0.00018769004	0.00025366186	-0.0003618361	9.741479e-06	0.00036568905	-0.000114128	-8.189423e-05	-0.00022415277	7.8286386e-05	0.00030634977	-7.174415e-05	-0.0004912951	6.5983186e-05	-1.2481483e-05	-0.0003687993	3.9015304e-05	-0.0002663653	-7.452633e-05	4.0018524e-05	0.00038040188	-8.1907914e-05	-0.0003796092	0.00010127182	-0.00018665756	-1.3210775e-05	-0.00013250163	5.185582e-05	0.00038383793	0.00032796615	0.00036319098	0.00026450396	6.856828e-05	0.00025055773	-0.00031305122	4.7414414e-05	-0.0003861248	-0.00021066329	-0.00024168762	-0.0001780834	-0.0002786767	0.00017669148	-6.8454334e-05	0.00050313206	0.0002320246	-0.000539163	0.00022045129	-7.664417e-05	0.0001642992	0.00023289169	0.00047646003	-8.651367e-05	-0.0005371915	-0.00014966152	-0.0001156683	-0.00046551015	-6.5767233e-07	-0.000101939484	0.00026751636
Covariance_20	-5.454374e-05	-0.00031480787	-0.00026129643	-0.00023216975	0.0008173502	8.038032e-05	-0.00027245018	0.00036767716	0.0002627893	0.0003938396	0.00014618557	3.6460562e-05	0.0002234282	6.798651e-05	1.0624512e-05	0.00024040599	0.00020031224	-0.00043557424	0.00012477094	-0.00014960479	0.00010675612	0.0003147018	0.00023916402	-9.977093e-05	-0.00015012918	-0.00021993485	-4.13946e-05	0.00018597674	-4.2028492e-05	-0.00018567988	4.0932227e-05	0.00044447987	-6.837531e-05	8.5214524e-05	-0.0001085883	6.7269e-05	0.00055220973	-0.0002057286	-0.00013419615	-0.0002647211	-3.9625767e-05	-2.801397e-05	-8.973611e-05	-2.144051e-05	0.00041596155	-0.0003269636	-0.00044342084	2.382573e-05	0.0002861029	0.00017294165	8.273371e-05	-0.00046440735	-0.0003305661	-0.0003697302	-0.0002568631	-0.00023432066	-0.00056440086	0.0004847154	-0.00036912985	5.494194e-05	0.00045732057	-4.9673494e-05	0.00040825448	-0.00034320433	6.373192e-05	0.0001981198	-8.537247e-06	0.00033520814	6.423064e-05	-0.00035233126	-5.4967742e-05	-0.00033438005	0.00031609862	-0.00014377039	-3.6675803e-05	5.7114587e-05	0.0004665642	0.000278257	-0.00016344544	0.000106739775	8.183776e-05	0.00047428726	0.00055484596	7.856928e-05	0.00014442267	-0.00028987764	0.00031735285	-2.2287484e-05	0.00022614987	-0.00023801178	-0.0005828943	0.00045543548	0.00027633144	-0.00041373793	0.00016139605	0.00026298134	0.00020202549	0.00034671053	0.00033014745	0.0006946923	0.000242259	7.636958e-05	0.00012628986	-0.00054463977	0.0003824285	-0.000162778	5.1086714e-05	-7.879451e-05	0.00013923006	0.000100473175	5.7665744e-05	9.570267e-06	0.0002318935	0.00012247803	-5.5857974e-05	0.00016804441	0.00054683525	5.9683447e-05	0.00022527948	-0.000100240504	0.0003593435	0.00048424624	-0.00012312697	0.00037873365	-0.00038803442	8.0468446e-05	-0.00045697385	4.4870412e-05	-0.00022583827	7.91689e-05	-2.2249926e-05	-0.00023198586	-1.8977375e-05	-0.00018252888	-0.00027421003	0.00029868408	5.445284e-05	0.00048498885	0.0003220928	-3.7420286e-05	-1.2029706e-05	6.6304216e-05	-0.00023267916	0.00018129511	-0.00030403762	9.6761374e-05	-0.00027457342	-1.5457188e-05	-0.0004789038	-0.00036018604	-0.00041154464	-0.00019688992	-0.00023148001	0.00014755466	-0.00042925135	-5.2295785e-05	-5.7370595e-05	-0.00017508584	-2.0413467e-05	-3.542053e-05	0.0004774273	0.000104308114	-4.9826707e-05	-5.9357546e-05	-9.55885e-05	0.0003100839	-0.0003911016	0.000121004945	0.00015262314	7.643801e-05	-0.00018039263	-9.3329516e-05	-0.0004353784	-0.00037121406	-0.0002328448	-1.9309711e-05	0.00032167128	1.3360323e-05	-0.00030550332	0.00014120966	-0.00070820365	0.0005135884	-0.0003595427	-0.0005818191	0.00047826202	-0.00037069616	0.00024418233	-3.9735478e-05	-0.0001263506	-2.289351e-05	0.00034743873	-0.00012684577	0.00013941393	-8.615302e-05	-0.00045904343	0.00026153767	0.00018726074	-6.820423e-05	-0.00017285187	-0.00019766836	-0.00026405978	-0.00057010405	-0.0003049682	-4.52598e-05	-0.00017379741	-0.000426037	-0.0002893838	-0.0005379399	-4.4255412e-05	-0.00021975914	5.83263e-05	-0.000113540664	1.4044774e-05	-1.2183046e-06	0.00019666125	0.00046314788	0.000104170795	0.00014486513	-0.00063507614	-0.0003272613	4.8958562e-05	0.00027380115	-0.00032708456	-5.1913597e-05	-0.00020852135	0.00015103773	-0.00027999794	-0.00035382633	0.00032660313	0.00024354958	-6.7084286e-05	-0.0006586962	-0.00012015905	-0.0009818735	-0.00027236593	-0.0005516387	0.00035417883	0.00061620923	3.7522514e-05	-6.563374e-05	-0.00042650345	-0.00015343144	0.0005883961	0.000317661	-0.0001967286	0.0002891585	0.00046221146	0.00042711128	-0.00018629359	-0.0005039924	0.00012708445	-3.3304711e-06	-2.1234189e-06	-0.00019098984	0.00061847887	-6.49395e-05	-0.00040934008	8.823517e-05	-0.00018546714	-3.332992e-05	0.00036454765	0.00059377286	7.9819896e-05	-0.00017203676	0.00065808574	2.4920113e-05	0.000136479	-0.00036378572	0.00043851184	0.00065976236	2.6705913e-05	0.0002088878	0.00054810965	-0.0004233251	-6.338259e-06	-5.9864236e-05	9.937884e-05	-0.00022840449	0.00014259439	-0.00032688392	-0.00026723923	-0.00013490689	0.00013806924	-6.855847e-05	0.0002582795	0.0006512494	-0.00033899132	1.9341285e-05	-0.00011975418	-0.0004017897	0.00017028062	0.00046236892	-0.0002444326	-0.0007178921	-0.00025294407	-0.00015495307	-0.00034772485	0.00027858993	0.00012380684	0.000500579
Covariance_21	0.00034731886	1.4756515e-06	-0.0007670028	-0.000928892	0.000998717	0.00024369473	-0.0010570041	0.00023512934	0.00032790218	0.0008461679	-0.00035121845	-0.000378687	0.00029353634	0.0005424706	-0.00047935493	0.000104834864	0.0005860729	7.160561e-05	-6.0098482e-05	-0.000421235	0.00058876385	0.00069225184	0.00075230206	-0.00017145052	-0.0005643215	0.00055863796	-0.0006150874	5.4857017e-05	-0.00071638724	-0.0004966721	0.0004725468	0.00059063814	0.00035907037	0.0003755713	-0.00023927732	0.00019533603	0.000805298	-0.0004770573	-0.00010536099	-0.0008649734	0.00031494445	0.00014189855	-0.000405425	-6.81636e-05	-0.0002114086	0.000121784	-0.00015675864	-0.00067252584	-0.00039168482	0.0005532118	2.9910429e-05	-0.00039457815	-0.00034558307	-0.00019645154	-0.00080376875	-0.0009924644	-0.0012889405	0.00012800228	-0.00025047228	-0.0002185106	2.3894841e-05	0.00070473657	-0.0001260725	0.0006725727	0.00021036215	0.00072446815	0.00042490245	0.00045712566	0.0006451635	-0.0010845389	0.00014065031	-0.0010319235	0.0009143773	-7.549842e-05	-0.00019330796	0.00028837912	0.0007162157	0.00026993518	0.00011660889	-0.0004289212	-0.00025473774	-9.364079e-05	0.0005993083	-0.0005370815	0.0008501464	0.00023223899	0.0008114098	-0.00065501605	0.0004101693	-0.00023361255	-0.00071969716	0.00047563124	-0.00021061928	0.00014064056	-0.000549373	0.0005187362	0.0002592687	0.0006232507	9.812943e-05	0.0006778989	0.00033981833	9.6756696e-05	-0.00050966773	2.1763131e-05	-8.6627406e-05	-0.0009841134	0.00037670395	-0.00067017926	-0.00019329492	-0.00012840085	-0.00029328707	-0.00023284616	0.00033738988	0.00030363238	-5.8884325e-05	-0.0005489994	0.00057642534	0.00017002661	0.00074969395	0.00016516786	-0.0001885732	0.00015105677	-0.00023320936	-0.000120778364	-0.0003086461	0.0005213261	-0.00065806165	0.0006983426	-0.00031439535	-3.744471e-05	0.00032877742	-3.8857776e-05	-1.003316e-05	-2.5180663e-05	7.340156e-05	0.0012079647	-0.00012708968	0.00066396774	0.00030971615	-0.00036584004	-0.00033350618	-0.0002605685	-0.00078265765	0.0006579743	0.00018120374	0.00042442913	-0.00035000916	-0.0003190154	-0.0004062606	-0.00037061976	-0.0007031349	4.1880616e-05	-0.00074604637	6.265241e-05	-0.0008295832	0.00033519647	-0.00027163455	-0.00017016796	-8.1312595e-05	-0.0005555084	-1.20783225e-05	-8.389757e-05	-9.933819e-05	-2.5017835e-06	-0.0006182191	0.00040781405	-0.0010165288	2.0278734e-05	-0.0004822086	0.000246111	0.000125988	-6.522148e-05	-0.00035919796	7.394509e-05	-0.00016752942	0.00039525554	0.0007102147	-0.00044084608	-0.0013552039	-0.0005454308	-0.00037391263	0.0005654426	-0.0008750004	-0.00027761474	0.00084709947	4.180678e-05	0.00027258738	-0.00080374687	-5.5606586e-05	-0.0007586635	0.00091409055	0.000418862	0.00027106327	-0.00051888585	-0.00010970846	-0.00012056093	2.890623e-05	-6.4081134e-05	-0.0002560659	-0.00042852425	-0.00028524493	-0.00059069216	-0.00013095813	3.5981742e-05	-0.00040553312	-0.0010033584	0.00013330758	-0.00084642327	-0.00028385653	0.00031132431	-0.0005715692	-7.987043e-05	0.0006832885	-0.00038960495	0.0004308034	0.0012494689	-0.0002033813	0.00020174918	-0.00012541744	-3.4711033e-05	-0.000593662	-0.00014945847	-0.00046058407	-0.000400931	-0.00029870562	0.0002531111	-0.00036196274	-0.0006348657	0.00054429483	0.0004298102	-8.2165934e-07	-0.0008388853	0.00016003934	-0.0011009092	-0.00076673646	-0.000109532964	0.00066554174	0.0004388334	-0.00037827907	0.00029056036	-0.0005232442	-0.0006228668	0.0004595244	-4.648736e-05	0.00043770942	0.0002571069	0.0011115399	4.977276e-05	-0.00021075764	1.3278288e-05	-2.4387846e-05	0.0002440062	0.0007788528	-0.000109390385	0.00039407148	-0.00032277912	-0.00084529805	-0.0003119309	-0.00094284024	0.00032046367	-0.00052103354	0.000491353	-0.00018509681	0.000102244696	0.00020109549	-0.00062411535	0.0005425039	-0.00014741003	0.00059758115	0.0009158901	-0.0004137539	0.0009651228	0.00043892264	-3.7067803e-05	6.2148785e-05	-0.0005891255	0.00030244107	-0.00089409517	-0.00023719048	-0.0012987659	-0.00054071116	-0.00022847345	0.0006311356	-0.000296588	0.00013833407	0.0007068991	-0.00081459415	5.6896475e-05	-0.00013725416	-0.0006946053	-0.0005829176	0.00019811944	-0.00017548571	-0.00037845506	-0.0010442338	7.623136e-05	-0.0003059096	6.3730244e-05	-0.00048971013	0.0003426072
Covariance_22	0.00013099905	-0.0005772444	-0.00029228555	-0.0001398826	0.00039902306	8.748813e-05	-0.0004240925	0.0002994852	0.00021613456	0.00047439864	9.9974444e-05	-4.823557e-05	0.0002505799	-2.096508e-06	-5.480069e-06	0.0002837725	0.00028163433	-0.0002488244	-0.00011035031	-2.2087814e-05	8.173978e-05	0.0004085369	0.00050285	-0.00019153756	-0.00031850048	-0.000108447064	9.235934e-05	1.0588143e-05	0.00011039103	-0.00023331612	0.00022935605	0.00012758329	-0.00018116718	7.129091e-05	0.00016882057	0.00023649626	0.0004538668	-0.0005039769	0.00019214401	-0.00029249987	0.000219694	0.00014124069	-0.0001677976	-0.00020058423	0.00029878857	-0.00028450726	-0.0003970438	-0.00024177365	1.7199603e-05	0.000264188	0.00014350617	-0.00043620777	-0.00054743607	-0.00026791156	-0.00020170609	-0.0003529104	-0.0004932026	0.00044959277	-0.0002673246	-0.00011810365	0.000459043	6.709116e-05	0.00015997064	-9.587885e-05	6.6032946e-05	0.00033188614	0.00013640517	0.00038515762	0.0002331774	-0.00039791962	0.00011966653	-0.00037040748	0.00022400002	-0.000115861556	-0.0002137098	-8.196646e-05	0.00044833773	0.00025878978	0.00011796784	-0.00012523794	-6.626929e-06	0.00022661188	0.00048485716	6.102808e-05	0.00026456203	-0.00012162949	0.00017337275	-0.0002145841	-9.11736e-05	-0.0001228113	-0.0005937929	0.00033848934	0.0001733942	-0.00016061278	-9.130876e-05	0.00033766704	-0.00018563824	0.00033181874	0.00031582062	0.00055772247	8.2896e-05	-0.00011839422	-2.240137e-05	-0.00045597058	0.00023533838	-0.00026783106	0.00018966179	-0.00031066666	5.1517618e-05	0.00013417673	0.00012511575	-0.00018831778	0.0003243869	0.00022403835	-0.00011833966	7.417765e-05	0.0005358449	0.00023278447	0.0001898169	-2.7539336e-05	0.00023142657	0.00047955816	-7.11558e-05	-0.000104451094	-0.00028077373	0.00010379582	-0.0005816673	0.0005887289	-0.0002851855	0.00013506216	-5.794814e-05	-0.00026370317	0.00013267882	-0.0002786381	-0.0004884772	0.00030013899	0.000112976384	0.0007952306	0.00035431073	-0.000190389	-2.3187999e-05	-0.00022605242	-0.00029871846	2.1938245e-05	5.317329e-05	0.00023620676	-0.00021484234	-0.00039221972	-0.00020937466	-0.00032862095	-0.0002181055	-9.4165516e-05	-0.000301031	5.883387e-05	-0.00033121087	-0.00014649626	5.826204e-05	-0.0003111725	5.573464e-05	-6.7165434e-05	0.00031448313	0.00017555151	0.0001004307	-7.723881e-05	-0.000118065065	0.0003249476	-0.00041993256	-8.605674e-05	9.354992e-05	0.0002464165	-1.5578578e-05	-0.00012453452	-0.00037212024	-0.0002998755	-0.00031167828	-0.00026741417	0.00022882441	0.00021369237	-0.0005828203	0.00015948567	-0.000458816	0.00014869076	-0.00051497924	-0.0005855956	0.00026502687	-0.00047628107	0.00029525865	0.0001246998	2.9860748e-05	-0.00016930215	0.00032964346	0.00010891336	0.0004930395	-0.0002844744	-0.0002598518	7.696273e-05	0.00043091582	-0.00034105018	-0.00014651244	-0.0004031126	-0.000118860255	-0.00047189195	-4.4808126e-05	-0.00021226205	-2.6181828e-05	-0.0005451049	-0.0001978355	-0.0005007689	4.897851e-05	-5.5622793e-05	-3.8047212e-05	-2.1114822e-05	0.0002725543	-8.579412e-05	0.00012016414	0.00033728543	0.00015347495	0.00010819351	-0.0003451918	-0.00040644454	-0.00016359333	0.00022830369	-0.00022953605	0.000113440816	-0.00017970866	0.00027965909	-0.00016320245	-0.00022553923	0.00020523995	0.0003443701	-0.000111185735	-0.00043049315	-7.419654e-07	-0.00063607306	-0.00054069667	-0.00034686396	0.000537454	0.00062446634	-4.4188182e-05	-0.00020973924	-0.0002076171	-0.00024699623	0.00044307148	9.4560055e-05	-0.00039660072	0.00022053455	0.0007123636	0.00020225327	-0.00025794408	-0.00031047344	0.00019788004	0.00024428754	7.635803e-05	-0.0002976635	0.00022952385	-6.161851e-05	-0.00041673656	-4.5385073e-06	-0.00036209772	0.00022673809	-3.308684e-05	0.0003929497	-0.00020171194	-0.00031343685	0.00062692177	-0.00016946543	0.00043286348	-0.00032367537	0.00028537333	0.00057265116	0.00017097034	0.00015855105	0.0003050131	-0.00016432634	1.548304e-05	-0.0002943936	0.00013721656	-0.00031814713	-0.0002217422	-0.00070684945	-0.0004972894	-0.00046589616	0.00019401737	0.00015462209	0.00019803905	0.00048546915	-0.0005808369	0.00016267008	-0.00031335937	-9.787029e-05	9.3124836e-05	0.0005611499	-0.00020904011	-0.0005775331	-0.00039573846	-5.814174e-05	-0.00035879944	0.000270617	-0.0001513669	0.0005414075
