	0	1	2	3	4	5	6	7	8	9	10	11	12	13	14	15	16	17	18	19	20	21	22	23	24	25	26	27	28	29	30	31	32	33	34	35	36	37	38	39	40	41	42	43	44	45	46	47	48	49	50	51	52	53	54	55	56	57	58	59	60	61	62	63	64	65	66	67	68	69	70	71	72	73	74	75	76	77	78	79	80	81	82	83	84	85	86	87	88	89	90	91	92	93	94	95	96	97	98	99	100	101	102	103	104	105	106	107	108	109	110	111	112	113	114	115	116	117	118	119	120	121	122	123	124	125	126	127	128	129	130	131	132	133	134	135	136	137	138	139	140	141	142	143	144	145	146	147	148	149	150	151	152	153	154	155	156	157	158	159	160	161	162	163	164	165	166	167	168	169	170	171	172	173	174	175	176	177	178	179	180	181	182	183	184	185	186	187	188	189	190	191	192	193	194	195	196	197	198	199	200	201	202	203	204	205	206	207	208	209	210	211	212	213	214	215	216	217	218	219	220	221	222	223	224	225	226	227	228	229	230	231	232	233	234	235	236	237	238	239	240	241	242	243	244	245	246	247	248	249	250	251	252	253	254	255	256	257	258	259	260	261	262	263	264	265	266	267	268	269	270	271	272	273	274	275	276	277	278	279	280	281	282	283	284	285	286	287	288	289	290	291	292	293	294	295	296	297	298	299
Biased random walk (biochemistry)_0	-0.0004930062	-0.00089744845	0.00076610333	0.0015912876	0.00073641055	0.0015911151	0.0016130342	0.00014060126	-0.0010676701	0.001376552	-0.001408393	0.0014069406	0.000114288574	0.00078841875	-0.00029076758	-2.2779093e-05	-0.0016342441	0.0002771856	-0.00063404115	-0.0013305516	-0.0011594432	-0.0003894146	-0.00041612142	-0.0005811529	-0.00058129965	-0.00014988885	-0.0016444458	-0.001252923	-0.0006097129	-0.0008230372	-0.0007854261	0.00030720263	0.0009235878	-0.0002755167	-0.0006215633	-0.00045863897	-0.0016595045	0.000864496	0.0011602152	0.0013503232	-0.0010655861	-0.001202937	0.0010884183	0.00078102766	0.0012996563	-0.00029489936	-0.0007562656	-0.00042137998	-0.0005626351	0.0015220697	-0.00060580164	-2.5572623e-05	0.00025312256	-0.00031008475	-0.0015845051	-0.00079296145	0.0014767018	-0.00022911401	-0.00071372394	-0.0004348714	0.0006657206	0.0014219828	0.00075555034	-0.0006973563	-0.00013368201	-0.00046790534	-0.0002656291	-0.0014290403	-5.0784907e-05	0.00077092776	-0.0003557979	-0.0014315705	0.00064562686	0.0012658654	-0.00063301844	-0.00038492103	-0.0006153875	0.00056109583	0.0014410015	-0.00025153984	-0.0010161534	0.0008329398	0.0015197783	-0.00089231285	0.00028281848	0.00070059684	0.00081304286	5.322955e-05	-0.0015020998	0.00044784148	-0.0009552273	-0.0005268655	0.00058228546	-0.00059661985	0.00032233875	-0.0004593705	0.0012966546	0.0009882045	0.0010461813	0.0012847995	0.0001874986	-0.0005901299	-0.00066077564	-0.0008622764	-0.0012940433	-0.0014411843	0.00020231961	-0.00043167075	0.0010903435	-0.0011233268	-0.0015699642	0.00029509419	0.0013836266	-0.0006784844	0.0009847388	0.0005216136	0.0014762098	-0.00031598486	-0.0011085139	0.0008829564	0.00016147272	-0.0014510112	-0.00046028558	-5.135052e-05	9.942205e-05	-0.00018781103	0.0012852113	0.0008728015	-0.0010974599	0.00022720454	0.0007320166	0.00042557635	-0.00086780445	0.0003193595	0.0014438406	0.00097068754	-0.0014764576	-0.0014466688	0.0005610747	0.0007095649	0.0005523185	0.0010183535	-0.0015543676	-0.00037942315	0.0013456799	0.00020473274	0.00020982859	0.0011432979	-0.0013387642	-0.0012955561	0.0015000573	0.00064421236	-0.00083627127	0.0003731243	0.0012538977	-0.00036760248	-0.00042322927	0.0016041986	-0.0010518159	-0.0014308878	9.932534e-05	-7.2621435e-05	0.00055076723	-7.744339e-05	-0.0009937409	-0.0015051239	9.866837e-05	-0.0012480805	0.00022402448	0.0008744515	-0.00066348637	0.00092778134	-0.0015112906	-0.0013316474	-0.0007133563	0.00016866572	-0.00069523416	-0.0014617825	-0.0013870777	-0.0013406398	0.000952834	-0.0010580976	0.00038809684	0.0016432514	-0.0010115231	-0.00010637451	0.00045868766	0.0012226928	7.950601e-05	-0.0010412645	0.00085545186	-0.00037806437	0.0012202404	-0.00053426577	-0.00043494164	4.773228e-06	0.0007920689	-0.0014001146	0.0005979393	-0.0016461479	1.4046118e-06	0.0002833053	-0.00027721908	0.0014781243	0.0008408017	0.00019091732	-0.0005983001	-0.0014949985	0.0005662425	0.0013661127	-6.1414053e-06	-0.0011942446	-0.0002755479	-0.0014159698	-0.001586902	-0.0011097504	0.00046916312	-0.0015364436	-0.0011923257	0.00089358864	0.0007774458	0.00037425544	-0.0002666768	0.00063027214	0.0015975548	0.0011503976	-0.00088587374	0.0015426447	0.0008422954	-9.07605e-05	-0.001620986	-0.00077997724	-0.00028040743	-0.0014496569	0.00046065898	7.2667885e-05	0.0016136226	-0.0005672593	6.097113e-05	0.0005045662	0.0015205684	0.00067206204	-0.00057087035	0.0003180785	-0.0016319357	-0.0010928744	0.0009542978	-0.00057210505	-0.0011984394	0.0009310544	-0.0003575574	0.0001040607	0.00020112662	0.00014306155	-6.126971e-05	0.0014209804	-0.0016640531	0.00021027177	-0.0015012681	0.000831453	-0.0009068805	0.0014313315	0.00025759605	0.0002125324	0.0013287057	-0.00043214412	-0.0013651892	0.0011873083	0.001262134	0.00053496653	0.00016869802	-0.0008360035	0.00025898824	0.0013927054	-9.1714974e-05	-0.0006178745	-7.3462055e-05	-0.0007854688	0.00082917657	-0.000360534	0.0010596004	0.00011927698	-0.0014640964	-0.00031369258	-0.0013079987	0.0016624758	0.0008245807	-0.00079657004	-0.00037039208	0.001307296	0.0007777224	-0.0006502152	0.0011929135	0.0009540942	-0.0007662027	0.001282421	0.00017686865	-0.0006839672	0.001185068	-0.0010382254
Biased random walk (biochemistry)_1	0.00027309847	-0.00069437205	0.0010417337	8.0709e-05	0.000449819	0.0010301141	1.7849554e-05	-0.00052129186	-0.0002290165	0.0014292977	-0.0010028386	-0.000116582145	0.00032463777	0.0009281725	-4.3659144e-05	0.00011745757	-7.42097e-05	0.00068382226	-0.0007109415	-0.0012396033	-0.00016713372	-0.0007990678	-0.0003638598	-0.0008567651	-0.00031818918	0.00011401675	-0.00013867259	0.00014715426	-0.00051980093	-0.00053125643	-0.00088519405	-0.00037811892	-0.00034658454	-0.00020528375	-0.00060344173	0.00023586083	-0.0016536932	0.00045747688	0.0009594505	-0.00012473529	-0.0007012869	-0.000107006344	0.00037032628	0.0009580469	0.00052510086	0.0005344273	-0.0005377916	-0.00041049538	-0.00057650893	0.00033193757	-0.0009313461	-0.00033523576	-9.9089026e-05	0.00023376865	-0.0008322402	0.00036571576	0.001469571	0.00017565303	-2.3853034e-05	-0.00047259466	-0.0001903903	-0.00011710805	0.0009595142	-0.0008943276	0.00069884193	0.00011047347	-0.000765473	-0.00019111315	0.0005849861	-9.286028e-05	0.0003896231	-0.0008411822	0.00010656654	0.0006950073	0.0004103675	-0.0009941227	0.00014205626	0.00056390464	0.0009657375	0.00052419916	-0.0005472187	0.00012221138	-6.944197e-05	-0.0011536408	0.0008374518	0.0006988753	0.0011776658	0.00061097683	-0.0012259182	2.8470327e-05	-0.0006749961	-0.00023080797	0.0009828447	-0.00021477931	-0.00023965359	-4.0451574e-05	0.00043157267	0.0012888098	0.0010710033	0.00042640587	-0.00035088637	0.0003106249	-5.474838e-06	-0.0011243398	-0.0013696979	-7.0542155e-05	0.00030237684	-0.00029156744	0.0011151859	-0.0012810417	-0.0011074042	0.00013108295	0.0012145961	0.00034425806	2.1394284e-05	-7.50114e-05	0.00049017684	-0.00026449483	0.00013461418	0.0010957972	-0.00045823544	-0.0013604797	0.00045343465	0.00079875794	-0.00061448914	-0.000526667	0.0013814894	-0.00021136826	0.0001622435	0.0007808787	0.00087520503	0.00035863905	-0.00069416245	1.3220444e-05	0.0010385601	7.323845e-05	-0.00030300816	-0.00017017202	8.214587e-05	-0.00012195157	0.00033081733	0.0003766475	-0.000509711	0.0003067571	0.0007548404	0.0007395929	0.0006284801	0.00052974094	-5.96054e-05	0.00012074015	0.00073368434	0.00016167694	-3.425678e-05	0.0009106948	0.00096441235	-0.00042097358	-0.00058891345	0.001408995	-0.0005522076	8.3767925e-05	6.9094625e-05	-0.00064834184	-0.0002808899	-0.0006998551	-0.00064369006	-0.000879031	0.00018198378	-0.0007522771	0.0005665164	6.5756205e-05	-0.00082233583	0.0010185344	-0.0006547985	-0.0007157335	-0.0007894613	-0.0005338519	-0.0008820946	-0.00074419257	-0.0010006214	-0.0011565023	-0.00031410917	-0.00018951844	-0.00011262909	0.0013686351	0.00031555828	-0.000491512	0.00010905664	0.00096136815	-0.00061179005	-0.0009469946	0.0005278287	-0.0008057817	0.0006398208	-0.0009995163	-0.00042724653	0.0001958226	-4.800092e-05	-0.0005145412	-0.00011695613	-0.0015956783	0.00031384008	9.311301e-05	3.0327632e-05	0.00094210997	0.00060812285	-0.0007012521	-0.00053352973	-0.0011206132	-0.0004530886	0.0005393437	-0.00036332008	-0.0009930246	-0.00017859337	-0.00041447885	-0.0005079699	-0.0013439809	6.691212e-05	-0.00031317017	-0.0010383375	0.00010892219	0.0005353677	0.0006389997	-8.586474e-05	0.00029228412	6.884313e-05	0.0006631149	-0.0009448929	0.00013861654	0.000831084	0.00036216166	-0.00011292705	-0.00013937612	0.0004170355	-0.0013382328	-0.00054903503	-0.000381175	0.0011122162	-0.00019176427	0.0002546144	0.00075441645	0.000483712	0.00060181844	-0.00013910582	-0.000107299624	-0.001034012	6.692717e-07	0.0008518269	-0.0004163817	-0.0006326754	0.00033145482	0.00030762807	0.000870193	5.379471e-05	-0.00047712724	0.00024334907	0.0010999516	-0.0010849305	0.00062957994	-0.0014432329	0.00025067886	0.00022265944	0.00088724203	0.00018820919	0.00081103493	9.557832e-05	-0.00055039395	-0.00060821814	0.0005770483	5.9183338e-05	0.0005462811	0.00060117635	3.7583814e-05	-0.00038141315	0.0012825292	-5.5967976e-06	-0.0007989467	-0.0007915204	-0.0001531026	0.0004888034	0.0004459575	0.0010873268	0.0007480777	-0.00038274363	0.00036592426	6.269687e-05	0.00016702991	0.0004979233	-0.00047522728	0.00025821663	-0.00012976408	0.0008115135	0.00025236647	8.6016895e-05	0.00048595568	-0.00051276304	0.00048536784	0.00015739226	0.00042672348	7.1685645e-06	-0.00087912363
Biased random walk (biochemistry)_2																																																																																																																																																																																																																																																																																																												
Biased random walk (biochemistry)_3	-0.000231427	-0.00023176485	0.00042176957	-0.00031114375	0.0006381191	0.0007407559	-4.884583e-06	-0.00031737023	0.00012625923	0.00030946796	-0.00037632405	-0.0001859481	-0.00027346163	0.00058778713	-0.0003218634	7.710014e-06	-0.00012375662	0.0008659504	-0.00048940664	-5.974085e-05	-0.00036004896	-0.0005554627	-0.000105734995	-0.00036275218	-0.0005449894	0.0002653666	-0.00017529904	0.00033673187	0.0002809579	0.00025737623	-6.376571e-05	-0.0001897544	9.95163e-05	-0.00066455186	0.00034963182	0.0004070799	-0.0008992312	0.00064129476	-0.00022362059	-7.870913e-05	-3.1400792e-05	0.00016783003	0.0004537924	0.000109689645	0.0002525448	0.00042850123	-0.0007764499	-0.0004409465	-6.3743864e-05	-0.00010967025	0.0001321317	-0.00024910914	-0.0007671455	8.829822e-05	-0.0005669848	0.00032728087	0.0009579414	-0.00016469456	1.5440164e-05	-7.473664e-05	-0.00011492385	-0.00030599025	0.0004279649	-2.0492385e-05	0.0004952899	0.00014498387	-0.00024115157	-0.00081466895	8.532671e-05	-0.00034565237	0.00076477183	-0.0009135548	-0.00049562793	0.00013835923	0.0004612731	-0.00047770137	0.00011567019	-0.00039920642	0.00023541016	-0.0001690519	-0.00012905698	-0.00016397364	-0.00031616318	-0.00062355807	0.00042212714	-0.00014981811	0.0008282737	3.419419e-06	-0.0006507952	-0.00039343498	7.4732816e-06	-0.00013024788	0.0012531143	-0.00014388387	-0.00027970457	-7.92506e-05	0.0001916656	0.00057928043	0.0009807147	0.00042991378	0.00010492947	0.0004232185	0.0006515007	-0.00075781386	-0.0014202372	-0.00029068696	0.00038096216	-0.00011297567	0.0004971575	-0.00062894716	-0.00103556	-7.5565113e-06	0.00052055134	0.0002064935	-0.0006980743	0.0004125373	0.00048948475	-0.00021750672	0.0004719948	0.00017796944	0.0005531842	-0.0009928207	0.00060424535	0.00054938305	-0.00020398597	-4.788846e-06	0.00082513236	-0.00020732387	0.00026252246	6.463911e-05	0.00063954724	0.00015698341	-0.00010964344	-0.00025760438	0.00048457377	0.000538018	0.00014787959	-0.0005748881	0.00011261294	0.0003702743	-0.00020716543	9.721739e-05	-0.000262913	0.00021956203	0.0006092001	0.0004056517	0.00012654014	0.0004286197	-0.00059071963	-0.00021395422	0.00023647971	0.00015157397	-2.9596325e-05	0.00018799701	-8.008178e-05	0.0002488376	-0.00021410672	0.00031810015	-0.0004235511	-0.00021268072	0.00018655557	-0.00012243965	-0.00051062496	-0.0007486743	-0.0001110867	-0.00026751432	0.000478578	-0.0005328363	9.7373006e-05	0.0002385237	-0.00039428932	0.0005492017	-7.536932e-05	-0.00043773395	-0.000399795	-0.0004684371	0.00019918737	-0.00036708466	-0.0002566175	-0.00052377145	-0.00023754376	0.0002215156	-9.317351e-05	0.00070045306	0.00082454167	-0.00022493121	-0.00041622276	0.0003368655	-0.00079316786	4.613449e-05	0.0005834559	-0.00043191834	0.00025998385	-0.00031572732	-0.00036426028	0.00050091516	2.3151428e-05	-0.00047095175	8.182548e-05	-0.00048994576	-0.00031668466	0.0001312555	-0.00062257424	0.00013312094	0.00024679798	-0.0003135524	-0.00025165913	-0.0009661112	0.000122028345	0.00042620904	0.0001579128	8.313879e-05	0.00021766916	-0.00051215594	0.00050839235	-0.0008170031	-2.689568e-05	-0.000443499	-0.0012324646	2.4320252e-05	0.00052885484	0.00040556001	8.0477585e-05	0.0004067261	0.0005764079	0.0004915122	-0.00014888089	-0.00035219526	0.0005465562	0.00029558092	-0.0003660097	0.0004984884	-0.00011786756	-0.0011028184	-7.011862e-05	-0.0006865647	0.0007163624	-0.0006850631	0.00031560543	0.0001800023	0.00023023787	0.00041310705	-0.00010197091	3.080035e-05	-0.0012349263	-0.00022012387	0.0004246799	-0.0002845272	0.00011358061	-0.00039090292	3.0815405e-05	0.00052605616	-3.4466153e-05	0.00020847925	2.776025e-05	0.00087978237	-0.0004178263	0.00037445241	-0.00059230684	-1.6770864e-05	-0.00030729966	0.00043528472	-3.6408826e-05	0.0003038439	-0.0002476756	-0.00064754585	-0.0008663945	0.00095510005	-0.00050640653	0.0002773762	9.53564e-05	-0.00037068332	-0.0007028769	0.0011245986	-0.0006739396	-0.0011156219	-0.00039215875	-0.00021758239	0.0003959137	-0.00011016331	0.00047415597	2.9438886e-05	-0.00020328104	0.00037439022	0.00047668422	-0.00033038383	0.0007232749	-0.00021983414	0.00029830902	-0.00016297001	0.0004354233	0.0005473822	0.0003076454	-0.00034767445	-0.00097214617	-0.0003493517	-0.00039869337	1.4000107e-06	-0.00013091718	-1.4784164e-05
Biased random walk (biochemistry)_4																																																																																																																																																																																																																																																																																																												
Biased random walk (biochemistry)_5	-0.0015283753	0.0006271886	-0.0011118585	-0.00015827335	0.00020749979	-4.0390783e-05	2.5891022e-05	-0.00041437367	-0.00033850607	-0.00036218882	-0.0008652097	0.0003458017	-0.00072635984	0.0011136442	-0.0010655356	-0.0011619922	-0.0014288217	0.0011000449	-0.0010773937	0.00080958003	-0.0013859333	-0.0012601006	0.0014535569	0.0010907424	-0.0010474053	0.0015707415	0.00039808432	-0.00023672298	0.0009678044	0.0004637361	0.0014681423	0.001448154	0.00018112319	-0.0012018203	0.0014238552	0.00037928138	0.0012336922	0.00033101026	-0.001172627	-0.00096518686	0.0011869915	0.0009511391	-0.00046757876	-0.00071500964	-0.00037748113	-0.000101338206	-0.00092421484	-0.0011432598	0.00039642002	-1.3699566e-05	0.0007360379	-0.0011100412	-0.0014060886	-0.001588259	-0.0013760722	0.00010042716	0.0014378893	0.00053024694	-0.00041217575	0.0014463126	-0.0003870677	0.00061991694	-0.00019711893	0.0016081946	0.0013877742	0.0006482102	-0.00048237835	-0.0015760976	-0.00010447362	-0.0014422004	0.0012023776	-0.0010607279	-0.0008318927	0.00023795066	0.001296638	-0.0014138526	-8.601243e-05	-0.0010754167	-0.00029490297	-0.00077994284	0.00059657736	-0.0013931844	-0.0013453105	0.00012722933	-0.00054073555	-0.00095137797	0.00062081724	-0.0012358382	0.00045673517	-0.0009026924	0.00021495053	0.0010998568	0.001410402	-9.297371e-06	0.00031597068	-0.00030185538	-0.0013150923	-0.0012217467	0.0015303604	0.0015787095	-0.00037363052	0.00017708779	0.00097270607	0.0005406071	-0.0016440797	0.00023866388	0.00024009997	0.0011264414	-0.0009095109	-0.0008517594	-0.00066190655	-0.0015384234	0.00086232147	-0.0010922623	-0.0013155385	0.0015674514	-0.00017299772	-0.0009607691	8.796159e-05	-3.282785e-05	0.0015584537	-0.0006554873	0.00071950234	0.00017831709	0.0011585589	0.0011661736	0.0008177061	0.0007312544	0.00037032666	-0.0014343675	0.00011957823	0.00096757774	6.458989e-05	-0.00012184942	0.00013004536	0.00095683977	0.000630117	-0.0009130236	0.0010682673	0.0005638913	5.720101e-05	-0.0004574718	-0.0014861838	-0.00074629585	0.0013706124	-0.0005554895	-0.00046971938	0.0011710011	-0.001526128	-0.00031479922	0.00028795036	-0.0004892782	0.0006736004	-0.00089069427	-0.0012501781	0.0011799195	-0.00014753657	-0.0014234935	-0.0009286588	-0.0014910252	0.0004630152	-3.1209664e-05	-0.000772489	-0.00084774214	0.0010680977	0.0016345817	0.00032042502	0.00033071224	-0.00079282536	0.000286972	0.00027065293	0.0010201175	0.00085190166	0.001051953	-0.0008395353	0.0003026253	0.001501197	0.0015553096	0.0013195261	0.0013624958	-0.0004395976	0.0005022691	0.000633135	0.00012712168	0.0010315325	0.0009682652	-0.00041488564	-0.0015373618	-0.0013129099	0.0011847783	-9.928856e-05	-0.0011543805	0.0013449637	0.00012447628	-0.0011155192	0.0014811719	0.00014045704	0.0006975868	0.00012592357	-0.00022290813	-0.00042690494	0.0010411771	-0.0014465721	-0.0013572277	0.00080820604	-9.500365e-05	-0.00037912178	-0.00066884625	3.4334917e-05	0.0012842659	0.0014863542	0.001651869	0.0015192309	0.00015174615	0.0016194569	-0.00012664797	1.5414274e-07	-0.0013505496	-0.0014413351	-0.00027785433	0.0011600953	0.0013098557	8.0715094e-05	0.0016538147	0.0013119553	0.0011952312	0.0003272555	-0.0009853152	-0.00020462103	0.0010398173	-0.00081778516	0.0014244606	-0.00042842556	-0.00072485075	0.00044664502	-0.0007330758	-0.00076536083	-0.00072012446	-0.00085504673	8.9886526e-05	0.0010141277	-0.0011606719	0.0009775676	0.0002644623	-0.0012237285	-3.9750772e-05	0.00048936193	-0.0011726782	0.0013489075	-0.0011003251	-0.000102002676	-0.00094367133	0.0010834304	0.0011990881	-0.00057110196	0.00052886957	0.0005560502	0.0014062189	0.0011100796	9.3461524e-05	-0.0012507607	0.0005945349	-0.00021188808	-0.00021299401	-9.7309785e-05	-0.0011975472	-0.0011365089	0.0016236196	-0.0007152403	-0.0012438912	-0.001659898	-0.00024176894	-0.0010854326	0.0011988446	-0.0014719871	-0.0015756256	0.0007991219	0.00091050623	-0.00019789078	-0.0016373298	-0.0014675681	-0.0010820811	-0.00069913047	0.00070203684	0.0014729322	-0.0010286331	0.0010092707	-0.00024142223	0.0009515307	-0.00079203694	0.0014246637	0.0012322507	0.000452887	-0.0012172469	-0.0012822092	-0.0012254168	-0.00046947226	0.00044447492	-0.0011871299	0.0009163521
Biased random walk (biochemistry)_6	-0.0015283753	0.0006271886	-0.0011118585	-0.00015827335	0.00020749979	-4.0390783e-05	2.5891022e-05	-0.00041437367	-0.00033850607	-0.00036218882	-0.0008652097	0.0003458017	-0.00072635984	0.0011136442	-0.0010655356	-0.0011619922	-0.0014288217	0.0011000449	-0.0010773937	0.00080958003	-0.0013859333	-0.0012601006	0.0014535569	0.0010907424	-0.0010474053	0.0015707415	0.00039808432	-0.00023672298	0.0009678044	0.0004637361	0.0014681423	0.001448154	0.00018112319	-0.0012018203	0.0014238552	0.00037928138	0.0012336922	0.00033101026	-0.001172627	-0.00096518686	0.0011869915	0.0009511391	-0.00046757876	-0.00071500964	-0.00037748113	-0.000101338206	-0.00092421484	-0.0011432598	0.00039642002	-1.3699566e-05	0.0007360379	-0.0011100412	-0.0014060886	-0.001588259	-0.0013760722	0.00010042716	0.0014378893	0.00053024694	-0.00041217575	0.0014463126	-0.0003870677	0.00061991694	-0.00019711893	0.0016081946	0.0013877742	0.0006482102	-0.00048237835	-0.0015760976	-0.00010447362	-0.0014422004	0.0012023776	-0.0010607279	-0.0008318927	0.00023795066	0.001296638	-0.0014138526	-8.601243e-05	-0.0010754167	-0.00029490297	-0.00077994284	0.00059657736	-0.0013931844	-0.0013453105	0.00012722933	-0.00054073555	-0.00095137797	0.00062081724	-0.0012358382	0.00045673517	-0.0009026924	0.00021495053	0.0010998568	0.001410402	-9.297371e-06	0.00031597068	-0.00030185538	-0.0013150923	-0.0012217467	0.0015303604	0.0015787095	-0.00037363052	0.00017708779	0.00097270607	0.0005406071	-0.0016440797	0.00023866388	0.00024009997	0.0011264414	-0.0009095109	-0.0008517594	-0.00066190655	-0.0015384234	0.00086232147	-0.0010922623	-0.0013155385	0.0015674514	-0.00017299772	-0.0009607691	8.796159e-05	-3.282785e-05	0.0015584537	-0.0006554873	0.00071950234	0.00017831709	0.0011585589	0.0011661736	0.0008177061	0.0007312544	0.00037032666	-0.0014343675	0.00011957823	0.00096757774	6.458989e-05	-0.00012184942	0.00013004536	0.00095683977	0.000630117	-0.0009130236	0.0010682673	0.0005638913	5.720101e-05	-0.0004574718	-0.0014861838	-0.00074629585	0.0013706124	-0.0005554895	-0.00046971938	0.0011710011	-0.001526128	-0.00031479922	0.00028795036	-0.0004892782	0.0006736004	-0.00089069427	-0.0012501781	0.0011799195	-0.00014753657	-0.0014234935	-0.0009286588	-0.0014910252	0.0004630152	-3.1209664e-05	-0.000772489	-0.00084774214	0.0010680977	0.0016345817	0.00032042502	0.00033071224	-0.00079282536	0.000286972	0.00027065293	0.0010201175	0.00085190166	0.001051953	-0.0008395353	0.0003026253	0.001501197	0.0015553096	0.0013195261	0.0013624958	-0.0004395976	0.0005022691	0.000633135	0.00012712168	0.0010315325	0.0009682652	-0.00041488564	-0.0015373618	-0.0013129099	0.0011847783	-9.928856e-05	-0.0011543805	0.0013449637	0.00012447628	-0.0011155192	0.0014811719	0.00014045704	0.0006975868	0.00012592357	-0.00022290813	-0.00042690494	0.0010411771	-0.0014465721	-0.0013572277	0.00080820604	-9.500365e-05	-0.00037912178	-0.00066884625	3.4334917e-05	0.0012842659	0.0014863542	0.001651869	0.0015192309	0.00015174615	0.0016194569	-0.00012664797	1.5414274e-07	-0.0013505496	-0.0014413351	-0.00027785433	0.0011600953	0.0013098557	8.0715094e-05	0.0016538147	0.0013119553	0.0011952312	0.0003272555	-0.0009853152	-0.00020462103	0.0010398173	-0.00081778516	0.0014244606	-0.00042842556	-0.00072485075	0.00044664502	-0.0007330758	-0.00076536083	-0.00072012446	-0.00085504673	8.9886526e-05	0.0010141277	-0.0011606719	0.0009775676	0.0002644623	-0.0012237285	-3.9750772e-05	0.00048936193	-0.0011726782	0.0013489075	-0.0011003251	-0.000102002676	-0.00094367133	0.0010834304	0.0011990881	-0.00057110196	0.00052886957	0.0005560502	0.0014062189	0.0011100796	9.3461524e-05	-0.0012507607	0.0005945349	-0.00021188808	-0.00021299401	-9.7309785e-05	-0.0011975472	-0.0011365089	0.0016236196	-0.0007152403	-0.0012438912	-0.001659898	-0.00024176894	-0.0010854326	0.0011988446	-0.0014719871	-0.0015756256	0.0007991219	0.00091050623	-0.00019789078	-0.0016373298	-0.0014675681	-0.0010820811	-0.00069913047	0.00070203684	0.0014729322	-0.0010286331	0.0010092707	-0.00024142223	0.0009515307	-0.00079203694	0.0014246637	0.0012322507	0.000452887	-0.0012172469	-0.0012822092	-0.0012254168	-0.00046947226	0.00044447492	-0.0011871299	0.0009163521
Biased random walk (biochemistry)_7	-0.0004930062	-0.00089744845	0.00076610333	0.0015912876	0.00073641055	0.0015911151	0.0016130342	0.00014060126	-0.0010676701	0.001376552	-0.001408393	0.0014069406	0.000114288574	0.00078841875	-0.00029076758	-2.2779093e-05	-0.0016342441	0.0002771856	-0.00063404115	-0.0013305516	-0.0011594432	-0.0003894146	-0.00041612142	-0.0005811529	-0.00058129965	-0.00014988885	-0.0016444458	-0.001252923	-0.0006097129	-0.0008230372	-0.0007854261	0.00030720263	0.0009235878	-0.0002755167	-0.0006215633	-0.00045863897	-0.0016595045	0.000864496	0.0011602152	0.0013503232	-0.0010655861	-0.001202937	0.0010884183	0.00078102766	0.0012996563	-0.00029489936	-0.0007562656	-0.00042137998	-0.0005626351	0.0015220697	-0.00060580164	-2.5572623e-05	0.00025312256	-0.00031008475	-0.0015845051	-0.00079296145	0.0014767018	-0.00022911401	-0.00071372394	-0.0004348714	0.0006657206	0.0014219828	0.00075555034	-0.0006973563	-0.00013368201	-0.00046790534	-0.0002656291	-0.0014290403	-5.0784907e-05	0.00077092776	-0.0003557979	-0.0014315705	0.00064562686	0.0012658654	-0.00063301844	-0.00038492103	-0.0006153875	0.00056109583	0.0014410015	-0.00025153984	-0.0010161534	0.0008329398	0.0015197783	-0.00089231285	0.00028281848	0.00070059684	0.00081304286	5.322955e-05	-0.0015020998	0.00044784148	-0.0009552273	-0.0005268655	0.00058228546	-0.00059661985	0.00032233875	-0.0004593705	0.0012966546	0.0009882045	0.0010461813	0.0012847995	0.0001874986	-0.0005901299	-0.00066077564	-0.0008622764	-0.0012940433	-0.0014411843	0.00020231961	-0.00043167075	0.0010903435	-0.0011233268	-0.0015699642	0.00029509419	0.0013836266	-0.0006784844	0.0009847388	0.0005216136	0.0014762098	-0.00031598486	-0.0011085139	0.0008829564	0.00016147272	-0.0014510112	-0.00046028558	-5.135052e-05	9.942205e-05	-0.00018781103	0.0012852113	0.0008728015	-0.0010974599	0.00022720454	0.0007320166	0.00042557635	-0.00086780445	0.0003193595	0.0014438406	0.00097068754	-0.0014764576	-0.0014466688	0.0005610747	0.0007095649	0.0005523185	0.0010183535	-0.0015543676	-0.00037942315	0.0013456799	0.00020473274	0.00020982859	0.0011432979	-0.0013387642	-0.0012955561	0.0015000573	0.00064421236	-0.00083627127	0.0003731243	0.0012538977	-0.00036760248	-0.00042322927	0.0016041986	-0.0010518159	-0.0014308878	9.932534e-05	-7.2621435e-05	0.00055076723	-7.744339e-05	-0.0009937409	-0.0015051239	9.866837e-05	-0.0012480805	0.00022402448	0.0008744515	-0.00066348637	0.00092778134	-0.0015112906	-0.0013316474	-0.0007133563	0.00016866572	-0.00069523416	-0.0014617825	-0.0013870777	-0.0013406398	0.000952834	-0.0010580976	0.00038809684	0.0016432514	-0.0010115231	-0.00010637451	0.00045868766	0.0012226928	7.950601e-05	-0.0010412645	0.00085545186	-0.00037806437	0.0012202404	-0.00053426577	-0.00043494164	4.773228e-06	0.0007920689	-0.0014001146	0.0005979393	-0.0016461479	1.4046118e-06	0.0002833053	-0.00027721908	0.0014781243	0.0008408017	0.00019091732	-0.0005983001	-0.0014949985	0.0005662425	0.0013661127	-6.1414053e-06	-0.0011942446	-0.0002755479	-0.0014159698	-0.001586902	-0.0011097504	0.00046916312	-0.0015364436	-0.0011923257	0.00089358864	0.0007774458	0.00037425544	-0.0002666768	0.00063027214	0.0015975548	0.0011503976	-0.00088587374	0.0015426447	0.0008422954	-9.07605e-05	-0.001620986	-0.00077997724	-0.00028040743	-0.0014496569	0.00046065898	7.2667885e-05	0.0016136226	-0.0005672593	6.097113e-05	0.0005045662	0.0015205684	0.00067206204	-0.00057087035	0.0003180785	-0.0016319357	-0.0010928744	0.0009542978	-0.00057210505	-0.0011984394	0.0009310544	-0.0003575574	0.0001040607	0.00020112662	0.00014306155	-6.126971e-05	0.0014209804	-0.0016640531	0.00021027177	-0.0015012681	0.000831453	-0.0009068805	0.0014313315	0.00025759605	0.0002125324	0.0013287057	-0.00043214412	-0.0013651892	0.0011873083	0.001262134	0.00053496653	0.00016869802	-0.0008360035	0.00025898824	0.0013927054	-9.1714974e-05	-0.0006178745	-7.3462055e-05	-0.0007854688	0.00082917657	-0.000360534	0.0010596004	0.00011927698	-0.0014640964	-0.00031369258	-0.0013079987	0.0016624758	0.0008245807	-0.00079657004	-0.00037039208	0.001307296	0.0007777224	-0.0006502152	0.0011929135	0.0009540942	-0.0007662027	0.001282421	0.00017686865	-0.0006839672	0.001185068	-0.0010382254
Biased random walk (biochemistry)_8	-0.0005425395	-0.0006976493	-4.4173034e-05	0.00034165476	6.1791914e-05	0.00055065076	0.00042310444	0.000121186386	-0.00048613083	0.00039183183	-0.00064672576	0.00018533076	-0.00030691153	-4.34331e-05	-7.698838e-05	-0.0004257484	-0.00059501943	0.0001510999	-0.00036218317	0.0002787374	-0.001387712	-0.00016524491	0.00088924146	0.00025140078	-0.00027182844	0.00035773264	0.0002526996	-0.0007300707	5.8183126e-05	-0.00010925818	0.0006992687	4.3535503e-05	0.00012800744	-0.00043544942	0.00048813713	0.000263035	-0.0003769401	-0.0004268994	0.00034662808	0.0004534156	2.7501974e-05	-5.4780685e-06	0.0002136573	-0.0002500838	0.00043106393	-0.00039162295	-0.00090437004	-0.00066059304	0.00019189756	0.0009555692	0.00024594303	-0.00044706848	-0.0009255238	-0.00089737854	2.1746528e-05	-0.00017401575	0.0006556653	0.00057254086	-0.0006251584	0.0005313847	0.00057209574	0.000639088	-0.00015801155	1.624535e-05	0.00043533082	-0.00013214526	-0.00015537755	-0.0008328271	0.00014126908	0.00016839826	4.2553e-06	-0.0006197713	-0.00011519782	-0.00015518969	-0.00031567377	-0.00069351576	0.00023347638	-0.00023518028	0.00059856684	-0.00028780499	8.610649e-05	-5.9028203e-05	6.037054e-05	0.0003060837	-0.0006412434	-0.00037876572	2.6678317e-06	-0.0007339257	-0.0007345711	-0.00015844259	-0.00045248156	0.00017093818	0.00072653685	-0.0003040161	0.00016897768	-0.0002525832	-0.0006696965	6.562096e-05	0.0012225375	0.00022535352	-0.0005536279	-0.00016780796	0.00035956007	-0.00068512326	-0.0002682318	-0.00028593402	0.00031451968	0.00034206035	0.00025437516	-0.0005478771	-0.00015297679	-0.0002996034	0.0004021594	-0.0001342345	-0.00047633966	0.00060934003	0.0006789749	-0.00014565437	0.0002313392	-6.802182e-05	0.00048059106	-0.00089315005	-0.0002067351	-0.00063489215	0.00030463835	0.00030366206	0.00021879125	0.0010180406	-0.00017189179	-0.00015889919	0.000171781	1.8153842e-06	-0.00063595397	-0.00030564517	0.00042753606	7.6816126e-05	-0.00021586407	-4.795307e-05	0.00042108	0.00029595607	0.000538833	-0.00063639024	-0.0013248171	-0.00090062874	0.00083997194	-0.000103825034	6.720361e-05	-1.921659e-05	-0.00090724515	-0.00024303953	0.0009688696	-2.13795e-05	-0.00023485035	-0.0006727081	-0.0004740705	-0.00023012434	8.118694e-05	-0.00017736132	-0.0006872006	-0.00067877315	7.040275e-05	0.0004331597	0.00029984355	3.0299703e-05	0.00016204178	-0.00021799706	1.1600907e-05	-0.0006014506	-0.000252339	0.0004921436	0.00043816137	0.00051310885	-0.00017303482	-0.00024412276	-0.00019722324	-0.00049261726	4.576717e-05	0.00039032722	0.00010484078	-5.8201287e-05	7.7546836e-05	-0.00026302386	-0.00017302713	0.00037772994	-8.478033e-05	-3.2509182e-05	0.00025394972	0.00035691058	-0.00022998732	6.721624e-05	0.0002666267	-0.00054512016	0.0013013285	-0.00075615017	-0.0005044026	0.00015346515	0.00057157094	-0.00041584345	-0.00024641457	-0.00049074227	0.00018203593	0.0003854037	-0.00018824817	-4.2542466e-05	0.0007989921	5.723392e-06	-0.0004532084	-0.0004850466	0.00034899515	0.0005264343	-0.00015497868	0.0005250273	0.0008362459	-0.00069177174	0.00014021897	-0.0008389355	0.00065686007	-0.0008022727	-0.00036021383	-0.00022856172	0.00026536046	0.00081455783	-0.0003028221	0.0012112171	0.0013520111	0.0008996656	-0.00014094685	0.00032103952	0.00034157134	3.3402524e-05	-0.00066933467	6.56466e-05	-0.0006276068	-0.0006090761	9.2564915e-05	-1.4311721e-05	0.0005769022	0.00012297594	-0.00038799492	-1.9497747e-05	0.0006412802	-7.719334e-05	0.000413282	-0.0003095999	-0.0014925909	-0.0006670703	0.00067506975	-0.00046745106	0.000111039495	-0.000100721474	0.00060296524	0.0005064401	5.2031355e-05	0.00042134174	-0.0004940109	0.000117986674	-0.00068550743	0.0009219097	-0.0002684262	0.00043079414	-0.0006975037	0.0005601818	-0.00045113396	-0.00048880436	0.0010749872	-0.00048996316	-0.00015947103	0.00065092294	-0.00032918988	-0.00041503448	-0.00027333313	-0.00038693956	-0.00068085396	0.00079204363	-0.00024360057	-0.000722424	-2.4734341e-05	8.6876884e-05	-0.00017898217	-0.00084090716	-0.0006101378	-0.0004902539	-0.00047118592	0.0004961997	5.831453e-05	-7.3938936e-05	0.00028739256	0.00015917032	-1.0807751e-05	0.0005219882	0.0010366834	0.0005414161	0.0008777119	-0.000216088	-0.00043089216	-0.00018513197	-3.1820724e-05	0.00019319227	-0.00011461356	4.298502e-05
