	0	1	2	3	4	5	6	7	8	9	10	11	12	13	14	15	16	17	18	19	20	21	22	23	24	25	26	27	28	29	30	31	32	33	34	35	36	37	38	39	40	41	42	43	44	45	46	47	48	49	50	51	52	53	54	55	56	57	58	59	60	61	62	63	64	65	66	67	68	69	70	71	72	73	74	75	76	77	78	79	80	81	82	83	84	85	86	87	88	89	90	91	92	93	94	95	96	97	98	99	100	101	102	103	104	105	106	107	108	109	110	111	112	113	114	115	116	117	118	119	120	121	122	123	124	125	126	127	128	129	130	131	132	133	134	135	136	137	138	139	140	141	142	143	144	145	146	147	148	149	150	151	152	153	154	155	156	157	158	159	160	161	162	163	164	165	166	167	168	169	170	171	172	173	174	175	176	177	178	179	180	181	182	183	184	185	186	187	188	189	190	191	192	193	194	195	196	197	198	199	200	201	202	203	204	205	206	207	208	209	210	211	212	213	214	215	216	217	218	219	220	221	222	223	224	225	226	227	228	229	230	231	232	233	234	235	236	237	238	239	240	241	242	243	244	245	246	247	248	249	250	251	252	253	254	255	256	257	258	259	260	261	262	263	264	265	266	267	268	269	270	271	272	273	274	275	276	277	278	279	280	281	282	283	284	285	286	287	288	289	290	291	292	293	294	295	296	297	298	299
Z-score_0	-0.00011504189	-0.00043163254	8.9544366e-05	-4.576319e-05	-6.999505e-05	0.00048925733	0.00018557032	0.00031791042	-6.296486e-05	0.00033630483	0.00026862934	0.00053517433	0.00019594212	5.9076778e-05	0.0003201162	0.00025259244	0.00045829779	-9.77012e-05	9.7533826e-05	-2.2534086e-05	0.00015839832	0.00027092628	0.00027999812	-0.00014132219	-0.0006713357	-0.00066500326	-0.0007077998	0.00039284042	8.802457e-05	7.168726e-07	-0.0005001704	-0.00015854923	-0.0002356907	0.00016576926	0.00021926145	-0.00010408959	1.2419238e-05	-8.069288e-05	-8.77983e-06	7.290503e-05	0.0001443832	-7.094104e-05	-0.00024076624	6.2172694e-05	-4.6228597e-05	-5.196608e-05	-0.0002009253	-0.00011064464	0.00036013275	3.9064467e-05	1.1664227e-05	-0.00022710643	-0.00070457696	-0.000528034	-0.00036371753	-0.00036174743	-0.00075686513	-0.0005041335	-0.00020379676	-6.201214e-05	5.2350068e-05	6.207437e-05	-0.0003896484	0.00014488203	0.00051733764	0.00038739055	-1.417575e-05	-0.0001695304	1.4521404e-05	-0.0005786205	0.0004037982	-0.0005522385	-0.00019634808	-0.00030213117	0.0002522549	0.00066239305	0.00023792061	-7.851017e-05	-0.0006057495	-0.0003617745	-5.0562816e-05	0.0005902422	0.00029158068	0.00023359463	0.0004189774	0.00021907821	0.00028814998	0.000121019715	3.768814e-05	0.00016983751	0.00012768895	0.00016505319	-4.985265e-05	9.585573e-05	-0.000137996	0.00026845917	0.00041531827	2.7159032e-05	-8.3103805e-05	0.00055512605	2.2332699e-05	-0.00021047116	0.00023636043	-0.00018133852	-0.00018888131	-0.00037311515	0.00038576988	-0.0007066996	4.5742243e-05	0.0004102477	0.00034071493	-1.4196541e-05	0.00047812785	-3.08561e-05	0.00038823884	0.00037793495	0.000557301	0.00012496514	4.5176905e-05	7.477844e-05	0.0005962117	-5.4022556e-05	8.17004e-05	0.00015304235	-0.00040123187	-0.0001488452	-0.00035131865	0.00021129874	-0.00044450298	5.0086343e-05	0.00019149572	0.00039250188	0.00041207572	3.1444335e-05	-0.00017354079	0.0007465256	0.0006502901	0.00027570766	0.00025920093	0.00023163733	0.00023966003	0.00018292804	1.7464394e-05	0.00018019346	-0.00038274523	0.00016180918	0.00014416256	-0.0002221997	-4.6184916e-05	4.0129118e-05	-0.00061439676	-6.2584215e-05	-0.0004023771	-0.00029137812	-0.0003233905	-6.0603707e-05	-0.00020815415	9.89375e-05	0.00030119863	0.00048806964	0.00021891286	0.00010556073	-0.00046447752	0.00021149134	-0.00032212466	-0.00014202819	0.00017060386	0.00054064754	-0.00011297555	0.00017475423	-0.00025561434	0.00019333497	-0.00021747283	-0.00014079206	-5.7961286e-05	-4.287712e-05	0.00029706347	-0.00023031587	-0.00070142426	-0.00011135264	-0.00039551593	0.00037642603	-0.00027338866	-0.00028254554	0.00037553642	-0.00047612848	-3.6512734e-05	-0.0003133287	-0.0002648137	0.00039553008	0.0007482557	0.0004788459	-0.0005064113	0.00053895457	-1.40534e-05	-0.00024145583	0.00034995878	-0.0006042096	-6.174682e-05	6.523617e-05	0.00012865613	-0.00055127224	-0.0002243644	2.0068064e-05	-0.00028424675	-0.00049016124	-0.0004232127	-0.0005339588	0.00022901368	0.00037509124	0.00038173448	-0.00023687471	-0.00034698244	0.00043643758	-3.3292836e-05	0.00010491822	-1.2205997e-05	0.0006891523	0.00014647153	-0.00023138133	-0.00072519295	-0.0001373937	6.4747845e-05	-4.367205e-05	-6.638873e-05	-6.561467e-05	0.00014757874	-0.0005236918	0.00037848882	0.0005667653	-1.6787393e-05	-0.0002557189	5.4891403e-05	-0.0006387872	-0.00012696203	4.744633e-05	0.0008849346	5.2177413e-05	0.00021848694	-0.00014365834	-0.0004424464	0.00034738964	-7.688833e-05	-0.00048334603	-0.0002502398	-0.0003953125	3.4705954e-05	0.00065500167	-0.0003002588	-0.0003875484	0.00041249918	-1.9993982e-05	0.0004945898	-0.00010974246	1.5417994e-05	-0.00010815324	4.5321143e-05	-0.00048183557	-0.000625306	0.00020927806	-9.01651e-05	0.00041161472	-0.00029120062	0.0001147136	0.0005186952	-0.00055455766	2.7440306e-05	-0.00020609096	0.000173371	0.00077053794	9.41591e-05	-0.00015954481	0.00036276586	-0.00019310514	-0.0003131095	-0.00044030463	-3.0938303e-05	-0.0004671911	-7.642743e-06	-0.0004741479	0.0001640342	-1.953497e-05	0.00017117982	0.00054308097	0.00047787433	0.0005038338	-0.00020072462	-0.00021191598	-0.00024557422	2.0727644e-05	2.6545436e-05	0.00061696686	-0.00037176002	8.439328e-05	-0.00044360964	-0.00015609089	-0.00052909297	-0.00011995606	0.00024822174	0.000756169
Z-score_1	-7.636837e-05	-3.1538548e-05	-0.00043003858	-0.00029124162	0.00041228218	0.00045315566	-0.0006073408	0.00033520244	5.9550337e-05	0.00051753287	0.00023597467	0.00039948223	0.00035427138	0.00049188046	0.00019673989	0.00048037668	0.00043669844	-0.0005563716	0.0001965277	-0.0004918569	0.0003004917	0.00058121583	0.00076751737	-0.00027142282	-0.0007014128	-0.00018391619	-0.00072587974	0.00031505787	-7.409505e-05	-0.00023911786	-0.0005422809	0.0003718015	-0.0002793157	0.0004032125	0.00011062171	0.00017557116	0.00050607027	-0.00025500095	0.00018353228	-0.00049744773	0.0001833233	-0.00015612555	-0.00023907967	5.0042174e-05	0.00014838175	-0.00016911657	-7.142905e-05	-6.7558736e-05	-4.1743282e-05	-0.00013251952	-9.2100614e-05	-0.00040325406	-0.0004228118	-0.00016732964	-0.000513133	-0.0002257138	-0.0009970489	9.55949e-05	-0.0003573721	-0.00023841356	0.00062982447	0.00034274097	-9.529642e-06	0.000106364285	0.00021466965	0.0005734825	0.00019701899	0.0004919291	0.00032176712	-0.0007161036	0.00028811896	-0.0009200796	0.00034309964	-0.00026963418	0.00014777307	0.0006484746	0.00040743183	0.00018632761	-0.00014771716	-0.00021598488	-0.0003684693	0.00038464303	0.0006119129	0.00027570984	0.0006211434	0.00020994977	0.00033881003	2.6243993e-05	0.00032508516	1.3597884e-05	-0.0002331604	0.0006810737	5.050117e-05	4.534406e-05	-0.00027795922	0.0006002515	0.00027417805	0.0002773941	0.0002404399	0.00086267164	0.00016325917	-7.336118e-05	0.00014554668	-0.000362655	8.350493e-06	-0.000466849	0.0005852467	-0.0008944354	-0.00026126928	-8.513249e-05	7.95509e-05	-0.00032911703	0.00069514976	3.0128722e-06	0.0002737019	0.000342698	0.0006778115	0.00015125409	0.00015737457	0.00015063814	0.00032002552	0.00046905168	2.942091e-05	0.00020077112	-0.00039546104	0.00012783956	-0.000525786	0.0005850084	-0.00055889087	-0.00012271124	6.750703e-05	-0.00015147502	0.0004790235	-0.0003244731	-0.00048885855	0.00088798016	0.00035442895	0.00037332816	0.0004123852	9.1334514e-05	8.655449e-05	0.00015028784	-0.00012373492	0.00034503016	-0.00014781723	0.00027238255	-6.5698754e-05	-0.0003628974	-0.00040947844	2.815829e-05	-0.00074428937	-5.5615885e-05	-0.00021788542	8.968779e-05	-0.00044235465	0.00027749065	5.1530908e-05	-0.00035570504	0.00049495813	0.00019768155	0.00050185877	-0.00010751093	-0.00044867632	7.035447e-05	-0.00038906612	0.00011191993	-0.00027964247	0.000259461	2.9793106e-05	0.00026039837	-0.0005138312	0.00011292686	-0.00067817373	-3.2296113e-05	-0.000374059	-0.00033699596	0.00046104085	-0.00028803587	-0.0008258229	-0.00017166027	-0.00065569126	0.00024854744	-0.0009628265	-0.00061012956	0.0005801785	-0.00045192824	0.0001819834	-0.0003698419	-0.00028820243	-6.6619745e-05	0.00081204425	0.00042709382	-0.00013977039	0.00040354166	-0.00035251697	6.32548e-05	0.00041852362	-0.00058331306	-5.2283583e-05	-0.0003405005	-0.00023282647	-0.0005619034	-0.00019633622	0.00010254077	5.9687445e-05	-0.00062114483	-0.00035025494	-0.0005729017	-9.3084054e-05	0.00025215128	0.00020507436	-0.0001630093	5.85264e-05	0.00014305761	0.00011142992	0.0007686415	7.356812e-05	0.0006808685	-0.00029264748	-0.00034890656	-0.00069050613	-0.00020109431	-0.00021376136	-0.000310625	-0.0002408243	0.0001985896	-0.00031098357	-0.0005900961	0.00067344867	0.0006050066	-0.00011451945	-0.0005678628	7.352778e-05	-0.0009022055	-0.0004704097	-0.00021461015	0.0008045328	0.0005840533	-7.08731e-05	-1.4498524e-05	-0.00048753936	-4.251609e-05	0.00023110009	4.6956615e-05	-0.00040304734	-7.741462e-05	0.00065278297	0.00050286914	-0.0002598223	-0.0007975416	0.00022272053	-9.8162374e-05	0.00024681934	-0.0003640257	0.0006877953	-8.865465e-05	-0.0003396901	-0.00015686516	-0.00057944143	0.00025418864	0.00010288504	0.00060675363	-0.00019233322	0.00028283996	0.0006938314	-0.0004550143	0.00042074587	-0.00038667512	0.00067928474	0.0009322894	3.0481322e-05	0.00017173057	0.00046016867	-0.0006205674	-0.00017584008	-0.0007558281	0.00035884703	-0.00061378634	-0.00039330457	-0.0009218136	-0.0004473929	-0.0005154739	0.00037255383	0.00047097643	0.0005463387	0.00065339415	-0.00032856592	-0.00014977594	-0.0003134043	-0.0004098319	3.9424303e-06	0.00044815382	-0.00053944456	-0.000453887	-0.0007065656	-8.362721e-05	-0.0005824255	5.490454e-05	-0.00039200505	0.00094886107
Z-score_2	0.0002669545	0.0001213905	-0.00070679636	-0.00037570854	0.0006948385	0.00029033623	-0.0009924168	0.00027614224	0.00024809447	0.0005695724	0.0002782091	0.0005046388	0.00058777473	0.0008379437	0.000326357	0.00078672613	0.00024039128	-0.0009323629	0.0005161547	-0.00077937	4.5538112e-05	0.0007541442	0.0009282565	-0.00016821153	-0.00071881566	-7.727795e-05	-0.0009524738	0.00056445994	0.00010803392	-0.0005066267	-0.00079037045	0.00048403288	-0.00028934734	0.000526783	0.00011236942	7.4037984e-05	0.00074640434	-0.0003841021	0.00058497855	-0.0005995165	-2.3073324e-06	-0.00031276632	-0.00040747251	-0.00026190982	0.00024962085	-0.00059650687	-8.0060294e-05	-0.00012432926	-4.295506e-05	-0.00040725156	6.2564795e-06	-0.0007011797	-0.00023491966	1.7251607e-05	-0.0007270459	-4.0505565e-05	-0.0009874463	0.000551304	-0.000683963	-0.0004003184	0.0010718838	0.0005617069	0.00015568029	-0.00026512603	0.00022058036	0.00074925245	0.00033730303	0.0008707963	0.0003455196	-0.0008175078	0.00027793166	-0.0010277518	0.00043986065	-2.2320814e-05	0.00018953336	0.00050513487	0.00028729145	0.0005850622	6.912858e-05	-1.760384e-05	-0.00059802004	0.00032548336	0.0010230074	0.00028253568	0.0007717901	9.052611e-06	0.0002131982	0.00024900536	0.00042997222	0.00016834524	-0.00032913347	0.0009398763	-0.00018011576	0.00016597314	-0.00020633305	0.0007447383	-8.043167e-05	0.0002710271	0.00056901295	0.0013559005	0.00026173264	-7.124474e-05	0.00022453087	-0.0006935583	6.722642e-05	-0.00034601972	0.0007524551	-0.0011895068	-0.00031848127	-0.0004475018	-5.790625e-05	-0.0006218974	0.0012925481	-0.00011917943	0.0003329677	0.00037653302	0.00075504143	-0.00016013651	0.000131146	0.00022087421	7.403114e-05	0.00075451424	-0.00016780861	0.00022003781	-0.00013178047	0.00021380384	-0.00060644455	0.00065797055	-0.0006675902	-0.00023908273	-5.499941e-05	-0.00036021566	0.00049565337	-0.00037550562	-0.0009191539	0.00087749184	0.0002737867	0.00051028334	0.0008418487	6.774444e-05	-1.139089e-05	0.0003214549	-0.00028114556	0.000529501	4.5345794e-05	0.00034516156	-9.4335184e-05	-0.00058171776	-0.0008542805	-4.944562e-05	-0.0010899077	0.00012278002	-8.0221025e-06	0.00026672744	-0.00028098337	0.0002536699	-8.476195e-06	-0.0006533827	0.0007890938	0.00014577496	0.0012445418	-0.00048442217	-0.00046204161	-9.381362e-06	-0.00023095845	0.00022094157	-0.0005329435	0.00014816062	0.00021945515	0.00051831355	-0.00055862055	0.00016272947	-0.00091997674	0.00013544895	-0.001006245	-0.0004990068	0.00030863602	3.6080164e-05	-0.00084806	-0.00015357112	-0.0010000766	0.00037840498	-0.0011289337	-0.0005191728	0.00051842275	-0.00045826138	0.00045339103	-0.00022024925	-0.00021538226	-0.0003010547	0.00069408934	0.00016897556	8.610621e-05	0.0007692262	-0.0007541238	0.000261126	0.00058300415	-0.00079047587	0.00024343938	-0.0007937991	-0.00036946344	-0.00081964076	-0.00021331938	0.00040590242	0.00045767846	-0.0006124347	-0.00033232794	-0.0009109997	-0.0003528533	0.00031284906	0.00028456337	-0.00038505692	0.00027249192	9.4688694e-05	-0.00014622674	0.0008849986	0.0003282332	0.00064918067	-0.0004944915	-0.00058131275	-0.0007031516	-0.00017167977	-0.00072231394	-0.00041261272	-0.00057818857	0.00043509505	-0.0008066232	-0.00057735277	0.00085081207	0.0008155098	-0.000113837166	-0.0007086056	0.00016743776	-0.001026453	-0.00055621384	-0.00037166718	0.00073664007	0.0011854756	-0.0003124393	0.00015346723	-0.00067240326	-0.00028792457	0.0005992047	0.0004135721	-0.00066302164	0.00036656274	0.0010366552	0.00025661508	-0.00047678652	-0.0012435943	0.00018312111	-0.00020056294	7.488371e-05	-0.00070942106	0.001027106	-0.00012001258	-0.00040384824	5.3220672e-05	-0.00045919407	0.00015456218	0.0005714467	0.0005712767	-2.224427e-05	0.00053839356	0.00083928724	-0.00048531164	0.000629582	-0.00070203625	0.0009241839	0.00078122644	-0.00010231297	1.1967398e-06	0.0004876156	-0.0011218603	-0.00019741863	-0.00086049805	0.00043402516	-0.00034235406	-0.00049144094	-0.000987481	-0.0008787499	-0.00085438555	0.000538886	0.0005821952	0.0005680788	0.0005556647	-0.00015651913	-0.0003428744	-0.00034565377	-0.00078171934	0.00013562628	0.00034299926	-0.000510203	-0.0008840808	-0.00060899445	-0.00016768584	-0.0008883099	0.00015320808	-0.000740513	0.001080988
Z-score_3	0.00024235636	-0.00073011185	-0.0005367019	-0.0016632337	-0.0001669285	0.0005663856	-0.00050939835	0.00090174994	2.173319e-06	-0.0015128081	-0.00022006183	0.00045476592	-4.062965e-06	-0.0015130851	0.0009783142	-0.0012361797	-0.00011145041	-0.0012763214	0.0011951181	-0.00021312476	-0.0012070142	-0.00026486718	-0.00071195967	-0.00086777506	-0.001642893	0.000478632	-0.0005048126	0.0011135367	-0.00023407362	0.0015190559	-0.00061976747	0.00064567593	0.00020201642	-0.0011268497	-1.8987088e-06	-0.0014522882	-8.325866e-05	-0.0006427437	-0.00033885502	0.0005154755	0.0009556578	0.0009319581	0.000101558595	0.0002517559	0.0010391362	-0.00051674224	-0.0012492	-0.0011436563	0.0006428793	0.0010923122	8.221902e-05	0.0006121608	0.0016394589	-0.00024080963	0.00023463272	0.0011371541	0.00055372686	-0.00082542485	-0.00010963233	-0.00079753227	0.0015053402	-0.0009245981	-0.0006576376	0.0013726635	0.0004563717	-0.0011710658	0.00031887728	0.00088061526	-0.0010198905	0.00066623423	-0.00011588761	0.0009913744	-9.381088e-05	0.001392968	0.00050337735	5.232638e-05	-0.0015288204	-2.434984e-05	6.972108e-06	-0.00015751766	0.0014243949	0.0005954412	-0.00024648863	-0.0007320082	-0.00038123343	-0.00025370158	0.00039085213	-0.0008449322	-0.0014897747	0.0002012262	0.00043330985	-0.0005860984	0.0008865624	0.0010206095	6.382644e-05	-0.0005928245	-0.00053419423	-0.00041339008	-0.00014725694	-0.0003320058	-0.0011810252	0.0007390114	0.0005711535	0.00019045724	-0.0010871785	-0.0008068761	3.9705476e-05	0.0015618204	-0.0012921998	0.001307461	-0.0014671794	-0.0012410291	0.00016592303	0.00037579224	0.001482751	0.000515685	-0.0013724383	-2.9586769e-05	-0.00010220602	-0.001238874	0.00046967648	0.0009617647	-0.00151343	-0.0009989619	-0.0008128618	0.00024659044	-0.00084029476	0.0016045558	0.00028308496	-0.0008492064	-0.001496625	-0.00059561594	0.0009361934	0.00092699437	3.0577106e-05	-0.001177983	-0.001412631	-0.0013755108	-0.00016963041	-0.0015763951	-0.0014653519	-0.00037897116	-0.0002290336	-0.0012483606	0.00052184216	-0.00014718856	-0.00041015557	-5.6507022e-05	-0.0005111246	0.00041322006	0.0012471322	-0.00160885	-1.2628932e-05	0.001470797	-0.0010007635	0.00039608232	-0.0010258257	-0.0013964709	4.6103218e-05	-3.7477206e-05	-0.0012384913	0.0011794318	0.0010379707	-0.001022205	-0.0015096052	-0.00051316456	-3.4886678e-05	-0.0012764323	0.0012278648	-0.00027280036	-0.0008038718	0.0016522774	0.0012409493	0.0006578972	0.00090275024	0.0001761417	-0.0006139428	0.001105622	0.0014975939	-0.0012696612	0.0010386746	0.00024308256	-0.0002737924	-0.00016398958	-0.000187619	0.00049661915	0.0014192176	0.00040426763	-0.00043107828	0.0015642124	0.001044229	-0.00038025997	0.00029925528	0.00096265844	0.001061017	-0.0012420628	-0.0011740731	-0.0015562461	-7.164717e-05	-0.0015703132	0.0011903221	0.0011468083	0.001604923	-0.00028124894	-5.1170623e-06	-0.0011285989	-0.00019191629	-0.0003994825	0.0014041105	0.00019306933	-0.0009368229	-0.00062318734	-9.744631e-05	-0.0007387333	-0.001386929	0.00039071238	-0.00022723411	0.00061147864	-0.0013884498	-0.0006365198	-0.0009090457	0.00027394664	-0.00012464152	-0.0011077713	-0.00082619704	-0.0011649554	-0.0010672931	-0.00075876294	0.0011104657	0.0016014269	0.00022026798	-0.00020367453	-0.0004794246	0.0013701188	0.00039440574	0.0010022349	0.0009924182	-0.000915786	-0.001168314	-0.0014504109	-0.0016094772	-0.00047267627	2.3685921e-05	-0.0006165858	0.00083044334	0.00022506466	-0.0002529175	0.00090371846	-0.00021064082	-0.0006083274	-0.0015685761	0.0012173882	-0.0015199388	0.00048163746	-0.0002322424	-5.30356e-05	-0.0014317707	-0.0009826525	-0.00028071593	0.0010164074	-0.00037247266	0.0016010416	0.0014210948	0.0016558281	0.0005452366	0.000116420364	0.001255478	-0.00010816243	0.0011799354	-0.000114700175	-0.00018556276	-0.0014714088	0.0003728302	0.0007627569	-0.0010304729	0.0013394111	0.00033497548	0.00072837964	-0.00061367505	-8.942458e-05	0.0013008673	0.0011878025	0.0008884221	0.00011323417	0.0009989457	-0.00020752633	-0.0016275923	-0.00061377493	-0.00011020001	0.0007544281	-0.0009014067	0.0013361998	-0.00083609874	0.00055528345	-0.001539655	-0.0005598849	-0.00063617225	0.00049047347	0.00020298165	-0.0004304063
Z-score_4	4.931185e-05	-0.00016457184	3.195853e-05	-0.0009822417	0.00033101687	-0.00017205554	-0.00056982244	8.7155284e-05	3.9347673e-05	6.931883e-05	-0.00031252854	-1.5527892e-05	9.186143e-05	-0.0007072538	0.00022747974	-0.00014209331	0.00055421964	-1.0538746e-05	-5.764359e-05	0.0009867949	-0.000714863	-0.00013938728	-7.591375e-05	0.0003736708	-0.0003658948	0.00025122147	2.4925617e-05	0.0005889743	4.372992e-05	0.0007077229	0.0008737741	-0.00014906311	7.979273e-06	-0.00060920714	8.031534e-05	-0.0002072371	-0.00029501115	-0.00033310294	-9.0673675e-05	0.0009306088	-0.00020007948	0.00040305173	9.452318e-05	-0.00032680138	-9.9778226e-05	-0.00021042595	-0.00040861074	4.3073203e-05	0.0006829927	0.00041179013	0.00033186353	-7.905184e-05	-0.00033827362	-0.00010908934	0.00060468394	0.00017873818	-0.00065279624	0.00018856072	0.00026803237	-7.763351e-06	0.0005526407	-4.0481806e-05	-0.0005019147	0.00023321739	0.00039905825	-0.00021677073	0.00024306169	0.00017178895	-0.00040112316	0.0005782815	0.00011240719	-6.738472e-05	-0.00022681835	-0.00011494157	-0.00064263697	-0.0004027789	0.00052462757	-0.00021837791	-0.00038491897	-0.00018335416	0.0008691996	7.069359e-05	-0.00041410347	0.0002313476	5.1721017e-05	-0.00045472637	0.00037266136	-0.00024608726	2.142017e-05	-0.00021944444	-6.228836e-05	0.00018953544	2.1085169e-05	0.00012715418	-0.00035488405	-0.0005444422	-0.00021085372	0.00015117323	4.853696e-06	-0.0005323017	-0.0005456474	0.0005627512	6.406232e-05	-0.0005274948	1.6593757e-06	-0.00038446792	-6.3901745e-05	8.642577e-05	0.0005412673	-0.00019941854	-0.00070169807	4.497149e-05	0.00022303044	0.0007907874	-5.892245e-06	-0.00050604244	-1.7522407e-05	0.00053305953	0.0010036582	-0.00080321863	0.00048915326	-6.724084e-05	-0.00090367644	-0.00057537435	-0.00022891561	0.00019922717	-0.0005032546	0.00020115191	7.598199e-05	-0.00038836972	0.00034720817	-0.00035308278	1.315593e-06	0.00018689304	0.00015187022	-0.0005080997	0.00015354308	0.00018762365	-0.00013546336	0.00024196164	-0.00076852075	-0.00017470785	-0.00076982164	-0.00057806243	0.00010620425	6.856432e-05	-0.00025568323	-0.0007760831	-0.00016064476	-0.00016185066	2.2544908e-05	-0.00013437362	-0.0003851227	-0.0005015327	-0.00083505	-0.00047455533	8.573431e-05	-0.0002490354	-0.00011701441	0.00030382103	-0.00018714425	0.00094495673	0.0003042032	-0.0002984923	0.00017838403	-0.00057117495	-0.00047184978	-0.0002687224	-0.00021233458	-4.5726392e-05	0.0007770877	-0.00043987672	0.0007143188	0.00035128338	0.0001591847	-0.0003760583	0.0002873785	0.00071910827	0.0002614658	-0.00096592837	-0.000117778065	0.00017907124	-0.00010582166	-0.00012772242	0.00067159213	0.00031999985	0.00069753604	-0.0002322015	-0.00012297013	0.00036742218	0.00028844058	-0.00024146079	-0.00017321992	-0.00037286486	0.000751173	-9.16898e-05	0.00049334456	-0.0005332571	-0.00038213748	-0.00030879606	0.00032068096	-0.00036456247	-4.637762e-06	-0.00035352583	-5.364631e-05	8.891173e-05	0.0002623797	-0.0007706941	0.0008606302	-0.0004064267	-0.00025296776	0.0006375538	0.0006078177	-0.00026437014	2.004128e-05	-0.0006594675	0.00034894835	-0.000430638	0.00036443624	-0.00055992126	-0.0006859246	0.0005548157	0.00030392729	0.00030458174	-0.00033163925	-0.0004391275	-0.00026057314	-0.00041105392	0.00013645968	0.0003644526	-3.7910366e-05	4.1090774e-05	-0.00058407075	-0.00028398368	0.00018488792	0.0003251548	0.0006043475	-8.637611e-05	-0.00039779145	0.00023184883	-0.0004266188	-0.00029507972	-0.00034542053	-0.0007882048	-3.0629046e-05	-0.00030349547	7.708522e-05	0.0003544917	2.776315e-05	0.00016854618	-0.00041742172	0.0005611563	-0.00036518183	3.41512e-05	-0.0008343679	0.00012416134	-0.00029751	0.00025181845	-0.00057361234	0.0003698399	-0.0007650216	8.628705e-05	0.00028205157	0.00037272827	0.0005360377	-4.5249628e-05	0.00018825708	0.0002418053	-0.0004024768	0.0004084759	-0.000275519	-0.0003128283	-0.00021149374	0.0007074595	-0.00026984734	0.00021620048	-0.00080753356	4.2308322e-05	1.1721111e-06	-0.00061952806	0.00019773773	0.0004326327	0.00018114827	0.0003803836	0.00013948177	-8.874066e-05	-0.00051898527	9.369747e-05	0.00026310686	0.00047003795	-0.00015077088	3.9290724e-05	0.0002115455	-0.00034303605	-0.0010629145	-0.00026164713	-0.00030653764	0.00030415755	0.0006258038	0.0003503743
Z-score_5	-6.121466e-05	-0.0003584759	-0.0002517659	-0.0005719064	0.0006444474	0.000113330105	-0.00031504562	0.0002600737	0.00037211608	0.00036155255	9.7341646e-05	0.0003522542	0.0004912424	0.00019975664	0.00044467277	0.00028222642	0.0006844749	-0.0005109984	-1.8893074e-05	-0.00018925847	0.0002594904	-9.0621266e-05	0.00026747354	3.8948765e-05	-0.00044660456	-5.1566156e-05	-0.00047544346	0.00028543852	0.00020250525	-0.00017405665	-0.00015487184	0.00022351909	-0.00014248786	0.00032696043	0.0002640129	-0.00013864892	6.4788364e-05	-0.00036870415	0.000103383536	-0.00021485887	-9.752237e-05	-0.00014861037	-0.00032158187	-1.6213313e-05	0.00018439803	-0.00028035455	-0.00011871243	-0.00031067504	0.00014154256	0.000120508455	8.606568e-05	-0.00048552727	-0.00057167385	-0.00038940934	-0.0006789985	-0.0003485803	-0.0006867177	0.00042221445	-0.00041534734	-0.00026603177	0.00020998452	0.00029184503	0.00016184206	-0.00018457121	0.00024682257	0.0006293751	1.833203e-05	0.0007115042	0.000104971354	-0.0005070417	-0.00018305845	-0.00040784388	0.0004120065	-4.1828378e-05	-0.00020013997	0.0003799352	0.0005344684	0.00023903645	-0.00038654965	-0.0001531389	-0.00021960906	0.00027595423	0.0004659471	0.00034149934	0.0001810119	-5.2406103e-05	0.00033810438	7.994363e-05	-0.00010876745	-0.00015941047	-0.00034074928	0.0005253913	-0.0001751329	-0.00011378326	-0.00035334774	0.00031522004	6.3750394e-06	-0.00020583138	7.376493e-05	0.00063470134	-0.00015037126	0.00016755518	0.00014899584	-0.00033582875	0.00014114422	-0.00036123145	0.0002152965	-0.00074524124	-0.00012117082	3.6662866e-05	0.00015616734	-0.0003903086	0.0007559212	0.00015818264	0.00019761253	0.0002774816	0.00034014301	3.6789505e-05	0.00037756187	-0.00029657615	0.0004586585	0.00030617838	-0.00018131918	0.00027671238	-0.00046887976	-0.00014577444	-0.00036173762	0.0003047101	-0.0005011374	-0.00045709813	5.5699993e-06	-8.787683e-05	6.432315e-05	0.00013450539	-0.0001895471	0.0005376216	0.00035012298	0.00060564384	0.00011043207	3.948631e-05	5.509343e-05	2.5032368e-05	-0.00030559459	9.898369e-05	-0.00038578353	4.632991e-05	-0.00017362308	-0.00020899704	-0.00029026467	-0.0004828482	-0.0006237388	-8.0258375e-05	-0.00020927828	9.115951e-05	-0.000452858	-0.00044016045	0.00017525809	-0.0003329328	0.0004028516	0.00016434047	0.00050474395	0.00014358759	-0.00045942163	-0.0001050508	1.4580497e-06	-0.00011344342	-0.00018430507	-9.1706446e-05	5.872491e-05	-3.810047e-05	-9.150695e-05	0.00013323133	-0.00032723765	-0.00011267635	-0.00036959216	-0.00036640695	0.00035500695	0.0001110352	-0.0004973695	-0.00011764639	-0.00061691995	0.0003438054	-0.0004719296	-0.0005025619	0.00027894194	-0.0004697449	0.0001847943	5.5851575e-05	-0.00027793745	-5.5911176e-05	0.00039481348	0.00012409093	-7.532116e-05	0.00035084228	-2.2165024e-05	3.9699447e-05	0.00024066983	-0.0005781214	-0.00046229365	-0.00054305524	-0.0001385951	-0.00054349465	9.298182e-05	-6.5232794e-05	0.00017059964	-0.0005172861	-0.000379125	-0.000680704	-0.00025355484	4.303028e-05	0.0002212662	-2.3399993e-05	0.0001330866	6.49588e-05	-2.1122529e-05	0.00035579118	0.00020852033	0.00043847784	-0.00020718462	-0.00038852263	-0.00044974414	-0.00019576414	-0.00037733166	-0.00019993684	-0.00018497111	0.00014778014	-0.00010709348	-0.00027314437	0.00037427744	0.0006432252	-0.00010312427	-0.0004981991	3.2752294e-05	-0.00049978367	9.802994e-05	-0.00018489538	0.00051729364	0.0004419893	-0.00022541685	-9.835743e-05	-0.00015174769	-0.0002506024	0.00014812524	-0.00017758574	-0.00034922018	0.00020483306	0.0006394874	0.0004186533	-0.00048510285	-0.00037196162	0.00023689073	3.7732373e-06	0.00039417882	-0.00032158534	0.00023117558	-0.00016765232	-3.9233593e-05	6.017807e-06	-0.0004883266	0.00028826212	-0.0001702497	0.00057105615	2.7607237e-05	0.0001604175	0.0009641268	-0.0005298003	0.00041224045	-0.00043174165	0.00025132962	0.0004803017	-0.00023535283	2.9959979e-06	0.0003172753	-0.00042662234	0.00021415281	-0.00036327736	0.000107169704	-0.00046429128	0.00019342657	-0.000798577	8.8250716e-05	-0.00024946075	-6.968208e-06	0.00047316088	0.00043479583	0.000497613	-0.000555722	5.7838235e-05	-0.00042105795	-0.00022103988	0.00039093103	0.00020592098	-0.00012411723	-0.00046450272	-0.0002613126	-0.00012911638	-0.00050959975	0.000109282264	-8.6257634e-05	0.0006345069
Z-score_6	-0.0005519874	-0.00048101813	-0.00030182095	-7.0355105e-05	-4.561024e-06	-0.00023489619	0.00020684603	0.00020376309	-0.00029373498	-9.645743e-05	-0.00011223447	0.00043836338	1.6118118e-05	-0.00038556106	8.749478e-05	-0.00020994428	0.0006061844	-0.00014384043	-0.0004309464	0.0009513473	-2.464287e-05	-0.0003757829	0.00027862686	-0.00016301565	-0.00041626117	-0.0002037452	-0.00014870247	8.103002e-05	0.00016709397	0.0003154996	0.000149509	-9.496548e-05	-0.0006003475	-0.00033692166	0.0003064371	-0.00018229075	-0.00029118903	-0.00022326758	-9.0344955e-05	0.00037095547	-6.203635e-05	0.00067218376	0.00024356093	0.00018801686	-0.00011980993	-0.00036146762	0.00011802041	0.00056506513	0.00035072834	0.00050608686	0.00017575054	-0.00011463307	-0.00058438134	-0.00038264916	0.00018094559	-0.0002234593	-0.0007011891	-0.00030048296	0.00012346773	0.00010878741	0.00020642045	7.299087e-05	-0.00028701153	0.00021029766	0.00011268346	2.0186999e-05	-6.888809e-05	-0.00012667486	-0.000167655	0.00014979142	7.630325e-05	1.9065417e-05	-0.00015090908	-0.0002893573	-0.00034311006	-1.4797051e-05	0.00041902534	-0.0004099966	-0.00040040465	-7.381082e-05	0.00042222944	-6.0711405e-05	-0.00044108098	0.0005710039	-0.00019573714	0.0002966237	0.00053311535	0.00011132448	5.128591e-05	-2.9856747e-05	0.00010835466	0.00022250363	-0.0001709771	-0.0001425851	-6.84351e-05	-9.2885784e-05	7.576841e-05	-0.0001844327	-0.00019974307	-0.00042542617	-0.00049235066	0.0005517732	0.00037691157	-0.0002968493	0.00057170755	-0.00014156777	-0.00046558378	0.00018818033	0.000115157316	0.0002755759	0.000110240304	-2.9113355e-07	0.000117143274	0.00023166322	0.000366665	0.00028171967	-5.8339665e-05	9.7326745e-05	0.00057319127	-0.0007040177	0.0005793676	-0.0003294863	-0.00021815802	-0.0004945383	-0.0006051014	9.24113e-05	-0.00010266726	0.000113616086	-4.3799537e-05	-0.00014238585	0.00039762154	2.9391578e-05	2.5474355e-05	0.0001782664	0.00049816497	-0.00017860392	0.00018230063	0.0002596301	-0.0003893364	0.00046911286	1.6485828e-05	-0.00027238223	-0.00031059937	-0.00011549945	-0.000377848	-0.00028932042	-7.200713e-05	-0.0005002314	0.00026094058	0.00012702133	9.870417e-05	-0.000116001094	-0.00018670432	-0.0005825073	-0.00047043545	-0.00038897537	0.00044026726	2.6810956e-05	0.00014566415	0.0001442165	-0.0005557947	0.0004960362	0.00021472866	-0.00011162511	0.00021125679	-0.00080487295	-6.858039e-05	1.6757373e-05	5.7096153e-05	-0.00017540458	0.00024646756	0.0003506246	0.00066064193	0.0003149835	0.00037641637	-0.0005161451	0.00017047873	0.0004313323	0.000291444	-0.00058839895	0.00020074072	-6.262559e-05	-0.00021793075	-0.00060228293	0.00041092568	5.8720554e-05	0.0001077801	-7.5416996e-05	-0.0002387085	0.00056024804	1.21308785e-05	-0.00019801337	-0.00052613334	8.501036e-05	0.0004452406	0.00022525419	0.0002530216	-0.0005695716	-0.00065274496	-0.00014876784	0.0007095803	5.2312334e-05	5.8784542e-05	-0.00045427476	3.6776466e-05	0.00026722823	0.00010182972	-7.630932e-05	0.00017091428	-0.0005963435	0.00012974185	0.0002313884	0.00013300266	0.0001289721	0.00025698764	-0.00023105995	0.00027818728	0.000113006616	0.00026788	-0.00011912238	-0.0005484685	0.0004519359	0.00036295614	0.00019064097	-9.281347e-05	-0.00060381455	0.000254129	-0.00041431384	0.0003169072	0.00038515616	0.00015056085	-9.7481694e-05	-0.00048740106	-0.0001912166	9.310767e-06	0.00023659384	0.00063611136	7.208877e-05	2.6620373e-06	0.00018454161	-6.235419e-05	0.00017116318	-0.00046960602	-0.0008650787	-0.00021945412	-0.0005370364	0.00021141014	0.0007006177	0.0002956594	0.00031317445	-1.0657019e-05	-3.7294125e-05	-0.00028714375	0.0002680208	-0.00040226665	-9.320321e-06	-0.00022829804	0.00013716888	-0.0002702924	0.00027805398	-0.0007226124	0.00050637446	0.00013786905	0.0005380231	0.00061824365	-0.00041279744	0.0004838225	5.0694744e-05	0.00012561356	0.00052093616	-0.00036249115	0.00011185606	-0.0001494499	9.0967114e-05	0.00018851341	0.00020433658	-0.00038992704	-0.0002595327	9.85716e-05	-0.000303918	0.0003755631	0.0006989198	0.0001647208	0.00032929468	0.00054930785	7.322888e-05	-0.00067143276	4.584022e-05	0.00024830774	0.00038352303	0.00025442845	1.7593191e-05	-0.00031491564	9.687164e-05	-0.0007514467	0.00010827097	-2.6372865e-05	0.00015648796	0.0007865455	0.00063365954
Z-score_7	0.00014209448	-0.00073031464	-0.00024729414	-0.00018093281	0.00023755268	0.00013108795	0.00025051626	0.00036530523	0.0002396539	0.00029941642	3.108317e-05	4.2121213e-05	0.00020839395	5.0465835e-05	3.3231132e-05	0.00011081854	0.0005486045	0.00028580488	1.3588532e-05	0.00027562564	0.00036637875	0.0001816035	6.215678e-05	-0.00015183642	-0.00045878923	-0.0005077389	-0.0005747978	0.00024022693	-1.677556e-05	-0.00013656469	4.7633403e-06	-0.0002580239	0.00015505237	-0.00017576695	0.00033009876	-0.0003486723	-0.00011047353	-0.00010778457	-0.00025248277	-1.081401e-05	-5.5390592e-05	0.00011508609	1.1868908e-05	-2.577042e-05	-0.0002439652	5.5455843e-05	-9.656149e-05	-0.00036345818	0.0003992316	0.00020815441	0.00032027002	-0.0001040125	-0.0008666483	-0.0005495779	-0.00038413293	-0.0007885075	-0.00077223533	-0.0006790613	-0.00010690256	-7.228086e-05	-0.0005192784	0.0002532581	-0.000450757	0.00029462427	0.0003958744	0.00035207585	0.00020777041	-0.00032034138	-4.693801e-05	-0.0008081674	0.00021593044	-0.0005569715	-0.00011095859	-0.00017207571	0.00024497104	0.000532007	0.00023831663	-0.00033166277	-0.0004265371	-0.00028661554	-8.1673745e-05	0.00042635595	0.00035611112	-0.0002671644	0.00038169348	2.5597194e-05	0.00043630463	-8.080503e-05	-4.6033944e-07	0.000106718224	0.00013170297	-0.00016891443	-0.00041313158	0.00030047912	-0.00014412582	0.00035623254	0.0005415128	9.796815e-05	-1.19788665e-05	0.00020778865	0.0002766473	0.00024300361	0.00028817743	-0.00018550619	-0.00022659767	-0.0006329157	5.0997653e-05	-0.00063946017	0.00011874146	0.0005836372	0.00013827396	7.387082e-05	0.00022881242	3.0243727e-05	0.00013119778	4.1795785e-05	0.000490398	-8.32762e-06	0.00039857984	-0.00037758605	0.0004316364	-0.0005087838	1.8382167e-05	-7.1389644e-05	-0.00037599183	7.044419e-05	-0.0002057183	-0.00020910859	-7.874185e-05	0.00012201146	0.00050453434	0.00053364	0.00022862352	0.00023322094	0.00030016163	0.0008045388	0.00039165566	0.0002656711	3.373331e-05	0.00023432716	-7.5031596e-05	-0.00013508859	-0.00022080101	0.00042013108	-0.0004855322	2.3631907e-05	-1.9975414e-05	-0.00023146615	-5.933914e-05	-0.00015408092	-0.0003556089	0.00022673773	-0.0008081592	-0.00030229456	-0.00036229208	9.387275e-05	-0.00032368963	0.00037702898	0.00026992516	5.4610577e-05	-5.0078197e-05	8.751256e-05	-9.7942866e-05	1.7685483e-05	-0.00022948683	-0.00038789367	-0.00013266328	0.0003508301	-0.0002808378	0.00032776003	0.00022122124	0.0004220869	0.00030136123	-0.0002523178	0.00013954229	0.00041176562	0.00020738099	-0.00026526276	-0.0008295754	-0.00034515484	-0.00022913185	0.00038849734	-4.754107e-05	-2.5228219e-05	0.00040803308	-0.00025597768	-0.000105974796	-0.00024158627	-0.00014216432	0.00036911122	0.0006093907	0.00038119245	-0.000588348	0.00016659564	5.104599e-05	-7.545356e-05	0.000111234156	-0.0005509401	-0.00017153223	0.00021468065	0.00010300173	-0.0004364545	-0.00022205237	-3.461375e-05	-0.0006372874	-0.00039543098	3.028466e-05	-0.0006165485	0.00013664296	0.00024024582	0.00013629886	-0.00040965548	-0.00019326851	9.4308074e-05	0.00027401643	0.0002448544	-2.5401507e-05	0.0004646037	0.0002661586	5.604716e-05	-0.00070987653	-0.00026594274	-3.4182838e-05	-0.00010629848	0.00012749997	-6.339895e-06	0.00030159298	-0.00047718285	0.00041416165	0.000726513	3.8555468e-06	-0.0002498414	0.00019451624	-0.0009463337	-0.00027511484	-0.00011543507	0.0009897465	-0.00019993926	3.5252993e-05	1.4818752e-05	-0.00033245212	0.0002717445	-1.3809094e-05	-0.0005188811	0.00022509901	-0.00022944293	0.00031823324	0.00037076997	-7.492948e-05	0.00013658145	0.00033200387	0.00032757083	0.00057040993	7.861817e-05	-0.00030487994	-0.00034154768	-0.0003025171	-0.00070385664	-0.0004678844	-2.821355e-05	-0.0005033352	0.0003909261	-0.00014909236	2.8221843e-05	0.00035786847	-0.0008762044	0.0002614853	-5.2521464e-05	0.00014782754	0.00051957706	-0.00014461401	0.00021148627	6.870821e-05	7.235178e-05	-0.00013262112	-0.00033792437	-0.00027309512	-0.0005844825	0.00022121161	-0.0003002956	0.00035439196	0.00025557523	0.0004143385	-8.3129315e-05	0.00028646018	0.00043816218	-0.00029727924	-0.00012606305	0.00013846994	-0.00012491524	-0.0003459567	0.00051916164	-2.8955701e-05	7.169164e-05	-0.0003363758	-0.00010053667	-0.00044347433	-0.00011007282	0.00036993934	0.00046729794
Z-score_8	0.00024665782	-0.00015482059	6.761688e-05	-0.0005054434	0.00046769803	0.00035693316	8.996855e-05	0.00018590229	-0.0002142151	2.7507074e-05	0.00036573637	0.00055133767	0.00011936607	-0.00016047005	2.9991403e-05	-1.9082374e-05	0.00037510187	7.931364e-06	-0.00015391741	-0.0003640205	-0.00030857805	0.0005077447	0.00023596689	3.625958e-05	-0.00051081355	-0.00021803561	-0.000119632874	6.834213e-05	0.00011713113	6.667149e-05	-0.00034328562	-0.00027134275	0.00017332044	0.0003132395	0.0002562666	0.00020255665	0.0003348326	-0.0003239576	-3.8529957e-05	0.00015627075	0.0002990233	-0.0002869236	-2.4916379e-05	4.0703966e-05	-0.00013633011	-6.940981e-05	-0.00016074287	-7.844581e-05	-0.00011483445	-0.00015166008	3.912199e-05	-0.0002861454	-0.00037660915	-0.00041107208	-0.0002403887	-0.00069363817	-0.00019498084	-0.0002401568	-0.00030416905	-0.0001452549	-0.00020727757	0.0003511442	8.342259e-05	0.0004154492	0.00021643468	2.936235e-05	0.0002995898	5.78474e-05	0.0002575156	-5.101583e-05	-0.00010379132	-0.00028427306	-3.3114175e-05	-0.0005102057	0.00020031988	0.00034972458	0.0003532255	2.2800026e-05	-0.00022395806	-0.00048031786	-2.1896121e-05	8.012311e-05	0.0005130552	0.0002646541	-9.268547e-05	-0.0002801538	0.00064627494	-0.00015518787	-0.00015530968	6.050483e-05	5.8222646e-05	0.00021112685	0.00028629173	0.00015019864	-0.00043886495	7.753608e-05	0.0004182103	0.0002278236	-0.0003601936	2.7855816e-05	-9.271948e-05	8.770721e-05	-9.5255185e-05	7.031522e-05	0.00036396232	-0.00016384524	0.00020816973	-0.0003062039	-0.00021347817	0.00037027866	-0.00015481614	0.0001351557	0.0002472362	-6.6268985e-05	0.000332987	-8.445692e-05	0.0002955535	-1.3468097e-05	-4.2060452e-05	-0.000102806705	0.00036069783	0.00018839116	3.3039196e-05	0.00028176457	-0.0005666489	-3.2387132e-07	-0.00054580165	0.0004266938	-0.00033324916	-0.00048141522	-0.00022914822	0.00026306708	0.00017307834	-0.0001837907	-0.00024732068	0.00048993796	0.00059460395	0.00021331986	0.00038677122	-7.115401e-05	-0.00013683984	7.540192e-05	1.8268824e-05	0.00032407822	-0.0002154613	5.594463e-05	3.2933527e-05	-0.0001746187	-0.00016472186	-5.0729446e-05	-0.00014628228	-0.00029323323	-0.00028754817	-0.00036897155	-0.0008564764	0.00016681971	5.011824e-05	9.680489e-05	-0.00016717357	0.0003394596	-0.00028728854	0.0003090982	-0.0001252747	0.00045870885	-8.879875e-05	7.906002e-05	0.00020274405	0.00028392754	0.00017677271	-0.00022610446	0.00011629305	0.00032396018	-0.00028210558	-0.00027278005	0.0003753683	5.7089946e-05	-5.95042e-05	-0.0005844979	-7.3040326e-05	7.873718e-05	-0.0005404223	0.00015420496	-0.0007243995	-3.4506353e-05	0.00043152116	-0.00027654012	-0.00012280286	-8.31048e-05	-3.1651182e-06	-2.3304565e-05	0.00036241807	0.00019626514	-5.9889615e-05	8.016254e-05	-0.00031318824	0.0003235885	1.6436385e-05	-0.00038790508	-0.00037538668	-0.00017425595	-1.4252922e-06	-0.00037975478	-0.00066300115	0.00019107612	-0.00032243764	-0.00029680727	-0.00046228676	-0.000438912	0.00038995006	-7.214271e-05	-6.550464e-05	0.00010841655	2.6129484e-05	0.00038924342	0.00029311274	0.00046962977	0.0002068488	0.00068492506	0.00012615244	-9.317465e-05	-0.00046055732	-0.0002855699	-0.00030010787	-0.00016037936	0.00052315946	0.00020514842	0.00013954705	-0.00027770814	8.998366e-05	3.976195e-05	-0.00017239783	-0.00044647258	-0.00020088787	-0.0003326905	-0.00011294284	-0.0002878558	0.0006148201	-0.00016089279	-6.401647e-05	9.7148084e-05	0.00014623291	0.00022831534	-0.0005453281	-0.0005865943	-0.0004128331	0.00027027994	6.220411e-05	0.00022826872	8.220744e-05	-0.00056717696	0.00012909167	-0.00018079836	5.4353127e-06	-0.00032470087	0.00032001743	-0.00017256495	1.1064671e-05	-0.00038254372	-0.00054549746	-7.484401e-05	-0.000484483	0.0005694654	-0.00013747325	-0.00030388738	0.0003828513	-0.0005631738	-0.00040927852	1.8254614e-05	0.00038996458	0.00067468727	-1.6258573e-05	-1.445204e-06	0.00024068754	-0.0003261253	-0.00036018447	-0.00047071397	-9.6255666e-05	-0.0006156878	0.00029765794	-0.00033198463	-0.00010542795	-0.00019409458	-6.338244e-05	2.699421e-06	0.00084458274	0.00035051917	6.506126e-05	0.00011227941	2.0469108e-05	-6.134025e-05	-0.00037737557	0.00012250149	-0.0005801433	-0.000106681095	-3.192145e-06	-0.0005514711	-0.000775705	-5.9920883e-05	-5.2261898e-05	0.000493148
Z-score_9	-0.00017230475	-0.0002633456	0.00014089713	-0.00029860294	0.00030286796	0.0004330306	-8.659343e-05	0.00013838819	-0.0001441553	-9.361484e-06	0.00031207677	0.00021160304	0.0003086789	3.1732443e-06	0.0002782337	9.2125665e-05	0.0005696811	-0.00014276366	3.3365748e-05	-0.00028529312	0.00027175617	0.00032533656	0.00027702676	5.6154193e-05	-0.00061379443	-0.00028295204	-0.00046138925	0.00033628152	9.399296e-05	4.56608e-05	-0.00023535719	-5.5652676e-05	0.00023299785	0.00039828196	-2.3941639e-06	-7.8036755e-05	0.00023642913	-4.8741542e-05	-0.00031217586	-3.177602e-05	0.00020187403	-7.373309e-05	-0.0001665902	6.2733445e-05	5.3707183e-05	3.0954492e-05	-0.00034031257	-0.00021024676	5.7100595e-05	-0.0002083236	-0.00022773448	-0.00023818246	-0.00051278697	-0.00015957755	-0.00045534794	-0.00024917445	-0.00064015086	-0.00038735365	-0.00019120521	-4.1034367e-05	7.125053e-05	-6.431354e-05	-3.6685164e-05	0.0001240478	9.9468736e-05	0.00024191187	0.00023437788	4.5225912e-05	9.101162e-05	-0.00027526898	5.2509284e-05	-0.00044051834	0.00010394674	-0.00013016007	9.924786e-05	0.00059805624	0.00038310638	-7.589867e-06	-0.00032724132	-0.00038213862	-2.4023258e-05	0.0002341269	0.0005446266	0.00026501244	0.00016151302	-0.00017005864	0.00053339323	-2.8265147e-06	-0.0001559069	2.1887874e-05	-8.448622e-05	0.0002892034	0.00019959804	4.876678e-05	-2.9755278e-05	0.000314187	0.00026582723	-2.1754862e-05	-0.00017943836	0.00020800257	-2.9237663e-05	-1.1948085e-06	0.00018167606	-6.942525e-05	-9.616636e-05	-0.0002846787	0.00021012277	-0.00050972414	-0.00023982301	0.0003514175	8.541979e-06	-0.00014620609	0.00013805785	0.00010703313	0.000382926	0.00020295981	0.00032115445	0.00027627248	8.6710716e-05	-0.00021538312	0.00052870123	0.0001448409	7.6058896e-05	0.00028685032	-0.0006106042	-4.0125797e-05	-0.00034886584	0.00031972502	-0.00031825627	-0.00032532986	6.712813e-05	-3.780378e-05	0.00031243588	-0.00031240933	-0.00013058167	0.00047137804	0.0004248345	0.00019713069	0.00026359354	-4.1935484e-05	-0.000107757325	0.00012608207	-3.4988723e-05	0.00015554369	-0.00018792275	0.00018382585	3.518469e-05	-8.354062e-05	-0.00019629845	-1.4452449e-05	-0.00045787374	-3.4464723e-05	-0.00023853494	-0.00019829508	-0.0004976295	0.00016318008	-0.000116721196	1.8118717e-05	1.632014e-05	0.0003156221	-3.5372777e-05	0.00029901837	-0.0003766035	0.00025178402	-0.0002803584	-0.00023512203	0.00013096342	0.00013767931	0.00017495957	-0.00014083929	-0.0002006315	-3.9604543e-05	-0.00014273591	-0.0002134024	9.023879e-05	-0.00016054869	0.00036202167	-0.00047780035	-0.00029733198	-7.2347415e-05	-0.00033728624	0.0002873594	-0.00038558588	-0.0003676362	0.00018553568	-0.0004578837	-9.957889e-05	-0.00014386985	-0.00018831786	5.0436025e-05	0.0006402796	0.00030158332	-0.00035279582	9.7942044e-05	-0.00013813173	-9.3090726e-05	0.00023500847	-0.00043281648	-0.00038679357	-3.298849e-05	-0.00010649025	-0.0004169826	-0.00032914846	0.00018193683	-0.00024361446	-0.00038193824	-0.00018256869	-0.0004158433	0.00019885946	-3.2033553e-05	-5.0914492e-05	4.266797e-05	-5.374926e-05	0.00015660244	0.00016748425	0.00029156322	9.669169e-06	0.0003909579	-2.985881e-05	-0.00019574641	-0.00031532784	-0.00018693248	-2.2747497e-05	-0.00032381812	0.00027073282	2.001295e-05	0.00012954796	-0.00036451255	0.00038459178	0.00014392288	0.00013142305	-0.00041294887	1.1398733e-05	-0.00045624885	-0.00016880514	-0.00023554501	0.00053139497	-4.4951335e-05	5.9865804e-05	-3.953202e-05	-5.8836573e-05	4.3847594e-05	-0.0001614886	-0.0003564231	-0.0004980802	-1.8673412e-05	0.00023412525	0.00046118785	-0.00014398701	-0.0002686682	0.00030420913	1.9062749e-05	0.00042055253	2.4173843e-05	0.00022867927	-0.00013271986	-0.00022600149	-0.0002760304	-0.0006650956	3.7122965e-05	-0.0003045589	0.00046512423	-0.00026357317	-0.00010105631	0.00039843732	-0.00033348784	-5.219347e-06	-9.4436655e-05	0.00028695908	0.00065294496	4.2112006e-05	9.3689116e-05	0.0002506275	-0.00023483399	-0.00021148613	-0.00053775415	-8.483802e-05	-0.00058669137	0.0001387353	-0.0004694856	9.232768e-05	-0.00024656727	0.00020398128	0.0002335572	0.00047155193	0.00041600052	-0.00017723761	-8.139263e-06	-0.0004186911	-0.00014675767	-0.00013046377	0.00025967188	-0.00036784698	-0.00017148204	-0.00018792918	-0.00027030992	-0.00036671042	-0.00018513203	4.2233733e-06	0.0005600098
Z-score_10	0.000110599096	0.00010698652	0.00042548138	-0.00061965815	0.000378868	0.00014826274	-0.0007235732	0.000761083	0.00064767007	0.0003835116	0.00058660173	0.00021133176	0.0007336664	3.6680583e-05	-0.00013840685	0.00053317356	0.00024849706	6.2637075e-05	-0.00013976767	-0.00041789282	0.00033785932	0.00010415025	0.00040455535	1.4433451e-05	-0.0005957233	0.0005689302	-0.00037296506	-0.00014063448	-0.0002365838	-0.00028116856	0.00012667626	0.00035104787	-0.00065328286	0.00082187343	0.00016376718	2.4423038e-05	-0.00012190898	-0.00021429078	-0.00032950361	-0.0008767418	-0.00040960437	0.00015371072	-0.00015839699	-0.000500657	0.0002633396	-0.00014843857	0.00030255917	9.598669e-05	-0.00022780316	6.455592e-05	-0.00031747977	-0.00085814047	0.00017656428	-0.00018694212	-0.00045325916	-0.0004355426	-4.7368718e-05	0.0002898294	0.0001694522	-0.0004174901	1.5304331e-05	-0.00029720584	0.00042565475	7.5593205e-05	0.00024058293	0.0011182758	6.0284114e-05	0.00022090478	0.0003227884	-0.0009658661	0.00024992359	0.00018488141	0.00096936675	-5.5022952e-05	-0.000112804366	0.0006060252	0.00085819035	0.0006569547	-3.988894e-05	-0.00012100955	0.00015534123	7.7858196e-05	0.001024596	0.0002198678	0.00079768477	-0.0002347976	0.0004105988	-0.00031174973	0.00024121764	-0.000118263786	-0.0005524481	0.0007935384	0.00081795454	-0.00010636183	-0.0006539674	0.0011007648	8.049994e-05	0.00019233437	0.00047952877	0.0006234894	0.00068526017	0.0003958956	-0.00016252918	0.00019761149	0.0003562915	-0.00031482184	0.00046456867	-0.001064019	-6.863864e-05	0.00022472802	-0.00047424994	-0.0005122661	1.9032881e-05	-0.0007644735	0.00020060406	-0.00021905794	-6.8930836e-05	-1.36494755e-05	0.00014586709	0.0001842033	0.00040074284	0.000395877	0.00023146495	-3.065255e-05	-0.00041229682	0.00026422756	-0.00077576935	0.00028678752	-0.00025464984	0.0003763851	-0.00034352537	0.00021875903	0.0006129777	-0.00016964598	-0.0005281047	0.0002658895	0.0003687382	0.0005564223	0.00018469065	0.00023847008	0.0005366061	-0.00024325629	-0.0003863271	0.00040998883	-0.0001683924	-0.00013536568	0.00038949872	-0.00045295508	-0.0007021455	-0.00043119706	-0.00045303357	0.00064056704	0.00021912678	0.00019354996	-0.00057984976	-0.00015132823	0.00022164048	-0.00064447813	-0.00017362108	-0.0003544177	0.0012509448	0.00014984084	-0.0002553628	-0.00016143768	-2.2393138e-05	4.5662302e-05	-0.00012143802	-0.00020987967	0.00010290458	0.00045239186	-0.00017941966	0.0002858856	0.000113895185	-1.8664858e-05	-0.0004695869	-5.1604642e-05	2.6343134e-05	-0.00013848931	-0.00045141872	0.00053484883	-0.00059265795	0.00030837473	-0.0004720941	-0.00010844851	4.0925526e-05	-1.612301e-05	0.00018473528	0.000396703	-4.0273928e-05	-0.0003962168	0.0006037295	-5.6136654e-05	0.00050815765	0.0004351614	0.00040132523	0.00025597354	0.00045821437	-0.0005558031	0.00023631853	-0.00062008057	-0.0004559102	-0.00075535214	-0.00043945122	-0.0005798158	-0.00021146899	-0.00044397116	0.00022162609	-0.00041016666	9.700153e-05	-9.919125e-05	-0.0002651439	-1.6929069e-05	-0.00016102512	-0.00039761746	-0.00024075038	0.0011763418	0.00031507778	0.00028220782	-0.0009751314	-0.0007441759	-0.0002927032	-0.00011537298	-0.00054951187	6.3710126e-05	-0.00033070007	-0.00042090417	-7.9070574e-05	-0.00042045448	0.000689792	3.042008e-05	-2.3525277e-05	-0.0010209557	-9.949957e-05	-0.0011368013	-8.552054e-05	-0.0005911801	0.0008096147	0.000720417	0.00013968784	-0.00016481492	-3.708421e-05	0.000113037844	0.00030125253	0.0005698251	-0.00023882983	0.00022452962	0.0005862406	-0.0002072301	0.00026780172	-0.00052033004	2.6963997e-05	-0.0002844141	-0.0002955348	-0.0005893321	0.000111102054	0.00017990982	0.00028411727	-0.00026216294	-0.00044651207	0.00083418627	0.0003263666	0.00016120578	0.00015728106	0.00033092118	0.0006131131	-0.00041895016	0.00031011837	-0.00012867535	0.00028193355	0.0001388711	0.00011931984	0.0007512157	0.000647437	-0.0002046148	0.00021454743	3.7058926e-05	0.00044163736	-0.0003591106	8.217457e-05	-0.00012637496	-0.00016383843	-0.0001880113	0.00048943295	0.00057140493	0.0006737021	0.00025149673	-0.00016356396	-0.00015175603	-0.00019131284	-0.00028210296	0.000112335816	1.6471197e-06	-5.008796e-05	-0.00078540004	5.3331918e-05	-0.00046625044	-0.00031123264	0.00024660974	-0.00019026162	0.00040912008
Z-score_11	-5.4254415e-05	-0.00016187869	4.2029096e-06	-0.0003791006	0.00051417714	0.00030118375	-0.0003391081	0.00016588194	0.0005637916	0.0001508631	-2.6388416e-05	-0.00028368682	0.00022975121	0.0002131671	0.00010402264	7.62765e-05	0.00050425576	-0.0003466446	0.00023637767	-9.972437e-07	-8.0711165e-05	0.0002641969	0.00057453226	-0.00020416359	-0.00021249636	0.00022754862	4.4950906e-05	-3.76757e-05	0.00014412099	-0.00027650307	-3.188573e-05	0.00010007943	-0.00016650383	0.00012445192	0.00022512687	8.73302e-05	0.00017282838	-0.00057336857	-5.7863428e-05	-0.0003815962	-2.6865207e-05	-0.00021101594	-0.00015687078	-0.0003300191	0.00043423715	-0.00031339188	-0.00033368476	-0.00022480403	-1.7668312e-05	0.00039159413	-7.1683144e-06	-0.0006408991	-0.00060833886	-0.00038905433	-0.00019711594	-0.00016237386	-0.00023094902	0.0006446826	-0.0005554991	-6.888399e-05	0.0003186795	0.00023624279	0.00017829945	-6.3977524e-05	0.00025366273	0.0002496924	0.00019949111	0.00038936216	0.000183112	-0.0005771518	3.208944e-05	-0.00027424612	0.00020366696	-0.00022417147	8.297368e-05	4.5485863e-06	0.00077957223	7.854035e-05	7.713421e-05	5.3526004e-05	-0.00014702677	0.00019539958	0.00069706107	0.0005017201	0.00011930402	-0.00026532385	0.00018323946	-0.00019200181	-0.0002802557	5.80064e-05	-0.0003314375	0.00065116957	0.00034025294	-0.00020818024	-0.00022298413	0.00038332774	-4.037304e-05	6.730227e-05	0.0006066087	0.00040477718	0.00014889085	0.00016968798	0.00035733526	-0.0003626484	0.00044682395	-0.00016228082	0.00065989	-0.00057798735	-0.00015836595	-0.0002556517	-0.00013923207	-0.00018798836	0.00028261016	5.2955722e-05	1.01674605e-05	0.00015866374	0.0006221144	0.00011996737	0.00053465995	-0.00015507288	0.00022486961	0.00023718181	-0.00016095124	-0.0002724503	-0.00015286806	-0.00013882924	-0.00033220107	0.00041167668	-0.00033826364	-0.00018440685	-0.00014195817	-2.9149074e-05	-0.00023382762	-0.00017772379	-0.0003949006	0.00015544453	0.00026403522	0.00083640986	0.0003514516	0.00021212536	0.00040632344	-0.00035303124	-0.0005069956	-0.00011745858	-0.00018575895	-3.0520518e-05	-0.0001493999	-0.00040629573	-0.00048560885	-0.00015562885	-0.00019473651	7.0008806e-05	4.1231535e-05	-3.8210583e-05	-0.00060840964	-4.744104e-06	0.00039723757	-0.00044094984	-6.624399e-05	0.00021690318	0.00077920064	0.0002659251	2.5276937e-05	-2.4374134e-05	0.00015036469	-1.1694707e-05	-0.00034048595	-0.00027448268	-0.00024794159	0.00057328923	8.3855506e-05	0.00015187623	-0.0005197941	-0.00036775565	-0.00024588098	-0.00033824134	0.00026273518	-1.1019244e-05	-0.0005330244	-0.000118895325	-0.00053953554	0.00035637827	-0.0005485268	-0.00049224676	0.00021621636	-0.00029401833	3.0538737e-05	0.00025837243	-0.00028208355	-0.00015329802	0.0005171596	8.221661e-07	0.00048564412	-0.00025049504	-0.00014716193	0.00026650543	0.00023488316	-0.00048012869	-0.0002795426	6.023838e-05	-0.00034703893	-0.00037641267	-5.9332946e-05	-0.00018661527	9.3607465e-05	-0.0005362861	-0.00016586953	-0.0006444301	-8.474568e-05	-0.0002528544	-0.0002784205	6.595442e-05	0.00025841928	-0.00022926248	5.765038e-05	0.00018817981	0.0003539319	0.00015311607	-0.0002453729	-0.0005329367	-0.0003604566	0.00015515504	-0.0006496278	-6.9910726e-05	0.00016004145	0.00011539191	-0.00024634806	-0.00010718845	0.00032501575	0.00019741045	-1.0527657e-05	-0.0005733126	-0.00021651712	-0.00071450404	-5.993879e-05	-0.00028993233	0.0004119489	0.0005197332	-0.00016609661	-0.0002051453	-0.00032870373	-0.00010020083	0.0003722777	2.6370357e-05	-0.000787361	-0.00026735492	0.00047578744	0.000106589265	-0.00018658335	-0.0007015597	0.00051900756	0.00020669618	0.00019897064	-0.00033472085	0.0004430959	-0.00015168276	-0.00026982854	4.775965e-05	-0.0005267889	0.0003924686	-3.4005545e-05	0.00038309465	-7.928049e-05	-0.00032127413	0.0008001751	-0.00025198553	0.00017300554	-0.0001978731	-6.2318846e-05	0.000434519	1.7865403e-05	2.7093498e-05	0.0003320232	-0.00030128076	5.5244513e-05	-0.00050936034	5.436763e-05	-0.00046882467	-9.101286e-05	-0.00041921673	-1.2065298e-05	-0.000375534	0.00021259289	0.00054893433	0.00025286438	0.00031218186	-0.000328314	0.00032798143	-0.00022184142	-0.00016123767	0.0002736596	0.00060392043	0.00017283723	-0.00063104474	-0.00021722134	-0.0006471259	-0.0003829388	0.0002399311	-0.00012743816	0.00038400164
Z-score_12	-9.803178e-05	-0.00024067372	0.00038111318	-0.00034009165	0.00019245411	0.0005277423	-0.00035621694	0.00058749097	0.0003909702	0.00025306724	0.0003608041	0.00013568831	0.00032267862	-0.00016071701	0.00029593756	0.00031095897	0.0004521188	-0.00014332877	-1.5533442e-06	3.722825e-05	-7.482524e-05	0.00035717638	0.00046790714	-1.5208587e-06	-0.0005135155	1.4808884e-05	-0.00023109416	6.1533414e-05	5.698177e-05	2.2268398e-05	-7.5539065e-05	2.2734552e-05	-0.00031885382	0.0003293194	0.00017415773	7.8383804e-05	-0.00021769655	-0.00051024056	-0.00016393197	-0.00026462923	1.3679087e-05	-5.0695282e-05	-0.0001805118	-0.00014257434	0.00033806328	-8.100062e-05	-0.00040502602	-0.00018134424	0.00015327056	0.0002478637	-0.0001419671	-0.00052037707	-0.0004835709	-0.00040972917	-0.00017352	-0.00036432222	-0.0003839038	0.00012183843	-0.00014401178	-0.00032317947	0.00017723478	-0.00014402329	1.9449042e-05	0.000113956405	0.00033586958	0.00054913264	9.377383e-05	0.0002708687	0.00016249833	-0.0004840218	0.00017070159	-0.00018781157	0.0003467783	-0.00034904497	-9.043883e-05	0.00047192752	0.00060439523	0.00026409488	-0.00013689909	-0.000119637356	0.00017810061	0.0002463212	0.0006019651	0.0004228422	0.00040116208	-0.00022436392	0.00017344393	-0.00019873191	-2.5057372e-05	-2.8496057e-05	-0.00034572475	0.00054842193	0.0005721282	-0.0002015721	-0.00022476622	0.00053339987	0.0001783576	9.574509e-05	0.00040151732	0.00041685722	7.461986e-05	3.871632e-05	0.00026780466	-0.00018234512	8.96064e-05	-0.00026905703	0.00051786966	-0.00071757106	2.2744915e-05	0.0002187994	-7.957182e-05	-0.00015505141	0.00012332544	-1.6041067e-05	1.6925329e-05	0.00015903496	0.000440767	0.00027084915	0.00026703865	-2.7449547e-05	0.00042498764	0.00015327185	0.000117074036	-6.281468e-05	-0.00050053344	-0.000119517776	-0.000601458	0.0004346039	-0.0004150366	-4.034467e-05	-0.0001625879	-1.533942e-06	0.00024754746	-0.00015540776	-0.00042009001	0.0002690212	0.00043614057	0.0005067325	0.00010605717	0.00013464644	0.0003772401	-0.0002931501	-0.00031072844	-4.0175437e-05	-0.00025387167	6.722669e-05	0.00022780329	-0.0003646792	-0.00042185767	-0.00029290913	-0.00045436918	9.060283e-05	-0.00018594471	-0.00017924682	-0.0006271656	-0.00024309407	0.00019127564	-0.0003940201	-6.18913e-05	0.00012484723	0.00050464197	0.00029133138	-0.00027327388	9.257253e-05	-0.0001368936	3.1657924e-05	-0.00012657639	-2.2954595e-05	-6.0204698e-06	0.00033518567	-0.00014982765	0.00011479436	-0.00023802345	-0.00034021694	-0.00012431311	-0.00035022091	0.00025376442	-0.00028588038	-0.00042407506	0.00017270913	-0.0006139303	0.00030582165	-0.00053545466	-0.00031816366	0.00012417081	-0.00026625855	4.395086e-05	0.000102071026	-0.000105676714	4.1636602e-05	0.0006236195	0.00018316196	0.00024915676	5.1608324e-05	0.00023788011	-0.00011506836	0.0005450451	-0.00050799164	-0.00014367184	-0.00026217327	-0.00022799164	-0.00054820185	-0.00022767323	-0.00033252052	-0.000104476545	-0.00047571101	-0.00010763646	-0.00040787572	0.00025316182	0.000118133146	-0.00018092943	0.0001192605	2.9695822e-05	-0.00014908619	-0.000116842086	0.0003544619	0.00010906045	0.00047587554	-0.00031113724	-0.00039303003	-0.00036626201	-8.3615225e-05	-0.00035013977	2.235059e-05	0.00018298776	3.4402103e-05	0.00014464643	-0.00021156034	0.0004131119	0.00011320328	-0.00022275683	-0.00053873926	-0.00014514662	-0.00069124054	8.9021465e-05	-0.00018087517	0.00075400464	0.00037233793	0.0002406814	-0.0001748064	-0.00015800612	0.00010947418	0.00014594587	-8.472936e-05	-0.0005863745	-0.00015972063	0.00036833558	0.00017184143	2.331688e-05	-0.00060313096	0.00041111268	0.00021612222	0.00011582834	-0.00026037797	9.753885e-06	-8.117e-06	6.537437e-05	-4.5688746e-05	-0.0004336531	0.00043009297	5.0114326e-05	0.00019194832	-0.00018132037	-5.79284e-05	0.0007566273	-0.00035776946	8.5406005e-05	-8.13249e-05	-6.229125e-05	0.00026281053	0.0001602528	0.00019304166	0.00038828744	4.6553636e-05	-5.0436607e-05	-0.000402832	7.989485e-06	-0.00048940035	4.2107116e-05	-0.00042306556	-3.1195723e-05	-0.00022166272	0.0002530831	0.0006785837	0.0005463608	0.00026736074	-0.0001383936	0.00017726468	-0.00034176215	-2.963352e-06	0.00012176321	0.00039217077	7.5103875e-05	-0.000548557	-5.998174e-05	-0.00054854515	-0.0003603121	0.00016057788	-3.4667846e-05	0.0006340075
Z-score_13	0.00048513073	-0.0006463536	-0.0008106961	-0.0005384304	0.0008395898	-0.00040042182	-0.00029555053	0.00055356795	0.00016873248	0.00044961198	-0.000136031	-4.8388312e-05	0.0003072349	0.0002728443	7.188604e-05	0.0004707678	0.00028144632	-0.0004001294	-5.0490933e-05	-0.00016230703	0.000115824994	0.00019391252	0.00039970898	1.844914e-05	-0.0003001531	-0.00022058196	-8.7069384e-05	0.00023670444	-8.603488e-06	-0.0007151901	-5.9403817e-05	0.0006892993	0.00038455572	8.946785e-06	2.7180457e-05	-0.00024744874	0.00069536123	-0.000524107	2.146587e-05	-0.00021048784	0.00019647306	-6.295422e-05	-0.00042913793	-0.00019065228	0.00012174672	1.9708601e-05	-0.0008559277	-0.00038391683	-0.00020050409	0.00028532188	0.00034526334	-0.0007597728	-3.7450518e-05	-0.00047430146	-0.00067901576	-0.00061965873	-0.0009889615	0.00022771212	-7.883918e-05	-0.0003295695	0.0002358784	3.9312057e-05	0.00022120909	5.8052014e-05	0.00022680347	6.391641e-05	0.0007712777	0.00052039314	0.0002992608	-0.000735194	0.00014278607	-0.00065419346	0.00057698536	0.00017484512	-7.485731e-05	0.00016531898	0.00067081343	0.00047708076	0.00023752204	-5.4361386e-05	2.8291255e-05	0.00019161284	0.00059167866	-0.0002257982	0.0006128208	4.031265e-06	0.00035931103	-0.00016389943	0.0002455407	-0.0001574667	-0.000582888	0.0006723584	0.00025531085	8.17275e-05	-0.0002999804	0.00019629986	0.00022921215	0.00064764137	0.00013058311	0.0011074174	0.00033139196	-8.0957194e-05	-0.00047579472	-9.8538774e-05	0.00029784068	-0.00067137467	8.154909e-05	-0.00016605733	0.00036723615	0.00017221624	-0.00025459827	-6.327384e-05	0.0006834915	0.00030907048	7.561121e-05	-0.000305682	0.00089320715	0.00015202505	6.7695e-05	0.0002744408	0.000305984	0.00028503305	-0.0004028237	-6.401092e-05	-0.00041526937	-8.3573395e-06	-0.000806065	0.00042959824	-7.152487e-05	6.788453e-05	-0.00023118229	-0.00027230525	-0.0002062835	0.00014001945	-0.00032699975	0.0005614169	0.0003237587	0.0006285722	0.0004898264	-0.00026055585	-4.5376626e-05	0.00010298753	-0.00026673925	0.00017444283	-0.00035393238	0.000439949	-0.00010783768	-0.00012018117	-0.00044391124	-0.0010127387	-0.000676904	0.00036703073	-0.0004791771	0.00012836966	-0.00066525245	0.00040465323	-0.0005962158	-0.00010457123	-2.1361066e-05	-0.0004423363	0.00036934734	-1.0290534e-05	-3.8614082e-05	-8.074813e-05	-0.00014504591	0.0007531567	-0.0009063015	2.5235116e-05	0.00015209742	0.00016025365	6.715333e-05	-0.0001394362	-0.00017167733	-0.00034078537	-0.00044348394	0.00037235703	0.00027230545	-0.00017353472	-0.0007033796	1.1216811e-05	-0.00045929305	0.00038350615	-0.00032779365	-0.00047781257	0.0006793217	7.541208e-05	0.00047082145	-0.00040754303	8.12525e-05	-0.00056203455	0.00054388586	0.00011392997	0.00016008869	-0.00042285648	-0.00017205068	0.00018811671	3.0391171e-05	8.5846594e-05	0.0001597437	-0.00083958136	3.0483887e-05	-0.001016852	-0.000567409	0.00016499688	-0.00047284062	-0.00056164124	-0.00017354013	-0.0008433759	-0.00019590891	0.00012366273	-7.312978e-05	-0.000321013	0.00033032693	-0.00022255536	0.00014336694	0.000421179	0.00023344348	-0.00019088732	-6.595591e-05	-0.00046469262	-0.00020104181	0.00010139261	-0.00048035086	9.159533e-05	-0.0005825265	7.983063e-05	-0.00024069226	-0.0003153235	-3.5781435e-05	0.00020944106	-0.00038646924	-0.00072306127	0.00022498483	-0.00086195825	-0.00071047625	-0.0003046486	0.00030817717	0.0006084299	7.155173e-05	0.0005019821	-0.00037413923	-0.0001898418	0.0003889435	0.00012155904	3.1097756e-05	0.000559728	0.00052364793	2.3963885e-05	-0.00028265268	-0.00020235316	-4.3917727e-05	0.00017742574	0.000111076675	-0.0003222975	0.0006715149	-8.258188e-05	-0.00059280434	-0.0002630211	-0.0004372974	-3.0137433e-05	4.8201568e-05	0.00027703532	0.000360946	0.000118771255	0.000492464	-0.00035195574	-5.644653e-05	2.154868e-06	0.0004611381	0.0006769833	0.00011308825	0.00019670476	0.0006537946	-0.000116197065	-0.00031885557	3.3884593e-05	2.3479352e-05	-0.00043685836	0.00021492588	-0.00043539293	-0.00035796425	-0.00048906717	0.00035646817	-0.00011047168	0.0003204466	0.0008762328	-0.00036478444	-0.00012995506	-0.00039535732	-0.00017514397	-0.00026539742	0.0002627743	-0.00025414102	-0.000617076	-0.00054675015	-0.00037184375	-0.0005094599	0.0004063659	3.2853557e-05	0.00078313437
Z-score_14	0.00010016405	-0.00020216608	-0.0005939916	-0.0004964726	0.0008261294	6.852863e-05	-0.0003188923	0.000609324	0.00023240299	0.000514639	0.00026034217	0.000105386745	0.0003266576	0.00028037268	0.00021424796	0.0005702743	0.00019448827	-0.0006412768	0.00035257492	-0.00024602836	-4.3774535e-06	0.00032319032	0.00029141668	-0.00015035871	-0.0002883914	-0.00027761105	-0.0002670313	0.0003788926	7.191365e-05	-0.00017886369	-0.00053916866	0.00046461573	-1.8876852e-05	0.00017961577	4.4734315e-05	-6.8766836e-05	0.0006799334	-0.0002188145	-1.9223e-05	-0.0002127646	3.22396e-05	-0.00042958042	-0.00014462545	8.698294e-05	0.00036832146	-2.7896549e-05	-0.00059223175	3.8246035e-05	-1.9210422e-05	-0.00023977591	3.3562865e-05	-0.0005595818	-0.00014242188	-0.00022080602	-0.00055959297	-0.0001881798	-0.00076957204	0.00042345078	-0.00031141652	-0.0002366885	0.0005904399	-0.0001380659	0.00034181567	-0.00036878887	-7.6337565e-06	0.00013373472	0.00049366115	0.0006232752	-3.716464e-05	-0.00036342622	-4.236797e-06	-0.000474223	0.00038724014	-0.00026882635	6.547265e-06	0.0004852125	0.0005378564	0.00018398605	-3.6074377e-06	0.00011749611	-0.00029570446	0.0005483334	0.00071617524	0.00013693595	0.00046540145	-0.00033248172	0.00036515313	1.2353232e-06	0.00019547093	-6.4717606e-05	-0.00056716136	0.00065197016	0.00046717483	-0.0002811116	-0.00016747118	0.00035419647	0.00033342696	0.00039931075	0.00031266775	0.0009822733	0.00028771415	-2.94006e-06	4.671623e-05	-0.00049835665	0.00020932051	-0.0002876837	0.00040797118	-0.0004127473	0.00022173711	5.5361204e-05	-8.7619876e-05	-9.68721e-05	0.0005603375	0.00015105962	6.3633655e-05	8.504605e-05	0.00083711284	0.00013816093	0.00014860535	-7.58759e-05	0.00061313674	0.0005157344	-0.00022611054	0.00028826317	-0.00046775228	-6.619436e-05	-0.0005442305	-3.441257e-05	-0.00017184076	-0.00020080878	-0.00022654414	-0.0004573828	0.000112247915	-0.00030728156	-0.00033780214	0.0004028512	0.00033587244	0.00038032964	0.00038317204	0.00018379638	-1.1503768e-05	0.0001766871	-4.6320343e-05	0.00025338514	-0.0004302733	0.00016763218	-0.00012269098	-3.544528e-05	-0.0005992819	-0.0004952748	-0.0006415493	0.00010741065	-0.00037018242	0.000257492	-0.0007001032	0.00021795368	-0.00014350352	-0.00043584045	0.00017494951	6.0786224e-05	0.00049196655	0.000173122	-0.00045217914	-0.00014589759	-7.860961e-05	0.0004684006	-0.0003161153	6.381831e-05	0.00040837022	0.00015316538	-0.00040474534	6.295175e-05	-0.00060531695	-0.00047256082	-0.00039460947	-0.00010985012	0.00020025975	-0.00032697988	-0.00037580257	0.00017393929	-0.0008441957	0.00047562562	-0.00074041035	-0.0007608297	0.00042543633	-0.00036966958	0.00019882791	-0.00014437594	-0.00033870016	3.2178352e-05	0.00059360446	0.00014556303	-9.847501e-05	0.00014242214	-0.00060205854	0.00027089225	0.00014445683	-4.6295423e-05	-8.2758386e-05	-0.00039517105	-0.00040434345	-0.0007617193	-0.00067826506	9.902628e-05	-0.00035363232	-0.00048843044	-0.00031777844	-0.00065071136	-0.000112439	-0.0003066013	8.650954e-05	-0.00013809095	6.908446e-05	9.3044015e-05	0.00014418576	0.00057227776	0.00018573392	0.00020020186	-0.0005796941	-0.00046847237	-0.0002243613	-0.00011539359	-0.00037719074	-5.5478242e-05	-0.00010762	0.00030408648	-0.00025443255	-0.0002859675	0.0004896454	0.00016030182	-0.00031079474	-0.0007573378	-0.0001433793	-0.000983836	-0.00020234374	-0.00054465333	0.0003807906	0.0005621626	0.00016738189	0.00018568842	-0.00046078395	4.6415742e-05	0.0004172724	0.00038831774	-0.00029278066	0.0003120348	0.00037005616	0.0004389329	-8.011399e-05	-0.00075242243	0.0002259393	-3.958452e-05	-8.155409e-05	-0.00023332	0.0009400669	-2.2543345e-05	-0.0003055183	0.00012007353	-0.00016952639	-6.073424e-05	0.00048255367	0.00037675936	0.000120140845	-0.00013180898	0.00076414895	-0.00016360809	2.6298561e-05	-0.0002645901	0.0005023478	0.0005322917	3.9755967e-05	2.1948908e-05	0.00056882034	-0.00053056993	-0.00013482748	-0.00029380724	3.5361303e-05	-0.00040316026	8.886111e-05	-0.00029881092	-0.0002378528	-0.00044429334	0.00015366303	4.6551388e-05	0.0004219703	0.0006567299	-3.912849e-05	-0.00011846364	-0.00049595255	-0.0005532048	8.073209e-05	0.00024804982	-0.00031053726	-0.00069182116	-0.0004085414	-0.0004774391	-0.0007131205	0.00036903346	-3.8987608e-05	0.00090732303
Z-score_15	0.0001006868	-0.00018877235	-0.0003888852	-0.0004735069	0.00070729636	0.00016626928	-0.0006043555	0.0004979819	0.0005397409	0.00049652474	0.00019337186	4.4449043e-05	0.00058090163	0.00046329317	0.00030971545	0.00047836624	0.0006159113	-0.00057171984	0.00013278928	-0.0004327878	0.00025230218	0.0003131812	0.0005417564	-0.00010716372	-0.00045391178	0.00026285733	-0.0003946191	3.2860193e-05	-0.00011024427	-0.00030175401	-0.0002867267	0.0005221123	-0.00024187317	0.00044547574	9.306827e-05	8.794191e-05	0.0003149495	-0.00042776015	0.000121004574	-0.00059105747	-0.00010011627	-0.0003194937	-0.0003195198	-0.00013007445	0.00036055126	-0.00021117006	-0.0002670787	-0.00026555228	-0.00011211422	7.758528e-06	-7.362515e-05	-0.00066717726	-0.00040174456	-0.00026773624	-0.00075599115	-0.00034612475	-0.00071466004	0.0006015218	-0.00036607112	-0.00044674936	0.00034481625	0.00020734899	0.00032386446	-1.6713675e-05	0.00016952094	0.00066001865	0.00026702313	0.00079304684	0.0003538121	-0.0007404541	2.4729743e-06	-0.00065421266	0.0006029701	-0.000114499664	5.413156e-06	0.0004825869	0.00076319976	0.00035855523	6.6898356e-05	7.314148e-05	-0.0002571049	0.0002514711	0.0008177582	0.00035210076	0.00053202885	-9.24872e-05	0.0002672633	-0.00014853058	1.0293643e-05	-0.00015512275	-0.0005672148	0.0008418173	0.00024047634	-7.975055e-05	-0.0004559853	0.0007055455	0.00015105848	0.00015155188	0.00052664685	0.00086910493	0.000255182	0.00015725146	0.00022876411	-0.00027802246	0.00021374448	-0.00051526487	0.000563951	-0.00093250227	-0.00025191111	-4.6223024e-05	-0.000117299096	-0.0004925017	0.0006668172	3.0177347e-05	0.0001423428	0.00017397112	0.0007093325	5.18782e-05	0.00030927837	-3.613418e-05	0.00026243823	0.0004837648	-7.722733e-05	0.00014548912	-0.0004860044	-8.513016e-07	-0.0005204393	0.00039878467	-0.00043098343	-0.00030141076	-0.00018456051	-0.0002403183	0.00018130048	-0.00016402252	-0.00043081734	0.00059895555	0.0003140311	0.00062635547	0.00015216382	6.72322e-05	0.00017065948	-0.00010260212	-0.00029360657	0.00018184485	-0.0003449152	7.154001e-05	-0.00013677162	-0.000327038	-0.00065534894	-0.00047955604	-0.0006311859	0.00010523909	-0.00016141075	0.00021536979	-0.0005531194	8.599747e-05	0.000150543	-0.000623172	0.00036698685	-2.7992624e-05	0.00081066793	-8.9378345e-06	-0.00040177	-0.00013926723	-1.835115e-05	0.00022952772	-0.0005052913	-0.00013228878	9.350083e-05	0.00034793004	-0.0003040474	0.0001327081	-0.000615624	-0.00031554324	-0.0005165463	-0.0003360463	0.00038986906	-0.00025744052	-0.00075132016	0.00017394514	-0.0007823113	0.0003302709	-0.00085002003	-0.00061329105	0.0003064304	-0.00046826317	0.00011626289	-4.6973804e-05	-0.00034833595	-0.00025873707	0.00057150197	0.0002847452	0.00033086387	0.00014360771	-0.00031664764	0.00015002336	0.0002939321	-0.00050736114	-0.00013640459	-0.0005290791	-0.00046134435	-0.0005950522	-0.0001738391	-0.00020610755	0.000116562034	-0.00061754294	-0.00019701225	-0.0006402097	-0.00032509526	-6.654387e-06	9.654145e-05	-0.00011405752	0.00018764642	-0.00013024363	6.890745e-05	0.000768962	0.00026616012	0.00044504553	-0.0005640789	-0.000488663	-0.00043149322	-0.00028912394	-0.0007043496	-0.00024912407	-0.00014064742	0.00027299704	-0.00029066042	-0.00030342187	0.0005634373	0.00047547257	-0.00020402757	-0.00075918273	9.760145e-05	-0.0009828687	-0.00019532259	-0.00037996357	0.000627256	0.0006569708	-0.00026238328	3.152452e-05	-0.00022170052	-0.00016438284	0.00035236182	0.00032724187	-0.0004189197	0.00024763355	0.00081653247	0.00016364752	-0.00029846182	-0.00069981825	0.00037949497	7.8770856e-05	0.00015479473	-0.00047487908	0.0005915502	-0.00019183665	-0.00013280968	-2.6629876e-05	-0.0003872881	0.0003137066	0.00013624175	0.0004807741	5.0237366e-05	0.00016545808	0.0010283274	-0.00056522986	0.00047893566	-0.00037824138	0.00043396564	0.00043962794	-3.7283375e-05	0.00029684004	0.00044536195	-0.0006180765	0.000118956435	-0.0006565206	0.00032605886	-0.00068222755	-6.627486e-05	-0.00078468263	-0.00020793546	-0.0005561931	0.000344186	0.00042794558	0.0005481388	0.0006225076	-0.00029040815	9.930355e-05	-0.00035329635	-0.00053203275	0.00023825422	0.00036559097	-0.00011295627	-0.00082966854	-0.0002738456	-0.00030422464	-0.0005955888	0.00016631892	-0.0004006184	0.0006985228
