	0	1	2	3	4	5	6	7	8	9	10	11	12	13	14	15	16	17	18	19	20	21	22	23	24	25	26	27	28	29	30	31	32	33	34	35	36	37	38	39	40	41	42	43	44	45	46	47	48	49	50	51	52	53	54	55	56	57	58	59	60	61	62	63	64	65	66	67	68	69	70	71	72	73	74	75	76	77	78	79	80	81	82	83	84	85	86	87	88	89	90	91	92	93	94	95	96	97	98	99	100	101	102	103	104	105	106	107	108	109	110	111	112	113	114	115	116	117	118	119	120	121	122	123	124	125	126	127	128	129	130	131	132	133	134	135	136	137	138	139	140	141	142	143	144	145	146	147	148	149	150	151	152	153	154	155	156	157	158	159	160	161	162	163	164	165	166	167	168	169	170	171	172	173	174	175	176	177	178	179	180	181	182	183	184	185	186	187	188	189	190	191	192	193	194	195	196	197	198	199	200	201	202	203	204	205	206	207	208	209	210	211	212	213	214	215	216	217	218	219	220	221	222	223	224	225	226	227	228	229	230	231	232	233	234	235	236	237	238	239	240	241	242	243	244	245	246	247	248	249	250	251	252	253	254	255	256	257	258	259	260	261	262	263	264	265	266	267	268	269	270	271	272	273	274	275	276	277	278	279	280	281	282	283	284	285	286	287	288	289	290	291	292	293	294	295	296	297	298	299
P-chart_0	3.0515486e-05	-0.00012077788	-0.0002571736	-0.00033289084	0.00055957714	4.8077236e-05	-0.00049787725	0.00037097928	0.00011047189	0.00024023799	0.00017827922	-7.1182105e-05	0.0004500727	0.0002568358	0.00028098893	0.000371261	0.00020197776	-0.00026008493	0.00030512424	-0.00040548158	0.0002945855	0.00018945694	0.00028913585	-0.00018811466	-0.0003397623	-1.597933e-05	-8.688926e-05	2.6192462e-05	2.7801247e-05	-8.714536e-05	-0.00016665146	0.0005078845	-0.000105709085	0.00021828695	2.7087339e-05	-0.00011999165	0.00037881307	-0.00013854077	-1.6456008e-05	-0.00032997743	-0.00017473474	-0.00027368363	-0.00016079302	-1.3979985e-05	0.00015430464	-0.0002489713	-0.00031068828	-4.459029e-05	-0.00012742564	-4.9001977e-05	-3.1508927e-05	-0.0005265648	-0.0001543084	-0.0002799449	-0.0005184655	-0.00028323833	-0.00050879584	0.00042508112	-0.00041662154	-0.00027487267	0.00039511002	0.00021714492	0.00036198788	-0.00013848217	-0.00015735748	0.00019743113	0.00012411326	0.0005724754	0.00017678003	-0.0005572188	-1.5273767e-05	-0.00031408263	0.00046588667	-0.000174425	-1.7257318e-05	0.00038422632	0.00038402135	0.0001396717	-0.00013983667	-0.00014890252	-0.00026765143	0.00033355318	0.0004891929	0.000107189066	0.00041716048	-0.00025159863	0.0002024363	-6.0458606e-05	0.00019898638	-0.00017822938	-0.0005153864	0.0005687121	0.00022846003	-0.0001326207	-6.72838e-05	0.00033322602	0.00014524559	0.0001248702	0.00020799521	0.00062938716	0.00041385723	3.9482416e-05	6.5114575e-05	-0.0003729844	0.00035580766	-0.00026691201	0.00031110173	-0.0005114406	-0.00012704713	-6.155778e-05	3.2224394e-05	-0.00026449224	0.00041359107	-0.00012875412	4.401019e-05	4.056004e-06	0.0003642449	-5.4502503e-05	0.00022438806	0.00014433934	0.0002337057	0.00053972634	-6.142369e-05	0.00023842117	-0.00020411555	-1.0848471e-05	-0.00043620123	8.9239846e-05	-0.00036187156	-0.0001717451	-8.227766e-05	-0.000118434094	9.45287e-05	-0.00014930377	-0.00022330569	0.000488827	-2.6833546e-05	0.00032761108	0.00037260845	9.484668e-05	9.62574e-05	-1.9410396e-05	-9.436843e-05	0.00031601798	-0.00023595654	-0.0001528016	-6.32586e-05	-2.6843413e-06	-0.00057985994	-0.00030909106	-0.00042962283	-2.9128461e-05	-0.00013065102	0.00028907575	-0.0003481039	6.4060485e-05	2.9169516e-05	-0.00041780627	0.00023810842	-4.307252e-05	0.0003786911	1.8272163e-05	-0.00039042285	-9.54674e-05	3.7206122e-05	0.00038605405	-7.9643825e-05	-3.127455e-05	0.00013535655	0.00026876276	-0.00030456038	1.1264916e-05	-0.00040552713	-0.00022468556	-0.00027061006	-0.00014579853	0.00011198571	-0.00032880824	-0.00036661283	6.360071e-05	-0.00062017195	0.00046098215	-0.0006287302	-0.0006067755	0.00041173908	-0.00026794398	-1.6257534e-05	-9.2405695e-05	-0.00028319235	-0.00022630059	0.00049401226	0.0001197576	-0.0001056377	0.000108122505	-0.0002267603	0.0001476547	0.0001509771	-5.86533e-05	-0.00014433546	-0.00036527344	-0.0004427365	-0.00050447433	-0.00030440127	1.8702218e-05	-0.00015644556	-0.00019509786	-0.00040841542	-0.0006159983	-0.00018992671	-0.00014015393	0.0001041152	-6.173314e-05	0.0001827676	-1.2725897e-05	0.00011013275	0.00050322706	0.0001300728	0.00037835704	-0.000633309	-0.0004209449	-0.00025658117	3.164095e-05	-0.00040189482	-0.0001889859	-0.00020958949	7.216627e-05	-0.00014749038	-0.0003393145	0.00045486123	0.00015754066	-0.0001735664	-0.0003867106	0.00010327335	-0.0006483913	-0.000117974734	-0.00051612634	0.0001763562	0.000434444	-0.00016252697	1.556997e-05	-0.00033113727	-0.00022779335	0.00032432642	0.00040994474	-0.00015622014	7.8187324e-05	0.0005586102	0.0001364247	-0.00026501121	-0.0004928297	6.85986e-05	-0.00019184049	0.00018041294	-0.00048576406	0.00065192976	4.668515e-05	-0.00024071924	3.2819484e-05	-0.00037033035	3.559105e-05	0.00045467055	0.00047649263	0.00021560962	-9.346345e-06	0.0005297355	-0.00027175448	0.0001853448	-0.0004022148	0.0003903997	0.0003709213	-6.0645402e-06	0.0001596172	0.00075298664	-0.0006338857	0.00015577264	-0.0003379566	0.00025885634	-0.00028906425	0.00015539562	-0.00028607977	-0.00016839308	-0.00043828448	0.00017516766	6.585188e-05	0.00025498326	0.00061021437	-0.00012029517	-0.00014397904	-0.00018823994	-0.00041308787	0.00024259828	0.0003893784	-0.00029964198	-0.00058878434	-0.00040472194	-0.0003268757	-0.00052612036	0.00029441973	-0.00011217667	0.0005117663
P-chart_1	9.1787806e-05	-1.2218838e-05	-0.0005609435	-0.00037118266	0.0007437495	0.000100537545	-0.0006642244	0.00045617987	0.00030290664	0.00043358898	-1.6843735e-06	9.1731265e-05	0.0006844067	0.00067832053	0.00045659	0.0003878426	0.0005400803	-0.00082217745	0.00020092074	-0.0005340302	0.00013582545	0.00021528188	0.00070870126	-3.151532e-05	-0.000503443	0.00021268935	-0.00040780063	0.000118049706	-2.8663413e-05	-0.0005831903	-0.00046431195	0.00066301716	-0.00021291926	0.00034662135	-3.060267e-05	8.6667074e-05	0.00049372524	-0.0005889782	0.0004553759	-0.00047355233	-0.00017936782	-0.00027131833	-0.00047987126	-0.00012956964	0.00048825057	-0.00020943033	-0.00017266712	-0.00031633742	-7.394653e-05	-2.992364e-07	-0.00018215277	-0.0006583664	-0.00038089295	-3.6298396e-05	-0.00067002163	-0.00031452847	-0.0007794148	0.0004973122	-0.0004354165	-0.0004583249	0.00060445926	0.000438161	0.00028285026	-3.942087e-05	8.367077e-05	0.00060510804	0.00028555826	0.0010514809	0.0004416415	-0.00050508854	-7.828048e-06	-0.0007577716	0.0005649648	7.924964e-05	0.00014788615	0.0005170677	0.0005447722	0.0003456994	0.00030631485	6.635563e-05	-0.00057069387	0.0002430774	0.0008524096	0.00037238686	0.0004090862	-4.4931494e-05	0.00031092914	-0.0001303158	0.0002729062	-3.95643e-05	-0.000485126	0.0009997826	-2.1757478e-05	-0.000108623426	-0.00014526265	0.00061917177	0.00012681827	5.1410705e-05	0.0005172561	0.0009137564	0.0001036641	0.00022041351	0.00029228232	-0.00035223365	0.00017700513	-0.0004708716	0.0005013932	-0.0007975692	-0.00021761982	-0.00037797692	-2.4139948e-05	-0.000410503	0.00081924145	0.0001505554	0.00015718499	0.00026025402	0.0005771125	0.00013628931	0.00027850666	4.889902e-05	0.0003646825	0.0004800809	-0.00015808684	0.000210055	-0.00035172133	0.000113801085	-0.00031674447	0.00033882778	-0.0004231444	-0.00045209742	-0.0002974777	-0.000463549	0.0002453699	-8.2113496e-05	-0.0003691191	0.0005307149	0.00020481572	0.0005199922	0.00037857247	0.00013681706	0.00025021622	-0.000114770824	-0.0003825959	0.0003121303	-0.0003626897	7.592788e-05	-0.00023229943	-0.00027514432	-0.0007128652	-0.00042594856	-0.0006804524	0.00031080216	-0.00010985276	0.0003590122	-0.0005575371	0.00026971826	-8.925595e-05	-0.00056588434	0.00041706776	0.00010015798	0.0006467577	-6.915957e-05	-0.0002926273	-0.0001773236	-0.00021500509	0.00029546092	-0.00050838536	-0.0001419029	0.00014178001	0.0003039181	-0.00037540492	0.00032955542	-0.00067258667	-8.8343506e-05	-0.0004063168	-0.00026837227	0.00038502706	-0.00020186238	-0.0005955179	0.00010302756	-0.0009275765	0.00026724392	-0.0010608757	-0.0006373922	7.5712414e-05	-0.0004313095	0.00017135988	-1.6626347e-05	-0.00016843887	-0.00039407422	0.00033192494	0.0003207794	0.00012816045	0.00026073738	-0.00038690525	0.0001577385	0.00034750823	-0.00051276735	-0.00016716932	-0.0006904175	-0.00048287035	-0.00059638	-0.00034964984	1.0289799e-05	0.00033682818	-0.00042484622	-7.9344616e-05	-0.00059998635	-0.0006116603	0.00013249382	0.00015464173	-0.00026977013	0.00037502704	-6.534892e-05	0.00019262548	0.00083386194	0.00026872315	0.00047067346	-0.00045180577	-0.0005146712	-0.00029634242	-0.00013626364	-0.000592138	-0.00022852112	-6.151672e-05	0.00046172718	-0.00034310465	-0.000103011014	0.00063960237	0.00060021825	-0.00015754251	-0.0007173777	0.00011165815	-0.00093407155	-0.0002457423	-0.00038428183	0.00055884226	0.00083973556	-0.00027621063	0.00020474593	-0.0002399357	-0.00031276644	0.00047254513	0.00038338915	-0.00046533282	0.0004206036	0.0009721503	-2.510576e-06	-0.0003471424	-0.0007023868	0.0002941003	-6.234789e-05	0.00024161628	-0.0004982827	0.0008100893	-0.00024933717	-0.00037463423	-2.2613836e-05	-0.0004562113	0.00024548534	0.0002438713	0.0004126244	5.3531814e-05	0.00020523282	0.00086074765	-0.00041373947	0.00046833503	-0.0003427961	0.0007655013	0.00049603375	-7.99212e-05	0.00031093758	0.00050917966	-0.0009059731	0.00025568306	-0.0005065546	0.00038144412	-0.0006757073	-5.9946207e-05	-0.00076777756	-0.0002702401	-0.0006210867	0.00021100439	0.00029095903	0.00047704935	0.0006947932	-0.00021739061	9.556034e-05	-0.00033353985	-0.0006011273	0.00026560985	0.00027710956	-0.00011834217	-0.0008563025	-0.00028459736	-0.00031427445	-0.0006587688	0.00016778278	-0.00056771486	0.00078360393
P-chart_2	8.51262e-06	-0.000106852276	-0.0002650833	-0.0003090156	0.00057645614	6.61888e-05	-0.00057001755	0.00041204746	8.119084e-05	0.0002696044	0.00016010704	-9.0371315e-05	0.00046980463	0.00028610296	0.00029395794	0.00038119926	0.0001986195	-0.00029567434	0.00033880342	-0.00039176006	0.00032433248	0.00018053217	0.0002739276	-0.00018624785	-0.000367953	-8.600332e-06	-0.00011755498	1.0522044e-06	4.550403e-05	-8.3419836e-05	-0.00015110664	0.0005492845	-0.00014213599	0.00021812295	1.9500337e-06	-0.00015465483	0.00039031904	-0.000108546876	-2.3775463e-05	-0.00031445723	-0.0002044089	-0.00027585702	-0.00021926263	-2.254451e-05	0.00016633685	-0.00025647646	-0.0003362375	-6.289995e-05	-0.00015339481	-4.944172e-05	-2.7872922e-05	-0.00050718687	-0.00016526987	-0.00033030403	-0.00053293695	-0.00029237816	-0.0004946056	0.0004399061	-0.0004296211	-0.0002976458	0.00036636522	0.0002394975	0.00038700821	-0.0001409438	-0.0001772158	0.00021178082	0.00012338988	0.00060036493	0.00022356746	-0.00056628755	1.1812275e-07	-0.00031013033	0.00043328994	-0.00015193576	-1.0338462e-05	0.00035468073	0.00042421403	0.00015987648	-0.00015075684	-0.00013588667	-0.0002922359	0.00035659454	0.0004511006	9.520897e-05	0.00046971536	-0.00018697203	0.00023128866	-4.778671e-05	0.00025044964	-0.00023258897	-0.0005228141	0.0006142619	0.0002215664	-0.00018421498	-8.679271e-05	0.0003587003	0.000132947	0.00011036451	0.00022551518	0.0006369879	0.00040676084	7.486395e-05	7.118471e-05	-0.0004043758	0.0003613362	-0.00027103958	0.00029176535	-0.00055316585	-0.0001689965	-9.5918134e-05	2.7550448e-05	-0.0003289339	0.0004376948	-0.00016367121	5.7358688e-05	-1.0730553e-05	0.00037518181	-7.4747644e-05	0.00023236859	0.00017767974	0.00020398916	0.000585069	-3.457747e-05	0.00024918024	-0.00021630793	-6.29274e-05	-0.0004488096	8.2968036e-05	-0.00038161606	-0.00012721833	-5.7801964e-05	-0.00010292794	0.000109645094	-0.00010413846	-0.00026641757	0.00048316494	-6.207624e-05	0.00029999317	0.00038634494	3.742586e-05	6.554278e-05	1.8832709e-05	-9.553444e-05	0.00034017037	-0.000239924	-0.00012908314	-8.5771266e-05	1.8069388e-05	-0.00058910274	-0.00033575704	-0.00038712262	-5.1622166e-05	-0.00014124914	0.00030808648	-0.00033125075	3.7187798e-05	2.0837295e-05	-0.00038700644	0.0003058052	-1.7367116e-05	0.00044239755	1.4935809e-05	-0.0003914933	-0.000121435405	2.5894347e-05	0.00037193974	-8.272209e-05	-2.031281e-05	0.00013615125	0.00025096253	-0.0002688459	-8.3199875e-06	-0.00042436787	-0.00017814156	-0.00032845582	-0.00013941337	0.00012691453	-0.00029730218	-0.00040254625	7.992867e-05	-0.0006126846	0.0005015138	-0.00063178333	-0.0005927835	0.00039815527	-0.00024830154	-6.2561994e-06	-9.8842786e-05	-0.00030272495	-0.00023483647	0.00052283256	7.757669e-05	-6.2780564e-05	0.00014769367	-0.0002135462	9.106384e-05	0.00013649034	-5.1329833e-05	-0.0001355413	-0.00039565607	-0.00045861944	-0.0005205995	-0.0002713652	9.528593e-06	-0.000175226	-0.00023311266	-0.0003863756	-0.0005949948	-0.00024207043	-0.00011745357	0.00014310445	-7.8490506e-05	0.00016461783	-2.5698657e-06	0.00012129821	0.00048541368	0.000110662346	0.0003819686	-0.0006256089	-0.0004555184	-0.000269895	9.670123e-05	-0.0003988752	-0.00020302298	-0.0002303837	7.284848e-05	-0.00012906757	-0.00038714297	0.00044533753	0.00020599237	-0.00012514651	-0.0003748103	0.00013896624	-0.00067704846	-0.00014533212	-0.00050776487	0.00013210824	0.00048018913	-0.00018305508	-1.591079e-05	-0.00033209566	-0.0002557655	0.0003204728	0.00044285323	-9.0960995e-05	3.610979e-05	0.0005922915	0.00012810562	-0.0003431342	-0.00052178826	5.464646e-05	-0.00022387777	0.00020370552	-0.00047494998	0.00065687596	2.5185393e-05	-0.000318522	4.3631328e-05	-0.000349045	1.46865705e-05	0.00044931323	0.00050858717	0.0002182374	-8.197978e-06	0.0005424801	-0.00030510273	0.00020348262	-0.00045691876	0.0003845509	0.00041707294	3.6791669e-06	0.0001488055	0.0007886851	-0.0006692296	0.00015125617	-0.00033626368	0.000282556	-0.00025717824	0.00017191611	-0.00031778082	-0.00017539038	-0.00042971448	0.00022495113	0.00012162709	0.000273482	0.0005897622	-0.00012555603	-0.00010940247	-0.00018362056	-0.00039370675	0.0002770871	0.00044483205	-0.00028771092	-0.00057005836	-0.00041031363	-0.00030543384	-0.00054693787	0.00028940264	-8.226585e-05	0.00054824626
P-chart_3	9.1787806e-05	-1.2218838e-05	-0.0005609435	-0.00037118266	0.0007437495	0.000100537545	-0.0006642244	0.00045617987	0.00030290664	0.00043358898	-1.6843735e-06	9.1731265e-05	0.0006844067	0.00067832053	0.00045659	0.0003878426	0.0005400803	-0.00082217745	0.00020092074	-0.0005340302	0.00013582545	0.00021528188	0.00070870126	-3.151532e-05	-0.000503443	0.00021268935	-0.00040780063	0.000118049706	-2.8663413e-05	-0.0005831903	-0.00046431195	0.00066301716	-0.00021291926	0.00034662135	-3.060267e-05	8.6667074e-05	0.00049372524	-0.0005889782	0.0004553759	-0.00047355233	-0.00017936782	-0.00027131833	-0.00047987126	-0.00012956964	0.00048825057	-0.00020943033	-0.00017266712	-0.00031633742	-7.394653e-05	-2.992364e-07	-0.00018215277	-0.0006583664	-0.00038089295	-3.6298396e-05	-0.00067002163	-0.00031452847	-0.0007794148	0.0004973122	-0.0004354165	-0.0004583249	0.00060445926	0.000438161	0.00028285026	-3.942087e-05	8.367077e-05	0.00060510804	0.00028555826	0.0010514809	0.0004416415	-0.00050508854	-7.828048e-06	-0.0007577716	0.0005649648	7.924964e-05	0.00014788615	0.0005170677	0.0005447722	0.0003456994	0.00030631485	6.635563e-05	-0.00057069387	0.0002430774	0.0008524096	0.00037238686	0.0004090862	-4.4931494e-05	0.00031092914	-0.0001303158	0.0002729062	-3.95643e-05	-0.000485126	0.0009997826	-2.1757478e-05	-0.000108623426	-0.00014526265	0.00061917177	0.00012681827	5.1410705e-05	0.0005172561	0.0009137564	0.0001036641	0.00022041351	0.00029228232	-0.00035223365	0.00017700513	-0.0004708716	0.0005013932	-0.0007975692	-0.00021761982	-0.00037797692	-2.4139948e-05	-0.000410503	0.00081924145	0.0001505554	0.00015718499	0.00026025402	0.0005771125	0.00013628931	0.00027850666	4.889902e-05	0.0003646825	0.0004800809	-0.00015808684	0.000210055	-0.00035172133	0.000113801085	-0.00031674447	0.00033882778	-0.0004231444	-0.00045209742	-0.0002974777	-0.000463549	0.0002453699	-8.2113496e-05	-0.0003691191	0.0005307149	0.00020481572	0.0005199922	0.00037857247	0.00013681706	0.00025021622	-0.000114770824	-0.0003825959	0.0003121303	-0.0003626897	7.592788e-05	-0.00023229943	-0.00027514432	-0.0007128652	-0.00042594856	-0.0006804524	0.00031080216	-0.00010985276	0.0003590122	-0.0005575371	0.00026971826	-8.925595e-05	-0.00056588434	0.00041706776	0.00010015798	0.0006467577	-6.915957e-05	-0.0002926273	-0.0001773236	-0.00021500509	0.00029546092	-0.00050838536	-0.0001419029	0.00014178001	0.0003039181	-0.00037540492	0.00032955542	-0.00067258667	-8.8343506e-05	-0.0004063168	-0.00026837227	0.00038502706	-0.00020186238	-0.0005955179	0.00010302756	-0.0009275765	0.00026724392	-0.0010608757	-0.0006373922	7.5712414e-05	-0.0004313095	0.00017135988	-1.6626347e-05	-0.00016843887	-0.00039407422	0.00033192494	0.0003207794	0.00012816045	0.00026073738	-0.00038690525	0.0001577385	0.00034750823	-0.00051276735	-0.00016716932	-0.0006904175	-0.00048287035	-0.00059638	-0.00034964984	1.0289799e-05	0.00033682818	-0.00042484622	-7.9344616e-05	-0.00059998635	-0.0006116603	0.00013249382	0.00015464173	-0.00026977013	0.00037502704	-6.534892e-05	0.00019262548	0.00083386194	0.00026872315	0.00047067346	-0.00045180577	-0.0005146712	-0.00029634242	-0.00013626364	-0.000592138	-0.00022852112	-6.151672e-05	0.00046172718	-0.00034310465	-0.000103011014	0.00063960237	0.00060021825	-0.00015754251	-0.0007173777	0.00011165815	-0.00093407155	-0.0002457423	-0.00038428183	0.00055884226	0.00083973556	-0.00027621063	0.00020474593	-0.0002399357	-0.00031276644	0.00047254513	0.00038338915	-0.00046533282	0.0004206036	0.0009721503	-2.510576e-06	-0.0003471424	-0.0007023868	0.0002941003	-6.234789e-05	0.00024161628	-0.0004982827	0.0008100893	-0.00024933717	-0.00037463423	-2.2613836e-05	-0.0004562113	0.00024548534	0.0002438713	0.0004126244	5.3531814e-05	0.00020523282	0.00086074765	-0.00041373947	0.00046833503	-0.0003427961	0.0007655013	0.00049603375	-7.99212e-05	0.00031093758	0.00050917966	-0.0009059731	0.00025568306	-0.0005065546	0.00038144412	-0.0006757073	-5.9946207e-05	-0.00076777756	-0.0002702401	-0.0006210867	0.00021100439	0.00029095903	0.00047704935	0.0006947932	-0.00021739061	9.556034e-05	-0.00033353985	-0.0006011273	0.00026560985	0.00027710956	-0.00011834217	-0.0008563025	-0.00028459736	-0.00031427445	-0.0006587688	0.00016778278	-0.00056771486	0.00078360393
P-chart_4	-0.00025740452	0.001422597	0.00022038264	0.0006011491	-0.00021762736	6.006059e-05	-0.0004610394	0.000755227	-0.0006131186	-0.001101702	-0.00042856252	0.0003424618	0.0009852478	0.0004906332	0.00091192627	8.621969e-05	-0.0004663683	-0.0007373099	0.0005609411	0.00052780134	-0.00072938646	1.7578655e-05	0.001276204	0.00027431338	-0.0011311908	0.0005251994	-0.00022527063	0.00096281903	0.0007343506	-0.0007299423	-0.0005787198	0.0007088251	0.00013558881	-0.0012405555	5.1705436e-05	-5.723833e-05	0.00023693097	-0.0009493258	0.0012207769	0.0005764582	-0.0009071535	0.00059661234	-0.00025545724	-0.0005462705	0.0011085407	-7.639799e-05	0.00028163826	1.734124e-05	0.0010650188	0.0002450726	-0.00053950516	0.00014217215	-0.0006817953	0.0014489758	0.00056852505	0.00027802115	-0.00064290443	-0.0011265307	-5.7488156e-05	-0.0002596904	0.0012017655	0.0009568707	-0.00096419384	0.0001809005	-0.00029066927	0.0003133312	0.000104277744	0.0011147424	0.00034168034	0.0012399368	0.00068535964	-0.00061557384	-0.00087580725	0.0014352754	0.0010393056	0.0006288715	-0.00097600056	-0.00016319005	0.0014564835	0.00020778645	-0.0008152777	-0.00026679516	0.0008842823	7.629648e-05	0.0003267487	-0.00047704915	0.0003191841	0.0012592904	0.0014400145	0.0011452185	0.00061310583	0.00077196176	-0.0013538152	-0.00021678564	0.0013523264	0.00011311265	-0.00027349856	-0.00056759943	0.0011325511	0.0008009692	-0.00026129527	0.0007487335	0.000842125	-0.0003387105	-0.00096296385	-0.0001333615	0.000764384	-4.1943684e-05	-0.00027854458	-0.0011381491	0.0001572445	0.00061288534	0.0009855153	3.7503574e-05	0.000659238	0.00042562617	-0.0004908613	0.00019245711	-0.0004436951	0.00041163474	6.725048e-05	-0.0010764506	0.00016936057	-8.403108e-05	0.00087717746	0.0007612463	0.00077048637	-0.0006649592	-0.00014467092	-0.00078096753	-0.0005308978	-0.0010394041	0.001286872	0.0006077818	0.0003213619	-0.0005532389	-2.0450985e-05	-0.00086517935	0.0009879223	0.00025882645	7.2355324e-05	7.387821e-05	-0.00063016854	0.00074303907	1.7805549e-05	-0.00010058933	-0.00010554126	-0.0005969021	-0.0012563413	0.0003687305	-0.000260129	0.001386608	5.721097e-05	0.00014966645	0.00011571945	0.0010445068	-0.0006142108	0.00039037602	0.00094969466	0.0003591681	0.00037582818	-0.0009974025	0.00061909965	-0.00043289276	-0.00050394423	-0.0003521153	-0.00046107947	-1.298089e-06	0.00017366672	0.0003996699	-0.000448672	0.0014081105	0.0003807189	0.0010155593	0.0003048317	-0.000109832974	0.000115145114	-0.00016927527	0.00059228763	-0.0006679322	-0.0011531323	0.0009609463	-0.0013767639	0.0010068057	-0.0014472546	0.00037647312	-2.4211535e-05	0.0005067527	0.0014071855	-6.632545e-05	-0.0009310335	0.00046292407	-0.0008970414	0.0013716768	1.9323837e-05	-0.000339597	0.00084179686	-0.0010638695	0.0009256918	-0.00051022664	0.00029980348	-0.00064734166	-0.0014567843	-6.8482885e-05	0.00071303046	0.0011468707	0.0013329223	-0.0005124543	-0.00071300217	0.0008303293	-0.0001431766	-0.0012250128	0.0012327394	0.00029100594	0.00043617212	9.8586286e-05	0.0004147935	3.6977734e-05	-9.902673e-05	-0.0005653185	-0.00010032958	0.00013105015	1.5648518e-05	0.00023261012	-0.00025070546	0.001153114	-0.00042422384	0.0007474108	0.0010064534	0.00026901023	0.000936784	5.9422106e-05	-0.0002889001	-0.0002572139	0.000500737	0.0003431661	0.0009136308	0.0006841673	0.0005147291	0.0005053037	-0.001033773	-7.515878e-05	0.0011365532	-0.00013988273	-0.0010555325	0.0005117055	0.0011428657	-0.00073921954	-7.3160976e-05	-0.00045390596	-0.0002528364	-0.0002963019	-0.00041841686	-0.00022019888	0.00044912638	-0.00037400177	-0.0010853154	7.8764686e-05	-0.00022833585	0.00022366567	0.0011584589	-0.00075695023	-0.00030314084	0.0010491388	-0.00088268006	-2.4935289e-05	0.00032102695	0.00031058386	0.0014969525	-0.00027015308	-0.0010012884	0.0002246204	0.0003873489	-0.0010818676	0.00010974897	0.0006195307	3.626704e-05	0.0002388409	3.1119358e-05	0.0005526643	0.00010299933	0.00062079553	1.204334e-05	0.00010087359	2.1708023e-05	-0.0004265997	0.0012217162	0.00015397492	0.0006452751	-0.00014151886	-0.0004906164	-0.0001491979	0.0007147251	-0.00083833147	8.598891e-05	-0.00015246682	-0.00020924132	-0.00040800113	-0.0005573564	0.0008308695
P-chart_5	2.9082814e-06	-0.00010852267	-0.00050793483	-0.00033323068	0.0007467676	7.173361e-05	-0.00041927362	0.0003026082	0.00021811134	0.00035913725	2.2215888e-06	4.442602e-05	0.00048804292	0.00045286375	0.0004163132	0.0003024834	0.00049397897	-0.000601422	9.023656e-05	-0.00042410122	4.4535467e-05	0.000280177	0.0007566255	-0.00015778422	-0.00036736176	0.00017597801	-0.00028828572	2.3245033e-05	-5.671485e-06	-0.00040614148	-0.00037088734	0.00042755567	-0.00019896094	0.00035099915	5.6330857e-05	0.00016697026	0.0003771471	-0.00052585214	0.00036991452	-0.00041372163	-4.1822346e-05	-0.00017830475	-0.00026883636	-9.229859e-06	0.00043164616	-0.00027566132	-0.00030082636	-0.00030055075	-9.804768e-05	0.00013970867	-9.011458e-05	-0.0005986413	-0.00035995178	-0.00029318477	-0.00056908635	-0.00024276381	-0.0007033547	0.0005300707	-0.0004530032	-0.00026397168	0.00060501526	0.00043761695	0.00032318	-0.00011394137	8.811075e-05	0.00062196556	0.00023386914	0.00077454385	0.00039628948	-0.0004878146	0.000108141845	-0.0006438289	0.000529597	-8.5280095e-05	-3.5884976e-05	0.00042678005	0.0005558667	0.00023660573	0.00028939496	0.00010482161	-0.00048409632	0.0002488563	0.000743501	0.0004261666	0.00014244654	-7.97062e-06	0.0002811405	-0.000102278704	1.7060402e-05	2.1630047e-05	-0.0004917942	0.0007594377	-2.8318362e-05	-0.0002772104	-0.000109292974	0.0004704316	-6.7366236e-05	4.2203676e-05	0.00039976797	0.00063532265	1.3068894e-05	0.00010887825	0.0001859259	-0.00033524548	0.00028265064	-0.00032039953	0.00035161257	-0.0005193761	-0.00012342754	-0.00023707331	0.00016583831	-0.00024495536	0.0006224703	0.00021460763	7.502566e-05	0.00028471043	0.0004199764	0.00012570515	0.00042308043	-7.5938326e-05	0.00036201123	0.00029945665	-0.00015704769	0.00016990739	-0.0004280739	5.9137365e-05	-0.00033780135	0.0004543074	-0.0003520093	-0.00027363567	-8.130255e-05	-0.00045214256	0.00014521787	-0.00011130405	-0.00019313414	0.00044271516	0.00020923601	0.0005382234	0.0002783666	3.646884e-05	0.00025075604	-0.00022588822	-0.00040086787	0.00024455265	-0.0002241079	0.00015571756	-0.00012617577	-0.00026456383	-0.00059677055	-0.00032039447	-0.00055654737	5.7042882e-05	-0.000111137786	-9.381298e-07	-0.00055671413	7.609975e-05	7.267475e-05	-0.00041069134	0.00032622414	3.731041e-05	0.0003347462	6.240903e-05	-0.0003251951	-0.00018736662	-0.00013735758	0.00014880246	-0.00034969524	-0.00019098735	0.00026037623	0.00015530734	-0.00021559828	0.0003136364	-0.0005293092	-5.761549e-06	-0.00024014893	-0.00046098288	0.00034756685	-0.00021494743	-0.00042024074	-3.05228e-05	-0.00069069513	0.0002486261	-0.00091814453	-0.0005839886	7.229061e-05	-0.00048222108	0.00014204622	8.092346e-05	-0.000103694096	-0.0003458916	0.0003022709	0.00018933963	0.00013802291	0.00013830351	-0.0003650786	0.00016139977	0.0003759771	-0.0005180563	-0.00024827564	-0.0006508348	-0.00029947722	-0.0005008336	-0.00015922957	6.3749176e-05	0.00025657416	-0.00034569492	-0.00018293112	-0.00036191483	-0.00043754428	-7.93591e-05	-2.6388595e-06	-8.7636814e-05	0.00037423446	-0.00012060441	0.00024853685	0.00065425725	0.000244287	0.00036506777	-0.00041779797	-0.00041542188	-0.00015440948	-0.000103871665	-0.00055522594	-0.00010721337	7.003959e-05	0.00037086313	-0.00021066546	-4.9473863e-05	0.0005356725	0.0003460976	-0.0001327015	-0.0006547047	-2.0694619e-05	-0.00075910223	-0.0001864185	-0.00031844052	0.00052363804	0.0007845981	-0.00019456029	0.00016259763	-0.0001624128	-0.00020014188	0.000376862	0.00020466586	-0.0005271137	0.000341064	0.00082224724	5.632324e-05	-0.00022596148	-0.0004981615	0.00033007012	9.339391e-05	0.00021355452	-0.00030473177	0.00067680125	-0.00021644431	-0.0003594917	0.00014212886	-0.00044869925	0.0001744498	0.00017705033	0.0004388691	-3.38722e-05	0.00018560168	0.0008159626	-0.00030736762	0.00042779572	-0.00030947936	0.0005231813	0.0005019322	-0.00011050003	0.0003660142	0.00032098693	-0.0007839272	0.0003601444	-0.00036941777	0.00030931327	-0.0005112929	-4.2045383e-05	-0.00069571496	-0.0002964937	-0.0005801052	0.00011139765	0.00016218719	0.00038894123	0.0005037926	-0.00017528293	5.9962567e-05	-0.00042042494	-0.0004406979	0.00025766977	0.00021472928	-0.000120854646	-0.000734131	-0.00027654003	-0.00023905991	-0.00052791164	0.00010950482	-0.000490334	0.0006538419
P-chart_6	4.1019845e-05	-5.7978825e-05	-0.000549005	-0.0004441944	0.0007905154	9.546209e-05	-0.000535894	0.00041591562	0.00021572466	0.000363649	-3.8048176e-05	1.0402982e-05	0.0006318688	0.00046256458	0.00044598742	0.00040666325	0.00049588043	-0.000685491	0.00016478373	-0.00049842236	0.00017351372	0.0002755765	0.0006732815	-5.293914e-05	-0.0004404908	8.3807485e-05	-0.00027350182	9.29418e-05	-6.0802155e-05	-0.00052496063	-0.00046789233	0.0005519413	-0.00013767231	0.00033790333	7.945772e-05	3.377972e-05	0.00054460793	-0.0003998535	0.00035795907	-0.0003758926	-0.0001119093	-0.00022378082	-0.000320264	-2.0637906e-05	0.00039881968	-0.00020878074	-0.00028050042	-0.00031876395	2.6933158e-05	1.8733463e-05	-0.00011456962	-0.0005873793	-0.00042535615	-0.00024021753	-0.00058238476	-0.000237418	-0.0007512458	0.0005414725	-0.00036734273	-0.0002655959	0.0005578009	0.00041820947	0.00022149146	-0.0001020482	0.0001555257	0.00056347076	0.000265581	0.0009435159	0.00044696417	-0.00048744754	1.1063564e-05	-0.0007723593	0.000544983	1.0635952e-05	0.000119860626	0.00047301533	0.00050873513	0.00034728035	0.0002507018	5.858822e-05	-0.0004154889	0.00030603557	0.0007852249	0.0002990275	0.0002704434	-0.0001234374	0.00033727352	-5.8206337e-05	0.00013123803	-9.157661e-05	-0.0005996933	0.00080229965	1.8988158e-05	-0.00024824444	-9.251159e-05	0.0005504074	-5.717152e-05	9.569476e-05	0.00045020704	0.00072461664	2.664194e-05	0.00013473428	0.00026488616	-0.00030323525	0.00015878727	-0.0004003564	0.00047013743	-0.00058851886	-0.00014291951	-0.00022905302	0.00011119705	-0.0002972459	0.0006792017	0.00019554648	0.00013381089	0.00027680185	0.0004795297	0.00019582959	0.00029870853	-2.006944e-05	0.00044480618	0.0005082976	-0.00010698558	0.00023716375	-0.00041532784	0.00010652123	-0.0003100967	0.00036170727	-0.00040853207	-0.0004132361	-0.00017912331	-0.00047595738	0.00021034821	-0.00014594848	-0.00031064247	0.0004281357	0.00024076752	0.00041784256	0.00028716677	7.2761395e-05	0.00017750842	-9.330493e-05	-0.00036259176	0.00029291766	-0.00037752007	0.00013035008	-0.0002961322	-0.00029315898	-0.00065838004	-0.00029119826	-0.0006091674	0.0001843354	-0.0001536799	0.00015252779	-0.0005716229	0.00017644967	-0.00010353893	-0.00044816206	0.00028352067	0.00013112662	0.00042196087	-1.2033634e-05	-0.00037341384	-0.00016126884	-0.00014468838	0.00014610685	-0.00038727917	-0.0001623066	0.00023106828	0.00017632672	-0.00021749357	0.00024717694	-0.00058170996	-3.7623668e-05	-0.0003301055	-0.00028958736	0.00032976785	-0.0002950404	-0.00055716693	-4.4297547e-05	-0.00080025353	0.00021059772	-0.0009794213	-0.00050802215	0.00011904937	-0.00047290133	0.0002928195	-1.0483263e-05	-0.00019171176	-0.0004404366	0.00028877833	0.00032325712	8.3898965e-05	0.0001682349	-0.00039514256	0.00016218855	0.0004313198	-0.00048863766	-0.00021418954	-0.00070651004	-0.00044916163	-0.0005031905	-0.00018664585	5.8513113e-05	0.0002267793	-0.00044365443	-0.0001755349	-0.0005007744	-0.00044382797	-3.194115e-05	-3.5039284e-05	-7.617297e-05	0.00034895516	-9.079259e-05	0.00022784305	0.0007296423	0.00021961374	0.00042962475	-0.00040622943	-0.00048746157	-0.00022423851	-0.00018116517	-0.00054825156	-0.00012078389	2.0007956e-05	0.00037122026	-0.00032374222	-5.559954e-05	0.0005265008	0.000446349	-0.0001452448	-0.0006783065	7.385282e-05	-0.0008987515	-0.00026499215	-0.0003408582	0.00048357752	0.0008196368	-0.00027313482	0.00024922527	-0.00017538795	-0.00020669599	0.00038546592	0.00030679608	-0.0005385608	0.00043166897	0.0007783925	4.6215337e-05	-0.00031594248	-0.00058352225	0.00040578705	3.169629e-05	0.00024674647	-0.00047556436	0.000705703	-0.0003159121	-0.00035768616	4.6308258e-05	-0.00039272656	0.00012134869	0.00022489514	0.0005270576	-7.62782e-05	0.00018700155	0.0009616553	-0.0003096425	0.00037659242	-0.00032877986	0.0007120564	0.0004949901	-0.00012767254	0.0003831792	0.00042825314	-0.0008589707	0.00024156936	-0.00043121484	0.00029141444	-0.0005229095	-2.975424e-05	-0.0007654057	-0.00027900317	-0.00065796287	0.00015245282	0.0001223127	0.0004113667	0.00060849823	-0.000147164	8.891047e-05	-0.00038750967	-0.00047293902	0.00015635247	0.00028227334	-7.728981e-05	-0.00075336965	-0.0002876872	-0.00028390746	-0.00062514696	2.609811e-05	-0.00048412618	0.00073650654
P-chart_7	6.696944e-05	-4.753463e-05	-0.0005699694	-0.0003422396	0.00077676063	9.568914e-05	-0.00062752824	0.0004916092	0.00032312574	0.00047703442	3.9996492e-05	0.00012538489	0.0006297172	0.00064878527	0.00040046455	0.00040937078	0.0004887337	-0.0008276104	0.0001913114	-0.00047208197	0.00015836276	0.0001703644	0.0006189285	-4.208201e-05	-0.00047384886	0.00014474103	-0.00034258192	0.000133209	-1.4586014e-05	-0.00057281286	-0.00042977664	0.00067667087	-0.00021245386	0.00032499252	-6.131557e-05	6.581839e-05	0.0005502706	-0.0005661202	0.00039094308	-0.00047092434	-0.00017740889	-0.00025910468	-0.00047270092	-0.00012156629	0.0005043923	-0.00022048487	-0.00023382853	-0.000267399	-3.4147775e-05	-1.1244939e-05	-0.00014080058	-0.0006286918	-0.0003654252	-7.282685e-05	-0.0006330867	-0.0003230054	-0.0007788991	0.0005120239	-0.0004258394	-0.00039885912	0.0006134781	0.00035407982	0.0003220741	-0.000104075465	5.3802145e-05	0.00052879995	0.00023965068	0.001013749	0.0003912334	-0.00046733877	-5.4994038e-05	-0.0007053297	0.00053548557	1.9955502e-05	0.00015147182	0.00046684677	0.0005467936	0.0003508234	0.00025942805	9.988755e-05	-0.00052062207	0.00029320488	0.0008312425	0.00031488316	0.0003932248	-6.899891e-05	0.00032325392	-7.194459e-05	0.00030922442	-7.7571756e-05	-0.00052425655	0.0009504311	3.5301695e-05	-0.00017167618	-9.598583e-05	0.00059572683	0.00015718715	9.613748e-05	0.00049336755	0.0009366273	0.00012559566	0.00020766172	0.00024986322	-0.000409584	0.00020955232	-0.0004221084	0.0004470228	-0.00073202746	-0.00019348974	-0.00031848546	1.7026792e-05	-0.00037459735	0.0007903143	0.0001381656	0.0001418394	0.00025583978	0.0006004126	0.00011830901	0.00024871668	6.7834444e-05	0.0003682789	0.00050948677	-0.00015654191	0.00027183542	-0.00033511975	9.756341e-05	-0.0003154622	0.00029200048	-0.00042466895	-0.00038661918	-0.00027637804	-0.0004661799	0.00022654714	-8.498387e-05	-0.00037247594	0.0005268566	0.0001838505	0.00052706467	0.0003774946	8.275948e-05	0.00019454173	-6.1507955e-05	-0.00037699085	0.00029071205	-0.00038035773	8.803158e-05	-0.0002721282	-0.00022035425	-0.0006830428	-0.00043978472	-0.00063370605	0.00026525583	-0.00015451184	0.00042512055	-0.0005409072	0.00023448092	-9.655283e-05	-0.0004977559	0.00039049314	9.23165e-05	0.0006795493	-8.221e-05	-0.00025380464	-0.00019364957	-0.00021657275	0.0003164304	-0.00050161564	-9.6352574e-05	0.00017892326	0.00026008155	-0.00037162186	0.00032034228	-0.00067693094	-0.00016470338	-0.0004396027	-0.00025646616	0.00040718372	-0.00016069293	-0.00054226816	0.00016945697	-0.0009211806	0.00030648816	-0.0009936793	-0.000652206	0.00011720316	-0.00044311353	0.00016824575	1.3298435e-05	-0.00018562356	-0.00034040134	0.00033154374	0.0002650739	0.0001416372	0.00025112473	-0.00044393074	0.00017345003	0.00032922594	-0.00042858373	-0.00020200538	-0.0006749004	-0.00047511328	-0.00059006596	-0.00039894631	-3.69269e-05	0.0002736842	-0.00046126085	-9.944787e-05	-0.0006241666	-0.00056194887	8.8311004e-05	0.00020701837	-0.00026687497	0.00032874598	-3.3829583e-05	0.0001826083	0.0008127408	0.000257441	0.00045284288	-0.00050485175	-0.00049235165	-0.0002440477	-7.44291e-05	-0.0005287061	-0.00022419458	-0.00010022265	0.00046909272	-0.00033699	-0.00015493964	0.00060981617	0.0005738611	-0.0001658292	-0.0007401864	9.6863114e-05	-0.0009618226	-0.00024854447	-0.0004561595	0.0005092122	0.00084376486	-0.00023205964	0.00015336301	-0.0002939072	-0.00030332507	0.00051088	0.00039936486	-0.00039587956	0.00041186908	0.0009348154	8.1742466e-05	-0.0003587005	-0.00072511483	0.0002875553	-7.948625e-05	0.00018174281	-0.00047113342	0.00082865	-0.00019444429	-0.00041481754	-2.0870855e-06	-0.00039250182	0.00020877915	0.00027712187	0.00045650086	5.235921e-05	0.00013877913	0.0008563438	-0.00037003163	0.00044084355	-0.00039188607	0.0007394103	0.0005424159	-6.45281e-05	0.000286682	0.0005590756	-0.0008803735	0.00020943412	-0.0004389215	0.00035707268	-0.00061931636	-1.0814407e-05	-0.0007250598	-0.00030864912	-0.00057091616	0.0001816063	0.00026594166	0.0004671919	0.00073753175	-0.00021452046	6.4171785e-05	-0.00033458346	-0.00062528596	0.0002582798	0.0003159101	-0.00014994733	-0.0008422476	-0.0002805861	-0.00029192326	-0.0006420093	0.00021898837	-0.0004912479	0.0008025808
P-chart_8	9.8583536e-05	8.184455e-06	-0.00058879214	-0.00037983272	0.00075986603	0.00010210551	-0.00069543975	0.000448293	0.00031347063	0.0004188273	1.4342646e-05	0.00012580887	0.00069057907	0.00067973934	0.00045600938	0.00041259502	0.000502961	-0.00084877014	0.00022926371	-0.0005373427	0.000121294135	0.00025632652	0.0007357789	-2.3159391e-05	-0.0005237691	0.00020564997	-0.00045166377	0.00015155238	-3.474969e-06	-0.0005817746	-0.0004972095	0.00066314114	-0.00018015427	0.00033872746	-2.7042694e-05	6.270043e-05	0.0005154135	-0.000593548	0.00046733307	-0.00048248994	-0.00017784566	-0.0002713317	-0.0004828999	-0.00011696405	0.00050198176	-0.00024003338	-0.00017997995	-0.0003012106	-5.441222e-05	-2.0982669e-05	-0.00016858197	-0.00069131213	-0.00037291774	-2.3742112e-05	-0.0006949174	-0.00031404296	-0.0007889762	0.00049249193	-0.00043802496	-0.00046938437	0.00063543	0.00043877654	0.00025898512	-5.8434325e-05	8.52398e-05	0.0005983674	0.0003189437	0.0010724824	0.000423459	-0.0005022326	3.8094445e-06	-0.0007849823	0.0005431667	9.200671e-05	0.00016457104	0.00051181484	0.0005317905	0.0003559701	0.000318159	8.7940665e-05	-0.00057141954	0.00021001471	0.00087968115	0.00033947147	0.00043900992	-4.7294772e-05	0.00033227683	-0.00010277472	0.00029948057	-1.2581128e-05	-0.0004744496	0.0010021513	-4.7433234e-05	-7.823209e-05	-0.00012435636	0.000641371	0.00011086096	5.7493366e-05	0.00054372806	0.0009415554	0.00011550048	0.00022769286	0.00031181035	-0.00038389867	0.00015508526	-0.0004450201	0.00051485165	-0.0008318528	-0.00021566455	-0.00039370736	-4.44346e-05	-0.00041944435	0.00085802685	0.00015135751	0.00015659742	0.00025771314	0.0005926491	0.000101675396	0.00027082578	3.8894745e-05	0.00034054578	0.00049001153	-0.00017493527	0.0001889556	-0.00032855815	0.00011908672	-0.00033227736	0.00033864717	-0.00042238127	-0.00046391095	-0.00029598363	-0.00046336482	0.00026277854	-9.405772e-05	-0.00039994775	0.00054122065	0.0001974491	0.00050369557	0.0004177415	0.00015194762	0.00020778763	-7.5330754e-05	-0.00039060682	0.00033605017	-0.0003457636	7.2722025e-05	-0.0002164418	-0.00029465716	-0.0007364868	-0.000393427	-0.00071095553	0.00032785532	-0.00012800908	0.00033426512	-0.0005522717	0.00027710694	-8.2907274e-05	-0.0005768841	0.00044985992	7.718646e-05	0.0006830779	-0.00010833669	-0.00027944412	-0.00017391994	-0.00019868616	0.000267825	-0.0005359467	-0.00011524374	0.00017918891	0.00032462878	-0.00037630455	0.00033961487	-0.00066492386	-6.984512e-05	-0.00044514317	-0.00027604276	0.00036283533	-0.00017661728	-0.00058039714	0.000100957426	-0.0009427045	0.00028629586	-0.0010858552	-0.0006132997	6.969095e-05	-0.00041129414	0.00018769811	-1.0401834e-05	-0.00015532062	-0.0003719983	0.00032817328	0.00029891307	0.00011752657	0.00029402485	-0.00041770985	0.00017251284	0.00036604435	-0.00053094176	-0.00014092517	-0.0007035378	-0.0004800658	-0.0006065727	-0.00037665167	4.7099522e-05	0.00034132533	-0.00041355912	-7.165787e-05	-0.0006391977	-0.0006260519	0.00012796349	0.00014897056	-0.00030720106	0.0003808694	-6.533485e-05	0.00016680818	0.00084675424	0.00025089897	0.00048385782	-0.00044688146	-0.00050079543	-0.00032664777	-0.00014633141	-0.0006264608	-0.00023218693	-9.5900265e-05	0.0004858335	-0.00037103755	-0.000112595524	0.0006583676	0.0006241982	-0.00013189406	-0.0007408044	0.00010010337	-0.00094053306	-0.00024218146	-0.00037448632	0.0005757946	0.00087761844	-0.00028143404	0.00022951927	-0.0002727725	-0.00031587406	0.0004998526	0.00037161095	-0.00048770738	0.0004458044	0.0010114515	-9.789802e-06	-0.00032891188	-0.00074832654	0.00030282245	-7.8613644e-05	0.00022144988	-0.0005043804	0.00083097926	-0.0002564046	-0.000400434	-1.0841313e-05	-0.00042648532	0.00022495179	0.00027515454	0.0004063711	4.3642744e-05	0.00023596581	0.00086362235	-0.00041832376	0.0004983486	-0.00034744138	0.0007786145	0.0004903377	-0.000102298865	0.00030330522	0.0004996223	-0.0009382438	0.00022619954	-0.0005279951	0.000351458	-0.00065112027	-8.020733e-05	-0.0007559153	-0.00031217534	-0.00061541726	0.00024504715	0.0002945768	0.00051781454	0.00066738547	-0.00020115427	7.149128e-05	-0.0003135095	-0.0006317415	0.0002537092	0.00025855942	-0.0001236697	-0.00088537496	-0.0002941616	-0.00032232152	-0.00067197584	0.00015857694	-0.0005590596	0.0008132788
P-chart_9	0.0005374473	-9.2279384e-05	-0.0010742871	-0.00047662784	0.00050320616	-5.3279568e-05	-0.0006643209	0.00052435946	-3.2723823e-05	0.0004977132	8.0509475e-05	9.950889e-05	0.00046587756	0.0006634144	0.00053387234	0.000724634	0.00015007598	-0.001125309	0.00059576915	-0.0004696933	-0.00014545229	0.0004879268	0.0011539847	-0.00025705775	-0.00025111414	4.3052692e-05	-0.0010426787	0.00048266276	-1.3431796e-05	-9.1163645e-05	-0.0010490615	0.00076385593	0.0001302528	2.3683126e-05	0.000114343115	-0.00028665966	0.00041594903	-0.00014651535	0.00046558105	-3.205941e-05	6.3725965e-05	-0.00031945578	-0.00018273084	-0.00010035635	0.00025629942	-9.5668656e-05	-0.0006142509	0.00022115748	-0.00014267329	-0.000246468	-9.865018e-05	-0.000653884	-8.246125e-05	-0.0003124528	-0.0009369034	-5.071066e-06	-0.001033472	0.0006109079	-0.00031552312	-0.0006425927	0.0005304729	-4.9381983e-05	0.0001245346	-0.00040029763	4.2788848e-05	0.0002835722	0.0009650875	0.0011602012	0.000115477866	-0.00068322127	0.00029477623	-0.0011925533	0.00022253062	0.00044888598	0.00043189616	0.00053992175	0.0006811407	0.00045974544	0.0006889057	0.0006449387	-0.00041242933	0.00016727264	0.0008344053	1.9372412e-05	0.0009728366	1.7250772e-05	0.000108839435	0.00036387282	0.00012423108	9.4607836e-05	-0.00036567316	0.0011863369	-0.00024827468	-0.00014700586	-0.00025902266	0.00056297344	-7.2206545e-05	0.0003310545	0.0010485529	0.0013154452	0.00016122762	0.00014354901	0.0004609447	-0.0006435196	-1.9920277e-05	-0.00046989974	0.0007379032	-0.00068153435	0.00026057696	-0.00033035682	-0.0005077112	-0.00072409405	0.0012590039	0.00036844474	0.0003131904	-4.5617984e-05	0.0009994743	-0.00023883434	-0.00018045791	-4.22675e-05	9.340999e-05	0.0005387997	-0.00032078754	-0.0002632208	-0.0003313041	-0.00022464746	-0.00033865712	0.00013101952	-6.603988e-05	-0.00022029315	-0.00057097664	-0.00071883656	3.2474527e-05	-0.00018760233	-0.000572839	0.00038545122	5.098927e-05	0.00018135604	0.0003857538	1.1658267e-06	7.627162e-05	0.00053669664	-0.00030357213	0.00045611899	-0.00039947158	0.00021914022	0.00027153	-0.00056745333	-0.0007821414	-0.00027155026	-0.0011769462	0.00041297302	-0.00051855016	-0.00013425999	-0.00057920546	0.00050369336	-5.041304e-05	-0.0006648089	0.0010115253	5.3216187e-05	0.0006795097	-0.0002704445	-0.00044494116	-0.00011041056	0.00024821318	0.0002701423	-0.00084530306	-0.00022851891	0.0003152877	0.000285907	-0.00034057768	0.00042773967	-0.00034010917	0.00014334216	-0.0011080385	-4.785625e-05	-0.00012057902	0.00011235477	-0.0006364562	5.2572497e-05	-0.000557026	0.00068585924	-0.0012489489	-0.00050806627	-1.0840682e-05	0.00019377496	0.00050564995	-0.00029404563	-0.0002748793	-0.00013972692	0.00021224689	0.00023902058	-0.00027582445	0.0003946125	-0.0006351362	7.929135e-06	0.00033614459	-0.00021418874	0.00043140355	-0.00038172444	-8.284309e-05	-0.00090916647	-0.0006643989	0.00039204123	-0.00011397514	-0.0005588861	-8.024025e-05	-0.0004453951	-0.0008730001	-0.00016028341	8.179882e-05	-0.00061478047	0.00056378037	0.00023665614	5.789264e-05	0.00042749464	0.00038218	0.00012566964	-0.00029609347	-0.0006194831	-0.0006615143	-0.00031162673	-0.00084641913	-8.030824e-05	-0.00048321424	0.0006634729	-0.0006691974	-0.0001557366	0.0005946923	0.0005128385	-0.00010121333	-0.00081778807	0.00014779413	-0.0010353159	-0.00019195306	0.00014628255	0.0008213147	0.0008624821	-0.00019075407	0.00072170474	-0.00055984594	-0.00013143208	0.00073402695	0.0005456881	-0.0004834744	0.0004979307	0.0009547329	-0.00012029538	-0.00033468977	-0.00062773016	0.00040927914	0.00020197014	-0.00027010916	-3.6554935e-05	0.0011592584	-0.0004405181	-0.000696759	0.0003586064	0.00016019735	-2.384738e-05	0.00086956995	-5.0180795e-05	0.00015962054	0.00047757747	0.00087897683	-0.00072793185	0.0004367677	-2.2844688e-06	0.00094956986	8.849861e-05	-0.00025966612	6.9080197e-06	0.00017238414	-0.0010484264	-0.0003956343	-0.00025545893	0.00015774327	2.2952707e-05	-0.00032536368	-4.8564078e-05	-0.00039320195	-0.00073551654	0.000810665	0.0002327731	0.00038997392	-8.573808e-05	0.00017840353	0.00019644777	-0.00027331765	-0.0006787068	0.0002492761	1.2325538e-05	-2.175523e-05	-0.000900295	-0.00039164867	-0.00067226414	-0.0007426455	0.00022385169	-0.00010939916	0.001104259
P-chart_10	9.421775e-05	-0.00025718618	-0.0005760687	-0.0005329388	0.00083338615	3.845601e-05	-0.00032946735	0.0004308438	0.00046212543	0.00060772005	0.00024622199	0.00016661221	0.0003910757	0.00044409803	0.0001347853	0.0004749546	0.00040285444	-0.0005697722	6.2640516e-05	-0.00052285945	0.0003362768	0.00012532719	0.00037490303	-0.00021395038	-0.00019607927	-2.651132e-05	-9.922216e-05	0.00022764535	-0.00016557163	-0.00036084017	-0.00032250446	0.00062424905	-1.0100827e-05	0.0003804374	1.990363e-05	0.00014262843	0.0006489708	-0.00036214342	4.0272836e-05	-0.00064141484	6.277761e-07	-0.00033696665	-0.00012348845	3.649777e-05	0.00030103396	-0.00018576757	-0.0003262149	-6.068819e-05	1.9371277e-05	-6.884648e-05	5.3665695e-05	-0.00058881484	-0.00019660965	-0.00021315237	-0.0006434503	-0.00032680595	-0.00086171716	0.0006609676	-0.00035786626	-0.00012454073	0.0005735992	1.9098097e-05	0.00044081025	-0.00026603785	-8.752335e-06	0.0003260689	0.00013957205	0.0007543797	7.365242e-05	-0.0005772123	-0.00021834827	-0.00059360353	0.0006799595	-0.00032989008	-1.2703615e-05	0.0004988357	0.0005511642	0.00029357627	3.782972e-06	3.034627e-05	-0.00026760288	0.0003989958	0.000790935	0.00010900995	0.00026459445	-0.00035102697	0.00021960065	-2.461207e-05	8.1064536e-05	-0.00018119457	-0.0007040385	0.0005523194	0.0002530984	-0.00017507479	-0.00016813172	0.00041820458	0.00033543166	0.0003282716	0.000297727	0.00094584527	0.00033310507	-3.390761e-05	-5.0201994e-05	-0.00042497212	0.0003125172	-0.000402873	0.00040731372	-0.00044273573	6.4171554e-06	9.755848e-05	0.00010033693	-0.00013761365	0.00056800176	0.0001536742	1.575417e-05	0.00019217549	0.00065408915	6.990857e-05	0.00012526868	-5.2348823e-06	0.00041787553	0.00052932516	-0.00017393875	0.00043080375	-0.00029860623	0.00014926457	-0.00037456708	0.0002234487	-0.0003634356	-0.000290965	-0.00022899621	-0.00044878668	-5.468779e-06	-0.00027997425	-0.0002432293	0.0006690054	0.00019470282	0.0006038121	0.00024064419	6.8266585e-05	0.000113511735	-2.7863296e-06	-0.00021175703	0.0001685012	-0.00042663873	1.8450795e-05	-0.00028007105	-9.871921e-05	-0.00054570165	-0.0004515587	-0.00064345857	6.6216776e-06	-0.00032102413	0.0005127617	-0.0005313062	0.00016101988	3.7579106e-05	-0.00049017783	0.000101272	-0.00012321632	0.0004441353	-6.367604e-05	-0.0003688326	-0.00014299601	-8.512161e-05	0.00048349262	-0.00037776833	-8.007394e-05	0.00021854542	0.00015594775	-0.00047350567	0.00014323957	-0.00063228485	-0.00055630057	-0.00039227496	-0.00020458322	0.00034844433	-0.00027194794	-0.0004232537	0.00022275798	-0.0008122844	0.00030364798	-0.00077959825	-0.0008043558	0.0005670742	-0.0005151215	8.545393e-05	-2.2273403e-05	-0.000375964	-0.00021252196	0.00047675465	0.0002952673	-2.0441219e-05	1.829407e-05	-0.00061082956	0.0004222151	0.00019624393	-6.0217306e-05	-0.00039144215	-0.00042216733	-0.0004629999	-0.0005763579	-0.00047605453	-0.00011570094	-4.5066514e-05	-0.00054041704	-0.00048091778	-0.00073369883	-0.00017139938	-0.00021456854	0.00014228144	-0.00013252872	0.00021097912	4.0988107e-05	0.00016663808	0.00086975656	0.00028248117	0.00038025095	-0.00078808615	-0.00029194602	-0.00014826388	-0.00025176883	-0.0003603605	-0.00018925269	-0.00020881963	0.00039479346	-0.000335824	-0.0002648463	0.00046567761	0.00019572796	-0.00041343868	-0.0008249741	-1.856858e-05	-0.00089758344	-0.00017290309	-0.00067046547	0.0004582172	0.0005089978	-0.00014066252	6.4171094e-05	-0.00043850564	-0.00020556571	0.0005620305	0.00041096067	-0.0003041959	0.00041652893	0.0006704173	0.00046146722	-0.00016993622	-0.00054597086	0.00022738891	3.9181865e-05	6.7597543e-06	-0.00044653207	0.0009049942	2.629205e-05	-0.00016653213	3.6605627e-05	-0.00032182114	0.00016093234	0.00038695722	0.0005524768	0.00014629746	-0.00014334603	0.0008303073	-0.00019412691	0.00027003797	-0.00039018565	0.00060266827	0.00050058914	-4.8044283e-05	0.0002398916	0.00063299976	-0.000637238	0.00010289168	-0.00031274636	0.00030831483	-0.0005452072	3.3505665e-05	-0.0004940239	-0.0003711861	-0.00054753857	-4.602428e-06	-7.728893e-05	0.0002293666	0.00091032113	-0.0003335793	-0.00013431671	-0.00043577907	-0.0007529712	0.00014484901	0.00024173371	-0.00033720484	-0.000797202	-0.00040649378	-0.00026849343	-0.00051156007	0.00044069192	-0.00035343957	0.00064917805
P-chart_11	-0.00013773794	6.42532e-05	-0.00065630046	-0.00041773164	0.0008489486	0.00017664327	-0.0006893457	0.00058227306	0.00035460567	0.0006020173	0.00015738656	7.018929e-05	0.0006371596	0.0006052752	1.0473555e-05	0.0003813529	0.00054902927	-0.00060467474	8.3264844e-05	-0.0005691347	0.0005174219	0.00011766306	0.00039649848	-0.00025857435	-0.00041465793	0.00018567599	-7.702824e-05	0.00013589459	-0.00036374776	-0.0006700252	-0.00017089566	0.0006699295	-0.00025647596	0.00025703956	-6.41674e-05	0.00015398032	0.0007401391	-0.0005471723	1.0270052e-05	-0.0007511276	-0.00014758793	-0.00036908773	-0.00058716856	-0.00013275452	0.00056075444	-0.00021205239	-0.00012012222	-0.00013945792	0.000106890846	-4.984914e-05	-0.00017246728	-0.000516355	-0.00032581564	-0.00030581743	-0.00057103694	-0.00048669495	-0.0008953034	0.00049810664	-0.00049300736	-0.0003524329	0.00064828584	0.00023336333	0.0005208234	-2.3166034e-05	-0.00018095381	0.0007157974	2.9032222e-05	0.0009807947	0.00046432595	-0.0005368734	-0.00017014542	-0.00065238116	0.0006566277	-0.0003750661	0.00012799774	0.00042066324	0.0004999781	0.0004111817	0.0002562144	7.520598e-05	-0.0005207095	0.0004335133	0.00089654553	0.00016539652	0.00043013037	-2.8744376e-05	0.0005243409	-1.678478e-05	0.0003750788	-0.00032716157	-0.0007645169	0.00067744346	0.0001834828	-0.00035097328	-7.4391966e-05	0.0006119339	0.00031467958	0.00028707882	0.0001975255	0.00088501745	0.0002544913	0.0002018529	-8.372282e-05	-0.00035571872	0.0001603032	-0.0005852632	0.00043914022	-0.0007046522	-0.00026331394	-0.00014712874	0.00022439218	-0.0003542461	0.0006048171	-2.8659593e-05	0.00016604633	0.00017694151	0.00052743376	0.00010386681	0.00024897463	0.00014887044	0.00038602712	0.0005288349	6.488751e-05	0.00049568753	-0.00026455926	9.2290255e-05	-0.00025397385	0.00031812774	-0.0005232654	-0.0002013421	-0.00015633018	-0.00061535527	0.00020745162	-9.113157e-05	-0.0003421162	0.0005990973	8.3828825e-05	0.000470685	0.0004210942	-2.1805126e-06	7.0615555e-05	-0.00018448589	-0.00039415216	0.0003077083	-0.00037561276	0.0002383018	-0.00046812824	-9.4555624e-05	-0.00061886176	-0.00058358983	-0.00046889062	-7.769684e-06	-0.00020308646	0.00071049767	-0.0005806665	0.00020794166	6.052351e-05	-0.00046700283	0.00038076134	1.3213072e-05	0.0006375114	-0.000318406	-0.00013447125	-0.00030630358	-0.0003883491	0.00033338286	-0.0005005163	1.8381801e-05	0.0003182866	0.00010165827	-0.0004960616	0.000119826764	-0.0008454149	-0.0004636751	-0.00045132622	-0.00029062963	0.00056045863	-0.00034831886	-0.00068022567	0.00020531916	-0.0010285553	0.00037906473	-0.0010270228	-0.0007458822	0.00043600317	-0.0005050074	0.00024170858	-2.6029467e-05	-0.00029913743	-0.00041047248	0.00061137916	0.00030968388	0.00025099708	0.0002723338	-0.0005688547	4.5165812e-05	0.0002549028	-0.00013220441	-0.00047571745	-0.0007083046	-0.00057349756	-0.000655691	-0.00041825578	-0.00017484327	-5.0912768e-05	-0.0007220166	-0.00022899754	-0.00054732186	-0.0003813428	0.0001321126	0.00010374964	-0.0002973918	0.00037745226	8.593821e-05	0.0003853443	0.0010528666	0.00015664464	0.00046643784	-0.0008314133	-0.000344951	-0.00016715952	0.00011880643	-0.00034657118	-0.00026632007	-4.0746876e-05	0.00060187536	-0.00047803915	-0.00052131654	0.0007123001	0.0006271009	-0.00025964147	-0.0006967307	3.0280486e-05	-0.0012136181	-0.00025520872	-0.00086045545	0.00049424544	0.0008074132	-0.00020992647	-0.00019771358	-0.0005872081	-0.0004120189	0.0005238015	0.0005993077	-6.147458e-05	0.0003007441	0.000886233	0.00030827845	-0.00034988768	-0.0007395745	0.00011514658	-0.0002715998	0.00016849909	-0.0003672956	0.00079278863	-3.011685e-05	-0.00050155324	0.00010464842	-0.0003641088	0.00020491672	0.00021987331	0.0006294061	0.000117847965	5.331854e-05	0.00078535784	-4.3047483e-05	0.00042410128	-0.00046657713	0.00057007367	0.0008235879	-1.19959095e-05	0.00036040295	0.0008337548	-0.00077739306	0.00013703831	-0.00029420017	0.0004776698	-0.00060361944	5.1602794e-05	-0.0009502034	-0.0003355951	-0.00041259278	0.0001568727	0.00019132305	0.00037241663	0.00085373543	-0.00033106978	0.0002491659	-0.00043100616	-0.00089626317	-2.7164446e-05	0.0006172973	-0.00016093749	-0.00066444534	-0.00039308026	-0.0001326052	-0.0005153228	0.0005075692	-0.00035044167	0.0007768056
P-chart_12	-3.44832e-05	-7.2674244e-05	-0.0005321402	-0.00037708625	0.00083914323	0.00014267898	-0.00057563593	0.0006073253	0.0003584674	0.00045661934	0.00016465687	0.00017435558	0.0005886985	0.00058390346	0.00032241896	0.00048463483	0.00047548383	-0.0008046563	0.00017832621	-0.0004184886	0.0002987342	0.00013121626	0.0005235126	-9.448007e-05	-0.00045121394	7.1630755e-05	-0.00017976355	0.00016470482	-1.0062318e-05	-0.0006054403	-0.00037330695	0.0006850363	-0.00020317305	0.00024069517	1.7006516e-05	7.585337e-05	0.00059761124	-0.00055466575	0.00026619268	-0.00052189454	-0.00020326543	-0.00028763709	-0.00045052794	-0.00012264555	0.0005751053	-0.00019142526	-0.00028153736	-0.00019898792	5.9447724e-05	-8.569496e-05	-6.687037e-05	-0.0006176852	-0.00039879428	-0.00016200925	-0.00060662767	-0.00035062296	-0.0008059099	0.00054625917	-0.00046367623	-0.00033674255	0.0005962621	0.00026736653	0.0004394049	-0.00012586382	3.4891647e-05	0.0005686543	0.00019326611	0.0010489224	0.0004038681	-0.00047664958	-9.580817e-05	-0.00068767875	0.0004997548	-4.4899007e-05	0.00012833386	0.00045822604	0.000571086	0.00037660397	0.00016672982	9.032169e-05	-0.00043660437	0.00035181944	0.0008629028	0.0002716332	0.00040175064	-9.3551185e-05	0.00036040443	2.902198e-05	0.0003249966	-0.0001677614	-0.00061392924	0.0008242968	0.00012668385	-0.00021850751	-8.076516e-05	0.0006113253	0.00022562404	0.00014679566	0.0004502855	0.0009779048	0.00019978	0.00018169238	0.0001692111	-0.00042909884	0.00020332752	-0.0004388034	0.0004190015	-0.00071390317	-0.0002312474	-0.00020990065	9.674457e-05	-0.00026188168	0.0007896987	0.0001039193	0.00013626646	0.00031097376	0.0006595485	0.000116685784	0.00021416167	9.3776216e-05	0.00038950567	0.0005645116	-9.1294154e-05	0.00040210123	-0.0003708695	3.6785732e-05	-0.00036779197	0.00028089344	-0.00048244887	-0.00036144446	-0.00023262868	-0.00048714795	0.00023621513	-6.8214154e-05	-0.00041037466	0.0005563096	0.00024477192	0.00049275946	0.00037486068	3.5595487e-05	7.822216e-05	-1.2644017e-05	-0.00032062098	0.00024734755	-0.0004566773	0.00016803612	-0.00032557643	-0.00011331916	-0.00072845415	-0.00058489497	-0.0005724834	0.00017574264	-0.00020560445	0.0005580832	-0.0005593605	0.0001883785	1.08576005e-05	-0.00042878525	0.0004254793	6.841161e-05	0.0007217714	-0.0001668368	-0.00023014203	-0.00023465305	-0.00021466294	0.00037683637	-0.00044743143	-6.6205845e-05	0.0002901863	0.00020490798	-0.00044226836	0.00022880278	-0.0007783432	-0.00032783937	-0.0004489545	-0.00033118707	0.00047530973	-0.0002040878	-0.00055871747	0.00020795493	-0.0010230471	0.00035091554	-0.0009888152	-0.0006706851	0.0002623494	-0.0005216138	0.00021312435	4.689468e-05	-0.00026621035	-0.00028594854	0.00043144214	0.00024232644	0.0001758635	0.00028615582	-0.00047001435	0.00015283459	0.00029051534	-0.00038262998	-0.00026360952	-0.00071663037	-0.00048082843	-0.00062823895	-0.00044370137	-0.00014575974	0.00014022755	-0.00051830936	-0.00017997797	-0.0006579835	-0.00044220817	9.347661e-05	0.00022137052	-0.00027418777	0.0003085809	1.0270561e-05	0.00021565135	0.0008499446	0.00025802795	0.0004926489	-0.000602673	-0.00051113724	-0.0002529322	-7.4620635e-05	-0.0004593623	-0.00027213627	-0.00014661193	0.00048812307	-0.00033584185	-0.00025786713	0.0005959575	0.0005470877	-0.0001724759	-0.00072446687	6.639823e-05	-0.0010053489	-0.00021109667	-0.00060553977	0.00049510493	0.00081024657	-0.00014917532	-9.542976e-06	-0.00041441762	-0.00027412426	0.00051585305	0.00044076986	-0.00034973654	0.00038240605	0.00091435725	0.00022515388	-0.00042285147	-0.00078500615	0.00025228004	-9.073754e-05	0.00014893468	-0.00047568962	0.0008264486	-8.583891e-05	-0.00044670067	2.5626134e-05	-0.00031880144	0.00025098084	0.00028158593	0.00053176004	7.784941e-05	0.000101918755	0.00090280885	-0.0003057724	0.00040255167	-0.0004890397	0.0006636587	0.000690566	-4.9019254e-05	0.0002675004	0.0006767197	-0.0008592187	0.00012835895	-0.00040142654	0.00031012736	-0.0006109985	6.972424e-05	-0.0007956185	-0.000342513	-0.0005151813	0.00011248218	0.00028617994	0.00048608292	0.00084610557	-0.00022780673	4.976668e-05	-0.00044588934	-0.000666198	0.0001834888	0.00043227882	-0.00014563877	-0.000847887	-0.000267832	-0.00022356161	-0.0006017701	0.00026537888	-0.00040547308	0.00088949903
